<?xml version="1.0"?>
<opencv_storage>
<shapeML type_id="opencv-ml-ann-mlp">
  <layer_sizes type_id="opencv-matrix">
    <rows>1</rows>
    <cols>3</cols>
    <dt>i</dt>
    <data>
      400 20 7</data></layer_sizes>
  <activation_function>SIGMOID_SYM</activation_function>
  <f_param1>5.9999999999999998e-01</f_param1>
  <f_param2>1.</f_param2>
  <min_val>-9.4999999999999996e-01</min_val>
  <max_val>9.4999999999999996e-01</max_val>
  <min_val1>-9.7999999999999998e-01</min_val1>
  <max_val1>9.7999999999999998e-01</max_val1>
  <training_params>
    <train_method>BACKPROP</train_method>
    <dw_scale>1.0000000000000001e-01</dw_scale>
    <moment_scale>1.0000000000000001e-01</moment_scale>
    <term_criteria><epsilon>9.9999999747524271e-07</epsilon>
      <iterations>4000</iterations></term_criteria></training_params>
  <input_scale>
    1.7740960542419557e-02 -2.3305170894360236e-01
    1.1766650944097630e-02 -3.8188130791298669e-01
    1.0680607120600337e-02 -4.3741940980276833e-01
    1.0447309589598372e-02 -4.5208357860443865e-01
    9.4481279869457913e-03 -5.3296031053635118e-01
    7.8675944322702529e-03 -9.2408472786301510e-01
    7.9585659844354714e-03 -1.1869115906787626e+00
    8.1102834156984317e-03 -1.2972766972655811e+00
    8.2136818753594226e-03 -1.3582443028435265e+00
    8.1669340975928841e-03 -1.3315814821848033e+00
    8.2469708254123506e-03 -1.3764944032233706e+00
    8.3984050708276713e-03 -1.4536875686232624e+00
    8.2301094214562651e-03 -1.3673204516101203e+00
    7.9503015573719055e-03 -1.1795356492391773e+00
    7.8902278950244015e-03 -8.9625815953027177e-01
    9.6954653238648346e-03 -5.0945263247217043e-01
    1.1888660074565167e-02 -3.7665436690781462e-01
    1.2899962428114560e-02 -3.3891719470228254e-01
    1.4820192182241294e-02 -2.8629916715693410e-01
    1.8257820964159129e-02 -2.2573305919324013e-01
    1.3441796567603458e-02 -3.2199212686941009e-01
    1.0680607120600337e-02 -4.3741940980276833e-01
    9.3142974945780183e-03 -5.4700328922703634e-01
    8.0048684404679018e-03 -8.1649658092772603e-01
    7.9760812529117899e-03 -1.2018504251546629e+00
    8.3576733737386385e-03 -1.4337208778404373e+00
    8.4411743428544732e-03 -1.4741359920566766e+00
    8.8679807228754012e-03 -1.6583123951777001e+00
    9.0748821293902323e-03 -1.7390774117049643e+00
    9.3142974945780183e-03 -1.8281425718903583e+00
    8.9336641288398980e-03 -1.6844017639285407e+00
    8.7456353862766460e-03 -1.6084018533125140e+00
    8.8053552845146939e-03 -1.6329931618554525e+00
    8.7456353862766460e-03 -1.6084018533125140e+00
    8.2136818753594226e-03 -1.3582443028435265e+00
    7.8757491928847425e-03 -1.0954451150103324e+00
    8.2301094214562668e-03 -7.3135745086122728e-01
    9.8603911710047672e-03 -4.9526055654364853e-01
    1.1649266568747872e-02 -3.8707335735248610e-01
    1.7268722469176063e-02 -2.4019223070763068e-01
    1.1221001300792923e-02 -4.0752636542425208e-01
    9.2718871322247133e-03 -5.5167728436737040e-01
    7.8432813017949993e-03 -9.9395764860929359e-01
    8.2469708254123506e-03 -1.3764944032233706e+00
    8.8362955789955590e-03 -1.6455592266884003e+00
    9.2718871322247133e-03 -1.8126539343499315e+00
    9.1507936388847324e-03 -1.7677669529663689e+00
    1.0039463790395775e-02 -2.0790816831383250e+00
    1.0234416998030623e-02 -2.1431799595421399e+00
    9.8603911710047690e-03 -2.0191391920625676e+00
    9.8039215686274508e-03 -2. 9.6954653238648398e-03
    -1.9628910251133636e+00 9.8039215686274508e-03 -2.
    9.4950587937077096e-03 -1.8929694486000916e+00
    8.9677037828560114e-03 -1.6977493752543311e+00
    8.4860629696185980e-03 -1.4950900031928041e+00
    7.9503015573719055e-03 -1.1795356492391773e+00
    7.9853383877268591e-03 -8.2684549305644484e-01
    9.9781000444146561e-03 -4.8575205216218620e-01
    1.3441796567603458e-02 -3.2199212686941009e-01
    1.0102589391620868e-02 -4.7619932723231090e-01
    7.9074424766415984e-03 -8.7988269012811959e-01
    8.3777894031717565e-03 -1.4436454376101877e+00
    8.9336641288398980e-03 -1.6844017639285407e+00
    9.7489643855323844e-03 -1.9812554439870587e+00
    9.9781000444146561e-03 -2.0586634591635509e+00
    9.5432148867185141e-03 -1.9099443248282553e+00
    1.0039463790395775e-02 -2.0790816831383250e+00
    1.0763405190083045e-02 -2.3121751331060212e+00
    1.0447309589598372e-02 -2.2119803667431461e+00
    9.9781000444146561e-03 -2.0586634591635509e+00
    1.0522672835293128e-02 -2.2360679774997898e+00
    1.0039463790395775e-02 -2.0790816831383250e+00
    1.0102589391620873e-02 -2.0999609676310116e+00
    9.8039215686274508e-03 -2. 8.9004301522769974e-03
    -1.6712580435934672e+00 8.4195300411246017e-03
    -1.4638501094228002e+00 7.9204646977912921e-03
    -1.1506275079154986e+00 8.1238552506912934e-03
    -7.6585799045153369e-01 1.1123170302790909e-02
    -4.1256849850351734e-01 8.4633483843714833e-03
    -6.7360559186520308e-01 8.2136818753594226e-03
    -1.3582443028435265e+00 8.8053552845146939e-03
    -1.6329931618554525e+00 9.5926382156142510e-03
    -1.9272482233188630e+00 1.0234416998030623e-02
    -2.1431799595421399e+00 1.0374209358201375e-02
    -2.1884866196096628e+00 1.0167548487649700e-02
    -2.1213203435596419e+00 1.0102589391620873e-02
    -2.0999609676310116e+00 1.0522672835293128e-02
    -2.2360679774997898e+00 9.9184304916685589e-03
    -2.0386883037875099e+00 9.9184304916685589e-03
    -2.0386883037875099e+00 9.9184304916685589e-03
    -2.0386883037875099e+00 9.8603911710047690e-03
    -2.0191391920625676e+00 1.0102589391620873e-02
    -2.0999609676310116e+00 9.6954653238648398e-03
    -1.9628910251133636e+00 9.2305204267059630e-03
    -1.7974340685458339e+00 8.9004301522769974e-03
    -1.6712580435934672e+00 8.3576733737386385e-03
    -1.4337208778404373e+00 7.8639620834712719e-03
    -1.0755755413256844e+00 8.9336641288399014e-03
    -5.9368258892563341e-01 7.8432813017949993e-03
    -1.0060790833484314e+00 8.8053552845146939e-03
    -1.6329931618554525e+00 9.5926382156142510e-03
    -1.9272482233188630e+00 1.0102589391620873e-02
    -2.0999609676310116e+00 9.9184304916685589e-03
    -2.0386883037875099e+00 1.0374209358201375e-02
    -2.1884866196096628e+00 1.0600402076495872e-02
    -2.2607766610417559e+00 1.0039463790395775e-02
    -2.0790816831383250e+00 9.9184304916685589e-03
    -2.0386883037875099e+00 9.7489643855323844e-03
    -1.9812554439870587e+00 9.9781000444146561e-03
    -2.0586634591635509e+00 9.9184304916685589e-03
    -2.0386883037875099e+00 9.7489643855323844e-03
    -1.9812554439870587e+00 9.9781000444146561e-03
    -2.0586634591635509e+00 1.0303275453357795e-02
    -2.1655611680148383e+00 9.4023825454559711e-03
    -1.8599622199011083e+00 9.1901659372155102e-03
    -1.7824744570044810e+00 9.0382892665678786e-03
    -1.7250807559235692e+00 8.2301094214562651e-03
    -1.3673204516101203e+00 7.8902278950244015e-03
    -8.9625815953027177e-01 7.9671581902299605e-03
    -1.1943494414262914e+00 9.1901659372155102e-03
    -1.7824744570044810e+00 9.8603911710047690e-03
    -2.0191391920625676e+00 9.4481279869457913e-03
    -1.8763123261348256e+00 1.0102589391620873e-02
    -2.0999609676310116e+00 1.0680607120600330e-02
    -2.2861354059503158e+00 1.0167548487649700e-02
    -2.1213203435596419e+00 1.0102589391620873e-02
    -2.0999609676310116e+00 9.4950587937077096e-03
    -1.8929694486000916e+00 9.6433728904095194e-03
    -1.9448929779430473e+00 9.3577844549224201e-03
    -1.8439088914585768e+00 9.4481279869457913e-03
    -1.8763123261348256e+00 9.6433728904095194e-03
    -1.9448929779430473e+00 9.8603911710047690e-03
    -2.0191391920625676e+00 9.8039215686274508e-03 -2.
    1.0039463790395775e-02 -2.0790816831383250e+00
    9.6433728904095194e-03 -1.9448929779430473e+00
    9.4023825454559711e-03 -1.8599622199011083e+00
    8.5575643229800942e-03 -1.5275252316519468e+00
    7.8757491928847425e-03 -1.0954451150103324e+00
    8.3777894031717565e-03 -1.4436454376101877e+00
    9.5432148867185141e-03 -1.9099443248282553e+00
    1.0374209358201375e-02 -2.1884866196096628e+00
    1.0303275453357795e-02 -2.1655611680148383e+00
    1.0600402076495872e-02 -2.2607766610417559e+00
    1.0234416998030623e-02 -2.1431799595421399e+00
    9.7489643855323844e-03 -1.9812554439870587e+00
    9.6954653238648398e-03 -1.9628910251133636e+00
    9.3577844549224201e-03 -1.8439088914585768e+00
    9.4023825454559711e-03 -1.8599622199011083e+00
    9.1123748441428176e-03 -1.7533037597843886e+00
    8.9004301522769974e-03 -1.6712580435934672e+00
    9.0748821293902323e-03 -1.7390774117049643e+00
    9.4950587937077096e-03 -1.8929694486000916e+00
    1.0039463790395775e-02 -2.0790816831383250e+00
    1.0102589391620873e-02 -2.0999609676310116e+00
    1.0937290355310218e-02 -2.3664319132398473e+00
    9.9781000444146561e-03 -2.0586634591635509e+00
    9.2305204267059630e-03 -1.7974340685458339e+00
    8.0970963417799045e-03 -1.2889105176778739e+00
    8.6886805702475391e-03 -1.5844993839924149e+00
    1.0039463790395775e-02 -2.0790816831383250e+00
    1.0522672835293128e-02 -2.2360679774997898e+00
    1.0680607120600330e-02 -2.2861354059503158e+00
    1.0234416998030623e-02 -2.1431799595421399e+00
    9.6954653238648398e-03 -1.9628910251133636e+00
    9.5432148867185141e-03 -1.9099443248282553e+00
    9.1901659372155102e-03 -1.7824744570044810e+00
    9.0025711592416728e-03 -1.7113069358158490e+00
    8.9677037828560114e-03 -1.6977493752543311e+00
    9.0025711592416728e-03 -1.7113069358158490e+00
    8.9004301522769974e-03 -1.6712580435934672e+00
    8.9677037828560114e-03 -1.6977493752543311e+00
    9.2305204267059630e-03 -1.7974340685458339e+00
    9.8603911710047690e-03 -2.0191391920625676e+00
    1.0680607120600330e-02 -2.2861354059503158e+00
    1.1123170302790907e-02 -2.4238399287081638e+00
    1.0167548487649700e-02 -2.1213203435596419e+00
    9.4023825454559711e-03 -1.8599622199011083e+00
    8.2820243169713509e-03 -1.3951446417589013e+00
    8.7456353862766460e-03 -1.6084018533125140e+00
    9.9781000444146561e-03 -2.0586634591635509e+00
    1.0447309589598372e-02 -2.2119803667431461e+00
    1.0848921574718484e-02 -2.3389288649495348e+00
    1.0600402076495872e-02 -2.2607766610417559e+00
    9.9184304916685589e-03 -2.0386883037875099e+00
    9.4481279869457913e-03 -1.8763123261348256e+00
    9.0748821293902323e-03 -1.7390774117049643e+00
    8.9677037828560114e-03 -1.6977493752543311e+00
    8.8679807228754012e-03 -1.6583123951777001e+00
    8.7751411883246495e-03 -1.6206090294619568e+00
    9.0382892665678786e-03 -1.7250807559235692e+00
    8.9336641288398980e-03 -1.6844017639285407e+00
    9.1123748441428176e-03 -1.7533037597843886e+00
    9.5432148867185141e-03 -1.9099443248282553e+00
    1.0303275453357795e-02 -2.1655611680148383e+00
    1.0447309589598372e-02 -2.2119803667431461e+00
    1.0102589391620873e-02 -2.0999609676310116e+00
    9.1123748441428176e-03 -1.7533037597843886e+00
    8.3002316389455821e-03 -1.4046255632633819e+00
    8.8053552845146939e-03 -1.6329931618554525e+00
    9.9184304916685589e-03 -2.0386883037875099e+00
    1.0848921574718484e-02 -2.3389288649495348e+00
    1.1536243243422589e-02 -2.5495097567963922e+00
    1.0763405190083045e-02 -2.3121751331060212e+00
    9.9781000444146561e-03 -2.0586634591635509e+00
    9.2305204267059630e-03 -1.7974340685458339e+00
    9.1507936388847324e-03 -1.7677669529663689e+00
    9.0748821293902323e-03 -1.7390774117049643e+00
    9.1123748441428176e-03 -1.7533037597843886e+00
    8.7751411883246495e-03 -1.6206090294619568e+00
    8.9336641288398980e-03 -1.6844017639285407e+00
    8.8679807228754012e-03 -1.6583123951777001e+00
    9.1507936388847324e-03 -1.7677669529663689e+00
    9.4023825454559711e-03 -1.8599622199011083e+00
    9.9781000444146561e-03 -2.0586634591635509e+00
    1.0039463790395775e-02 -2.0790816831383250e+00
    9.6433728904095194e-03 -1.9448929779430473e+00
    9.2305204267059630e-03 -1.7974340685458339e+00
    8.5331590674748905e-03 -1.5165750888103100e+00
    8.3777894031717565e-03 -1.4436454376101877e+00
    1.0167548487649700e-02 -2.1213203435596419e+00
    1.1322326478478808e-02 -2.4847360108225311e+00
    1.1221001300792923e-02 -2.4538289662779436e+00
    1.0680607120600330e-02 -2.2861354059503158e+00
    9.6954653238648398e-03 -1.9628910251133636e+00
    9.4023825454559711e-03 -1.8599622199011083e+00
    9.2718871322247133e-03 -1.8126539343499315e+00
    9.1123748441428176e-03 -1.7533037597843886e+00
    9.1507936388847324e-03 -1.7677669529663689e+00
    8.9336641288398980e-03 -1.6844017639285407e+00
    8.9677037828560114e-03 -1.6977493752543311e+00
    9.0382892665678786e-03 -1.7250807559235692e+00
    9.0382892665678786e-03 -1.7250807559235692e+00
    9.3142974945780183e-03 -1.8281425718903583e+00
    9.3577844549224201e-03 -1.8439088914585768e+00
    9.4481279869457913e-03 -1.8763123261348256e+00
    9.5432148867185141e-03 -1.9099443248282553e+00
    9.1507936388847324e-03 -1.7677669529663689e+00
    8.3777894031717565e-03 -1.4436454376101877e+00
    8.1102834156984317e-03 -1.2972766972655811e+00
    1.0303275453357795e-02 -2.1655611680148383e+00
    1.1322326478478808e-02 -2.4847360108225311e+00
    1.1123170302790907e-02 -2.4238399287081638e+00
    1.0763405190083045e-02 -2.3121751331060212e+00
    9.9781000444146561e-03 -2.0586634591635509e+00
    9.6954653238648398e-03 -1.9628910251133636e+00
    9.1507936388847324e-03 -1.7677669529663689e+00
    9.1901659372155102e-03 -1.7824744570044810e+00
    9.1123748441428176e-03 -1.7533037597843886e+00
    9.0748821293902323e-03 -1.7390774117049643e+00
    8.9004301522769974e-03 -1.6712580435934672e+00
    9.0025711592416728e-03 -1.7113069358158490e+00
    9.1901659372155102e-03 -1.7824744570044810e+00
    9.4950587937077096e-03 -1.8929694486000916e+00
    9.6954653238648398e-03 -1.9628910251133636e+00
    9.8039215686274508e-03 -2. 9.5432148867185141e-03
    -1.9099443248282553e+00 9.4023825454559711e-03
    -1.8599622199011083e+00 8.0970963417799045e-03
    -1.2889105176778739e+00 7.8902278950244015e-03
    -1.1157499537009505e+00 9.2305204267059630e-03
    -1.7974340685458339e+00 1.0763405190083045e-02
    -2.3121751331060212e+00 1.1536243243422589e-02
    -2.5495097567963922e+00 1.0937290355310218e-02
    -2.3664319132398473e+00 1.0167548487649700e-02
    -2.1213203435596419e+00 1.0167548487649700e-02
    -2.1213203435596419e+00 1.0102589391620873e-02
    -2.0999609676310116e+00 9.5432148867185141e-03
    -1.9099443248282553e+00 9.1123748441428176e-03
    -1.7533037597843886e+00 9.0748821293902323e-03
    -1.7390774117049643e+00 9.2305204267059630e-03
    -1.7974340685458339e+00 9.1901659372155102e-03
    -1.7824744570044810e+00 9.6433728904095194e-03
    -1.9448929779430473e+00 9.9781000444146561e-03
    -2.0586634591635509e+00 9.8039215686274508e-03 -2.
    1.0303275453357795e-02 -2.1655611680148383e+00
    1.0039463790395775e-02 -2.0790816831383250e+00
    9.0382892665678786e-03 -1.7250807559235692e+00
    7.9423619647911205e-03 -1.1722204227125803e+00
    7.8444339627317516e-03 -9.8198050606196563e-01
    9.0025711592416728e-03 -1.7113069358158490e+00
    9.9781000444146561e-03 -2.0586634591635509e+00
    1.1123170302790907e-02 -2.4238399287081638e+00
    1.0680607120600330e-02 -2.2861354059503158e+00
    1.0600402076495872e-02 -2.2607766610417559e+00
    1.1123170302790907e-02 -2.4238399287081638e+00
    1.0680607120600330e-02 -2.2861354059503158e+00
    9.9781000444146561e-03 -2.0586634591635509e+00
    9.5926382156142510e-03 -1.9272482233188630e+00
    9.8603911710047690e-03 -2.0191391920625676e+00
    1.0039463790395775e-02 -2.0790816831383250e+00
    9.9184304916685589e-03 -2.0386883037875099e+00
    1.0600402076495872e-02 -2.2607766610417559e+00
    1.0680607120600330e-02 -2.2861354059503158e+00
    1.0600402076495872e-02 -2.2607766610417559e+00
    1.0102589391620873e-02 -2.0999609676310116e+00
    9.5926382156142510e-03 -1.9272482233188630e+00
    8.6081520946345944e-03 -1.5498586566748922e+00
    7.8548308313936537e-03 -9.4686415294799864e-01
    8.6081520946345979e-03 -6.4522012745692958e-01
    8.2136818753594226e-03 -1.3582443028435265e+00
    9.5432148867185141e-03 -1.9099443248282553e+00
    1.0234416998030623e-02 -2.1431799595421399e+00
    1.0303275453357795e-02 -2.1655611680148383e+00
    1.1028655208387946e-02 -2.3947220877486006e+00
    1.1221001300792923e-02 -2.4538289662779436e+00
    1.1427337982521945e-02 -2.5166114784235827e+00
    1.1123170302790907e-02 -2.4238399287081638e+00
    1.0374209358201375e-02 -2.1884866196096628e+00
    1.0374209358201375e-02 -2.1884866196096628e+00
    1.0303275453357795e-02 -2.1655611680148383e+00
    1.0600402076495872e-02 -2.2607766610417559e+00
    1.1028655208387946e-02 -2.3947220877486006e+00
    1.0600402076495872e-02 -2.2607766610417559e+00
    1.0234416998030623e-02 -2.1431799595421399e+00
    9.6954653238648398e-03 -1.9628910251133636e+00
    9.2718871322247133e-03 -1.8126539343499315e+00
    8.0842888507043145e-03 -1.2806248474865698e+00
    8.9336641288399014e-03 -5.9368258892563341e-01
    9.8603911710047672e-03 -4.9526055654364853e-01
    7.9013971995285873e-03 -8.8531564076536218e-01
    8.3380476680835636e-03 -1.4239111404086342e+00
    9.2305204267059630e-03 -1.7974340685458339e+00
    9.9184304916685589e-03 -2.0386883037875099e+00
    9.8039215686274508e-03 -2. 1.1028655208387946e-02
    -2.3947220877486006e+00 1.1221001300792923e-02
    -2.4538289662779436e+00 1.1221001300792923e-02
    -2.4538289662779436e+00 1.0680607120600330e-02
    -2.2861354059503158e+00 1.0763405190083045e-02
    -2.3121751331060212e+00 1.1322326478478808e-02
    -2.4847360108225311e+00 1.0937290355310218e-02
    -2.3664319132398473e+00 1.1649266568747877e-02
    -2.5834896176782225e+00 1.0522672835293128e-02
    -2.2360679774997898e+00 1.0522672835293128e-02
    -2.2360679774997898e+00 9.2305204267059630e-03
    -1.7974340685458339e+00 8.3576733737386385e-03
    -1.4337208778404373e+00 7.9137975764272048e-03
    -8.7447463219520616e-01 9.9781000444146561e-03
    -4.8575205216218620e-01 1.1123170302790909e-02
    -4.1256849850351734e-01 9.2718871322247133e-03
    -5.5167728436737040e-01 7.8902278950244015e-03
    -8.9625815953027177e-01 8.1976812347432891e-03
    -1.3492638068638840e+00 8.9336641288398980e-03
    -1.6844017639285407e+00 9.4481279869457913e-03
    -1.8763123261348256e+00 9.6433728904095194e-03
    -1.9448929779430473e+00 1.0374209358201375e-02
    -2.1884866196096628e+00 1.0937290355310218e-02
    -2.3664319132398473e+00 1.0680607120600330e-02
    -2.2861354059503158e+00 1.0303275453357795e-02
    -2.1655611680148383e+00 1.0763405190083045e-02
    -2.3121751331060212e+00 1.0680607120600330e-02
    -2.2861354059503158e+00 1.0680607120600330e-02
    -2.2861354059503158e+00 9.5926382156142510e-03
    -1.9272482233188630e+00 9.0382892665678786e-03
    -1.7250807559235692e+00 8.1102834156984317e-03
    -1.2972766972655811e+00 7.8548308313936537e-03
    -9.4686415294799864e-01 9.1507936388847324e-03
    -5.6568542494923801e-01 1.1322326478478802e-02
    -4.0245724118956472e-01 1.2285434912837746e-02
    -3.6074504334969015e-01 1.0937290355310212e-02
    -4.2257712736425818e-01 9.8039215686274508e-03
    -5.0000000000000000e-01 8.1821007963822859e-03
    -7.4605882716103944e-01 7.9423619647911205e-03
    -1.1722204227125803e+00 8.3777894031717565e-03
    -1.4436454376101877e+00 8.9336641288398980e-03
    -1.6844017639285407e+00 9.6433728904095194e-03
    -1.9448929779430473e+00 1.0234416998030623e-02
    -2.1431799595421399e+00 1.0167548487649700e-02
    -2.1213203435596419e+00 1.0374209358201375e-02
    -2.1884866196096628e+00 1.0039463790395775e-02
    -2.0790816831383250e+00 1.0102589391620873e-02
    -2.0999609676310116e+00 9.5926382156142510e-03
    -1.9272482233188630e+00 8.6611991711915311e-03
    -1.5727950313140986e+00 7.9671581902299605e-03
    -1.1943494414262914e+00 7.9503015573719037e-03
    -8.4779124789065852e-01 9.4481279869457913e-03
    -5.3296031053635118e-01 1.0600402076495872e-02
    -4.4232586846469141e-01 1.4073148562335039e-02
    -3.0449175980324900e-01 1.6435310552965831e-02
    -2.5400025400038101e-01 1.3071895424836602e-02
    -3.3333333333333337e-01 1.1028655208387949e-02
    -4.1758499039032559e-01 1.0680607120600337e-02
    -4.3741940980276833e-01 9.4950587937077079e-03
    -5.2827054379537430e-01 7.8675944322702529e-03
    -9.2408472786301510e-01 8.0048684404679018e-03
    -1.2247448713915889e+00 8.3777894031717565e-03
    -1.4436454376101877e+00 8.5825576468385335e-03
    -1.5386185163241444e+00 8.6343612345880314e-03
    -1.5612494995995994e+00 8.6611991711915311e-03
    -1.5727950313140986e+00 8.6611991711915311e-03
    -1.5727950313140986e+00 8.6611991711915311e-03
    -1.5727950313140986e+00 8.0597928527269720e-03
    -1.2642884152163991e+00 7.8715230279798130e-03
    -1.0887747533701169e+00 9.4950587937077079e-03
    -5.2827054379537430e-01 9.9781000444146561e-03
    -4.8575205216218620e-01 1.1322326478478802e-02
    -4.0245724118956472e-01 1.2899962428114560e-02
    -3.3891719470228254e-01 1.5721249524260256e-02
    -2.6726124191242434e-01</input_scale>
  <output_scale>
    1.0526315789473684e+00 0. 1.0526315789473684e+00 0.
    1.0526315789473684e+00 0. 1.0526315789473684e+00 0.
    1.0526315789473684e+00 0. 1.0526315789473684e+00 0.
    1.0526315789473684e+00 0.</output_scale>
  <inv_output_scale>
    9.4999999999999996e-01 0. 9.4999999999999996e-01 0.
    9.4999999999999996e-01 0. 9.4999999999999996e-01 0.
    9.4999999999999996e-01 0. 9.4999999999999996e-01 0.
    9.4999999999999996e-01 0.</inv_output_scale>
  <weights>
    <_>
      -4.6223190459579522e+00 5.1965773647726893e-02
      -5.6768285887214144e-02 -6.1052774633316410e-02
      1.5807889481687987e-01 1.3392680264499399e-01
      5.1048647161197147e-01 3.9605001929122913e-01
      5.0446103350484606e-02 -1.0532579826982032e-01
      -5.6673306952468180e-02 1.3310220850648247e-01
      -9.1235821928563846e-02 -2.6831350778377699e-01
      2.5240310365721369e-01 2.9710608913257226e-02
      -1.4746716637128782e-01 -2.6515029276665136e-01
      2.5756014838643609e-01 3.1648284831603374e-01
      4.4673961234571626e+00 -2.7814674268054834e-01
      -1.0714400109379145e-02 -7.8406905083452050e-02
      -8.9769946317324087e-02 -6.4805714509845111e-02
      -2.1943913951318883e-01 -2.2139946000515254e-01
      9.1493373443208847e-02 3.5885708187983029e-01
      4.3675140760581030e-02 1.2919087269695831e-01
      4.2151753485654211e-02 2.0560547302231227e-01
      -1.0636769070392080e-01 1.6586747911507954e-01
      -2.7527075213454533e-02 2.8542964660733531e-02
      -2.9792853065455455e-02 -1.7210682142234157e-01
      1.0136457573883981e+00 6.7840123545522706e-04
      -1.0362657248579728e-01 1.5796048655405603e-01
      -1.8718945068326436e-02 -4.4337260252627096e-02
      -1.8724022121458370e-01 -2.1532880082631062e-01
      1.4928605281947144e-02 5.7128981242594565e-02
      -9.9112019112251121e-02 -1.9651486839497639e-01
      1.5097337034142277e-01 1.6503227386302288e-01
      5.2820655992322316e-02 2.3907967482071174e-01
      -3.6622366853062617e-02 1.7652972211390267e-01
      1.1507949862556836e-01 -2.6621776094653637e-01
      -2.8377565963542830e+00 5.4961718090966123e-02
      -8.4552313851545366e-02 4.2373700184106644e-01
      7.4414391679509057e-02 -1.9709560316646801e-01
      -2.3658164940051293e-02 -1.8076806290558616e-02
      4.7567112435826175e-02 2.3406629332251769e-02
      -1.5447690818073456e-02 -4.0868081202236722e-01
      1.5338367701174824e-01 1.2644577751573738e-01
      3.2623124217286342e-01 4.4704913126361534e-01
      -2.2174297161276880e-02 2.2276626806635301e-02
      1.3303308160619323e-01 3.4206626483202510e-02
      -5.8070573312434937e-01 -1.5451847807237643e-01
      3.2545013986153581e-01 -1.3692630522201718e-01
      -1.2873201268341070e-01 2.0657396484838081e-01
      -1.5154661525857671e-01 -1.4226134735276375e-01
      6.6764337347150052e-02 2.1065714579682435e-01
      -4.7524931733465370e-01 3.7385442660569718e-01
      -3.9394598751301746e-01 -2.1575566190667222e-01
      2.2499405191594476e-02 1.0538191459672427e-01
      -2.0628309115897500e-01 3.9553286190574743e-01
      -8.5979151337173640e-02 3.7929188526164376e-01
      1.9687270070633196e+00 1.3918237008158443e-01
      5.3122554488305648e-02 -5.0533858918344721e-01
      -2.9358164780038343e-01 2.3140634405739038e-01
      5.5347532536152676e-02 -1.5732755875405247e-01
      1.6635175589176718e-01 5.2033716648883496e-02
      4.5491706883193242e-03 4.5272455260830702e-01
      1.4664339321140160e-02 3.8929337617715087e-01
      -3.8578766152809379e-01 -1.1328604413149647e-01
      -1.0452302472490142e-04 4.2849341148879963e-02
      1.5368541638743423e-03 1.4917432953036025e-01
      1.6830299572303218e+00 1.4861615470184550e-01
      4.1575497983731759e-02 -1.6915218922221392e-01
      -2.1557332472626367e-01 1.0364578602758318e-01
      5.3897486612556045e-01 -7.7124788795169597e-02
      2.3693502778286521e-01 8.9952464137927443e-02
      -8.1168620394826779e-02 2.7385575583460570e-01
      1.7070636307648399e-01 1.6018730792164987e-01
      -2.8276980174622501e-01 -2.2617617224327688e-01
      1.9670393638532666e-01 -8.9572905160651556e-02
      2.0146367419065489e-01 -7.0071599231844001e-02
      -1.2745674634475521e+00 5.1972187057986077e-02
      -4.9611972098639615e-02 1.6004393983220756e-03
      -1.6549318074855374e-01 -2.9957988355772613e-01
      3.8266866183564474e-01 -5.3211172568637888e-01
      3.1827162879622473e-01 -1.8161459483854020e-01
      -3.1457451958540950e-01 1.2182334174270579e-01
      2.3168196391535275e-02 1.5749007165214687e-01
      1.3413682188969681e-01 -3.5087401866741830e-01
      1.5109538101377934e-01 -2.5035103483803284e-01
      1.0968229873737860e-01 -9.4347190386149804e-02
      -2.2349482279150998e+00 1.8861661868499333e-01
      -1.5267747687247057e-01 -1.4514459165589932e-01
      -2.0531411772693675e-01 4.0969211386973248e-01
      -6.6669152939302617e-02 3.8110271283814751e-01
      -1.8847223597573665e-01 -7.4880597180452979e-02
      -1.3993969862001834e-01 3.9663997036187931e-01
      2.3607628616539794e-01 -3.4352946316337918e-01
      1.4802508963846370e-01 -1.3708407467422873e-01
      -2.0617670538442665e-01 9.9180753710739381e-02
      -1.7326258462671704e-01 7.9604596162605720e-02
      -1.7333384444302407e+00 -2.0169128769268779e-02
      -4.1455637068648563e-02 6.9358479338739204e-02
      -2.4669351890720631e-01 7.0241634968084873e-02
      2.5377832788945548e-01 -2.6416172438187352e-01
      5.9739316166356371e-01 -1.2849519476863097e-01
      -5.4596206089252419e-01 2.4474069818929944e-01
      -1.3255540116558046e-01 3.8058636702427678e-01
      -7.4678223662232882e-02 -5.9815645548219598e-01
      -1.5666702233851859e-01 -3.3245277547469021e-01
      -4.0649467380421894e-01 -2.1871365535218217e-02
      -8.3058972819018306e-02 2.7058929924716230e-02
      -1.1528020070292649e-01 -2.3965209363937584e-01
      -2.5520379892949724e-01 -2.6190489775326831e-01
      6.0051015885330272e-01 -1.6324539105729002e-01
      3.3835908724876024e-01 6.7548710695969377e-02
      -2.1593932286704615e-01 6.7622868402804556e-02
      -2.3610478467166143e-02 4.5722683132829539e-01
      -2.8879991673201894e-01 -3.2991096576549156e-01
      -2.0176191103002497e-01 -3.3200206077879835e-01
      -3.5668018156426597e-02 -5.7628800694393245e-02
      8.9459243958467805e-01 2.6208884377689207e-01
      1.4859431983186902e-01 -4.2515213425646514e-02
      -1.1554672653793477e-01 -1.7641163290744385e-01
      5.7896327453796012e-02 1.5101837052158021e-01
      -2.0332874876422552e-01 -8.2203701147068667e-02
      1.7485662891953649e-01 1.2803610969436715e-02
      -1.6454817682805736e-02 1.9752158416723584e-01
      5.1876528334315025e-02 -2.2419845921732687e-02
      3.7983244691854861e-03 -9.8845632955432083e-02
      5.6714051391909930e-02 -1.4974724959269803e-01
      -1.1949163710948491e-01 1.1136150966420046e-01
      2.8633809039803881e-01 2.1804695199323171e-01
      -6.1295264552373420e-02 -6.2998340048933330e-02
      2.2875564987531342e-02 5.3125770547647992e-02
      2.5063756172253349e-01 -1.9862599928768079e-01
      -2.6867048291166551e-01 -1.4210701761059813e-01
      -3.9683280993827785e-02 7.7832410584093611e-02
      8.8542372745542136e-02 -1.4382990248997782e-02
      -1.2582476283107186e-01 -1.1167136663836150e-01
      -2.0603537845171946e-01 6.1000598932381092e-02
      1.8258657913337111e+00 1.9669562591993509e-01
      1.8012685963697528e-01 9.1005345078670877e-02
      -2.8389157135601351e-01 1.5134805246015235e-02
      3.5817898502439610e-01 7.7476938144297083e-02
      8.8760090259305310e-03 -5.2130728940499678e-03
      1.9764248166795084e-01 6.0326558601103177e-02
      1.6983689192173682e-01 1.4855121970722265e-01
      1.7300910882763199e-01 -2.7085002438258576e-01
      1.1598003452548943e-01 -2.2361877978181847e-02
      -5.1862856559124891e-02 -1.9425526147066066e-01
      -5.3919855869089606e-01 1.9169580158950092e-01
      1.8622917579549200e-01 1.2009242522460574e-01
      -2.3468190063606864e-01 2.7691073132601285e-01
      6.7342711331353985e-02 5.2265977575380040e-02
      9.8887570931097488e-03 1.0140592693089708e-02
      -2.0566770036149115e-01 2.1020196991872961e-01
      3.1147329922055933e-01 7.0031164952793989e-02
      2.9045780228764301e-01 -2.7752275298810930e-01
      -1.3906660748823730e-02 -2.9968669359535551e-02
      -3.4045672803772055e-02 3.6870225636508998e-02
      -2.7974190712887648e+00 -1.1652094560159790e-01
      3.3585574582802624e-01 4.2733919640398649e-01
      1.7507171387665105e-01 -1.0622618094116409e-01
      -3.9838045344520172e-02 -2.3534817002410297e-02
      1.0727454896133717e-02 -9.8782910269582580e-02
      2.7462650129149498e-02 -3.6311145720722704e-01
      -1.6759330125832206e-01 5.9179289387803410e-02
      1.6812841614711804e-01 -1.8613668516473297e-01
      9.3116689208125936e-02 -3.6737128435661529e-02
      -1.4967545752777195e-01 7.5180612125008248e-02
      -9.5311583248742360e-01 7.9681972925290612e-02
      2.0402492683128018e-01 -1.2410920676746558e-01
      5.7169855827871936e-02 -3.3144200404815090e-02
      3.1423954984641655e-01 2.0522955978247562e-01
      7.1641833817597492e-02 3.7379863419175852e-01
      -9.2856916233054865e-02 2.4589481208273567e-01
      -3.0297933664974092e-01 9.1130161528036380e-02
      6.3243561627821743e-02 -1.4874713427864830e-01
      4.5146236430906643e-02 2.0436764243820846e-01
      -1.3658608019812227e-01 1.5099312958757569e-01
      -3.0356074535755675e+00 -8.3596470298062414e-02
      2.0562032933755026e-02 1.2950824714580539e-01
      1.3844392883527754e-01 1.5844872268090289e-02
      -2.8904228956750122e-01 4.3340375977935885e-01
      -3.1326001712720558e-01 -1.5165316467688919e-01
      3.7624983689210911e-02 2.5887158120401088e-01
      -2.2651603340231052e-01 -2.8402296864180021e-01
      1.3199541507128748e-01 2.8421350293836500e-01
      1.1791603999536297e-01 2.7688883557040672e-01
      1.1044616667768432e-01 5.8754511246923477e-02
      -7.3314981363572840e-01 8.1687194406617494e-02
      -2.4189486132943906e-02 3.7342363245460830e-01
      2.8247551987367397e-01 4.7827183199525274e-02
      -6.8086610965813685e-02 1.7489101874156529e-01
      -5.0951888986151404e-02 -1.5014917814618031e-01
      1.3308755724393942e-01 1.9378265148648599e-02
      1.5876647939116635e-03 1.4862181620932802e-01
      1.5298913394007532e-02 4.8215507919238199e-01
      1.2137391293026377e-01 1.8778736382201650e-01
      -1.8489280205157436e-02 3.5468332384588894e-02
      -4.8188940303860645e-01 1.5802174462853980e-01
      -5.8382992373586601e-02 2.6247970852939151e-01
      3.0921796985732597e-01 1.4769726410498732e-01
      2.3483067403845914e-01 1.1254942177544960e-01
      -1.5590447552826364e-01 3.1208784108438797e-01
      9.0199159905497886e-02 1.9306776585704852e-01
      -1.3495100897051482e-01 3.1967502842930950e-01
      1.0333929228469357e-01 3.0540106625324531e-01
      2.0425579207756414e-01 -4.7089323315813320e-01
      1.5758390793834232e-01 4.0311053043446177e-02
      8.9322678890840967e-01 -5.3447114616286311e-02
      -1.5284209289405487e-01 8.7315811929003409e-02
      -3.7510519905521830e-02 2.3347016263540346e-01
      -2.8999548590598562e-01 4.0554316012151925e-01
      -4.3134470094023131e-01 3.0084188988809386e-02
      1.1471112690787753e-01 -6.5720576933482724e-02
      1.8271221715097985e-01 -2.6985139709935052e-01
      -6.8593152098399973e-02 5.0067560808153488e-01
      5.8342809178753528e-02 2.0703965543002584e-01
      3.3382214543283972e-01 -1.6711933187906089e-01
      7.6950996573031860e-01 1.6732739054665888e-01
      -6.8142784234360113e-02 -2.5883317131488026e-01
      -1.9015528878456170e-01 1.8600401143605072e-01
      -4.2909723359700516e-02 3.1364719674865033e-03
      -2.9502163206456589e-02 2.5694737714713373e-01
      -3.1115278110176736e-01 3.3939549552230164e-01
      -1.8780964989465290e-01 1.7255418950271842e-01
      6.6591779496632114e-02 -2.2520122516894539e-01
      -1.6595686156118955e-01 -1.8913255059122475e-02
      3.5137493406481618e-02 -9.9909927559353184e-02
      -1.1933671307975622e+00 2.8324649137049845e-01
      -5.5763395808032287e-02 -3.0421508810167936e-02
      4.6842769682019066e-02 1.6912195427125365e-01
      2.3193221762837099e-02 -3.3055848394351894e-01
      -1.4714667485628502e-02 1.2238516336383883e-03
      1.1927620798783185e-01 -4.2313043785521520e-01
      -3.1479998696528087e-02 9.9387714489751255e-02
      2.4768064107067975e-01 9.6533549303159966e-02
      -2.3062533519254647e-01 3.8737984517241655e-02
      2.0996615012485881e-01 -1.3943529360853165e-02
      1.1561234869450920e+00 2.4895414175116490e-01
      2.2345882778960510e-01 -1.7883236786636555e-01
      6.3438940636373356e-02 1.6689566730299094e-03
      1.3666007819479360e-02 -3.6810609223751789e-01
      4.7143285742223195e-01 1.6507628109336528e-01
      7.7849102196722281e-02 2.5128247682642563e-01
      1.7341816123094239e-01 3.2632114487870895e-01
      -2.4427830316442439e-01 -7.1208836554766522e-02
      -1.1225402606506257e-02 -7.4831830662632826e-02
      -3.6672130823694020e-02 2.3827423121703047e-02
      -2.3896717889512309e-02 -6.8896852114811738e-02
      1.3913657961598111e-01 4.2093078997132223e-02
      1.5335690511452177e-01 1.7545041319698529e-02
      2.7806235149426116e-02 -4.3669522574823050e-01
      5.0096288950505952e-01 -2.7155107972338605e-01
      3.5425432601213669e-01 -4.4869439743215567e-01
      2.5652141821570706e-01 4.7980668882513727e-01
      -2.1090326962813302e-01 -6.4223041852577392e-02
      3.1037474082887639e-01 -9.3630073892953525e-02
      6.9668579044350226e-02 4.4443246681144841e-02
      -7.0427271421578741e-01 -3.2560565201261216e-01
      1.9189709039469743e-02 4.5204682654404854e-01
      2.3587471559974055e-02 1.1191407266209472e-01
      -7.9479311054955568e-03 -2.1750969394739200e-01
      2.3241305551427219e-01 -9.2133665659965586e-02
      2.8913342540801662e-01 1.6583464380198334e-02
      1.1687000360075758e-01 2.0627172454624773e-01
      9.0672076631699836e-02 -1.3774829945492614e-02
      2.0798328529437607e-01 9.2715456494608019e-03
      -2.8394803042415654e-02 2.2378314801079525e-02
      1.6170262758934686e-01 -4.7678265559253280e-02
      -3.9909652616340954e-02 -5.4016101440562625e-01
      -3.1872361888270700e-01 -1.8235495533596222e-01
      4.0784848803399698e-01 -4.8262248482446662e-01
      2.8089688479434205e-01 2.2128785333995074e-01
      7.2910113322281242e-02 3.5495461397189831e-01
      -2.9742170283081057e-02 3.6152332104464979e-01
      -5.0793967761951708e-01 -6.5913145430582554e-01
      1.6174530446206270e-01 8.0943707100844198e-02
      1.8566439839964935e-02 -1.9998484372652892e-01
      -2.3249160917086091e+00 1.5504602576956281e-01
      -3.7108484554577534e-02 -4.0903864996401695e-01
      -4.3432460887746875e-02 -2.0801964063761458e-01
      3.7826337823935963e-01 -4.7021451416944887e-01
      9.6812008600822161e-02 1.2659565854507442e-02
      -9.2996451886171505e-02 -1.4724682298717989e-01
      1.1906002851712809e-01 2.5584398195627728e-01
      -1.5959381705095821e-01 -2.6880872106565212e-01
      1.9230841644323551e-01 -2.6287372678112592e-01
      2.8097693190857731e-01 -2.1557781299736647e-01
      -3.4774993218457007e+00 1.1037114588230523e-01
      1.3426472823891414e-01 -3.0542699489980679e-01
      1.8661373540105439e-01 9.1415352175698072e-02
      1.2624326114139925e-01 -1.1753253556307709e-01
      1.3668156552960492e-01 -7.4147576650723759e-02
      -3.0077725662604393e-01 -4.7724809817061530e-02
      7.4645961766790572e-02 -1.4330716490144504e-01
      -5.9753475743777512e-02 -2.2554072828075206e-01
      -1.3864026987298009e-01 3.8719171571740395e-02
      -2.1177154195408371e-01 2.0689430944694699e-02
      -2.7453370949267586e+00 -1.4685846428086377e-01
      1.6847552972378396e-01 -1.1546649931273277e-01
      -6.0987755880034911e-02 1.0178972903481058e-01
      -1.6394725765450713e-01 -1.1357394599285181e-01
      1.8711283107490806e-01 -2.3227574868320644e-01
      3.2037612027330270e-02 -1.8794416405526201e-01
      2.5482859631215887e-01 -1.1124389625797919e-01
      -2.1906874506678942e-01 -9.7738468031040582e-02
      1.1222388458502150e-01 1.0142032789265941e-01
      -3.2647501357090974e-01 -1.3671599828019701e-01
      -2.1448532198322243e+00 -1.2907142456764276e-01
      1.7092982365211257e-01 1.2849535852868682e-01
      -1.5067576678660707e-01 -4.4895100457004157e-02
      1.1092746948517511e-01 4.5751892546475714e-02
      1.9601124508223453e-01 -2.8473710563601723e-01
      -1.9237158437173451e-02 1.5463243863170031e-01
      1.2032074347160937e-01 -1.0336874460027984e-02
      7.6890338220816229e-02 -2.8875967467710517e-01
      -3.0990240052015988e-01 1.2876379236377927e-01
      -7.4989093882161906e-02 3.2003517642692542e-01
      -2.9223085475538996e-01 1.5942848146450408e-01
      3.3419662452916316e-01 -1.2924724608616914e-01
      -1.5990138314227126e-01 2.0203073027342509e-02
      3.2782400449647658e-01 8.9976636477115873e-02
      1.5579996534222115e-01 9.8632353547947610e-02
      -1.1211173306476394e-01 3.6327022089952377e-01
      1.9107571507826857e-02 1.1388134607788009e-01
      -5.3008839678999478e-03 -4.5106493152350369e-01
      -2.2706213249293347e-01 -6.3600442317676822e-02
      -2.9865245470289192e-02 2.1421562495580207e-01
      -4.8270277467695882e-01 1.7687507859909793e-01
      2.2659943475586547e-01 1.9519254428395659e-02
      -2.0427885586682992e-01 -1.6998319959552069e-01
      2.0489773337472214e-01 -5.7468588155696609e-02
      7.8967720368600294e-02 -1.5807594073042186e-01
      -3.9452008251227233e-01 4.9658829616222519e-02
      -3.3608888150798842e-02 2.7525795030848987e-01
      1.4251092268797333e-01 -1.6374239725414116e-01
      -2.3935239337875738e-01 6.9141087321601125e-02
      -9.1118656169149298e-02 8.5507445553243300e-02
      -7.8436866961884988e-01 1.9837153567758231e-01
      1.8320123927194890e-01 -2.4556358470102460e-01
      -2.7153628662850277e-01 -1.1598131395545225e-01
      3.5420807063789450e-01 -3.3479247614953789e-01
      2.1425345868762533e-01 -1.5303257393051806e-01
      -4.9143272830845758e-01 2.4821893934872941e-02
      -4.3904293291499313e-01 4.2929355686772458e-01
      -1.4677824917881241e-01 -4.3235818237340568e-01
      -1.9409844533693621e-01 1.1487872462271244e-01
      -1.1560541497620146e-01 1.0474658123328907e-01
      1.2284492353497423e+00 1.3854426550403569e-02
      1.3781191685779304e-01 -2.5363731765772857e-01
      -4.3990784857361420e-01 -7.0801537653342364e-02
      4.9371428218693370e-01 -1.2811784716630505e-02
      1.1970931684028359e-01 1.4617362959835034e-01
      1.3484229166073431e-02 5.8010928636242332e-01
      -1.9165579894147122e-03 3.1847792608420888e-01
      -1.5384998676500297e-01 -4.8215869631750879e-01
      -1.1728902548988938e-01 -1.2494422379182163e-01
      2.9376299095321620e-03 -8.4970934592689049e-02
      -1.0961429544669070e+00 4.6248305088747631e-02
      4.0095132971943802e-02 -1.8259076916141787e-01
      -2.7127223194719496e-01 -1.4568655459999413e-01
      -2.6120072078669343e-01 5.7007242952960391e-01
      -2.9790841400844503e-01 -1.9547938469788817e-01
      4.0122783553951757e-01 5.3487179948120987e-02
      -3.5091293742026047e-02 -1.8775846168206291e-02
      -1.4303267969593755e-01 9.7300924066919869e-02
      1.7334446072446880e-01 1.7307306497943320e-01
      2.6793516134349587e-02 -2.1081931441151708e-01
      -2.0941787774505412e+00 -3.1362682154938384e-02
      -1.4861236916283183e-02 4.5568474338854980e-03
      -1.5960086813487220e-01 -2.8802212464216653e-01
      4.0425201407108960e-03 3.6735921211289324e-01
      -4.4686699589474577e-01 6.3663534876685843e-02
      6.7887543696542440e-03 4.0403011952250140e-01
      -1.7564479578347830e-01 -2.6535162945727064e-01
      4.1946805842846413e-01 6.1719446257929161e-02
      6.7948603377898986e-02 1.8687072416374742e-01
      1.1164127285570821e-01 -7.2772699051138132e-02
      -3.5829819507265057e+00 1.7596804564597394e-02
      1.7237427711700162e-01 -3.6404191496738703e-01
      -7.3666014356474449e-02 -1.9298227273617596e-01
      -9.5477132925134503e-02 1.4778168786534207e-01
      5.1589319616253043e-02 5.8055150345401006e-02
      -1.2534961408954062e-01 5.7843886064639261e-01
      -5.7961758217261794e-01 3.5190833675860907e-02
      -1.5777077000651366e-01 -2.6483852988273809e-02
      5.1499711514163979e-02 3.4926950626924504e-02
      -1.6248755263137862e-01 2.9745880046061393e-02
      -9.8906439478760366e-01 2.0162602685716235e-01
      4.0190830074806193e-02 1.4533794157770910e-01
      9.3082141421236872e-02 6.5462583514201603e-02
      4.1298149527065747e-01 1.7398553333493130e-01
      4.3202987447274625e-02 2.5212012783726850e-01
      6.1694253785399340e-02 2.9404406185236320e-01
      -1.3284221965802806e-01 -1.2432015962897121e-01
      -1.0724348720731990e-01 -1.2945809606381076e-02
      -7.8016403704039200e-02 -7.6244443288523991e-02
      1.5056479321838290e-01 1.0111412823818579e-01
      2.9929598318884171e-01 2.4163486580521085e-01
      -1.8554418171217452e-01 -1.2062824908920643e-02
      -1.3865832116174404e-01 -2.2150091612647506e-02
      -5.0569060130999585e-02 2.5766465173378461e-01
      -5.2334122460689259e-01 3.7933490973675882e-01
      3.5658461719680185e-01 1.5369877347293590e-01
      3.6041467777089303e-02 2.1829424143560905e-01
      -5.6771061883737567e-02 9.9330071630315542e-02
      2.3970029550832725e-01 3.6802986644985725e-01
      5.4883726470720137e-02 -2.3109857795293138e-02
      9.6102534246014726e-01 -3.1402750281788916e-01
      1.4146863382566846e-01 -8.7356721231324277e-02
      1.3026905034023561e-01 8.9046516575123788e-02
      8.9820095826747645e-02 -3.8282512906649491e-01
      1.3879441712696730e-01 -3.6305001713539724e-02
      -3.2926720499544287e-01 2.4401658310689059e-01
      -2.2588875702445338e-01 3.0069857372013703e-01
      -3.7378205734663883e-01 -1.6020042199022758e-01
      -1.8625692183029247e-01 8.8641806074232152e-02
      -9.5779222495071856e-02 6.0277472345054463e-03
      -8.4993705005788345e-01 -4.2213174269981238e-02
      8.7149237436972733e-03 3.5052750784929275e-02
      3.8530731111500505e-01 -1.9241311483160217e-02
      1.8235631823415199e-01 -1.1287188006128825e-01
      2.1337708613102477e-01 1.5576384729338118e-02
      -1.0478766545763071e-01 -3.5599447775408172e-01
      -3.8573779621918242e-02 8.9073084282194667e-02
      1.1153739464372735e-01 3.0193724496508068e-01
      -3.2225855196161923e-01 -1.5697210137605350e-01
      -8.2637781609642968e-03 1.1952963659551240e-01
      9.1601226527920454e-01 6.7259490801165855e-01
      -9.0238768037050499e-02 6.6634268311223221e-01
      7.9570952263343819e-02 2.7975694326581668e-01
      -1.9330525902836274e-01 2.8625327528951655e-01
      -1.4877647594921645e-01 -3.4188569505082353e-02
      1.7071049045018183e-01 -1.9140531561319382e-01
      3.3224182747852404e-01 4.0455791738112111e-02
      3.6943144219925461e-01 5.8659633359602059e-02
      -4.7702162788224790e-02 -4.8162126529039694e-02
      3.2656166643044304e-01 1.1061541342824713e-01
      -1.2605191726535079e+00 3.2546187722552283e-01
      -2.6964864843778944e-02 9.7071462148994578e-02
      1.4639261444340340e-01 4.5939790496748661e-01
      -2.7399850476569493e-01 1.4723173070401063e-01
      4.1170922558940573e-02 -7.9923522930466478e-02
      1.5684592434394470e-01 1.0857235009019295e-01
      5.2067382786121198e-02 -1.6417670016858569e-02
      2.1509532056742114e-01 3.3694830667379544e-01
      -3.4490671533155666e-02 5.5909765234418971e-02
      2.3564191646616220e-01 2.7181859302349398e-01
      -4.5163127604514330e-01 -1.0796766333519706e-01
      -9.3161990402018308e-02 -1.9800889642682365e-01
      -2.8686297476665533e-02 8.8456016700947313e-02
      -3.5576988938715282e-01 -9.5432730120157266e-02
      -2.0571559843745227e-01 1.2645820530265270e-01
      1.9322646169033036e-01 8.5289770300885248e-02
      -4.2188134184257479e-02 -9.2699516900298345e-02
      -2.2750017257281013e-01 3.9658766615088221e-02
      3.3165543210465726e-01 2.2441439997115853e-01
      2.7506112724667638e-02 -5.7018068334186441e-02
      2.8730898835839763e-02 -1.7377189007057203e-01
      1.8630107772126300e-01 -2.2317877687216536e-01
      -2.1995449771314937e-01 1.0722567185511325e-01
      -1.1335647543244363e-01 5.2450634233800968e-02
      2.7755250591660743e-02 1.4433205304004659e-01
      1.8103142644990255e-01 3.9713608400716471e-01
      2.4765451609279735e-02 -2.0139531961259094e-01
      -1.6256510630251209e-01 2.1348290523424110e-01
      2.5238433760492113e-01 -1.0646063315456619e-01
      4.2794472234283676e-02 -9.1823733561426604e-02
      -3.5736344581930184e+00 -3.9528140259629307e-02
      -3.6904046551782900e-02 -3.8418767491326827e-01
      -2.0804959126865938e-01 1.2394600460404612e-02
      1.8811797574774899e-02 1.3446882709352914e-01
      -1.6107704477620349e-01 3.0081513745987160e-01
      -2.5081736005656668e-01 3.7849197377743660e-01
      -2.8147208643948990e-01 2.3259688062810393e-02
      -1.9074293546600113e-01 -4.1792697600613750e-02
      1.8249482490409139e-01 -5.0150718146663609e-02
      8.4174444729018846e-02 -1.9885889735814527e-01
      -4.4829041895769217e+00 -1.3279275697948159e-01
      1.5845905394778811e-01 -2.7963973597313208e-01
      -4.6583603972499707e-02 -2.2454366650559152e-01
      -3.3647739477392347e-01 1.2191152353272774e-01
      1.0711751817512495e-01 -7.2553773763562882e-02
      -3.9476342347268628e-01 -5.1377266225169381e-02
      -3.8616801124178929e-01 -7.1483281186669120e-02
      -2.5799678140777077e-01 -8.0360939899715850e-02
      1.7397700616259937e-01 -3.7711917086081348e-02
      -7.6915315455719224e-02 -1.0060346752308864e-01
      -3.9366691673584051e+00 -5.1722930668815122e-02
      1.2860954090222571e-01 -4.5981618374316952e-01
      -1.9604281858152312e-01 -7.0015242552177503e-02
      -1.4519777957508420e-01 1.7199148135705120e-01
      -2.3460067083184592e-02 2.4643552302934083e-02
      -2.6432680085831067e-01 1.6493216222940543e-01
      -2.0311003978901940e-01 -1.4847320871704828e-01
      -3.2328152418893491e-01 -2.7881222421991397e-01
      5.3123732267170820e-02 2.6923534493616907e-01
      -9.8354437206327944e-02 -4.8472476112327904e-02
      -3.2391537943765858e+00 -4.4000456274528338e-02
      1.9073135279166792e-01 5.4580015858222988e-02
      -1.4482154259898020e-01 -2.0146927305347945e-01
      6.8554219249611734e-02 -1.2039640008763977e-01
      2.2485355489851297e-01 -2.3053994179702580e-01
      1.7979805845867055e-02 -2.0587401698870605e-01
      2.3848311798395988e-01 -8.4541296775011866e-03
      9.7136286658624185e-02 -1.6497223357395738e-01
      3.3443919401659424e-02 -3.7599734103867355e-02
      6.4672690692221006e-03 7.5516685913674672e-03
      -3.1108417738056504e+00 -1.0144747052081830e-01
      2.2335465931730009e-01 3.4587934890964032e-02
      -1.5609815378052452e-01 1.2358347327695872e-01
      8.3519411202633339e-03 2.8746967228971737e-01
      1.7600062212907958e-01 -1.7296777778863309e-01
      -2.2404569059297291e-01 9.1087782186238045e-02
      3.9838366300904920e-01 -1.1375080199780491e-01
      1.2449041039619382e-01 -1.3430437302716389e-01
      -1.9388607337454522e-01 -1.5095580491863236e-01
      -6.9990261154357414e-02 1.8247932826093924e-01
      -1.5215875489829371e+00 -6.9651222533692103e-02
      3.4214355350636672e-01 -1.6078899879956696e-01
      -1.8003557830965047e-02 -1.5933801646604906e-01
      -3.9009232598448990e-02 1.1504148120819117e-01
      1.5321033926832822e-01 -1.8523299357736223e-01
      -8.7238951559600236e-02 -2.0528504517114096e-01
      2.2714536255649287e-02 -1.9903959207046698e-01
      6.5917905046438255e-02 5.7702080406563515e-02
      5.3010649843798038e-02 2.0510753160764142e-01
      -7.4030768431211966e-02 4.8776103603375358e-02
      -9.5640511025942110e-01 -1.2773282105441378e-02
      8.8062801575701108e-02 -2.1844204903791833e-01
      -2.1355887307783442e-01 -2.6466387481478065e-01
      7.0575457816797360e-02 -5.8422758914556241e-02
      3.2291388572550830e-02 9.9767280251614174e-02
      4.4282450068470036e-02 -2.9842553203347416e-02
      -1.8051829949918091e-01 -4.1781890416100281e-02
      -2.9982338813543635e-01 -1.7983074865257206e-01
      1.1337067428227364e-01 2.0892607783032160e-01
      8.9928743371631384e-02 -1.5685225712750464e-01
      -5.5391739100514914e-01 3.2420762112944601e-01
      3.1513486334515513e-02 -4.3102232782685108e-02
      -2.3032289168505962e-01 -2.1330763295297148e-01
      3.8544330645647412e-01 3.0188359579746910e-01
      2.0013139518223534e-03 3.3607579780827124e-01
      -1.5330780251670903e-01 3.2029374469314115e-01
      -6.1581442790056284e-02 1.1097286379800032e-01
      5.2739385829330486e-02 -2.1608200016561829e-01
      -1.5112403548304518e-01 3.7187744697114280e-03
      6.6435891742477909e-02 -6.2194388134299519e-02
      -7.1888147390941493e-01 2.3025087698907290e-01
      8.9505818150977426e-02 -1.2389466740358301e-01
      -1.7340140438557222e-02 -7.0201537211486448e-02
      2.1097123583646157e-01 1.0826344264350871e-01
      2.3988531150774723e-02 -8.3162716440037809e-02
      1.9666488270640228e-01 -1.0964318524925983e-01
      -1.9121400681276043e-01 1.4209709623744354e-01
      -1.9120550998192903e-01 1.3681951595637110e-01
      -8.4264017982615194e-03 2.1579098786673070e-01
      3.9262028077979350e-02 -1.4852332308668670e-01
      7.8542726702348453e-01 -1.7133655008769022e-01
      8.5305606574489837e-02 -2.4896151617975595e-01
      -1.0299758821376402e-01 -1.4184655526286599e-01
      4.5707597311320253e-01 5.4823305616378770e-01
      -7.9906645859295966e-02 1.5684941152485851e-01
      9.4127429140389546e-02 1.9956980662090570e-01
      -2.6081185986603533e-01 4.1702174669013958e-01
      -2.8099474839966537e-01 -3.2289772175447790e-02
      1.3366927212600951e-01 1.2610807181243228e-01
      5.8819775517379387e-02 -2.3225524603771558e-01
      -9.6851964329640952e-02 -2.9688486102937967e-01
      5.8462772997578592e-02 -1.0125537694163179e-01
      -1.5652767930034653e-01 -3.5699599763078092e-02
      -1.7616194612664202e-01 6.2401627399353021e-01
      -1.0641322123962846e-01 -2.7524475886368405e-02
      2.0630735564280975e-01 3.3198561393642501e-01
      -1.7967074366594635e-01 -6.7155917748700361e-02
      -2.2496561801878698e-01 1.2654892996542999e-01
      1.1532439831023279e-01 4.8319312148872626e-02
      2.4174572415053958e-02 -9.8219433137198983e-02
      -1.3853333423884344e+00 -1.9577926437170642e-01
      8.4184889107749059e-02 1.8153644006208300e-01
      5.5539057350953193e-02 -1.6594950742255046e-01
      -3.3344364573699131e-01 2.5988267600465592e-01
      -4.2241320512537359e-02 -7.9054279285615727e-03
      2.2553975884489172e-01 -3.2259532193608981e-01
      -7.4219839209279562e-02 4.7801339021029655e-02
      1.9042134990082824e-01 1.4955933416282982e-01
      5.8183037981034226e-02 -1.2950308574874789e-01
      -2.6273742888815545e-02 -2.0610557255597941e-03
      -8.7203255423284742e-01 -3.6073067735435066e-01
      9.8269570000325365e-02 1.4733221293286197e-01
      1.6851014852649113e-01 1.4776503382650419e-01
      -5.9322767992944325e-01 6.6601403121440206e-01
      -6.4424969558703060e-01 -4.1377803969236099e-02
      1.1836427638160875e-01 2.3166454375284787e-01
      -6.1529172635071371e-02 -5.3410548047853890e-01
      1.5954807960110481e-01 4.4032389716822740e-01
      -8.6913894250891438e-02 2.4057298000826211e-01
      -2.0797618431193501e-02 1.6599999387162598e-01
      -2.3618454915895497e+00 -5.6827611216732847e-02
      -1.5329327216864946e-01 1.1172185087627252e-01
      4.1592574850159866e-02 -3.6324931373138990e-02
      -2.6730176825004942e-01 -9.5762200684623294e-02
      -9.3704748860591797e-02 -8.2009560976780776e-02
      -5.7353631858596113e-02 -1.4370117311760508e-02
      -1.8333029360229172e-01 8.0469621595716523e-03
      4.8436776319807265e-02 1.1187400549557089e-01
      8.7237206501466255e-02 2.2226324662602465e-01
      -1.3648977405054760e-01 6.2308405720405038e-02
      1.9701410709039320e+00 -9.7435512423187959e-02
      4.1105470600327411e-02 7.0604243381779744e-02
      9.9998203123686957e-02 -2.6548268492358523e-01
      1.8559346659690090e-01 -3.0808391525388568e-01
      -2.0879580293977375e-02 -8.9202615531478124e-02
      -1.4329589098800144e-01 -2.4383866595459752e-01
      2.4672100242515128e-02 -8.2795173898059835e-02
      1.2782831023071539e-02 3.7238398587317562e-02
      -2.3029311336716340e-01 1.3086320585331676e-01
      4.7438242348655915e-02 -3.9570304185222095e-02
      5.1284429270863816e+00 -3.5225862207527814e-01
      1.3678424205060613e-01 2.8634389229587293e-01
      2.3924565748477539e-02 -4.8810134271533911e-02
      -1.1745084710488460e-01 1.1249896129942595e-01
      -2.8513182741146822e-02 1.2332572810397251e-01
      -5.8075957277471509e-02 -5.3979571039465546e-02
      3.5184333738987855e-01 -2.8333915642386201e-02
      -5.0158814663837106e-02 1.9815816825457994e-01
      -1.5590847369523205e-02 -1.5039141905674543e-02
      -1.5563824714580843e-01 -1.4913201922157404e-01
      3.1503460323207348e+00 2.1196581678709481e-01
      6.6704665278791458e-02 1.0136685920897098e-01
      3.6845140148730651e-02 1.0551125227283917e-05
      7.4747495507219333e-02 -3.8073037093467800e-02
      1.2522708558598747e-01 -6.7205217936135458e-02
      9.1581880268457289e-02 -2.2808538429960057e-01
      2.0206902062802648e-01 1.9043053659614925e-01
      9.6840072025957055e-02 -1.1765825610319920e-02
      5.2160884688239761e-02 -9.9201889304860721e-02
      2.4566276748197349e-01 -1.4289222219754366e-01
      2.1384012610798679e+00 1.2477036494286170e-01
      -8.0430998806588536e-02 -1.2374741640963419e-01
      2.3824518143352045e-02 3.0437500888306434e-03
      -4.6822083621526106e-01 -1.1984331495512518e-01
      -1.8982512414082242e-01 1.2484670078935925e-01
      4.3199957626657542e-01 -1.2124992306858581e-01
      1.0386432838404056e-01 -2.2746364706746191e-02
      2.1029031021477355e-02 2.4405936704177728e-01
      2.5936138581796964e-01 -1.3029827520052131e-01
      2.3272372924697862e-01 -2.2623876128400700e-01
      -1.6168442214394345e+00 -1.8859112998001384e-02
      -1.5429836245867100e-02 -3.4279975277864627e-01
      -3.4223231273904080e-02 -1.0434105744987159e-01
      2.3078320489905788e-01 -1.1702026901613349e-01
      1.1774794163063113e-01 4.7845592879009489e-02
      -9.8723556010902602e-03 -4.4059056966581668e-02
      -3.7415355441955095e-01 -4.7373290699464317e-03
      -2.5495840419060800e-01 -2.2663038488292608e-01
      3.0692588138044258e-01 3.1640812532450768e-02
      -1.7791111282634141e-03 -1.7100742038061706e-01
      -4.8114065799437888e+00 -4.6709569000802878e-02
      7.8619240098346893e-02 -4.8307974773550416e-01
      -1.5115952987489317e-01 1.2933073149581989e-01
      -9.6962325762624785e-02 3.0995975412317084e-01
      -2.6464308013878113e-01 2.6660613509300113e-01
      1.5370319723886746e-02 5.8898794074212724e-01
      -4.7681606345245370e-01 -4.1649920396732432e-01
      -6.8076898983498571e-02 -1.7970689044489414e-02
      8.0353822416726756e-02 6.9656374616127892e-02
      8.8991005099913686e-02 -1.0209173962219696e-01
      -2.9543343203000894e+00 1.4847611270605579e-01
      1.0200109270323556e-02 3.4063803942130898e-02
      -1.8418192964749444e-01 2.3324810398668499e-02
      -1.2683973919093072e-03 3.0764792411242525e-01
      -7.6699495685241967e-02 1.5832059979580126e-01
      2.6047178697082507e-01 7.6754696020404134e-02
      1.8124788566132624e-01 9.9453484800755984e-02
      1.5550310662344760e-01 -1.4654422480262078e-01
      1.9688057612874432e-01 -3.7976789900326526e-02
      6.6087038152863431e-02 -1.2992512308254742e-01
      -3.0378048469222869e+00 -6.7911024053162253e-02
      1.3339155413255677e-01 3.0671238715755205e-02
      -8.2743234826236689e-02 -1.5385536174496489e-01
      -1.3506511696776169e-01 1.8903244421412732e-01
      -4.0258565194997854e-02 -1.0380142467268461e-01
      -2.3799949083326116e-01 7.1200408179074151e-02
      -1.8568398358692693e-02 1.0026683184227971e-01
      -1.8022897491964653e-02 -2.0857067784562910e-01
      1.3129136462751675e-01 5.2115367549710377e-02
      -9.9661425096500431e-02 3.8212269867573950e-02
      -3.7119219720521235e+00 -9.2704297495033325e-02
      1.9692628471052617e-01 9.3249986610382071e-02
      -2.7074438990161093e-01 -1.2381425703790074e-01
      -5.5238460005291860e-02 5.8942144219198689e-02
      1.4847347537179285e-03 -3.6477576575041454e-01
      -1.3650768345839417e-01 -3.5815220465684687e-02
      2.6765724064148483e-01 6.5668818687935435e-02
      1.1882275456945654e-01 -5.6138178154070829e-02
      -4.7508171576735633e-02 2.3959271246883154e-01
      -2.6890247775688586e-01 1.8858878863369727e-01
      -2.9895883658000990e+00 4.1460504470101765e-02
      1.7166733413646007e-01 2.6681814837083251e-01
      -7.8991219306619759e-02 -1.7678164125344897e-01
      -4.4672899673927971e-02 1.7245038473542829e-01
      1.5563975621339041e-01 -3.1006055958324086e-01
      3.0022670354913093e-02 -3.1820140140306485e-01
      5.7599421329429557e-01 -3.4634577759958277e-02
      2.9561689305641209e-01 -1.2819680507546191e-01
      7.3680455940282136e-02 1.0850347016986256e-01
      -5.3528564073057772e-03 9.0145138138630121e-02
      -2.4375897685115357e+00 -6.7564476259775923e-03
      1.8080275393183234e-01 1.8478249570735231e-01
      -1.0428339046356935e-01 -1.0296834200893071e-01
      5.9417003858970176e-02 2.0486817974636387e-01
      1.4468071201547922e-01 -4.4442219581698950e-01
      2.8148525488003601e-01 -2.1636702306579558e-01
      6.7078135788652005e-01 -7.8610671922026129e-02
      1.4045012383312180e-01 -7.5021628184731098e-02
      1.0181503181891435e-01 7.9491611838412579e-02
      6.5126893526793614e-02 -5.0593210810085554e-02
      -2.5034201580259281e+00 -5.8839025799306464e-02
      1.9798988257693259e-01 -2.3908801436774551e-02
      -2.2555234801886132e-01 -2.0583865615999461e-01
      2.8153002764467559e-03 1.0814178361898165e-01
      -1.0937704071416852e-03 -1.0489277732568179e-01
      3.7467861924471280e-01 -3.2526925773254323e-01
      4.3603530413600516e-01 -2.3186083285261384e-02
      1.0921477266934310e-02 1.8599605013745829e-02
      2.4360615190411708e-01 -2.1846855541836316e-01
      1.1920243146362692e-02 -2.2566837274891358e-01
      -1.8007317979011741e+00 -1.5151163993659814e-01
      2.6961902911290525e-01 -2.8891058514935958e-01
      -1.9550341973029803e-01 -2.5888229790577683e-01
      1.2571563803657076e-02 -1.1543866567022823e-01
      3.5598775047552843e-02 -1.1021331925723039e-01
      3.0354418039158459e-01 -3.9089351813029249e-01
      9.5083768886683517e-02 1.0481036113952098e-01
      -1.2210056466169172e-01 5.1536723169462076e-02
      1.3371265179101824e-01 4.1994296210737025e-02
      2.0215218070769363e-02 -6.8140297600366120e-02
      -1.0244464278557353e+00 1.5270590629352060e-01
      3.9132368116661626e-01 -4.6971021638426014e-01
      -3.7289727380367718e-02 1.1458504579023179e-01
      7.8292670292001168e-02 3.1679656346125190e-01
      -6.2324214472402979e-03 3.2976001653190867e-01
      4.1539637950837191e-02 1.1031813402611776e-01
      -4.1685560629824550e-02 1.4394705294215449e-01
      -2.8869629327058388e-01 -1.1833760618099098e-01
      2.4840494885131178e-02 1.5673935464903632e-01
      -4.5245849750127631e-02 2.6493751824744272e-02
      -2.0109647764872456e+00 2.9199241457010281e-02
      4.4531811100963631e-02 -8.0525676825790551e-02
      -2.0169567655534675e-02 -1.7748568129271983e-01
      5.2978040581629571e-01 2.1031242575474265e-01
      6.5390090975502413e-02 3.0339807653078848e-02
      -2.1488880623152418e-01 1.1109234075371277e-01
      -2.9833036808284497e-01 2.3564610555839910e-01
      -1.1461171008027850e-01 7.4863024709538577e-03
      9.3228862948056823e-02 2.1079020612099328e-01
      1.5119221752064901e-01 8.9586024117624632e-02
      7.9210552695294056e-01 5.6476140228010278e-02
      1.7695807658468377e-01 -8.1758644781004447e-02
      -7.7253162501309440e-03 -7.8597322148478990e-02
      1.9405995942009752e-01 2.6293308010797339e-01
      2.8210618609354688e-02 -4.9017223054675062e-02
      -2.3328190538894705e-01 -3.9110060326641048e-03
      -7.3145971143519428e-01 3.2140336346846127e-01
      -1.7749627050805716e-01 -2.0675293467912921e-03
      6.4449139704137598e-02 1.8012911019671651e-01
      4.4165775696348051e-03 -2.4697666690259376e-01
      -7.1187522792714467e-02 3.9287665973244054e-02
      1.8325973151100430e-01 -1.2475808226028842e-01
      -1.6339794762535040e-01 -1.6965494798282948e-01
      8.0876449174218545e-02 2.2132741816484955e-01
      2.4807371064561126e-01 -2.8285361482961485e-01
      -1.5260307126010134e-02 1.5585008259045846e-01
      -2.7672568736438730e-01 3.8050698809332878e-01
      -1.4776537898263953e-01 2.0709106847847650e-01
      7.1506439220597767e-02 -2.7633151839350456e-01
      3.9412749170819009e-02 -1.7144135242490358e-01
      -7.0373008168927753e-01 -1.0279943119639378e-02
      5.0012487601289075e-02 -8.6578693320755643e-02
      4.9973419813070345e-02 2.2066120286171709e-02
      -3.7020069734837702e-01 3.6680273779379380e-01
      -2.5124843498872312e-01 -2.1422631424776398e-01
      2.1063222841088902e-01 5.8748667162473088e-02
      -1.5528018261487939e-01 4.8488868527812347e-02
      8.6835290500244466e-02 2.7804285135116208e-01
      9.3011935293278503e-02 6.6351866201804471e-02
      3.9006272026951491e-02 -1.0850648451828730e-01
      -4.7838142820917928e-01 -2.6296709859126605e-01
      5.1079461341514906e-02 -2.2711118498513813e-01
      -3.1623711532974379e-02 -3.9757651327666260e-02
      -5.6663516057058293e-02 -1.1440947928499673e-02
      -8.5252656944865446e-02 1.0748265128819899e-01
      -3.0088018530458283e-01 1.8903567170215163e-01
      -2.6409746220913594e-01 -1.2066092474722576e-01
      1.4195292847666529e-02 -5.9509852121390927e-02
      -6.1356933734979094e-02 8.8125572968855814e-02
      -6.4329741199188828e-02 1.1689577039695394e-02
      -2.6927667625051046e+00 -8.9606741397406819e-02
      -3.1869731584859243e-02 8.5334831937982400e-02
      2.5586174992979172e-01 4.7877097735124073e-02
      2.2459064185703059e-01 3.3447074678852953e-02
      -3.6745594607537686e-02 9.5270990059203212e-02
      1.3359210911508373e-01 -1.1627501542844557e-01
      -1.1208401860886763e-01 -1.8130249744911622e-01
      2.8115444644445420e-02 -1.1099140727972157e-01
      2.8848930874278478e-02 2.0309675837430038e-02
      -2.9285502162717754e-02 1.8311283081676219e-01
      3.0494718525308473e+00 2.0967640094565795e-01
      2.4124441881620987e-01 -7.7299769679351092e-03
      -1.6969806849747063e-01 7.7479649259783220e-02
      -1.3926670343519174e-01 1.0216288921766210e-01
      -2.2708984708084592e-01 9.7530389158806685e-02
      -2.5856662365921335e-01 2.8950089501760051e-01
      -1.5907556023611036e-01 -2.1553612680756085e-01
      3.1695376329151058e-02 4.0214339588652309e-02
      -2.7492961981950631e-01 -1.7602793581618943e-02
      -2.1918688508018977e-01 -2.7345218529538143e-02
      2.7983810518593315e+00 1.5406622775039411e-01
      1.4618785048793353e-01 2.8712741781023443e-01
      3.2925247315813734e-02 4.1997019468097453e-02
      3.3283692725704739e-01 -2.8053393259119341e-01
      9.3510866582874233e-02 3.2290999186432773e-02
      -1.8453145150109507e-01 -4.6216597636977030e-01
      -6.3399093966374720e-02 1.1584000482920449e-01
      1.0394857557594489e-01 -5.6599483555780539e-02
      -1.4965307090797370e-01 -2.7035210208179658e-02
      1.6748040769691880e-01 -2.9379037526797443e-02
      4.4503504569573735e+00 1.0014203261903627e-01
      6.3666812865806652e-02 -3.1404210868328725e-01
      -1.5392470720214146e-01 -7.3947936863999794e-02
      2.0921160374225117e-01 -2.1297637318372084e-01
      9.4654431319028554e-03 3.8884303977365975e-01
      -1.7142725229830696e-01 4.0852593441802315e-01
      -2.3207836534175824e-01 1.1102924570724849e-01
      9.2185999798098495e-02 -2.8012892463050448e-01
      5.6143235715791669e-02 -8.1553156977642052e-02
      -1.5032249620365323e-02 -2.6234303333205145e-02
      3.2983965355719156e+00 1.9390555897854181e-01
      -6.5618377128829758e-02 -2.4266520729377627e-01
      -9.4531606830319304e-02 2.5411566773783541e-02
      5.3754526783979885e-02 -1.3794475472484516e-01
      1.8821375355214806e-01 3.3915603274823086e-01
      2.0409856871251880e-01 -9.5519224932003877e-02
      -1.6242266945729791e-01 3.2076166576812404e-01
      -2.5700886657819499e-01 -4.0734063475380922e-01
      2.2824615162435563e-01 -5.1782620477987325e-02
      1.3971974807197557e-01 -1.8828842911836788e-01
      8.4100216139195028e-01 2.5647617091629164e-03
      5.9393572991127602e-02 2.5897500556821207e-01
      -1.1819719989615030e-01 -3.5597036411280292e-01
      2.9848524690558584e-02 3.9126505338024725e-02
      8.6036216624144873e-02 -2.1882750479063620e-01
      2.0449947981409369e-01 -4.4517331645074218e-03
      3.1330749964316412e-01 1.0391953379748760e-01
      -4.5171110692792858e-02 1.9418174571151509e-01
      3.1001770475199986e-01 5.2959057375354668e-02
      1.4823708148679331e-02 -1.1137720272880229e-01
      -4.1168126511424745e+00 1.1812333969627194e-01
      1.7859168210709910e-02 2.7186665942632297e-02
      -1.8358311152883838e-01 4.5522141577917306e-02
      -2.3463085248848123e-01 2.9250397335609418e-01
      1.0392010465085736e-02 2.0626747095537970e-01
      6.6028911272839164e-02 2.0099724078036441e-01
      9.9631231182109703e-02 3.1945786077492766e-02
      3.9463343383673294e-01 9.2006654475553687e-02
      -1.9975338800721058e-02 -1.9791223131169530e-01
      -5.4219983287845157e-02 -7.8380210711005028e-03
      -4.2770881289885221e+00 6.0957180954188527e-02
      2.3417337906210492e-02 -1.7934198445156704e-01
      -8.3486662290462421e-02 1.9417163780158586e-01
      -1.7908416503957539e-01 2.5417222321306809e-01
      -7.6895653852946041e-02 1.1070767049791812e-01
      2.0104960168925400e-02 3.4326530920620602e-01
      -1.0906111103971712e-01 -4.3716509861506200e-02
      -1.8189576512242986e-01 4.3675929841001514e-02
      -9.3523893418639911e-02 -1.1120857723907485e-01
      2.3815742064633629e-02 5.7633128053045116e-02
      -4.4592432370967687e+00 -2.7383939498559801e-01
      4.8554300294948234e-02 -7.1643194484613856e-02
      -1.7237177700723769e-01 -1.7511640617658769e-01
      -2.1490599311677561e-01 8.9805816513049641e-02
      1.3720001751911712e-01 -2.2212119651246279e-01
      -1.8880711024190000e-01 6.9797564456632988e-02
      -1.5466476871280188e-01 6.4174699198927779e-02
      -1.2651950125479300e-01 3.8018616615748929e-02
      -3.2682108492077803e-02 3.2838725243631392e-02
      -1.7859858411958338e-01 1.1727571428666932e-01
      -3.2968458234076055e+00 -2.3649454120861529e-01
      9.2053998211808569e-02 -4.7083601087604426e-02
      8.7363699473081743e-02 -2.4019235001329883e-01
      -1.9348684965587562e-01 1.0291379513748052e-01
      1.1820459691591077e-01 -3.1888666338155064e-01
      -2.4460479938436527e-01 -1.8515732895307427e-01
      1.1631098949549072e-01 -5.0006359980352931e-02
      -6.2784881586962160e-02 -8.2589734550372204e-02
      6.9439036777200411e-02 4.9250202748395526e-02
      -2.2553937517520418e-03 1.5230440255589492e-01
      -3.4293209289971225e+00 -1.6468303452809849e-01
      1.4563385433405121e-01 1.0753715445928856e-01
      2.6467026940906430e-02 -4.7137754291413939e-02
      -2.6871308656401321e-01 1.1613637738615226e-01
      2.0616296577279594e-01 -2.7885616835350124e-01
      -2.5080921660668559e-01 -2.4723398379489062e-01
      -2.8547748591225097e-03 -1.1647824318412785e-01
      -3.5257508295314002e-02 -1.6614337827440781e-01
      1.1370252363503027e-02 5.7015907784094426e-02
      -1.9706573711874434e-01 1.3070657864908419e-01
      -2.5280678385297417e+00 2.2916094203352236e-02
      1.3162373967672550e-01 -6.0438518575819444e-02
      2.1185371326283377e-02 -1.1509267877055136e-01
      8.6918924860672986e-02 1.0471761509476853e-01
      1.0295886828729792e-01 8.9539662296681824e-02
      1.2797286138780137e-01 1.0722976168217214e-01
      1.6273468827642806e-01 -7.0198353383101347e-02
      2.2036156779603723e-02 -3.5812783952268168e-02
      -4.9015044815473689e-02 -3.8038500357319932e-01
      2.0685991969178710e-02 1.5383088107423712e-01
      -2.3010500401152796e+00 7.1172534476693167e-02
      3.9264331264008301e-02 -1.5280997597840542e-02
      -1.0180327825847210e-01 -7.4767997946785958e-02
      7.0032620047545888e-02 8.6524503373659439e-02
      3.0558817038249302e-02 2.0376730369953060e-02
      2.9947990474795589e-02 -1.1986795763721438e-01
      1.9256347061149148e-01 1.2797861000207708e-01
      -1.6819817846174725e-03 -1.2797484325109901e-01
      1.3338702739725558e-01 -2.5847072277852440e-01
      2.2019245072129753e-02 1.5919686896591206e-02
      -1.9519066751099683e+00 -6.7480536780740044e-03
      1.1606920720016260e-01 1.5678544286550564e-02
      -1.3926425836002504e-01 7.8605716135473513e-02
      2.8356027478012115e-02 2.5703160719627660e-01
      -1.8326906326012612e-01 2.9964517516679681e-02
      -2.9222537754967026e-02 1.6147664934167349e-01
      1.6572968289034473e-01 1.3289065684107237e-01
      4.9290907666705713e-02 -2.0555869450744269e-01
      -1.1794299417693369e-02 1.2179532930226157e-01
      -3.9624954752659820e-02 1.4197646808027797e-01
      -3.2723468142851062e+00 1.5009977509635430e-01
      1.4739887240747168e-04 2.0715326976585788e-01
      -1.4668237131544282e-01 2.5176870900137494e-01
      8.4489806883720348e-02 1.1810021627680049e-01
      -1.7794548104643340e-01 1.8135142153391778e-01
      -1.4503859325507248e-01 2.0674905293239676e-01
      -1.4262482507302437e-01 6.4877226782198386e-02
      3.0520257935851552e-01 -7.2949133849916272e-03
      -4.3442537880442882e-02 -1.0003792098638914e-01
      -3.2036441133220843e-02 2.6195818032889900e-01
      -1.8121243608310691e+00 -3.6340442072613564e-03
      1.1264816355813190e-01 7.5613498046102887e-02
      -1.1757170648630688e-01 -1.2301866728911090e-01
      2.3798507278927722e-01 2.5297435363566909e-02
      1.0613303510961271e-01 -1.2628047053928171e-01
      -2.8935073238444148e-01 -1.1722078481939140e-02
      -1.9068913001688340e-01 3.7740785703446039e-01
      1.5568077882646419e-01 -2.1850144235570079e-02
      7.0889058562584345e-02 8.9515936451135397e-02
      -1.8729758803454730e-01 7.2450784561088347e-02
      9.5217764887214151e-01 -1.0584284031617192e-01
      8.2496241262516479e-02 -1.9651553996103679e-01
      -3.0678803571341129e-01 -1.2946279386338910e-01
      1.6357165524147554e-01 2.0792612078312889e-01
      4.9741487402008185e-02 3.1257252787315837e-01
      -1.8105851382479488e-01 5.6999745721164108e-01
      -4.2116874534224363e-01 3.6438141103948446e-01
      -5.9011782349617681e-02 6.2369663117220850e-02
      1.1356764598342205e-01 -1.3257780139607296e-02
      -8.5216070765909549e-02 -1.1475159521188856e-01
      8.6701246875706239e-01 -6.2048043942683644e-02
      -1.9717390527842639e-02 -1.7070056258399599e-01
      -4.2571332202546419e-01 -7.5791321759105704e-02
      -8.3918048475222079e-02 -2.7882824891958563e-02
      6.8823521844226859e-03 -1.0071666233884648e-01
      4.0371412556257286e-02 -1.6713023050014608e-01
      -2.6775925648215726e-01 2.3195413067054607e-01
      -4.1050030380924735e-01 2.3292142860289039e-01
      1.4766506470115290e-01 2.0343168285953694e-01
      1.7275796359664239e-02 -3.9442678728121511e-01
      1.2040369758057090e+00 -3.6420637240795563e-02
      1.1183305314250885e-01 -3.7933419926841272e-01
      -1.8677684274249512e-01 -3.2967204457961417e-03
      3.2834014482486618e-01 3.6304866829501556e-02
      1.9819579861578945e-01 1.3775484382523326e-01
      -4.6618598056923960e-01 1.2752926388847222e-01
      -5.3541300290487170e-01 5.0631229250118881e-01
      -2.0744668584919859e-01 -3.6486835168503318e-02
      4.9782236062643195e-03 -3.3439112841407638e-02
      -1.6315192026123385e-01 -6.1087742586245827e-03
      1.1700966850618427e-01 1.0191026840350871e-01
      1.1772496128144452e-01 -6.8627944912925162e-02
      -1.0208749559057871e-01 1.3412947194062080e-01
      3.5407517271030631e-01 7.8612891494519319e-02
      1.7452904102643771e-01 2.1765260425738539e-01
      2.0675405787809304e-03 -8.1286219038440077e-02
      -1.9871640942653892e-02 2.5562460547391891e-01
      5.3398353337358609e-02 -1.4480203068291339e-01
      -1.1336560614820795e-01 -2.3023861434236403e-01
      -1.6757170177512319e-02 1.2726194650473122e-01
      -7.7228168273029763e-01 4.3911546104204439e-02
      2.0279041272304357e-01 8.2651103775817164e-02
      -1.7557400525875673e-03 9.7007750847495078e-02
      -1.6784503230584880e-01 -4.7199881098543159e-02
      3.1130451793277358e-01 -8.2888200889418159e-02
      6.7555286745828114e-02 1.7823355028665600e-01
      -1.3235931125703157e-01 3.9088071365318992e-02
      3.1113732947312314e-02 1.0570779713440853e-01
      -1.6862236441866227e-01 9.8249641291525427e-02
      -1.9827777204350880e-01 9.6249444742562626e-03
      4.4882757711907821e+00 -2.0662273379806882e-02
      -2.4326595853016202e-02 -2.8649975503533313e-02
      -4.9380311023299948e-02 8.4195994732107399e-02
      -4.2078108619517017e-02 1.8080779526943688e-01
      -1.7226490524564059e-01 1.3106487357125329e-01
      6.9532550274461577e-02 2.3423454937800129e-02
      6.9153771939724440e-02 -1.9538784861079922e-01
      -1.5590509432350203e-02 -1.5727742883596760e-01
      1.4412787453273646e-02 5.9943884421666149e-02
      -1.1670195969068514e-01 2.6743997557121008e-02
      3.8482338597496550e+00 1.6265195298725957e-01
      2.0259058085682302e-01 5.7058208814791588e-02
      5.1843866362417654e-02 1.4181547177479756e-01
      -1.2563058640654146e-01 -1.6996353590411920e-01
      1.5100481239118682e-02 -6.2825485420654775e-02
      -2.8955390355109627e-02 1.2114742626676182e-01
      -7.5576270078765648e-02 4.9511439804800758e-02
      -1.1603592296645555e-01 -2.2823971234163980e-05
      1.4411157672511188e-02 -9.5691294166854110e-02
      -2.4863164651063197e-01 2.5371500983858107e-04
      4.4365199929120926e+00 7.3317084820404234e-03
      1.8423962298708971e-01 -3.6238715678475958e-01
      -1.5915692779557744e-01 3.6917697043887782e-02
      2.6577540063983907e-01 -3.9922258867566007e-01
      -1.7330568337058552e-02 6.8218851069737269e-02
      -5.5191880215368173e-02 3.5831403449493024e-02
      -1.5335311458058049e-01 6.4405630264730094e-03
      -2.1966338460256446e-01 -3.4180977253395572e-01
      9.5821484958967060e-03 2.1642963738763826e-01
      -2.0498364708186972e-01 -2.0625487690255109e-01
      5.0032841743232881e+00 2.1267369247922288e-01
      1.2760713539067386e-01 1.7799317086434227e-01
      -1.0188338388472740e-01 -6.9940144270768820e-02
      -2.1685650498062454e-03 -1.8438873188691296e-01
      1.0041150202888691e-01 -3.5212621944699922e-02
      5.0877456626811909e-02 -3.8890013921990492e-02
      4.0541785796383628e-01 2.3359168764463495e-01
      -5.4187445009472403e-02 -1.6853918595479220e-01
      8.2998780372404476e-02 2.6378420821584286e-01
      -1.0346513712922221e-01 -2.3600390925589219e-02
      1.6194862849916210e+00 9.6525886791667667e-02
      1.4641771395900144e-01 1.5327921624949059e-01
      -3.8501854569461071e-02 -1.1693992709486868e-01
      -1.2476478066039795e-01 -6.3084322115650349e-02
      1.6807378447804414e-01 3.0544120368081851e-02
      1.5436116379512935e-01 -3.0685170435516287e-02
      7.5633344141250489e-02 1.7426101613415446e-01
      -9.8569061832167154e-02 -4.2624196418864647e-02
      1.0391327177434595e-01 -7.8289201886103721e-02
      -1.7683426403952784e-01 6.0689618320644526e-02
      -3.5179737774000404e+00 7.8478797161790712e-03
      2.2772270316762744e-01 -2.2589143889426400e-01
      -1.1624402319636705e-01 1.9439384428456667e-02
      -1.8342940244824868e-01 2.6690024297224668e-02
      1.3111698063705227e-01 2.7109329158021489e-01
      -2.7166073428500675e-02 2.4580717231256824e-01
      -2.7651763831211251e-01 8.7184196396980010e-02
      9.7105606372372283e-02 9.2563135486011840e-03
      -1.1210834347251272e-01 -2.0551815607801871e-01
      -2.3009561680248047e-01 1.1039822620945974e-01
      -4.2538829662330055e+00 -2.1900177358154924e-01
      1.4847058177268160e-01 -4.1509773316654959e-02
      -4.4966085836029457e-02 -1.0790093710732496e-01
      -1.8530389258555088e-01 9.3147768839368761e-02
      2.8838191246638228e-01 7.3989728044834918e-02
      -3.0475700207220890e-01 -5.7541568047562740e-02
      -2.6525301903991166e-01 1.8390139120643131e-01
      -1.1425222659438901e-01 1.2940323989932829e-02
      -1.4816624103095059e-02 -1.0374579557100092e-02
      -1.8422923019514320e-01 1.0482406698370085e-01
      -2.1334037178062175e+00 -5.8345649271578426e-02
      5.3429901528159983e-02 -2.1142949549261897e-01
      -9.9185819007798770e-02 -8.9220417082377754e-02
      -1.5394902946731220e-01 7.9085823342951375e-02
      -2.0941642309690536e-01 5.3729133715948202e-02
      -2.3997178178587767e-02 -9.9240513436311933e-02
      9.9482389780586475e-02 -4.5930821844049917e-02
      -1.4431351813467089e-01 -9.5764783388056843e-02
      7.1609176521159404e-02 1.7016391185461135e-02
      -6.0555288056340126e-02 -2.0799537107719399e-02
      -2.8607279853499250e+00 -1.2002061833046179e-01
      -5.6622183044115031e-02 3.5517103970147942e-02
      1.3158181411763545e-01 -9.0101417590733798e-02
      -2.1575753586945082e-01 1.3803984120552543e-01
      -1.7227570388253885e-01 -1.5106477650194147e-02
      1.1390479126108990e-02 -1.7230274266840073e-01
      2.3839012177877972e-02 -9.3111062476775031e-02
      -5.4091734209552371e-02 -1.7748585160361027e-02
      3.5036696066256812e-02 -3.7636253228030020e-02
      -4.1119434850781768e-02 9.6466531367262714e-02
      -2.9449591066481147e+00 1.8383743039038100e-01
      -1.6227287672703150e-02 -3.0195095642393397e-02
      6.9207985044471329e-02 3.9568866810693007e-02
      -1.1752836788080508e-01 -2.3949021700585979e-02
      1.7331637469483852e-02 -2.2311130040251431e-01
      3.7983551824975303e-03 -5.4790360701190824e-02
      1.2846853813836090e-01 -9.3249414311524864e-02
      2.6955793514368366e-02 -7.5228390890815053e-02
      -3.2516930822544240e-02 -2.3191558398926745e-01
      9.9422536422680147e-02 7.3780775726176431e-02
      -2.7628482827054066e+00 1.6179470671236049e-01
      -1.7961620141198037e-01 1.4384377910347571e-01
      -3.4082241384042096e-02 1.1073461559730485e-01
      7.8356225957451082e-03 1.7939303847171063e-02
      5.1066294875629831e-02 2.2024950406391974e-02
      -9.2590792233144648e-02 1.0123692345307335e-01
      2.9935345828443111e-01 2.1825573384026950e-02
      2.4510611844078775e-01 -1.8405731599902816e-01
      -9.8597531430233296e-02 -1.9588574750085250e-01
      -1.0048398901736498e-01 1.1482249931521586e-01
      -2.5690919577120290e+00 1.6425245265984337e-01
      7.4909004398661600e-03 -3.9040657985382483e-02
      -6.7982329686250925e-02 3.3489821295823297e-01
      -1.9007675053956347e-01 2.7699626108686565e-01
      -2.1858964006795722e-02 -9.6225436569709871e-03
      -1.3352868414188307e-01 4.0921156976050915e-01
      2.5583761431350754e-02 -2.2957318455832684e-03
      1.0951110788868687e-01 8.4679928974338056e-02
      -1.2964386618589499e-01 -3.1565948980120731e-02
      -1.6386497120701624e-01 8.2430640473913644e-02
      -1.1585830861790647e+00 1.5954408748540846e-01
      8.0797457725514374e-02 7.0785030684154107e-02
      -5.6079558515055326e-02 1.2349579939864599e-01
      1.2339583149518414e-02 2.5666496862606680e-01
      -8.0945302077122736e-03 1.9621610393845529e-01
      -5.7195973374987080e-02 8.1932415548247303e-02
      9.6425028529203531e-03 1.2424933907653733e-01
      1.6503204236760971e-01 -2.3689278059992491e-02
      -1.1540097714071165e-03 -1.2497789206575781e-01
      -1.9553107562351330e-01 1.0421584257466528e-01
      -2.9027515842125839e+00 -1.3780411801934467e-01
      1.1727786877640614e-01 1.6003212218274462e-01
      8.9534937061821057e-02 3.2351260563780210e-02
      7.9684349973829588e-02 1.8400014461762543e-01
      -1.0667345345415517e-01 -5.7573377225070631e-02
      -1.2460455701707528e-01 7.5562135776008565e-02
      -5.1852292776812720e-02 8.6365180945354073e-02
      1.5590791288398284e-01 2.0058603125939719e-03
      4.5237053254149513e-02 -2.4635925137017158e-02
      -2.7855611617717119e-01 2.1697594364413672e-01
      -1.1581269662392490e-01 2.8096661769660427e-03
      -2.6366554290055404e-02 1.6121497888976308e-01
      -1.6935107796018126e-01 8.7494057313708302e-03
      1.2151651151834454e-02 -1.3224899854155903e-01
      -2.0225757030462471e-01 1.3881873528042191e-01
      1.5491004249760855e-02 1.1658218014951317e-01
      -5.4095185987255587e-02 1.4627985348167322e-01
      1.6125735028837637e-01 -1.5220331842357776e-02
      -3.6615398487674906e-05 -5.0516030740219160e-02
      8.0481339776240446e-02 1.1171867111539756e-01
      1.2788133022791526e+00 -4.6483668954210855e-02
      1.7554136055684030e-01 -9.6028714613970431e-02
      -1.4126165169840302e-01 -9.2043955988549087e-02
      2.0992930777728888e-01 1.1576952256480244e-01
      6.5791805006669785e-02 1.2307998547203605e-01
      -5.3732585781651576e-02 3.5003163912891960e-01
      -2.2044369983398943e-01 3.8746772255064454e-01
      -2.6241491704416298e-01 -1.9848324173933604e-01
      8.3174918590993019e-02 7.9607511870010042e-02
      -1.7828204375786530e-01 -4.1203209379743380e-02
      1.7441361259056016e+00 -1.4885527314813504e-01
      6.8219759138979661e-03 -6.3781864912645383e-02
      -2.9655865542194909e-01 8.0579146186776293e-02
      2.7392598189492020e-02 2.0018540918233119e-01
      -1.2913334190383710e-01 3.0621833899463319e-01
      9.4205476726941351e-02 5.4732093114970307e-02
      -1.5827930045126176e-01 2.3704694035915469e-01
      -2.3543034681748368e-01 -9.8034773968615173e-03
      5.7896646344812716e-02 2.4584417913456488e-02
      -2.7691626102740414e-02 -2.6706138392425482e-01
      1.7612595122016104e+00 -2.1305705443232004e-01
      -6.7887377867626872e-02 -4.1267152389572137e-01
      -1.3029900719134371e-01 -1.5445318411483006e-01
      2.7736481055668072e-01 -5.2261213460840332e-03
      -9.5128465180536040e-02 1.1677973503713743e-01
      -2.6417399884449483e-01 -3.7524805877999423e-01
      -5.0433261259683904e-01 3.2576737899664138e-01
      -8.3509543971426459e-02 -2.2060935906994877e-01
      1.9736905471771415e-01 -8.4098770324136915e-02
      1.8586971302374804e-03 -3.0446912344700672e-01
      9.7434967888129154e-01 1.4265578225068967e-01
      1.4782371402977840e-01 3.3179668758793475e-02
      -6.7873053724302274e-02 -8.9116904971127786e-02
      4.4068818254742670e-01 4.9768657680745350e-03
      1.5090913501962677e-01 -2.7206035489957936e-01
      1.7382317001101680e-01 -5.6133089528895153e-01
      7.2740753928502502e-02 3.5858189926817630e-01
      -5.3505316871591642e-03 1.3114827445594879e-01
      8.3326819015383819e-03 9.5873979374547676e-03
      -5.6736646899003713e-02 -4.5963368406217991e-03
      -1.4948241836306218e+00 1.5704929879903039e-02
      2.2713518652019082e-01 4.1198925746453829e-01
      8.4607736532436847e-02 -2.0635706728182185e-01
      1.6445203321217394e-01 -8.6563368566442089e-02
      4.4963019008317934e-01 -1.6020327272163218e-01
      2.1540454166042219e-02 -3.6214568622416360e-01
      6.2526774180036604e-02 2.5588159455012360e-01
      2.5678337179174288e-01 -1.5454313826981969e-01
      -1.2586707213323134e-01 -1.6510064211293621e-01
      -9.0341255890081767e-02 1.3620783826795815e-01
      1.5228736603405062e+00 1.9662610614418910e-01
      -9.8596942689950021e-02 1.6517611130997395e-01
      1.0467206654174190e-01 1.7426714861469957e-02
      -1.5564986969236447e-01 -1.2725867086017206e-01
      5.4186430160143503e-02 -2.5048240248054932e-01
      -6.2105041615355759e-02 5.1439653786298174e-02
      1.4542648257156585e-01 -1.6845130531507985e-01
      6.7083415657186354e-02 -9.6660814735470474e-02
      -4.3971475368474996e-02 -2.6693789505815840e-01
      1.2107549790592315e-01 -4.9660617535999272e-03
      3.4679555592692624e+00 -4.1454565149426692e-02
      -2.9711241133151137e-03 -2.8741220267331058e-01
      -5.3508788375805090e-02 -5.7451962188414293e-02
      2.2541342036689227e-01 -5.0209716867887044e-01
      2.7099845627609676e-01 7.4778829666221042e-02
      -2.5371275069001453e-01 2.6943238998001906e-01
      -4.4886283679131678e-01 3.6568676301990710e-01
      -2.9888639584593035e-01 -2.9016330419387842e-01
      -4.2485763250419820e-02 -1.9235009816894644e-01
      -1.5696430031257136e-01 3.9151418504301295e-02
      2.7344220192608883e+00 -2.0280363544468039e-02
      7.4118246215765474e-02 -2.4759974924900865e-02
      -2.4589288509617095e-03 -4.4210051835580896e-02
      7.0054962872978230e-02 -1.6661598183086546e-01
      3.4250230040527052e-01 -3.9930177392247451e-01
      -2.6730601812995872e-02 -1.3813300395906081e-01
      -1.6297109962320111e-01 -5.4486302376055194e-02
      -5.3676430954161178e-03 -1.1719676752734977e-01
      2.3106027875236250e-03 -3.7134427656358590e-02
      -2.3046750233077770e-01 -5.4973680655719163e-02
      3.2379332089426529e+00 2.3611370962061191e-02
      5.3483766952793950e-02 1.7009071308635834e-01
      -8.9158786561864475e-02 -7.8319697306483513e-02
      1.1372887611511859e-01 -8.2607486273832340e-02
      1.4666764605002400e-01 -3.6316623533666820e-01
      -3.4266825658154226e-02 -1.2250235210015500e-02
      1.1794115477533657e-01 1.4246085607984069e-01
      1.8990776034567797e-02 -2.7263589446260444e-01
      9.7266377967496570e-02 3.0650770801132460e-01
      -1.9779758172434783e-01 -2.2559423917115577e-02
      2.2719190934644398e+00 4.1207715049931939e-02
      3.5637561468817011e-02 3.0467236746283783e-02
      4.3645067715085750e-02 3.7083667442325996e-02
      -3.0974151081611532e-02 -4.4093357429676731e-02
      1.0616536274992583e-01 4.3321391422407129e-01
      2.1341723313159333e-01 1.1027963782233022e-01
      -1.7860590703660108e-02 -9.3956604259374903e-04
      -1.5271001030599385e-01 8.7901943468653806e-02
      -7.0244883756119134e-02 -1.5756465940223094e-01
      -2.5327772633055249e-02 1.7061092831631871e-02
      -4.6973286217727095e+00 1.7662430806572934e-03
      -4.4227575407446651e-02 -4.1250716719609490e-02
      8.0863257882264075e-02 -1.7830781152411815e-01
      2.2526780724111403e-01 -1.8042376463778087e-01
      2.1742163862220107e-01 6.5877199401678008e-02
      -3.2042006303860454e-01 -6.1936840085932724e-03
      -1.6101666320031574e-01 2.4901616832323875e-01
      3.9283014143747036e-01 -4.7658549060367497e-02
      -3.9846024417070997e-02 -8.6510233177204951e-02
      2.7640078973378460e-02 9.4946351457830439e-02
      -1.8734302205561502e+00 -1.0041510890914339e-01
      3.7276304620097534e-03 -1.6043097427813202e-01
      -2.4738300474487121e-02 -4.9889241531467565e-02
      -1.4081843194235139e-03 -1.3830006637972403e-01
      4.3632524841738303e-02 6.9301925898863401e-02
      -1.8976924867801853e-01 6.6731543303420737e-02
      -2.6069921511749461e-01 1.2762782912683873e-01
      -1.1023392590847837e-01 -9.8893228680125622e-02
      -1.1558469253101293e-01 2.6288686387655519e-01
      -8.6174338164802480e-02 1.8421439543153367e-01
      -3.2769370027604658e+00 9.7538068781098150e-02
      -2.0596764910837664e-01 -1.2779972663181902e-01
      1.1410128179196616e-01 -9.0091149009274632e-02
      -7.5687513625735101e-02 6.0615816710271019e-02
      -8.0733677827958122e-02 1.3666053031348543e-01
      9.7390159350129984e-02 -7.1156776161543117e-02
      4.6509410018160786e-02 -1.5248447096813363e-02
      1.7678631929554464e-01 -1.1663021164047788e-01
      6.5488223968249090e-02 -1.1957741194209184e-01
      1.0052524926073764e-01 -1.5897496215324665e-02
      -1.9716352822527108e+00 -4.2887310720444256e-03
      -3.7613166864460375e-02 -2.0145160180334248e-01
      8.0658616735149485e-02 -1.6424364992047638e-01
      6.1317563253823683e-02 6.0072762778171175e-02
      -8.1867713937585268e-02 1.3686368225766876e-01
      2.3646240503625293e-01 -1.4709617364043076e-01
      1.2452487012739563e-01 5.0690986797542935e-02
      -2.0163593743139558e-03 5.3657021837840012e-02
      3.5989010241630266e-02 -2.0161539667375108e-01
      -1.7165326699449029e-01 -7.1414436208683887e-02
      -2.1881193858808894e+00 6.7401452814557797e-02
      5.6731887575449315e-02 1.8581211677328673e-02
      1.4148732749368478e-01 -1.0651995448588276e-01
      -1.1033983045757059e-02 3.2112772015048741e-01
      -3.9246637171152135e-02 1.3431531436910205e-01
      2.2943320663214872e-01 3.1173446629677776e-01
      2.2421425317464028e-01 1.0989127197202310e-01
      1.1669398869285272e-01 6.7751854271352774e-02
      -1.5625883528741707e-02 -1.3506430109151157e-01
      -7.6928970342350328e-02 -8.7177575063774174e-02
      -2.4488422935872816e+00 -1.6629540646508184e-01
      1.1101814406258334e-01 2.8321731046571732e-02
      1.7109673652414326e-01 2.5722323708506530e-03
      -1.0303796014640260e-01 -1.7031030819818407e-02
      1.3536165566458033e-01 8.3699219023909130e-02
      1.9089104497895520e-01 2.0644840089712671e-01
      2.2504113491141033e-02 2.1530836629992353e-01
      -9.0570203253210163e-02 1.5622911231139980e-01
      2.5700500934145415e-02 -2.2386820079291478e-01
      -2.4225572599778783e-01 -7.1621290687296196e-02
      -1.5016849789152207e+00 2.8737345139087907e-03
      2.5095827858537018e-01 -3.7817183569826968e-01
      2.8598579606851610e-02 2.7610776349829572e-02
      -3.6696794666291235e-02 1.5415527402116902e-01
      3.7127773386725167e-03 3.5383617361839981e-01
      6.6091424763667139e-02 6.9963592333441516e-02
      3.1689236428198278e-02 2.2455931336797982e-01
      -1.0907580195311775e-01 2.0957333601764613e-01
      4.7671707254596629e-02 -3.2110889005257393e-01
      -3.8769846857898721e-02 -8.1020204168870499e-02
      -1.2597715891276711e+00 -1.6367372175784649e-02
      8.0788569102350369e-02 3.8500317913521966e-02
      1.1826400746952685e-01 2.5000883516575655e-02
      3.4340924106580649e-02 1.3554951421823516e-01
      6.8862218254836516e-02 8.6389834943029639e-02
      -1.3962237941715418e-02 2.2312432673696150e-01
      1.7211064808627863e-01 2.8981176426494948e-01
      1.6575665323236660e-01 2.8892447726018053e-02
      8.4069028376073912e-02 -2.2269020747681784e-01
      -1.6826896288629251e-01 3.4419807802327562e-02
      -1.6703474581232833e+00 5.7555187745535613e-02
      2.4441512705680404e-01 -6.1879879157678404e-02
      3.6175249791236250e-02 -4.7017823823851723e-02
      5.0415760200390472e-02 1.4709598700512799e-01
      -2.9350499950665618e-02 1.3038281859176140e-01
      -6.0729926648821165e-03 9.0395608240307998e-02
      1.7297509125479674e-01 3.0731092521772474e-01
      -3.7720537314517633e-02 -3.1004286953650053e-03
      5.5887704493344403e-02 -2.7172845237860239e-02
      7.0606011097457705e-02 9.5366571111755137e-03
      -3.1833366659168050e-01 -8.9382874655976260e-02
      1.4059273413694260e-02 3.3339424930271627e-01
      1.4088446908206551e-01 -5.1487308313795443e-02
      -4.4663036730801506e-02 -1.1579211144036219e-01
      -1.8604101193711069e-02 -1.5333937050527111e-01
      2.6441123153687451e-01 -2.6337088093911948e-01
      1.2281905867500605e-01 1.3825374800100060e-01
      1.3365005567163318e-01 1.5308217240345401e-01
      9.0244905361728342e-02 1.6573907547874317e-01
      2.0735040016513537e-02 7.9549141116592240e-02
      -4.3634694916496619e-01 -1.9051699316382345e-01
      1.2126712841736291e-01 1.8973828358941452e-01
      1.1070617222868129e-01 1.0753948402512833e-01
      -1.1053197165495629e-01 1.1572235164682508e-01
      5.1279517994766453e-02 3.3698211135839762e-02
      -6.0275646181084950e-03 -3.9595962299871480e-02
      -4.5573668911843559e-04 2.1079335513113781e-01
      2.2407033855909025e-01 1.0127641968400593e-01
      -6.8234955253686155e-02 5.7325303947471425e-03
      -9.3022853987388410e-02 2.2482961865423270e-01
      6.7293107878912140e-01 -6.0751721501007543e-02
      6.2222457541631693e-02 3.9978204838894388e-01
      -1.6838325260193709e-01 -2.2685926117366231e-01
      -6.9272704922215919e-02 1.6263751534098186e-01
      1.9424677840693574e-01 -4.2479374272042986e-01
      -2.3167834600482384e-01 -2.6421363659604924e-01
      8.2505489205860094e-02 2.9404803888825742e-01
      8.0762628854132254e-02 -4.0342747810534887e-02
      1.9780492623337914e-01 2.5265960970089779e-01
      -1.7375075431261391e-01 -2.1944190305846495e-01
      2.0438752967794938e+00 -2.0080890751123795e-01
      1.2679323227730185e-02 -5.0285054352136926e-01
      -3.0624070268574127e-01 -1.5839999170833780e-01
      6.4142420677186618e-02 3.9484072031607875e-01
      -1.3358387491629112e-01 2.7467637200790546e-01
      -3.1250207026543791e-01 -1.4251013385868813e-01
      -2.7505051992113078e-01 2.3087588981186569e-01
      -3.7444104524356464e-01 -3.0031432900226446e-01
      3.6336823044390842e-01 7.8983027989005861e-02
      -7.7274479569476501e-02 -4.3301950714549703e-01
      1.9385270470172505e-01 3.5223828963529408e-01
      1.8464368395458253e-01 -3.0406507056495408e-01
      -3.9641737800068372e-01 8.0439591826030291e-02
      2.0896903033758113e-01 7.4399599993819376e-01
      -2.6773107609764291e-01 1.4283817025009557e-01
      1.4373485436798417e-01 2.1129932827061229e-02
      1.1628704820080740e-01 -1.7707197688405418e-01
      -1.3194710889031230e-01 2.1423247351826386e-01
      1.1009853387151436e-01 1.6417807300300147e-01
      2.4774626882597611e-02 -2.2114936751473427e-01
      9.5156448495538704e-01 1.8776698425683133e-01
      5.9185745311679638e-02 -1.8681892830397290e-01
      -3.8822676467926594e-02 2.4245812393116416e-02
      2.8579705329980026e-02 4.0959544464029424e-01
      -1.3147431299771498e-01 9.0867091267680999e-02
      5.9193668338156147e-02 6.5701438249785984e-02
      1.3155279118798302e-01 1.4285434098116754e-02
      2.3365275425251897e-01 1.0779302217551309e-01
      -1.5245545286440235e-01 1.0339174051175325e-01
      6.0493814964899299e-02 2.3163945573474676e-02
      2.1289053458785001e+00 1.0336724235798830e-01
      -1.3257188459010941e-01 -4.8087920515840279e-02
      1.4109100825676091e-01 1.0756040467381878e-01
      -6.0933976238626139e-03 -2.6286304411752726e-01
      2.2022371458611545e-01 -4.3037664670572756e-01
      -1.4725778115023522e-01 9.1130843350151911e-02
      -1.5824751922668780e-02 7.6965613357481366e-02
      -3.7646228381481878e-02 6.5233731850315502e-02
      1.8220901666274250e-01 -1.1931516700224858e-01
      1.0452581299888601e-01 -1.2974921166322598e-01
      3.5588025222851418e+00 -1.3460449721528253e-01
      -5.7848014301100661e-02 -1.2152614205448033e-01
      -3.1325572848754263e-01 -2.5339136082415198e-01
      1.7903303977174606e-01 -2.2201419714681028e-01
      2.0832447479539426e-01 -7.9068141270103448e-02
      -2.4912331239938496e-01 5.2917889295652117e-02
      -2.1015160468739472e-01 2.6714868410062054e-01
      -1.0873015959540121e-01 -1.7390894176726618e-01
      1.3048309218636311e-01 -1.9705398612567240e-01
      -2.2009652753661849e-02 -1.7144361513376932e-01
      2.2904515811667543e+00 -1.9128110812559854e-01
      -3.6922581184138360e-02 -8.8096492077630290e-02
      3.1222297866778551e-02 7.0731567320706693e-02
      -2.4169775208704966e-01 1.4342654678400718e-01
      2.2525993485531393e-01 -2.7900031551983701e-01
      8.2713375404685582e-02 1.7442769994940932e-01
      1.6129790277713071e-01 -2.5098172026909499e-01
      2.5903802811085539e-02 3.1877987803738717e-01
      -4.9864991124365654e-02 -1.8691689693097346e-01
      -1.3568119551653546e-01 -1.0564453490162001e-02
      3.4828980450037403e+00 -2.8440747696980789e-01
      -2.1995867931388184e-02 1.2435635367006567e-01
      -1.3823175628703019e-01 -4.2568237736967363e-01
      -1.6780143336604125e-01 1.6661949451916892e-02
      2.8261726796299208e-01 -3.0978527892635332e-01
      3.7162928392777766e-02 -5.7800904174786678e-02
      2.0354912380132839e-01 1.7152660602823080e-01
      -3.6995743128518777e-02 2.4694295436790293e-02
      2.1852664853487799e-01 4.5496094532313743e-02
      -1.4427495805214186e-02 -1.6557629135512089e-01
      2.8193589647453265e+00 -2.0414524738354253e-01
      -3.7021845790583555e-02 2.1829075989380453e-01
      -9.4859618983435964e-02 -1.0934194411458917e-01
      -1.3584359696149137e-02 -9.4011735933651447e-02
      -5.9301302561291264e-02 -3.4167116880383701e-02
      1.0495716485962257e-01 -7.1440896359728820e-02
      1.2845040662474785e-01 2.5304456955716790e-02
      4.4251192930797063e-03 4.5109937579759181e-02
      -5.5170891741589491e-02 3.0069677304432101e-02
      -1.1625869361846894e-01 -6.5074688606453546e-02
      -5.0305690363595676e+00 -4.6651746363725322e-02
      -6.0269061833748520e-02 1.3351260721164690e-01
      2.2600752180853834e-01 -1.6198397010489957e-01
      1.1972417226643568e-01 -7.0504496929980245e-02
      1.2647305254451044e-01 -2.8674614585463559e-01
      -1.5887332863871079e-01 -5.6712730024133851e-02
      -2.2125660020589688e-01 2.8136159315065797e-02
      1.7398140382950861e-01 5.6663247153942824e-02
      -4.6133033825183904e-02 -2.7305091899499246e-02
      1.9687228691306988e-02 4.9742040636897758e-02
      -3.5909071703064623e+00 -2.8972943460044909e-02
      -4.2364858917598378e-02 1.9495591806954743e-01
      2.2335898275301216e-01 -6.4716908793046632e-02
      -9.3651563250933045e-02 2.6006939861585508e-02
      9.1082241575717052e-02 -2.4782168745133459e-01
      -3.1275961311330214e-01 1.4710245713701173e-01
      -1.3698779668454017e-01 -8.2833979222541557e-02
      3.0151524276438141e-01 5.9857241385054922e-03
      -1.5609906340396848e-02 6.6950718856484816e-04
      4.1343332790161745e-02 4.8762482457699534e-02
      -4.4741259236781081e+00 1.2810051702947713e-03
      -1.5711934409887790e-01 1.6698181935216896e-01
      1.3026576975399484e-01 -5.5816873987833353e-02
      3.9703621566298565e-02 -1.0033918325493250e-01
      1.6143807546930658e-01 -2.1826906161579060e-01
      -4.3606420332250617e-01 8.8936385369905502e-02
      -1.7684118736623285e-02 1.3321867471460208e-01
      4.2168747788840411e-01 -1.3826632286445387e-01
      -6.5800068296291226e-03 -6.9563342388706165e-02
      -1.2872350805605393e-01 -5.2021644208108772e-02
