<?xml version="1.0"?>
<opencv_storage>
<shapeML type_id="opencv-ml-ann-mlp">
  <layer_sizes type_id="opencv-matrix">
    <rows>1</rows>
    <cols>3</cols>
    <dt>i</dt>
    <data>
      1600 60 8</data></layer_sizes>
  <activation_function>SIGMOID_SYM</activation_function>
  <f_param1>5.9999999999999998e-01</f_param1>
  <f_param2>1.</f_param2>
  <min_val>-9.4999999999999996e-01</min_val>
  <max_val>9.4999999999999996e-01</max_val>
  <min_val1>-9.7999999999999998e-01</min_val1>
  <max_val1>9.7999999999999998e-01</max_val1>
  <training_params>
    <train_method>BACKPROP</train_method>
    <dw_scale>1.0000000000000001e-01</dw_scale>
    <moment_scale>1.0000000000000001e-01</moment_scale>
    <term_criteria><epsilon>9.9999999747524271e-07</epsilon>
      <iterations>4000</iterations></term_criteria></training_params>
  <input_scale>
    1. 0. 8.2818687864678844e-02 -4.7457899787624949e-02
    3.7205615207155547e-02 -1.0660035817780522e-01
    3.7205615207155547e-02 -1.0660035817780522e-01
    3.4002585805878310e-02 -1.1690776692807599e-01
    4.1549953314659195e-02 -9.5238095238095233e-02
    3.1516193284773786e-02 -1.2641888767038476e-01
    2.9514410854296430e-02 -1.3530201829834768e-01
    2.4209468745093041e-02 -1.6647409968535890e-01
    2.4209468745093041e-02 -1.6647409968535890e-01
    1.7030413037729307e-02 -2.4397501823713333e-01
    1.4567796966772887e-02 -2.9217435489538879e-01
    1.2527782291046200e-02 -3.5176323534072418e-01
    1.0262797085994917e-02 -4.6459336471318557e-01
    9.2667185207527102e-03 -5.5225477566373460e-01
    9.2979705260881340e-03 -5.4878920419708954e-01
    9.1473016783165158e-03 -5.6610491735019519e-01
    8.9836620881806138e-03 -5.8686529641215823e-01
    8.9329085295353373e-03 -5.9378749281720289e-01
    8.9329085295353373e-03 -5.9378749281720289e-01
    9.1187843011984529e-03 -5.6956541494788993e-01
    8.9580594525885768e-03 -5.9032605269024729e-01
    8.7687833271261739e-03 -6.1805143607935387e-01
    8.9580594525885768e-03 -5.9032605269024729e-01
    9.2059168688019485e-03 -5.5918187182857682e-01
    9.6451064356370061e-03 -5.1400831263175639e-01
    1.0212413823976099e-02 -4.6816458878452233e-01
    1.2207363689507948e-02 -3.6375200566938293e-01
    1.4032363542616957e-02 -3.0555865781563663e-01
    1.8089989152885601e-02 -2.2805581830941171e-01
    2.0458485722386947e-02 -1.9929783282370206e-01
    2.3286610602373782e-02 -1.7347216662217774e-01
    2.7858346204144596e-02 -1.4367394278317269e-01
    2.5256817329835597e-02 -1.5920308451727830e-01
    3.4002585805878310e-02 -1.1690776692807599e-01
    3.1516193284773786e-02 -1.2641888767038476e-01
    4.7923449252859789e-02 -8.2385255457163450e-02
    8.2818687864678844e-02 -4.7457899787624949e-02
    8.2818687864678844e-02 -4.7457899787624949e-02 1. 0. 1. 0.
    8.2818687864678844e-02 -4.7457899787624949e-02
    8.2818687864678844e-02 -4.7457899787624949e-02
    3.1516193284773786e-02 -1.2641888767038476e-01
    2.7858346204144596e-02 -1.4367394278317269e-01
    3.1516193284773786e-02 -1.2641888767038476e-01
    2.6459108187655844e-02 -1.5161960871578067e-01
    2.4209468745093041e-02 -1.6647409968535890e-01
    1.5639942600153590e-02 -2.6886642896893248e-01
    1.4567796966772887e-02 -2.9217435489538879e-01
    1.2881144936365680e-02 -3.3954119124397625e-01
    9.8456498482516856e-03 -4.9648625302195015e-01
    8.9329085295353373e-03 -5.9378749281720289e-01
    8.5304530960133608e-03 -6.5991201759608975e-01
    8.3974676669013922e-03 -6.8812058083945904e-01
    8.2692139078903125e-03 -7.2025782262882809e-01
    8.0801967757416736e-03 -7.8250804505749982e-01
    8.1189308554376373e-03 -7.6764947357873836e-01
    8.0801967757416736e-03 -7.8250804505749982e-01
    8.0801967757416736e-03 -7.8250804505749982e-01
    8.1291426867160146e-03 -7.6395673518755891e-01
    8.0363817913140199e-03 -8.0129047209124282e-01
    8.0363817913140199e-03 -8.0129047209124282e-01
    8.0895675373445705e-03 -7.7877993999964357e-01
    8.1721703167422308e-03 -7.4926864926535508e-01
    8.3378299056117572e-03 -7.0234506519518369e-01
    8.6236848605017007e-03 -6.4241607443962112e-01
    9.0632739584453441e-03 -5.7648532448043921e-01
    9.7630249527327229e-03 -5.0350881497801347e-01
    1.2009766727510576e-02 -3.7162806255690028e-01
    1.4762484719495803e-02 -2.8761964610792945e-01
    1.7030413037729307e-02 -2.4397501823713333e-01
    2.1063531820141576e-02 -1.9312181983410703e-01
    2.1063531820141576e-02 -1.9312181983410703e-01
    2.6459108187655844e-02 -1.5161960871578067e-01
    2.7858346204144596e-02 -1.4367394278317269e-01
    3.4002585805878310e-02 -1.1690776692807599e-01
    4.7923449252859789e-02 -8.2385255457163450e-02
    8.2818687864678844e-02 -4.7457899787624949e-02 1. 0. 1. 0. 1. 0.
    4.7923449252859789e-02 -8.2385255457163450e-02
    3.4002585805878310e-02 -1.1690776692807599e-01
    2.9514410854296430e-02 -1.3530201829834768e-01
    2.3286610602373782e-02 -1.7347216662217774e-01
    1.7030413037729307e-02 -2.4397501823713333e-01
    1.5888180545318983e-02 -2.6402942726434581e-01
    1.2417560384288037e-02 -3.5578403348241000e-01
    1.1175510108453881e-02 -4.0985241566284791e-01
    8.9580594525885768e-03 -5.9032605269024729e-01
    8.3821482313197557e-03 -6.9166850124508183e-01
    8.1610816424811904e-03 -7.5292855467879838e-01
    8.0710311403130088e-03 -7.8624539310689656e-01
    7.9832288608841923e-03 -8.2801332151485374e-01
    7.9335752577627938e-03 -8.5923294280421980e-01
    7.9037377285387459e-03 -8.8317608663278457e-01
    7.8622378725113282e-03 -9.3260275528204595e-01
    7.8576139173297775e-03 -9.4105962634627072e-01
    7.8766402254370899e-03 -9.1174323148823477e-01
    7.8555437564636448e-03 -9.4531318687332166e-01
    7.8536342902817014e-03 -9.4958380446877966e-01
    7.8488667099902883e-03 -9.6250035138015744e-01
    7.8576139173297775e-03 -9.4105962634627072e-01
    7.8675095573923007e-03 -9.2421137553411803e-01
    7.9281697426977788e-03 -8.6319061580608403e-01
    7.9974677368479883e-03 -8.2032452774927278e-01
    8.0895675373445705e-03 -7.7877993999964357e-01
    8.3096138182424898e-03 -7.0949163376207514e-01
    8.8366474186712084e-03 -6.0764362025019991e-01
    9.9316951516037390e-03 -4.8944286443746066e-01
    1.2207363689507948e-02 -3.6375200566938293e-01
    1.5179931631590851e-02 -2.7835560025568840e-01
    1.8089989152885601e-02 -2.2805581830941171e-01
    2.1063531820141576e-02 -1.9312181983410703e-01
    2.0458485722386947e-02 -1.9929783282370206e-01
    2.2465556321349247e-02 -1.8022929453307149e-01
    2.6459108187655844e-02 -1.5161960871578067e-01
    3.4002585805878310e-02 -1.1690776692807599e-01
    4.7923449252859789e-02 -8.2385255457163450e-02
    4.7923449252859789e-02 -8.2385255457163450e-02
    3.4002585805878310e-02 -1.1690776692807599e-01
    2.7858346204144596e-02 -1.4367394278317269e-01
    2.2465556321349247e-02 -1.8022929453307149e-01
    1.8493846765949739e-02 -2.2254954928463114e-01
    1.4567796966772887e-02 -2.9217435489538879e-01
    1.3273106412584048e-02 -3.2705530744715522e-01
    1.0770978938530337e-02 -4.3204937989385733e-01
    9.8882329911870251e-03 -4.9296730092018914e-01
    8.6433367572452662e-03 -6.3892710703277089e-01
    8.2188037420142766e-03 -7.3470564687039985e-01
    8.0282136969241219e-03 -8.0507648589941339e-01
    7.9281697426977788e-03 -8.6319061580608403e-01
    7.8993639070978339e-03 -8.8721395073426901e-01
    7.8622378725113282e-03 -9.3260275528204595e-01
    7.8647925171090281e-03 -9.2839899083985900e-01
    7.8433154915930319e-03 -9.9328099894095578e-01
    7.8436323868272609e-03 -1.0112997936948631e+00
    7.8433154915930319e-03 -1.0067644514152674e+00
    7.8431570583786941e-03 -9.9775532825801772e-01
    7.8455345651956693e-03 -1.0250323137538790e+00
    7.8455345651956693e-03 -1.0250323137538790e+00
    7.8441078017070388e-03 -1.0158560283424194e+00
    7.8488667099902883e-03 -1.0389606596673662e+00
    7.8441078017070388e-03 -1.0158560283424194e+00
    7.8431570583786941e-03 -9.9775532825801772e-01
    7.8464861734913894e-03 -9.7120103019304660e-01
    7.8800121781083237e-03 -9.0761803188526324e-01
    7.9569621529984765e-03 -8.4352739228697327e-01
    8.2067983121725373e-03 -7.3833521444455630e-01
    8.6633371201309869e-03 -6.3544117663163013e-01
    9.2360382427885725e-03 -5.5571893022621133e-01
    1.1249102509006730e-02 -4.0610524001616433e-01
    1.5179931631590851e-02 -2.7835560025568840e-01
    1.4966293320367681e-02 -2.8301428829414393e-01
    1.8493846765949739e-02 -2.2254954928463114e-01
    2.1063531820141576e-02 -1.9312181983410703e-01
    2.2465556321349247e-02 -1.8022929453307149e-01
    2.9514410854296430e-02 -1.3530201829834768e-01
    3.4002585805878310e-02 -1.1690776692807599e-01
    2.7858346204144596e-02 -1.4367394278317269e-01
    2.6459108187655844e-02 -1.5161960871578067e-01
    2.0458485722386947e-02 -1.9929783282370206e-01
    1.7030413037729307e-02 -2.4397501823713333e-01
    1.3413516946377524e-02 -3.2282868875438936e-01
    1.1823635053228945e-02 -3.7941912035979625e-01
    1.0475827459157278e-02 -4.5022516889074821e-01
    8.8136264606852831e-03 -6.1111111111111094e-01
    8.1610816424811904e-03 -7.5292855467879838e-01
    8.0447458234367813e-03 -7.9751452135036771e-01
    7.8835493488791514e-03 -9.0350790290525096e-01
    7.8555437564636448e-03 -9.4531318687332166e-01
    7.8464861734913894e-03 -9.7120103019304660e-01
    7.8502960723191902e-03 -1.0436483497492208e+00
    7.8766402254370881e-03 -1.0968000259982227e+00
    7.8734328630492671e-03 -1.0918416673680229e+00
    7.9129952613388801e-03 -1.1426720797609808e+00
    7.9037377285387494e-03 -1.1322770341445962e+00
    7.8911220178176540e-03 -1.1169040905443706e+00
    7.8800121781083237e-03 -1.1017850735323593e+00
    7.8911220178176540e-03 -1.1169040905443706e+00
    7.8993639070978339e-03 -1.1271238455756785e+00
    7.8911220178176540e-03 -1.1169040905443706e+00
    7.9037377285387494e-03 -1.1322770341445962e+00
    7.8951589345093789e-03 -1.1219996652098272e+00
    7.8800121781083237e-03 -1.1017850735323593e+00
    7.8518851689270992e-03 -1.0483590051950642e+00
    7.8433154915930319e-03 -1.0067644514152674e+00
    7.8555437564636448e-03 -9.4531318687332166e-01
    7.9449135200447968e-03 -8.5135550832210372e-01
    8.1189308554376373e-03 -7.6764947357873836e-01
    8.5484472641571482e-03 -6.5640548992415670e-01
    9.1187843011984529e-03 -5.6956541494788993e-01
    1.0899201936043759e-02 -4.2470148667640178e-01
    1.3007192810292894e-02 -3.3541019662496846e-01
    1.4032363542616957e-02 -3.0555865781563663e-01
    1.5179931631590851e-02 -2.7835560025568840e-01
    1.8928245829274902e-02 -2.1693045781865619e-01
    2.4209468745093041e-02 -1.6647409968535890e-01
    3.1516193284773786e-02 -1.2641888767038476e-01
    2.4209468745093041e-02 -1.6647409968535890e-01
    1.8928245829274902e-02 -2.1693045781865619e-01
    1.6719610083472281e-02 -2.4910340416499152e-01
    1.3273106412584048e-02 -3.2705530744715522e-01
    1.1915332948608585e-02 -3.7553380809940540e-01
    1.0021358220331952e-02 -4.8237638894272000e-01
    8.6433367572452662e-03 -6.3892710703277089e-01
    8.0801967757416736e-03 -7.8250804505749982e-01
    7.8993639070978339e-03 -8.8721395073426901e-01
    7.8536342902817014e-03 -9.4958380446877966e-01
    7.8464861734913877e-03 -1.0296529440472575e+00
    7.8598451526919241e-03 -1.0674376220290707e+00
    7.9037377285387494e-03 -1.1322770341445962e+00
    7.9632557776490240e-03 -1.1909988500706310e+00
    7.9508484662310520e-03 -1.1800309819151233e+00
    7.9763878320850360e-03 -1.2021043819298491e+00
    8.0124586331783518e-03 -1.2304975797559743e+00
    7.9763878320850360e-03 -1.2021043819298491e+00
    7.9832288608841940e-03 -1.2077100380106156e+00
    7.9632557776490240e-03 -1.1909988500706310e+00
    7.9763878320850360e-03 -1.2021043819298491e+00
    7.9508484662310520e-03 -1.1800309819151233e+00
    7.9632557776490240e-03 -1.1909988500706310e+00
    7.9449135200447985e-03 -1.1745974392893199e+00
    7.9632557776490240e-03 -1.1909988500706310e+00
    7.9763878320850360e-03 -1.2021043819298491e+00
    7.9508484662310520e-03 -1.1800309819151233e+00
    7.9129952613388801e-03 -1.1426720797609808e+00
    7.8576139173297775e-03 -1.0626319225728225e+00
    7.8431570583786941e-03 -9.9775532825801772e-01
    7.9281697426977788e-03 -8.6319061580608403e-01
    8.0282136969241219e-03 -8.0507648589941339e-01
    8.3523331453750002e-03 -6.9878059101642986e-01
    8.7254901960784319e-03 -6.2500000000000011e-01
    1.0532149518073615e-02 -4.4661047506977325e-01
    1.3007192810292894e-02 -3.3541019662496846e-01
    1.5404188097575645e-02 -2.7364068968839428e-01
    1.6426680402129593e-02 -2.5415212262620729e-01
    1.7713308523060776e-02 -2.3345742581517182e-01
    2.5256817329835597e-02 -1.5920308451727830e-01
    2.1063531820141576e-02 -1.9312181983410703e-01
    1.5888180545318983e-02 -2.6402942726434581e-01
    1.4032363542616957e-02 -3.0555865781563663e-01
    1.1823635053228945e-02 -3.7941912035979625e-01
    9.8456498482516856e-03 -4.9648625302195015e-01
    8.5304530960133608e-03 -6.5991201759608975e-01
    8.0282136969241219e-03 -8.0507648589941339e-01
    7.8993639070978339e-03 -8.8721395073426901e-01
    7.8436323868272609e-03 -1.0112997936948631e+00
    7.8464861734913877e-03 -1.0296529440472575e+00
    7.8675095573923007e-03 -1.0820035616009187e+00
    7.9335752577627955e-03 -1.1638287479252927e+00
    7.9569621529984782e-03 -1.1854979567276385e+00
    8.0363817913140199e-03 -1.2479868846938322e+00
    8.0991454242720813e-03 -1.2902211665767369e+00
    8.1189308554376373e-03 -1.3026778945578592e+00
    8.0991454242720813e-03 -1.2902211665767369e+00
    8.1189308554376373e-03 -1.3026778945578592e+00
    8.1089324923579193e-03 -1.2964269711658520e+00
    8.0991454242720813e-03 -1.2902211665767369e+00
    8.0895675373445688e-03 -1.2840597820232216e+00
    8.0991454242720813e-03 -1.2902211665767369e+00
    8.0282136969241202e-03 -1.2421180068162374e+00
    8.0363817913140199e-03 -1.2479868846938322e+00
    8.0282136969241202e-03 -1.2421180068162374e+00
    7.9902550270806033e-03 -1.2133516482134197e+00
    7.9449135200447985e-03 -1.1745974392893199e+00
    7.9697305777999012e-03 -1.1965341570849695e+00
    7.9037377285387494e-03 -1.1322770341445962e+00
    7.8872523978630992e-03 -1.1118367256583197e+00
    7.8555437564636448e-03 -1.0578504710249077e+00
    7.8518851689271009e-03 -9.5387171288134620e-01
    7.9178807314970439e-03 -8.7114481036875335e-01
    8.2562472330924338e-03 -7.2385951864966591e-01
    8.7469465313680540e-03 -6.2152460521765807e-01
    1.0163110072794197e-02 -4.7172817652486321e-01
    1.2881144936365680e-02 -3.3954119124397625e-01
    1.3868340953152189e-02 -3.0993404669460345e-01
    1.7360937026818912e-02 -2.3876165079580167e-01
    2.6459108187655844e-02 -1.5161960871578067e-01
    1.9905341850913329e-02 -2.0531577324874647e-01
    1.3868340953152189e-02 -3.0993404669460345e-01
    1.1823635053228945e-02 -3.7941912035979625e-01
    9.6073219714574391e-03 -5.1750001720412320e-01
    8.3096138182424898e-03 -7.0949163376207514e-01
    7.9335752577627938e-03 -8.5923294280421980e-01
    7.8576139173297775e-03 -9.4105962634627072e-01
    7.8431570583786941e-03 -1.0022497216285493e+00
    7.8598451526919241e-03 -1.0674376220290707e+00
    7.8993639070978339e-03 -1.1271238455756785e+00
    7.9632557776490240e-03 -1.1909988500706310e+00
    7.9902550270806033e-03 -1.2133516482134197e+00
    8.0533075272108540e-03 -1.2598449517006374e+00
    8.0895675373445688e-03 -1.2840597820232216e+00
    8.1834842672863541e-03 -1.3411719272206604e+00
    8.3096138182424898e-03 -1.4094598898897599e+00
    8.2310451228736203e-03 -1.3678332288460768e+00
    8.2435253090536210e-03 -1.3746310012546608e+00
    8.2692139078903142e-03 -1.3883917238832020e+00
    8.2435253090536210e-03 -1.3746310012546608e+00
    8.2188037420142749e-03 -1.3610893073432404e+00
    8.2188037420142749e-03 -1.3610893073432404e+00
    8.2435253090536210e-03 -1.3746310012546608e+00
    8.1395702201852056e-03 -1.3153179652438609e+00
    8.1395702201852056e-03 -1.3153179652438609e+00
    8.1721703167422308e-03 -1.3346347815039139e+00
    8.0533075272108540e-03 -1.2598449517006374e+00
    8.0202398560547342e-03 -1.2362884335417403e+00
    7.9974677368479883e-03 -1.2190297451469643e+00
    7.9508484662310520e-03 -1.1800309819151233e+00
    7.9335752577627955e-03 -1.1638287479252927e+00
    7.8835493488791531e-03 -1.1067971810589328e+00
    7.8488667099902883e-03 -9.6250035138015744e-01
    7.9082812260068587e-03 -8.7915207247316696e-01
    8.1610816424811904e-03 -7.5292855467879838e-01
    8.5854032046563892e-03 -6.4940375700839115e-01
    1.0212413823976099e-02 -4.6816458878452233e-01
    1.1915332948608585e-02 -3.7553380809940540e-01
    1.5179931631590851e-02 -2.7835560025568840e-01
    2.1729011673120566e-02 -1.8677184190940710e-01
    1.5179931631590851e-02 -2.7835560025568840e-01
    1.1823635053228945e-02 -3.7941912035979625e-01
    9.8456498482516856e-03 -4.9648625302195015e-01
    8.5304530960133608e-03 -6.5991201759608975e-01
    7.9508484662310520e-03 -8.4743537697379501e-01
    7.8766402254370899e-03 -9.1174323148823477e-01
    7.8436323868272609e-03 -1.0112997936948631e+00
    7.8766402254370881e-03 -1.0968000259982227e+00
    7.9178807314970439e-03 -1.1479147761629929e+00
    7.9902550270806033e-03 -1.2133516482134197e+00
    8.0801967757416718e-03 -1.2779421327566265e+00
    8.1610816424811886e-03 -1.3281472641539047e+00
    8.1291426867160146e-03 -1.3089746499250248e+00
    8.1950260552315010e-03 -1.3477595097800392e+00
    8.3671046729802342e-03 -1.4383899044561528e+00
    8.4451213227703225e-03 -1.4759984514122739e+00
    8.4130669329665723e-03 -1.4607541945520499e+00
    8.5484472641571482e-03 -1.5234485624359160e+00
    8.4615849165066669e-03 -1.4837246540112703e+00
    8.4451213227703225e-03 -1.4759984514122739e+00
    8.4615849165066669e-03 -1.4837246540112703e+00
    8.4783452878861385e-03 -1.4915219345217221e+00
    8.5854032046563892e-03 -1.5398740601789882e+00
    8.4783452878861385e-03 -1.4915219345217221e+00
    8.3821482313197575e-03 -1.4457792977414561e+00
    8.3378299056117607e-03 -1.4238015607358152e+00
    8.2067983121725373e-03 -1.3543983551594407e+00
    8.2435253090536210e-03 -1.3746310012546608e+00
    8.1721703167422308e-03 -1.3346347815039139e+00
    8.0991454242720813e-03 -1.2902211665767369e+00
    8.0363817913140199e-03 -1.2479868846938322e+00
    7.9335752577627955e-03 -1.1638287479252927e+00
    7.8993639070978339e-03 -1.1271238455756785e+00
    7.8447418227072432e-03 -9.7997572567257452e-01
    7.9281697426977788e-03 -8.6319061580608403e-01
    8.1834842672863541e-03 -7.4561656093735995e-01
    8.7687833271261739e-03 -6.1805143607935387e-01
    1.0475827459157278e-02 -4.5022516889074821e-01
    1.4203287792151485e-02 -3.0114161869426798e-01
    1.6719610083472281e-02 -2.4910340416499152e-01
    1.3273106412584048e-02 -3.2705530744715522e-01
    1.0770978938530337e-02 -4.3204937989385733e-01
    9.0362596689717006e-03 -5.7994511493445344e-01
    7.9902550270806033e-03 -8.2416338369213415e-01
    7.8800121781083237e-03 -9.0761803188526324e-01
    7.8447418227072432e-03 -1.0204334391177725e+00
    7.8872523978630992e-03 -1.1118367256583197e+00
    7.9129952613388801e-03 -1.1426720797609808e+00
    8.0202398560547342e-03 -1.2362884335417403e+00
    8.1395702201852056e-03 -1.3153179652438609e+00
    8.2435253090536210e-03 -1.3746310012546608e+00
    8.1502157520955704e-03 -1.3217085837078131e+00
    8.3096138182424898e-03 -1.4094598898897599e+00
    8.4783452878861385e-03 -1.4915219345217221e+00
    8.4615849165066669e-03 -1.4837246540112703e+00
    8.5854032046563892e-03 -1.5398740601789882e+00
    8.4954069751702194e-03 -1.4993916041120652e+00
    8.5854032046563892e-03 -1.5398740601789882e+00
    8.5304530960133608e-03 -1.5153535218873171e+00
    8.6043755730529272e-03 -1.5482075328861751e+00
    8.6043755730529272e-03 -1.5482075328861751e+00
    8.6836919783775599e-03 -1.5823833315205309e+00
    8.6633371201309869e-03 -1.5737097890017715e+00
    8.6836919783775599e-03 -1.5823833315205309e+00
    8.7254901960784302e-03 -1.5999999999999999e+00
    8.4615849165066669e-03 -1.4837246540112703e+00
    8.3821482313197575e-03 -1.4457792977414561e+00
    8.3235913114151436e-03 -1.4166004224045525e+00
    8.2958939765090250e-03 -1.4023789311975088e+00
    8.3378299056117607e-03 -1.4238015607358152e+00
    8.1721703167422308e-03 -1.3346347815039139e+00
    8.1291426867160146e-03 -1.3089746499250248e+00
    8.0363817913140199e-03 -1.2479868846938322e+00
    7.9082812260068587e-03 -1.1374596401585821e+00
    7.8488667099902883e-03 -9.6250035138015744e-01
    8.0124586331783536e-03 -8.1267937170450566e-01
    8.2310451228736203e-03 -7.3108327748669621e-01
    9.2979705260881340e-03 -5.4878920419708954e-01
    1.2009766727510576e-02 -3.7162806255690028e-01
    1.4762484719495803e-02 -2.8761964610792945e-01
    1.2310810083525466e-02 -3.5977996659831168e-01
    9.8039215686274508e-03 -5.0000000000000000e-01
    8.2958939765090250e-03 -7.1307403281229265e-01
    7.8951589345093789e-03 -8.9126586309006439e-01
    7.8441078017070388e-03 -1.0158560283424194e+00
    7.8872523978630992e-03 -1.1118367256583197e+00
    7.9335752577627955e-03 -1.1638287479252927e+00
    7.9632557776490240e-03 -1.1909988500706310e+00
    8.0991454242720813e-03 -1.2902211665767369e+00
    8.2067983121725373e-03 -1.3543983551594407e+00
    8.3235913114151436e-03 -1.4166004224045525e+00
    8.3671046729802342e-03 -1.4383899044561528e+00
    8.3821482313197575e-03 -1.4457792977414561e+00
    8.3821482313197575e-03 -1.4457792977414561e+00
    8.3974676669013922e-03 -1.4532336742203960e+00
    8.3821482313197575e-03 -1.4457792977414561e+00
    8.4615849165066669e-03 -1.4837246540112703e+00
    8.5304530960133608e-03 -1.5153535218873171e+00
    8.5854032046563892e-03 -1.5398740601789882e+00
    8.6043755730529272e-03 -1.5482075328861751e+00
    8.6633371201309869e-03 -1.5737097890017715e+00
    8.7254901960784302e-03 -1.5999999999999999e+00
    8.5854032046563892e-03 -1.5398740601789882e+00
    8.6043755730529272e-03 -1.5482075328861751e+00
    8.6433367572452645e-03 -1.5651237660647717e+00
    8.6433367572452645e-03 -1.5651237660647717e+00
    8.6043755730529272e-03 -1.5482075328861751e+00
    8.6236848605017007e-03 -1.5566235649883127e+00
    8.6236848605017007e-03 -1.5566235649883127e+00
    8.4783452878861385e-03 -1.4915219345217221e+00
    8.3235913114151436e-03 -1.4166004224045525e+00
    8.2824284289178575e-03 -1.3953565377887007e+00
    8.1610816424811886e-03 -1.3281472641539047e+00
    8.0048684404679018e-03 -1.2247448713915889e+00
    7.8800121781083237e-03 -1.1017850735323593e+00
    7.8488667099902883e-03 -9.6250035138015744e-01
    8.0202398560547360e-03 -8.0887272975221691e-01
    8.5127746448984895e-03 -6.6342252738220142e-01
    1.0589779822060439e-02 -4.4298595817450581e-01
    1.4381590752496483e-02 -2.9668090586048923e-01
    1.2009766727510576e-02 -3.7162806255690028e-01
    8.9580594525885768e-03 -5.9032605269024729e-01
    8.0533075272108540e-03 -7.9374846773813046e-01
    7.8431570583786941e-03 -9.9775532825801772e-01
    7.8911220178176540e-03 -1.1169040905443706e+00
    7.9281697426977788e-03 -1.1584926685818495e+00
    7.9632557776490240e-03 -1.1909988500706310e+00
    8.0048684404679018e-03 -1.2247448713915889e+00
    8.2435253090536210e-03 -1.3746310012546608e+00
    8.3821482313197575e-03 -1.4457792977414561e+00
    8.4615849165066669e-03 -1.4837246540112703e+00
    8.4954069751702194e-03 -1.4993916041120652e+00
    8.4289500927333897e-03 -1.4683420476150388e+00
    8.4289500927333897e-03 -1.4683420476150388e+00
    8.5854032046563892e-03 -1.5398740601789882e+00
    8.5854032046563892e-03 -1.5398740601789882e+00
    8.5304530960133608e-03 -1.5153535218873171e+00
    8.5667622261498388e-03 -1.5316215791291712e+00
    8.6633371201309869e-03 -1.5737097890017715e+00
    8.6836919783775599e-03 -1.5823833315205309e+00
    8.5854032046563892e-03 -1.5398740601789882e+00
    8.7044075395960336e-03 -1.5911461377717739e+00
    8.7254901960784302e-03 -1.5999999999999999e+00
    8.6633371201309869e-03 -1.5737097890017715e+00
    8.4783452878861385e-03 -1.4915219345217221e+00
    8.5304530960133608e-03 -1.5153535218873171e+00
    8.7044075395960336e-03 -1.5911461377717739e+00
    8.6633371201309869e-03 -1.5737097890017715e+00
    8.5667622261498388e-03 -1.5316215791291712e+00
    8.6043755730529272e-03 -1.5482075328861751e+00
    8.5854032046563892e-03 -1.5398740601789882e+00
    8.4289500927333897e-03 -1.4683420476150388e+00
    8.2958939765090250e-03 -1.4023789311975088e+00
    8.1395702201852056e-03 -1.3153179652438609e+00
    7.9902550270806033e-03 -1.2133516482134197e+00
    7.8598451526919241e-03 -1.0674376220290707e+00
    7.8675095573923007e-03 -9.2421137553411803e-01
    8.3096138182424898e-03 -7.0949163376207514e-01
    9.4982662965384535e-03 -5.2795419515703068e-01
    1.3007192810292894e-02 -3.3541019662496846e-01
    1.1915332948608585e-02 -3.7553380809940540e-01
    8.4451213227703190e-03 -6.7750748589415821e-01
    7.9037377285387459e-03 -8.8317608663278457e-01
    7.8555437564636448e-03 -1.0578504710249077e+00
    7.9391561567784246e-03 -1.1691968510887059e+00
    8.0363817913140199e-03 -1.2479868846938322e+00
    8.0895675373445688e-03 -1.2840597820232216e+00
    8.2188037420142749e-03 -1.3610893073432404e+00
    8.2562472330924355e-03 -1.3814835257889051e+00
    8.3378299056117607e-03 -1.4238015607358152e+00
    8.4954069751702194e-03 -1.4993916041120652e+00
    8.6433367572452645e-03 -1.5651237660647717e+00
    8.4783452878861385e-03 -1.4915219345217221e+00
    8.6633371201309869e-03 -1.5737097890017715e+00
    8.6433367572452645e-03 -1.5651237660647717e+00
    8.7254901960784302e-03 -1.5999999999999999e+00
    8.5854032046563892e-03 -1.5398740601789882e+00
    8.5667622261498388e-03 -1.5316215791291712e+00
    8.6633371201309869e-03 -1.5737097890017715e+00
    8.6836919783775599e-03 -1.5823833315205309e+00
    8.6433367572452645e-03 -1.5651237660647717e+00
    8.5667622261498388e-03 -1.5316215791291712e+00
    8.6836919783775599e-03 -1.5823833315205309e+00
    8.6836919783775599e-03 -1.5823833315205309e+00
    8.5667622261498388e-03 -1.5316215791291712e+00
    8.6633371201309869e-03 -1.5737097890017715e+00
    8.6633371201309869e-03 -1.5737097890017715e+00
    8.6836919783775599e-03 -1.5823833315205309e+00
    8.4783452878861385e-03 -1.4915219345217221e+00
    8.5484472641571482e-03 -1.5234485624359160e+00
    8.6236848605017007e-03 -1.5566235649883127e+00
    8.6043755730529272e-03 -1.5482075328861751e+00
    8.4954069751702194e-03 -1.4993916041120652e+00
    8.3235913114151436e-03 -1.4166004224045525e+00
    8.1721703167422308e-03 -1.3346347815039139e+00
    7.9569621529984782e-03 -1.1854979567276385e+00
    7.8436323868272609e-03 -9.8882646494608839e-01
    8.0895675373445705e-03 -7.7877993999964357e-01
    8.8136264606852831e-03 -6.1111111111111094e-01
    1.1481902127729300e-02 -3.9477101697586131e-01
    1.0212413823976099e-02 -4.6816458878452233e-01
    8.2310451228736203e-03 -7.3108327748669621e-01
    7.8441078017070388e-03 -9.8439146109287545e-01
    7.9281697426977788e-03 -1.1584926685818495e+00
    8.0895675373445688e-03 -1.2840597820232216e+00
    8.1291426867160146e-03 -1.3089746499250248e+00
    8.2310451228736203e-03 -1.3678332288460768e+00
    8.3523331453750019e-03 -1.4310643610541955e+00
    8.3974676669013922e-03 -1.4532336742203960e+00
    8.6236848605017007e-03 -1.5566235649883127e+00
    8.7469465313680540e-03 -1.6089467602811958e+00
    8.6633371201309869e-03 -1.5737097890017715e+00
    8.6836919783775599e-03 -1.5823833315205309e+00
    8.7044075395960336e-03 -1.5911461377717739e+00
    8.6433367572452645e-03 -1.5651237660647717e+00
    8.7044075395960336e-03 -1.5911461377717739e+00
    8.6836919783775599e-03 -1.5823833315205309e+00
    8.6043755730529272e-03 -1.5482075328861751e+00
    8.7469465313680540e-03 -1.6089467602811958e+00
    8.5484472641571482e-03 -1.5234485624359160e+00
    8.6633371201309869e-03 -1.5737097890017715e+00
    8.5854032046563892e-03 -1.5398740601789882e+00
    8.5667622261498388e-03 -1.5316215791291712e+00
    8.6043755730529272e-03 -1.5482075328861751e+00
    8.7044075395960336e-03 -1.5911461377717739e+00
    8.7687833271261721e-03 -1.6179883123378203e+00
    8.7910075703109582e-03 -1.6271266034351957e+00
    8.6836919783775599e-03 -1.5823833315205309e+00
    8.6043755730529272e-03 -1.5482075328861751e+00
    8.6236848605017007e-03 -1.5566235649883127e+00
    8.6043755730529272e-03 -1.5482075328861751e+00
    8.6836919783775599e-03 -1.5823833315205309e+00
    8.5127746448984895e-03 -1.5073350070669134e+00
    8.4783452878861385e-03 -1.4915219345217221e+00
    8.2692139078903142e-03 -1.3883917238832020e+00
    8.0620686873201751e-03 -1.2658353689506980e+00
    7.8598451526919241e-03 -1.0674376220290707e+00
    7.9082812260068587e-03 -8.7915207247316696e-01
    8.2692139078903125e-03 -7.2025782262882809e-01
    9.8456498482516856e-03 -4.9648625302195015e-01
    9.5339199373525862e-03 -5.2447271925031758e-01
    7.9832288608841923e-03 -8.2801332151485374e-01
    7.8536342902817014e-03 -1.0530929395530542e+00
    8.0048684404679018e-03 -1.2247448713915889e+00
    8.1834842672863541e-03 -1.3411719272206604e+00
    8.2958939765090250e-03 -1.4023789311975088e+00
    8.3821482313197575e-03 -1.4457792977414561e+00
    8.5304530960133608e-03 -1.5153535218873171e+00
    8.6433367572452645e-03 -1.5651237660647717e+00
    8.6433367572452645e-03 -1.5651237660647717e+00
    8.8136264606852813e-03 -1.6363636363636358e+00
    8.7469465313680540e-03 -1.6089467602811958e+00
    8.8839263721678507e-03 -1.6646880911083510e+00
    8.7687833271261721e-03 -1.6179883123378203e+00
    8.7044075395960336e-03 -1.5911461377717739e+00
    8.6836919783775599e-03 -1.5823833315205309e+00
    8.5484472641571482e-03 -1.5234485624359160e+00
    8.7044075395960336e-03 -1.5911461377717739e+00
    8.6433367572452645e-03 -1.5651237660647717e+00
    8.5854032046563892e-03 -1.5398740601789882e+00
    8.5667622261498388e-03 -1.5316215791291712e+00
    8.6433367572452645e-03 -1.5651237660647717e+00
    8.5127746448984895e-03 -1.5073350070669134e+00
    8.5484472641571482e-03 -1.5234485624359160e+00
    8.6633371201309869e-03 -1.5737097890017715e+00
    8.7254901960784302e-03 -1.5999999999999999e+00
    8.8600780935700132e-03 -1.6551422290302815e+00
    8.7687833271261721e-03 -1.6179883123378203e+00
    8.6836919783775599e-03 -1.5823833315205309e+00
    8.7469465313680540e-03 -1.6089467602811958e+00
    8.7687833271261721e-03 -1.6179883123378203e+00
    8.9082003877484148e-03 -1.6743413043399493e+00
    8.6043755730529272e-03 -1.5482075328861751e+00
    8.5667622261498388e-03 -1.5316215791291712e+00
    8.3671046729802342e-03 -1.4383899044561528e+00
    8.2067983121725373e-03 -1.3543983551594407e+00
    7.8993639070978339e-03 -1.1271238455756785e+00
    7.8447418227072432e-03 -9.7997572567257452e-01
    8.0363817913140199e-03 -8.0129047209124282e-01
    9.0362596689717006e-03 -5.7994511493445344e-01
    8.6236848605017007e-03 -6.4241607443962112e-01
    7.8576139173297775e-03 -9.4105962634627072e-01
    7.8872523978630992e-03 -1.1118367256583197e+00
    8.0801967757416718e-03 -1.2779421327566265e+00
    8.3096138182424898e-03 -1.4094598898897599e+00
    8.5127746448984895e-03 -1.5073350070669134e+00
    8.5667622261498388e-03 -1.5316215791291712e+00
    8.8136264606852813e-03 -1.6363636363636358e+00
    8.7254901960784302e-03 -1.5999999999999999e+00
    9.0632739584453476e-03 -1.7346495349231241e+00
    8.8600780935700132e-03 -1.6551422290302815e+00
    8.8136264606852813e-03 -1.6363636363636358e+00
    8.8839263721678507e-03 -1.6646880911083510e+00
    8.8366474186712066e-03 -1.6457014715109577e+00
    8.7910075703109582e-03 -1.6271266034351957e+00
    8.5484472641571482e-03 -1.5234485624359160e+00
    8.5667622261498388e-03 -1.5316215791291712e+00
    8.4615849165066669e-03 -1.4837246540112703e+00
    8.4615849165066669e-03 -1.4837246540112703e+00
    8.4451213227703225e-03 -1.4759984514122739e+00
    8.5127746448984895e-03 -1.5073350070669134e+00
    8.5304530960133608e-03 -1.5153535218873171e+00
    8.6043755730529272e-03 -1.5482075328861751e+00
    8.3523331453750019e-03 -1.4310643610541955e+00
    8.3671046729802342e-03 -1.4383899044561528e+00
    8.7254901960784302e-03 -1.5999999999999999e+00
    9.0362596689717006e-03 -1.7243011006533304e+00
    8.8600780935700132e-03 -1.6551422290302815e+00
    8.8839263721678507e-03 -1.6646880911083510e+00
    8.8136264606852813e-03 -1.6363636363636358e+00
    8.8839263721678507e-03 -1.6646880911083510e+00
    8.8600780935700132e-03 -1.6551422290302815e+00
    8.6836919783775599e-03 -1.5823833315205309e+00
    8.8366474186712066e-03 -1.6457014715109577e+00
    8.5304530960133608e-03 -1.5153535218873171e+00
    8.3821482313197575e-03 -1.4457792977414561e+00
    7.9902550270806033e-03 -1.2133516482134197e+00
    7.8703894950974667e-03 -1.0869096324072243e+00
    7.9281697426977788e-03 -8.6319061580608403e-01
    8.6633371201309869e-03 -6.3544117663163013e-01
    8.3096138182424898e-03 -7.0949163376207514e-01
    7.8518851689271009e-03 -9.5387171288134620e-01
    7.8993639070978339e-03 -1.1271238455756785e+00
    8.1395702201852056e-03 -1.3153179652438609e+00
    8.5484472641571482e-03 -1.5234485624359160e+00
    8.5667622261498388e-03 -1.5316215791291712e+00
    8.6043755730529272e-03 -1.5482075328861751e+00
    8.8600780935700132e-03 -1.6551422290302815e+00
    8.7910075703109582e-03 -1.6271266034351957e+00
    8.8136264606852813e-03 -1.6363636363636358e+00
    8.8366474186712066e-03 -1.6457014715109577e+00
    8.9580594525885734e-03 -1.6939791077198392e+00
    8.8839263721678507e-03 -1.6646880911083510e+00
    8.6633371201309869e-03 -1.5737097890017715e+00
    8.7044075395960336e-03 -1.5911461377717739e+00
    8.8136264606852813e-03 -1.6363636363636358e+00
    8.5484472641571482e-03 -1.5234485624359160e+00
    8.3821482313197575e-03 -1.4457792977414561e+00
    8.4615849165066669e-03 -1.4837246540112703e+00
    8.4954069751702194e-03 -1.4993916041120652e+00
    8.4289500927333897e-03 -1.4683420476150388e+00
    8.3523331453750019e-03 -1.4310643610541955e+00
    8.3821482313197575e-03 -1.4457792977414561e+00
    8.3671046729802342e-03 -1.4383899044561528e+00
    8.4451213227703225e-03 -1.4759984514122739e+00
    8.6433367572452645e-03 -1.5651237660647717e+00
    8.7687833271261721e-03 -1.6179883123378203e+00
    9.0632739584453476e-03 -1.7346495349231241e+00
    9.0907786735853879e-03 -1.7451230745865882e+00
    9.1473016783165141e-03 -1.7664570106205160e+00
    9.1763420068167456e-03 -1.7773234102641242e+00
    9.0632739584453476e-03 -1.7346495349231241e+00
    8.9580594525885734e-03 -1.6939791077198392e+00
    8.9580594525885734e-03 -1.6939791077198392e+00
    8.7044075395960336e-03 -1.5911461377717739e+00
    8.5667622261498388e-03 -1.5316215791291712e+00
    8.0895675373445688e-03 -1.2840597820232216e+00
    7.9082812260068587e-03 -1.1374596401585821e+00
    7.8703894950974684e-03 -9.2003968884262999e-01
    8.3671046729802325e-03 -6.9522178715380689e-01
    8.1721703167422308e-03 -7.4926864926535508e-01
    7.8431570583786941e-03 -1.0022497216285493e+00
    7.9391561567784246e-03 -1.1691968510887059e+00
    8.2824284289178575e-03 -1.3953565377887007e+00
    8.4451213227703225e-03 -1.4759984514122739e+00
    8.6633371201309869e-03 -1.5737097890017715e+00
    8.6433367572452645e-03 -1.5651237660647717e+00
    8.9836620881806120e-03 -1.7039685360738979e+00
    8.8366474186712066e-03 -1.6457014715109577e+00
    8.8366474186712066e-03 -1.6457014715109577e+00
    9.0097256546800130e-03 -1.7140749975847411e+00
    8.9329085295353373e-03 -1.6841041822143081e+00
    8.9329085295353373e-03 -1.6841041822143081e+00
    8.6633371201309869e-03 -1.5737097890017715e+00
    8.5484472641571482e-03 -1.5234485624359160e+00
    8.4954069751702194e-03 -1.4993916041120652e+00
    8.5127746448984895e-03 -1.5073350070669134e+00
    8.4615849165066669e-03 -1.4837246540112703e+00
    8.5127746448984895e-03 -1.5073350070669134e+00
    8.4783452878861385e-03 -1.4915219345217221e+00
    8.3821482313197575e-03 -1.4457792977414561e+00
    8.3523331453750019e-03 -1.4310643610541955e+00
    8.4783452878861385e-03 -1.4915219345217221e+00
    8.4289500927333897e-03 -1.4683420476150388e+00
    8.4783452878861385e-03 -1.4915219345217221e+00
    8.6836919783775599e-03 -1.5823833315205309e+00
    9.0097256546800130e-03 -1.7140749975847411e+00
    9.0097256546800130e-03 -1.7140749975847411e+00
    8.9836620881806120e-03 -1.7039685360738979e+00
    9.1473016783165141e-03 -1.7664570106205160e+00
    9.3298075325344062e-03 -1.8337789119845433e+00
    9.3298075325344062e-03 -1.8337789119845433e+00
    9.1187843011984529e-03 -1.7557245818577156e+00
    9.0907786735853879e-03 -1.7451230745865882e+00
    8.7910075703109582e-03 -1.6271266034351957e+00
    8.5854032046563892e-03 -1.5398740601789882e+00
    8.2824284289178575e-03 -1.3953565377887007e+00
    7.9832288608841940e-03 -1.2077100380106156e+00
    7.8433154915930319e-03 -9.9328099894095578e-01
    8.2310451228736203e-03 -7.3108327748669621e-01
    8.1834842672863541e-03 -7.4561656093735995e-01
    7.8488667099902883e-03 -1.0389606596673662e+00
    7.9832288608841940e-03 -1.2077100380106156e+00
    8.2310451228736203e-03 -1.3678332288460768e+00
    8.5127746448984895e-03 -1.5073350070669134e+00
    8.7910075703109582e-03 -1.6271266034351957e+00
    8.9329085295353373e-03 -1.6841041822143081e+00
    8.9580594525885734e-03 -1.6939791077198392e+00
    9.0097256546800130e-03 -1.7140749975847411e+00
    9.0632739584453476e-03 -1.7346495349231241e+00
    9.1473016783165141e-03 -1.7664570106205160e+00
    8.8839263721678507e-03 -1.6646880911083510e+00
    8.6836919783775599e-03 -1.5823833315205309e+00
    8.4783452878861385e-03 -1.4915219345217221e+00
    8.6043755730529272e-03 -1.5482075328861751e+00
    8.5484472641571482e-03 -1.5234485624359160e+00
    8.4615849165066669e-03 -1.4837246540112703e+00
    8.4289500927333897e-03 -1.4683420476150388e+00
    8.2824284289178575e-03 -1.3953565377887007e+00
    8.3974676669013922e-03 -1.4532336742203960e+00
    8.3821482313197575e-03 -1.4457792977414561e+00
    8.3974676669013922e-03 -1.4532336742203960e+00
    8.4130669329665723e-03 -1.4607541945520499e+00
    8.5854032046563892e-03 -1.5398740601789882e+00
    8.4954069751702194e-03 -1.4993916041120652e+00
    8.5484472641571482e-03 -1.5234485624359160e+00
    8.7044075395960336e-03 -1.5911461377717739e+00
    8.8366474186712066e-03 -1.6457014715109577e+00
    8.9836620881806120e-03 -1.7039685360738979e+00
    9.0632739584453476e-03 -1.7346495349231241e+00
    9.2667185207527120e-03 -1.8107584471282070e+00
    9.2667185207527120e-03 -1.8107584471282070e+00
    9.0362596689717006e-03 -1.7243011006533304e+00
    8.9836620881806120e-03 -1.7039685360738979e+00
    8.8839263721678507e-03 -1.6646880911083510e+00
    8.7254901960784302e-03 -1.5999999999999999e+00
    8.3671046729802342e-03 -1.4383899044561528e+00
    8.0895675373445688e-03 -1.2840597820232216e+00
    7.8447418227072432e-03 -1.0204334391177725e+00
    8.0620686873201751e-03 -7.8999214631594661e-01
    8.0895675373445705e-03 -7.7877993999964357e-01
    7.8431570583786941e-03 -1.0022497216285493e+00
    7.9697305777999012e-03 -1.1965341570849695e+00
    8.2310451228736203e-03 -1.3678332288460768e+00
    8.4954069751702194e-03 -1.4993916041120652e+00
    8.6633371201309869e-03 -1.5737097890017715e+00
    8.9082003877484148e-03 -1.6743413043399493e+00
    9.0362596689717006e-03 -1.7243011006533304e+00
    9.0097256546800130e-03 -1.7140749975847411e+00
    9.2360382427885742e-03 -1.7994708216848752e+00
    9.1187843011984529e-03 -1.7557245818577156e+00
    8.9082003877484148e-03 -1.6743413043399493e+00
    8.7469465313680540e-03 -1.6089467602811958e+00
    8.8136264606852813e-03 -1.6363636363636358e+00
    8.6633371201309869e-03 -1.5737097890017715e+00
    8.5854032046563892e-03 -1.5398740601789882e+00
    8.4954069751702194e-03 -1.4993916041120652e+00
    8.3974676669013922e-03 -1.4532336742203960e+00
    8.4954069751702194e-03 -1.4993916041120652e+00
    8.5667622261498388e-03 -1.5316215791291712e+00
    8.4954069751702194e-03 -1.4993916041120652e+00
    8.3974676669013922e-03 -1.4532336742203960e+00
    8.3974676669013922e-03 -1.4532336742203960e+00
    8.6633371201309869e-03 -1.5737097890017715e+00
    8.5854032046563892e-03 -1.5398740601789882e+00
    8.5667622261498388e-03 -1.5316215791291712e+00
    8.8366474186712066e-03 -1.6457014715109577e+00
    8.7910075703109582e-03 -1.6271266034351957e+00
    8.8366474186712066e-03 -1.6457014715109577e+00
    9.0362596689717006e-03 -1.7243011006533304e+00
    9.0097256546800130e-03 -1.7140749975847411e+00
    9.0362596689717006e-03 -1.7243011006533304e+00
    8.8839263721678507e-03 -1.6646880911083510e+00
    8.7469465313680540e-03 -1.6089467602811958e+00
    8.7254901960784302e-03 -1.5999999999999999e+00
    8.5854032046563892e-03 -1.5398740601789882e+00
    8.3671046729802342e-03 -1.4383899044561528e+00
    8.0620686873201751e-03 -1.2658353689506980e+00
    7.8536342902817014e-03 -1.0530929395530542e+00
    7.9974677368479883e-03 -8.2032452774927278e-01
    8.0801967757416736e-03 -7.8250804505749982e-01
    7.8433154915930319e-03 -1.0067644514152674e+00
    7.9449135200447985e-03 -1.1745974392893199e+00
    8.2562472330924355e-03 -1.3814835257889051e+00
    8.5304530960133608e-03 -1.5153535218873171e+00
    8.8366474186712066e-03 -1.6457014715109577e+00
    9.1187843011984529e-03 -1.7557245818577156e+00
    9.1473016783165141e-03 -1.7664570106205160e+00
    8.9580594525885734e-03 -1.6939791077198392e+00
    9.2059168688019520e-03 -1.7883269297159210e+00
    9.2667185207527120e-03 -1.8107584471282070e+00
    9.2059168688019520e-03 -1.7883269297159210e+00
    8.8366474186712066e-03 -1.6457014715109577e+00
    8.7910075703109582e-03 -1.6271266034351957e+00
    8.6633371201309869e-03 -1.5737097890017715e+00
    8.6433367572452645e-03 -1.5651237660647717e+00
    8.4954069751702194e-03 -1.4993916041120652e+00
    8.5484472641571482e-03 -1.5234485624359160e+00
    8.6236848605017007e-03 -1.5566235649883127e+00
    8.6236848605017007e-03 -1.5566235649883127e+00
    8.4289500927333897e-03 -1.4683420476150388e+00
    8.3974676669013922e-03 -1.4532336742203960e+00
    8.5304530960133608e-03 -1.5153535218873171e+00
    8.6043755730529272e-03 -1.5482075328861751e+00
    8.6433367572452645e-03 -1.5651237660647717e+00
    8.6043755730529272e-03 -1.5482075328861751e+00
    8.8366474186712066e-03 -1.6457014715109577e+00
    8.8136264606852813e-03 -1.6363636363636358e+00
    8.7687833271261721e-03 -1.6179883123378203e+00
    8.8600780935700132e-03 -1.6551422290302815e+00
    8.9580594525885734e-03 -1.6939791077198392e+00
    8.8839263721678507e-03 -1.6646880911083510e+00
    8.7910075703109582e-03 -1.6271266034351957e+00
    8.7687833271261721e-03 -1.6179883123378203e+00
    8.6433367572452645e-03 -1.5651237660647717e+00
    8.6633371201309869e-03 -1.5737097890017715e+00
    8.3378299056117607e-03 -1.4238015607358152e+00
    8.0363817913140199e-03 -1.2479868846938322e+00
    7.8518851689270992e-03 -1.0483590051950642e+00
    7.9763878320850360e-03 -8.3187451525183487e-01
    8.1291426867160146e-03 -7.6395673518755891e-01
    7.8433154915930319e-03 -1.0067644514152674e+00
    7.9569621529984782e-03 -1.1854979567276385e+00
    8.3235913114151436e-03 -1.4166004224045525e+00
    8.6043755730529272e-03 -1.5482075328861751e+00
    8.8136264606852813e-03 -1.6363636363636358e+00
    9.2059168688019520e-03 -1.7883269297159210e+00
    9.1473016783165141e-03 -1.7664570106205160e+00
    9.0632739584453476e-03 -1.7346495349231241e+00
    9.0907786735853879e-03 -1.7451230745865882e+00
    9.2059168688019520e-03 -1.7883269297159210e+00
    9.2059168688019520e-03 -1.7883269297159210e+00
    8.9082003877484148e-03 -1.6743413043399493e+00
    8.8136264606852813e-03 -1.6363636363636358e+00
    8.7469465313680540e-03 -1.6089467602811958e+00
    8.6633371201309869e-03 -1.5737097890017715e+00
    8.6043755730529272e-03 -1.5482075328861751e+00
    8.6236848605017007e-03 -1.5566235649883127e+00
    8.5854032046563892e-03 -1.5398740601789882e+00
    8.4954069751702194e-03 -1.4993916041120652e+00
    8.5127746448984895e-03 -1.5073350070669134e+00
    8.4954069751702194e-03 -1.4993916041120652e+00
    8.5854032046563892e-03 -1.5398740601789882e+00
    8.5484472641571482e-03 -1.5234485624359160e+00
    8.5854032046563892e-03 -1.5398740601789882e+00
    8.5854032046563892e-03 -1.5398740601789882e+00
    8.6236848605017007e-03 -1.5566235649883127e+00
    8.6633371201309869e-03 -1.5737097890017715e+00
    8.7044075395960336e-03 -1.5911461377717739e+00
    8.6633371201309869e-03 -1.5737097890017715e+00
    8.8136264606852813e-03 -1.6363636363636358e+00
    8.7910075703109582e-03 -1.6271266034351957e+00
    8.9329085295353373e-03 -1.6841041822143081e+00
    8.7254901960784302e-03 -1.5999999999999999e+00
    8.6043755730529272e-03 -1.5482075328861751e+00
    8.5854032046563892e-03 -1.5398740601789882e+00
    8.3974676669013922e-03 -1.4532336742203960e+00
    8.0991454242720813e-03 -1.2902211665767369e+00
    7.8675095573923007e-03 -1.0820035616009187e+00
    8.0282136969241219e-03 -8.0507648589941339e-01
    8.2310451228736203e-03 -7.3108327748669621e-01
    7.8488667099902883e-03 -9.6250035138015744e-01
    7.9178807314970439e-03 -1.1479147761629929e+00
    8.2692139078903142e-03 -1.3883917238832020e+00
    8.5304530960133608e-03 -1.5153535218873171e+00
    8.8600780935700132e-03 -1.6551422290302815e+00
    9.0097256546800130e-03 -1.7140749975847411e+00
    9.1187843011984529e-03 -1.7557245818577156e+00
    9.3622432841373848e-03 -1.8455190581674863e+00
    9.1187843011984529e-03 -1.7557245818577156e+00
    9.2059168688019520e-03 -1.7883269297159210e+00
    9.2059168688019520e-03 -1.7883269297159210e+00
    8.8600780935700132e-03 -1.6551422290302815e+00
    8.7910075703109582e-03 -1.6271266034351957e+00
    8.7469465313680540e-03 -1.6089467602811958e+00
    8.6043755730529272e-03 -1.5482075328861751e+00
    8.5127746448984895e-03 -1.5073350070669134e+00
    8.5127746448984895e-03 -1.5073350070669134e+00
    8.5667622261498388e-03 -1.5316215791291712e+00
    8.5854032046563892e-03 -1.5398740601789882e+00
    8.5854032046563892e-03 -1.5398740601789882e+00
    8.5667622261498388e-03 -1.5316215791291712e+00
    8.5484472641571482e-03 -1.5234485624359160e+00
    8.5484472641571482e-03 -1.5234485624359160e+00
    8.6433367572452645e-03 -1.5651237660647717e+00
    8.7254901960784302e-03 -1.5999999999999999e+00
    8.6236848605017007e-03 -1.5566235649883127e+00
    8.7254901960784302e-03 -1.5999999999999999e+00
    8.6433367572452645e-03 -1.5651237660647717e+00
    8.6236848605017007e-03 -1.5566235649883127e+00
    8.6433367572452645e-03 -1.5651237660647717e+00
    8.6236848605017007e-03 -1.5566235649883127e+00
    8.7254901960784302e-03 -1.5999999999999999e+00
    8.5484472641571482e-03 -1.5234485624359160e+00
    8.4451213227703225e-03 -1.4759984514122739e+00
    8.4615849165066669e-03 -1.4837246540112703e+00
    8.3378299056117607e-03 -1.4238015607358152e+00
    8.0202398560547342e-03 -1.2362884335417403e+00
    7.8518851689270992e-03 -1.0483590051950642e+00
    8.1502157520955704e-03 -7.5659643307655733e-01
    8.4783452878861368e-03 -6.7045611388924298e-01
    7.8872523978630975e-03 -8.9941263579677055e-01
    7.8598451526919241e-03 -1.0674376220290707e+00
    8.1721703167422308e-03 -1.3346347815039139e+00
    8.4954069751702194e-03 -1.4993916041120652e+00
    8.8136264606852813e-03 -1.6363636363636358e+00
    9.0097256546800130e-03 -1.7140749975847411e+00
    9.0362596689717006e-03 -1.7243011006533304e+00
    8.9836620881806120e-03 -1.7039685360738979e+00
    9.0632739584453476e-03 -1.7346495349231241e+00
    8.9836620881806120e-03 -1.7039685360738979e+00
    9.0907786735853879e-03 -1.7451230745865882e+00
    9.1187843011984529e-03 -1.7557245818577156e+00
    8.7910075703109582e-03 -1.6271266034351957e+00
    8.6836919783775599e-03 -1.5823833315205309e+00
    8.4954069751702194e-03 -1.4993916041120652e+00
    8.4954069751702194e-03 -1.4993916041120652e+00
    8.5667622261498388e-03 -1.5316215791291712e+00
    8.5667622261498388e-03 -1.5316215791291712e+00
    8.5304530960133608e-03 -1.5153535218873171e+00
    8.5854032046563892e-03 -1.5398740601789882e+00
    8.6836919783775599e-03 -1.5823833315205309e+00
    8.5484472641571482e-03 -1.5234485624359160e+00
    8.5667622261498388e-03 -1.5316215791291712e+00
    8.6236848605017007e-03 -1.5566235649883127e+00
    8.6633371201309869e-03 -1.5737097890017715e+00
    8.6633371201309869e-03 -1.5737097890017715e+00
    8.5854032046563892e-03 -1.5398740601789882e+00
    8.5484472641571482e-03 -1.5234485624359160e+00
    8.5854032046563892e-03 -1.5398740601789882e+00
    8.5484472641571482e-03 -1.5234485624359160e+00
    8.5127746448984895e-03 -1.5073350070669134e+00
    8.7469465313680540e-03 -1.6089467602811958e+00
    8.6633371201309869e-03 -1.5737097890017715e+00
    8.5667622261498388e-03 -1.5316215791291712e+00
    8.4130669329665723e-03 -1.4607541945520499e+00
    8.2435253090536210e-03 -1.3746310012546608e+00
    7.9763878320850360e-03 -1.2021043819298491e+00
    7.8441078017070388e-03 -9.8439146109287545e-01
    8.2958939765090250e-03 -7.1307403281229265e-01
    9.0097256546800147e-03 -5.8340504435866203e-01
    7.9449135200447968e-03 -8.5135550832210372e-01
    7.8502960723191902e-03 -1.0436483497492208e+00
    8.0202398560547342e-03 -1.2362884335417403e+00
    8.2958939765090250e-03 -1.4023789311975088e+00
    8.5484472641571482e-03 -1.5234485624359160e+00
    8.8839263721678507e-03 -1.6646880911083510e+00
    9.0907786735853879e-03 -1.7451230745865882e+00
    9.1473016783165141e-03 -1.7664570106205160e+00
    9.0907786735853879e-03 -1.7451230745865882e+00
    9.1763420068167456e-03 -1.7773234102641242e+00
    9.2667185207527120e-03 -1.8107584471282070e+00
    8.8839263721678507e-03 -1.6646880911083510e+00
    8.7910075703109582e-03 -1.6271266034351957e+00
    8.6836919783775599e-03 -1.5823833315205309e+00
    8.3821482313197575e-03 -1.4457792977414561e+00
    8.3671046729802342e-03 -1.4383899044561528e+00
    8.3974676669013922e-03 -1.4532336742203960e+00
    8.4289500927333897e-03 -1.4683420476150388e+00
    8.4289500927333897e-03 -1.4683420476150388e+00
    8.6236848605017007e-03 -1.5566235649883127e+00
    8.4783452878861385e-03 -1.4915219345217221e+00
    8.4615849165066669e-03 -1.4837246540112703e+00
    8.5667622261498388e-03 -1.5316215791291712e+00
    8.6043755730529272e-03 -1.5482075328861751e+00
    8.5667622261498388e-03 -1.5316215791291712e+00
    8.6633371201309869e-03 -1.5737097890017715e+00
    8.6043755730529272e-03 -1.5482075328861751e+00
    8.6043755730529272e-03 -1.5482075328861751e+00
    8.7254901960784302e-03 -1.5999999999999999e+00
    8.5854032046563892e-03 -1.5398740601789882e+00
    8.6633371201309869e-03 -1.5737097890017715e+00
    8.6043755730529272e-03 -1.5482075328861751e+00
    8.4451213227703225e-03 -1.4759984514122739e+00
    8.4954069751702194e-03 -1.4993916041120652e+00
    8.2958939765090250e-03 -1.4023789311975088e+00
    8.1950260552315010e-03 -1.3477595097800392e+00
    7.9129952613388801e-03 -1.1426720797609808e+00
    7.8675095573923007e-03 -9.2421137553411803e-01
    8.4289500927333897e-03 -6.8104022603197534e-01
    9.6451064356370061e-03 -5.1400831263175639e-01
    8.1189308554376373e-03 -7.6764947357873836e-01
    7.8441078017070388e-03 -9.8439146109287545e-01
    7.9632557776490240e-03 -1.1909988500706310e+00
    8.2067983121725373e-03 -1.3543983551594407e+00
    8.4451213227703225e-03 -1.4759984514122739e+00
    8.7254901960784302e-03 -1.5999999999999999e+00
    8.9836620881806120e-03 -1.7039685360738979e+00
    9.0362596689717006e-03 -1.7243011006533304e+00
    9.1187843011984529e-03 -1.7557245818577156e+00
    9.2360382427885742e-03 -1.7994708216848752e+00
    9.1763420068167456e-03 -1.7773234102641242e+00
    9.1187843011984529e-03 -1.7557245818577156e+00
    8.7910075703109582e-03 -1.6271266034351957e+00
    8.6433367572452645e-03 -1.5651237660647717e+00
    8.4783452878861385e-03 -1.4915219345217221e+00
    8.4451213227703225e-03 -1.4759984514122739e+00
    8.4130669329665723e-03 -1.4607541945520499e+00
    8.4954069751702194e-03 -1.4993916041120652e+00
    8.3821482313197575e-03 -1.4457792977414561e+00
    8.3821482313197575e-03 -1.4457792977414561e+00
    8.3671046729802342e-03 -1.4383899044561528e+00
    8.4289500927333897e-03 -1.4683420476150388e+00
    8.6236848605017007e-03 -1.5566235649883127e+00
    8.6236848605017007e-03 -1.5566235649883127e+00
    8.6043755730529272e-03 -1.5482075328861751e+00
    8.4954069751702194e-03 -1.4993916041120652e+00
    8.5667622261498388e-03 -1.5316215791291712e+00
    8.5667622261498388e-03 -1.5316215791291712e+00
    8.6633371201309869e-03 -1.5737097890017715e+00
    8.6836919783775599e-03 -1.5823833315205309e+00
    8.5854032046563892e-03 -1.5398740601789882e+00
    8.6633371201309869e-03 -1.5737097890017715e+00
    8.3523331453750019e-03 -1.4310643610541955e+00
    8.4289500927333897e-03 -1.4683420476150388e+00
    8.2562472330924355e-03 -1.3814835257889051e+00
    8.1834842672863541e-03 -1.3411719272206604e+00
    7.8536342902817014e-03 -1.0530929395530542e+00
    7.9281697426977788e-03 -8.6319061580608403e-01
    8.6433367572452662e-03 -6.3892710703277089e-01
    1.0212413823976099e-02 -4.6816458878452233e-01
    8.3378299056117572e-03 -7.0234506519518369e-01
    7.8911220178176540e-03 -8.9533202399913114e-01
    7.8911220178176540e-03 -1.1169040905443706e+00
    8.0620686873201751e-03 -1.2658353689506980e+00
    8.3096138182424898e-03 -1.4094598898897599e+00
    8.4954069751702194e-03 -1.4993916041120652e+00
    8.7687833271261721e-03 -1.6179883123378203e+00
    8.9836620881806120e-03 -1.7039685360738979e+00
    9.0362596689717006e-03 -1.7243011006533304e+00
    9.0907786735853879e-03 -1.7451230745865882e+00
    8.7687833271261721e-03 -1.6179883123378203e+00
    9.0097256546800130e-03 -1.7140749975847411e+00
    8.8136264606852813e-03 -1.6363636363636358e+00
    8.8136264606852813e-03 -1.6363636363636358e+00
    8.6836919783775599e-03 -1.5823833315205309e+00
    8.5484472641571482e-03 -1.5234485624359160e+00
    8.6043755730529272e-03 -1.5482075328861751e+00
    8.5667622261498388e-03 -1.5316215791291712e+00
    8.3523331453750019e-03 -1.4310643610541955e+00
    8.3974676669013922e-03 -1.4532336742203960e+00
    8.3821482313197575e-03 -1.4457792977414561e+00
    8.4451213227703225e-03 -1.4759984514122739e+00
    8.4451213227703225e-03 -1.4759984514122739e+00
    8.4954069751702194e-03 -1.4993916041120652e+00
    8.5484472641571482e-03 -1.5234485624359160e+00
    8.6836919783775599e-03 -1.5823833315205309e+00
    8.7254901960784302e-03 -1.5999999999999999e+00
    8.6043755730529272e-03 -1.5482075328861751e+00
    8.7469465313680540e-03 -1.6089467602811958e+00
    8.6633371201309869e-03 -1.5737097890017715e+00
    8.6433367572452645e-03 -1.5651237660647717e+00
    8.5854032046563892e-03 -1.5398740601789882e+00
    8.4451213227703225e-03 -1.4759984514122739e+00
    8.3523331453750019e-03 -1.4310643610541955e+00
    8.1834842672863541e-03 -1.3411719272206604e+00
    8.0048684404679018e-03 -1.2247448713915889e+00
    7.8431570583786941e-03 -1.0022497216285493e+00
    8.0533075272108540e-03 -7.9374846773813046e-01
    9.3298075325344062e-03 -5.4532200881173010e-01
    1.1563789365399610e-02 -3.9096002472457775e-01
    8.6633371201309869e-03 -6.3544117663163013e-01
    8.0447458234367813e-03 -7.9751452135036771e-01
    7.8475968209377692e-03 -1.0342956259505622e+00
    7.9449135200447985e-03 -1.1745974392893199e+00
    8.1950260552315010e-03 -1.3477595097800392e+00
    8.3671046729802342e-03 -1.4383899044561528e+00
    8.5304530960133608e-03 -1.5153535218873171e+00
    8.8366474186712066e-03 -1.6457014715109577e+00
    8.8366474186712066e-03 -1.6457014715109577e+00
    8.8839263721678507e-03 -1.6646880911083510e+00
    8.8366474186712066e-03 -1.6457014715109577e+00
    8.7469465313680540e-03 -1.6089467602811958e+00
    8.7910075703109582e-03 -1.6271266034351957e+00
    8.7044075395960336e-03 -1.5911461377717739e+00
    8.6433367572452645e-03 -1.5651237660647717e+00
    8.5127746448984895e-03 -1.5073350070669134e+00
    8.4130669329665723e-03 -1.4607541945520499e+00
    8.3235913114151436e-03 -1.4166004224045525e+00
    8.3235913114151436e-03 -1.4166004224045525e+00
    8.3523331453750019e-03 -1.4310643610541955e+00
    8.3974676669013922e-03 -1.4532336742203960e+00
    8.3974676669013922e-03 -1.4532336742203960e+00
    8.5667622261498388e-03 -1.5316215791291712e+00
    8.5667622261498388e-03 -1.5316215791291712e+00
    8.6236848605017007e-03 -1.5566235649883127e+00
    8.6236848605017007e-03 -1.5566235649883127e+00
    8.7044075395960336e-03 -1.5911461377717739e+00
    8.7469465313680540e-03 -1.6089467602811958e+00
    8.5484472641571482e-03 -1.5234485624359160e+00
    8.6236848605017007e-03 -1.5566235649883127e+00
    8.4615849165066669e-03 -1.4837246540112703e+00
    8.5304530960133608e-03 -1.5153535218873171e+00
    8.3671046729802342e-03 -1.4383899044561528e+00
    8.2562472330924355e-03 -1.3814835257889051e+00
    8.0363817913140199e-03 -1.2479868846938322e+00
    7.8835493488791531e-03 -1.1067971810589328e+00
    7.8622378725113282e-03 -9.3260275528204595e-01
    8.3096138182424898e-03 -7.0949163376207514e-01
    1.0709146385997783e-02 -4.3570583217638170e-01
    1.2310810083525466e-02 -3.5977996659831168e-01
    9.3298075325344062e-03 -5.4532200881173010e-01
    8.2188037420142766e-03 -7.3470564687039985e-01
    7.8622378725113282e-03 -9.3260275528204595e-01
    7.8911220178176540e-03 -1.1169040905443706e+00
    8.0895675373445688e-03 -1.2840597820232216e+00
    8.2824284289178575e-03 -1.3953565377887007e+00
    8.4615849165066669e-03 -1.4837246540112703e+00
    8.4130669329665723e-03 -1.4607541945520499e+00
    8.6236848605017007e-03 -1.5566235649883127e+00
    8.8136264606852813e-03 -1.6363636363636358e+00
    8.7044075395960336e-03 -1.5911461377717739e+00
    8.5854032046563892e-03 -1.5398740601789882e+00
    8.7687833271261721e-03 -1.6179883123378203e+00
    8.8366474186712066e-03 -1.6457014715109577e+00
    8.7254901960784302e-03 -1.5999999999999999e+00
    8.5667622261498388e-03 -1.5316215791291712e+00
    8.5127746448984895e-03 -1.5073350070669134e+00
    8.3821482313197575e-03 -1.4457792977414561e+00
    8.2958939765090250e-03 -1.4023789311975088e+00
    8.2310451228736203e-03 -1.3678332288460768e+00
    8.4954069751702194e-03 -1.4993916041120652e+00
    8.5667622261498388e-03 -1.5316215791291712e+00
    8.4954069751702194e-03 -1.4993916041120652e+00
    8.6043755730529272e-03 -1.5482075328861751e+00
    8.6043755730529272e-03 -1.5482075328861751e+00
    8.6633371201309869e-03 -1.5737097890017715e+00
    8.7469465313680540e-03 -1.6089467602811958e+00
    8.6633371201309869e-03 -1.5737097890017715e+00
    8.7687833271261721e-03 -1.6179883123378203e+00
    8.6236848605017007e-03 -1.5566235649883127e+00
    8.4615849165066669e-03 -1.4837246540112703e+00
    8.3235913114151436e-03 -1.4166004224045525e+00
    8.2435253090536210e-03 -1.3746310012546608e+00
    8.0991454242720813e-03 -1.2902211665767369e+00
    7.9569621529984782e-03 -1.1854979567276385e+00
    7.8502960723191902e-03 -1.0436483497492208e+00
    8.0124586331783536e-03 -8.1267937170450566e-01
    8.9580594525885768e-03 -5.9032605269024729e-01
    1.1481902127729300e-02 -3.9477101697586131e-01
    1.3559298439274961e-02 -3.1856733748903310e-01
    1.0475827459157278e-02 -4.5022516889074821e-01
    8.5667622261498370e-03 -6.5290278853903760e-01
    7.9569621529984765e-03 -8.4352739228697327e-01
    7.8433154915930319e-03 -1.0067644514152674e+00
    7.9832288608841940e-03 -1.2077100380106156e+00
    8.0620686873201751e-03 -1.2658353689506980e+00
    8.2188037420142749e-03 -1.3610893073432404e+00
    8.2692139078903142e-03 -1.3883917238832020e+00
    8.3671046729802342e-03 -1.4383899044561528e+00
    8.5127746448984895e-03 -1.5073350070669134e+00
    8.5484472641571482e-03 -1.5234485624359160e+00
    8.6633371201309869e-03 -1.5737097890017715e+00
    8.7910075703109582e-03 -1.6271266034351957e+00
    8.8600780935700132e-03 -1.6551422290302815e+00
    9.0362596689717006e-03 -1.7243011006533304e+00
    8.7044075395960336e-03 -1.5911461377717739e+00
    8.5304530960133608e-03 -1.5153535218873171e+00
    8.4451213227703225e-03 -1.4759984514122739e+00
    8.2692139078903142e-03 -1.3883917238832020e+00
    8.3378299056117607e-03 -1.4238015607358152e+00
    8.4289500927333897e-03 -1.4683420476150388e+00
    8.4615849165066669e-03 -1.4837246540112703e+00
    8.5127746448984895e-03 -1.5073350070669134e+00
    8.6043755730529272e-03 -1.5482075328861751e+00
    8.5854032046563892e-03 -1.5398740601789882e+00
    8.7254901960784302e-03 -1.5999999999999999e+00
    8.8366474186712066e-03 -1.6457014715109577e+00
    8.7044075395960336e-03 -1.5911461377717739e+00
    8.6043755730529272e-03 -1.5482075328861751e+00
    8.5304530960133608e-03 -1.5153535218873171e+00
    8.3378299056117607e-03 -1.4238015607358152e+00
    8.2692139078903142e-03 -1.3883917238832020e+00
    8.1502157520955704e-03 -1.3217085837078131e+00
    8.0202398560547342e-03 -1.2362884335417403e+00
    7.8872523978630992e-03 -1.1118367256583197e+00
    7.8675095573923007e-03 -9.2421137553411803e-01
    8.2310451228736203e-03 -7.3108327748669621e-01
    9.7229377082163476e-03 -5.0701296521159622e-01
    1.2759373940549575e-02 -3.4364291388199247e-01
    1.4203287792151485e-02 -3.0114161869426798e-01
    1.1823635053228945e-02 -3.7941912035979625e-01
    9.2667185207527102e-03 -5.5225477566373460e-01
    8.1721703167422308e-03 -7.4926864926535508e-01
    7.8675095573923007e-03 -9.2421137553411803e-01
    7.8675095573923007e-03 -1.0820035616009187e+00
    7.9697305777999012e-03 -1.1965341570849695e+00
    8.0124586331783518e-03 -1.2304975797559743e+00
    8.0991454242720813e-03 -1.2902211665767369e+00
    8.1610816424811886e-03 -1.3281472641539047e+00
    8.3821482313197575e-03 -1.4457792977414561e+00
    8.5667622261498388e-03 -1.5316215791291712e+00
    8.4954069751702194e-03 -1.4993916041120652e+00
    8.6836919783775599e-03 -1.5823833315205309e+00
    8.8600780935700132e-03 -1.6551422290302815e+00
    8.7910075703109582e-03 -1.6271266034351957e+00
    8.8600780935700132e-03 -1.6551422290302815e+00
    8.6836919783775599e-03 -1.5823833315205309e+00
    8.4783452878861385e-03 -1.4915219345217221e+00
    8.4451213227703225e-03 -1.4759984514122739e+00
    8.5127746448984895e-03 -1.5073350070669134e+00
    8.4954069751702194e-03 -1.4993916041120652e+00
    8.4954069751702194e-03 -1.4993916041120652e+00
    8.6836919783775599e-03 -1.5823833315205309e+00
    8.5854032046563892e-03 -1.5398740601789882e+00
    8.6236848605017007e-03 -1.5566235649883127e+00
    8.6043755730529272e-03 -1.5482075328861751e+00
    8.6836919783775599e-03 -1.5823833315205309e+00
    8.7044075395960336e-03 -1.5911461377717739e+00
    8.5854032046563892e-03 -1.5398740601789882e+00
    8.4615849165066669e-03 -1.4837246540112703e+00
    8.2692139078903142e-03 -1.3883917238832020e+00
    8.1834842672863541e-03 -1.3411719272206604e+00
    8.0710311403130088e-03 -1.2718675476729207e+00
    7.9335752577627955e-03 -1.1638287479252927e+00
    7.8447418227072432e-03 -1.0204334391177725e+00
    8.0202398560547360e-03 -8.0887272975221691e-01
    8.8136264606852831e-03 -6.1111111111111094e-01
    1.0589779822060439e-02 -4.4298595817450581e-01
    1.3559298439274961e-02 -3.1856733748903310e-01
    1.7030413037729307e-02 -2.4397501823713333e-01
    1.3413516946377524e-02 -3.2282868875438936e-01
    1.0770978938530337e-02 -4.3204937989385733e-01
    8.7254901960784319e-03 -6.2500000000000011e-01
    7.9832288608841923e-03 -8.2801332151485374e-01
    7.8576139173297775e-03 -9.4105962634627072e-01
    7.8502960723191902e-03 -1.0436483497492208e+00
    7.8766402254370881e-03 -1.0968000259982227e+00
    7.8911220178176540e-03 -1.1169040905443706e+00
    7.9974677368479883e-03 -1.2190297451469643e+00
    8.2067983121725373e-03 -1.3543983551594407e+00
    8.2310451228736203e-03 -1.3678332288460768e+00
    8.3671046729802342e-03 -1.4383899044561528e+00
    8.6433367572452645e-03 -1.5651237660647717e+00
    8.5667622261498388e-03 -1.5316215791291712e+00
    8.5854032046563892e-03 -1.5398740601789882e+00
    8.5854032046563892e-03 -1.5398740601789882e+00
    8.5667622261498388e-03 -1.5316215791291712e+00
    8.5304530960133608e-03 -1.5153535218873171e+00
    8.4783452878861385e-03 -1.4915219345217221e+00
    8.4954069751702194e-03 -1.4993916041120652e+00
    8.6236848605017007e-03 -1.5566235649883127e+00
    8.5667622261498388e-03 -1.5316215791291712e+00
    8.6043755730529272e-03 -1.5482075328861751e+00
    8.5484472641571482e-03 -1.5234485624359160e+00
    8.6236848605017007e-03 -1.5566235649883127e+00
    8.6043755730529272e-03 -1.5482075328861751e+00
    8.5854032046563892e-03 -1.5398740601789882e+00
    8.5667622261498388e-03 -1.5316215791291712e+00
    8.3974676669013922e-03 -1.4532336742203960e+00
    8.2562472330924355e-03 -1.3814835257889051e+00
    8.1395702201852056e-03 -1.3153179652438609e+00
    8.0447458234367813e-03 -1.2538956636260117e+00
    7.9697305777999012e-03 -1.1965341570849695e+00
    7.8488667099902883e-03 -1.0389606596673662e+00
    7.8675095573923007e-03 -9.2421137553411803e-01
    8.3671046729802325e-03 -6.9522178715380689e-01
    9.8456498482516856e-03 -4.9648625302195015e-01
    1.2310810083525466e-02 -3.5977996659831168e-01
    1.6150009695401580e-02 -2.5912599825880289e-01
    2.1729011673120566e-02 -1.8677184190940710e-01
    1.4762484719495803e-02 -2.8761964610792945e-01
    1.2009766727510576e-02 -3.7162806255690028e-01
    1.0067612680472909e-02 -4.7883375816226764e-01
    8.4954069751702194e-03 -6.6693717455634072e-01
    8.0048684404679018e-03 -8.1649658092772603e-01
    7.8911220178176540e-03 -8.9533202399913114e-01
    7.8431570583786941e-03 -1.0022497216285493e+00
    7.8475968209377692e-03 -1.0342956259505622e+00
    7.8835493488791531e-03 -1.1067971810589328e+00
    8.0202398560547342e-03 -1.2362884335417403e+00
    8.0533075272108540e-03 -1.2598449517006374e+00
    8.1721703167422308e-03 -1.3346347815039139e+00
    8.3671046729802342e-03 -1.4383899044561528e+00
    8.4783452878861385e-03 -1.4915219345217221e+00
    8.4954069751702194e-03 -1.4993916041120652e+00
    8.4615849165066669e-03 -1.4837246540112703e+00
    8.4954069751702194e-03 -1.4993916041120652e+00
    8.5127746448984895e-03 -1.5073350070669134e+00
    8.4289500927333897e-03 -1.4683420476150388e+00
    8.4451213227703225e-03 -1.4759984514122739e+00
    8.4954069751702194e-03 -1.4993916041120652e+00
    8.4783452878861385e-03 -1.4915219345217221e+00
    8.4615849165066669e-03 -1.4837246540112703e+00
    8.4130669329665723e-03 -1.4607541945520499e+00
    8.4783452878861385e-03 -1.4915219345217221e+00
    8.4954069751702194e-03 -1.4993916041120652e+00
    8.4451213227703225e-03 -1.4759984514122739e+00
    8.3821482313197575e-03 -1.4457792977414561e+00
    8.1610816424811886e-03 -1.3281472641539047e+00
    8.0447458234367813e-03 -1.2538956636260117e+00
    8.0202398560547342e-03 -1.2362884335417403e+00
    7.8911220178176540e-03 -1.1169040905443706e+00
    7.8475968209377692e-03 -1.0342956259505622e+00
    7.8800121781083237e-03 -9.0761803188526324e-01
    8.0895675373445705e-03 -7.7877993999964357e-01
    9.4289684780594733e-03 -5.3490856006429532e-01
    1.1823635053228945e-02 -3.7941912035979625e-01
    1.4032363542616957e-02 -3.0555865781563663e-01
    1.9397163679091868e-02 -2.1118934387685415e-01
    2.9514410854296430e-02 -1.3530201829834768e-01
    1.5888180545318983e-02 -2.6402942726434581e-01
    1.3137759457341578e-02 -3.3124867665476965e-01
    1.1823635053228945e-02 -3.7941912035979625e-01
    9.8456498482516856e-03 -4.9648625302195015e-01
    8.4130669329665723e-03 -6.8457787335442599e-01
    8.1189308554376373e-03 -7.6764947357873836e-01
    7.9129952613388801e-03 -8.7514171188043366e-01
    7.8555437564636448e-03 -9.4531318687332166e-01
    7.8502960723191902e-03 -1.0436483497492208e+00
    7.8800121781083237e-03 -1.1017850735323593e+00
    7.9082812260068587e-03 -1.1374596401585821e+00
    8.0282136969241202e-03 -1.2421180068162374e+00
    8.0710311403130088e-03 -1.2718675476729207e+00
    8.2067983121725373e-03 -1.3543983551594407e+00
    8.1950260552315010e-03 -1.3477595097800392e+00
    8.2824284289178575e-03 -1.3953565377887007e+00
    8.3235913114151436e-03 -1.4166004224045525e+00
    8.3235913114151436e-03 -1.4166004224045525e+00
    8.2310451228736203e-03 -1.3678332288460768e+00
    8.2067983121725373e-03 -1.3543983551594407e+00
    8.2958939765090250e-03 -1.4023789311975088e+00
    8.3821482313197575e-03 -1.4457792977414561e+00
    8.2692139078903142e-03 -1.3883917238832020e+00
    8.2310451228736203e-03 -1.3678332288460768e+00
    8.2310451228736203e-03 -1.3678332288460768e+00
    8.1610816424811886e-03 -1.3281472641539047e+00
    8.1395702201852056e-03 -1.3153179652438609e+00
    8.0533075272108540e-03 -1.2598449517006374e+00
    7.9832288608841940e-03 -1.2077100380106156e+00
    7.9281697426977788e-03 -1.1584926685818495e+00
    7.8576139173297775e-03 -1.0626319225728225e+00
    7.8576139173297775e-03 -9.4105962634627072e-01
    7.9281697426977788e-03 -8.6319061580608403e-01
    8.1189308554376373e-03 -7.6764947357873836e-01
    8.9580594525885768e-03 -5.9032605269024729e-01
    1.0709146385997783e-02 -4.3570583217638170e-01
    1.2417560384288037e-02 -3.5578403348241000e-01
    1.5179931631590851e-02 -2.7835560025568840e-01
    2.0458485722386947e-02 -1.9929783282370206e-01
    2.4209468745093041e-02 -1.6647409968535890e-01
    1.8928245829274902e-02 -2.1693045781865619e-01
    1.5179931631590851e-02 -2.7835560025568840e-01
    1.3413516946377524e-02 -3.2282868875438936e-01
    1.1823635053228945e-02 -3.7941912035979625e-01
    9.9316951516037390e-03 -4.8944286443746066e-01
    8.6433367572452662e-03 -6.3892710703277089e-01
    8.0801967757416736e-03 -7.8250804505749982e-01
    7.9129952613388801e-03 -8.7514171188043366e-01
    7.8800121781083237e-03 -9.0761803188526324e-01
    7.8488667099902883e-03 -9.6250035138015744e-01
    7.8555437564636448e-03 -1.0578504710249077e+00
    7.9129952613388801e-03 -1.1426720797609808e+00
    7.9697305777999012e-03 -1.1965341570849695e+00
    8.0202398560547342e-03 -1.2362884335417403e+00
    8.0801967757416718e-03 -1.2779421327566265e+00
    8.2435253090536210e-03 -1.3746310012546608e+00
    8.2435253090536210e-03 -1.3746310012546608e+00
    8.2562472330924355e-03 -1.3814835257889051e+00
    8.2188037420142749e-03 -1.3610893073432404e+00
    8.2067983121725373e-03 -1.3543983551594407e+00
    8.2435253090536210e-03 -1.3746310012546608e+00
    8.1291426867160146e-03 -1.3089746499250248e+00
    8.1291426867160146e-03 -1.3089746499250248e+00
    8.0895675373445688e-03 -1.2840597820232216e+00
    8.0447458234367813e-03 -1.2538956636260117e+00
    7.9832288608841940e-03 -1.2077100380106156e+00
    8.0048684404679018e-03 -1.2247448713915889e+00
    7.9449135200447985e-03 -1.1745974392893199e+00
    7.8766402254370881e-03 -1.0968000259982227e+00
    7.8555437564636448e-03 -1.0578504710249077e+00
    7.8502960723191920e-03 -9.5817714869217285e-01
    8.0282136969241219e-03 -8.0507648589941339e-01
    8.3096138182424898e-03 -7.0949163376207514e-01
    9.1187843011984529e-03 -5.6956541494788993e-01
    1.0212413823976099e-02 -4.6816458878452233e-01
    1.1823635053228945e-02 -3.7941912035979625e-01
    1.4203287792151485e-02 -3.0114161869426798e-01
    1.7713308523060776e-02 -2.3345742581517182e-01
    2.2465556321349247e-02 -1.8022929453307149e-01
    2.9514410854296430e-02 -1.3530201829834768e-01
    2.2465556321349247e-02 -1.8022929453307149e-01
    1.8928245829274902e-02 -2.1693045781865619e-01
    1.5888180545318983e-02 -2.6402942726434581e-01
    1.4203287792151485e-02 -3.0114161869426798e-01
    1.2417560384288037e-02 -3.5578403348241000e-01
    1.0262797085994917e-02 -4.6459336471318557e-01
    8.7687833271261739e-03 -6.1805143607935387e-01
    8.2067983121725373e-03 -7.3833521444455630e-01
    8.0124586331783536e-03 -8.1267937170450566e-01
    7.9281697426977788e-03 -8.6319061580608403e-01
    7.8518851689271009e-03 -9.5387171288134620e-01
    7.8433154915930319e-03 -9.9328099894095578e-01
    7.8576139173297775e-03 -1.0626319225728225e+00
    7.9082812260068587e-03 -1.1374596401585821e+00
    7.9229385690537408e-03 -1.1531881598148557e+00
    7.9902550270806033e-03 -1.2133516482134197e+00
    8.0620686873201751e-03 -1.2658353689506980e+00
    8.0895675373445688e-03 -1.2840597820232216e+00
    8.1189308554376373e-03 -1.3026778945578592e+00
    8.0533075272108540e-03 -1.2598449517006374e+00
    8.0710311403130088e-03 -1.2718675476729207e+00
    8.0533075272108540e-03 -1.2598449517006374e+00
    8.0202398560547342e-03 -1.2362884335417403e+00
    7.9697305777999012e-03 -1.1965341570849695e+00
    7.9178807314970439e-03 -1.1479147761629929e+00
    7.9335752577627955e-03 -1.1638287479252927e+00
    7.8766402254370881e-03 -1.0968000259982227e+00
    7.8475968209377692e-03 -1.0342956259505622e+00
    7.8447418227072432e-03 -9.7997572567257452e-01
    7.8675095573923007e-03 -9.2421137553411803e-01
    8.0124586331783536e-03 -8.1267937170450566e-01
    8.5127746448984895e-03 -6.6342252738220142e-01
    9.2360382427885725e-03 -5.5571893022621133e-01
    1.0589779822060439e-02 -4.4298595817450581e-01
    1.2009766727510576e-02 -3.7162806255690028e-01
    1.3273106412584048e-02 -3.2705530744715522e-01
    1.5639942600153590e-02 -2.6886642896893248e-01
    1.9905341850913329e-02 -2.0531577324874647e-01
    3.4002585805878310e-02 -1.1690776692807599e-01
    3.7205615207155547e-02 -1.0660035817780522e-01
    2.9514410854296430e-02 -1.3530201829834768e-01
    1.9905341850913329e-02 -2.0531577324874647e-01
    1.7360937026818912e-02 -2.3876165079580167e-01
    1.8089989152885601e-02 -2.2805581830941171e-01
    1.5179931631590851e-02 -2.7835560025568840e-01
    1.2641655714259136e-02 -3.4771655267984680e-01
    1.0965704267447647e-02 -4.2100911777380462e-01
    9.5339199373525862e-03 -5.2447271925031758e-01
    8.5854032046563892e-03 -6.4940375700839115e-01
    8.2188037420142766e-03 -7.3470564687039985e-01
    7.9902550270806033e-03 -8.2416338369213415e-01
    7.8800121781083237e-03 -9.0761803188526324e-01
    7.8622378725113282e-03 -9.3260275528204595e-01
    7.8475968209377692e-03 -9.6684156338856897e-01
    7.8436323868272609e-03 -9.8882646494608839e-01
    7.8675095573923007e-03 -1.0820035616009187e+00
    7.8993639070978339e-03 -1.1271238455756785e+00
    7.8800121781083237e-03 -1.1017850735323593e+00
    7.8872523978630992e-03 -1.1118367256583197e+00
    7.9037377285387494e-03 -1.1322770341445962e+00
    7.9037377285387494e-03 -1.1322770341445962e+00
    7.8951589345093789e-03 -1.1219996652098272e+00
    7.8734328630492671e-03 -1.0918416673680229e+00
    7.8647925171090281e-03 -1.0771231010229432e+00
    7.8703894950974667e-03 -1.0869096324072243e+00
    7.8447418227072432e-03 -1.0204334391177725e+00
    7.8518851689271009e-03 -9.5387171288134620e-01
    7.8675095573923007e-03 -9.2421137553411803e-01
    7.9508484662310520e-03 -8.4743537697379501e-01
    8.1950260552315010e-03 -7.4197213430399367e-01
    8.5127746448984895e-03 -6.6342252738220142e-01
    9.6836384054450730e-03 -5.1051271234099194e-01
    1.0965704267447647e-02 -4.2100911777380462e-01
    1.2009766727510576e-02 -3.7162806255690028e-01
    1.3868340953152189e-02 -3.0993404669460345e-01
    1.5404188097575645e-02 -2.7364068968839428e-01
    1.7360937026818912e-02 -2.3876165079580167e-01
    2.5256817329835597e-02 -1.5920308451727830e-01
    3.1516193284773786e-02 -1.2641888767038476e-01
    4.1549953314659195e-02 -9.5238095238095233e-02
    3.4002585805878310e-02 -1.1690776692807599e-01
    3.4002585805878310e-02 -1.1690776692807599e-01
    2.6459108187655844e-02 -1.5161960871578067e-01
    1.9905341850913329e-02 -2.0531577324874647e-01
    1.9397163679091868e-02 -2.1118934387685415e-01
    1.5888180545318983e-02 -2.6402942726434581e-01
    1.4966293320367681e-02 -2.8301428829414393e-01
    1.2310810083525466e-02 -3.5977996659831168e-01
    1.0532149518073615e-02 -4.4661047506977325e-01
    8.9082003877484165e-03 -5.9724979453589666e-01
    8.6236848605017007e-03 -6.4241607443962112e-01
    8.2310451228736203e-03 -7.3108327748669621e-01
    8.0363817913140199e-03 -8.0129047209124282e-01
    7.9391561567784229e-03 -8.5528796888979230e-01
    7.9178807314970439e-03 -8.7114481036875335e-01
    7.8555437564636448e-03 -9.4531318687332166e-01
    7.8431570583786941e-03 -9.9775532825801772e-01
    7.8464861734913877e-03 -1.0296529440472575e+00
    7.8464861734913877e-03 -1.0296529440472575e+00
    7.8436323868272609e-03 -1.0112997936948631e+00
    7.8433154915930319e-03 -1.0067644514152674e+00
    7.8433154915930319e-03 -9.9328099894095578e-01
    7.8488667099902883e-03 -9.6250035138015744e-01
    7.8436323868272609e-03 -9.8882646494608839e-01
    7.8455345651956710e-03 -9.7557900037101675e-01
    7.8993639070978339e-03 -8.8721395073426901e-01
    7.9902550270806033e-03 -8.2416338369213415e-01
    8.1610816424811904e-03 -7.5292855467879838e-01
    8.4615849165066669e-03 -6.7397949969792992e-01
    9.2360382427885725e-03 -5.5571893022621133e-01
    9.9760614886818862e-03 -4.8591265790377502e-01
    1.1033880034428206e-02 -4.1730382242567804e-01
    1.2759373940549575e-02 -3.4364291388199247e-01
    1.4762484719495803e-02 -2.8761964610792945e-01
    1.8089989152885601e-02 -2.2805581830941171e-01
    1.9397163679091868e-02 -2.1118934387685415e-01
    2.2465556321349247e-02 -1.8022929453307149e-01
    3.1516193284773786e-02 -1.2641888767038476e-01
    4.7923449252859789e-02 -8.2385255457163450e-02
    5.8627715216492376e-02 -6.7191314068339572e-02
    4.7923449252859789e-02 -8.2385255457163450e-02
    3.7205615207155547e-02 -1.0660035817780522e-01
    2.6459108187655844e-02 -1.5161960871578067e-01
    2.1729011673120566e-02 -1.8677184190940710e-01
    2.1063531820141576e-02 -1.9312181983410703e-01
    1.8493846765949739e-02 -2.2254954928463114e-01
    2.0458485722386947e-02 -1.9929783282370206e-01
    1.6150009695401580e-02 -2.5912599825880289e-01
    1.3710785081830660e-02 -3.1426968052735449e-01
    1.1647972892194661e-02 -3.8713150354058212e-01
    9.8456498482516856e-03 -4.9648625302195015e-01
    9.2059168688019485e-03 -5.5918187182857682e-01
    8.6633371201309869e-03 -6.3544117663163013e-01
    8.2958939765090250e-03 -7.1307403281229265e-01
    8.1189308554376373e-03 -7.6764947357873836e-01
    8.0363817913140199e-03 -8.0129047209124282e-01
    7.9832288608841923e-03 -8.2801332151485374e-01
    7.9632557776490240e-03 -8.3963137322987014e-01
    7.9281697426977788e-03 -8.6319061580608403e-01
    7.9632557776490240e-03 -8.3963137322987014e-01
    7.9569621529984765e-03 -8.4352739228697327e-01
    8.0124586331783536e-03 -8.1267937170450566e-01
    8.0124586331783536e-03 -8.1267937170450566e-01
    8.0124586331783536e-03 -8.1267937170450566e-01
    8.0710311403130088e-03 -7.8624539310689656e-01
    8.1721703167422308e-03 -7.4926864926535508e-01
    8.5854032046563892e-03 -6.4940375700839115e-01
    9.1473016783165158e-03 -5.6610491735019519e-01
    1.0262797085994917e-02 -4.6459336471318557e-01
    1.1324645051840436e-02 -4.0234300734740963e-01
    1.2527782291046200e-02 -3.5176323534072418e-01
    1.5179931631590851e-02 -2.7835560025568840e-01
    1.5639942600153590e-02 -2.6886642896893248e-01
    1.9905341850913329e-02 -2.0531577324874647e-01
    2.6459108187655844e-02 -1.5161960871578067e-01
    3.4002585805878310e-02 -1.1690776692807599e-01
    3.4002585805878310e-02 -1.1690776692807599e-01
    4.1549953314659195e-02 -9.5238095238095233e-02
    5.8627715216492376e-02 -6.7191314068339572e-02
    5.8627715216492376e-02 -6.7191314068339572e-02
    5.8627715216492376e-02 -6.7191314068339572e-02
    3.4002585805878310e-02 -1.1690776692807599e-01
    2.6459108187655844e-02 -1.5161960871578067e-01
    2.5256817329835597e-02 -1.5920308451727830e-01
    3.1516193284773786e-02 -1.2641888767038476e-01
    2.3286610602373782e-02 -1.7347216662217774e-01
    2.4209468745093041e-02 -1.6647409968535890e-01
    2.1063531820141576e-02 -1.9312181983410703e-01
    1.9905341850913329e-02 -2.0531577324874647e-01
    1.6719610083472281e-02 -2.4910340416499152e-01
    1.3273106412584048e-02 -3.2705530744715522e-01
    1.3559298439274961e-02 -3.1856733748903310e-01
    1.0709146385997783e-02 -4.3570583217638170e-01
    9.6073219714574391e-03 -5.1750001720412320e-01
    9.1473016783165158e-03 -5.6610491735019519e-01
    8.9082003877484165e-03 -5.9724979453589666e-01
    8.7910075703109582e-03 -6.1458032699409870e-01
    8.7469465313680540e-03 -6.2152460521765807e-01
    8.5667622261498370e-03 -6.5290278853903760e-01
    8.7044075395960319e-03 -6.2847778482521466e-01
    8.7254901960784319e-03 -6.2500000000000011e-01
    8.7910075703109582e-03 -6.1458032699409870e-01
    8.8136264606852831e-03 -6.1111111111111094e-01
    9.1763420068167473e-03 -5.6264380147414594e-01
    9.3952920163091619e-03 -5.3838190205816538e-01
    9.6451064356370061e-03 -5.1400831263175639e-01
    1.0709146385997783e-02 -4.3570583217638170e-01
    1.1915332948608585e-02 -3.7553380809940540e-01
    1.2641655714259136e-02 -3.4771655267984680e-01
    1.3868340953152189e-02 -3.0993404669460345e-01
    1.6426680402129593e-02 -2.5415212262620729e-01
    2.1063531820141576e-02 -1.9312181983410703e-01
    2.3286610602373782e-02 -1.7347216662217774e-01
    3.4002585805878310e-02 -1.1690776692807599e-01
    3.4002585805878310e-02 -1.1690776692807599e-01
    4.1549953314659195e-02 -9.5238095238095233e-02
    4.7923449252859789e-02 -8.2385255457163450e-02
    5.8627715216492376e-02 -6.7191314068339572e-02
    8.2818687864678844e-02 -4.7457899787624949e-02</input_scale>
  <output_scale>
    1.0526315789473684e+00 0. 1.0526315789473684e+00 0.
    1.0526315789473684e+00 0. 1.0526315789473684e+00 0.
    1.0526315789473684e+00 0. 1.0526315789473684e+00 0.
    1.0526315789473684e+00 0. 1.0526315789473684e+00 0.</output_scale>
  <inv_output_scale>
    9.4999999999999996e-01 0. 9.4999999999999996e-01 0.
    9.4999999999999996e-01 0. 9.4999999999999996e-01 0.
    9.4999999999999996e-01 0. 9.4999999999999996e-01 0.
    9.4999999999999996e-01 0. 9.4999999999999996e-01 0.</inv_output_scale>
  <weights>
    <_>
      -1.1719048386403424e-03 -2.2903224389177911e-04
      -9.9637750405231888e-04 -5.5088375721748159e-04
      2.2039270841974236e-04 1.2144499427915077e-03
      9.9728247011042037e-04 2.0453599492093418e-04
      -7.2831549546728146e-04 -4.2920232853557353e-04
      -1.1054717958401724e-03 -1.2409612586460942e-04
      -2.1397120762249158e-05 -7.8018402384446585e-04
      6.7194088742161514e-04 -1.1208781013474275e-03
      1.1037170489498088e-03 1.0083693640301039e-03
      -2.5698247005999147e-04 -3.4383640164285737e-05
      3.0002183913935715e-04 -7.7645728251324352e-04
      -6.5397802009701264e-04 9.5527311481024093e-04
      -1.0954164450422850e-03 -3.1663012947851025e-04
      6.1523554708813478e-04 -6.3403300196013517e-04
      1.0630743572223426e-03 -2.4215284090006096e-04
      1.2150750992007805e-03 -3.7732545206526025e-04
      2.2581237915161135e-04 8.1166924113520002e-04
      1.1322676431532379e-03 5.1786688077618958e-04
      8.1904968067006900e-04 5.2277548999592920e-04
      1.2256443938238879e-03 -1.5902424652943092e-04
      -9.6310054958557328e-04 -4.3592939338862589e-06
      -9.7104604700402354e-04 -1.4216408108205336e-04
      5.0670754388380439e-05 -4.3037758367267103e-04
      -2.8042684505847726e-04 9.4125990658394361e-04
      -8.9584930033651141e-04 -3.2985932958439119e-04
      8.2161545060726096e-04 -5.5093696276745650e-04
      -1.6305821300132049e-04 -8.7066563865171003e-04
      -6.5429700141927255e-04 -4.3847881428995015e-04
      1.2242779940651745e-03 -6.2744881264040534e-04
      -7.2912025233702246e-04 -1.6233949249783682e-04
      3.5968622646311732e+00 -5.6125057315720116e-03
      -1.2390456760174071e-02 1.6015000287229093e-02
      -1.5879898676319230e-02 -4.4731575363081762e-02
      5.1896013319183455e-03 -6.9104694741759015e-03
      3.4246179401999916e-01 -7.0334317838307014e-02
      -3.2466353002078398e-03 -8.4851789074560810e-05
      3.1142135855577488e-03 1.7501788564751343e-03
      -2.3770966423098602e-02 1.0459462377307984e-02
      -2.3815706843154094e-03 2.2818581923764004e-02
      -1.2031276711059045e-02 5.8466624612393239e-04
      4.0428119592562537e-03 2.0906853568384395e-02
      4.9391060097813740e-03 -1.3087521401179907e-02
      1.0518116955298718e-02 6.0419625512084432e-03
      1.2319640207020499e-02 3.6687846697075707e-03
      -1.0528934831652233e-02 -2.7907160021723998e-02
      -2.3411707069789958e-03 5.0193166670746961e-03
      -2.2727596041666322e-02 -1.0381358781997745e-03
      -3.9536973577329196e-03 8.4825280097447740e-03
      -5.6213399749279795e-02 -2.8928861230339835e-03
      -7.1246983810466973e-03 1.0206665170184249e-02
      3.3399644192256819e-03 -2.3557139907307959e-02
      1.3138296530776630e-01 1.8517967554371248e-01
      1.2497397651632169e-02 -7.9335822271817472e-03
      1.5487242276338959e-02 9.2276650916909425e-02
      -1.5037414830863479e-02 -2.1348179084514018e-01
      3.1845384495809577e-03 -2.5725730800189077e-02
      -3.7396992952907510e-01 5.9333589207370974e-03
      2.5200601446166322e-02 8.1025594910478504e-03
      -1.2915511116220938e-02 2.2300007295285244e-02
      1.6099086217929756e-02 -1.3787155237689542e-02
      -1.6990091614698712e+00 7.5973511114912684e-02
      -3.6336352011103530e-02 4.4246946689553805e-02
      6.7467688650047070e-02 -8.4586654258968177e-02
      -2.0901983728050199e-02 -4.9258995133740983e-02
      3.9041201666258747e-02 1.1090998454365715e-02
      5.7871998816028523e-02 -1.8170494918936536e-01
      -2.7651929197320572e-02 5.0655500248199606e-02
      -4.7111931481003927e-02 1.1176835550049814e-02
      5.5769797306521617e-02 -9.9539475621519657e-02
      -9.2742787174366931e-02 4.7000475130839464e-02
      7.3850356559853989e-02 -1.9296152354431104e-01
      -3.5332459168860082e-02 9.1458115898583239e-03
      8.1491320466272402e-02 -7.8280048107874298e-03
      4.1298648748556072e-02 9.7749723707995038e-03
      -1.3002413834984861e-01 5.1163138794175736e-02
      3.2534153173060298e-02 -4.5432532122215430e-02
      -8.1849607315096287e-02 -9.8327444615949430e-02
      1.5209749397434033e-03 3.4889973276232456e-03
      -5.8599631630497251e-02 2.7481464909444825e-03
      4.1425299922994770e-02 3.2331571105364547e-02
      2.7529258764960509e-03 1.2427369721541461e-01
      1.0895633655602491e-02 5.8617547105799653e-02
      -2.5790400781925873e-02 1.7767841457740442e-02
      3.3529198704674246e-02 -1.1398607796450005e-01
      4.2559397559206617e-02 -5.1823170096874531e-02
      -4.7043842981936646e-04 8.6001562697124390e-02
      3.5813945165059563e-02 9.9992531088313560e-02
      -1.3152862128246769e-02 4.5023315941469563e-02
      -8.6475087830573588e-02 7.2417247075922175e-02
      7.6067857973374994e-02 -3.3486475820912749e-02
      -1.7006658551664315e+00 7.6966872378850193e-02
      -3.5645886023724087e-02 4.5084191811609921e-02
      6.7620598734073278e-02 -8.6041092462857058e-02
      -1.9888065217667807e-02 -4.9691998484277022e-02
      3.9872422993403399e-02 1.1154291184035393e-02
      5.8937215183307384e-02 -1.8013042851303485e-01
      -2.7667511760173426e-02 5.0861442572317797e-02
      -4.8301601236317285e-02 1.2755410355944498e-02
      5.5637696207739916e-02 -9.9678432934065975e-02
      -9.2698335871164272e-02 4.5270594848424869e-02
      7.3607233122633162e-02 -1.9428888950092585e-01
      -3.3597946586848781e-02 8.0061304457077591e-03
      8.3054886210057730e-02 -8.8929347625259642e-03
      4.1194148115751464e-02 9.7553280082569183e-03
      -1.2988525896401076e-01 5.2156449071897662e-02
      3.2141509751859913e-02 -4.3785349516266683e-02
      -7.9736572662167285e-02 -9.8031679824333015e-02
      1.2549143268210743e-03 2.4773777337350985e-03
      -5.6631829889903285e-02 3.1622469693708632e-03
      4.3337583568720105e-02 3.1157266723320035e-02
      3.2193796914117730e-03 1.2358278444979377e-01
      9.3683514457767979e-03 5.9476776251045235e-02
      -2.5782953060910368e-02 1.7723679781856634e-02
      3.2705662423481767e-02 -1.1407918799904124e-01
      4.1610736687848322e-02 -5.1568346362149582e-02
      3.4462929816466938e-04 8.4847123618362538e-02
      3.6287836436234511e-02 9.9159637689113719e-02
      -1.1718904301897953e-02 4.7061482902510873e-02
      -8.6017470585481259e-02 7.3599751915202238e-02
      7.6060043152630541e-02 -3.2022598391860356e-02
      -1.4372985781536283e+00 8.1865343139585081e-04
      -1.5634496302899394e-02 4.7440686694933600e-02
      5.3951112585254729e-02 -1.0733683436257373e-01
      -1.5800167962915904e-02 -1.4238798512967041e-01
      3.3375844843109244e-02 -8.1053421829058708e-03
      2.2600054345268138e-02 -8.8233662622292569e-02
      -2.3311530663147353e-02 5.4228093084688428e-02
      -5.4210208605307141e-02 2.0313729382166738e-02
      5.5965958396089276e-02 3.0232750064943217e-02
      -2.1246874641676222e-02 4.2466341017783293e-02
      4.5846873843746652e-02 -1.6937549118228035e-01
      9.7981367745732489e-02 2.3934245144854190e-03
      7.9973955527650117e-02 -5.1214981918766792e-02
      4.4201994569770517e-02 1.9945531723954031e-02
      -1.7060446483018729e-01 3.7149707687540966e-02
      2.7738855684968509e-02 4.7882960491794524e-02
      -1.1445903000198963e-01 -1.0249480441261294e-01
      2.5963267490631797e-02 1.4916990016995521e-02
      -6.0583575801367931e-02 9.6813570334224660e-03
      3.5974695976644981e-02 2.4720582890748577e-02
      5.6982701941480736e-03 1.1987722940964052e-01
      3.3495200088644005e-03 4.9192052093623657e-02
      2.3736460024542029e-02 1.1866327590384720e-02
      2.4375342978754353e-02 -9.6226002973775412e-02
      9.9423594114918606e-02 -2.8904811473816284e-02
      3.9145515921825386e-02 6.0692459415258498e-02
      1.4589032366062156e-02 9.3872306592710758e-02
      -1.2228193924359058e-03 4.0446725923805951e-02
      -7.7496247262534040e-02 7.5502553933930405e-02
      6.2816580286141649e-02 -3.5924935321156364e-02
      -1.3772780589813300e+00 -6.4607714688923956e-02
      7.0712079032421701e-02 -2.7076185032538135e-02
      6.5078937818415422e-02 -8.6556987727947274e-02
      3.4332653703741091e-02 -1.4069435480198200e-01
      -8.8989778921509610e-02 -7.1822124696824738e-02
      -8.5014438722123428e-02 9.2340192749131397e-02
      -2.3000067750196012e-02 1.5632709720913075e-03
      -4.6268167396244675e-02 3.1637526738891260e-02
      2.0205622176601599e-03 1.6033609906149179e-01
      6.0119647437226045e-02 1.0571980079880409e-02
      1.4902198818032955e-01 4.0337771216007776e-02
      1.2569731409883633e-01 2.1621229331355379e-02
      6.1796482088590232e-02 -3.4355046853234435e-02
      1.3587105788628383e-02 -1.2305457120534276e-05
      -3.5056032270029534e-02 -5.0216896987768017e-02
      -5.7385716679469430e-03 7.0207525778078456e-02
      -8.0272399503472189e-02 -1.7634201153324886e-02
      -1.1311115866939614e-02 -1.7316989632238983e-01
      1.3991628357765051e-01 4.0650155655440348e-02
      4.2013752661249612e-02 -8.0735022605638015e-02
      -1.5397587453469042e-03 -3.4108546459188441e-02
      -5.1359720724431139e-03 -2.4206219111084262e-01
      7.9219496832375960e-02 -2.6539393543860521e-02
      -1.4676341561940884e-01 -3.0876833567002705e-02
      3.9211635752613799e-02 3.9010335652277482e-02
      -3.2508803062231487e-02 -1.9762797534228854e-02
      8.0298210557584834e-02 1.1086172580729230e-02
      6.9937819836631207e-02 5.5052246404024785e-02
      -2.0552706403162263e-01 4.3309342761796800e-02
      1.8518654610921892e-02 1.2722390044873017e-01
      -2.3060539466807102e+00 -1.2332431821085708e-01
      4.0129686378814734e-02 -1.0809505575532013e-03
      -6.5524044582728119e-02 -8.0492303815836524e-02
      2.7767334832237603e-02 -9.9499647736828081e-02
      -1.3016837031584999e-01 -1.2025742910154592e-01
      -1.5171523545641739e-02 4.7152294973634788e-02
      -1.4086684264213063e-02 3.7442919233430911e-03
      -6.1681066221744373e-02 -1.0998422414146400e-02
      8.4003614735123452e-02 2.5901861082825911e-01
      3.4235015825077084e-02 -6.1354964840050485e-02
      5.3015465572536384e-02 7.6653257109299752e-02
      8.0245663960954977e-02 -6.4606534937345014e-03
      4.5994472052646743e-02 -8.0743284217839717e-02
      1.9760275406766097e-02 2.5465994844988848e-01
      2.3306927992090467e-03 -5.1151160677530658e-02
      -7.6881268298230167e-03 5.5721981482154757e-02
      -8.5273271948510573e-02 2.4019994789766172e-03
      -3.6267041623726307e-02 -1.2519716352183990e-01
      8.3199493383503895e-02 2.8111686751238270e-02
      -5.8727097030162240e-02 -8.5010247486276100e-02
      2.2555491968959274e-03 -5.3453461301678482e-02
      -6.9706107449471373e-03 -1.3996824451166967e-01
      4.3068530152917221e-02 4.2458210644526102e-03
      -1.7304480723351823e-01 -1.4749056330735577e-01
      -2.5224445932283918e-02 4.2389301249923704e-02
      1.7141020560304884e-01 -5.5359083352773848e-02
      8.6918110757217421e-02 7.7174072071535718e-02
      1.0017231776174780e-01 -1.0644183255426541e-02
      -1.6728271964608066e-01 8.6791577617591695e-02
      7.3269856066962166e-02 7.9304038785889722e-02
      -1.1919048072720717e+00 -5.2123350518585979e-02
      4.4933639747549381e-02 -2.0366522541079599e-02
      -8.8453018293813079e-02 -6.4273069717176567e-03
      -9.1757973676807686e-02 -8.7313655635087320e-02
      -1.7310807191842881e-01 -4.2301653411576615e-02
      -5.0192668227663641e-02 6.7960546937294697e-02
      1.5111135866069899e-02 -3.8794272960267086e-02
      -8.1842953057698647e-02 6.6567121062671162e-03
      -8.6218649940096419e-03 8.1572160883315259e-02
      4.3448193964216515e-02 8.3043484052868349e-02
      3.3497691469598384e-02 7.4162429538745897e-02
      -7.7874535376767969e-03 -2.2741900062914933e-02
      2.9886415656956048e-02 1.5447284955478573e-03
      -6.6207906875897990e-02 1.9056437282394728e-02
      5.3401023676263329e-02 -6.4028943506364039e-02
      -3.9784400003596003e-02 2.0018557009361334e-02
      -9.9747681931076651e-02 -6.2129516629539387e-03
      -1.4644530798891588e-02 -9.8560602003580300e-02
      6.2511663386151245e-02 2.8688562200646955e-02
      -4.2609539191193480e-02 2.6922961072500242e-04
      3.9895493645302052e-02 -6.7372687166712866e-02
      -2.8094449661109609e-02 -1.5062084540185877e-01
      3.5962618363207924e-02 3.2904210425977874e-02
      -2.6692630507738047e-01 -8.9999618761731390e-02
      -9.5154057763266291e-03 7.7699318013575908e-02
      2.6528862250651031e-01 -6.6957150581166192e-02
      1.0095402826243387e-01 -4.2550444100131951e-02
      8.5984074300229640e-02 -1.3466165831090834e-01
      -1.0692867479199231e-01 -6.2206712886068709e-02
      -5.4540641304376095e-02 5.4688356472023920e-02
      -6.1973627706766177e-01 -8.0156705873256587e-02
      8.2948769786114221e-02 3.0233245459679470e-02
      -9.1096456445970156e-02 1.0016998605351364e-01
      -1.9410657432468709e-01 -8.6836768059720210e-02
      -4.2926450452358829e-02 -5.2088357897800690e-02
      -9.7407663763331882e-03 1.0345809115252259e-01
      3.0147618040222982e-02 -6.5483304052663255e-02
      -8.1236314950171098e-02 2.7235758313348544e-02
      4.1285437131799940e-02 -6.8867990530358239e-03
      7.9547421844273145e-03 1.3619652924928199e-01
      -5.6199776884276062e-02 5.2286579612133323e-02
      -1.0583809069205950e-01 -5.3014476957989103e-02
      1.1889273956513870e-02 2.7165738067049753e-02
      -1.1445492622620007e-01 -1.5341899016573074e-02
      1.0637937192053487e-01 -8.9843006896465433e-02
      -7.7919576761016518e-02 6.6314100539060965e-03
      -6.9070707742678580e-02 8.4067009498851722e-02
      9.6040464867973213e-02 6.9094764253908161e-02
      -4.4433201897599306e-02 -5.8730799642934109e-02
      -7.4311482858407746e-02 -4.4429071425884245e-02
      1.7749522311904832e-02 -9.7027601259879290e-02
      -1.0163388437789184e-02 1.3468244151941446e-02
      5.0180542269781588e-02 1.3741213651244513e-01
      -1.9727653569959500e-01 -7.8707049519777375e-02
      -7.3869194345592706e-02 7.5955685487535257e-02
      2.6010874545616625e-01 -8.5907755618464584e-03
      4.9648675805173653e-02 -4.5394532083789615e-02
      8.8463022328613639e-02 -1.8978353547578011e-01
      -1.4920861885215240e-02 -3.8663809034440458e-02
      -1.2470566519234676e-01 -4.8984545924515101e-02
      -1.0546148024380564e+00 -1.4868379249970384e-01
      7.2724478695845196e-02 4.7285962944695295e-02
      -7.6244329679781800e-04 4.2381921221403482e-02
      -1.9497718912013451e-01 -1.1893068639591121e-01
      3.7589272866481005e-02 -3.6325363985387035e-02
      -4.9364992848964596e-02 6.2118333188840906e-02
      6.5866507408866839e-03 -3.3651872963669269e-02
      -7.6540003308471827e-02 6.1488683779372888e-02
      4.2159001569523992e-02 5.6100733739850209e-02
      -2.4039165539544504e-02 6.4577175420062444e-02
      8.8911324611026625e-03 -2.3327030840173280e-02
      -1.0222246828070203e-01 -4.0566759322745713e-02
      3.9275157335728492e-02 -2.1257577518699122e-02
      -9.4875599356608206e-02 -3.9930761084075984e-02
      3.7111215547067332e-02 -3.3965853354600624e-02
      -6.5485093946926295e-02 -7.3351748325644877e-03
      -8.0466766773410733e-02 4.2505988036661162e-02
      -1.2032652185303059e-03 6.6785505189580222e-02
      -4.2950092347658113e-02 -4.9665687665981909e-02
      -9.4440781508170438e-02 -8.8988353389536437e-02
      2.2570311598629232e-02 3.0672185822735003e-02
      -1.0610377351566554e-02 1.4213904352514267e-02
      4.7010834541434711e-02 9.0719055936361384e-02
      -5.9928757643831571e-02 -6.0752223755035702e-02
      -7.7608239397107676e-02 6.6840138039380659e-02
      1.2098950044138491e-01 5.5519677729844702e-02
      7.1501159342448758e-02 -4.6643759474453539e-02
      8.7263236921287887e-02 -1.3431678295914962e-01
      -1.8238252067975091e-02 -9.9451588546819713e-05
      -1.2875495458836539e-01 -4.7251853683150428e-02
      -4.1390858025172284e-01 -6.9854336981635401e-03
      -6.3901267907151723e-04 1.6650138972248943e-02
      -8.7402850316287042e-02 -4.6818570811783693e-02
      -9.6139183773142886e-02 1.3891186307901503e-02
      -8.0954323334402944e-02 2.9055572004083614e-02
      3.7862603427484605e-02 -2.9774584521056646e-02
      -2.7218124628681721e-02 2.6290957775889356e-02
      -1.2154449159746199e-01 -5.4112728735688301e-02
      7.5380047037495734e-02 -3.1164625492915050e-02
      -7.3669408138355610e-02 1.2619054831353130e-01
      -6.5936784090086312e-02 -1.7177789316702361e-02
      -9.3822706031503653e-02 1.2468199034918487e-02
      1.6089260331585069e-02 1.1485414131738954e-01
      7.4206553661260638e-02 -2.2267564293255757e-02
      -4.1603550123086724e-02 -3.4300132573617345e-02
      -2.6877476140400036e-02 -3.7018420827485493e-02
      -1.2674386846909874e-01 -1.4508152439623093e-02
      3.2279305053763876e-02 1.4697914283430707e-01
      -1.2926246609873918e-01 5.8362574208524910e-03
      -1.1850117303961429e-01 1.2934290454137657e-02
      7.4079338019930441e-02 -3.1510034446281129e-02
      9.0660440822060290e-02 4.7479133935855969e-02
      7.1873476843220790e-02 1.0494807182251925e-01
      -5.6095109621671968e-02 -6.3673509348365451e-02
      -1.6835674787339567e-02 2.9036256663461411e-02
