<?xml version="1.0"?>
<opencv_storage>
<shapeML type_id="opencv-ml-ann-mlp">
  <layer_sizes type_id="opencv-matrix">
    <rows>1</rows>
    <cols>3</cols>
    <dt>i</dt>
    <data>
      1600 65 8</data></layer_sizes>
  <activation_function>SIGMOID_SYM</activation_function>
  <f_param1>5.9999999999999998e-01</f_param1>
  <f_param2>1.</f_param2>
  <min_val>-9.4999999999999996e-01</min_val>
  <max_val>9.4999999999999996e-01</max_val>
  <min_val1>-9.7999999999999998e-01</min_val1>
  <max_val1>9.7999999999999998e-01</max_val1>
  <training_params>
    <train_method>BACKPROP</train_method>
    <dw_scale>1.0000000000000001e-01</dw_scale>
    <moment_scale>1.0000000000000001e-01</moment_scale>
    <term_criteria><epsilon>9.9999999747524271e-07</epsilon>
      <iterations>4000</iterations></term_criteria></training_params>
  <input_scale>
    8.5917451154706212e-02 -4.5738935374634825e-02 1. 0. 1. 0. 1. 0.
    6.0816461185507140e-02 -6.4752390823817618e-02
    4.9708565374109281e-02 -7.9388418603744459e-02
    4.9708565374109281e-02 -7.9388418603744459e-02
    4.9708565374109281e-02 -7.9388418603744459e-02
    4.3094171185881998e-02 -9.1766293548224701e-02
    4.3094171185881998e-02 -9.1766293548224701e-02
    2.7428932872104763e-02 -1.4602041508114227e-01
    2.7428932872104763e-02 -1.4602041508114227e-01
    2.1824527304994405e-02 -1.8589576493606924e-01
    1.6443341526746955e-02 -2.5385910352879693e-01
    1.4688699165374351e-02 -2.8932750861233192e-01
    1.5483564004197311e-02 -2.7201292504242247e-01
    1.3865322302290248e-02 -3.1001587026623917e-01
    1.1847117513225383e-02 -3.7841523580866049e-01
    1.1450869996881666e-02 -3.9623835114470485e-01
    1.1168088820203252e-02 -4.1023491188199629e-01
    1.0850555220562413e-02 -4.2745297914825209e-01
    1.0850555220562413e-02 -4.2745297914825209e-01
    1.0461917416517818e-02 -4.5112923640537683e-01
    1.0850555220562413e-02 -4.2745297914825209e-01
    1.2714180140441423e-02 -3.4519397228902021e-01
    1.5068493175333011e-02 -2.8076472148193554e-01
    1.6443341526746955e-02 -2.5385910352879693e-01
    1.9153711719460252e-02 -2.1412969991171119e-01
    2.4134077247980456e-02 -1.6702393753038666e-01
    3.0601300663143600e-02 -1.3032704249021490e-01
    3.5260554482136774e-02 -1.1262765836674167e-01
    4.3094171185881998e-02 -9.1766293548224701e-02
    4.3094171185881998e-02 -9.1766293548224701e-02
    4.9708565374109281e-02 -7.9388418603744459e-02
    8.5917451154706212e-02 -4.5738935374634825e-02 1. 0.
    8.5917451154706212e-02 -4.5738935374634825e-02 1. 0.
    8.5917451154706212e-02 -4.5738935374634825e-02
    8.5917451154706212e-02 -4.5738935374634825e-02 1. 0.
    8.5917451154706212e-02 -4.5738935374634825e-02
    8.5917451154706212e-02 -4.5738935374634825e-02
    8.5917451154706212e-02 -4.5738935374634825e-02
    4.3094171185881998e-02 -9.1766293548224701e-02
    4.3094171185881998e-02 -9.1766293548224701e-02
    3.5260554482136774e-02 -1.1262765836674167e-01
    3.5260554482136774e-02 -1.1262765836674167e-01
    3.5260554482136774e-02 -1.1262765836674167e-01
    3.0601300663143600e-02 -1.3032704249021490e-01
    1.9605322577110236e-02 -2.0874143036171650e-01
    1.7003731301850931e-02 -2.4440645096710575e-01
    1.4017363942299505e-02 -3.0595311068213221e-01
    1.1168088820203252e-02 -4.1023491188199629e-01
    9.6488538444340893e-03 -5.1366549693751407e-01
    9.1811212090329389e-03 -5.6208012412294550e-01
    9.1012433843817731e-03 -5.7172528901053765e-01
    8.9068206579577501e-03 -5.9744498484380482e-01
    8.6406909947666661e-03 -6.3939309459186733e-01
    8.7364176234627656e-03 -6.2322210896393049e-01
    8.8188294421855749e-03 -6.1032191233497246e-01
    8.6971872151676965e-03 -6.2968361716495969e-01
    8.7977185285074769e-03 -6.1354444142962905e-01
    8.9068206579577501e-03 -5.9744498484380482e-01
    9.0501855982861503e-03 -5.7815381901368723e-01
    9.3536522995484404e-03 -5.4276569032557187e-01
    9.9551071032261407e-03 -4.8757163390748492e-01
    1.2020991450645103e-02 -3.7117007005227781e-01
    1.4017363942299505e-02 -3.0595311068213221e-01
    1.7975625594416979e-02 -2.2966770070528580e-01
    2.0620947556122725e-02 -1.9759947658163529e-01
    3.0601300663143600e-02 -1.3032704249021490e-01
    3.2679493265312436e-02 -1.2178057511186367e-01
    3.5260554482136774e-02 -1.1262765836674167e-01
    3.5260554482136774e-02 -1.1262765836674167e-01
    3.5260554482136774e-02 -1.1262765836674167e-01
    4.9708565374109281e-02 -7.9388418603744459e-02
    6.0816461185507140e-02 -6.4752390823817618e-02
    6.0816461185507140e-02 -6.4752390823817618e-02
    8.5917451154706212e-02 -4.5738935374634825e-02
    4.9708565374109281e-02 -7.9388418603744459e-02
    4.9708565374109281e-02 -7.9388418603744459e-02
    4.3094171185881998e-02 -9.1766293548224701e-02
    3.8585235919461523e-02 -1.0270600375222014e-01
    3.0601300663143600e-02 -1.3032704249021490e-01
    3.2679493265312436e-02 -1.2178057511186367e-01
    2.8881859388616725e-02 -1.3837968120433275e-01
    2.5092635018096263e-02 -1.6029950554357944e-01
    1.7003731301850931e-02 -2.4440645096710575e-01
    1.5271295082435040e-02 -2.7641362915388684e-01
    1.3309828789005117e-02 -3.2593797848649275e-01
    1.1450869996881666e-02 -3.9623835114470485e-01
    9.5790970210837285e-03 -5.2015096767930635e-01
    8.7364176234627656e-03 -6.2322210896393049e-01
    8.3964033275378807e-03 -6.8836484065221826e-01
    8.2407951807727618e-03 -7.2825231733217322e-01
    8.1641611431280646e-03 -7.5190390152211806e-01
    8.0386497027999868e-03 -8.0025680809606969e-01
    8.0794428689644412e-03 -7.8281199070697227e-01
    8.0544483995767819e-03 -7.9325386899798467e-01
    8.1060296905493094e-03 -7.7244201508376453e-01
    8.0464635944420704e-03 -7.9675108201333489e-01
    8.0709365404756685e-03 -7.8628445440771833e-01
    8.0235290977349986e-03 -8.0729433166041387e-01
    8.0544483995767819e-03 -7.9325386899798467e-01
    8.1641611431280646e-03 -7.5190390152211806e-01
    8.4712057256650566e-03 -6.7194877149612486e-01
    8.9068206579577501e-03 -5.9744498484380482e-01
    9.6846947621630174e-03 -5.1041778553404049e-01
    1.1377539170891206e-02 -3.9975779592087474e-01
    1.4339588584736667e-02 -2.9771859806932394e-01
    1.6443341526746955e-02 -2.5385910352879693e-01
    2.2515972687401863e-02 -1.7979873805701907e-01
    2.6180387110679507e-02 -1.5331103516796663e-01
    2.6180387110679507e-02 -1.5331103516796663e-01
    2.7428932872104763e-02 -1.4602041508114227e-01
    2.7428932872104763e-02 -1.4602041508114227e-01
    2.8881859388616725e-02 -1.3837968120433275e-01
    3.8585235919461523e-02 -1.0270600375222014e-01
    4.3094171185881998e-02 -9.1766293548224701e-02
    4.3094171185881998e-02 -9.1766293548224701e-02
    4.3094171185881998e-02 -9.1766293548224701e-02
    3.8585235919461523e-02 -1.0270600375222014e-01
    2.6180387110679507e-02 -1.5331103516796663e-01
    2.3281171962626003e-02 -1.7351520648554244e-01
    2.2515972687401863e-02 -1.7979873805701907e-01
    2.1195803493539583e-02 -1.9182423412211710e-01
    1.6443341526746955e-02 -2.5385910352879693e-01
    1.4874494638675342e-02 -2.8506860288734787e-01
    1.2204813173380090e-02 -3.6385121527321018e-01
    1.0171679632333185e-02 -4.7110378422403282e-01
    8.9297375612310617e-03 -5.9422836067691043e-01
    8.4405342691392365e-03 -6.7850265560168321e-01
    8.1540015405075928e-03 -7.5530907797979518e-01
    8.0235290977349986e-03 -8.0729433166041387e-01
    7.9636025666446533e-03 -8.3942023713964209e-01
    7.9696209446120519e-03 -8.3581191681124511e-01
    7.9464820425595804e-03 -8.5030675801960598e-01
    7.8844996746392712e-03 -9.0243777591252194e-01
    7.9033196184203520e-03 -8.8355483416787028e-01
    7.8779790290686956e-03 -9.1007926842070208e-01
    7.8692639122392022e-03 -9.2164030370901717e-01
    7.8596142900782609e-03 -9.3724669780640968e-01
    7.8480814675927699e-03 -9.6511740886962860e-01
    7.8692639122392022e-03 -9.2164030370901717e-01
    7.9577406154695655e-03 -8.4303872136117564e-01
    8.0310053247762605e-03 -8.0377118010391224e-01
    8.1540015405075928e-03 -7.5530907797979518e-01
    8.3964033275378807e-03 -6.8836484065221826e-01
    8.8188294421855749e-03 -6.1032191233497246e-01
    9.6846947621630174e-03 -5.1041778553404049e-01
    1.2111604472192995e-02 -3.6752018998606506e-01
    1.6443341526746955e-02 -2.5385910352879693e-01
    2.0620947556122725e-02 -1.9759947658163529e-01
    2.2515972687401863e-02 -1.7979873805701907e-01
    2.7428932872104763e-02 -1.4602041508114227e-01
    2.6180387110679507e-02 -1.5331103516796663e-01
    3.0601300663143600e-02 -1.3032704249021490e-01
    3.2679493265312436e-02 -1.2178057511186367e-01
    3.8585235919461523e-02 -1.0270600375222014e-01
    4.3094171185881998e-02 -9.1766293548224701e-02
    3.5260554482136774e-02 -1.1262765836674167e-01
    2.5092635018096263e-02 -1.6029950554357944e-01
    2.1195803493539583e-02 -1.9182423412211710e-01
    1.9153711719460252e-02 -2.1412969991171119e-01
    1.6443341526746955e-02 -2.5385910352879693e-01
    1.5068493175333011e-02 -2.8076472148193554e-01
    1.2300734930031003e-02 -3.6016243714756746e-01
    1.0513901200989705e-02 -4.4777366283964504e-01
    9.1012433843817731e-03 -5.7172528901053765e-01
    8.5524724410197817e-03 -6.5563003764978367e-01
    8.2525570793150933e-03 -7.2489841150768808e-01
    8.0794428689644412e-03 -7.8281199070697227e-01
    7.9757967752114561e-03 -8.3221361758886958e-01
    7.8844996746392712e-03 -9.0243777591252194e-01
    7.8666412152995305e-03 -9.2552101396284980e-01
    7.8493146993738293e-03 -9.6109041152040720e-01
    7.8445220605306010e-03 -9.8138410120521136e-01
    7.8452061857715600e-03 -9.7729322151354692e-01
    7.8556269759865495e-03 -9.4513524556598094e-01
    7.8452061857715600e-03 -9.7729322151354692e-01
    7.8469857494069626e-03 -9.6916007710838392e-01
    7.8431543467968098e-03 -9.9791449199484672e-01
    7.8435645857984158e-03 -9.8961550259442022e-01
    7.8445220605306010e-03 -9.8138410120521136e-01
    7.8435645857984158e-03 -9.8961550259442022e-01
    7.8915936184632933e-03 -8.9484740581802458e-01
    7.9033196184203520e-03 -8.8355483416787028e-01
    8.0162196955639118e-03 -8.1082639718177774e-01
    8.2178932898162235e-03 -7.3497818065913789e-01
    8.8842780217929223e-03 -6.0066251301829610e-01
    9.4468709885837561e-03 -5.3308752154784744e-01
    1.0973164256029490e-02 -4.2059978233966894e-01
    1.5068493175333011e-02 -2.8076472148193554e-01
    1.7003731301850931e-02 -2.4440645096710575e-01
    2.0620947556122725e-02 -1.9759947658163529e-01
    2.2515972687401863e-02 -1.7979873805701907e-01
    3.0601300663143600e-02 -1.3032704249021490e-01
    3.2679493265312436e-02 -1.2178057511186367e-01
    3.2679493265312436e-02 -1.2178057511186367e-01
    2.7428932872104763e-02 -1.4602041508114227e-01
    2.3281171962626003e-02 -1.7351520648554244e-01
    2.6180387110679507e-02 -1.5331103516796663e-01
    1.9153711719460252e-02 -2.1412969991171119e-01
    1.6715833874041724e-02 -2.4916712705774094e-01
    1.4017363942299505e-02 -3.0595311068213221e-01
    1.1236213060810005e-02 -4.0675560433078389e-01
    9.7583813138489208e-03 -5.0391140250115463e-01
    8.7166423601525642e-03 -6.2645180218841756e-01
    8.2645294591473777e-03 -7.2155035904288800e-01
    8.0794428689644412e-03 -7.8281199070697227e-01
    7.9075201606347602e-03 -8.7981479532574014e-01
    7.8641589724140794e-03 -9.2941553116568065e-01
    7.8596142900782609e-03 -9.3724669780640968e-01
    7.8432910859784037e-03 -1.0062827843190036e+00
    7.8435645857984158e-03 -1.0104934667841758e+00
    7.8556269759865495e-03 -1.0580496333105893e+00
    7.8575511283968096e-03 -1.0624918300339488e+00
    7.8692639122392022e-03 -1.0850219939119794e+00
    7.8460273723740884e-03 -1.0275183654885733e+00
    7.8575511283968096e-03 -1.0624918300339488e+00
    7.8618167881711176e-03 -1.0714392482918800e+00
    7.8618167881711176e-03 -1.0714392482918800e+00
    7.8556269759865495e-03 -1.0580496333105893e+00
    7.8469857494069643e-03 -1.0318212889903919e+00
    7.8493146993738293e-03 -1.0404848368199191e+00
    7.8439748891798479e-03 -9.8549145893704226e-01
    7.8493146993738293e-03 -9.6109041152040720e-01
    7.8915936184632933e-03 -8.9484740581802458e-01
    7.9163631446463791e-03 -8.7236999705669971e-01
    8.2767147806078450e-03 -7.1820803727758886e-01
    8.5191602637427512e-03 -6.6214684054100759e-01
    9.1012433843817731e-03 -5.7172528901053765e-01
    1.0126645760218564e-02 -4.7440904145992607e-01
    1.4017363942299505e-02 -3.0595311068213221e-01
    1.5939528811358850e-02 -2.6305214040457559e-01
    1.8342097329808769e-02 -2.2458538797354580e-01
    2.2515972687401863e-02 -1.7979873805701907e-01
    2.5092635018096263e-02 -1.6029950554357944e-01
    2.5092635018096263e-02 -1.6029950554357944e-01
    2.2515972687401863e-02 -1.7979873805701907e-01
    2.0092760918983071e-02 -2.0323471117426509e-01
    1.8733800564919176e-02 -2.1940839492525382e-01
    1.5483564004197311e-02 -2.7201292504242247e-01
    1.3577642398909476e-02 -3.1803997435441406e-01
    1.2020991450645103e-02 -3.7117007005227781e-01
    9.6488538444340893e-03 -5.1366549693751407e-01
    8.6224655136118641e-03 -6.4263469485583202e-01
    8.0626055560562813e-03 -7.8976503693144207e-01
    7.8992654508203333e-03 -8.8730684254987058e-01
    7.8992654508203333e-03 -8.8730684254987058e-01
    7.8720274817404585e-03 -9.1777322488057600e-01
    7.8431543467968115e-03 -1.0020898664383400e+00
    7.8460273723740884e-03 -1.0275183654885733e+00
    7.8618167881711176e-03 -1.0714392482918800e+00
    7.8915936184632933e-03 -1.1175089668901153e+00
    7.8879747066184034e-03 -1.1127972668052999e+00
    7.8879747066184034e-03 -1.1127972668052999e+00
    7.8749323655933658e-03 -1.0941881494615167e+00
    7.9307434710211289e-03 -1.1610509100320598e+00
    7.9118677648718095e-03 -1.1414397116732073e+00
    7.8749323655933658e-03 -1.0941881494615167e+00
    7.8480814675927681e-03 -1.0361433653665273e+00
    7.8779790290686973e-03 -1.0988053839918157e+00
    7.8692639122392022e-03 -1.0850219939119794e+00
    7.8618167881711176e-03 -1.0714392482918800e+00
    7.8618167881711176e-03 -1.0714392482918800e+00
    7.8596142900782609e-03 -1.0669549461635468e+00
    7.8431543467968098e-03 -9.9791449199484672e-01
    7.8493146993738293e-03 -9.6109041152040720e-01
    7.8992654508203333e-03 -8.8730684254987058e-01
    8.0794428689644412e-03 -7.8281199070697227e-01
    8.3964033275378807e-03 -6.8836484065221826e-01
    8.7565183699680558e-03 -6.1999440609074452e-01
    1.0039203959926168e-02 -4.8100152584614941e-01
    1.3309828789005117e-02 -3.2593797848649275e-01
    1.5939528811358850e-02 -2.6305214040457559e-01
    1.8342097329808769e-02 -2.2458538797354580e-01
    1.9153711719460252e-02 -2.1412969991171119e-01
    2.6180387110679507e-02 -1.5331103516796663e-01
    2.3281171962626003e-02 -1.7351520648554244e-01
    1.9605322577110236e-02 -2.0874143036171650e-01
    1.5483564004197311e-02 -2.7201292504242247e-01
    1.3182704908198123e-02 -3.2984283575105328e-01
    1.1603216427472793e-02 -3.8915589124707811e-01
    9.8348540231236355e-03 -4.9738901609638847e-01
    8.4557426052721037e-03 -6.7522370490951567e-01
    8.0090758279835212e-03 -8.1436751190383594e-01
    7.8992654508203333e-03 -8.8730684254987058e-01
    7.8779790290686956e-03 -9.1007926842070208e-01
    7.8521945025523329e-03 -9.5308264797159215e-01
    7.8452061857715600e-03 -1.0232343558582009e+00
    7.8618167881711176e-03 -1.0714392482918800e+00
    7.8779790290686973e-03 -1.0988053839918157e+00
    7.8720274817404602e-03 -1.0895937829632412e+00
    7.9358376221540638e-03 -1.1660214026037641e+00
    7.9520340958289214e-03 -1.1811011811017715e+00
    7.9577406154695638e-03 -1.1861851355835633e+00
    7.9886250536220244e-03 -1.2120528721753250e+00
    8.0020962398795956e-03 -1.2226167292601007e+00
    8.0020962398795956e-03 -1.2226167292601007e+00
    7.9464820425595804e-03 -1.1760461628330869e+00
    7.8779790290686973e-03 -1.0988053839918157e+00
    7.9163631446463791e-03 -1.1463026048281271e+00
    7.8844996746392729e-03 -1.1081096411204923e+00
    7.8575511283968096e-03 -1.0624918300339488e+00
    7.8538415281609129e-03 -1.0536280931098545e+00
    7.8521945025523329e-03 -1.0492269501792528e+00
    7.8445220605306010e-03 -9.8138410120521136e-01
    7.8439748891798479e-03 -1.0147221378038189e+00
    7.8432910859784037e-03 -9.9375644260548912e-01
    7.8749323655933658e-03 -9.1391960376479164e-01
    7.9577406154695655e-03 -8.4303872136117564e-01
    8.2067486758474837e-03 -7.3835038452118440e-01
    8.6971872151676965e-03 -6.2968361716495969e-01
    9.8348540231236355e-03 -4.9738901609638847e-01
    1.2399494721198091e-02 -3.5645311547160274e-01
    1.4017363942299505e-02 -3.0595311068213221e-01
    1.6715833874041724e-02 -2.4916712705774094e-01
    2.4134077247980456e-02 -1.6702393753038666e-01
    2.2515972687401863e-02 -1.7979873805701907e-01
    1.7631830501037133e-02 -2.3466162723196601e-01
    1.2825717937940476e-02 -3.4139437099945941e-01
    1.1450869996881666e-02 -3.9623835114470485e-01
    9.4152525584838137e-03 -5.3631558676039848e-01
    8.2645294591473777e-03 -7.2155035904288800e-01
    7.9696209446120519e-03 -8.3581191681124511e-01
    7.8779790290686956e-03 -9.1007926842070208e-01
    7.8432910859784037e-03 -9.9375644260548912e-01
    7.8493146993738293e-03 -9.6109041152040720e-01
    7.8431543467968098e-03 -9.9791449199484672e-01
    7.8521945025523329e-03 -1.0492269501792528e+00
    7.8779790290686973e-03 -1.0988053839918157e+00
    7.9210070399123814e-03 -1.1511918686503140e+00
    7.9033196184203520e-03 -1.1317916685293197e+00
    7.9464820425595804e-03 -1.1760461628330869e+00
    7.9886250536220244e-03 -1.2120528721753250e+00
    8.0020962398795956e-03 -1.2226167292601007e+00
    8.0709365404756685e-03 -1.2718043634135772e+00
    8.0709365404756685e-03 -1.2718043634135772e+00
    8.0464635944420704e-03 -1.2550971345693931e+00
    8.0626055560562813e-03 -1.2661993798629096e+00
    8.0626055560562813e-03 -1.2661993798629096e+00
    8.0020962398795956e-03 -1.2226167292601007e+00
    7.9520340958289214e-03 -1.1811011811017715e+00
    7.9464820425595804e-03 -1.1760461628330869e+00
    7.8779790290686973e-03 -1.0988053839918157e+00
    7.8915936184632933e-03 -1.1175089668901153e+00
    7.8692639122392022e-03 -1.0850219939119794e+00
    7.8538415281609129e-03 -1.0536280931098545e+00
    7.8538415281609129e-03 -1.0536280931098545e+00
    7.8435645857984158e-03 -1.0104934667841758e+00
    7.8469857494069626e-03 -9.6916007710838392e-01
    7.9696209446120519e-03 -8.3581191681124511e-01
    8.1440328510206557e-03 -7.5872122333360492e-01
    8.5868961457358714e-03 -6.4912632450333174e-01
    9.7962605948993964e-03 -5.0065231599819882e-01
    1.2300734930031003e-02 -3.6016243714756746e-01
    1.4874494638675342e-02 -2.8506860288734787e-01
    2.1824527304994405e-02 -1.8589576493606924e-01
    2.1195803493539583e-02 -1.9182423412211710e-01
    1.5483564004197311e-02 -2.7201292504242247e-01
    1.1450869996881666e-02 -3.9623835114470485e-01
    9.9551071032261407e-03 -4.8757163390748492e-01
    8.4557426052721037e-03 -6.7522370490951567e-01
    7.9696209446120519e-03 -8.3581191681124511e-01
    7.8666412152995305e-03 -9.2552101396284980e-01
    7.8432910859784037e-03 -9.9375644260548912e-01
    7.8596142900782609e-03 -1.0669549461635468e+00
    7.8556269759865495e-03 -1.0580496333105893e+00
    7.8779790290686973e-03 -1.0988053839918157e+00
    7.8811679611270457e-03 -1.1034457814467333e+00
    7.9163631446463791e-03 -1.1463026048281271e+00
    7.9358376221540638e-03 -1.1660214026037641e+00
    7.9410835201233470e-03 -1.1710196961250787e+00
    8.0235290977350004e-03 -1.2387055882620110e+00
    8.0544483995767819e-03 -1.2606304728940945e+00
    8.0544483995767819e-03 -1.2606304728940945e+00
    7.9952797106581045e-03 -1.2173188920632474e+00
    8.0626055560562813e-03 -1.2661993798629096e+00
    8.0794428689644430e-03 -1.2774459408789605e+00
    8.0709365404756685e-03 -1.2718043634135772e+00
    8.1246606099499054e-03 -1.3062215314660588e+00
    8.0969878252806059e-03 -1.2888409952787470e+00
    8.0969878252806059e-03 -1.2888409952787470e+00
    7.9886250536220244e-03 -1.2120528721753250e+00
    7.9118677648718095e-03 -1.1414397116732073e+00
    7.9307434710211289e-03 -1.1610509100320598e+00
    7.9358376221540638e-03 -1.1660214026037641e+00
    7.9118677648718095e-03 -1.1414397116732073e+00
    7.9118677648718095e-03 -1.1414397116732073e+00
    7.8641589724140794e-03 -1.0759450067999095e+00
    7.8432910859784037e-03 -1.0062827843190036e+00
    7.8556269759865495e-03 -9.4513524556598094e-01
    8.0235290977349986e-03 -8.0729433166041387e-01
    8.1745136203711845e-03 -7.4850556866279783e-01
    8.8402888531557110e-03 -6.0710083888216515e-01
    1.0567002049873831e-02 -4.4440972086577935e-01
    1.4017363942299505e-02 -3.0595311068213221e-01
    1.7631830501037133e-02 -2.3466162723196601e-01
    1.7003731301850931e-02 -2.4440645096710575e-01
    1.3309828789005117e-02 -3.2593797848649275e-01
    1.0411016946688622e-02 -4.5447675230743023e-01
    8.8402888531557110e-03 -6.0710083888216515e-01
    8.0310053247762605e-03 -8.0377118010391224e-01
    7.8844996746392712e-03 -9.0243777591252194e-01
    7.8439748891798479e-03 -9.8549145893704226e-01
    7.8452061857715600e-03 -1.0232343558582009e+00
    7.8521945025523329e-03 -1.0492269501792528e+00
    7.8720274817404602e-03 -1.0895937829632412e+00
    7.9210070399123814e-03 -1.1511918686503140e+00
    7.9520340958289214e-03 -1.1811011811017715e+00
    8.0162196955639135e-03 -1.2333096251870201e+00
    8.0162196955639135e-03 -1.2333096251870201e+00
    7.9886250536220244e-03 -1.2120528721753250e+00
    8.0464635944420704e-03 -1.2550971345693931e+00
    8.0969878252806059e-03 -1.2888409952787470e+00
    8.0464635944420704e-03 -1.2550971345693931e+00
    8.0162196955639135e-03 -1.2333096251870201e+00
    8.1342531622920489e-03 -1.3120940930782778e+00
    8.0881260980052109e-03 -1.2831246392221629e+00
    8.1060296905493094e-03 -1.2945955560063094e+00
    8.1745136203711845e-03 -1.3359954045318543e+00
    8.0464635944420704e-03 -1.2550971345693931e+00
    8.1060296905493094e-03 -1.2945955560063094e+00
    8.1342531622920489e-03 -1.3120940930782778e+00
    8.0881260980052109e-03 -1.2831246392221629e+00
    8.0464635944420704e-03 -1.2550971345693931e+00
    8.0235290977350004e-03 -1.2387055882620110e+00
    7.9696209446120519e-03 -1.1964414240648280e+00
    7.9358376221540638e-03 -1.1660214026037641e+00
    7.9210070399123814e-03 -1.1511918686503140e+00
    7.8915936184632933e-03 -1.1175089668901153e+00
    7.8460273723740884e-03 -1.0275183654885733e+00
    7.8692639122392022e-03 -9.2164030370901717e-01
    7.9952797106581062e-03 -8.2147743415456931e-01
    8.3017344043520829e-03 -7.1154009597218115e-01
    9.1540446379198524e-03 -5.6529570018720088e-01
    1.1932863752833187e-02 -3.7480153478366451e-01
    1.4874494638675342e-02 -2.8506860288734787e-01
    1.6443341526746955e-02 -2.5385910352879693e-01
    1.1682383551993265e-02 -3.8559182454491336e-01
    9.5451508909117043e-03 -5.2338911931063870e-01
    8.2067486758474837e-03 -7.3835038452118440e-01
    7.9118677648718095e-03 -8.7608656836910392e-01
    7.8556269759865495e-03 -9.4513524556598094e-01
    7.8480814675927681e-03 -1.0361433653665273e+00
    7.8460273723740884e-03 -1.0275183654885733e+00
    7.8618167881711176e-03 -1.0714392482918800e+00
    7.9307434710211289e-03 -1.1610509100320598e+00
    7.9577406154695638e-03 -1.1861851355835633e+00
    7.9952797106581045e-03 -1.2173188920632474e+00
    8.0386497027999885e-03 -1.2495988661179274e+00
    8.0235290977350004e-03 -1.2387055882620110e+00
    8.0626055560562813e-03 -1.2661993798629096e+00
    8.0090758279835212e-03 -1.2279468242319620e+00
    8.0235290977350004e-03 -1.2387055882620110e+00
    8.0544483995767819e-03 -1.2606304728940945e+00
    8.0386497027999885e-03 -1.2495988661179274e+00
    8.0709365404756685e-03 -1.2718043634135772e+00
    8.0310053247762622e-03 -1.2441351777140346e+00
    8.0794428689644430e-03 -1.2774459408789605e+00
    8.0709365404756685e-03 -1.2718043634135772e+00
    8.0020962398795956e-03 -1.2226167292601007e+00
    8.0544483995767819e-03 -1.2606304728940945e+00
    8.0969878252806059e-03 -1.2888409952787470e+00
    8.1060296905493094e-03 -1.2945955560063094e+00
    8.0881260980052109e-03 -1.2831246392221629e+00
    8.0464635944420704e-03 -1.2550971345693931e+00
    7.9577406154695638e-03 -1.1861851355835633e+00
    7.9952797106581045e-03 -1.2173188920632474e+00
    7.9886250536220244e-03 -1.2120528721753250e+00
    7.9886250536220244e-03 -1.2120528721753250e+00
    7.9033196184203520e-03 -1.1317916685293197e+00
    7.8435645857984158e-03 -1.0104934667841758e+00
    7.8692639122392022e-03 -9.2164030370901717e-01
    8.0544483995767819e-03 -7.9325386899798467e-01
    8.7166423601525642e-03 -6.2645180218841756e-01
    1.0567002049873831e-02 -4.4440972086577935e-01
    1.4688699165374351e-02 -2.8932750861233192e-01
    1.7003731301850931e-02 -2.4440645096710575e-01
    1.1847117513225383e-02 -3.7841523580866049e-01
    8.9530356512964177e-03 -5.9101249956992219e-01
    8.0709365404756685e-03 -7.8628445440771833e-01
    7.8618167881711176e-03 -9.3332403269175490e-01
    7.8556269759865495e-03 -1.0580496333105893e+00
    7.8641589724140794e-03 -1.0759450067999095e+00
    7.8538415281609129e-03 -1.0536280931098545e+00
    7.8879747066184034e-03 -1.1127972668052999e+00
    7.9464820425595804e-03 -1.1760461628330869e+00
    8.0235290977350004e-03 -1.2387055882620110e+00
    8.0626055560562813e-03 -1.2661993798629096e+00
    8.0090758279835212e-03 -1.2279468242319620e+00
    8.0626055560562813e-03 -1.2661993798629096e+00
    8.0709365404756685e-03 -1.2718043634135772e+00
    8.1060296905493094e-03 -1.2945955560063094e+00
    8.0709365404756685e-03 -1.2718043634135772e+00
    8.0794428689644430e-03 -1.2774459408789605e+00
    8.0881260980052109e-03 -1.2831246392221629e+00
    8.0162196955639135e-03 -1.2333096251870201e+00
    8.0464635944420704e-03 -1.2550971345693931e+00
    8.0544483995767819e-03 -1.2606304728940945e+00
    8.0235290977350004e-03 -1.2387055882620110e+00
    8.0794428689644430e-03 -1.2774459408789605e+00
    8.0020962398795956e-03 -1.2226167292601007e+00
    8.1060296905493094e-03 -1.2945955560063094e+00
    8.1958052971857105e-03 -1.3482014162666973e+00
    8.1342531622920489e-03 -1.3120940930782778e+00
    8.0235290977350004e-03 -1.2387055882620110e+00
    7.9464820425595804e-03 -1.1760461628330869e+00
    8.0386497027999885e-03 -1.2495988661179274e+00
    8.0090758279835212e-03 -1.2279468242319620e+00
    7.9886250536220244e-03 -1.2120528721753250e+00
    7.9520340958289214e-03 -1.1811011811017715e+00
    7.8811679611270457e-03 -1.1034457814467333e+00
    7.8431543467968115e-03 -1.0020898664383400e+00
    7.9118677648718095e-03 -8.7608656836910392e-01
    8.3409260982054301e-03 -7.0157810542107879e-01
    9.4152525584838137e-03 -5.3631558676039848e-01
    1.2940857805021142e-02 -3.3756997551928841e-01
    1.5068493175333011e-02 -2.8076472148193554e-01
    1.0217622005003811e-02 -4.6779217237940202e-01
    8.3964033275378807e-03 -6.8836484065221826e-01
    7.9358376221540638e-03 -8.5761719104552225e-01
    7.8469857494069643e-03 -1.0318212889903919e+00
    7.9163631446463791e-03 -1.1463026048281271e+00
    7.9075201606347602e-03 -1.1366028456361235e+00
    7.9307434710211289e-03 -1.1610509100320598e+00
    7.9757967752114561e-03 -1.2016145600900516e+00
    7.9757967752114561e-03 -1.2016145600900516e+00
    8.0386497027999885e-03 -1.2495988661179274e+00
    8.0969878252806059e-03 -1.2888409952787470e+00
    8.1246606099499054e-03 -1.3062215314660588e+00
    8.0709365404756685e-03 -1.2718043634135772e+00
    8.1540015405075945e-03 -1.3239613148496412e+00
    8.1540015405075945e-03 -1.3239613148496412e+00
    8.0969878252806059e-03 -1.2888409952787470e+00
    8.1342531622920489e-03 -1.3120940930782778e+00
    8.1152533765522367e-03 -1.3003888787416844e+00
    8.0626055560562813e-03 -1.2661993798629096e+00
    8.0544483995767819e-03 -1.2606304728940945e+00
    8.0090758279835212e-03 -1.2279468242319620e+00
    8.0235290977350004e-03 -1.2387055882620110e+00
    8.0969878252806059e-03 -1.2888409952787470e+00
    8.1060296905493094e-03 -1.2945955560063094e+00
    8.1342531622920489e-03 -1.3120940930782778e+00
    8.1958052971857105e-03 -1.3482014162666973e+00
    8.1540015405075945e-03 -1.3239613148496412e+00
    8.0090758279835212e-03 -1.2279468242319620e+00
    7.9520340958289214e-03 -1.1811011811017715e+00
    7.9520340958289214e-03 -1.1811011811017715e+00
    7.9952797106581045e-03 -1.2173188920632474e+00
    8.0626055560562813e-03 -1.2661993798629096e+00
    8.0020962398795956e-03 -1.2226167292601007e+00
    7.9075201606347602e-03 -1.1366028456361235e+00
    7.8493146993738293e-03 -1.0404848368199191e+00
    7.8720274817404585e-03 -9.1777322488057600e-01
    8.0881260980052109e-03 -7.7934751576916594e-01
    8.7977185285074769e-03 -6.1354444142962905e-01
    1.1526071189694013e-02 -3.9270455493905276e-01
    1.2399494721198091e-02 -3.5645311547160274e-01
    9.5118069967269868e-03 -5.2662447088350661e-01
    8.2767147806078450e-03 -7.1820803727758886e-01
    7.8556269759865495e-03 -9.4513524556598094e-01
    7.8692639122392022e-03 -1.0850219939119794e+00
    7.9410835201233470e-03 -1.1710196961250787e+00
    7.9307434710211289e-03 -1.1610509100320598e+00
    8.0310053247762622e-03 -1.2441351777140346e+00
    8.1060296905493094e-03 -1.2945955560063094e+00
    8.0464635944420704e-03 -1.2550971345693931e+00
    8.1440328510206557e-03 -1.3180071536766622e+00
    8.1060296905493094e-03 -1.2945955560063094e+00
    8.2645294591473777e-03 -1.3859046530396935e+00
    8.2067486758474837e-03 -1.3543705278199238e+00
    8.2407951807727635e-03 -1.3731504537648813e+00
    8.1246606099499054e-03 -1.3062215314660588e+00
    8.0386497027999885e-03 -1.2495988661179274e+00
    8.0310053247762622e-03 -1.2441351777140346e+00
    7.9952797106581045e-03 -1.2173188920632474e+00
    8.0544483995767819e-03 -1.2606304728940945e+00
    7.9757967752114561e-03 -1.2016145600900516e+00
    8.0090758279835212e-03 -1.2279468242319620e+00
    8.0709365404756685e-03 -1.2718043634135772e+00
    8.0709365404756685e-03 -1.2718043634135772e+00
    8.0386497027999885e-03 -1.2495988661179274e+00
    8.2292413642071280e-03 -1.3668443485100608e+00
    8.1745136203711845e-03 -1.3359954045318543e+00
    8.1745136203711845e-03 -1.3359954045318543e+00
    8.1246606099499054e-03 -1.3062215314660588e+00
    8.0464635944420704e-03 -1.2550971345693931e+00
    8.0310053247762622e-03 -1.2441351777140346e+00
    8.0544483995767819e-03 -1.2606304728940945e+00
    8.0464635944420704e-03 -1.2550971345693931e+00
    8.0544483995767819e-03 -1.2606304728940945e+00
    7.9210070399123814e-03 -1.1511918686503140e+00
    7.8915936184632933e-03 -1.1175089668901153e+00
    7.8452061857715600e-03 -9.7729322151354692e-01
    7.9696209446120519e-03 -8.3581191681124511e-01
    8.4712057256650566e-03 -6.7194877149612486e-01
    9.8348540231236355e-03 -4.9738901609638847e-01
    1.2300734930031003e-02 -3.6016243714756746e-01
    8.8402888531557110e-03 -6.0710083888216515e-01
    7.9757967752114561e-03 -8.3221361758886958e-01
    7.8439748891798479e-03 -1.0147221378038189e+00
    7.8992654508203350e-03 -1.1270058474093148e+00
    8.0235290977350004e-03 -1.2387055882620110e+00
    8.1060296905493094e-03 -1.2945955560063094e+00
    8.1440328510206557e-03 -1.3180071536766622e+00
    8.1958052971857105e-03 -1.3482014162666973e+00
    8.1060296905493094e-03 -1.2945955560063094e+00
    8.1641611431280663e-03 -1.3299571899755387e+00
    8.1958052971857105e-03 -1.3482014162666973e+00
    8.2292413642071280e-03 -1.3668443485100608e+00
    8.1540015405075945e-03 -1.3239613148496412e+00
    8.1540015405075945e-03 -1.3239613148496412e+00
    8.0544483995767819e-03 -1.2606304728940945e+00
    7.9886250536220244e-03 -1.2120528721753250e+00
    7.9520340958289214e-03 -1.1811011811017715e+00
    8.0235290977350004e-03 -1.2387055882620110e+00
    8.0235290977350004e-03 -1.2387055882620110e+00
    8.0386497027999885e-03 -1.2495988661179274e+00
    8.0020962398795956e-03 -1.2226167292601007e+00
    8.0020962398795956e-03 -1.2226167292601007e+00
    8.0709365404756685e-03 -1.2718043634135772e+00
    8.0162196955639135e-03 -1.2333096251870201e+00
    8.0386497027999885e-03 -1.2495988661179274e+00
    8.1440328510206557e-03 -1.3180071536766622e+00
    8.0969878252806059e-03 -1.2888409952787470e+00
    8.1060296905493094e-03 -1.2945955560063094e+00
    8.1540015405075945e-03 -1.3239613148496412e+00
    8.0969878252806059e-03 -1.2888409952787470e+00
    8.0794428689644430e-03 -1.2774459408789605e+00
    8.1440328510206557e-03 -1.3180071536766622e+00
    8.0626055560562813e-03 -1.2661993798629096e+00
    8.0020962398795956e-03 -1.2226167292601007e+00
    7.9577406154695638e-03 -1.1861851355835633e+00
    7.8506856389877026e-03 -1.0448459488214321e+00
    7.8879747066184051e-03 -8.9863628338239332e-01
    8.1641611431280646e-03 -7.5190390152211806e-01
    9.1012433843817731e-03 -5.7172528901053765e-01
    1.2300734930031003e-02 -3.6016243714756746e-01
    8.3409260982054301e-03 -7.0157810542107879e-01
    7.8953569962141607e-03 -8.9107097957272963e-01
    7.8480814675927681e-03 -1.0361433653665273e+00
    7.9033196184203520e-03 -1.1317916685293197e+00
    8.0464635944420704e-03 -1.2550971345693931e+00
    8.1641611431280663e-03 -1.3299571899755387e+00
    8.1540015405075945e-03 -1.3239613148496412e+00
    8.2525570793150951e-03 -1.3795036437176611e+00
    8.1850609839890509e-03 -1.3420765964144050e+00
    8.1342531622920489e-03 -1.3120940930782778e+00
    8.2407951807727635e-03 -1.3731504537648813e+00
    8.2407951807727635e-03 -1.3731504537648813e+00
    8.1440328510206557e-03 -1.3180071536766622e+00
    8.1440328510206557e-03 -1.3180071536766622e+00
    8.0235290977350004e-03 -1.2387055882620110e+00
    8.0020962398795956e-03 -1.2226167292601007e+00
    7.9952797106581045e-03 -1.2173188920632474e+00
    8.0162196955639135e-03 -1.2333096251870201e+00
    7.9636025666446550e-03 -1.1912984173547447e+00
    7.9520340958289214e-03 -1.1811011811017715e+00
    7.9952797106581045e-03 -1.2173188920632474e+00
    7.9520340958289214e-03 -1.1811011811017715e+00
    7.9757967752114561e-03 -1.2016145600900516e+00
    7.9757967752114561e-03 -1.2016145600900516e+00
    8.0235290977350004e-03 -1.2387055882620110e+00
    8.0969878252806059e-03 -1.2888409952787470e+00
    8.1540015405075945e-03 -1.3239613148496412e+00
    8.2407951807727635e-03 -1.3731504537648813e+00
    8.2525570793150951e-03 -1.3795036437176611e+00
    8.1850609839890509e-03 -1.3420765964144050e+00
    8.1745136203711845e-03 -1.3359954045318543e+00
    8.2407951807727635e-03 -1.3731504537648813e+00
    8.1641611431280663e-03 -1.3299571899755387e+00
    8.1540015405075945e-03 -1.3239613148496412e+00
    8.0020962398795956e-03 -1.2226167292601007e+00
    7.8844996746392729e-03 -1.1081096411204923e+00
    7.8493146993738293e-03 -9.6109041152040720e-01
    8.0310053247762605e-03 -8.0377118010391224e-01
    8.6224655136118641e-03 -6.4263469485583202e-01
    1.0513901200989705e-02 -4.4777366283964504e-01
    8.1246606099499054e-03 -7.6556692407116689e-01
    7.8749323655933658e-03 -9.1391960376479164e-01
    7.8618167881711176e-03 -1.0714392482918800e+00
    8.0310053247762622e-03 -1.2441351777140346e+00
    8.0969878252806059e-03 -1.2888409952787470e+00
    8.1850609839890509e-03 -1.3420765964144050e+00
    8.1958052971857105e-03 -1.3482014162666973e+00
    8.2178932898162201e-03 -1.3605846082439985e+00
    8.2767147806078432e-03 -1.3923542317774111e+00
    8.1958052971857105e-03 -1.3482014162666973e+00
    8.2891155666272014e-03 -1.3988531457793525e+00
    8.2891155666272014e-03 -1.3988531457793525e+00
    8.1440328510206557e-03 -1.3180071536766622e+00
    8.1060296905493094e-03 -1.2945955560063094e+00
    8.0162196955639135e-03 -1.2333096251870201e+00
    8.0235290977350004e-03 -1.2387055882620110e+00
    7.9821311153693043e-03 -1.2068182366911171e+00
    7.9520340958289214e-03 -1.1811011811017715e+00
    7.9410835201233470e-03 -1.1710196961250787e+00
    7.9952797106581045e-03 -1.2173188920632474e+00
    8.0020962398795956e-03 -1.2226167292601007e+00
    8.0090758279835212e-03 -1.2279468242319620e+00
    8.0235290977350004e-03 -1.2387055882620110e+00
    8.0020962398795956e-03 -1.2226167292601007e+00
    7.9886250536220244e-03 -1.2120528721753250e+00
    8.0794428689644430e-03 -1.2774459408789605e+00
    8.1850609839890509e-03 -1.3420765964144050e+00
    8.2178932898162201e-03 -1.3605846082439985e+00
    8.2407951807727635e-03 -1.3731504537648813e+00
    8.3544443586823294e-03 -1.4321157125081547e+00
    8.3544443586823294e-03 -1.4321157125081547e+00
    8.2407951807727635e-03 -1.3731504537648813e+00
    8.1850609839890509e-03 -1.3420765964144050e+00
    8.2407951807727635e-03 -1.3731504537648813e+00
    8.1246606099499054e-03 -1.3062215314660588e+00
    7.9696209446120519e-03 -1.1964414240648280e+00
    7.8469857494069643e-03 -1.0318212889903919e+00
    7.9033196184203520e-03 -8.8355483416787028e-01
    8.3964033275378807e-03 -6.8836484065221826e-01
    9.6488538444340893e-03 -5.1366549693751407e-01
    8.0626055560562813e-03 -7.8976503693144207e-01
    7.8506856389877026e-03 -9.5707888912043193e-01
    7.8556269759865495e-03 -1.0580496333105893e+00
    8.0020962398795956e-03 -1.2226167292601007e+00
    8.1060296905493094e-03 -1.2945955560063094e+00
    8.2292413642071280e-03 -1.3668443485100608e+00
    8.2525570793150951e-03 -1.3795036437176611e+00
    8.2178932898162201e-03 -1.3605846082439985e+00
    8.1342531622920489e-03 -1.3120940930782778e+00
    8.2407951807727635e-03 -1.3731504537648813e+00
    8.3409260982054319e-03 -1.4253580496213061e+00
    8.1342531622920489e-03 -1.3120940930782778e+00
    8.0709365404756685e-03 -1.2718043634135772e+00
    8.0794428689644430e-03 -1.2774459408789605e+00
    7.9886250536220244e-03 -1.2120528721753250e+00
    7.9952797106581045e-03 -1.2173188920632474e+00
    7.9696209446120519e-03 -1.1964414240648280e+00
    7.9358376221540638e-03 -1.1660214026037641e+00
    7.9636025666446550e-03 -1.1912984173547447e+00
    7.9821311153693043e-03 -1.2068182366911171e+00
    7.9636025666446550e-03 -1.1912984173547447e+00
    7.9757967752114561e-03 -1.2016145600900516e+00
    8.0162196955639135e-03 -1.2333096251870201e+00
    8.0386497027999885e-03 -1.2495988661179274e+00
    7.9821311153693043e-03 -1.2068182366911171e+00
    8.1342531622920489e-03 -1.3120940930782778e+00
    8.2178932898162201e-03 -1.3605846082439985e+00
    8.1540015405075945e-03 -1.3239613148496412e+00
    8.1958052971857105e-03 -1.3482014162666973e+00
    8.3964033275378807e-03 -1.4527180078699411e+00
    8.3145739468266835e-03 -1.4120021246442935e+00
    8.2645294591473777e-03 -1.3859046530396935e+00
    8.2067486758474837e-03 -1.3543705278199238e+00
    8.1850609839890509e-03 -1.3420765964144050e+00
    8.2067486758474837e-03 -1.3543705278199238e+00
    7.9821311153693043e-03 -1.2068182366911171e+00
    7.8749323655933658e-03 -1.0941881494615167e+00
    7.8666412152995305e-03 -9.2552101396284980e-01
    8.2292413642071280e-03 -7.3161219936275690e-01
    9.4468709885837561e-03 -5.3308752154784744e-01
    8.1152533765522384e-03 -7.6900073227913590e-01
    7.8469857494069626e-03 -9.6916007710838392e-01
    7.8953569962141607e-03 -1.1222450544618814e+00
    7.9886250536220244e-03 -1.2120528721753250e+00
    8.0969878252806059e-03 -1.2888409952787470e+00
    8.2645294591473777e-03 -1.3859046530396935e+00
    8.3276369147349087e-03 -1.4186538042638175e+00
    8.3409260982054319e-03 -1.4253580496213061e+00
    8.2067486758474837e-03 -1.3543705278199238e+00
    8.3544443586823294e-03 -1.4321157125081547e+00
    8.2525570793150951e-03 -1.3795036437176611e+00
    8.1152533765522367e-03 -1.3003888787416844e+00
    8.0386497027999885e-03 -1.2495988661179274e+00
    8.0310053247762622e-03 -1.2441351777140346e+00
    7.9886250536220244e-03 -1.2120528721753250e+00
    7.9952797106581045e-03 -1.2173188920632474e+00
    7.9757967752114561e-03 -1.2016145600900516e+00
    7.9952797106581045e-03 -1.2173188920632474e+00
    8.0020962398795956e-03 -1.2226167292601007e+00
    7.9821311153693043e-03 -1.2068182366911171e+00
    7.9757967752114561e-03 -1.2016145600900516e+00
    7.9696209446120519e-03 -1.1964414240648280e+00
    7.9952797106581045e-03 -1.2173188920632474e+00
    8.0235290977350004e-03 -1.2387055882620110e+00
    8.0544483995767819e-03 -1.2606304728940945e+00
    8.0881260980052109e-03 -1.2831246392221629e+00
    8.1342531622920489e-03 -1.3120940930782778e+00
    8.1440328510206557e-03 -1.3180071536766622e+00
    8.1958052971857105e-03 -1.3482014162666973e+00
    8.3145739468266835e-03 -1.4120021246442935e+00
    8.2767147806078432e-03 -1.3923542317774111e+00
    8.1850609839890509e-03 -1.3420765964144050e+00
    8.1958052971857105e-03 -1.3482014162666973e+00
    8.1745136203711845e-03 -1.3359954045318543e+00
    8.2292413642071280e-03 -1.3668443485100608e+00
    8.0464635944420704e-03 -1.2550971345693931e+00
    7.9075201606347602e-03 -1.1366028456361235e+00
    7.8618167881711176e-03 -9.3332403269175490e-01
    8.1850609839890526e-03 -7.4511395450280304e-01
    9.2366729935175942e-03 -5.5564662277287991e-01
    8.0626055560562813e-03 -7.8976503693144207e-01
    7.8493146993738293e-03 -9.6109041152040720e-01
    7.9258002174090163e-03 -1.1561078521719581e+00
    7.9577406154695638e-03 -1.1861851355835633e+00
    8.0881260980052109e-03 -1.2831246392221629e+00
    8.2891155666272014e-03 -1.3988531457793525e+00
    8.2525570793150951e-03 -1.3795036437176611e+00
    8.2891155666272014e-03 -1.3988531457793525e+00
    8.3145739468266835e-03 -1.4120021246442935e+00
    8.4405342691392365e-03 -1.4738335830288221e+00
    8.2891155666272014e-03 -1.3988531457793525e+00
    8.1152533765522367e-03 -1.3003888787416844e+00
    8.1060296905493094e-03 -1.2945955560063094e+00
    8.0162196955639135e-03 -1.2333096251870201e+00
    8.0090758279835212e-03 -1.2279468242319620e+00
    8.0162196955639135e-03 -1.2333096251870201e+00
    8.0235290977350004e-03 -1.2387055882620110e+00
    8.0235290977350004e-03 -1.2387055882620110e+00
    8.0464635944420704e-03 -1.2550971345693931e+00
    8.0162196955639135e-03 -1.2333096251870201e+00
    8.0020962398795956e-03 -1.2226167292601007e+00
    7.9886250536220244e-03 -1.2120528721753250e+00
    8.0162196955639135e-03 -1.2333096251870201e+00
    8.0464635944420704e-03 -1.2550971345693931e+00
    8.0386497027999885e-03 -1.2495988661179274e+00
    8.0464635944420704e-03 -1.2550971345693931e+00
    8.1060296905493094e-03 -1.2945955560063094e+00
    8.0626055560562813e-03 -1.2661993798629096e+00
    8.1440328510206557e-03 -1.3180071536766622e+00
    8.2525570793150951e-03 -1.3795036437176611e+00
    8.1440328510206557e-03 -1.3180071536766622e+00
    8.1850609839890509e-03 -1.3420765964144050e+00
    8.2645294591473777e-03 -1.3859046530396935e+00
    8.1152533765522367e-03 -1.3003888787416844e+00
    8.1246606099499054e-03 -1.3062215314660588e+00
    8.0310053247762622e-03 -1.2441351777140346e+00
    7.9033196184203520e-03 -1.1317916685293197e+00
    7.8596142900782609e-03 -9.3724669780640968e-01
    8.1850609839890526e-03 -7.4511395450280304e-01
    9.2086607789829619e-03 -5.5886381804808916e-01
    8.1540015405075928e-03 -7.5530907797979518e-01
    7.8521945025523329e-03 -9.5308264797159215e-01
    7.8811679611270457e-03 -1.1034457814467333e+00
    8.0090758279835212e-03 -1.2279468242319620e+00
    8.1060296905493094e-03 -1.2945955560063094e+00
    8.2407951807727635e-03 -1.3731504537648813e+00
    8.2891155666272014e-03 -1.3988531457793525e+00
    8.1958052971857105e-03 -1.3482014162666973e+00
    8.2891155666272014e-03 -1.3988531457793525e+00
    8.3681946308638705e-03 -1.4389276634052250e+00
    8.3017344043520829e-03 -1.4054021771376000e+00
    8.2067486758474837e-03 -1.3543705278199238e+00
    8.1641611431280663e-03 -1.3299571899755387e+00
    8.0969878252806059e-03 -1.2888409952787470e+00
    8.0464635944420704e-03 -1.2550971345693931e+00
    8.0464635944420704e-03 -1.2550971345693931e+00
    8.0464635944420704e-03 -1.2550971345693931e+00
    8.0544483995767819e-03 -1.2606304728940945e+00
    8.0544483995767819e-03 -1.2606304728940945e+00
    8.1060296905493094e-03 -1.2945955560063094e+00
    8.0709365404756685e-03 -1.2718043634135772e+00
    7.9952797106581045e-03 -1.2173188920632474e+00
    8.0544483995767819e-03 -1.2606304728940945e+00
    8.0544483995767819e-03 -1.2606304728940945e+00
    8.0794428689644430e-03 -1.2774459408789605e+00
    8.0881260980052109e-03 -1.2831246392221629e+00
    8.0709365404756685e-03 -1.2718043634135772e+00
    8.0464635944420704e-03 -1.2550971345693931e+00
    8.0794428689644430e-03 -1.2774459408789605e+00
    8.2067486758474837e-03 -1.3543705278199238e+00
    8.1850609839890509e-03 -1.3420765964144050e+00
    8.1060296905493094e-03 -1.2945955560063094e+00
    8.1850609839890509e-03 -1.3420765964144050e+00
    8.0709365404756685e-03 -1.2718043634135772e+00
    8.0709365404756685e-03 -1.2718043634135772e+00
    8.0162196955639135e-03 -1.2333096251870201e+00
    7.8844996746392729e-03 -1.1081096411204923e+00
    7.8538415281609129e-03 -9.4910149657117837e-01
    8.1850609839890526e-03 -7.4511395450280304e-01
    9.8348540231236355e-03 -4.9738901609638847e-01
    8.1440328510206557e-03 -7.5872122333360492e-01
    7.8556269759865495e-03 -9.4513524556598094e-01
    7.8811679611270457e-03 -1.1034457814467333e+00
    8.0020962398795956e-03 -1.2226167292601007e+00
    8.2525570793150951e-03 -1.3795036437176611e+00
    8.2891155666272014e-03 -1.3988531457793525e+00
    8.3017344043520829e-03 -1.4054021771376000e+00
    8.3017344043520829e-03 -1.4054021771376000e+00
    8.2525570793150951e-03 -1.3795036437176611e+00
    8.3017344043520829e-03 -1.4054021771376000e+00
    8.2891155666272014e-03 -1.3988531457793525e+00
    8.1958052971857105e-03 -1.3482014162666973e+00
    8.1342531622920489e-03 -1.3120940930782778e+00
    8.1342531622920489e-03 -1.3120940930782778e+00
    8.0544483995767819e-03 -1.2606304728940945e+00
    8.0544483995767819e-03 -1.2606304728940945e+00
    8.0386497027999885e-03 -1.2495988661179274e+00
    8.0386497027999885e-03 -1.2495988661179274e+00
    8.0626055560562813e-03 -1.2661993798629096e+00
    8.1060296905493094e-03 -1.2945955560063094e+00
    8.1246606099499054e-03 -1.3062215314660588e+00
    8.1152533765522367e-03 -1.3003888787416844e+00
    8.0310053247762622e-03 -1.2441351777140346e+00
    8.0881260980052109e-03 -1.2831246392221629e+00
    8.0626055560562813e-03 -1.2661993798629096e+00
    8.0544483995767819e-03 -1.2606304728940945e+00
    8.0162196955639135e-03 -1.2333096251870201e+00
    8.0709365404756685e-03 -1.2718043634135772e+00
    8.0162196955639135e-03 -1.2333096251870201e+00
    8.0020962398795956e-03 -1.2226167292601007e+00
    8.0310053247762622e-03 -1.2441351777140346e+00
    8.0969878252806059e-03 -1.2888409952787470e+00
    8.1342531622920489e-03 -1.3120940930782778e+00
    8.0709365404756685e-03 -1.2718043634135772e+00
    8.0544483995767819e-03 -1.2606304728940945e+00
    7.9821311153693043e-03 -1.2068182366911171e+00
    7.9410835201233470e-03 -1.1710196961250787e+00
    7.8432910859784037e-03 -9.9375644260548912e-01
    8.1440328510206557e-03 -7.5872122333360492e-01
    1.1847117513225383e-02 -3.7841523580866049e-01
    8.4712057256650566e-03 -6.7194877149612486e-01
    7.9118677648718095e-03 -8.7608656836910392e-01
    7.8596142900782609e-03 -1.0669549461635468e+00
    7.9696209446120519e-03 -1.1964414240648280e+00
    8.1641611431280663e-03 -1.3299571899755387e+00
    8.1745136203711845e-03 -1.3359954045318543e+00
    8.2891155666272014e-03 -1.3988531457793525e+00
    8.3409260982054319e-03 -1.4253580496213061e+00
    8.2292413642071280e-03 -1.3668443485100608e+00
    8.2292413642071280e-03 -1.3668443485100608e+00
    8.1246606099499054e-03 -1.3062215314660588e+00
    8.1440328510206557e-03 -1.3180071536766622e+00
    8.1958052971857105e-03 -1.3482014162666973e+00
    8.0709365404756685e-03 -1.2718043634135772e+00
    8.0794428689644430e-03 -1.2774459408789605e+00
    8.0464635944420704e-03 -1.2550971345693931e+00
    8.0464635944420704e-03 -1.2550971345693931e+00
    8.0881260980052109e-03 -1.2831246392221629e+00
    8.0626055560562813e-03 -1.2661993798629096e+00
    8.1641611431280663e-03 -1.3299571899755387e+00
    8.0709365404756685e-03 -1.2718043634135772e+00
    8.0626055560562813e-03 -1.2661993798629096e+00
    8.0626055560562813e-03 -1.2661993798629096e+00
    8.0794428689644430e-03 -1.2774459408789605e+00
    8.1060296905493094e-03 -1.2945955560063094e+00
    8.0709365404756685e-03 -1.2718043634135772e+00
    8.0794428689644430e-03 -1.2774459408789605e+00
    8.0235290977350004e-03 -1.2387055882620110e+00
    7.9886250536220244e-03 -1.2120528721753250e+00
    7.9821311153693043e-03 -1.2068182366911171e+00
    7.9886250536220244e-03 -1.2120528721753250e+00
    8.0881260980052109e-03 -1.2831246392221629e+00
    8.1745136203711845e-03 -1.3359954045318543e+00
    8.1745136203711845e-03 -1.3359954045318543e+00
    8.0881260980052109e-03 -1.2831246392221629e+00
    7.9757967752114561e-03 -1.2016145600900516e+00
    7.9075201606347602e-03 -1.1366028456361235e+00
    7.8720274817404585e-03 -9.1777322488057600e-01
    8.2891155666272014e-03 -7.1487132371058382e-01
    1.3441390899672090e-02 -3.2200409305581884e-01
    8.7565183699680558e-03 -6.1999440609074452e-01
    8.0235290977349986e-03 -8.0729433166041387e-01
    7.8666412152995305e-03 -9.2552101396284980e-01
    7.9075201606347602e-03 -1.1366028456361235e+00
    8.1152533765522367e-03 -1.3003888787416844e+00
    8.2292413642071280e-03 -1.3668443485100608e+00
    8.3017344043520829e-03 -1.4054021771376000e+00
    8.3276369147349087e-03 -1.4186538042638175e+00
    8.2292413642071280e-03 -1.3668443485100608e+00
    8.1958052971857105e-03 -1.3482014162666973e+00
    8.1342531622920489e-03 -1.3120940930782778e+00
    8.2292413642071280e-03 -1.3668443485100608e+00
    8.2067486758474837e-03 -1.3543705278199238e+00
    8.1641611431280663e-03 -1.3299571899755387e+00
    8.1060296905493094e-03 -1.2945955560063094e+00
    8.0235290977350004e-03 -1.2387055882620110e+00
    8.0090758279835212e-03 -1.2279468242319620e+00
    8.0310053247762622e-03 -1.2441351777140346e+00
    8.0464635944420704e-03 -1.2550971345693931e+00
    8.1060296905493094e-03 -1.2945955560063094e+00
    8.0464635944420704e-03 -1.2550971345693931e+00
    8.0310053247762622e-03 -1.2441351777140346e+00
    8.0386497027999885e-03 -1.2495988661179274e+00
    7.9952797106581045e-03 -1.2173188920632474e+00
    8.1246606099499054e-03 -1.3062215314660588e+00
    8.1152533765522367e-03 -1.3003888787416844e+00
    8.0881260980052109e-03 -1.2831246392221629e+00
    7.9952797106581045e-03 -1.2173188920632474e+00
    8.0020962398795956e-03 -1.2226167292601007e+00
    7.9757967752114561e-03 -1.2016145600900516e+00
    8.0020962398795956e-03 -1.2226167292601007e+00
    8.0544483995767819e-03 -1.2606304728940945e+00
    8.1440328510206557e-03 -1.3180071536766622e+00
    8.0464635944420704e-03 -1.2550971345693931e+00
    8.0709365404756685e-03 -1.2718043634135772e+00
    7.9886250536220244e-03 -1.2120528721753250e+00
    7.8844996746392729e-03 -1.1081096411204923e+00
    7.8992654508203333e-03 -8.8730684254987058e-01
    8.6045354168936081e-03 -6.4587906245179472e-01
    1.5483564004197311e-02 -2.7201292504242247e-01
    9.4468709885837561e-03 -5.3308752154784744e-01
    8.1745136203711845e-03 -7.4850556866279783e-01
    7.8879747066184051e-03 -8.9863628338239332e-01
    7.8575511283968096e-03 -1.0624918300339488e+00
    8.0020962398795956e-03 -1.2226167292601007e+00
    8.1440328510206557e-03 -1.3180071536766622e+00
    8.2767147806078432e-03 -1.3923542317774111e+00
    8.2891155666272014e-03 -1.3988531457793525e+00
    8.2891155666272014e-03 -1.3988531457793525e+00
    8.3017344043520829e-03 -1.4054021771376000e+00
    8.3409260982054319e-03 -1.4253580496213061e+00
    8.2525570793150951e-03 -1.3795036437176611e+00
    8.1958052971857105e-03 -1.3482014162666973e+00
    8.0709365404756685e-03 -1.2718043634135772e+00
    7.9952797106581045e-03 -1.2173188920632474e+00
    8.0310053247762622e-03 -1.2441351777140346e+00
    8.0020962398795956e-03 -1.2226167292601007e+00
    8.0626055560562813e-03 -1.2661993798629096e+00
    8.0020962398795956e-03 -1.2226167292601007e+00
    8.0386497027999885e-03 -1.2495988661179274e+00
    8.0464635944420704e-03 -1.2550971345693931e+00
    8.0464635944420704e-03 -1.2550971345693931e+00
    7.9952797106581045e-03 -1.2173188920632474e+00
    8.0310053247762622e-03 -1.2441351777140346e+00
    8.0386497027999885e-03 -1.2495988661179274e+00
    8.0235290977350004e-03 -1.2387055882620110e+00
    8.0090758279835212e-03 -1.2279468242319620e+00
    7.9886250536220244e-03 -1.2120528721753250e+00
    8.0464635944420704e-03 -1.2550971345693931e+00
    8.0310053247762622e-03 -1.2441351777140346e+00
    8.0162196955639135e-03 -1.2333096251870201e+00
    8.0464635944420704e-03 -1.2550971345693931e+00
    8.1641611431280663e-03 -1.3299571899755387e+00
    8.0386497027999885e-03 -1.2495988661179274e+00
    8.0235290977350004e-03 -1.2387055882620110e+00
    7.9118677648718095e-03 -1.1414397116732073e+00
    7.8439748891798479e-03 -1.0147221378038189e+00
    7.9952797106581062e-03 -8.2147743415456931e-01
    8.8621029306415258e-03 -6.0388108487711767e-01
    1.5483564004197311e-02 -2.7201292504242247e-01
    1.0411016946688622e-02 -4.5447675230743023e-01
    8.4108680061592590e-03 -6.8507310075219940e-01
    7.9118677648718095e-03 -8.7608656836910392e-01
    7.8493146993738293e-03 -1.0404848368199191e+00
    7.9757967752114561e-03 -1.2016145600900516e+00
    8.0310053247762622e-03 -1.2441351777140346e+00
    8.1152533765522367e-03 -1.3003888787416844e+00
    8.3409260982054319e-03 -1.4253580496213061e+00
    8.2891155666272014e-03 -1.3988531457793525e+00
    8.3681946308638705e-03 -1.4389276634052250e+00
    8.2767147806078432e-03 -1.3923542317774111e+00
    8.2178932898162201e-03 -1.3605846082439985e+00
    8.1342531622920489e-03 -1.3120940930782778e+00
    8.1246606099499054e-03 -1.3062215314660588e+00
    8.0881260980052109e-03 -1.2831246392221629e+00
    8.0162196955639135e-03 -1.2333096251870201e+00
    8.0544483995767819e-03 -1.2606304728940945e+00
    8.0709365404756685e-03 -1.2718043634135772e+00
    7.9696209446120519e-03 -1.1964414240648280e+00
    8.0162196955639135e-03 -1.2333096251870201e+00
    8.0235290977350004e-03 -1.2387055882620110e+00
    8.0310053247762622e-03 -1.2441351777140346e+00
    8.0544483995767819e-03 -1.2606304728940945e+00
    8.0709365404756685e-03 -1.2718043634135772e+00
    8.0544483995767819e-03 -1.2606304728940945e+00
    8.0235290977350004e-03 -1.2387055882620110e+00
    8.0386497027999885e-03 -1.2495988661179274e+00
    8.0020962398795956e-03 -1.2226167292601007e+00
    8.0162196955639135e-03 -1.2333096251870201e+00
    7.9952797106581045e-03 -1.2173188920632474e+00
    8.0709365404756685e-03 -1.2718043634135772e+00
    8.0386497027999885e-03 -1.2495988661179274e+00
    8.0881260980052109e-03 -1.2831246392221629e+00
    8.0310053247762622e-03 -1.2441351777140346e+00
    7.9210070399123814e-03 -1.1511918686503140e+00
    7.9075201606347602e-03 -1.1366028456361235e+00
    7.8445220605306010e-03 -9.8138410120521136e-01
    8.1060296905493094e-03 -7.7244201508376453e-01
    9.2651678075548367e-03 -5.5242837700159941e-01
    1.5271295082435040e-02 -2.7641362915388684e-01
    1.1932863752833187e-02 -3.7480153478366451e-01
    8.7769501148161986e-03 -6.1676856130420299e-01
    8.0544483995767819e-03 -7.9325386899798467e-01
    7.8445220605306010e-03 -9.8138410120521136e-01
    7.8666412152995305e-03 -1.0804724959385306e+00
    7.9410835201233470e-03 -1.1710196961250787e+00
    8.0386497027999885e-03 -1.2495988661179274e+00
    8.2067486758474837e-03 -1.3543705278199238e+00
    8.2178932898162201e-03 -1.3605846082439985e+00
    8.2178932898162201e-03 -1.3605846082439985e+00
    8.1540015405075945e-03 -1.3239613148496412e+00
    8.0969878252806059e-03 -1.2888409952787470e+00
    8.0235290977350004e-03 -1.2387055882620110e+00
    8.0386497027999885e-03 -1.2495988661179274e+00
    7.9952797106581045e-03 -1.2173188920632474e+00
    7.9636025666446550e-03 -1.1912984173547447e+00
    7.9464820425595804e-03 -1.1760461628330869e+00
    7.9952797106581045e-03 -1.2173188920632474e+00
    7.9258002174090163e-03 -1.1561078521719581e+00
    7.9210070399123814e-03 -1.1511918686503140e+00
    7.9520340958289214e-03 -1.1811011811017715e+00
    7.9636025666446550e-03 -1.1912984173547447e+00
    8.0235290977350004e-03 -1.2387055882620110e+00
    8.0464635944420704e-03 -1.2550971345693931e+00
    8.0544483995767819e-03 -1.2606304728940945e+00
    8.0794428689644430e-03 -1.2774459408789605e+00
    8.0386497027999885e-03 -1.2495988661179274e+00
    7.9577406154695638e-03 -1.1861851355835633e+00
    8.0020962398795956e-03 -1.2226167292601007e+00
    8.0626055560562813e-03 -1.2661993798629096e+00
    8.0310053247762622e-03 -1.2441351777140346e+00
    8.0386497027999885e-03 -1.2495988661179274e+00
    8.1060296905493094e-03 -1.2945955560063094e+00
    7.9886250536220244e-03 -1.2120528721753250e+00
    7.8844996746392729e-03 -1.1081096411204923e+00
    7.8575511283968096e-03 -1.0624918300339488e+00
    7.9118677648718095e-03 -8.7608656836910392e-01
    8.3681946308638705e-03 -6.9496196746506211e-01
    1.1236213060810005e-02 -4.0675560433078389e-01
    1.5271295082435040e-02 -2.7641362915388684e-01
    1.3182704908198123e-02 -3.2984283575105328e-01
    9.2941554976460374e-03 -5.4920891724607745e-01
    8.1850609839890526e-03 -7.4511395450280304e-01
    7.8844996746392712e-03 -9.0243777591252194e-01
    7.8452061857715600e-03 -1.0232343558582009e+00
    7.9358376221540638e-03 -1.1660214026037641e+00
    7.9520340958289214e-03 -1.1811011811017715e+00
    8.0020962398795956e-03 -1.2226167292601007e+00
    8.0969878252806059e-03 -1.2888409952787470e+00
    8.1850609839890509e-03 -1.3420765964144050e+00
    8.1440328510206557e-03 -1.3180071536766622e+00
    8.0969878252806059e-03 -1.2888409952787470e+00
    8.1060296905493094e-03 -1.2945955560063094e+00
    8.1152533765522367e-03 -1.3003888787416844e+00
    8.0969878252806059e-03 -1.2888409952787470e+00
    7.9696209446120519e-03 -1.1964414240648280e+00
    7.9520340958289214e-03 -1.1811011811017715e+00
    7.9636025666446550e-03 -1.1912984173547447e+00
    7.9358376221540638e-03 -1.1660214026037641e+00
    7.9118677648718095e-03 -1.1414397116732073e+00
    7.9307434710211289e-03 -1.1610509100320598e+00
    8.0020962398795956e-03 -1.2226167292601007e+00
    8.0090758279835212e-03 -1.2279468242319620e+00
    8.0544483995767819e-03 -1.2606304728940945e+00
    8.0794428689644430e-03 -1.2774459408789605e+00
    8.0794428689644430e-03 -1.2774459408789605e+00
    8.0464635944420704e-03 -1.2550971345693931e+00
    8.0235290977350004e-03 -1.2387055882620110e+00
    8.0386497027999885e-03 -1.2495988661179274e+00
    8.0626055560562813e-03 -1.2661993798629096e+00
    8.0235290977350004e-03 -1.2387055882620110e+00
    7.9821311153693043e-03 -1.2068182366911171e+00
    7.9696209446120519e-03 -1.1964414240648280e+00
    7.9258002174090163e-03 -1.1561078521719581e+00
    7.8596142900782609e-03 -1.0669549461635468e+00
    7.8431543467968115e-03 -1.0020898664383400e+00
    7.9757967752114561e-03 -8.3221361758886958e-01
    8.8188294421855749e-03 -6.1032191233497246e-01
    1.2204813173380090e-02 -3.6385121527321018e-01
    1.9153711719460252e-02 -2.1412969991171119e-01
    1.3865322302290248e-02 -3.1001587026623917e-01
    1.0039203959926168e-02 -4.8100152584614941e-01
    8.3017344043520829e-03 -7.1154009597218115e-01
    7.9821311153693026e-03 -8.2862519772805554e-01
    7.8445220605306010e-03 -9.8138410120521136e-01
    7.9033196184203520e-03 -1.1317916685293197e+00
    7.9886250536220244e-03 -1.2120528721753250e+00
    7.9696209446120519e-03 -1.1964414240648280e+00
    7.9577406154695638e-03 -1.1861851355835633e+00
    8.0881260980052109e-03 -1.2831246392221629e+00
    8.0881260980052109e-03 -1.2831246392221629e+00
    7.9952797106581045e-03 -1.2173188920632474e+00
    8.0794428689644430e-03 -1.2774459408789605e+00
    8.0794428689644430e-03 -1.2774459408789605e+00
    8.0544483995767819e-03 -1.2606304728940945e+00
    7.9757967752114561e-03 -1.2016145600900516e+00
    7.9757967752114561e-03 -1.2016145600900516e+00
    7.9210070399123814e-03 -1.1511918686503140e+00
    7.9307434710211289e-03 -1.1610509100320598e+00
    7.8992654508203350e-03 -1.1270058474093148e+00
    7.9258002174090163e-03 -1.1561078521719581e+00
    8.0090758279835212e-03 -1.2279468242319620e+00
    8.0464635944420704e-03 -1.2550971345693931e+00
    8.0235290977350004e-03 -1.2387055882620110e+00
    8.0881260980052109e-03 -1.2831246392221629e+00
    8.0969878252806059e-03 -1.2888409952787470e+00
    8.0235290977350004e-03 -1.2387055882620110e+00
    8.0162196955639135e-03 -1.2333096251870201e+00
    8.0310053247762622e-03 -1.2441351777140346e+00
    7.9821311153693043e-03 -1.2068182366911171e+00
    7.9757967752114561e-03 -1.2016145600900516e+00
    7.9636025666446550e-03 -1.1912984173547447e+00
    7.9163631446463791e-03 -1.1463026048281271e+00
    7.8779790290686973e-03 -1.0988053839918157e+00
    7.8521945025523329e-03 -1.0492269501792528e+00
    7.8953569962141607e-03 -8.9107097957272963e-01
    8.1440328510206557e-03 -7.5872122333360492e-01
    9.5790970210837285e-03 -5.2015096767930635e-01
    1.2501225772792135e-02 -3.5272247665821649e-01
    2.0092760918983071e-02 -2.0323471117426509e-01
    1.5483564004197311e-02 -2.7201292504242247e-01
    1.1847117513225383e-02 -3.7841523580866049e-01
    9.0501855982861503e-03 -5.7815381901368723e-01
    8.0969878252806077e-03 -7.7589090016780771e-01
    7.9033196184203520e-03 -8.8355483416787028e-01
    7.8435645857984158e-03 -1.0104934667841758e+00
    7.8666412152995305e-03 -1.0804724959385306e+00
    7.8556269759865495e-03 -1.0580496333105893e+00
    7.9075201606347602e-03 -1.1366028456361235e+00
    7.9952797106581045e-03 -1.2173188920632474e+00
    8.0020962398795956e-03 -1.2226167292601007e+00
    8.0544483995767819e-03 -1.2606304728940945e+00
    8.1440328510206557e-03 -1.3180071536766622e+00
    8.2525570793150951e-03 -1.3795036437176611e+00
    8.1342531622920489e-03 -1.3120940930782778e+00
    8.0544483995767819e-03 -1.2606304728940945e+00
    7.9952797106581045e-03 -1.2173188920632474e+00
    8.0020962398795956e-03 -1.2226167292601007e+00
    7.9258002174090163e-03 -1.1561078521719581e+00
    7.9821311153693043e-03 -1.2068182366911171e+00
    7.9757967752114561e-03 -1.2016145600900516e+00
    8.0544483995767819e-03 -1.2606304728940945e+00
    8.0794428689644430e-03 -1.2774459408789605e+00
    8.0709365404756685e-03 -1.2718043634135772e+00
    8.0969878252806059e-03 -1.2888409952787470e+00
    8.0794428689644430e-03 -1.2774459408789605e+00
    7.9886250536220244e-03 -1.2120528721753250e+00
    8.1060296905493094e-03 -1.2945955560063094e+00
    8.0310053247762622e-03 -1.2441351777140346e+00
    8.0386497027999885e-03 -1.2495988661179274e+00
    8.0386497027999885e-03 -1.2495988661179274e+00
    8.0162196955639135e-03 -1.2333096251870201e+00
    7.8879747066184034e-03 -1.1127972668052999e+00
    7.8521945025523329e-03 -1.0492269501792528e+00
    7.8538415281609129e-03 -9.4910149657117837e-01
    7.9757967752114561e-03 -8.3221361758886958e-01
    8.7166423601525642e-03 -6.2645180218841756e-01
    1.1236213060810005e-02 -4.0675560433078389e-01
    1.4874494638675342e-02 -2.8506860288734787e-01
    2.3281171962626003e-02 -1.7351520648554244e-01
    1.6184956448719545e-02 -2.5848625643570883e-01
    1.3865322302290248e-02 -3.1001587026623917e-01
    1.0676697640205424e-02 -4.3765544502178177e-01
    8.5524724410197817e-03 -6.5563003764978367e-01
    7.9952797106581062e-03 -8.2147743415456931e-01
    7.8779790290686956e-03 -9.1007926842070208e-01
    7.8439748891798479e-03 -9.8549145893704226e-01
    7.8435645857984158e-03 -1.0104934667841758e+00
    7.8506856389877026e-03 -1.0448459488214321e+00
    7.8953569962141607e-03 -1.1222450544618814e+00
    7.9075201606347602e-03 -1.1366028456361235e+00
    7.9952797106581045e-03 -1.2173188920632474e+00
    8.0794428689644430e-03 -1.2774459408789605e+00
    8.1641611431280663e-03 -1.3299571899755387e+00
    8.1958052971857105e-03 -1.3482014162666973e+00
    8.1641611431280663e-03 -1.3299571899755387e+00
    8.0709365404756685e-03 -1.2718043634135772e+00
    8.0544483995767819e-03 -1.2606304728940945e+00
    8.0020962398795956e-03 -1.2226167292601007e+00
    7.9821311153693043e-03 -1.2068182366911171e+00
    7.9952797106581045e-03 -1.2173188920632474e+00
    8.0310053247762622e-03 -1.2441351777140346e+00
    8.0162196955639135e-03 -1.2333096251870201e+00
    8.0969878252806059e-03 -1.2888409952787470e+00
    8.0162196955639135e-03 -1.2333096251870201e+00
    8.0310053247762622e-03 -1.2441351777140346e+00
    8.1540015405075945e-03 -1.3239613148496412e+00
    8.1342531622920489e-03 -1.3120940930782778e+00
    8.0881260980052109e-03 -1.2831246392221629e+00
    8.0626055560562813e-03 -1.2661993798629096e+00
    7.9886250536220244e-03 -1.2120528721753250e+00
    7.9163631446463791e-03 -1.1463026048281271e+00
    7.8556269759865495e-03 -1.0580496333105893e+00
    7.8452061857715600e-03 -9.7729322151354692e-01
    7.9520340958289214e-03 -8.4666751333460333e-01
    8.1745136203711845e-03 -7.4850556866279783e-01
    9.7211984124667399e-03 -5.0716648920155283e-01
    1.2714180140441423e-02 -3.4519397228902021e-01
    1.5483564004197311e-02 -2.7201292504242247e-01
    2.8881859388616725e-02 -1.3837968120433275e-01
    1.8733800564919176e-02 -2.1940839492525382e-01
    1.4688699165374351e-02 -2.8932750861233192e-01
    1.1450869996881666e-02 -3.9623835114470485e-01
    9.3536522995484404e-03 -5.4276569032557187e-01
    8.3821799247123536e-03 -6.9166108877715193e-01
    8.0310053247762605e-03 -8.0377118010391224e-01
    7.9258002174090181e-03 -8.6497120326734112e-01
    7.8844996746392712e-03 -9.0243777591252194e-01
    7.8460273723740884e-03 -9.7321861446681934e-01
    7.8469857494069643e-03 -1.0318212889903919e+00
    7.8811679611270457e-03 -1.1034457814467333e+00
    7.9464820425595804e-03 -1.1760461628330869e+00
    8.0235290977350004e-03 -1.2387055882620110e+00
    8.1152533765522367e-03 -1.3003888787416844e+00
    8.0881260980052109e-03 -1.2831246392221629e+00
    8.0709365404756685e-03 -1.2718043634135772e+00
    8.0162196955639135e-03 -1.2333096251870201e+00
    7.9757967752114561e-03 -1.2016145600900516e+00
    7.9821311153693043e-03 -1.2068182366911171e+00
    8.0020962398795956e-03 -1.2226167292601007e+00
    8.0162196955639135e-03 -1.2333096251870201e+00
    8.0794428689644430e-03 -1.2774459408789605e+00
    8.0235290977350004e-03 -1.2387055882620110e+00
    8.0386497027999885e-03 -1.2495988661179274e+00
    7.9757967752114561e-03 -1.2016145600900516e+00
    8.0090758279835212e-03 -1.2279468242319620e+00
    8.0544483995767819e-03 -1.2606304728940945e+00
    8.0386497027999885e-03 -1.2495988661179274e+00
    8.0020962398795956e-03 -1.2226167292601007e+00
    7.9577406154695638e-03 -1.1861851355835633e+00
    7.8953569962141607e-03 -1.1222450544618814e+00
    7.8435645857984158e-03 -1.0104934667841758e+00
    7.8556269759865495e-03 -9.4513524556598094e-01
    7.9118677648718095e-03 -8.7608656836910392e-01
    8.1440328510206557e-03 -7.5872122333360492e-01
    8.7166423601525642e-03 -6.2645180218841756e-01
    1.1450869996881666e-02 -3.9623835114470485e-01
    1.4510562226262420e-02 -2.9354352395090366e-01
    1.8733800564919176e-02 -2.1940839492525382e-01
    3.2679493265312436e-02 -1.2178057511186367e-01
    2.2515972687401863e-02 -1.7979873805701907e-01
    1.5706035771638330e-02 -2.6756002483626046e-01
    1.2940857805021142e-02 -3.3756997551928841e-01
    1.1306008916042658e-02 -4.0326338691145891e-01
    9.4152525584838137e-03 -5.3631558676039848e-01
    8.4405342691392365e-03 -6.7850265560168321e-01
    8.2067486758474837e-03 -7.3835038452118440e-01
    7.9163631446463791e-03 -8.7236999705669971e-01
    7.9033196184203520e-03 -8.8355483416787028e-01
    7.8521945025523329e-03 -9.5308264797159215e-01
    7.8435645857984158e-03 -9.8961550259442022e-01
    7.8618167881711176e-03 -1.0714392482918800e+00
    7.9307434710211289e-03 -1.1610509100320598e+00
    7.9696209446120519e-03 -1.1964414240648280e+00
    8.0162196955639135e-03 -1.2333096251870201e+00
    8.0544483995767819e-03 -1.2606304728940945e+00
    8.0544483995767819e-03 -1.2606304728940945e+00
    8.0310053247762622e-03 -1.2441351777140346e+00
    8.0020962398795956e-03 -1.2226167292601007e+00
    7.9696209446120519e-03 -1.1964414240648280e+00
    7.9520340958289214e-03 -1.1811011811017715e+00
    7.9886250536220244e-03 -1.2120528721753250e+00
    7.9757967752114561e-03 -1.2016145600900516e+00
    7.9577406154695638e-03 -1.1861851355835633e+00
    7.9464820425595804e-03 -1.1760461628330869e+00
    7.9358376221540638e-03 -1.1660214026037641e+00
    7.9464820425595804e-03 -1.1760461628330869e+00
    7.9210070399123814e-03 -1.1511918686503140e+00
    7.8720274817404602e-03 -1.0895937829632412e+00
    7.8480814675927681e-03 -1.0361433653665273e+00
    7.8452061857715600e-03 -1.0232343558582009e+00
    7.9163631446463791e-03 -8.7236999705669971e-01
    7.9464820425595804e-03 -8.5030675801960598e-01
    8.0881260980052109e-03 -7.7934751576916594e-01
    8.6592165430709328e-03 -6.3615413392623410e-01
    1.0039203959926168e-02 -4.8100152584614941e-01
    1.3865322302290248e-02 -3.1001587026623917e-01
    1.5706035771638330e-02 -2.6756002483626046e-01
    2.0092760918983071e-02 -2.0323471117426509e-01
    3.5260554482136774e-02 -1.1262765836674167e-01
    2.7428932872104763e-02 -1.4602041508114227e-01
    1.7003731301850931e-02 -2.4440645096710575e-01
    1.5068493175333011e-02 -2.8076472148193554e-01
    1.3718854831376488e-02 -3.1404434911491269e-01
    1.2204813173380090e-02 -3.6385121527321018e-01
    9.7583813138489208e-03 -5.0391140250115463e-01
    8.6971872151676965e-03 -6.2968361716495969e-01
    8.1540015405075928e-03 -7.5530907797979518e-01
    8.0464635944420704e-03 -7.9675108201333489e-01
    7.9464820425595804e-03 -8.5030675801960598e-01
    7.8992654508203333e-03 -8.8730684254987058e-01
    7.8439748891798479e-03 -9.8549145893704226e-01
    7.8469857494069643e-03 -1.0318212889903919e+00
    7.8575511283968096e-03 -1.0624918300339488e+00
    7.9075201606347602e-03 -1.1366028456361235e+00
    7.9821311153693043e-03 -1.2068182366911171e+00
    8.0020962398795956e-03 -1.2226167292601007e+00
    7.9520340958289214e-03 -1.1811011811017715e+00
    7.9520340958289214e-03 -1.1811011811017715e+00
    7.9821311153693043e-03 -1.2068182366911171e+00
    7.9520340958289214e-03 -1.1811011811017715e+00
    7.9258002174090163e-03 -1.1561078521719581e+00
    7.9210070399123814e-03 -1.1511918686503140e+00
    7.8953569962141607e-03 -1.1222450544618814e+00
    7.8779790290686973e-03 -1.0988053839918157e+00
    7.8618167881711176e-03 -1.0714392482918800e+00
    7.8493146993738293e-03 -1.0404848368199191e+00
    7.8460273723740884e-03 -1.0275183654885733e+00
    7.8460273723740884e-03 -1.0275183654885733e+00
    7.8469857494069626e-03 -9.6916007710838392e-01
    7.8844996746392712e-03 -9.0243777591252194e-01
    8.0881260980052109e-03 -7.7934751576916594e-01
    8.3409260982054301e-03 -7.0157810542107879e-01
    8.9767220525746733e-03 -5.8779725924635629e-01
    1.0171679632333185e-02 -4.7110378422403282e-01
    1.2501225772792135e-02 -3.5272247665821649e-01
    1.4874494638675342e-02 -2.8506860288734787e-01
    1.9605322577110236e-02 -2.0874143036171650e-01
    2.3281171962626003e-02 -1.7351520648554244e-01
    4.9708565374109281e-02 -7.9388418603744459e-02
    2.5092635018096263e-02 -1.6029950554357944e-01
    2.0092760918983071e-02 -2.0323471117426509e-01
    1.8342097329808769e-02 -2.2458538797354580e-01
    1.7003731301850931e-02 -2.4440645096710575e-01
    1.4510562226262420e-02 -2.9354352395090366e-01
    1.2300734930031003e-02 -3.6016243714756746e-01
    1.0361167481110987e-02 -4.5781651302236748e-01
    8.9068206579577501e-03 -5.9744498484380482e-01
    8.2891155666272014e-03 -7.1487132371058382e-01
    8.0969878252806077e-03 -7.7589090016780771e-01
    7.9952797106581062e-03 -8.2147743415456931e-01
    7.8992654508203333e-03 -8.8730684254987058e-01
    7.8538415281609129e-03 -9.4910149657117837e-01
    7.8460273723740884e-03 -9.7321861446681934e-01
    7.8811679611270457e-03 -1.1034457814467333e+00
    7.9075201606347602e-03 -1.1366028456361235e+00
    7.9307434710211289e-03 -1.1610509100320598e+00
    7.9163631446463791e-03 -1.1463026048281271e+00
    7.9258002174090163e-03 -1.1561078521719581e+00
    7.9163631446463791e-03 -1.1463026048281271e+00
    7.9358376221540638e-03 -1.1660214026037641e+00
    7.9163631446463791e-03 -1.1463026048281271e+00
    7.8879747066184034e-03 -1.1127972668052999e+00
    7.8692639122392022e-03 -1.0850219939119794e+00
    7.8439748891798479e-03 -1.0147221378038189e+00
    7.8432910859784037e-03 -1.0062827843190036e+00
    7.8460273723740884e-03 -9.7321861446681934e-01
    7.8445220605306010e-03 -9.8138410120521136e-01
    7.8811679611270457e-03 -9.0625204864066322e-01
    7.9033196184203520e-03 -8.8355483416787028e-01
    8.0544483995767819e-03 -7.9325386899798467e-01
    8.5191602637427512e-03 -6.6214684054100759e-01
    9.5790970210837285e-03 -5.2015096767930635e-01
    1.0513901200989705e-02 -4.4777366283964504e-01
    1.1847117513225383e-02 -3.7841523580866049e-01
    1.3182704908198123e-02 -3.2984283575105328e-01
    1.7308505004955541e-02 -2.3957283545481259e-01
    1.8342097329808769e-02 -2.2458538797354580e-01
    2.4134077247980456e-02 -1.6702393753038666e-01
    4.3094171185881998e-02 -9.1766293548224701e-02
    3.2679493265312436e-02 -1.2178057511186367e-01
    2.5092635018096263e-02 -1.6029950554357944e-01
    2.1824527304994405e-02 -1.8589576493606924e-01
    1.9605322577110236e-02 -2.0874143036171650e-01
    1.7631830501037133e-02 -2.3466162723196601e-01
    1.5068493175333011e-02 -2.8076472148193554e-01
    1.3577642398909476e-02 -3.1803997435441406e-01
    1.0676697640205424e-02 -4.3765544502178177e-01
    9.3841836937632855e-03 -5.3954158439716260e-01
    8.6780469690480085e-03 -6.3291768447534902e-01
    8.3409260982054301e-03 -7.0157810542107879e-01
    8.1342531622920489e-03 -7.6214046330619456e-01
    7.9520340958289214e-03 -8.4666751333460333e-01
    7.9033196184203520e-03 -8.8355483416787028e-01
    7.8538415281609129e-03 -9.4910149657117837e-01
    7.8480814675927681e-03 -1.0361433653665273e+00
    7.8575511283968096e-03 -1.0624918300339488e+00
    7.8618167881711176e-03 -1.0714392482918800e+00
    7.8844996746392729e-03 -1.1081096411204923e+00
    7.8720274817404602e-03 -1.0895937829632412e+00
    7.8749323655933658e-03 -1.0941881494615167e+00
    7.8692639122392022e-03 -1.0850219939119794e+00
    7.8575511283968096e-03 -1.0624918300339488e+00
    7.8435645857984158e-03 -1.0104934667841758e+00
    7.8432910859784037e-03 -1.0062827843190036e+00
    7.8469857494069626e-03 -9.6916007710838392e-01
    7.8692639122392022e-03 -9.2164030370901717e-01
    7.9033196184203520e-03 -8.8355483416787028e-01
    8.0626055560562813e-03 -7.8976503693144207e-01
    8.2525570793150933e-03 -7.2489841150768808e-01
    8.7769501148161986e-03 -6.1676856130420299e-01
    9.4790514898564059e-03 -5.2985721010627407e-01
    1.0567002049873831e-02 -4.4440972086577935e-01
    1.1682383551993265e-02 -3.8559182454491336e-01
    1.4017363942299505e-02 -3.0595311068213221e-01
    1.6443341526746955e-02 -2.5385910352879693e-01
    1.9605322577110236e-02 -2.0874143036171650e-01
    2.2515972687401863e-02 -1.7979873805701907e-01
    2.6180387110679507e-02 -1.5331103516796663e-01
    3.5260554482136774e-02 -1.1262765836674167e-01
    3.5260554482136774e-02 -1.1262765836674167e-01
    3.5260554482136774e-02 -1.1262765836674167e-01
    3.0601300663143600e-02 -1.3032704249021490e-01
    2.5092635018096263e-02 -1.6029950554357944e-01
    2.1824527304994405e-02 -1.8589576493606924e-01
    1.7975625594416979e-02 -2.2966770070528580e-01
    1.6443341526746955e-02 -2.5385910352879693e-01
    1.5483564004197311e-02 -2.7201292504242247e-01
    1.2606070269048671e-02 -3.4896971141458322e-01
    9.9551071032261407e-03 -4.8757163390748492e-01
    9.1811212090329389e-03 -5.6208012412294550e-01
    8.6224655136118641e-03 -6.4263469485583202e-01
    8.4405342691392365e-03 -6.7850265560168321e-01
    8.2178932898162235e-03 -7.3497818065913789e-01
    8.0464635944420704e-03 -7.9675108201333489e-01
    7.9696209446120519e-03 -8.3581191681124511e-01
    7.8666412152995305e-03 -9.2552101396284980e-01
    7.8435645857984158e-03 -9.8961550259442022e-01
    7.8493146993738293e-03 -9.6109041152040720e-01
    7.8460273723740884e-03 -9.7321861446681934e-01
    7.8445220605306010e-03 -9.8138410120521136e-01
    7.8469857494069626e-03 -9.6916007710838392e-01
    7.8556269759865495e-03 -9.4513524556598094e-01
    7.8596142900782609e-03 -9.3724669780640968e-01
    7.8618167881711176e-03 -9.3332403269175490e-01
    7.9163631446463791e-03 -8.7236999705669971e-01
    8.0090758279835212e-03 -8.1436751190383594e-01
    8.2767147806078450e-03 -7.1820803727758886e-01
    8.5029108123592413e-03 -6.6541046305070173e-01
    9.0252893553165597e-03 -5.8136806483985892e-01
    9.9551071032261407e-03 -4.8757163390748492e-01
    1.1236213060810005e-02 -4.0675560433078389e-01
    1.2020991450645103e-02 -3.7117007005227781e-01
    1.4175326709537178e-02 -3.0185455623649105e-01
    1.7975625594416979e-02 -2.2966770070528580e-01
    2.1824527304994405e-02 -1.8589576493606924e-01
    2.4134077247980456e-02 -1.6702393753038666e-01
    3.2679493265312436e-02 -1.2178057511186367e-01
    3.5260554482136774e-02 -1.1262765836674167e-01
    6.0816461185507140e-02 -6.4752390823817618e-02
    4.9708565374109281e-02 -7.9388418603744459e-02
    4.3094171185881998e-02 -9.1766293548224701e-02
    4.3094171185881998e-02 -9.1766293548224701e-02
    3.2679493265312436e-02 -1.2178057511186367e-01
    2.7428932872104763e-02 -1.4602041508114227e-01
    2.3281171962626003e-02 -1.7351520648554244e-01
    2.1195803493539583e-02 -1.9182423412211710e-01
    1.9153711719460252e-02 -2.1412969991171119e-01
    1.7308505004955541e-02 -2.3957283545481259e-01
    1.3865322302290248e-02 -3.1001587026623917e-01
    1.1101576576912985e-02 -4.1370175761565087e-01
    9.9551071032261407e-03 -4.8757163390748492e-01
    8.9530356512964177e-03 -5.9101249956992219e-01
    8.5356794752618394e-03 -6.5888674028769634e-01
    8.2525570793150933e-03 -7.2489841150768808e-01
    8.2178932898162235e-03 -7.3497818065913789e-01
    8.0544483995767819e-03 -7.9325386899798467e-01
    8.0386497027999868e-03 -8.0025680809606969e-01
    8.0626055560562813e-03 -7.8976503693144207e-01
    7.9821311153693026e-03 -8.2862519772805554e-01
    8.0386497027999868e-03 -8.0025680809606969e-01
    8.0626055560562813e-03 -7.8976503693144207e-01
    8.0235290977349986e-03 -8.0729433166041387e-01
    8.0235290977349986e-03 -8.0729433166041387e-01
    8.0626055560562813e-03 -7.8976503693144207e-01
    8.2891155666272014e-03 -7.1487132371058382e-01
    8.5356794752618394e-03 -6.5888674028769634e-01
    9.0008041016965759e-03 -5.8458249604129542e-01
    9.8741800354589064e-03 -4.9412128486419626e-01
    1.1236213060810005e-02 -4.0675560433078389e-01
    1.1763654875111005e-02 -3.8201179871054630e-01
    1.5068493175333011e-02 -2.8076472148193554e-01
    1.6715833874041724e-02 -2.4916712705774094e-01
    1.9605322577110236e-02 -2.0874143036171650e-01
    2.1824527304994405e-02 -1.8589576493606924e-01
    3.0601300663143600e-02 -1.3032704249021490e-01
    3.0601300663143600e-02 -1.3032704249021490e-01
    3.5260554482136774e-02 -1.1262765836674167e-01
    4.9708565374109281e-02 -7.9388418603744459e-02
    8.5917451154706212e-02 -4.5738935374634825e-02
    6.0816461185507140e-02 -6.4752390823817618e-02
    4.9708565374109281e-02 -7.9388418603744459e-02
    4.9708565374109281e-02 -7.9388418603744459e-02
    4.3094171185881998e-02 -9.1766293548224701e-02
    4.3094171185881998e-02 -9.1766293548224701e-02
    3.2679493265312436e-02 -1.2178057511186367e-01
    2.8881859388616725e-02 -1.3837968120433275e-01
    2.5092635018096263e-02 -1.6029950554357944e-01
    2.1824527304994405e-02 -1.8589576493606924e-01
    1.9153711719460252e-02 -2.1412969991171119e-01
    1.5271295082435040e-02 -2.7641362915388684e-01
    1.4510562226262420e-02 -2.9354352395090366e-01
    1.3059786560603751e-02 -3.3371980689308955e-01
    1.0361167481110987e-02 -4.5781651302236748e-01
    9.2651678075548367e-03 -5.5242837700159941e-01
    9.1540446379198524e-03 -5.6529570018720088e-01
    8.7769501148161986e-03 -6.1676856130420299e-01
    8.7565183699680558e-03 -6.1999440609074452e-01
    8.7565183699680558e-03 -6.1999440609074452e-01
    8.6045354168936081e-03 -6.4587906245179472e-01
    8.6780469690480085e-03 -6.3291768447534902e-01
    8.6592165430709328e-03 -6.3615413392623410e-01
    8.7769501148161986e-03 -6.1676856130420299e-01
    8.9068206579577501e-03 -5.9744498484380482e-01
    9.2651678075548367e-03 -5.5242837700159941e-01
    9.3536522995484404e-03 -5.4276569032557187e-01
    1.0264499058355095e-02 -4.6447393964477385e-01
    1.1932863752833187e-02 -3.7480153478366451e-01
    1.3309828789005117e-02 -3.2593797848649275e-01
    1.4017363942299505e-02 -3.0595311068213221e-01
    1.5939528811358850e-02 -2.6305214040457559e-01
    2.1824527304994405e-02 -1.8589576493606924e-01
    2.4134077247980456e-02 -1.6702393753038666e-01
    2.7428932872104763e-02 -1.4602041508114227e-01
    3.0601300663143600e-02 -1.3032704249021490e-01
    4.9708565374109281e-02 -7.9388418603744459e-02
    6.0816461185507140e-02 -6.4752390823817618e-02
    4.9708565374109281e-02 -7.9388418603744459e-02
    6.0816461185507140e-02 -6.4752390823817618e-02</input_scale>
  <output_scale>
    1.0526315789473684e+00 0. 1.0526315789473684e+00 0.
    1.0526315789473684e+00 0. 1.0526315789473684e+00 0.
    1.0526315789473684e+00 0. 1.0526315789473684e+00 0.
    1.0526315789473684e+00 0. 1.0526315789473684e+00 0.</output_scale>
  <inv_output_scale>
    9.4999999999999996e-01 0. 9.4999999999999996e-01 0.
    9.4999999999999996e-01 0. 9.4999999999999996e-01 0.
    9.4999999999999996e-01 0. 9.4999999999999996e-01 0.
    9.4999999999999996e-01 0. 9.4999999999999996e-01 0.</inv_output_scale>
  <weights>
    <_>
      5.9747281093526472e-01 3.8613112829374735e-01
      1.2186954917217602e-02 -4.1125525314380899e-03
      -4.6960567709607472e-03 2.1394193071222600e-03
      1.5431861507269084e-03 -1.3047438769802344e-01
      -1.4835110896758489e-03 -9.0396133684425131e-02
      -3.1023960962697054e-02 2.3907915884478912e-02
      -8.0791700168324158e-03 1.3361931710576102e-02
      -2.9187845577439420e-01 -1.8233840925094138e-02
      2.7303740562180869e-03 -3.1241749523178500e-03
      -4.1461757013039214e-03 -5.2984557769272557e-03
      -1.6484081489275729e-02 1.5341786805214773e-03
      2.3771679368979649e-03 -1.4167322864987000e-02
      -1.4007876153316900e-03 -1.2001533402514208e-02
      1.7041253362083220e-02 7.2429814337317518e-03
      3.8248754260846777e-03 3.1860852297237543e-03
      -9.8028969091032165e-03 -1.1007468723031133e-02
      3.5343821039683032e-01 1.2882625059754431e-02
      -7.1506668753368793e-03 5.7090607862099041e-01
      3.4103352844322347e-03 3.1195123932736507e-03
      3.6614063156406688e-02 8.4613923567574169e-03
      -4.3469289195340668e-02 4.1676173382279979e-03
      6.1243403008839131e-03 2.7141553820379596e-02
      8.8769897783526151e-03 -1.0666613163737770e-02
      8.0464162486432646e-03 1.3437775397479057e-02
      4.5767152126526163e-05 -1.4496130570847116e-02
      -2.3336816965459783e-01 -6.9901584387205423e-03
      2.7648885113256585e-03 4.2879148409966886e-02
      5.4254463567849829e-04 -8.4213930307139515e-02
      8.1735470583141207e-03 -2.3481772455512678e-02
      -7.0071346716081276e-03 1.4916977198962274e-03
      2.5224453068940351e-02 -1.3511681926231093e-02
      -3.3492746764376918e-01 -1.1663530128619568e-02
      1.8408887533005600e-02 1.0006095051666778e-03
      -1.2360065806494723e-04 -4.9757563455631135e-04
      -3.1665114341106415e-04 -4.9687487376696255e-04
      -9.8762003860938287e-04 -1.0769257782646255e-03
      1.9359174674622143e-04 9.8586789727321479e-04
      -7.3920520149686904e-04 -6.3182507461667333e-04
      1.0794726090193596e-03 4.8214789913359374e-04
      2.1184138457599726e-04 -3.8977060393565811e-04
      6.4704591712820038e-04 2.4452936821907291e-04
      4.6472065437268360e-04 -9.6586410568878041e-04
      8.2293464666079782e-04 2.2430587666467870e-04
      8.4825599294464699e-04 -7.2543137497211696e-05
      1.0828974942914031e-03 3.4743642921141848e-04
      -9.1098391826197078e-04 1.5632775441477826e-04
      -7.2524719171971122e-04 5.5114414791656468e-04
      -3.8909677334856576e-04 2.7751273856124211e-04
      3.7614084320229739e-04 -1.2061696358276470e-03
      4.7243463006980127e-04 8.5200329999364827e-05
      -7.4882263126855596e-05 8.7812126981127471e-04
      -4.0478971282841437e-04 -8.1164896676020747e-04
      -5.9889546840852703e-04 -9.6869938194263903e-04
      5.4845954489919765e-04 -3.5151326718480593e-04
      1.2757530625120714e-04 8.0289572434436474e-04
      8.0756189165129679e-04 5.1588622936273195e-04
      6.8498369826214657e-04 1.9909252090167354e-04
      -1.0299355437946417e-05 -1.2199850388405046e-03
      -7.8077855461976525e-04 -1.1784779583108092e-03
      3.0912210147561312e-04 -5.3897053258262497e-04
      7.2912197186787025e-04 1.0433566386781715e-04
      8.8845614593938203e-04 -7.4666239563665119e-04
      6.2005037412950529e-04 6.2820625393696181e-04
      8.6639526715996435e-04 9.3826966354388264e-04
      1.0725608088665410e-03 -1.1364791960665791e-03
      1.0906099374887938e-03 -1.0560490699896210e-05
      -1.0372453125659920e-04 -8.6064993264560788e-04
      3.5919193228786201e-04 1.0929916721984258e-03
      1.8913373616721725e-05 -2.9888719748348607e-04
      -4.8426694349722660e-04 -5.0351636668221451e-04
      -8.9668525312921890e-04 -1.0302480531634468e-03
      4.2486627347626055e-04 -7.0792362748296116e-04
      6.5129636344593469e-04 -1.0372745478373054e-03
      8.5661756484744448e-04 8.6823956786471145e-04
      -9.4041216101263883e-04 6.6652097127643882e-04
      7.1501741133838640e-04 8.3487644317749917e-04
      -7.3971190318808519e-04 8.8933038218103402e-04
      -3.6106061635133668e-04 1.1444187352002799e-03
      -1.2893897388449141e-04 -8.2547018330145704e-04
      1.0776384375908309e-03 -5.0722735901636217e-04
      1.2059494435995750e-03 -6.2875456763105948e-04
      -1.0426101017564574e-03 -1.0207444377494680e-03
      7.5934285524509640e-04 1.1999284042292994e-03
      -1.0236523168718947e-03 1.9829300411200240e-04
      -1.0765903027175699e-03 3.9913617957647752e-04
      -7.9068066101427629e-04 1.1932808083434574e-03
      1.1099438445871339e-03 -5.2651712299800978e-04
      4.4926739195810626e-04 -3.4178346129960330e-04
      1.8475054905428890e-04 1.0272149879046754e-03
      1.0463511121839406e-03 -1.0357919666466727e-03
      3.2315253866313178e-04 9.4072296843817043e-04
      -3.0234642404523528e-04 -4.0596949865600484e-04
      -8.7962103976225330e-04 -1.1375889380219825e-03
      -1.6053869400644254e-04 -7.1891618331583463e-04
      -5.6700799585742930e-04 -4.0035959844029079e-04
      -6.9813320602107030e-04 2.3331815079280610e-04
      -2.8563015981662108e-04 4.8955453013246593e-04
      -9.0670182440556171e-04 -5.6608375907186883e-04
      9.8280077323760939e-04 5.8674145612284837e-04
      -2.3404810589499834e-05 5.1210201631407039e-04
      -3.6144653169046793e-04 1.0328318839991015e-03
      -7.3189054801951596e-04 3.4695438364743398e-04
      -4.4022363701253322e-04 1.6853111414949609e-04
      5.4427262316709827e-04 4.0928371062340927e-04
      -5.0198130336476655e-04 -5.3837339186742325e-04
      5.4130025805742177e-04 7.2451646606574787e-04
      7.2928225531841261e-04 -8.9596085780997226e-04
      -1.0633593111381934e-03 4.7189397411756106e-04
      -4.9248951343733988e-04 9.9480067882329781e-04
      -2.5035076196965137e-04 1.2025051274339787e-03
      7.9488783461768411e-05 -2.3343960668910767e-04
      -8.4511454584403696e-04 1.2165178234286608e-03
      4.8608291870555205e-04 8.1330602239910749e-04
      1.0184280383176761e-03 1.0704245511725459e-03
      -7.2497964613305542e-04 4.9328224232276271e-04
      1.8830881034114335e-04 9.4414942372186774e-04
      6.1239348253836216e-04 8.3569334300787762e-04
      -7.7516820246783386e-04 -3.2422684609855905e-04
      5.0236804272263717e-04 -4.1733836523859355e-04
      3.3271202224757985e-04 4.5671511297361062e-04
      -3.8594513718341519e-04 -6.3878573213830257e-04
      9.3410495336349985e-04 9.7690240825605993e-05
      -7.8096823192172428e-04 1.1382202666471520e-03
      -2.1371611032366727e-04 1.7154484712971553e-04
      -1.2388628978558726e-03 5.5433678658654048e-04
      9.0057802301922734e-04 2.9707855108587999e-04
      4.6358865596423293e-04 -5.7482281660190980e-04
      1.0635178306120715e-03 -6.9403502946493360e-04
      -3.0113801045332674e-04 8.6819806796279786e-04
      -5.9061615683331952e-04 3.3544265736056342e-04
      5.5347113344592480e-01 3.0817402918126013e-02
      4.7322623971577493e-02 -5.1387419537667678e-02
      -4.0582005520945638e-02 3.1810366743689305e-04
      3.0432828623567054e-02 -1.7995582075719344e-02
      -7.5679749403357553e-03 3.9703419566095889e-02
      -1.6993597438524747e-02 -2.0534536787755475e-02
      -3.0763272205171110e-02 2.0705878777852908e-02
      3.6088025852896832e-02 -2.0731144871581203e-02
      -1.9240329863242228e-01 -9.2685255514261457e-03
      4.9758647006417314e-02 -1.5428996249282501e-01
      1.8549754004340824e-01 4.7355788115347678e-04
      -2.0504777382165062e-02 -2.0686903563579630e-02
      6.1121436142673989e-04 -4.6464630001100342e-02
      -5.4975104072495430e-02 -1.0798915061071669e-01
      6.2342773208120726e-02 -6.9455527036391171e-02
      6.7171775958260377e-02 3.8815847284578750e-02
      -5.4113999762454304e-02 1.3750283708112498e-02
      5.6291649209399205e-02 -1.0682549490446035e-01
      1.9899756802574642e-01 -6.5595066676591235e-02
      -1.2034917586971689e-02 1.2532659908362306e-01
      -5.1516111082065101e-02 5.5701325214866110e-03
      3.3371897391950935e-02 -1.7448494153396946e-02
      8.2641022840857677e-03 -1.4648716930042043e-02
      1.1171600659983374e-02 2.2511486570705407e-02
      -6.9030899084538203e-02 -2.1284761052902761e-02
      1.1212678171890039e-01 1.1036627504121752e-01
      5.9624771291856907e-02 -1.3062219488912849e-01
      3.8602934620278181e-02 -1.1316065530823126e-01
      5.3560808420702738e-03 -5.8150219112987310e-02
      8.8139797741260226e-02 1.2366629725524471e-01
      -2.0112798395857421e-02 -8.4412278050652684e-02
      3.3496617887375658e-02 -7.8649876274925520e-02
      5.6783699905784080e-02 -9.8325967687721005e-01
      2.7229458686857042e-02 4.7179912220911197e-02
      -4.3555457450019486e-02 -3.4679022513323166e-02
      -3.3193018034855903e-04 2.4822513418267394e-02
      -3.9872433322648122e-02 -6.5949501133733528e-03
      1.4851008493981740e-01 -2.0295008041985342e-02
      -4.0844162398730351e-03 -2.9603051579531178e-02
      2.4600833630877179e-02 1.2514389627725975e-01
      -3.0938168896941023e-02 -1.5683914721786149e-01
      -1.0709340174339300e-01 3.6630903854271223e-02
      -1.2955520351364833e-01 1.4176697363184132e-01
      3.0489908707919101e-03 -1.8203164967542623e-02
      -2.5412927300077274e-02 -1.4969094855617762e-03
      -4.5311007976096045e-02 -6.3681883216153701e-02
      -8.4400642550100130e-02 4.8627254869919131e-02
      -5.4533501547759641e-02 4.8098435352903084e-02
      2.5681393883260750e-02 -1.6285402849658770e-01
      1.9059861386389990e-02 4.2238408340169759e-02
      -2.6613098238697042e-01 1.6489974676281413e-01
      -5.1572223110423490e-02 1.1426476429244434e-01
      1.0232671061313486e-01 8.9975984683859339e-02
      2.1138166202041366e-02 3.2129416868385725e-02
      4.8671683321148157e-02 1.1543747851551456e-02
      -1.6970942941797872e-02 1.4945907451492628e-02
      2.5792070538466275e-02 -5.4685653723685869e-02
      -2.4999442669181058e-02 9.6162046100643592e-02
      8.5559809217486432e-02 4.9541484221263352e-02
      -1.3267146860822956e-01 7.1143722337151508e-02
      -9.1022566976135144e-02 9.2676415856614135e-03
      -5.9784034186007869e-02 6.6550594636197141e-02
      9.7190476173201881e-02 -1.1074647442221098e-02
      -3.7910842215310936e-02 5.8846907995431824e-02
      -7.2927331229776751e-02 5.6725065068267660e-02
      1.9992879314623686e+00 9.3754489575515448e-03
      4.6988194834720505e-02 -2.1933766422416966e-02
      -9.4385510224388305e-02 -5.7344517302900369e-02
      2.3762544133165593e-02 1.3360879989149296e-01
      -5.1138873673870515e-03 -7.7507330361293758e-02
      9.1200786755521435e-04 -3.3029308547957527e-02
      -2.2600308925594940e-02 2.4712638741017392e-02
      -5.4035515849651945e-02 1.6954726811785819e-02
      -1.4652622034986656e-01 -1.1910253987820889e-01
      4.7092658627069454e-02 -1.3266075151758588e-01
      1.4260471210189410e-01 1.4061263071430030e-03
      -1.2060871911094045e-02 -2.6740952582660595e-02
      4.2377279603630158e-03 -4.4738981922903473e-02
      -7.4920301500329772e-02 6.3811087706639111e-02
      9.5937177995795264e-02 -5.4304018933899460e-02
      4.8498818345272587e-02 2.4425706469507927e-02
      -8.5020761905448286e-02 1.7166584162290489e-02
      4.2518506832251279e-02 -2.3560388148826478e-01
      1.6386661538280703e-01 -4.8983685454953976e-02
      -2.2119638560528287e-01 -7.1885235343462542e-02
      -4.7076826558293046e-02 7.8676801679225476e-03
      1.2987331358642315e-02 5.1530417368540776e-02
      1.5170820211381990e-02 -1.5999088096343914e-02
      1.3068877889841606e-02 -2.1548921302185029e-02
      -5.9924299598287246e-02 -2.4319196931578285e-02
      7.2970513947069621e-03 8.4388403478956209e-02
      9.2382395233573542e-02 1.9134659537598450e-01
      3.2886251726320981e-02 -4.5576433752242684e-02
      7.8017297503515789e-03 -4.9044428725352134e-02
      7.0059602830479836e-02 8.9857135874489097e-02
      -1.1002722257041917e-03 1.4889050950332208e-02
      8.6087053219128809e-02 -7.1698568901824217e-02
      2.7015357720467221e-02 1.8238630247268645e-01
      8.7948213768758738e-03 4.4504217326290500e-02
      -4.2089278532878402e-02 1.5522979879608572e-03
      -3.4927246337571015e-02 -2.0022063294352650e-02
      9.5860956762961344e-02 3.6167018609172606e-03
      -2.6285116491820918e-02 1.0025772193728481e-01
      -2.5539908101002064e-02 -3.2586788144104442e-02
      2.8180006321154482e-02 4.7310042691700777e-02
      -8.6234805736656595e-02 -1.5420231713316288e-01
      -9.2311133855940489e-03 1.3198447749413404e-03
      -1.8403351609251653e-01 1.4214883533201200e-01
      -7.0377358446854305e-02 -1.1855241812109498e-02
      4.9099293726924481e-02 -1.2933853592646194e-01
      -4.8316320642597055e-02 -7.4736729090134277e-02
      9.2318562148717365e-02 1.6280429472725491e-01
      -8.4645362830784707e-02 1.0110821503094479e-01
      -6.7735133293249945e-03 3.8809994095799168e-02
      5.4200918509048471e-02 1.2274094162966299e-01
      -5.9827097549419853e-02 1.0453467736750945e-01
      -5.2330624729837898e-02 -8.6233424082775498e-02
      -1.8522326186008867e-01 -3.0653528226460471e-03
      -4.4716849751738483e-04 3.2037131284704798e-02
      -6.3573890956852966e-02 -5.4188426527271162e-02
      -6.2249504696809510e-02 -1.1294312424845833e-01
      4.6584970872748594e-03 -5.6408958741344266e-02
      4.4023101046438959e-02 3.9412119860016470e-02
      9.3630342472497852e-02 8.5925378052891535e-02
      2.5897269175813187e-02 -2.1652989480391599e-02
      -8.3952620987634091e-02 8.7419190805899504e-03
      -2.1157837514558686e-02 1.2380990889561175e-01
      -6.2733717504982453e-02 -7.2998613510608462e-02
      -1.2057159144740953e-02 8.4394896260500216e-02
      -7.9122564382166902e-02 -1.2839597278319376e-02
      3.1886559870415815e-01 6.9990120220347965e-02
      4.2318090563953047e-02 1.1112073059454183e-01
      6.1477507922608747e-02 -1.8085625528283428e-02
      -3.5841554093272915e-02 8.9348894016038655e-02
      -1.1593144922095483e-02 -3.8278001181602343e-02
      1.6615406234324778e-01 -2.1531772613822307e-02
      -2.9655015833576159e-02 3.4483316243764807e-02
      7.4196458517814909e-02 -8.5400217846933107e-02
      -9.7420139349239501e-02 -3.5992672911791410e-02
      -3.1973552367364641e-02 -1.4785439905684672e-01
      4.5894263617059568e-02 -1.9761535342935485e-01
      4.1428598276690418e-02 1.5495589542148078e-01
      -1.8715086608435666e-01 -1.1720836712363092e-01
      -7.3362180087107612e-02 2.1502824712916885e-02
      2.4920447298518389e-01 -1.0600974626369533e-01
      1.5678948984110119e-01 -1.5359781301068437e-02
      3.6026805904115132e-02 5.4011416839728953e-02
      1.0460232765383276e-01 -6.7929503915514999e-02
      4.4908639863802863e-02 -1.4790948171907601e-02
      -2.3602634513065454e-01 -2.4833747156229707e-01
      2.5603102450884947e-02 -2.2657008332120306e-02
      -4.4806813782554871e-03 -5.0463927772306467e-02
      -7.0871025237952134e-02 -1.2146946571526600e-01
      -1.0441591522641384e-01 -3.9903586417647614e-03
      -3.1701146712552336e-02 3.7943413799325421e-02
      -2.5841384745691028e-02 2.2365698020700472e-02
      1.1413369046042872e-01 7.6394980778813126e-02
      -7.4476666855355584e-03 5.2032524256611812e-02
      8.3530598330383964e-03 -4.8320106879931948e-02
      1.6453800691362541e-01 -1.7001877064828397e-01
      -6.5012641258774498e-02 3.5675163157526307e-02
      1.1098606005268825e-01 -7.4604239590029042e-02
      -5.7389728629542738e-02 -7.0542648857396495e-01
      6.1992813065138664e-03 -7.2217692790409451e-03
      2.6931823749501999e-02 5.5629263768028722e-02
      -2.8440697346118621e-02 4.2324732287084575e-02
      6.6550200943276697e-02 1.0483201821316245e-01
      7.8688581942307489e-02 5.3901381380230769e-02
      -1.2186068520920827e-01 -3.2734667699562604e-02
      7.8996004941072076e-02 -1.9862428754209786e-02
      -7.9018882764976012e-02 -1.4277154668897965e-01
      -5.1139725903022938e-02 -2.3851914479664501e-02
      -6.4876288770644039e-02 1.4642963702590120e-01
      -9.2419538652674271e-02 1.5009512443179829e-01
      5.5834511457017025e-02 -1.4698164540929326e-01
      -6.7517292961884945e-03 -5.1981843690776311e-02
      1.3519184025748643e-01 1.4535158772076887e-01
      -5.3444173430309133e-02 1.3424804529037870e-01
      5.3748930692756838e-02 -3.2372367443075624e-02
      1.8742696673517642e-01 1.1543457505317656e-01
      -1.0222196959830675e-01 2.1581833099839004e-01
      -4.7028426276511694e-02 -9.8893522854421823e-02
      -1.2784725079234158e-01 8.4071306926906161e-02
      -5.2275924329484129e-02 2.3830331642810693e-02
      8.8457207241487837e-04 -4.4083924237114845e-02
      -6.4995378440670208e-03 -3.4670119896257323e-01
      -4.9975591249012699e-02 1.9216261757939770e-01
      1.0617551434465551e-01 3.4784967702687340e-03
      -2.1153875993587135e-02 -1.0692944315202474e-01
      -1.0290267573155466e-01 5.5248007324105654e-02
      -2.7249165677086743e-02 1.1944765212433954e-01
      -5.0192293375433808e-02 7.8086824523128429e-02
      -8.7459391486128288e-02 -4.2566762099310450e-02
      2.1174343706293168e-02 5.9562641066040742e-02
      -2.3658922184217064e-02 -7.2758138042270963e-03
      1.9215979498439524e+00 1.2421166054715693e-02
