<?xml version="1.0"?>
<opencv_storage>
<shapeML type_id="opencv-ml-ann-mlp">
  <layer_sizes type_id="opencv-matrix">
    <rows>1</rows>
    <cols>3</cols>
    <dt>i</dt>
    <data>
      400 20 8</data></layer_sizes>
  <activation_function>SIGMOID_SYM</activation_function>
  <f_param1>5.9999999999999998e-01</f_param1>
  <f_param2>1.</f_param2>
  <min_val>-9.4999999999999996e-01</min_val>
  <max_val>9.4999999999999996e-01</max_val>
  <min_val1>-9.7999999999999998e-01</min_val1>
  <max_val1>9.7999999999999998e-01</max_val1>
  <training_params>
    <train_method>BACKPROP</train_method>
    <dw_scale>1.0000000000000001e-01</dw_scale>
    <moment_scale>1.0000000000000001e-01</moment_scale>
    <term_criteria><epsilon>9.9999999747524271e-07</epsilon>
      <iterations>4000</iterations></term_criteria></training_params>
  <input_scale>
    1.6371656719154585e-02 -2.5512498387349231e-01
    1.1536243243422589e-02 -3.9223227027636803e-01
    1.0522672835293128e-02 -4.4721359549995793e-01
    1.0257144595042877e-02 -4.6499055497527714e-01
    9.3107226422484059e-03 -5.4739290200885415e-01
    7.8705130353608540e-03 -9.1986621100779986e-01
    7.9397871293973108e-03 -1.1697953037312039e+00
    8.1125185259862363e-03 -1.2986790073682968e+00
    8.1509631802543295e-03 -1.3221541525304210e+00
    8.0657784728360108e-03 -1.2683436648534627e+00
    8.1250037716785843e-03 -1.3064328981211524e+00
    8.2526889449109804e-03 -1.3795745019576189e+00
    8.1125185259862363e-03 -1.2986790073682968e+00
    7.8826495314448016e-03 -1.1055415967851334e+00
    7.9198971311042043e-03 -8.6953870585248250e-01
    9.7042827944020370e-03 -5.0866615647324009e-01
    1.1436261723504055e-02 -3.9693358398661993e-01
    1.2215861921203882e-02 -3.6342189215581550e-01
    1.4188769156600639e-02 -3.0151134457776357e-01
    1.7120161767270561e-02 -2.4253562503633294e-01
    1.2913982606611966e-02 -3.3845396081495527e-01
    1.0453502048126458e-02 -4.5167840099613071e-01
    9.2339285670738156e-03 -5.5595944914256934e-01
    8.0048684404679018e-03 -8.1649658092772603e-01
    7.9469540817782361e-03 -1.1764803271899196e+00
    8.2850269693176912e-03 -1.3967174632441408e+00
    8.4302866341178662e-03 -1.4689774459950382e+00
    8.7826276228369308e-03 -1.6236882817719775e+00
    8.9280697646382592e-03 -1.6821971448205919e+00
    9.0903932580735612e-03 -1.7449767391643707e+00
    8.8389072957679136e-03 -1.6466147716407642e+00
    8.7026673112389312e-03 -1.5904124511289146e+00
    8.7026673112389312e-03 -1.5904124511289146e+00
    8.5804520936485877e-03 -1.5376885189492742e+00
    8.1003573254011339e-03 -1.2909944487358056e+00
    7.8636727210354071e-03 -1.0750295915715489e+00
    8.2526889449109821e-03 -7.2486117899468128e-01
    9.7042827944020370e-03 -5.0866615647324009e-01
    1.1436261723504055e-02 -3.9693358398661993e-01
    1.6371656719154585e-02 -2.5512498387349231e-01
    1.0982588894337331e-02 -4.2008402520840293e-01
    9.1250768822650451e-03 -5.6879645899452114e-01
    7.8436214440097407e-03 -9.8894993706556145e-01
    8.1782705808820088e-03 -1.3381695237968187e+00
    8.6521824325669437e-03 -1.5689290811054726e+00
    9.0903932580735612e-03 -1.7449767391643707e+00
    9.0564748108176597e-03 -1.7320508075688774e+00
    9.8039215686274508e-03 -2. 9.8556262272153933e-03
    -2.0175288189295513e+00 9.6094018255999409e-03
    -1.9330913339165214e+00 9.8039215686274508e-03 -2.
    9.5636514552593227e-03 -1.9171136313021919e+00
    9.5636514552593227e-03 -1.9171136313021919e+00
    9.1968226838483914e-03 -1.7849500025569087e+00
    8.9280697646382592e-03 -1.6821971448205919e+00
    8.4708593071291631e-03 -1.4880476182856897e+00
    7.9397871293973108e-03 -1.1697953037312039e+00
    8.0048684404679018e-03 -8.1649658092772603e-01
    9.9630263853145613e-03 -4.8694291458224920e-01
    1.3071895424836602e-02 -3.3333333333333337e-01
    9.7534877288076027e-03 -5.0433659464375979e-01
    7.8871998275912864e-03 -8.9946941367155631e-01
    8.3017697628211869e-03 -1.4054204394309366e+00
    8.7287438970814948e-03 -1.6013608074520760e+00
    9.3504604193217471e-03 -1.8412614975714405e+00
    9.5636514552593227e-03 -1.9171136313021919e+00
    9.1968226838483914e-03 -1.7849500025569087e+00
    9.7534877288076027e-03 -1.9828027762021787e+00
    1.0453502048126454e-02 -2.2139646212761153e+00
    1.0195173807164032e-02 -2.1303665267886509e+00
    9.7042827944020370e-03 -1.9659259560992794e+00
    1.0134835111857601e-02 -2.1105794120443453e+00
    9.7534877288076027e-03 -1.9828027762021787e+00
    9.9086457366154759e-03 -2.0354009783964289e+00
    9.6562668431543919e-03 -1.9493588689617929e+00
    8.8976963528930048e-03 -1.6701717529076245e+00
    8.4106654409576362e-03 -1.4596008983995230e+00
    7.8970653054494452e-03 -1.1243446728633648e+00
    8.1782705808820088e-03 -7.4728947432809356e-01
    1.1155403668959070e-02 -4.1089070180665910e-01
    8.3364340414927712e-03 -7.0269191941416154e-01
    8.2069634511436791e-03 -1.3544909262491713e+00
    8.6771508240578461e-03 -1.5796029979295303e+00
    9.2718871322247133e-03 -1.8126539343499315e+00
    9.8039215686274508e-03 -2. 9.9086457366154759e-03
    -2.0354009783964289e+00 9.7042827944020370e-03
    -1.9659259560992794e+00 9.8039215686274508e-03 -2.
    1.0195173807164032e-02 -2.1303665267886509e+00
    9.7042827944020370e-03 -1.9659259560992794e+00
    9.7042827944020370e-03 -1.9659259560992794e+00
    9.6562668431543919e-03 -1.9493588689617929e+00
    9.7042827944020370e-03 -1.9659259560992794e+00
    9.9086457366154759e-03 -2.0354009783964289e+00
    9.7042827944020370e-03 -1.9659259560992794e+00
    9.2339285670738139e-03 -1.7986923354612532e+00
    8.9591171475898058e-03 -1.6943930305379220e+00
    8.3543686190903008e-03 -1.4320780207890622e+00
    7.8529595972040601e-03 -1.0513149660756935e+00
    9.0564748108176597e-03 -5.7735026918962584e-01
    7.8450745495480066e-03 -1.0224747162910903e+00
    8.8104610755734940e-03 -1.6350747346085144e+00
    9.3504604193217471e-03 -1.8412614975714405e+00
    9.6562668431543919e-03 -1.9493588689617929e+00
    9.5636514552593227e-03 -1.9171136313021919e+00
    9.9630263853145613e-03 -2.0536288136729639e+00
    1.0195173807164032e-02 -2.1303665267886509e+00
    9.8039215686274508e-03 -2. 9.6562668431543919e-03
    -1.9493588689617929e+00 9.5636514552593227e-03
    -1.9171136313021919e+00 9.5636514552593227e-03
    -1.9171136313021919e+00 9.6094018255999409e-03
    -1.9330913339165214e+00 9.5636514552593227e-03
    -1.9171136313021919e+00 9.8556262272153933e-03
    -2.0175288189295513e+00 1.0320810901329710e-02
    -2.1712405933672376e+00 9.3911269033607782e-03
    -1.8559214542766738e+00 9.1605462240448091e-03
    -1.7714206260746650e+00 9.0233018171988182e-03
    -1.7193149670854246e+00 8.1782705808820088e-03
    -1.3381695237968187e+00 7.9198971311042043e-03
    -8.6953870585248250e-01 7.9783640886981737e-03
    -1.2037356818823370e+00 9.2339285670738139e-03
    -1.7986923354612532e+00 9.6562668431543919e-03
    -1.9493588689617929e+00 9.2339285670738139e-03
    -1.7986923354612532e+00 9.7042827944020370e-03
    -1.9659259560992794e+00 1.0257144595042877e-02
    -2.1505813167606567e+00 9.9086457366154759e-03
    -2.0354009783964289e+00 9.8039215686274508e-03 -2.
    9.3107226422484059e-03 -1.8268413717644894e+00
    9.3911269033607782e-03 -1.8559214542766738e+00
    9.0903932580735612e-03 -1.7449767391643707e+00
    9.1968226838483914e-03 -1.7849500025569087e+00
    9.5189811066204097e-03 -1.9014164760474268e+00
    9.7042827944020370e-03 -1.9659259560992794e+00
    9.7042827944020370e-03 -1.9659259560992794e+00
    9.8039215686274508e-03 -2. 9.6562668431543919e-03
    -1.9493588689617929e+00 9.3911269033607782e-03
    -1.8559214542766738e+00 8.5575643229800942e-03
    -1.5275252316519468e+00 7.8606247621301282e-03
    -1.0690449676496974e+00 8.3189033080770299e-03
    -1.4142135623730951e+00 9.5636514552593227e-03
    -1.9171136313021919e+00 1.0257144595042877e-02
    -2.1505813167606567e+00 9.8556262272153933e-03
    -2.0175288189295513e+00 1.0257144595042877e-02
    -2.1505813167606567e+00 9.9630263853145613e-03
    -2.0536288136729639e+00 9.5636514552593227e-03
    -1.9171136313021919e+00 9.5189811066204097e-03
    -1.9014164760474268e+00 9.1605462240448091e-03
    -1.7714206260746650e+00 9.0903932580735612e-03
    -1.7449767391643707e+00 8.8679807228754012e-03
    -1.6583123951777001e+00 8.7026673112389312e-03
    -1.5904124511289146e+00 9.0233018171988182e-03
    -1.7193149670854246e+00 9.3107226422484059e-03
    -1.8268413717644894e+00 9.7534877288076027e-03
    -1.9828027762021787e+00 9.9630263853145613e-03
    -2.0536288136729639e+00 1.0667062803959453e-02
    -2.2818625181469927e+00 9.9630263853145613e-03
    -2.0536288136729639e+00 9.3107226422484059e-03
    -1.8268413717644894e+00 8.0548745952644853e-03
    -1.2609234939336946e+00 8.6521824325669437e-03
    -1.5689290811054726e+00 9.7534877288076027e-03
    -1.9828027762021787e+00 1.0076068442263350e-02
    -2.0912040379547392e+00 1.0076068442263350e-02
    -2.0912040379547392e+00 1.0018816867123406e-02
    -2.0722252886833581e+00 9.6562668431543919e-03
    -1.9493588689617929e+00 9.3504604193217471e-03
    -1.8412614975714405e+00 9.0564748108176597e-03
    -1.7320508075688774e+00 8.9280697646382592e-03
    -1.6821971448205919e+00 8.8389072957679136e-03
    -1.6466147716407642e+00 8.7287438970814948e-03
    -1.6013608074520760e+00 8.7026673112389312e-03
    -1.5904124511289146e+00 8.7826276228369308e-03
    -1.6236882817719775e+00 9.0233018171988182e-03
    -1.7193149670854246e+00 9.6094018255999409e-03
    -1.9330913339165214e+00 1.0453502048126454e-02
    -2.2139646212761153e+00 1.0820105990911162e-02
    -2.3299294900428702e+00 1.0134835111857601e-02
    -2.1105794120443453e+00 9.5189811066204097e-03
    -1.9014164760474268e+00 8.2850269693176912e-03
    -1.3967174632441408e+00 8.6038440393132395e-03
    -1.5479749400731069e+00 9.8556262272153933e-03
    -2.0175288189295513e+00 1.0134835111857601e-02
    -2.1105794120443453e+00 1.0453502048126454e-02
    -2.2139646212761153e+00 1.0386239753985681e-02
    -2.1923621080704776e+00 9.8556262272153933e-03
    -2.0175288189295513e+00 9.3504604193217471e-03
    -1.8412614975714405e+00 8.9908553314000175e-03
    -1.7067640370774368e+00 8.8389072957679136e-03
    -1.6466147716407642e+00 8.8104610755734940e-03
    -1.6350747346085144e+00 8.6277505602655180e-03
    -1.5583874449479591e+00 8.8104610755734940e-03
    -1.6350747346085144e+00 8.7553930298264783e-03
    -1.6124515496597096e+00 8.9280697646382592e-03
    -1.6821971448205919e+00 9.3911269033607782e-03
    -1.8559214542766738e+00 1.0076068442263350e-02
    -2.0912040379547392e+00 1.0257144595042877e-02
    -2.1505813167606567e+00 1.0076068442263350e-02
    -2.0912040379547392e+00 9.1968226838483914e-03
    -1.7849500025569087e+00 8.3727139244490004e-03
    -1.4411533842457842e+00 8.7026673112389312e-03
    -1.5904124511289146e+00 9.8556262272153933e-03
    -2.0175288189295513e+00 1.0522672835293128e-02
    -2.2360679774997898e+00 1.1067644421635719e-02
    -2.4067515098548675e+00 1.0522672835293128e-02
    -2.2360679774997898e+00 9.8556262272153933e-03
    -2.0175288189295513e+00 9.1605462240448091e-03
    -1.7714206260746650e+00 9.0564748108176597e-03
    -1.7320508075688774e+00 8.9280697646382592e-03
    -1.6821971448205919e+00 8.9908553314000175e-03
    -1.7067640370774368e+00 8.6277505602655180e-03
    -1.5583874449479591e+00 8.7287438970814948e-03
    -1.6013608074520760e+00 8.7287438970814948e-03
    -1.6013608074520760e+00 9.0233018171988182e-03
    -1.7193149670854246e+00 9.2718871322247133e-03
    -1.8126539343499315e+00 9.7534877288076027e-03
    -1.9828027762021787e+00 9.7534877288076027e-03
    -1.9828027762021787e+00 9.5636514552593227e-03
    -1.9171136313021919e+00 9.4327497145561563e-03
    -1.8708286933869711e+00 8.6521824325669437e-03
    -1.5689290811054726e+00 8.3017697628211869e-03
    -1.4054204394309366e+00 1.0076068442263350e-02
    -2.0912040379547392e+00 1.0900114397395522e-02
    -2.3548788812706576e+00 1.0742455869201244e-02
    -2.3055995909273168e+00 1.0386239753985681e-02
    -2.1923621080704776e+00 9.5189811066204097e-03
    -1.9014164760474268e+00 9.2339285670738139e-03
    -1.7986923354612532e+00 9.1250768822650416e-03
    -1.7580981459830647e+00 9.0233018171988182e-03
    -1.7193149670854246e+00 8.9591171475898058e-03
    -1.6943930305379220e+00 8.7287438970814948e-03
    -1.6013608074520760e+00 8.7287438970814948e-03
    -1.6013608074520760e+00 8.9280697646382592e-03
    -1.6821971448205919e+00 8.9591171475898058e-03
    -1.6943930305379220e+00 9.2339285670738139e-03
    -1.7986923354612532e+00 9.1968226838483914e-03
    -1.7849500025569087e+00 9.3504604193217471e-03
    -1.8412614975714405e+00 9.5636514552593227e-03
    -1.9171136313021919e+00 9.2718871322247133e-03
    -1.8126539343499315e+00 8.4918273810009604e-03
    -1.4977460543240444e+00 8.0339792661964279e-03
    -1.2462710336687208e+00 9.9630263853145613e-03
    -2.0536288136729639e+00 1.0900114397395522e-02
    -2.3548788812706576e+00 1.0667062803959453e-02
    -2.2818625181469927e+00 1.0453502048126454e-02
    -2.2139646212761153e+00 9.8556262272153933e-03
    -2.0175288189295513e+00 9.4753577202648410e-03
    -1.8859909929043810e+00 9.0903932580735612e-03
    -1.7449767391643707e+00 8.9908553314000175e-03
    -1.7067640370774368e+00 8.9280697646382592e-03
    -1.6821971448205919e+00 8.9280697646382592e-03
    -1.6821971448205919e+00 8.7553930298264783e-03
    -1.6124515496597096e+00 8.8679807228754012e-03
    -1.6583123951777001e+00 9.0564748108176597e-03
    -1.7320508075688774e+00 9.3107226422484059e-03
    -1.8268413717644894e+00 9.4753577202648410e-03
    -1.8859909929043810e+00 9.7042827944020370e-03
    -1.9659259560992794e+00 9.5189811066204097e-03
    -1.9014164760474268e+00 9.3911269033607782e-03
    -1.8559214542766738e+00 8.1644460983469197e-03
    -1.3301243435223522e+00 7.8669685023008210e-03
    -1.0810525883578377e+00 8.9280697646382592e-03
    -1.6821971448205919e+00 1.0386239753985681e-02
    -2.1923621080704776e+00 1.0900114397395522e-02
    -2.3548788812706576e+00 1.0742455869201244e-02
    -2.3055995909273168e+00 1.0018816867123406e-02
    -2.0722252886833581e+00 1.0076068442263350e-02
    -2.0912040379547392e+00 9.9086457366154759e-03
    -2.0354009783964289e+00 9.3504604193217471e-03
    -1.8412614975714405e+00 8.9280697646382592e-03
    -1.6821971448205919e+00 8.8389072957679136e-03
    -1.6466147716407642e+00 9.0233018171988182e-03
    -1.7193149670854246e+00 8.9908553314000175e-03
    -1.7067640370774368e+00 9.4327497145561563e-03
    -1.8708286933869711e+00 9.7042827944020370e-03
    -1.9659259560992794e+00 9.6094018255999409e-03
    -1.9330913339165214e+00 1.0134835111857601e-02
    -2.1105794120443453e+00 9.9086457366154759e-03
    -2.0354009783964289e+00 9.0903932580735612e-03
    -1.7449767391643707e+00 7.9621060623888233e-03
    -1.1900031019078630e+00 7.8578237678815013e-03
    -9.4064698688014803e-01 8.7826276228369308e-03
    -1.6236882817719775e+00 9.6094018255999409e-03
    -1.9330913339165214e+00 1.0820105990911162e-02
    -2.3299294900428702e+00 1.0522672835293128e-02
    -2.2360679774997898e+00 1.0522672835293128e-02
    -2.2360679774997898e+00 1.0900114397395522e-02
    -2.3548788812706576e+00 1.0453502048126454e-02
    -2.2139646212761153e+00 9.7042827944020370e-03
    -1.9659259560992794e+00 9.3504604193217471e-03
    -1.8412614975714405e+00 9.5636514552593227e-03
    -1.9171136313021919e+00 9.7534877288076027e-03
    -1.9828027762021787e+00 9.7042827944020370e-03
    -1.9659259560992794e+00 1.0257144595042877e-02
    -2.1505813167606567e+00 1.0320810901329710e-02
    -2.1712405933672376e+00 1.0257144595042877e-02
    -2.1505813167606567e+00 1.0134835111857601e-02
    -2.1105794120443453e+00 9.5636514552593227e-03
    -1.9171136313021919e+00 8.6771508240578461e-03
    -1.5796029979295303e+00 7.8450745495480066e-03
    -9.7801929384365149e-01 8.6771508240578478e-03
    -6.3307046220522045e-01 8.1250037716785843e-03
    -1.3064328981211524e+00 9.2718871322247133e-03
    -1.8126539343499315e+00 9.7534877288076027e-03
    -1.9828027762021787e+00 1.0076068442263350e-02
    -2.0912040379547392e+00 1.0522672835293128e-02
    -2.2360679774997898e+00 1.0667062803959453e-02
    -2.2818625181469927e+00 1.0820105990911162e-02
    -2.3299294900428702e+00 1.0522672835293128e-02
    -2.2360679774997898e+00 9.9086457366154759e-03
    -2.0354009783964289e+00 1.0076068442263350e-02
    -2.0912040379547392e+00 1.0076068442263350e-02
    -2.0912040379547392e+00 1.0320810901329710e-02
    -2.1712405933672376e+00 1.0593831639627746e-02
    -2.2586931874989657e+00 1.0320810901329710e-02
    -2.1712405933672376e+00 1.0076068442263350e-02
    -2.0912040379547392e+00 9.5636514552593227e-03
    -1.9171136313021919e+00 9.2339285670738139e-03
    -1.7986923354612532e+00 8.1378172219538185e-03
    -1.3142574813455417e+00 8.6521824325669419e-03
    -6.3737743919909806e-01 9.8039215686274508e-03
    -5.0000000000000000e-01 7.9198971311042043e-03
    -8.6953870585248250e-01 8.1924413901640538e-03
    -1.3462912017836262e+00 8.8679807228754012e-03
    -1.6583123951777001e+00 9.5636514552593227e-03
    -1.9171136313021919e+00 9.6094018255999409e-03
    -1.9330913339165214e+00 1.0453502048126454e-02
    -2.2139646212761153e+00 1.0667062803959453e-02
    -2.2818625181469927e+00 1.0522672835293128e-02
    -2.2360679774997898e+00 1.0076068442263350e-02
    -2.0912040379547392e+00 1.0076068442263350e-02
    -2.0912040379547392e+00 1.0386239753985681e-02
    -2.1923621080704776e+00 1.0257144595042877e-02
    -2.1505813167606567e+00 1.0982588894337331e-02
    -2.3804761428476167e+00 1.0320810901329710e-02
    -2.1712405933672376e+00 1.0320810901329710e-02
    -2.1712405933672376e+00 9.2339285670738139e-03
    -1.7986923354612532e+00 8.3914770770377786e-03
    -1.4503269548146962e+00 7.8920046264698458e-03
    -8.9442719099991586e-01 9.5189811066204097e-03
    -5.2592370614077766e-01 1.0900114397395523e-02
    -4.2465029006520061e-01 9.1968226838483897e-03
    -5.6023978182443102e-01 7.9023833200707223e-03
    -8.8440839990458175e-01 8.1125185259862363e-03
    -1.2986790073682968e+00 8.7826276228369308e-03
    -1.6236882817719775e+00 9.1250768822650416e-03
    -1.7580981459830647e+00 9.3911269033607782e-03
    -1.8559214542766738e+00 9.9630263853145613e-03
    -2.0536288136729639e+00 1.0320810901329710e-02
    -2.1712405933672376e+00 9.9630263853145613e-03
    -2.0536288136729639e+00 9.7042827944020370e-03
    -1.9659259560992794e+00 1.0076068442263350e-02
    -2.0912040379547392e+00 1.0018816867123406e-02
    -2.0722252886833581e+00 1.0195173807164032e-02
    -2.1303665267886509e+00 9.4753577202648410e-03
    -1.8859909929043810e+00 9.0564748108176597e-03
    -1.7320508075688774e+00 8.1378172219538185e-03
    -1.3142574813455417e+00 7.8442268065158707e-03
    -9.8346993586692733e-01 8.8104610755734922e-03
    -6.1159283966272660e-01 1.0742455869201244e-02
    -4.3372665571900021e-01 1.1972709380342795e-02
    -3.7314944235401715e-01 1.0667062803959456e-02
    -4.3823849686266769e-01 9.6562668431543919e-03
    -5.1298917604257710e-01 8.1782705808820088e-03
    -7.4728947432809356e-01 7.9137975764272048e-03
    -1.1435437497937311e+00 8.2370818728222817e-03
    -1.3711309200802091e+00 8.7287438970814948e-03
    -1.6013608074520760e+00 9.3911269033607782e-03
    -1.8559214542766738e+00 9.8039215686274508e-03 -2.
    9.7534877288076027e-03 -1.9828027762021787e+00
    9.9086457366154759e-03 -2.0354009783964289e+00
    9.5636514552593227e-03 -1.9171136313021919e+00
    9.6562668431543919e-03 -1.9493588689617929e+00
    9.3504604193217471e-03 -1.8412614975714405e+00
    8.6277505602655180e-03 -1.5583874449479591e+00
    7.9869139563009880e-03 -1.2106830405426248e+00
    7.9137975764272048e-03 -8.7447463219520616e-01
    9.0564748108176597e-03 -5.7735026918962584e-01
    1.0134835111857601e-02 -4.7380354147934284e-01
    1.3236910050028106e-02 -3.2816506165694681e-01
    1.6371656719154585e-02 -2.5512498387349231e-01
    1.2913982606611966e-02 -3.3845396081495527e-01
    1.0900114397395523e-02 -4.2465029006520061e-01
    1.0453502048126458e-02 -4.5167840099613071e-01
    9.4753577202648445e-03 -5.3022522576315356e-01
    7.8970653054494452e-03 -8.8940698002624374e-01
    7.9262606500349504e-03 -1.1565735331842664e+00
    8.2069634511436791e-03 -1.3544909262491713e+00
    8.3727139244490004e-03 -1.4411533842457842e+00
    8.4106654409576362e-03 -1.4596008983995230e+00
    8.4302866341178662e-03 -1.4689774459950382e+00
    8.3914770770377786e-03 -1.4503269548146962e+00
    8.4918273810009604e-03 -1.4977460543240444e+00
    8.0239811790805884e-03 -1.2390364270696941e+00
    7.8636727210354071e-03 -1.0750295915715489e+00
    9.2339285670738156e-03 -5.5595944914256934e-01
    9.5636514552593227e-03 -5.2161748978893552e-01
    1.0820105990911162e-02 -4.2919753763947605e-01
    1.2215861921203882e-02 -3.6342189215581550e-01
    1.5426589121171381e-02 -2.7317918235407651e-01</input_scale>
  <output_scale>
    1.0526315789473684e+00 0. 1.0526315789473684e+00 0.
    1.0526315789473684e+00 0. 1.0526315789473684e+00 0.
    1.0526315789473684e+00 0. 1.0526315789473684e+00 0.
    1.0526315789473684e+00 0. 1.0526315789473684e+00 0.</output_scale>
  <inv_output_scale>
    9.4999999999999996e-01 0. 9.4999999999999996e-01 0.
    9.4999999999999996e-01 0. 9.4999999999999996e-01 0.
    9.4999999999999996e-01 0. 9.4999999999999996e-01 0.
    9.4999999999999996e-01 0. 9.4999999999999996e-01 0.</inv_output_scale>
  <weights>
    <_>
      9.7641158374443080e+00 9.3616308637002016e-02
      2.1828700930928985e-01 -1.4118670430846275e-01
      2.4130406898641857e-01 5.4312677271908194e-01
      1.2486042553566262e-01 2.0785060845666178e-01
      4.6213260348888013e-01 -3.2304082823871087e-02
      1.3157938289526117e-01 7.1979556525799382e-01
      -2.5475009774051061e-01 3.1110601781802993e-01
      2.1948086629574962e-01 -2.0774520486176082e-01
      -2.0806062603393335e-02 -4.4604944238402844e-01
      -9.9327936483801435e-02 6.9262498401002778e-02
      -1.6944623296039625e+00 -2.0472179564466836e-01
      -1.3965104436887321e-01 -1.8609713103767031e-01
      -1.5940922666673180e-01 -1.6761634710353307e-01
      -1.9096618470468307e-01 -4.2335353044222382e-02
      -1.0286051100191182e-01 1.8991475151072618e-01
      5.2922070613423099e-02 -3.2481885464590671e-01
      -1.3204585016012120e-03 3.3134427876598527e-01
      -2.2920091322061786e-01 -6.1098017361862343e-02
      2.2771705911036985e-01 1.0549600981209613e-01
      -3.5656044965574382e-02 -1.0705503000519709e-01
      -3.0787482261258310e+00 1.8574547137428413e-04
      -1.0065074282241264e-01 -1.1473309592850525e-01
      -1.9828543181455652e-01 -2.0516846260580057e-01
      -1.0535297617914957e-01 1.1863977602687145e-01
      -1.3975256806869890e-01 -7.1110005842619645e-02
      2.0386436574452726e-02 -1.9956350963118438e-01
      2.2841774698577519e-01 1.9871066180766753e-01
      2.8698665446059168e-01 1.1947030561414735e-03
      2.5517075525130900e-01 -1.8108622094828369e-01
      8.6935210783793876e-02 4.3494291587031920e-02
      -7.5112490817073470e+00 1.5020373738274734e-01
      -4.5887692576255752e-02 -7.6405896885252567e-02
      2.0649098776692833e-02 -4.4415071472388927e-02
      2.6310115189862937e-01 -2.4635645906262035e-01
      2.0538793274557732e-01 -1.0595769311460483e-01
      -2.6748478851615842e-01 -1.9327260954104183e-01
      9.6906276585945222e-02 1.2078353941180511e-01
      3.4256177372380925e-01 5.5932948138990739e-02
      1.5079650548839035e-01 -2.4512433851033644e-01
      2.2766302107924305e-01 1.2636860404559111e-01
      2.6922225015361976e+00 -1.6739111352221064e-01
      2.1388396969961146e-01 -1.7395814352738129e-01
      -4.3818402765054346e-02 -7.5860940354576967e-02
      -3.5925338322862171e-01 2.3018416020343979e-01
      -2.3037194735071068e-01 9.0573145279127548e-02
      -1.0278953905307732e-01 4.9029038416183848e-02
      -5.8085896048054891e-02 -7.7594145827529562e-02
      -1.3009941103981959e-01 -1.3717638652294563e-02
      -2.3562145356576611e-01 -8.0090082508808183e-02
      -2.9837820226987161e-01 1.3865890003775663e-01
      1.4826154498027087e+00 -2.0690556566587029e-01
      1.0868624038829122e-01 -1.0908062737417812e-01
      3.0020945040772136e-02 -1.5585462839725220e-01
      -2.7386812173330921e-01 -2.3423460465613727e-01
      -8.4790481147372698e-01 2.9005070664579946e-01
      -1.6861543204612511e-01 4.4979500681518660e-02
      -2.3151704273288079e-01 -1.6222869302866388e-01
      -9.0744029528438075e-02 -7.3105790955111952e-02
      -4.1134812768713142e-01 2.1709811611562521e-01
      1.3656691755479362e-02 3.2595180010455749e-01
      -1.6684201720982734e+00 -9.6771897760437986e-02
      -1.3101502515542562e-01 -1.4503784600629546e-01
      1.5003331968197098e-01 -2.5681993143703791e-01
      2.7494179412173408e-01 -2.1263232494888701e-01
      -3.5359367586806767e-01 3.7258271570166379e-01
      -5.2031216819609948e-02 -1.4813989537371364e-02
      4.4190638605611898e-02 -7.5844726025658671e-02
      1.6182446539309434e-01 -9.9132922957726438e-02
      -3.1242369355324007e-01 1.9001846210724319e-01
      1.7869250909169962e-01 1.4163371672189479e-01
      1.3088162822080862e+00 5.8226258039964528e-02
      -2.6178232837971499e-01 -9.4086805583668952e-03
      7.0233761892849102e-03 -4.6432086229009439e-01
      4.6543863734816859e-01 -3.2552544186901256e-01
      -5.6539714627920727e-02 2.5278757817255104e-01
      -9.4396642838996694e-02 3.4455466408889279e-01
      -1.2669212674247193e-01 2.2733849335416184e-01
      2.3467417425730031e-01 -2.3482073097387046e-01
      -1.1990928794048399e-01 -1.0009784077801277e-01
      2.7260992876679191e-01 2.1837206549675447e-01
      1.1452929207590701e+00 2.0815459193840341e-01
      1.8426191859351818e-01 -2.1098278986812169e-01
      9.4412287176356760e-02 2.6154839330297092e-01
      -3.5325157502766408e-01 1.6850606016654124e-01
      -3.3063030971303303e-01 2.0830474312749914e-01
      8.7742497741348471e-02 1.8091402145589858e-01
      7.0797825265896175e-02 -3.7963179071797765e-01
      -1.2724196006392990e-01 2.4309293565589585e-02
      -2.6724836999655827e-01 -2.1019653018549694e-01
      -1.2695553540859728e-01 1.1543429545684623e-01
      1.0310852302984382e-01 7.4881398191347329e-02
      -5.2182797657837496e-02 -2.9122321983587085e-01
      5.2649363638640869e-03 -7.2714798639204703e-01
      2.8118017827352382e-01 -5.0034888477287189e-02
      -1.6813750311103798e-01 5.8478993009395130e-02
      -3.3204118685669548e-01 5.6553696360985717e-01
      -2.7542412719568904e-01 7.0928772809179391e-02
      -3.1210073719203318e-01 2.5485593977568239e-02
      -3.0744125893098856e-02 -2.1263229806939640e-01
      -6.1105693865974156e-02 3.4904837208644474e-01
      -1.3582510629136584e+00 -7.7497631161941527e-02
      -2.3824523920428095e-01 -1.3006182188929771e-01
      1.6230018887221956e-01 -4.4187199168994501e-01
      5.2309256693993855e-01 -3.8328631615901637e-01
      -2.5097182248030458e-01 1.7130531779805336e-01
      -1.8963683413250176e-01 3.3152691375834425e-01
      -3.4503442726247302e-01 1.9466934379601275e-01
      -1.1259405857987997e-01 -1.2971402779276281e-01
      -3.3410712003118306e-02 -1.1652935683858678e-02
      1.9492156759069676e-01 5.2610709712721082e-01
      1.9084583700141722e+00 -1.1702796065127062e-01
      -2.1166002122199756e-01 -3.0264914218760153e-01
      1.1738500849090529e-01 -3.8421133231168712e-02
      -8.1184380534918221e-02 -2.2352851963013237e-01
      -3.0596284831131176e-01 4.5499349012179016e-02
      4.7949757733759063e-02 1.0109592933914513e-01
      3.4626769032343341e-01 -1.4814612371804864e-01
      -3.7759570578699847e-01 -1.7401753203284989e-01
      -1.1512973771536429e-01 -1.0679250136500520e-02
      2.8030687420097361e-01 3.5171608055570014e-02
      2.1397687842657653e+00 -3.6576593681589761e-02
      -1.4220560812807173e-01 -6.7971512008453569e-02
      2.3132692871236111e-02 -3.6600247776451533e-01
      2.2174296630796289e-01 2.6587648665216925e-02
      -4.8750253655182575e-02 -2.9049042025291169e-02
      -8.6840897602132650e-02 4.0472356589716746e-01
      1.8680130922076568e-01 -1.8962119054849294e-01
      -3.0332528356939709e-01 -1.3171195163781851e-01
      -9.9755589921103033e-02 -1.7007663515703808e-01
      -5.1701285771879990e-02 1.1025538042036923e-01
      2.2194828315463204e+00 1.0899566459660451e-01
      8.2102517759020423e-03 1.1782176616460140e-01
      1.0211316692985353e-01 -4.4995730666747481e-02
      8.8284451157111671e-02 1.2443574410037941e-01
      -1.6792669653545075e-01 5.1360254347786072e-02
      1.9810210543040199e-01 -1.4053525026283367e-01
      2.1404779721049202e-01 -7.2533857450056702e-03
      1.2061896189432829e-01 3.0728681160689351e-02
      -2.2090234722515528e-01 -3.2406194913196816e-02
      2.4873213943263503e-01 -9.2273746817967170e-02
      -4.2477691186914462e-01 -1.9194927242737901e-03
      1.2176552831838616e-01 1.5459205556557262e-01
      -2.0273832368995017e-02 -3.3340039327497795e-02
      -7.7031400630805769e-02 2.7316365186977803e-01
      1.2976296089908021e-01 5.6430116640769246e-02
      9.0780201082016745e-02 2.4031326363368760e-01
      -1.4010171493027839e-02 -1.1538404184882101e-01
      1.0285752688793495e-01 1.5693575240902724e-01
      -3.2106512329561754e-01 -4.1323183435587224e-01
      1.1761367997510451e-01 2.3490245185864406e-01
      -2.9117114025629811e+00 1.6309054578623103e-01
      2.9036860211072107e-01 4.4730237031804909e-01
      -2.4566583122017616e-01 -1.8401434601302061e-01
      2.1493160637667019e-01 3.2030149669051000e-01
      3.8543245311258306e-01 -2.5173506385785727e-01
      1.0009469735982206e-01 2.1096265481913565e-01
      -1.2392539217122733e-01 -1.3395048297443954e-01
      3.2737494032802256e-01 3.7265546041249842e-01
      -4.0039772332231813e-02 -2.3193294973125189e-01
      -2.6289912690650324e-01 5.2170605206648832e-02
      -3.5196375029695917e+00 -2.8959427405578119e-02
      -7.1979813653909486e-02 1.5613076834749595e-01
      2.3639293565049860e-02 -1.3613728286918447e-01
      2.1344690126475196e-01 2.1043958080541048e-01
      2.1226189913559040e-01 3.0572396253004425e-01
      -2.1030957002179354e-01 1.6646145793690234e-01
      -2.6055384441847218e-01 -1.7341891930560061e-01
      1.1768001391210987e-01 1.7017312830034134e-01
      -3.0159291677343425e-01 -4.3523167549999450e-02
      -3.1496763995952592e-01 -4.7574799725060908e-02
      -2.6148533948037760e+00 2.2463476243153618e-01
      1.6361042773664131e-01 7.3622169964869241e-02
      7.0573114546949298e-02 4.7918831426462888e-01
      -2.6068054625024606e-01 6.6649889202341450e-01
      1.4406270047189162e-01 -4.8212722860543206e-02
      2.5429688382084153e-01 -8.3856827758541835e-02
      -1.3222488886875047e-01 1.3851772599623280e-01
      2.0908436325152244e-01 -5.5952564495739522e-02
      9.7619886153592333e-03 -1.9208369583255794e-01
      1.0845529253921998e-01 -3.5302225944514265e-01
      -8.1214730818147729e-01 -5.3407633120673231e-02
      3.2585418792774518e-02 1.4284980304243530e-01
      1.1415607036352138e-01 1.2024665695837249e-01
      -3.3342390466229416e-02 1.1446953166948902e-01
      1.2959008371882583e-01 -4.8008887037955195e-01
      8.2051606390951635e-03 1.3638164287264568e-03
      -1.5643658579013822e-01 1.4502942633501376e-01
      2.9276882232781687e-01 -1.1812822940407817e-01
      1.2004353450098343e-01 -1.5054334261095909e-01
      1.0884166697143020e-01 -1.1716263291298182e-01
      -6.1857947273815987e-02 -1.4293539123104798e-01
      -1.1258480882837486e-01 -5.9993262024999924e-02
      3.8270038615316143e-01 -9.9719926240012073e-03
      1.4676309333225926e-01 1.7871173247463293e-01
      1.7085318666869723e-01 -2.0828073534625272e-01
      1.0942358382716282e-01 2.8104547391784602e-02
      -4.3732744201729029e-01 2.1430681098949125e-01
      1.7902158308976809e-01 -2.5039609450150407e-01
      7.0043714962741796e-02 -1.6494749196101427e-01
      -1.4894887114374813e-01 -1.6319112654513065e-01
      -1.4693594811277932e+00 6.4503346647649229e-02
      -1.3670173697841737e-01 3.0155363717659139e-01
      1.0249601341217839e-01 4.1647365451952462e-01
      -3.2766944190305070e-01 4.4340415221383450e-01
      6.5998753277233757e-02 2.2158423127632193e-01
      1.8857176735077463e-01 -3.1982452775858311e-01
      2.1141509354106677e-01 2.3092082956206192e-01
      3.0499425306292532e-01 1.8175112585694367e-01
      6.2956164035866971e-02 -2.2978700328045065e-01
      1.1046546515742753e-01 -1.6534891807500168e-01
      6.9988608244933437e-01 -9.5274668437519555e-02
      1.6414123488549683e-02 -1.9305186806584901e-01
      -2.6567304926903645e-01 -6.5935339041073196e-02
      -1.0840907599446077e-01 2.7023680339643741e-01
      -5.6241653012116377e-01 3.7010235909724787e-01
      -1.5977318094725598e-01 3.3668835456974161e-02
      -1.9805303484585496e-01 2.5282672028225728e-01
      -1.7195774950081194e-01 -2.9539065588525976e-01
      5.6957469848367900e-02 -2.7226776606017805e-01
      3.4350825638605906e-02 1.0926578144237327e-01
      -5.0834312498674148e+00 2.6652395995657618e-01
      4.6980840215567587e-02 -2.1087328287303014e-01
      -9.6453765237714227e-03 -2.1314898763797921e-01
      3.2123461954459159e-01 -6.0093526557303184e-02
      2.1514303018219563e-01 4.0339078261412267e-02
      1.3339116327062070e-02 -1.8782733705110208e-01
      2.4462994314555192e-01 2.7393839705789802e-01
      3.3560380865560396e-01 1.3553977432776262e-01
      8.2603600688812992e-02 -2.0859057808074274e-01
      1.4754532303107593e-01 1.1893283232840693e-01
      1.9776407468930783e+00 -1.4780389416835066e-01
      -1.0995633186816711e-01 -2.1548369497543804e-01
      -2.6082410470590922e-03 -3.2488901363538847e-01
      1.1873997497805006e-01 -2.6970819211298275e-01
      -7.1745633879569060e-02 -2.0192564122267639e-01
      -4.9002922404038605e-03 -1.6165650560279424e-01
      -4.7321774002759796e-02 1.3315077352280175e-01
      -3.2614740159401961e-01 1.5278662295044121e-01
      -1.1059491784864024e-02 2.9548543075845884e-01
      2.2780022009973119e-01 -3.1292997738175158e-04
      -2.1155822999414702e+00 -1.9516752753044070e-01
      -7.1898417838348730e-02 -7.4979495477324964e-02
      1.5933588331003154e-01 -6.6809435663370809e-01
      2.7227576391320663e-01 -5.2562279446965965e-01
      -3.9985949863812396e-02 5.3717354081938018e-01
      -2.9202526951770585e-01 -3.1099055120530661e-01
      -1.7235728117422852e-01 3.9880036501286409e-01
      -8.3584986700833863e-02 1.9504908178105806e-01
      -9.0025043458851622e-02 2.3250193671953520e-01
      2.2159215991957351e-01 1.4343891565257352e-01
      1.8553940129631807e+00 -1.8731205733594505e-01
      -6.9056142552740590e-02 1.8583297560416084e-01
      -6.8183036025129609e-02 1.7396437247484679e-02
      1.9020155633163074e-01 -1.1537684633168711e-01
      4.7324432996945248e-02 -2.0552118192796301e-02
      -1.2296344372827503e-01 -9.8297264421628186e-02
      -1.0923868925070047e-01 1.8429788962100513e-01
      2.5190322658072345e-01 6.2182440346627108e-02
      -3.4631997857387471e-02 7.6963172360047877e-02
      8.8353931355450693e-02 1.3375397735505104e-01
      -6.3797491055436528e-01 -2.4757377188097535e-01
      -2.0821270279665366e-01 -5.4024302133157467e-02
      5.5194935234415432e-02 -4.1187838417387107e-01
      6.1729940857751753e-01 -1.5232879047467779e-01
      -6.9981869547830489e-01 6.5100903111780684e-01
      -3.8231069222501607e-01 2.8828145556678286e-01
      -3.9240650430697771e-01 3.2750316804493429e-01
      -6.2523393652119660e-02 -2.1495701244113827e-01
      -3.8921871023438900e-02 2.0752804329566990e-01
      2.9899209361781648e-01 3.2221734731430485e-01
      -1.5271562161423149e+00 1.6967818796445228e-02
      -3.2304368482253543e-01 -1.3591975041259733e-02
      6.6990200952651388e-02 -2.5769919786445916e-01
      4.2859722329824540e-01 -4.0724108624972039e-01
      3.8984652026375431e-02 5.0267334533675501e-01
      8.9158789060555035e-02 -1.2085054335594815e-01
      1.4342127258283191e-01 4.4927653604379519e-01
      -1.3558054235843199e-02 -1.7028428555893532e-01
      -1.0920933857937912e-01 9.9111024923371469e-02
      2.3256092725594990e-01 5.3813438345192970e-02
      1.0915846576250137e+00 -2.0024028615782584e-02
      7.1240296531392466e-02 8.7791262127701442e-02
      -4.0578171923177725e-02 -1.4259842516421165e-01
      9.7031839429343059e-03 -2.0358167172266886e-01
      7.3085132957195167e-02 2.1378324079810335e-01
      -1.0662951723598303e-01 1.9038196349242761e-01
      -1.0431614878618625e-01 -2.2467836954988427e-01
      -2.6093111084580067e-02 -8.3192175675125324e-02
      -2.6299868067716081e-01 1.1151249287930831e-01
      -2.4397333874500776e-01 1.3071943990680415e-01
      1.4462695740606954e-01 4.4747782015988211e-02
      -3.4121021186555203e-02 -2.5544120664962932e-02
      -2.3398708137376305e-02 -1.6404006886724223e-01
      -1.1895943299659534e-01 -3.1053212987002266e-01
      -3.2292346509721126e-02 2.6647689192578050e-01
      -1.8163296694560310e-01 -6.0457933169649224e-02
      1.5142615826460348e-01 -1.5510124891146962e-01
      -1.0097668341692441e-01 9.9435490462047332e-02
      -1.2353982814721833e-01 1.0703594187211739e-01
      1.6048959955111533e-01 1.0893023905739831e-01
      -3.5850938027947921e-01 3.2949987166542939e-02
      2.7434771631575355e-01 -1.3677957884281658e-01
      -2.3151779138250086e-02 2.3220509455395520e-02
      1.3976392497126711e-01 -7.9926129739252116e-02
      8.8822938358782480e-02 7.1243912255781236e-02
      -2.2274896151012552e-01 1.4461884764439661e-01
      -7.9249584262785833e-02 -2.4833672801633430e-01
      1.9469470602626063e-01 -3.1722802315805403e-03
      -3.5559871483374937e-02 -5.4585847252767175e-02
      5.4128798996419231e-02 2.8896383277200788e-01
      -7.8475943152694605e-01 4.4549127249847893e-02
      7.4105687300122250e-02 -3.1391504700731265e-01
      2.4021039387091690e-02 -3.3291687062946218e-01
      3.9484757618448496e-01 -7.8068431404335725e-02
      -2.8314326392672567e-01 2.4635669061484156e-01
      -2.8932966764982554e-01 2.5464375248959742e-01
      -1.3638227473272313e-01 -1.5097906594165347e-01
      -2.0586512643613702e-01 -1.0632784031772168e-01
      -3.1375837312049493e-01 -4.2982853587816797e-02
      -1.0722854439963023e-01 2.2410858787609486e-01
      1.9730046029942043e+00 -4.1465071810109231e-03
      -1.5194023173362997e-01 -7.5437296973322215e-02
      6.6099686446898120e-02 -3.9807836728908980e-01
      2.7696919669111814e-01 -2.0060702867928781e-01
      -2.1721632314048817e-01 7.0676056964235914e-02
      -1.6499148787022749e-01 2.5364156069790506e-01
      3.7971921258289160e-02 -2.5430373814590074e-01
      -2.3809252216237531e-01 -2.0146010178492607e-01
      -2.7835747918410431e-01 4.0247205179970248e-02
      -1.5414191010203637e-01 1.1660888614494631e-01
      9.7177005362442681e-01 1.6460900667312874e-03
      -9.9424924364869480e-02 -5.0170007698739066e-03
      2.4252440894187238e-02 -7.2375939389280874e-01
      5.2027236451281678e-01 -4.6463706808084687e-01
      -2.3960327344793453e-01 4.9815938757806261e-01
      -3.3540633318196134e-01 4.1363711075241455e-01
      7.4661242162600366e-02 4.0738465949981831e-02
      -2.3951037974624226e-01 -1.9770476995509698e-01
      -4.5583388348974069e-01 -8.6598908338977307e-02
      1.4081617270167013e-02 3.5790811082035223e-01
      -1.3141079909462992e+00 6.7569448945352481e-02
      3.6856201750298405e-02 9.5704720314695721e-02
      1.5174506889998693e-01 -2.1287221666087783e-01
      4.4323238871422249e-01 3.2632802635104380e-01
      -3.6259005599738114e-01 2.8508672008699104e-01
      1.1407854143428975e-01 8.5013795462070538e-02
      1.4224977722920312e-01 7.5186876593046501e-02
      -2.6804931662599163e-01 1.5401573422168174e-01
      -4.5184980822350290e-01 -1.2805756245539491e-02
      1.9414358161419804e-01 2.9730702511434552e-02
      -1.6852167526521116e+00 5.6959712467267574e-02
      5.4732471110818651e-02 1.3309689173137354e-01
      -2.1899607308204744e-02 4.3514256753153974e-01
      -2.0987857068637261e-01 2.7548973784819258e-01
      -1.5187037750871343e-01 -1.0565502212355501e-01
      1.9805528235492215e-01 -3.1689418430845301e-01
      2.8361125912451834e-01 -2.0827763775839533e-01
      -1.2233712602130353e-01 1.9527160303114696e-01
      -9.3996323348588748e-03 -1.1095565197349170e-02
      3.3119193311920903e-01 -2.2447102753339387e-01
      -2.6754636973338806e+00 6.9468587121944703e-02
      1.6347799797080891e-02 -1.8313450492558815e-02
      4.6767633533349708e-02 2.2794876952906376e-01
      -3.3905258586043700e-02 2.0891298595254032e-01
      -8.9557587042745398e-02 6.4544825034226858e-02
      3.1010125356933267e-02 5.1291652084905826e-01
      -2.3912324669747861e-01 -2.7887402674125555e-01
      1.8850964074337653e-01 9.9279992420919894e-02
      -5.5439979054163417e-02 -3.1732521405262137e-01
      -2.4337200950881810e-04 -2.0016308634864535e-01
      -5.3309650215943885e+00 5.9195002552799275e-02
      1.3866567631952342e-01 -4.5761136911994299e-03
      1.3548607937034426e-01 2.2056979588976452e-01
      -1.4609124123138706e-01 1.7365367033072168e-01
      -1.2387439979950837e-01 2.5026140221098236e-01
      -2.5882052997268153e-02 1.7113767891491186e-01
      -2.1707047547887459e-01 -3.2449521868125236e-01
      -1.4718917239394971e-01 3.1654961342615556e-02
      -1.7504769365660888e-01 6.5987510450693621e-02
      7.6098193657937524e-03 -1.9359004236031130e-01
      -1.3683758597454709e-01 -1.8050277352951272e-01
      1.6326108718577759e-01 1.6227495663682964e-02
      1.9485048937739372e-01 3.4116471132912482e-02
      2.8670523014172089e-01 3.2937737718558452e-01
      -1.4098695958237387e-01 -7.6614686017617034e-02
      2.1112519485680897e-01 -4.4983125993764653e-02
      -2.2314244601388966e-01 2.6957941236273708e-01
      -1.2044953466830964e-01 -2.0139325277511011e-01
      2.1090899446576807e-02 1.9160491361405063e-01
      -2.8655287245848121e-02 -1.3167488209387129e-01
      1.2587626033414199e+00 2.1583034937007237e-01
      -2.1212777604465566e-01 1.2415514105795016e-01
      2.5426018985095383e-01 1.5837828019184363e-01
      -5.6098861013569919e-03 3.5588223742354408e-01
      -4.3282551667324748e-01 -3.0789042605860430e-02
      1.1746529316968753e-01 -2.6949057384096392e-01
      -4.4115078569724589e-02 2.1800642960886821e-01
      -2.5326346162477226e-02 -2.9136195647720114e-01
      2.1859446092735099e-01 -1.4258981322407965e-01
      6.9963130288652448e-02 -3.9289796516776859e-01
      1.5550238746062948e+00 -1.4286382936526587e-01
      2.2129666091320294e-01 1.6914870081165205e-02
      -1.3755599276531338e-01 -2.3028569628686169e-01
      1.2906008810993808e-01 -2.8363492562258164e-01
      -1.9334952016596413e-01 1.5634827609299967e-01
      -2.6618097392032114e-01 -8.0090211818904994e-02
      -9.6047089270873437e-02 2.3467564437229768e-01
      -1.0284276880809171e-01 -1.6041569235912875e-02
      1.3956586807998014e-01 -7.7894604316948710e-02
      -1.1899778014733740e-01 2.1895741114213396e-01
      -5.9167929085975311e-02 5.8318112374028321e-02
      1.6139076005907388e-01 -2.5852387197625389e-02
      -2.3865618302448613e-01 -2.5105727437810164e-02
      9.2016867871561783e-02 1.7760978343491263e-02
      3.1976482186054139e-01 2.2975921024672801e-03
      -2.6691601178385555e-02 -2.5893566864538414e-01
      -6.7773194292551991e-02 2.9230073589996930e-01
      2.7104516644990506e-01 -3.7559883189650853e-02
      -8.4639656175049219e-02 -1.6190350411137561e-01
      -4.1575802821298469e-01 -5.7651963927210594e-02
      -1.0643870881731361e+00 2.3194548897942330e-01
      3.5394173977213887e-02 -1.7202311894455696e-01
      3.5095992563459140e-02 4.1117986643794707e-01
      -1.8289090347876430e-01 8.1180399220671107e-02
      1.4960146315804890e-01 -5.2340250938720945e-01
      6.0289395341593402e-02 -1.1273465331250926e-01
      1.7920243859545720e-01 1.3803342765991314e-01
      3.1502627565688612e-01 -2.1373561687260548e-03
      -1.3572879228876930e-01 -3.4103747235673004e-01
      9.9662635197092869e-02 1.0325359921249443e-01
      4.4919859965303449e-01 2.3978561798261996e-01
      -1.9940784416123417e-02 -3.0859275429899097e-01
      1.3294803280637538e-01 2.9357983540488958e-01
      -1.5219695269804637e-01 2.3129470304115235e-01
      2.8895482644749653e-02 9.1881156708852867e-03
      -9.6893627402976926e-02 -2.7847249655226675e-01
      -2.5993142868295482e-01 3.0732160476718495e-01
      6.4603494665182698e-02 -1.3382764246291853e-01
      -2.2316713874317995e-01 6.7778151842733270e-03
      -1.2576457967316015e-01 -4.9558446261796847e-02
      1.1755015083960307e+00 -1.1183180538351134e-01
      -8.6235859074552848e-02 1.1160146775234031e-01
      2.0924808986397501e-02 3.9658545539849432e-01
      -3.5885950313699749e-01 -1.0130886926747942e-01
      -1.9049824832571155e-01 4.7242096207021061e-01
      1.0068864190428970e-02 -3.9348809718485706e-01
      2.0403929243484689e-01 1.7583322966329759e-01
      4.2257843453039255e-02 4.9851864562081821e-02
      -2.1482944838221654e-01 -1.6166789095573439e-02
      1.8564698287818640e-01 -4.5795180515495831e-02
      2.2550404691780410e+00 -5.6335996282562417e-01
      -1.4842957242999333e-01 5.8689457465941161e-02
      -8.9278638108640493e-02 9.9964861661262908e-02
      -3.2934570456047275e-03 2.4861150691971820e-01
      -2.7402576742691725e-01 6.4053664486196216e-01
      -1.1881538455089764e-01 -5.0938185495888362e-02
      -1.8142603943013308e-01 -3.7720710599234888e-02
      1.6352687148232070e-01 4.6426647780802632e-02
      -4.0980876782625031e-01 6.5290974787089312e-02
      2.1954031870070889e-01 1.9975825402900485e-01
      2.5648816101475265e+00 -2.8137946364449606e-01
      -2.6392537474731570e-01 7.1971855910632723e-02
      1.5592753939329559e-01 1.3378542123511000e-01
      -7.2655608667169844e-02 9.6862608714326365e-02
      -2.5692462367047353e-01 5.0386322350342572e-01
      -4.7384088772324431e-02 4.1716392396972923e-01
      -1.0945027282662545e-01 -2.8737327997432761e-02
      4.9429869511001971e-02 -9.8463823862733960e-02
      -4.0079032689528971e-01 8.0290059744387156e-04
      3.0603849731216792e-01 5.5740620905404797e-02
      2.2280302644560050e+00 -6.2430356860046020e-02
      3.5981523947844277e-02 1.7995601280574064e-01
      -4.9627743370720852e-03 -6.8357229151621263e-02
      -4.0721761120701572e-01 -1.9470904368399175e-01
      -1.4299760525325109e-01 3.9784987238841912e-01
      -1.8070695668410766e-01 -1.4572496075865074e-01
      4.5139562510538949e-04 1.1240147776559299e-01
      1.4797304283003038e-02 1.0185017578408762e-01
      -1.5344631255264346e-01 2.2861633787915409e-01
      3.3985012315537994e-02 -1.8401345657260475e-02
      -2.7599789043470659e+00 8.5361935600179323e-02
      -1.0724848525431594e-02 7.5202918181662026e-02
      -8.3487327837695441e-02 2.3698705920235180e-01
      -4.4197035862734668e-01 1.8650112646082997e-01
      -2.6138333971530225e-01 5.1784604167619919e-01
      4.0284950755799208e-02 -2.1660093936997291e-01
      4.4763904770538428e-03 -9.2897776601059107e-02
      1.6561142955957006e-01 1.9410287531690212e-01
      -1.5170764839939838e-01 1.8731661230847288e-01
      1.2465419626912454e-01 1.7990660843138376e-01
      -4.0659612887182286e+00 1.8901120370271068e-01
      3.0503923201312570e-02 3.7326940015684811e-04
      1.1718411585422328e-01 -1.6591777111977032e-01
      9.2502602414800975e-02 2.0051173593706707e-02
      1.7767510704451009e-01 2.6858965039983757e-01
      -8.5186202543552757e-03 -1.2537069634246428e-01
      -5.1440874787379499e-02 3.0011169070918431e-01
      2.2930320747451072e-01 1.2498032175746566e-01
      -8.9117078854008894e-02 9.3262437768176949e-03
      2.3300194381745132e-01 1.8800112790817117e-01
      -3.1955219083579585e+00 1.8178677384957737e-02
      2.7125826626048100e-01 8.8243040349238133e-02
      9.0501750212559851e-02 7.3279420818416693e-02
      1.5403115883302365e-01 1.3595088300621591e-01
      1.5860880677720379e-01 -2.2479729181747646e-01
      -2.4032325259349019e-01 2.0818934962852717e-01
      -1.2799765776040387e-01 -1.5897685443370177e-01
      1.1670705294798878e-01 1.8003398749305591e-01
      -2.6079800030808525e-01 6.4996382559717389e-02
      -1.0871939743829497e-01 3.5912366451511180e-01
      5.9023963842998506e-01 -1.4674363781617916e-01
      -2.9849329281535306e-03 2.9207913032701493e-02
      -6.6295868396144472e-03 1.1088400486442328e-01
      -4.6510464641750481e-02 9.7769689230133607e-03
      1.7353071481111712e-01 -4.4196773820679859e-02
      -6.4608931974678811e-03 -9.8271412572501202e-02
      3.0785973012548734e-01 1.0389215117986279e-01
      -1.1138685980098446e-01 1.8391979823185883e-01
      -4.0804891207787330e-03 1.9724048314917803e-01
      -3.4068770593518864e-02 -6.1400321329347543e-02
      -1.3256517994608543e+00 -1.3831105808020239e-01
      5.2357466577722431e-02 8.2973724736130541e-03
      4.8089616057293415e-02 1.3102003135244716e-01
      -1.5588058297079341e-01 -3.2603686208596140e-02
      -1.7399596681067356e-01 1.6254722324826570e-01
      -1.0074144869700276e-01 -1.6078103634990837e-01
      3.7953957283387474e-01 7.8982285411667560e-02
      8.5300210155232377e-03 2.7452266685934051e-01
      -2.3779328893430965e-01 1.4754943326768774e-01
      1.3831426307857672e-01 4.5928533303061111e-02
      -2.5902801527442509e+00 -1.1098430329939629e-01
      -1.7336380163209816e-01 -5.9353567863600312e-02
      1.2460383532764388e-01 -2.8314866328774529e-01
      3.1453778107588048e-01 8.8794691281974536e-02
      -1.9464871521620780e-01 -5.9140753843344142e-02
      -6.9623649578601954e-02 3.6047923772650275e-01
      -2.3473976042126341e-02 -1.1164336819576704e-02
      -2.1206382123830231e-01 -2.3094129981148768e-02
      -3.8821000095023978e-01 -3.4971758782605791e-02
      1.6530440199395298e-04 2.3077554405962114e-01
      -9.5989361010940877e-01 2.3325956550305682e-01
      -1.1529351559060588e-01 -1.0116771205041236e-02
      -3.2157972068495182e-02 -1.3152377911327975e-01
      2.9929065192274917e-01 -3.5838161851417150e-01
      -2.3076903305924654e-01 1.2446903503587478e-01
      -2.1096090697882616e-01 -2.4194541398285369e-01
      1.0222654086656735e-01 -2.1591388423458360e-01
      -2.4564782600429882e-01 -1.2471072082346168e-01
      -6.2793413693052094e-02 2.7685004191899032e-01
      1.4246488061785503e-01 -1.0447317287680052e-01
      -7.2055789803110204e-01 1.0439432003931726e-01
      -2.1545971857539842e-01 9.2272161576623962e-02
      7.0966603941814612e-03 -4.6754043383443861e-01
      4.9686879053713784e-01 4.0745589368146984e-02
      -1.1056316895421803e-01 -1.5752139172379107e-01
      1.2667722574346209e-02 -1.5644467856006158e-01
      -8.5877253449625102e-02 -8.2115320177272827e-02
      -1.0064285939681215e-01 2.5774663168329626e-01
      -1.4561436089250401e-01 4.4528025197508392e-01
      1.7023263365672056e-01 -2.2077134433696644e-01
      -1.8856842742113644e+00 1.1529058631629856e-01
      6.6308028783518540e-05 -4.3612193894030475e-02
      -5.8038668200036711e-02 1.7082649330320504e-01
      -2.1417537558280203e-01 2.7505674265899453e-02
      -2.1060102666224292e-01 -3.9205349418108143e-01
      2.6526164112477829e-01 -1.5713770696138538e-01
      -1.9691004236619326e-02 -8.6342438519356038e-02
      3.1539469632256664e-02 1.0828491828337060e-01
      1.3159561634926331e-01 6.2636705757284070e-02
      -5.5216066162794918e-02 -2.4211995342076997e-01
      -3.1533462685879163e+00 -5.8642042501775649e-03
      2.8188203356013013e-02 1.8334438768101219e-01
      5.7817939948401155e-02 1.1691349093924547e-01
      -1.9724669057123795e-01 -3.8947221162089757e-01
      3.3289005850994779e-01 -5.6979263305118977e-01
      2.2783257968170954e-02 -1.0130941400331690e-01
      1.3053674718716482e-01 -3.1575010682858101e-01
      3.6046548345768881e-01 1.9919824838880568e-01
      7.0108291614197460e-02 -1.2239738815173655e-01
      -1.6124885433441002e-01 -1.4003913415817218e-01
      3.4391727706350657e+00 3.0697910077274161e-02
      2.1208237725630036e-01 1.4182961243241116e-01
      -1.2683795497840736e-01 7.0158599207207550e-01
      -6.6793743135408334e-01 3.4914745129719810e-01
      7.6170447270790545e-02 -3.2540914734587328e-01
      1.1119125473365202e-01 7.7790632023694184e-02
      3.0040438282450488e-01 -4.4833974762010087e-01
      1.1489845844471157e-01 6.0521079890554497e-02
      1.2339883427312576e-01 2.1769476551971834e-01
      -1.1080785874163299e-01 -4.4079542012801071e-01
      3.7856815278881801e+00 -1.5548751627473144e-02
      6.8415716245442321e-02 1.7265015188568952e-01
      5.0108346924046566e-02 -7.6919860309823715e-02
      -1.0885103620330581e-01 5.3036558275287402e-02
      -1.6351951993136726e-01 -8.3448121359101998e-02
      -9.0662582791894319e-02 1.8516892169258189e-01
      -2.6932512364821953e-01 1.8177016131979215e-01
      2.0452954671266909e-02 -9.8124347070200610e-02
      2.4416016020851694e-01 -6.0402377123625971e-02
      -1.2676044479699908e-01 -3.4776230358259663e-01
      3.1251981129105237e+00 -9.7419247095678347e-04
      9.8935206211857113e-02 -1.2354521260378806e-02
      -6.6816413524315679e-02 -7.0310128340650424e-02
      3.1424756782649549e-01 -1.6909119854039006e-01
      -4.2689817159724648e-02 1.8025787738544508e-01
      2.1978943810946508e-01 -2.6179762065379291e-02
      1.7290024829504758e-01 7.5996199464455877e-02
      -9.0597201247246770e-03 -1.8009410637900591e-01
      3.6412287832853957e-01 -7.1539200275993239e-02
      -1.4673837938537340e-01 -1.0181461624326112e-01
      5.2469659652551712e+00 -2.3942872105904528e-01
      -3.6999084129803898e-02 -6.9544150164693841e-02
      -1.3505007575849534e-01 1.0574500223288532e-02
      -6.8952494836748285e-02 2.5101944674577326e-01
      1.6996150157237983e-01 -7.4246877031495706e-01
      8.7952927669451758e-02 8.7617262391858367e-02
      1.9077828812892977e-01 -1.2086416875575305e-01
      -2.0261642113553394e-01 1.2854387937023024e-01
      1.4956623671378702e-01 1.7935833349354255e-01
      -4.5034827788248410e-02 -4.0462605499068389e-02
      4.1236514995797071e+00 -1.1342914163846397e-01
      1.0871160885290693e-02 -6.7910311757938976e-02
      9.2318936536519403e-02 6.3591138292180882e-02
      1.6066967491098139e-02 -1.1520923428846798e-01
      -1.4421995589291778e-01 -2.9940696831703384e-01
      -1.5635430410619183e-02 -2.0325972609128398e-01
      2.0006248633707516e-01 3.2735813056632457e-01
      -3.4552310639020513e-02 -7.2255623125966395e-02
      8.9955552030942756e-02 1.3833510792599538e-01
      -4.2618523801907338e-02 -3.1903978139112082e-03
      -1.8587988087054186e+00 -6.3946549348465860e-03
      -2.4628317420184304e-01 2.1682292255316180e-02
      2.7054485023636921e-01 4.8175767423610277e-01
      -3.6937437639747162e-01 9.9032653165315121e-02
      -8.8146562508677626e-02 8.4098701512963253e-02
      1.3869579863313794e-01 -5.0277734603769098e-01
      -8.0245843747821038e-02 9.4486474764096315e-03
      -3.0759275016359632e-02 1.8368239462245184e-01
      -1.2147105972522906e-01 1.3876967501428669e-01
      2.0566462365612884e-01 -1.3027305628642605e-01
      -2.1101373323966377e+00 -2.8701526673243916e-01
      -3.8723020631974824e-02 1.3390864395358371e-01
      1.2599502955975816e-01 -1.8976841343487835e-01
      4.2714860785019938e-02 1.1291493827384935e-02
      -1.1568167057557022e-01 5.1508415943427366e-01
      -2.4432807324834627e-01 2.4133650400749725e-02
      -3.4153237642234446e-01 1.8010645794330465e-01
      1.8723512920063171e-01 1.4023073194338900e-01
      -3.4831658150997846e-01 1.7924059817319882e-01
      2.2207107760271422e-01 2.6724301297168268e-01
      -1.9344677383362130e+00 -2.3583306286801162e-01
      2.9431984468945901e-03 1.8160566339461254e-02
      2.7484278454127205e-02 1.7123451060166873e-02
      -1.8030714318488295e-01 3.0081840794042297e-01
      -3.4686515523254963e-01 5.8584115710452700e-01
      -1.5501802769206260e-01 1.3104605671921488e-01
      -2.5700890131594001e-01 -2.7184467548299851e-01
      -1.0130812282156697e-01 -2.7845529129179181e-01
      -4.5074788695948242e-01 -7.7336269210284178e-02
      1.2621985355789980e-01 4.3758079863686489e-02
      -2.6561788045708798e+00 8.7131408113196696e-02
      -1.8865699425238353e-01 1.4367218778512922e-01
      9.2481591077586411e-02 7.7296955316030563e-02
      -3.1909328202001541e-02 1.2246823337599425e-01
      -1.9632506252594193e-02 5.3914714594841151e-02
      2.2953737354152787e-01 1.5017006376425160e-01
      1.7794439516203456e-01 9.6764054086763210e-02
      1.2323973496755897e-01 2.4074573371306279e-02
      -4.0050271193728704e-01 1.5676543776826912e-01
      2.1774721033282804e-01 1.1675437438298690e-01
      3.4642443983213935e+00 -2.5544304368084303e-01
      6.1167541235826239e-02 1.0214730876739526e-01
      -8.0149358604595627e-02 -4.8983734079188899e-02
      -2.6974223399180580e-01 -1.5416493684690880e-01
      1.7075114604957581e-01 1.5010677162078526e-02
      -2.0010096726272752e-01 5.5430629726194676e-02
      1.2024155736937119e-01 2.4386476731803680e-01
      7.8902116952192389e-02 -2.1116457162732256e-02
      -2.5815008985286148e-01 4.0062761394383049e-02
      6.1734533484855365e-02 1.5064128414084596e-01
      -1.5837107910726220e+00 -2.1367353505715431e-01
      5.4137272967094384e-02 2.2337328779219907e-02
      -1.3477236022136516e-01 8.2296028651767772e-02
      -1.7425585186625853e-01 -2.4972621025636460e-01
      1.5364509634661114e-01 -2.0104417462515436e-01
      -1.8860085924167372e-01 7.8414008982666039e-02
      -3.8026517991747576e-02 2.1325573584966406e-01
      1.3672713451508559e-01 1.1461806997476537e-01
      -1.0989670221539853e-01 1.4627094449157188e-01
      6.0644944571426551e-02 2.3142790500254656e-01
      -2.3991093297709587e+00 -4.7220959486164241e-02
      1.5151435488521142e-01 1.5635194045157619e-01
      3.4684219871270447e-02 -1.3811546143805756e-01
      -4.6358191885407615e-02 -2.0240890039959838e-01
      2.2332509016042770e-01 -3.1962763751836082e-01
      -1.3803845328511835e-01 3.3987117944323915e-02
      3.7409829974401504e-01 2.8152274089364571e-01
      1.2985909743293100e-01 7.4651685968492421e-02
      2.7423126710550794e-02 1.4465918130111996e-01
      1.8584222379792048e-01 1.7289432736221111e-01
      -1.5581132974347323e+00 -1.7605360466447609e-01
      2.1463341545901880e-02 1.4596468548179656e-01
      3.7549121233340102e-02 -1.2454122656366338e-02
      -1.6716828020521837e-02 -1.9804873803351569e-01
      1.3685068066127573e-01 -4.8889566605668022e-01
      -5.2184377899664312e-02 8.2151708378958577e-02
      2.6420671477514795e-01 1.5334454207594250e-01
      7.9105476415541359e-02 2.2769791957002944e-01
      -1.0947072656157252e-02 1.8263994866840780e-01
      2.5161345389171252e-01 2.0149092060876223e-01
      -4.0904348309757674e+00 -1.0566775917414375e-01
      -1.4181886472385843e-01 2.2239639332073926e-02
      5.6553118711305347e-02 8.1180020632256392e-02
      -1.2566867784157307e-01 1.9019126564771432e-02
      -3.6754301249706219e-03 -2.6358384249053124e-01
      8.0029158546740906e-02 -1.3259335267390107e-01
      2.3438819337541006e-01 1.2466211799848373e-01
      -3.0790542984848174e-01 2.8870160182915766e-01
      -2.0383047654229949e-01 2.2092597749135856e-01
      2.2883392709921918e-01 7.4729529894295571e-02
      -6.9196523384662634e-01 -1.4588168845475008e-01
      6.9453457545063241e-02 1.9627537689954130e-01
      9.8300530905039707e-02 7.6627266549462600e-02
      -8.5514360352422821e-03 -2.6223185672354199e-01
      9.4437922117540998e-03 2.4764678212651436e-01
      -2.7801946718796960e-01 7.1629708236323933e-02
      3.6057960269029093e-01 -1.6031248947072360e-01
      -9.1080715901643017e-02 5.1980718776360824e-01
      -1.5663612791172610e-01 3.7910726262599009e-01
      2.1365618501003777e-01 -5.8515264093013240e-02
      -2.0491938612727125e+00 -3.1214492685084562e-02
      -2.9773714429951283e-02 2.1803174299955836e-02
      1.2865402145631604e-02 1.5341092556743613e-01
      -7.1609192872986324e-02 -2.2187911317462394e-02
      -2.4879891396128121e-02 4.3375040519565075e-03
      -2.7056952795048783e-01 -2.4711486703763061e-01
      2.0223907202216559e-01 2.0920946453029853e-02
      -1.6923618522080378e-01 -5.6865970721709597e-02
      -2.4406723822481080e-01 8.3587990072306786e-02
      8.4394112439059171e-02 -7.0562074889097021e-02
      -3.4248003352549747e+00 -5.4986552728357473e-02
      -9.9762943959664632e-02 1.4991832538542560e-01
      -1.9486032170308781e-02 -2.2825051774230382e-01
      6.8624720628545921e-01 -1.5306486177497819e-01
      -7.8907787449287989e-02 -7.4193424162255786e-02
      -2.5014076430309101e-01 -6.7016626847119495e-02
      1.6424805416292175e-02 -1.4439715517561438e-01
      1.4920745537552269e-01 -1.1153811292843666e-01
      -2.3745602785458828e-01 2.3188678679688549e-01
      6.3255385142173270e-02 2.6253357177728316e-02
      -3.5085531890912933e+00 2.6086994639016187e-01
      -3.9237208217953408e-02 4.1972436667783121e-03
      1.3308878439653362e-02 -5.2243995096441764e-01
      3.3950861329239196e-01 -2.6313189646788737e-01
      -2.5209654734097758e-01 2.2244856069328178e-01
      -4.0528209846927660e-01 -8.0579680988997371e-02
      -2.2392053407447671e-01 -1.1335466206229416e-01
      -3.5749349324076068e-01 -2.1649634602248166e-01
      -2.2680668634712250e-01 1.7152855719867802e-01
      -5.7187226240031336e-02 2.0923430577296221e-02
      -5.9178937186443630e+00 1.8583153228267102e-01
      -3.7997515523826486e-01 1.9002973661477140e-02
      -2.3416006222621393e-02 -5.5415645881593367e-01
      3.0540181201363059e-01 -2.7157182456336704e-01
      -3.0488854343654681e-01 9.4786652386389766e-02
      -2.4560357719142947e-01 5.8368346168486601e-02
      -6.5775392326437288e-01 -3.1920732292511500e-01
      -2.0279769049319071e-01 1.5414986511977613e-01
      -3.2423368449887258e-01 2.3970553690963531e-01
      -5.8101562660094884e-02 9.0196579229017679e-02
      5.0854213613838828e-01 -5.2980278522302224e-03
      -1.6157752036247663e-01 -5.1034802813571770e-02
      -5.9149409879941918e-02 3.3945515714290181e-01
      -3.1578935109961231e-01 8.5414419240980949e-02
      -3.9909588049846074e-02 -8.3481227620783860e-03
      -8.1477739334270230e-02 -1.3913950343173867e-01
      4.6635520138885696e-03 4.7056262288473975e-02
      -6.8608457508537602e-03 -9.2713008703890348e-02
      7.9898317918444095e-02 -1.7744625201605765e-01
      1.1428247858963041e-01 -3.2651848170633546e-01
      2.3069867900460364e+00 -9.8164021439290206e-02
      -8.8838286798055763e-02 -1.2846192279341140e-01
      -2.9925019206839175e-02 -1.1896345767830761e-01
      2.0463395826303906e-02 -1.3844530465769755e-01
      -7.5893493410406396e-02 -9.7376275179003213e-02
      -7.5541298661583642e-02 1.7210565845338019e-01
      -5.5470800040416234e-02 -2.4461569162361496e-01
      -9.1381232783289579e-02 -8.0951482181500445e-02
      1.8577440187727967e-01 -1.8316902534969513e-02
      -7.7809753634054471e-02 -3.1526366799629876e-02
      2.7648808396149716e+00 3.0822972592003767e-01
      1.2422298005046446e-01 8.2181659528853146e-02
      1.3040331874531713e-01 3.8097546664943255e-01
      1.1852257663690528e-01 1.8246879278992381e-01
      2.2793279502237981e-01 -3.0739819621354678e-02
      -4.6788073427141724e-02 1.0669149035299068e-01
      -1.0787502251410896e-02 9.0520719861111668e-02
      9.6861284078554349e-02 1.2632368317747647e-02
      9.0687693425092017e-02 5.1390092366305491e-02
      -1.6338811180242094e-01 -3.4884754905706161e-01
      5.2856158447114199e+00 2.7393505424314280e-02
      -3.4273218982291298e-01 -6.8303180733959773e-02
      -1.7767703814225808e-02 5.2726875922024664e-02
      -3.5979163055416249e-02 -6.9391693195855822e-02
      -6.4819471365839432e-02 -2.3440303332256174e-01
      1.0297150141617303e-01 -5.6747838020180963e-02
      2.5848966560759862e-01 6.6885827089362998e-02
      -3.0650648256188895e-01 -1.8119485415593362e-01
      2.5182297655450842e-01 -9.4630259677249320e-02
      -1.6981511160820564e-01 2.5536937698754304e-02
      1.4260622169802208e+00 1.2862859470424931e-01
      9.2736930604196521e-02 -1.6525709583574530e-01
      8.9419023214691459e-02 -3.4598839553153182e-01
      6.1682478937078178e-01 8.2968981663659944e-02
      1.5864409601372823e-02 -3.5230178612347735e-01
      5.9000188933047919e-02 -1.0691452989588438e-02
      -3.1741888283687114e-01 2.9453536279778447e-01
      4.6654654877162534e-02 -1.4016573352839137e-01
      1.2985420059791980e-01 8.5773089803414040e-02
      -1.1598919007866083e-01 4.2563637053782626e-02
      -7.3937769408048792e-01 -8.6747178759645233e-04
      -1.4728994208968982e-01 3.3622494473313315e-02
      8.7764546911974037e-02 -9.5255322525563388e-02
      2.6517652664968377e-01 6.6610335959737837e-02
      -4.0260058635776202e-01 2.3238994236156710e-01
      -2.9271270132266108e-01 8.4831761250796611e-02
      -3.9780124840919479e-01 2.1552459430182330e-02
      1.1066367022788691e-01 -1.7739850457334533e-01
      -1.5988036345047699e-01 5.5259432670381914e-02
      -1.2551879596043469e-01 1.5171176204230571e-01
      -3.5820006624954846e-02 -4.7891899080427257e-02
      -1.0753804772739670e-01 7.0184711310492823e-02
      1.7278515918093740e-01 1.5432016237082340e-02
      -3.1201330115133995e-02 -2.9710198908261355e-02
      -3.8011846971815491e-02 3.4230632831940289e-01
      -1.1841626156209352e-01 -1.4484415041830730e-02
      -1.5302192203793455e-01 7.1342073862929165e-02
      -2.6860010527126436e-02 -1.0684334981506584e-01
      -2.9163137225144231e-01 1.1495958698763971e-01
      1.7589655880154212e-01 2.3966143750611230e-01
      3.1848275822680643e+00 -2.7794379391328750e-01
      5.0477121651970172e-02 8.1566938165375899e-02
      -9.2942185277849462e-02 -1.4608665796143983e-01
      -1.5250544231837226e-01 -7.3313346025790399e-02
      -1.2078402115401281e-01 -2.6935977841452574e-01
      1.0718439976875088e-01 -1.6680742083758107e-01
      1.0653935824842313e-01 1.3831663557795348e-01
      -5.5249423045853292e-02 -6.3954329195265572e-02
      2.0069604563713761e-01 2.1221211170200360e-01
      2.1415888502324759e-01 6.1626890624882608e-02
      -2.4806511245768901e+00 6.5795131183331038e-02
      3.9868895337974490e-02 -1.6603259221100741e-01
      -1.9809428243365609e-01 -4.8932853540216821e-02
      -1.0493063039078970e-01 2.1848189703978269e-01
      1.9318275239434890e-01 6.4231304122569083e-02
      9.5163798257273099e-02 5.2216516813924446e-02
      -1.7466607732560574e-01 2.2422830626468913e-02
      -3.3905006789307202e-01 -4.1540677430475137e-01
      -1.0934808007259675e-01 1.4692267336846043e-02
      -9.5890069814750817e-02 1.6213044750993505e-01
      -7.6405126119733646e-01 -1.8637106684624188e-02
      -2.2333053131849454e-02 1.5451101590489734e-02
      8.5841835930834578e-03 1.0897658555745017e-01
      -3.6948073438244267e-01 7.8813905158778730e-02
      -9.8163796518561094e-02 1.3871645767195068e-02
      -8.4836244043525591e-02 1.0564702055879127e-01
      -8.6954798533305747e-02 1.7813677982450551e-02
      -8.2197224391692039e-02 -1.5907185603475257e-01
      -2.5742088380328426e-01 1.1267058710814036e-01
      -1.6751160561105524e-01 1.3911682451346419e-01
      1.6662484265443256e+00 -1.1160497832239533e-01
      -1.3826211652360590e-01 1.3725683388965204e-01
      -6.5426536047059863e-02 -8.6353656450498237e-02
      -2.9317603019405114e-01 -2.3515547954718546e-01
      -9.6382837831318364e-03 8.1571836040523676e-02
      -3.9469973340591491e-01 1.9767061311340875e-01
      3.6612931588780616e-02 1.5342689380016278e-01
      -8.5527318137159913e-03 -3.5928559888864883e-02
      -2.2274849835424243e-01 1.4024399759660999e-01
      -7.9692262434672034e-02 8.3526669848245097e-02
      3.1071203870071851e+00 -2.3400340308889333e-02
      -3.5773447017738276e-02 1.6526733311187961e-01
      -3.8758694500702490e-03 -6.6146481267054982e-02
      -9.9868000261824713e-02 -2.5719941944756991e-01
      1.8801526880010691e-01 -5.3659439479942887e-02
      -3.4990528517520803e-01 2.1258906873656006e-01
      1.7042971745285604e-01 2.7775795862986963e-01
      1.9237865001627041e-01 6.0298950894703773e-02
      -1.0619031417325421e-01 1.7638328954467469e-02
      2.9414498716283263e-02 1.5274971290604286e-03
      2.8757790248179669e+00 -2.8651254987859148e-01
      1.3444894466028553e-02 2.1458841037273571e-01
      -1.3475929831066566e-01 -1.4453235682874080e-01
      -2.8033279509317205e-01 -2.6226389024336877e-01
      2.0710301963258321e-01 -3.8835090996502945e-02
      -2.8832386688537165e-01 -6.9425600818912520e-03
      1.8090127511979892e-01 2.4738506314341030e-01
      1.2977154238966748e-01 3.9729563390704235e-02
      -1.1359614748297832e-01 6.5188060337851433e-02
      2.7864417489189455e-02 -5.4307613747557160e-02
      -3.6976433300389155e+00 9.2434887867950760e-02
      -1.3333311992275627e-02 2.7196668692254369e-02
      -1.8484013100412344e-03 7.8773643091488363e-02
      1.8296477299668221e-01 -2.8969936263327728e-01
      2.2031730532017904e-01 -2.2603271365700012e-01
      -1.8136724118832365e-01 8.5639097569543035e-02
      1.1950420982531282e-01 2.7295431170434892e-01
      -6.8418096210313806e-02 -2.3998440209142251e-02
      6.1832417836604252e-02 8.4813338170430061e-02
      1.0420519207007889e-01 -4.5449839382139756e-02
      -5.6270091446585653e+00 1.6374017367956786e-01
      1.1694397902695106e-01 1.5639620974422244e-01
      -2.6859734777537222e-02 8.7957863940494374e-02
      3.0219533293500946e-02 -5.4078360604786581e-02
      5.2159654658651210e-02 -2.2971659414842194e-01
      -1.8483002714690486e-01 3.4781251893694592e-01
      -3.7604853510325227e-02 1.2836699154411499e-01
      -8.5178710910940453e-02 1.0152174860056286e-01
      -2.4499807510258370e-01 1.1450122932685855e-01
      1.8533609730235232e-01 8.8566453563596437e-02
      -3.5705481708003486e+00 1.5305797970728680e-01
      4.3791406718440667e-01 -1.2313444587773640e-02
      1.4173569480333763e-02 2.5559635216564669e-01
      -1.3331066616873635e-02 1.0858801226789598e-01
      -1.7821390018379891e-02 -4.3112006015476455e-02
      -2.8560812932070073e-01 -4.8952028845577533e-02
      1.2854525382323226e-01 7.6519693958784468e-02
      -3.3054474925399790e-01 -4.0509572802227721e-03
      -1.0347381366804972e-01 3.3531853358822444e-02
      1.3699909085420853e-01 -9.6700524396024362e-02
      -5.1917902723949325e+00 4.2905586083956795e-02
      2.8520241891344996e-03 2.5378048855832627e-02
      1.7061303320084412e-01 9.8304092666454165e-02
      1.0843425647019242e-01 8.9323074175730405e-02
      1.0086815928997350e-01 -2.3873964231395192e-01
      5.9504880857369907e-02 5.3841251151156330e-02
      6.0046765289217659e-02 -4.8133744101053234e-02
      -1.0164201148035788e-01 -1.1346974763419529e-01
      -9.2492794048279287e-02 -1.0689030278814264e-02
      9.9288886568276807e-02 -5.5468404022086450e-02
      -2.4309431970048130e+00 -8.5318433204804849e-03
      2.5763438205817318e-02 1.6908757584843101e-01
      -4.5557401341590503e-02 -2.2402917481888904e-01
      2.3803693375655585e-01 -1.7600783893060556e-01
      9.8640352847337714e-02 -2.7174617357592107e-01
      -2.6906609371399970e-01 3.0746439454087265e-02
      -4.0236006684671304e-02 -3.2657771030213313e-02
      2.7266849961480782e-01 -4.4642977641005298e-02
      -1.5669894956932190e-01 1.1725404930212292e-01
      2.2451634330768111e-01 -2.3962480734614502e-01
      -3.1810739777654753e+00 -3.8059140238104895e-02
      -2.5660345934448342e-01 3.6348253067202234e-02
      -2.1402255727761990e-01 -5.5890580618575147e-01
      1.9399935472949814e-01 -4.6865477819545295e-02
      -1.5620922203672241e-01 1.2226611729687527e-01
      -2.9137183265856526e-01 8.5661863391816778e-02
      -3.9390913450607212e-01 2.1476731163698123e-02
      -3.8674347871913239e-01 -2.6566297745896494e-01
      -1.7359018639941248e-01 1.9739833361438250e-01
      5.2657687139262374e-02 -1.7562289981572604e-01
      5.7760228633149391e-01 -1.2219922669725926e-03
      -1.8480147773336858e-01 1.2083167465740084e-01
      -1.7001815201532566e-01 -3.0622772290377004e-01
      -8.0425511705459155e-02 -2.6595809463437370e-01
      -4.0684917641454160e-01 2.5932622698452235e-01
      -1.2397857488190320e-01 -1.2998412313796981e-01
      1.6118867584769123e-01 -1.7906702747194161e-01
      -1.4675087016075669e-01 -6.4667298429439302e-02
      9.3200978816067553e-04 2.5399836148752319e-01
      1.9897205639847507e-01 -7.5759490993596759e-02
      1.4637780567338132e+00 -5.6794663273205558e-02
      -3.1120348413565263e-01 -4.2581405454785677e-02
      -1.1043390484962269e-01 -5.4210230586919983e-01
      2.0979657463518672e-01 -4.6768536761709295e-01
      -3.2366759948990204e-01 2.6379360570319377e-01
      -3.3838222845762872e-01 6.1412522474503933e-02
      -3.5246803314887387e-01 -1.4628980774261202e-01
      8.7604761320701455e-02 -2.4925402182970791e-02
      -2.3473632097491784e-01 3.2562347187500784e-02
      -8.0326965356615904e-03 1.2131279856339022e-01
      1.3750600953074441e+00 -2.2171237667830057e-01
      6.6763690032353076e-03 -8.5371271436841964e-02
      -5.7231277354999166e-02 -2.1704162667259563e-01
      8.3568757794002579e-02 -1.0448166128766218e-01
      -8.0203393414897198e-02 -1.4775851871956813e-01
      -7.2722977265247610e-02 1.0754516944537501e-01
      -1.6815300769398192e-01 1.4341298906183781e-02
      7.0316916027360565e-02 -2.9974882363170324e-01
      -9.3342173212813698e-02 -1.1396552380759531e-01
      -1.1359011060720270e-01 4.2824399105160858e-02
      2.6282637387037626e+00 -2.0373156407699686e-02
      -1.5378097586824330e-01 -1.3910744196368427e-01
      -3.8650850862065489e-02 3.2057151996789206e-02
      -1.6693575026208926e-01 3.7509095122361058e-02
      1.5607580923049941e-01 -2.9137946132843155e-02
      2.2325503532211566e-02 1.7220511874331268e-02
      -1.5263578364497371e-01 -1.2607570787444058e-01
      -2.5511985631093137e-01 -2.1389092502141283e-01
      1.3999314261281484e-01 1.6974044690841897e-01
      -5.5130503015482266e-02 -8.4126438671443593e-02
      2.4017989926243053e+00 -3.9154981809672258e-02
      -1.2118193521943552e-01 1.1275859579454460e-01
      8.2492856390547875e-02 2.4577895861191926e-01
      -5.5401837810042431e-02 -1.1205818686195874e-01
      2.8391164328051816e-01 -1.8017834692032553e-01
      1.1414636839814460e-02 2.1563308764396116e-01
      -2.6984433839838652e-02 -5.4231376985186840e-02
      8.4595779428869061e-02 3.1754434018669030e-02
      -1.6162967153314564e-01 -1.2592165655591003e-01
      -7.5393647482643517e-02 1.0282361130140366e-02
      6.1085184954135601e+00 -2.9906207487650840e-03
      1.4315495809152853e-01 1.6973716675243760e-02
      2.5549380378971556e-02 -2.3291428782761242e-01
      2.1752515254435723e-01 -2.0493091374190534e-02
      -1.7680878706746759e-02 -2.8592760613060991e-01
      -1.5013818529143308e-01 -1.2423374362533002e-03
      -1.0405396117915520e-01 -1.0607649781240423e-01
      -8.9538815720974288e-02 -1.1431372038062280e-01
      1.4435321226433925e-01 -7.8997888411045603e-02
      -8.8656489169355604e-02 6.4673051901641366e-03
      3.3364454160256907e+00 -6.8464427588290119e-02
      -3.5821536635418968e-02 3.8854318872302611e-02
      1.6976196833997217e-02 -4.2587298691629172e-01
      5.1313397566374586e-01 7.1508684563219210e-02
      -1.2408345805732759e-01 4.4138333248565487e-01
      -1.2320547161015491e-01 1.0012109628533931e-01
      -2.0200081911641840e-01 -4.7484349681865941e-02
      -1.6755890259010350e-01 -1.9425078453274139e-01
      -1.7285164296558364e-01 2.3616565552107485e-01
      1.2520158778838458e-01 1.4069542785668498e-01
      1.7805975380135812e+00 -3.2013071565414447e-01
      -4.1225660301110363e-02 2.1592942931900411e-01
      -4.8562565558825009e-02 -3.7810057021926580e-01
      -7.6571744256380067e-02 -1.1018332744723325e-01
      -1.3563815543046309e-01 -1.7967693619839073e-01
      -6.2728520795296130e-02 1.1989580867858249e-01
      1.0348585524186428e-01 1.6078096814447249e-02
      -4.1194563481421323e-02 -4.7411276580381502e-02
      -2.0996686063139459e-02 1.5170533257883936e-01
      1.5173639926643429e-01 3.7645944607530996e-01
      -3.5031200099540755e-01 -3.6608861020116863e-03
      1.1609448202159516e-01 -2.8656524286745502e-02
      -1.0927119669646708e-01 -1.8871854887027059e-01
      -7.3015644969311691e-02 -3.2577260462047186e-01
      -1.1762490337845473e-02 -2.4410960735059863e-02
      -1.5107997714727675e-01 -3.2150508867814141e-02
      1.8184417734048674e-02 2.6081402555683414e-01
      -2.7780398685969526e-02 -8.8171054603313467e-02
      3.8751420393596726e-02 1.1860863031573006e-01
      -6.3318670628821225e-02 2.3008570000544767e-01
      -2.0749783363807692e+00 1.2117704264601951e-01
      2.1070151452896871e-01 -1.7360716248417987e-01
      -1.8352330710615680e-01 -4.0032159871579334e-02
      -1.2956535133213393e-01 -5.1180722879105849e-02
      -3.6289666867851962e-02 2.7260438807421050e-01
      -1.1734086220928677e-01 4.2134248165738748e-03
      -2.3808278485533318e-01 4.5622196529158970e-02
      -2.2475310261262565e-01 -2.2384037536945117e-01
      -2.7135586976539400e-01 1.3780810348492636e-01
      -2.7730587988359862e-01 1.5696642866464749e-01
      1.4675374184035489e-01 3.6599935045214915e-02
      2.5315492566745340e-01 9.0651663433545859e-02
      -1.8613892670320609e-01 -1.8149392037510487e-01
      -2.2413461058484774e-01 -3.7924612933326945e-01
      3.1700682827247070e-02 -1.0173475915818180e-01
      -1.6062630400073871e-01 -7.7966626283044405e-02
      -8.1319154977240168e-02 2.4847183458622032e-01
      -1.3612666515002866e-01 -1.8115195510766267e-02
      -1.7687438147264320e-01 2.7975182716804892e-01
      -1.9679623585946307e-01 4.1007470685192338e-02
      -3.7665845754794587e+00 1.3404310656907049e-02
      -4.6956573249000981e-02 1.6805642497846968e-01
      -1.1209860272640909e-01 2.0738383170305814e-02
      -3.2264124196756068e-02 -1.1694439473784210e-01
      -7.7180181335761711e-02 1.2177948508769765e-01
      8.0438477304456635e-02 -1.4616888162963590e-01
      1.1350103022141261e-01 7.0245316478424738e-03
      3.4519602173520409e-03 1.5670104311954974e-01
      -1.2631364608752044e-01 9.6434402851542061e-02
      -6.1822495511887933e-02 -1.4263009152446374e-01
      1.8543272359043321e+00 -1.4887117543930878e-01
      -6.0442514847295223e-02 1.7525852721744628e-01
      -1.4694478302031005e-01 1.7706682858941725e-01
      -1.4190780893251326e-01 -1.1117442839389771e-01
      1.9082165107771962e-01 3.7235302457803397e-02
      -1.6713720118940326e-01 2.7412061862941730e-02
      2.5086963598342982e-01 1.3655779249319733e-01
      1.1308259009249863e-01 -5.9694146232937067e-03
      -1.4946632946179933e-02 -2.2127338331020624e-01
      1.3121108979194451e-01 -1.4246264283395827e-02
      -2.2400784684126256e+00 4.9107365581295033e-02
      -3.7245523967106613e-02 6.6428979940537883e-02
      -3.3424590243876444e-02 2.0887988674596358e-01
      -3.4244409409585216e-02 1.0497184291710057e-01
      3.0832073793307274e-01 -3.1176428049355050e-02
      -1.5466552461806121e-01 1.9634642376147324e-01
      -9.2249592591832699e-02 1.3231166281663187e-01
      2.9282585100156328e-01 7.8707933417810905e-02
      -7.3817058276129388e-02 -2.2705876273667028e-01
      4.4223754817015008e-02 7.2166921802644862e-02
      -6.2759651871068574e+00 1.9012866694448075e-01
      -1.2298144092307093e-02 -2.7202923237659042e-02
      -2.1639417718162460e-01 4.7495270415415104e-02
      5.1100926712599803e-02 3.5991822066862744e-02
      2.8177418593933401e-01 -3.8333484944689500e-01
      3.8037943931084985e-02 2.3212117106471211e-01
      1.3103496970871795e-01 2.4131457745690274e-01
      -1.7556142616405302e-03 -6.5808255249053774e-02
      1.4716048630308357e-01 -2.5099102930761269e-01
      1.2440357422877371e-01 2.0729675093662073e-01
      -4.7363547808841417e+00 -7.8105264278095055e-02
      9.6338495883715319e-02 -1.8902890342060283e-01
      -3.1820039924000437e-01 3.0221740871346814e-01
      -7.4441194335288438e-02 2.8192812939579487e-01
      8.5793693131632168e-02 -4.4347778531025728e-01
      -7.5296845896301964e-02 2.6709876771354246e-01
      -1.5699431413795500e-01 3.0102416610384447e-01
      -2.9735175754532878e-01 -1.5330495877614650e-01
      -9.5797751319564389e-02 -1.5396580843448895e-01
      -8.7872534985197082e-03 1.7146064173078238e-01
      -4.4107233868579669e+00 3.6454495079213313e-02
      2.6042696329633436e-01 -1.5108237732428613e-02
      -1.3504051926870950e-01 1.8389176076588185e-01
      9.2903707672372937e-02 1.2265364542734976e-01
      1.7264689525021490e-01 2.2543837943346523e-02
      -2.3108448667570042e-01 2.1221283805157312e-01
      -2.2496453458605439e-01 1.9479289254844118e-01
      -2.7953724111958772e-01 1.3422607490057163e-02
      -2.4871800583678272e-01 -6.7949689682431758e-02
      8.9487671377197833e-02 2.8628098758653527e-02
      -4.0412570886254340e+00 -3.1123903598905506e-02
      2.0514513603080359e-01 9.4449365477835806e-02
      -2.2555771189329221e-02 2.9615477735865198e-01
      1.6574795038553962e-02 -3.6858077140480019e-02
      2.3008335572525571e-01 -3.3486132003422109e-01
      -4.4326476521241776e-02 -3.9811534503188965e-02
      -2.8140245632173216e-01 -1.4406219057782697e-02
      -1.2831037953184316e-01 -5.1077397276172276e-02
      -5.7299543764805548e-03 -1.1918281099988630e-01
      -4.5432148402283073e-02 -5.7101642313344879e-02
      -5.7559552862164685e+00 2.7138574555041606e-01
      5.9283392269939734e-02 -7.9352948618602259e-02
      1.4243222656159726e-01 7.8201553965931453e-02
      5.5656946091210670e-02 1.6604404360323691e-01
      -7.0916720836972777e-03 -3.2858691545643370e-01
      -1.4474678035048125e-01 2.6176014279179805e-01
      1.7175639185123576e-02 -7.9992144095655041e-02
      -1.9752166139594789e-03 -1.9942820928545937e-01
      -8.5239102928962349e-02 -1.4502807121230257e-01
      -8.8882728257915572e-02 -7.1855741176068966e-02
      -2.5413592745060369e+00 -9.8966916279506004e-02
      -2.5267621948141894e-01 4.5808956895550916e-02
      -2.2145735598176935e-01 -3.4770262510872357e-01
      4.3745248350128989e-02 3.1901036882536857e-02
      -2.4683712710757441e-01 1.2787986605588473e-02
      -9.1614069091602426e-02 2.4407350737806238e-01
      -3.1227349375471708e-01 5.7992647426799063e-02
      -5.3686073755264618e-01 -3.4209393738211791e-01
      -2.2302143647839731e-01 3.0263007736343750e-01
      -1.0259308184024780e-01 -1.7317352198323910e-01
      -3.4910819297689750e+00 2.0709051340520063e-01
      -2.1479756536866046e-01 1.3029534608056723e-01
      -1.8411347585268112e-01 -9.9922034766686870e-03
      -8.4614350789181350e-02 5.7563495105086133e-02
      -2.2576462131863320e-01 -7.9617229275220358e-02
      7.2927736570319590e-02 -1.0159123130190312e-01
      -6.9872656880662206e-03 -2.9778219561876662e-01
      3.5383357997848829e-02 1.0717393507378806e-01
      -1.9382839659592016e-01 1.0157027879031154e-01
      5.4666709938052289e-02 7.8897350692685771e-03
      3.2033714663570940e+00 1.9423845417841110e-01
      -3.2547423720939161e-01 9.7003401653619842e-02
      -1.1061385621067107e-01 -3.2838716122328010e-01
      9.3650733164200972e-02 -3.9975709471205656e-01
      1.2702260661413620e-01 1.3242997966375727e-01
      -2.4044573636836514e-01 -2.4468376149013779e-01
      4.6672789106424542e-02 -6.7706456462165596e-02
      9.3478077517704164e-02 -1.3738538417983928e-01
      1.9358637925339106e-01 -9.6535735854384519e-02
      1.7565821707524390e-01 -1.1948174017357864e-01
      2.0107293177284498e+00 3.5101878740890036e-01
      -1.2707733113107536e-01 1.5129624243821621e-01
      6.6784396536977250e-02 3.0448531862009433e-02
      -1.3077496103643177e-01 -1.3073526118380493e-01
      -9.3023274878413748e-02 -1.3402397336514127e-01
      -1.3696942541821225e-01 -2.9661414521781337e-01
      4.3592435642402011e-01 -2.1961204198434042e-01
      4.9696280336332242e-02 -1.2648723112129226e-01
      -5.8116390849466161e-02 2.2539751827870776e-02
      5.3422672176863882e-02 6.1180591751210739e-02
      -1.1979651480018308e-01 -3.9488941174404220e-02
      -1.7423978067729853e-01 5.9421439546534616e-02
      -1.2508443366272276e-01 -2.0854131473233858e-01
      1.9745829216155572e-01 -2.3147896729988079e-01
      2.2643599519682953e-01 -6.5069042861480228e-02
      -1.7405533290537226e-01 -1.6447196048406824e-02
      3.8186676502236041e-03 3.2562187873759518e-01
      9.9540560563016717e-02 -8.4003117134269167e-02
      1.0109838003713989e-02 -7.0445543570568050e-02
      -9.2897826249023346e-02 -6.3986972083454996e-02
      -3.1322523844131221e-02 1.0660596990493088e-01
      3.0352899163547475e-01 3.2323754195795314e-02
      2.2149016677856054e-01 2.1816563704304406e-01
      -5.5239314682493917e-03 -1.6156499801017024e-01
      4.9840126490939642e-02 -4.3841489606516182e-02
      -4.8159023861885204e-02 1.1036934695228519e-01
      1.3081127976805274e-01 -1.4203077795617081e-01
      1.6156135120623558e-01 1.4036079076550545e-01
      -2.5688086806300398e-01 -2.7820220273116925e-01
      -4.3710745639362801e-02 8.1839817478012278e-02
      3.0608139132705343e+00 -1.1195709184088064e-01
      -6.5751583358218527e-02 1.9818297317990716e-02
      9.9304741267255747e-02 -4.0560125232964639e-01
      5.9953077200435345e-01 -3.2058291124871374e-01
      1.5908292211148665e-02 -2.2108130576667655e-02
      -2.5344292910747290e-01 4.1263605340756938e-02
      -3.7616835198606535e-01 7.9453361785297577e-02
      -6.6294915393682097e-02 -1.7777389358077103e-01
      2.3404110308046042e-02 -7.0453202972916851e-02
      -2.0464739828819585e-02 1.2005741916347099e-01
      3.2171576912986657e+00 -9.7124839088712486e-02
      6.7061389204275540e-02 8.8251669158182777e-02
      1.1572988044612194e-03 -2.1120120416084970e-01
      1.2515491299260195e-01 -2.2769303293008919e-01
      7.3578600696026036e-02 -2.9346554006049453e-02
      -2.2742296590573741e-01 -8.6496537162292275e-02
      2.5738850657416972e-02 -5.7913731691148190e-02
      -1.9398620789870286e-01 -1.2930452547421539e-01
      7.5819641018337658e-02 3.1811561510594272e-01
      -4.8077919694691086e-02 7.2255227218347470e-02
      1.2695346093255007e+00 -1.2355326867269785e-01
      -7.2318000609901317e-02 1.5882124572520318e-01
      -4.5545425703781811e-02 -3.4868386886789787e-01
      1.0341776783013079e-01 -1.4771618126688882e-01
      -1.7068322722384702e-01 -6.3857204250470659e-02
      5.1782861570337575e-02 7.7849836223004537e-02
      -4.3603337552017849e-03 4.7655344126796208e-02
      -1.3471976452651488e-01 -1.9587759127899673e-01
      -4.6449044201843856e-03 1.1777090696915220e-01
      7.4674135943807216e-02 2.4591306269594471e-01
      -2.9491814064062596e+00 1.1327642599859437e-01
      -1.0566562287749649e-02 4.8071817838840611e-02
      -9.3340998083485116e-02 -2.8458273085751499e-02
      1.4466493653420992e-01 -8.9962734788152934e-02
      -9.1439690556683065e-02 9.8335335328226414e-02
      1.5924102576094890e-01 -1.6808889877044819e-01
      3.7420246967711970e-02 -4.3064111467808988e-02
      -2.6090225929036848e-01 4.0105590170134486e-02
      -1.8480888328804973e-01 2.5112905405223351e-01
      -1.3522914462058575e-01 1.8651758414543071e-01
      -4.9351848250668162e+00 2.5855089195960773e-01
      1.3365573989316554e-01 -2.5272504405405505e-02
      -2.1437700405366569e-01 -3.4057753807935776e-01
      4.3676844840512546e-01 -2.2882991588400445e-01
      3.3412293213589955e-01 4.1123231034321056e-01
      -2.6750409283099913e-01 -6.4167815231156908e-04
      -5.6690541482759704e-02 1.9654824883889635e-01
      1.8381126187372451e-01 8.0305495129529454e-03
      -2.6884226761713703e-01 3.4648297808997232e-02
      -6.0376328691818047e-02 2.2205763237089685e-01
      -2.6456192273645054e+00 1.8485221660429768e-01
      4.4706161921703964e-02 4.6771002770170073e-02
      -6.0657138886798224e-02 -3.1217072275093022e-01
      -4.2482066445403921e-02 6.3626339392944223e-02
      5.3983351926055904e-02 3.3979826262122459e-01
      -1.7871484428900059e-01 7.0089829446011429e-02
      -2.5926037926101014e-01 -1.4496172544809729e-01
      -1.7765508977255425e-02 6.9565500563564503e-02
      -3.2539379024752901e-01 -3.2227608613035097e-03
      -3.1144112797673779e-01 1.3110150361084300e-01
      -2.7239440677868987e+00 2.1242660956758397e-01
      -4.4764971571109272e-02 1.9546714712750546e-02
      -1.3017384895777262e-01 2.4911705564869911e-02
      1.2641494895669599e-03 -1.3856925122256911e-01
      1.0815191016186619e-01 1.2784270988640062e-01
      1.1213354881541344e-01 -2.4041328368079973e-01
      2.0077176019822265e-01 7.4349671908566228e-02
      1.2796453806751346e-01 4.1331643043946632e-02
      6.7275938342036989e-02 -1.4319524220056359e-01
      -4.1672613097885378e-02 -4.9702340700308191e-02
      -6.7513855637504818e+00 3.2114653431877742e-02
      6.3225645057147478e-02 2.0012689244294755e-02
      -2.8775097003664335e-01 2.4031155204734531e-01
      2.1515598479049042e-01 -9.4249235935805795e-02
      -1.6266546043656354e-03 8.0482497613955387e-02
      1.9169882468518570e-01 -2.9964671360506817e-01
      1.7156158053587503e-01 1.6088197211457783e-01
      -1.5724989404425089e-02 5.8562895126254698e-02
      7.7001624811245228e-02 -1.0212935206730481e-01
      7.1656996028921713e-03 1.0338990686782748e-01
      -4.0378034372770379e+00 -2.0823300646416831e-01
      -7.6642120792386317e-02 -6.2765350182817495e-02
      -2.3025471147286442e-01 4.6038940696996328e-01
      3.3366460346475467e-02 8.2167766967208122e-02
      4.9939060193057556e-02 -3.8852264188998652e-03
      -1.6468833991224793e-01 6.5180854109471248e-02
      -1.6838397955891191e-01 2.9174961925256532e-01
      9.7006618494631186e-02 -1.5887554799988254e-01
      -1.0238132070026442e-02 -2.1614566122455109e-01
      3.5193039302954907e-02 2.2362580692851000e-01
      -1.0121306536943212e+01 2.1342733985189075e-01
      -1.3683986445288643e-01 3.7520380391613350e-01
      -1.6531338048087219e-01 3.5732460464756149e-01
      3.2321442576291527e-02 -3.4325178468603934e-01
      -3.4357817536048552e-01 3.6706811801908312e-01
      -3.4938543906538271e-02 -2.1831538140205725e-01
      5.3414535428257803e-02 1.2966899209473653e-01
      -5.7152143670529024e-02 2.5253841824643736e-01
      -1.9624804820514499e-01 -3.3868580749702705e-02
      1.2471921792605691e-01 1.5288357341631328e-01
      -7.1650615640143371e+00 3.6622684951029877e-01
      -1.5370708384367884e-01 1.7512355096547091e-01
      -1.1778943398182475e-01 4.3144450658597050e-01
      2.4959657670706797e-01 -1.7201971291615747e-01
      -6.4332390995416455e-01 4.6939253785725038e-01
      8.9297071913044413e-03 -8.6886909840061671e-02
      6.6998557401316328e-02 4.9792251799003973e-01
      -1.0651982582788296e-01 -2.1060486502038117e-01
      -4.0328946074137445e-01 1.0786962203230628e-01
      -3.5790544504128389e-03 -4.7041923268037737e-02
      -4.8678487735461031e+00 -5.6649838344148364e-02
      8.2925900950519896e-02 -1.3507146483511583e-02
      -1.3124743580137396e-01 1.4664797934565654e-01
      2.2349956854514033e-01 1.4967721954232344e-01
      1.0661344868710150e-01 -8.6451947401917958e-02
      -2.2720292364545386e-01 1.8582386167079693e-02
      -1.4138350162340460e-01 2.5520439155128471e-01
      -4.7451299723242940e-02 -9.6338944569342930e-03
      -7.3017539589550276e-02 4.1809341818727225e-02
      1.0295932923685001e-01 1.4375935265661256e-02
      -6.4551802737797193e+00 -4.4512780247391304e-02
      1.6344888595533505e-01 -2.4210507431097275e-01
      -9.9256881142393213e-03 3.3082630658989831e-01
      5.5396854653658373e-02 2.1630026940955077e-01
      4.8097018237147120e-02 -2.6808010408183886e-02
      6.3619832358417436e-02 -2.1484446346491709e-01
      2.9679526855553660e-02 1.1979886119877425e-01
      -1.1656077248280504e-01 3.3010012650875477e-02
      6.8021980906650181e-02 5.2856956725557361e-02
      2.6074039790341025e-01 -3.0044878980047394e-02
      -5.0834893288598879e+00 -7.8901085728374343e-02
      -2.6576102434938343e-02 3.5742698639342957e-02
      -4.8682829251414379e-02 1.1360119347100195e-01
      -3.2405388527833125e-02 1.0769729974826125e-02
      2.6573503395327536e-01 -2.5224830388796465e-01
      3.8348012981231180e-02 7.6198502918945449e-02
      1.2536995993598843e-01 -5.9320473159702396e-02
      1.3295580174390645e-01 -8.7142832821714339e-02
      5.1229690338439465e-02 -3.7963803629430755e-02
      5.7660585191485134e-02 -1.3427376739713487e-01
      -7.7147331764020546e+00 -9.3964363016846769e-02
      -1.0498792024533039e-02 7.1418227457278480e-02
      -2.9932862527795417e-01 -8.8967805012752088e-03
      -9.0349324726179653e-02 1.0764717363698954e-01
      2.5769336966011486e-01 -7.0743749742569348e-02
      -8.3882089722009653e-02 1.3271273750800491e-01
      -2.4657170148108437e-01 -7.0254641508157148e-02
      -1.3338129679168886e-01 -3.8215214887707016e-02
      -1.9206087048189957e-01 3.5701098035077102e-02
      -3.6661875233787403e-02 1.2945240205251676e-01
      -3.1878315340094492e+00 2.6400472405706987e-01
      -1.9789112660293531e-01 1.6720687801960663e-01
      -2.7608919177781560e-01 -2.6673006152333772e-01
      -3.7011535087516180e-02 -4.0943313713951573e-01
      1.6230854505532161e-01 -3.8772138832315173e-01
      -1.5912711109271266e-01 -6.0375122808642760e-02
      1.7901607815312401e-01 -1.5892196431509972e-01
      2.6930600248570667e-02 1.3150513129111385e-01
      3.7110765678051771e-02 1.1340456471115228e-01
      2.6418000069717146e-01 -2.1492769430331529e-02
      -5.3377496593240148e-02 1.3358213801829100e-01
      -2.4923562997281543e-01 1.1378140246000164e-01
      -1.0388970859588417e-01 -2.3442829276387514e-01
      -2.2311587547834985e-01 -2.2593888388928687e-01
      -2.6856412219299231e-01 1.5256928371536785e-01
      7.9014550519253157e-02 -3.3032132980322426e-01
      7.1195023305091990e-02 -2.5115171002633757e-01
      -8.1984060278650128e-02 -2.5069646318113193e-02
      5.0093326852562153e-02 6.3307270351506295e-02
      1.5802400265771327e-01 -7.5669127675716041e-02
      6.3613185825709675e-03 2.3423482487619762e-01
      -1.8124644675852061e-01 1.0906240903957216e-01
      1.3954326444426240e-01 2.8143650713295981e-01
      -4.0401121346548613e-01 6.7303991351015599e-02
      -3.6100020788465553e-01 1.8954526700286470e-01
      6.4568191136862116e-02 -2.6086913228420960e-01
      1.2793438142406241e-01 -3.9957303908024638e-01
      -3.3761944834451474e-01 -1.1343725946854380e-01
      -3.9728983671535976e-04 -9.9558102086834827e-02
      1.8172901575243106e-01 5.9096652488903480e-02
      2.6202372457391170e+00 1.3487597236232127e-01
      1.0765856647456200e-01 1.6602891467310983e-02
      -2.6666595435348831e-02 9.4687727157514917e-02
      -2.6029852404879202e-02 1.2352319899866368e-01
      2.7385943876647743e-02 -6.3445675954331246e-02
      -5.7966299442574240e-02 2.9397381063461243e-02
      1.4454581830526861e-01 2.2730261522157666e-01
      -1.1642599808277708e-01 -6.1525639711311007e-03
      -1.2268246933902893e-01 -1.4297014131628571e-01
      -4.6003660538037922e-02 -7.0995555673984009e-02
      2.8253576042020403e+00 -1.4392822317150789e-01
      1.2386924136597043e-01 9.4978408569997438e-02
      1.7991086758983327e-01 1.6755335469969157e-01
      -2.4098875768865987e-02 3.7192430584908803e-01
      -2.6057281043386410e-01 1.2023880396946098e-01
      1.6575597673491224e-01 1.1406950010838501e-01
      1.7836686343478587e-02 -2.0326503088295009e-01
      8.7015870853117128e-02 1.7816282226780020e-01
      -2.7269461351217694e-01 2.1785600023170103e-02
      2.5246866222823466e-01 1.1886274131247163e-01
      3.0714527422109059e+00 -1.4038027547995355e-01
      -2.3031926047898518e-01 -1.0685821482095845e-01
      1.6853661667809039e-01 -5.1944580534279239e-01
      2.8230940040195629e-01 -3.5968926514739430e-01
      7.0178332810272553e-02 2.0753950520098503e-02
      -2.5374079424158608e-01 -2.1897684582289370e-02
      -1.0809340763329635e-01 2.7233011692999037e-01
      -2.4293727838468601e-02 -1.0688375353759294e-01
      -5.0091513991319010e-02 3.1027882672086091e-02
      2.3511034581793813e-01 -4.7168633724662803e-02
      1.4002652209457991e+00 -2.5353568179621216e-01
      1.0244051326763383e-02 -5.9988925781712013e-02
      1.1528855552849443e-01 -1.2018514948545833e-01
      6.8039300894519074e-03 -1.1242981753169010e-01
      1.7688601616616498e-01 -8.7059030033362766e-02
      -1.2445987206499005e-01 3.6778132055545504e-02
      -3.0630160249565087e-02 1.1353466004271624e-01
      -1.1700197111573510e-01 1.1278865413189539e-01
      -1.1747727396027027e-02 6.8994510272550352e-02
      -1.8918459675923360e-01 1.4933764660821269e-01
      -6.5714511633295988e-02 -4.2426021017033416e-01
      -1.4032381292377255e-01 2.4161765151783371e-01
      -2.0812259332002320e-01 -2.9458312438596623e-01
      1.1621854410615324e-02 -1.8735396656051700e-01
      -6.8892720117132947e-02 -2.5273849737682719e-01
      1.9727130208121291e-01 -2.0130589483511614e-02
      1.0663049641903517e-01 2.0584873023989730e-01
      -1.8320115344993829e-01 3.5611741412885678e-01
      3.1854309180231688e-02 2.3452015257758915e-01
      3.2087856909311729e-01 1.6396500235636902e-01
      3.0021015573728347e+00 -1.5638042313308950e-01
      -2.2719200306603576e-01 5.8501009148006489e-02
      -1.4824677725412727e-01 -1.3247997944810549e-01
      1.3345466789496277e-01 -8.5761118197430319e-02
      -1.0980868777490762e-02 -9.3406710604723789e-02
      -7.6936463591213783e-02 -1.9574916448389792e-02
      2.0927953363121704e-01 6.8392836303202004e-02
      8.0136654430889118e-02 5.6118963171902111e-02
      -6.7429659180361465e-02 6.1810075925180993e-02
      7.6685725920536782e-02 3.0360071342349679e-02
      -7.7799424514390625e-01 6.7739527191941942e-02
      -1.3748858550362616e-03 -2.8779383088715818e-02
      -2.6972717836028785e-03 -2.3974420688744325e-01
      3.0967220112744936e-01 -5.6463249021210977e-03
      3.3141850298814268e-01 2.6279597701407709e-01
      -2.2157456147485235e-02 3.0188606488312539e-02
      -2.5909530511008787e-02 3.2006645323856159e-01
      1.7625900591815383e-01 -6.5356346049395664e-02
      -1.0046467546129198e-01 -1.8783619799614087e-01
      6.6079615649104828e-03 1.3950376860826125e-01
      -3.1367069594597385e+00 6.8569260926793746e-02
      -6.4540637649096122e-02 3.1460923124868138e-02
      -8.3733810962723365e-02 -2.9532536498620104e-01
      3.3242577625132025e-03 1.5723436871301810e-01
      2.5744789822904990e-01 2.0964273605754133e-01
      -6.5669079934509142e-02 8.0209644027884816e-02
      -1.5898864634209423e-01 4.4228974888584072e-03
      1.9764862763126123e-01 -2.2988622399957432e-02
      -2.2258885770000961e-01 -1.6157972632562967e-01
      -9.3730800955643276e-02 2.3700319387788471e-01
      -2.0612197577485381e+00 8.9118216945946446e-02
      -1.9182244260371017e-02 8.6591145595647206e-02
      -2.0960020649227964e-01 -1.7070238623798847e-01
      -8.6542351651390653e-03 -1.0920988538656870e-01
      2.5756309890997675e-01 -1.3164056739153746e-01
      -9.2066203582196582e-02 -1.7160062300222139e-02
      -1.3806438040028593e-01 2.8944403146737696e-01
