<?xml version="1.0"?>
<opencv_storage>
<shapeML type_id="opencv-ml-ann-mlp">
  <layer_sizes type_id="opencv-matrix">
    <rows>1</rows>
    <cols>3</cols>
    <dt>i</dt>
    <data>
      400 20 7</data></layer_sizes>
  <activation_function>SIGMOID_SYM</activation_function>
  <f_param1>5.9999999999999998e-01</f_param1>
  <f_param2>1.</f_param2>
  <min_val>-9.4999999999999996e-01</min_val>
  <max_val>9.4999999999999996e-01</max_val>
  <min_val1>-9.7999999999999998e-01</min_val1>
  <max_val1>9.7999999999999998e-01</max_val1>
  <training_params>
    <train_method>BACKPROP</train_method>
    <dw_scale>1.0000000000000001e-01</dw_scale>
    <moment_scale>1.0000000000000001e-01</moment_scale>
    <term_criteria><epsilon>9.9999999747524271e-07</epsilon>
      <iterations>4000</iterations></term_criteria></training_params>
  <input_scale>
    1.7624375510067070e-02 -2.3477246481693820e-01
    1.2093823411605425e-02 -3.6822984715932938e-01
    1.0787374317157514e-02 -4.3109245871924246e-01
    1.0066566448598767e-02 -4.7891314261057560e-01
    9.6456759961493360e-03 -5.1395616875004668e-01
    7.8650687815646526e-03 -9.2796072713833699e-01
    7.9231883119313326e-03 -1.1534447462313469e+00
    8.0618372989892766e-03 -1.2656783744588573e+00
    8.1788976522420096e-03 -1.3385315336840842e+00
    8.1603857964208694e-03 -1.3277373979587015e+00
    8.2593213925391002e-03 -1.3831281496162493e+00
    8.4005881618796161e-03 -1.4547436440031081e+00
    8.2593213925391002e-03 -1.3831281496162493e+00
    7.9412623321368590e-03 -1.1711880361108558e+00
    7.9070267687149434e-03 -8.8024680464406846e-01
    9.7766675389433962e-03 -5.0233101496735288e-01
    1.2623990649053909e-02 -3.4833735391699128e-01
    1.3249523403597275e-02 -3.2777738867854450e-01
    1.5667090665880880e-02 -2.6832815729997478e-01
    1.8253781481394359e-02 -2.2578837914485933e-01
    1.3733906283836948e-02 -3.1362502409359000e-01
    1.1005181119821019e-02 -4.1885390829169550e-01
    9.2996190543019382e-03 -5.4860812406161807e-01
    8.0073679743108972e-03 -8.1522774320549563e-01
    7.9833064847983169e-03 -1.2077729903960737e+00
    8.4005881618796161e-03 -1.4547436440031081e+00
    8.3752098940597080e-03 -1.4423798979862903e+00
    8.9689897981075611e-03 -1.6982514451677919e+00
    9.1979181990075164e-03 -1.7853571071357126e+00
    9.5229382767871053e-03 -1.9028109877684682e+00
    9.1022123068654256e-03 -1.7494587907710377e+00
    8.8087823177722020e-03 -1.6343906744448611e+00
    8.8087823177722020e-03 -1.6343906744448611e+00
    8.8470876450977964e-03 -1.6499158227686115e+00
    8.1980348350423494e-03 -1.3494638311488554e+00
    7.8608876336397349e-03 -1.0695793565696752e+00
    8.2810857977130663e-03 -7.1702461170123766e-01
    1.0227339070357264e-02 -4.6709936649691386e-01
    1.2623990649053909e-02 -3.4833735391699128e-01
    1.8961994135149474e-02 -2.1650635094610968e-01
    1.1934485812349977e-02 -3.7473394817509348e-01
    9.3528619335558547e-03 -5.4284987827037812e-01
    7.8451035831998885e-03 -1.0226443793995825e+00
    8.3035414458505815e-03 -1.4063348739819324e+00
    8.7715812140604834e-03 -1.6191422487297467e+00
    9.1022123068654256e-03 -1.7494587907710377e+00
    9.1493431503703003e-03 -1.7672229409661140e+00
    1.0227339070357264e-02 -2.1408720964441885e+00
    1.0145524784933455e-02 -2.1140926552783910e+00
    1.0312157744734412e-02 -2.1684389914347304e+00
    1.0227339070357264e-02 -2.1408720964441885e+00
    9.7766675389433962e-03 -1.9907192074632132e+00
    9.9903259644495528e-03 -2.0627413703090149e+00
    9.7766675389433962e-03 -1.9907192074632132e+00
    9.0120825133710517e-03 -1.7149858514250882e+00
    8.4005881618796161e-03 -1.4547436440031081e+00
    7.9070267687149452e-03 -1.1360450213782425e+00
    7.9950787261102683e-03 -8.2158383625774922e-01
    1.0491459903732589e-02 -4.4921456117660996e-01
    1.3733906283836948e-02 -3.1362502409359000e-01
    1.0312157744734408e-02 -4.6116123347254434e-01
    7.9510283703548550e-03 -8.4731854573632337e-01
    8.3505873829352543e-03 -1.4301938838683887e+00
    9.0120825133710517e-03 -1.7149858514250882e+00
    9.9903259644495528e-03 -2.0627413703090149e+00
    9.8454925714902292e-03 -2.0141012322087755e+00
    9.7766675389433962e-03 -1.9907192074632132e+00
    1.0491459903732589e-02 -2.2261077142752002e+00
    1.1241878760516626e-02 -2.4602096615832094e+00
    1.1121018646106116e-02 -2.4231786710424128e+00
    1.0684867150101448e-02 -2.2874785549890690e+00
    1.1121018646106116e-02 -2.4231786710424128e+00
    1.0491459903732589e-02 -2.2261077142752002e+00
    1.0491459903732589e-02 -2.2261077142752002e+00
    1.0145524784933455e-02 -2.1140926552783910e+00
    9.1022123068654256e-03 -1.7494587907710377e+00
    8.4267402238510699e-03 -1.4672904199477992e+00
    7.9412623321368590e-03 -1.1711880361108558e+00
    8.1603857964208711e-03 -7.5316098012862032e-01
    1.1241878760516626e-02 -4.0646942234853023e-01
    8.5100324338891527e-03 -6.6397305295754550e-01
    8.2593213925391002e-03 -1.3831281496162493e+00
    9.0120825133710517e-03 -1.7149858514250882e+00
    9.7100947366634983e-03 -1.9679246105293950e+00
    1.0684867150101448e-02 -2.2874785549890690e+00
    1.0894059843959192e-02 -2.3529949778640962e+00
    1.0586301684254997e-02 -2.2563042992710654e+00
    1.0491459903732589e-02 -2.2261077142752002e+00
    1.1121018646106116e-02 -2.4231786710424128e+00
    1.0586301684254997e-02 -2.2563042992710654e+00
    1.0491459903732589e-02 -2.2261077142752002e+00
    1.0586301684254997e-02 -2.2563042992710654e+00
    1.0684867150101448e-02 -2.2874785549890690e+00
    1.0684867150101448e-02 -2.2874785549890690e+00
    1.0227339070357264e-02 -2.1408720964441885e+00
    9.5833192947570416e-03 -1.9239943830388158e+00
    9.0564748108176597e-03 -1.7320508075688774e+00
    8.3752098940597080e-03 -1.4423798979862903e+00
    7.8747771123206106e-03 -1.0939475816854340e+00
    8.9689897981075611e-03 -5.8884095334963638e-01
    7.8451035831998885e-03 -9.7785703431638915e-01
    8.9689897981075611e-03 -1.6982514451677919e+00
    9.7100947366634983e-03 -1.9679246105293950e+00
    1.0586301684254997e-02 -2.2563042992710654e+00
    1.0491459903732589e-02 -2.2261077142752002e+00
    1.0787374317157514e-02 -2.3196879921559237e+00
    1.1368096764336267e-02 -2.4986482832209993e+00
    1.0684867150101448e-02 -2.2874785549890690e+00
    1.0684867150101448e-02 -2.2874785549890690e+00
    1.0400140598618528e-02 -2.1968356689843094e+00
    1.0491459903732589e-02 -2.2261077142752002e+00
    1.0400140598618528e-02 -2.1968356689843094e+00
    1.0227339070357264e-02 -2.1408720964441885e+00
    1.0684867150101448e-02 -2.2874785549890690e+00
    1.1121018646106116e-02 -2.4231786710424128e+00
    9.9166746781291382e-03 -2.0380986614602721e+00
    9.6456759961493360e-03 -1.9456912102680342e+00
    9.2996190543019348e-03 -1.8227947347853755e+00
    8.2593213925391002e-03 -1.3831281496162493e+00
    7.8696978214803492e-03 -9.2101892601019086e-01
    8.0201810758711682e-03 -1.2362450755382013e+00
    9.3528619335558564e-03 -1.8421299147863652e+00
    1.0145524784933455e-02 -2.1140926552783910e+00
    9.9166746781291382e-03 -2.0380986614602721e+00
    1.0684867150101448e-02 -2.2874785549890690e+00
    1.1782765280458286e-02 -2.6234238965856194e+00
    1.0787374317157514e-02 -2.3196879921559237e+00
    1.0684867150101448e-02 -2.2874785549890690e+00
    9.7766675389433962e-03 -1.9907192074632132e+00
    9.9903259644495528e-03 -2.0627413703090149e+00
    9.6456759961493360e-03 -1.9456912102680342e+00
    9.7766675389433962e-03 -1.9907192074632132e+00
    9.9903259644495528e-03 -2.0627413703090149e+00
    1.0400140598618528e-02 -2.1968356689843094e+00
    1.0491459903732589e-02 -2.2261077142752002e+00
    1.1005181119821020e-02 -2.3874672772626648e+00
    1.0312157744734412e-02 -2.1684389914347304e+00
    9.5833192947570416e-03 -1.9239943830388158e+00
    8.4814421304434291e-03 -1.4929553451629431e+00
    7.8862970759948046e-03 -1.1105554165971789e+00
    8.3267033916675157e-03 -1.4181805086293424e+00
    9.5229382767871053e-03 -1.9028109877684682e+00
    1.0894059843959192e-02 -2.3529949778640962e+00
    1.1005181119821020e-02 -2.3874672772626648e+00
    1.1368096764336267e-02 -2.4986482832209993e+00
    1.1005181119821020e-02 -2.3874672772626648e+00
    1.0066566448598772e-02 -2.0880613017821110e+00
    1.0145524784933455e-02 -2.1140926552783910e+00
    9.7100947366634983e-03 -1.9679246105293950e+00
    9.5833192947570416e-03 -1.9239943830388158e+00
    9.2479912110709703e-03 -1.8038758976072200e+00
    9.1493431503703003e-03 -1.7672229409661140e+00
    9.2996190543019348e-03 -1.8227947347853755e+00
    9.7766675389433962e-03 -1.9907192074632132e+00
    1.0227339070357264e-02 -2.1408720964441885e+00
    1.0684867150101448e-02 -2.2874785549890690e+00
    1.1934485812349970e-02 -2.6685599339741488e+00
    1.0400140598618528e-02 -2.1968356689843094e+00
    9.3528619335558564e-03 -1.8421299147863652e+00
    8.1084897627138487e-03 -1.2961481396815719e+00
    8.6662770223615935e-03 -1.5749665013959753e+00
    1.0066566448598772e-02 -2.0880613017821110e+00
    1.1121018646106116e-02 -2.4231786710424128e+00
    1.1368096764336267e-02 -2.4986482832209993e+00
    1.0787374317157514e-02 -2.3196879921559237e+00
    9.9166746781291382e-03 -2.0380986614602721e+00
    9.5833192947570416e-03 -1.9239943830388158e+00
    9.2996190543019348e-03 -1.8227947347853755e+00
    9.1022123068654256e-03 -1.7494587907710377e+00
    9.0564748108176597e-03 -1.7320508075688774e+00
    9.1493431503703003e-03 -1.7672229409661140e+00
    9.0120825133710517e-03 -1.7149858514250882e+00
    9.0564748108176597e-03 -1.7320508075688774e+00
    9.3528619335558564e-03 -1.8421299147863652e+00
    1.0145524784933455e-02 -2.1140926552783910e+00
    1.1500040524969163e-02 -2.5385910352879688e+00
    1.1934485812349970e-02 -2.6685599339741488e+00
    1.0586301684254997e-02 -2.2563042992710654e+00
    9.8454925714902292e-03 -2.0141012322087755e+00
    8.2593213925391002e-03 -1.3831281496162493e+00
    8.7354509082143775e-03 -1.6041612554021292e+00
    9.9903259644495528e-03 -2.0627413703090149e+00
    1.0684867150101448e-02 -2.2874785549890690e+00
    1.1368096764336267e-02 -2.4986482832209993e+00
    1.1121018646106116e-02 -2.4231786710424128e+00
    9.9166746781291382e-03 -2.0380986614602721e+00
    9.4077836393415722e-03 -1.8618986725025262e+00
    9.1493431503703003e-03 -1.7672229409661140e+00
    8.9271534186459913e-03 -1.6818357317441646e+00
    8.9271534186459913e-03 -1.6818357317441646e+00
    8.8865323489361707e-03 -1.6657274348836140e+00
    9.0120825133710517e-03 -1.7149858514250882e+00
    9.0564748108176597e-03 -1.7320508075688774e+00
    9.2996190543019348e-03 -1.8227947347853755e+00
    9.9166746781291382e-03 -2.0380986614602721e+00
    1.0787374317157514e-02 -2.3196879921559237e+00
    1.1368096764336267e-02 -2.4986482832209993e+00
    1.0787374317157514e-02 -2.3196879921559237e+00
    9.4077836393415722e-03 -1.8618986725025262e+00
    8.2810857977130680e-03 -1.3946522667155945e+00
    8.5394775453625713e-03 -1.5194215923530381e+00
    9.7766675389433962e-03 -1.9907192074632132e+00
    1.1368096764336267e-02 -2.4986482832209993e+00
    1.2261386819491417e-02 -2.7649884792386707e+00
    1.1241878760516626e-02 -2.4602096615832094e+00
    1.0145524784933455e-02 -2.1140926552783910e+00
    9.2479912110709703e-03 -1.8038758976072200e+00
    9.1493431503703003e-03 -1.7672229409661140e+00
    9.0120825133710517e-03 -1.7149858514250882e+00
    9.1979181990075164e-03 -1.7853571071357126e+00
    8.8470876450977964e-03 -1.6499158227686115e+00
    9.0120825133710517e-03 -1.7149858514250882e+00
    8.9689897981075611e-03 -1.6982514451677919e+00
    9.3528619335558564e-03 -1.8421299147863652e+00
    9.6456759961493360e-03 -1.9456912102680342e+00
    1.0312157744734412e-02 -2.1684389914347304e+00
    1.0787374317157514e-02 -2.3196879921559237e+00
    9.9903259644495528e-03 -2.0627413703090149e+00
    9.3528619335558564e-03 -1.8421299147863652e+00
    8.4536849588003355e-03 -1.4800257398019094e+00
    8.2810857977130680e-03 -1.3946522667155945e+00
    9.9903259644495528e-03 -2.0627413703090149e+00
    1.1782765280458286e-02 -2.6234238965856194e+00
    1.1782765280458286e-02 -2.6234238965856194e+00
    1.1368096764336267e-02 -2.4986482832209993e+00
    9.8454925714902292e-03 -2.0141012322087755e+00
    9.5833192947570416e-03 -1.9239943830388158e+00
    9.4077836393415722e-03 -1.8618986725025262e+00
    9.1022123068654256e-03 -1.7494587907710377e+00
    9.1493431503703003e-03 -1.7672229409661140e+00
    9.0120825133710517e-03 -1.7149858514250882e+00
    9.0120825133710517e-03 -1.7149858514250882e+00
    9.1493431503703003e-03 -1.7672229409661140e+00
    9.1979181990075164e-03 -1.7853571071357126e+00
    9.6456759961493360e-03 -1.9456912102680342e+00
    9.7100947366634983e-03 -1.9679246105293950e+00
    9.7766675389433962e-03 -1.9907192074632132e+00
    9.5833192947570416e-03 -1.9239943830388158e+00
    9.0564748108176597e-03 -1.7320508075688774e+00
    8.2593213925391002e-03 -1.3831281496162493e+00
    8.0073679743108972e-03 -1.2266510902437833e+00
    1.0145524784933455e-02 -2.1140926552783910e+00
    1.1782765280458286e-02 -2.6234238965856194e+00
    1.1782765280458286e-02 -2.6234238965856194e+00
    1.1368096764336267e-02 -2.4986482832209993e+00
    9.9903259644495528e-03 -2.0627413703090149e+00
    9.7100947366634983e-03 -1.9679246105293950e+00
    9.1493431503703003e-03 -1.7672229409661140e+00
    9.1979181990075164e-03 -1.7853571071357126e+00
    9.1493431503703003e-03 -1.7672229409661140e+00
    9.1493431503703003e-03 -1.7672229409661140e+00
    8.9271534186459913e-03 -1.6818357317441646e+00
    8.9689897981075611e-03 -1.6982514451677919e+00
    9.2996190543019348e-03 -1.8227947347853755e+00
    9.7766675389433962e-03 -1.9907192074632132e+00
    9.9903259644495528e-03 -2.0627413703090149e+00
    9.9166746781291382e-03 -2.0380986614602721e+00
    9.5833192947570416e-03 -1.9239943830388158e+00
    9.2996190543019348e-03 -1.8227947347853755e+00
    8.0335252280507533e-03 -1.2459458063579461e+00
    7.8571522533566508e-03 -1.0615950861718071e+00
    9.1493431503703003e-03 -1.7672229409661140e+00
    1.0894059843959192e-02 -2.3529949778640962e+00
    1.1934485812349970e-02 -2.6685599339741488e+00
    1.1500040524969163e-02 -2.5385910352879688e+00
    1.0491459903732589e-02 -2.2261077142752002e+00
    1.0227339070357264e-02 -2.1408720964441885e+00
    1.0400140598618528e-02 -2.1968356689843094e+00
    9.6456759961493360e-03 -1.9456912102680342e+00
    9.1493431503703003e-03 -1.7672229409661140e+00
    9.1022123068654256e-03 -1.7494587907710377e+00
    9.2479912110709703e-03 -1.8038758976072200e+00
    9.1493431503703003e-03 -1.7672229409661140e+00
    9.6456759961493360e-03 -1.9456912102680342e+00
    1.0227339070357264e-02 -2.1408720964441885e+00
    9.9903259644495528e-03 -2.0627413703090149e+00
    1.0400140598618528e-02 -2.1968356689843094e+00
    9.7766675389433962e-03 -1.9907192074632132e+00
    8.7715812140604834e-03 -1.6191422487297467e+00
    7.9148707097310041e-03 -1.1447029429446780e+00
    7.8486029326164889e-03 -9.6335743831499776e-01
    8.7715812140604834e-03 -1.6191422487297467e+00
    9.5833192947570416e-03 -1.9239943830388158e+00
    1.1241878760516626e-02 -2.4602096615832094e+00
    1.1005181119821020e-02 -2.3874672772626648e+00
    1.0894059843959192e-02 -2.3529949778640962e+00
    1.1638114641527772e-02 -2.5801439605461662e+00
    1.1368096764336267e-02 -2.4986482832209993e+00
    1.0066566448598772e-02 -2.0880613017821110e+00
    9.7100947366634983e-03 -1.9679246105293950e+00
    9.9166746781291382e-03 -2.0380986614602721e+00
    1.0145524784933455e-02 -2.1140926552783910e+00
    9.9903259644495528e-03 -2.0627413703090149e+00
    1.0894059843959192e-02 -2.3529949778640962e+00
    1.1005181119821020e-02 -2.3874672772626648e+00
    1.1005181119821020e-02 -2.3874672772626648e+00
    1.0312157744734412e-02 -2.1684389914347304e+00
    9.3528619335558564e-03 -1.8421299147863652e+00
    8.4536849588003355e-03 -1.4800257398019094e+00
    7.8862970759948046e-03 -9.0045033778149641e-01
    8.7354509082143740e-03 -6.2337872619253698e-01
    8.1980348350423494e-03 -1.3494638311488554e+00
    9.1979181990075164e-03 -1.7853571071357126e+00
    1.0312157744734412e-02 -2.1684389914347304e+00
    1.0227339070357264e-02 -2.1408720964441885e+00
    1.1500040524969163e-02 -2.5385910352879688e+00
    1.2261386819491417e-02 -2.7649884792386707e+00
    1.2623990649053904e-02 -2.8707802615917544e+00
    1.2093823411605425e-02 -2.7156951228000539e+00
    1.0787374317157514e-02 -2.3196879921559237e+00
    1.0684867150101448e-02 -2.2874785549890690e+00
    1.0586301684254997e-02 -2.2563042992710654e+00
    1.0787374317157514e-02 -2.3196879921559237e+00
    1.1500040524969163e-02 -2.5385910352879688e+00
    1.0684867150101448e-02 -2.2874785549890690e+00
    1.0491459903732589e-02 -2.2261077142752002e+00
    9.5229382767871053e-03 -1.9028109877684682e+00
    8.8470876450977964e-03 -1.6499158227686115e+00
    7.9833064847983169e-03 -1.2077729903960737e+00
    9.2479912110709703e-03 -5.5436186121587738e-01
    9.7100947366635000e-03 -5.0814954731979700e-01
    7.8747771123206124e-03 -9.1412058195632184e-01
    8.2810857977130680e-03 -1.3946522667155945e+00
    8.9689897981075611e-03 -1.6982514451677919e+00
    9.7100947366634983e-03 -1.9679246105293950e+00
    9.7100947366634983e-03 -1.9679246105293950e+00
    1.1500040524969163e-02 -2.5385910352879688e+00
    1.1934485812349970e-02 -2.6685599339741488e+00
    1.2093823411605425e-02 -2.7156951228000539e+00
    1.1500040524969163e-02 -2.5385910352879688e+00
    1.1368096764336267e-02 -2.4986482832209993e+00
    1.1500040524969163e-02 -2.5385910352879688e+00
    1.1241878760516626e-02 -2.4602096615832094e+00
    1.2093823411605425e-02 -2.7156951228000539e+00
    1.0684867150101448e-02 -2.2874785549890690e+00
    1.0400140598618528e-02 -2.1968356689843094e+00
    8.8865323489361707e-03 -1.6657274348836140e+00
    8.1251925939507946e-03 -1.3065491598369756e+00
    7.9510283703548550e-03 -8.4731854573632337e-01
    1.0491459903732589e-02 -4.4921456117660996e-01
    1.1005181119821019e-02 -4.1885390829169550e-01
    9.0564748108176597e-03 -5.7735026918962584e-01
    7.8696978214803492e-03 -9.2101892601019086e-01
    8.1251925939507946e-03 -1.3065491598369756e+00
    8.6331743508600411e-03 -1.5607361839521230e+00
    9.2479912110709703e-03 -1.8038758976072200e+00
    9.6456759961493360e-03 -1.9456912102680342e+00
    1.0684867150101448e-02 -2.2874785549890690e+00
    1.1782765280458286e-02 -2.6234238965856194e+00
    1.1500040524969163e-02 -2.5385910352879688e+00
    1.0787374317157514e-02 -2.3196879921559237e+00
    1.1005181119821020e-02 -2.3874672772626648e+00
    1.0787374317157514e-02 -2.3196879921559237e+00
    1.0491459903732589e-02 -2.2261077142752002e+00
    9.4644518195253040e-03 -1.8821192526925412e+00
    8.7003596003292112e-03 -1.5894388284780530e+00
    7.9720447435681022e-03 -1.1984838907401447e+00
    7.8927436717241943e-03 -8.9367651760623379e-01
    9.6456759961493360e-03 -5.1395616875004668e-01
    1.1638114641527772e-02 -3.8757527304341555e-01
    1.1934485812349977e-02 -3.7473394817509348e-01
    1.1005181119821019e-02 -4.1885390829169550e-01
    9.7766675389433962e-03 -5.0233101496735288e-01
    8.1424877724649656e-03 -7.5925660236529668e-01
    7.8803092509712094e-03 -1.1022141502711036e+00
    8.2178093703422547e-03 -1.3605380662764397e+00
    8.8087823177722020e-03 -1.6343906744448611e+00
    9.3528619335558564e-03 -1.8421299147863652e+00
    1.0227339070357264e-02 -2.1408720964441885e+00
    1.0400140598618528e-02 -2.1968356689843094e+00
    1.0491459903732589e-02 -2.2261077142752002e+00
    9.9903259644495528e-03 -2.0627413703090149e+00
    9.9166746781291382e-03 -2.0380986614602721e+00
    9.1979181990075164e-03 -1.7853571071357126e+00
    8.4267402238510699e-03 -1.4672904199477992e+00
    7.8927436717241943e-03 -1.1189731186834355e+00
    7.9950787261102683e-03 -8.2158383625774922e-01
    9.7766675389433962e-03 -5.0233101496735288e-01
    1.0894059843959192e-02 -4.2499028234549763e-01
    1.3733906283836948e-02 -3.1362502409359000e-01
    1.6089157094916037e-02 -2.6024811942709331e-01
    1.3249523403597275e-02 -3.2777738867854450e-01
    1.1005181119821019e-02 -4.1885390829169550e-01
    1.0400140598618528e-02 -4.5520018366341541e-01
    9.1493431503703020e-03 -5.6585956237831259e-01
    7.8571522533566526e-03 -9.4197873843413893e-01
    7.9833064847983169e-03 -1.2077729903960737e+00
    8.2382338371552281e-03 -1.3717581529218359e+00
    8.5394775453625713e-03 -1.5194215923530381e+00
    8.6010241258551220e-03 -1.5467401408417449e+00
    8.5698001754079649e-03 -1.5329709716755888e+00
    8.4536849588003355e-03 -1.4800257398019094e+00
    8.3505873829352543e-03 -1.4301938838683887e+00
    7.9612873248223019e-03 -1.1892915598853018e+00
    7.8608876336397349e-03 -1.0695793565696752e+00
    9.7100947366635000e-03 -5.0814954731979700e-01
    1.0145524784933458e-02 -4.7301616487964016e-01
    1.2093823411605425e-02 -3.6822984715932938e-01
    1.3249523403597275e-02 -3.2777738867854450e-01
    1.5667090665880880e-02 -2.6832815729997478e-01</input_scale>
  <output_scale>
    1.0526315789473684e+00 0. 1.0526315789473684e+00 0.
    1.0526315789473684e+00 0. 1.0526315789473684e+00 0.
    1.0526315789473684e+00 0. 1.0526315789473684e+00 0.
    1.0526315789473684e+00 0.</output_scale>
  <inv_output_scale>
    9.4999999999999996e-01 0. 9.4999999999999996e-01 0.
    9.4999999999999996e-01 0. 9.4999999999999996e-01 0.
    9.4999999999999996e-01 0. 9.4999999999999996e-01 0.
    9.4999999999999996e-01 0.</inv_output_scale>
  <weights>
    <_>
      -4.5516700308829456e+00 -8.2943889463802559e-02
      3.9561932108750877e-02 -2.7461364344969597e-01
      7.7776414323050366e-02 1.0880956626914912e-01
      -3.9881672834038144e-02 3.7001607812624032e-01
      4.7641885840436415e-01 3.0543232535593157e-02
      -1.1518781455876875e-01 9.9065685327105468e-03
      -2.5494481257867180e-01 3.6912037835741117e-02
      1.6053695587720454e-01 1.5919670211941686e-01
      -2.0960044990036819e-01 -2.9723748487702972e-01
      -6.9518264250968298e-02 2.9501393891234040e-01
      -1.4971812078004851e+00 -4.8850002941762109e-02
      8.4433881192716529e-03 -1.9219888111253114e-01
      1.0754414481514969e-01 -1.6680038631465419e-01
      4.1667729246928842e-01 -2.9254995164936076e-01
      4.9105893044889942e-01 2.9931263244399115e-02
      -1.5595993291846080e-01 1.6198360060321176e-01
      -2.3062464162358315e-01 1.8335788228425443e-01
      -9.9697985342367651e-02 -6.4472382777999451e-02
      -1.3597295817150275e-02 -2.0208496056694644e-01
      -1.3977899226432686e-01 1.2132228128931030e-01
      -1.9508144004904837e+00 4.8299922004897841e-02
      -1.1447806200622740e-02 1.3940294304793113e-01
      3.1804548138404033e-02 -5.5280407501136414e-02
      3.8370607185389177e-02 2.6555766244662909e-02
      3.5807755664386409e-01 1.1052265260967075e-02
      7.4298767351864053e-02 -1.0618734221054059e-01
      -1.4736928560595325e-01 1.3871385562199640e-01
      1.0434860061495553e-01 1.6775575014422722e-01
      2.8285771529841935e-02 -2.2067595735767945e-02
      -8.5561097301529429e-02 -7.1647376259168505e-02
      -1.4547745631773685e+00 1.4048691985928252e-01
      9.2673526013790225e-02 1.5454016411717732e-02
      3.8928885811781180e-02 -3.3027577346137919e-02
      1.0869703705509586e-02 -2.5658893463442828e-01
      2.4140051885727931e-01 -1.4889113199718182e-01
      5.6719214567127960e-02 4.6447902416598304e-02
      -5.5609709601556104e-02 2.4497859313117900e-02
      1.2168766603228230e-01 2.9424529385466379e-02
      6.5221185065320972e-02 2.0049973119026919e-02
      -1.4238780910271642e-02 6.6035187561406805e-02
      -8.1543401564250328e-01 -1.7390275865644608e-01
      2.2795940304539040e-02 -1.6179094735765323e-01
      -5.1103317534643448e-03 1.5887907022889294e-02
      -5.0271776955189536e-02 -2.2272590934215264e-01
      4.4527677007770182e-02 -1.0951071628094314e-01
      -2.2172299349313740e-01 1.5513948198750117e-02
      -1.8532182415214843e-01 1.1188993787087055e-01
      6.6051832248448211e-02 3.9964354090917170e-02
      -5.0762372914698088e-02 2.7316469490813282e-02
      9.8892520678529293e-03 9.8276987733296683e-02
      6.2021604080522641e-01 1.8847393104224108e-01
      -3.4855890879967251e-04 -3.0942558458947689e-01
      -1.3343600551952814e-01 1.5415961309939000e-01
      -1.3688510537536333e-01 5.0554049935470369e-01
      -3.8601136237611233e-01 4.0699050293919445e-02
      -4.9679933939076118e-02 -9.0607172826603785e-02
      -2.6538156790193730e-02 5.1965904412098016e-02
      -2.5295257892953432e-01 -2.8938884244816598e-01
      3.0768342833783803e-02 3.1345003492153156e-01
      1.5878910600178604e-02 -1.6190023712903856e-01
      3.2216289457909070e-01 -1.8098521945651643e-02
      -9.0365957862984597e-02 -2.0560558480341951e-01
      2.4623753155169274e-03 -2.6813404086230996e-01
      6.8445539519403398e-01 -5.9263562127764036e-01
      5.6445281428882488e-01 9.2910491533667344e-02
      -2.1718999757270493e-01 3.7070539806560096e-02
      -2.5645369779053623e-01 5.0122335520192607e-01
      -1.0549328471722734e-01 -4.8106032792791756e-02
      1.2280544084428148e-01 -1.1022920605898644e-01
      9.9291499567285835e-02 -9.7232354078472614e-03
      2.0509112370648426e+00 -4.5640110090484513e-02
      -7.3688831112658962e-02 2.3074815822059899e-01
      1.6864847415454176e-01 -5.0115488135305553e-01
      9.6250902244278325e-01 -1.3179561543282621e+00
      8.9736696324535303e-01 -1.4175339842662457e-01
      -4.8134189886189083e-01 1.1176842038200395e-01
      -1.5631581094369751e-01 5.6091784248466314e-01
      3.6616393705644995e-01 2.6863458765744330e-01
      1.0387621428603666e-01 -2.8814313278360770e-01
      2.4192836163473796e-02 1.7640266291649964e-01
      4.1016331002410339e-01 -1.1194679952162771e-01
      1.0562626907906530e-01 -6.8935347532272817e-02
      5.6240897248905554e-02 8.2362638054564355e-02
      -1.2236747702354749e-01 1.4231465535550020e-01
      -3.5949620315803443e-01 1.1378810843063789e-01
      -2.2014074579611143e-01 9.4443160707434623e-02
      2.5269544817383754e-01 -3.0431106702555349e-01
      -9.6020729411331780e-03 -3.0675088896459576e-02
      -1.1591957437343459e-01 3.5348679524924771e-02
      -3.5869733705842261e-02 3.7207118403186752e-02
      5.1156988349880861e-01 -1.6142629472227621e-01
      1.0009959288116123e-01 6.4569293566845556e-02
      4.8424206303334286e-02 1.4930024114314888e-01
      1.8112174230912731e-01 -1.3433884841232452e-01
      -4.0616822219561866e-02 1.4280364291453554e-01
      -4.3167973957005784e-01 1.1518324559619431e-01
      2.0154413827601531e-01 -2.1140007084593984e-01
      -4.1574421588604200e-02 4.6851893514544579e-02
      -1.9403443531040387e-01 -1.3959995236857958e-01
      -7.0892669230666269e-02 2.3361357321370818e-01
      2.5526836917689586e+00 -3.4806796577692846e-02
      -5.2166733926515649e-02 1.7270985090361249e-01
      9.0154651809431746e-02 -2.0965172823841610e-01
      3.8790007019431127e-01 -5.6413031465276575e-01
      1.6833636923063977e-01 4.6481281271819150e-02
      5.0402837575353632e-02 -9.1298080799583597e-02
      3.7807890505949238e-01 -2.7080709025341803e-02
      -1.1436145521331717e-02 -1.4124583600173615e-02
      -8.1663749611661299e-03 -1.2685395438413824e-01
      4.6101697538751887e-02 1.7743973426824172e-01
      2.5033688003014447e+00 8.2728340605179862e-03
      -6.7750706010059711e-02 2.1413739543174914e-01
      6.4324407968723130e-02 -1.7862643992472027e-01
      2.5935334543879002e-01 -4.6277996714936331e-01
      1.0244071027788375e-01 4.9408176288505377e-02
      1.6532634580405933e-02 1.2055901964910955e-01
      4.3272579958775442e-01 2.6036455911986153e-02
      1.8013561161265609e-02 -1.3082032004105476e-01
      -2.9187501386023013e-02 3.7691096687110480e-02
      6.2289355075252850e-02 8.3645523997851509e-02
      1.5285369686696739e+00 -2.3132364297202712e-01
      -1.0087006614387910e-01 1.0896304228148355e-01
      2.4208926905402670e-01 -1.3291465030971475e-01
      5.1681033613770755e-01 -5.9093440703645583e-01
      1.9663022479694239e-01 1.3788443523101793e-01
      -2.1021623817323654e-01 3.3355996947938821e-01
      -4.0650598601309046e-01 6.4810919361686842e-02
      -2.4587387913851278e-02 -3.6787370566075721e-02
      -1.5620059899628586e-01 1.4874693878769410e-01
      -4.4495431232489474e-02 8.7329704149123374e-02
      5.4474571758647428e-01 2.0477929860888403e-01
      -1.8442298295882539e-01 -3.3584046748237950e-02
      5.3476912283407702e-02 -1.7822193852949286e-01
      2.6039342728890824e-01 -2.4984705483090888e-01
      6.2004430039015533e-02 1.5564138944989547e-01
      -2.1887089440150831e-02 -5.2420698711812944e-02
      1.0201735843853529e-01 2.1657522024152914e-01
      -7.5965945209773372e-02 -2.0952002293823116e-02
      2.2104944256243297e-01 1.3844655929869945e-01
      9.0409560935493516e-02 -1.2138402475020657e-01
      1.0839331410792190e+00 -1.3385101320246209e-01
      -6.2742858301362670e-02 -5.3399109161773789e-02
      -1.7545410113590879e-01 -7.6564249689065236e-02
      -3.8452328237188506e-02 1.3154036780345615e-01
      -1.3781101570311552e-01 1.0890924906583552e-01
      -3.8663520258475498e-02 1.8884961425603777e-01
      1.7713107277462789e-01 -1.4955382234713311e-02
      -5.4818432811906292e-02 -1.9573233206601776e-01
      2.0551365518718384e-01 4.6577287180714549e-02
      3.9149582741552780e-02 -1.6023784168307367e-01
      -2.8239268574335652e+00 1.2072497135292332e-01
      3.7999215707277552e-02 -2.5750826316463710e-02
      1.2800995712992869e-02 1.4292298939937706e-01
      -3.7896643523524043e-01 3.0902452717534905e-03
      -3.6010694082681727e-01 7.7738825042802231e-02
      2.2862421244475958e-01 -3.3408979461903993e-02
      1.4008345059144073e-01 -2.5919823831910240e-02
      1.8651768446870554e-01 -1.4876202263587764e-02
      1.5095640690098703e-02 1.6074918726906509e-01
      -1.0592909634072993e-02 -1.6290840298722211e-02
      -2.1166280051069362e+00 -2.8251726790618198e-01
      -4.0556101328214120e-02 -2.1229332764157788e-01
      2.8707984354110552e-02 -9.9008761773244549e-03
      2.0231312659369921e-01 -1.6084829581858259e-01
      3.4220535128973623e-01 6.1204240092782289e-02
      -1.2010955021611187e-01 6.9371931561052147e-02
      -4.6912783529563212e-01 1.9284160498300137e-01
      -1.0639707867712518e-01 1.0739170999059967e-01
      -5.6893880606022677e-02 9.9659172975265692e-02
      6.8041066435622063e-02 7.9246853897117664e-02
      -1.0223417766699707e+00 -1.2429219739051610e-01
      -5.6268177174703359e-02 -7.4772528060330357e-02
      -2.2764660267858724e-02 1.1201668575762563e-01
      -1.2691019266479442e-01 -1.1991088492131123e-02
      1.4466222920985447e-01 -1.1864753382130117e-01
      -1.7549138633361720e-02 -6.7537262776334553e-02
      -3.5211616656719125e-01 2.4163769227616105e-01
      4.0996806314127374e-02 -8.1928434881620195e-03
      4.0797298839309958e-02 6.8744186142620053e-02
      9.4450343734895414e-02 -9.7007454158092293e-03
      -1.8798059268910934e+00 1.3239961714296523e-02
      -1.5148256854146563e-02 2.0882284264944315e-01
      -1.5838048245514827e-01 3.1666297274829730e-01
      -3.8366988683065389e-01 1.7000842037588387e-01
      1.7247250730301222e-01 -2.6369729960055854e-01
      1.9845207923702507e-01 -1.6482314487897404e-01
      -2.9296794389475572e-01 1.7655165954651314e-01
      2.8730811529184658e-01 1.1325526898104489e-01
      -5.7161586457468640e-02 -9.8735052937838283e-02
      -2.3894269689367583e-02 1.2567361020781037e-01
      -1.1282943443013735e+00 -1.5336122163777249e-01
      -1.3218610339745071e-01 -9.4943492934328647e-02
      -2.7953659613721188e-01 3.0477132733248113e-01
      -4.2559015657137755e-01 4.2327075704459860e-01
      5.6592919757733361e-02 -1.3689959827915665e-01
      3.6137076114940675e-01 -8.6614317115783754e-02
      -3.4792189517521449e-01 1.7480240632598704e-01
      -1.2638898370329354e-01 -5.5983598420885289e-03
      6.6586161333729382e-02 -4.0029336107899917e-02
      5.2045667165215387e-02 -1.4410071055306420e-01
      -2.2966194118441137e+00 9.3574088164814939e-02
      1.0965609422860746e-01 -2.0227639099691541e-01
      -4.6792934328476136e-02 7.5550035144008196e-02
      -9.0166262258766200e-02 2.2147130300891379e-01
      1.8822760996845272e-01 1.1176227950909718e-03
      -7.2040520533133756e-02 -2.0357285495640410e-02
      -8.1401919850383336e-02 7.2934751719056834e-02
      8.8946092164500168e-02 7.4626866857931171e-02
      -2.4372113956547457e-02 -3.1817273744855830e-02
      -5.6060687915580443e-02 9.0736576009869466e-02
      -2.2902259633056463e+00 -4.3415558695533998e-02
      9.4702609753140113e-02 -3.8908402792896882e-02
      6.1903774039158227e-02 1.2687715584890344e-01
      -3.4902855942010730e-01 5.0977600791722044e-01
      -1.5227353420961327e-02 2.7362230645520586e-02
      9.7458241967518455e-02 -1.0070014372287951e-01
      -8.7678467119814071e-02 7.5520206395330788e-02
      -1.1448730202949314e-01 4.2414330424518122e-02
      -6.2269677532096120e-02 -5.4459571054623478e-02
      -1.3704473195077152e-01 -4.1191649288614234e-02
      -1.7738561335657295e+00 2.0855798217056007e-01
      1.1692140569080956e-02 2.3100741303399042e-01
      9.7210383757330834e-02 2.4303815487342631e-01
      3.3291757650749133e-02 3.0005886741069784e-02
      -2.8855411287309833e-02 3.8417747712236903e-02
      2.2519268799814129e-01 -1.1194389227248586e-01
      3.6760391503859867e-02 5.7610896900192173e-02
      2.4120164809613132e-01 1.1303706707659998e-01
      -8.6196814690295779e-03 -8.0179477379998920e-02
      2.4724303367027568e-02 -9.1046369815613676e-02
      -8.7315294490071216e-01 -3.8048739627268870e-04
      1.7474327062850775e-02 -1.7033871957634295e-01
      -7.8531897199006773e-02 -2.1791419005691157e-01
      -1.3956072909569936e-01 -3.7526024673868319e-01
      2.2110847256067137e-01 4.8291472153703573e-02
      -1.4884886900399277e-01 8.4182988617432883e-02
      -2.1691535278942539e-01 -1.3848261528436262e-01
      -7.3910716253621278e-02 -7.4209095869808228e-02
      1.3428231615420175e-01 2.0390162516289687e-01
      7.5681963820528386e-02 -1.6066070252196921e-01
      4.6000419317525792e-01 3.3485465710078488e-02
      -1.3065237730527283e-02 -2.0065207124561482e-01
      -3.4921698237625926e-01 3.2968864293176442e-02
      -2.8780325849427073e-02 3.4801773346839343e-01
      -4.7669741499754607e-02 -5.3243300749641002e-02
      4.2479542944309244e-02 -4.4522932825881767e-02
      -3.4407630907958738e-03 1.2079791127276644e-01
      -2.2947743998382583e-01 -3.1402957222257105e-01
      2.2787327466599344e-01 2.8039829364300423e-01
      1.4388368684878092e-01 -2.9865885193594194e-01
      8.0704644097740996e-01 1.0694408177070393e-01
      -5.3152675490519885e-02 -1.3535094088186031e-01
      -1.0595249250826494e-01 -1.1209057999706560e-02
      -1.4598023263622142e-01 2.0499141733576298e-01
      -2.1366966277060787e-01 -8.0726715496319268e-02
      1.6777150192922921e-01 -2.1011885770420704e-02
      8.6701506710379295e-02 2.6059888367357492e-01
      1.7211675360365622e-02 -1.7249337492039898e-01
      1.9408178819278946e-01 -2.3086604825164003e-02
      5.8459292545141013e-03 -1.3536470050092494e-01
      6.3858310836168086e-01 2.4069777047502353e-02
      -9.0978846545194308e-02 -3.3935544149819258e-01
      -1.3558571118155835e-01 -7.8741675448638540e-02
      3.1406618969328948e-01 1.5855908341649019e-01
      -1.9257834619656397e-01 2.0410892003517398e-02
      2.7218323200290417e-01 1.1076720130851533e-01
      1.0432719267866385e-01 3.3914328801146526e-01
      -2.3916888613263917e-01 -2.4624769030745389e-01
      1.7993482180749049e-01 -1.4574136745780977e-02
      3.4990281206686562e-02 -2.6884635754388325e-01
      1.9642459513036530e+00 -8.1038846952830187e-02
      -5.8434224936086292e-02 -1.8547033307229294e-01
      -6.9854558903018629e-02 -3.0084276529831755e-01
      2.9979960838966374e-01 9.7681650845497944e-02
      -4.3148871714906403e-02 5.9742840476187629e-02
      1.1171152082733937e-01 2.5013656221361719e-01
      2.5601648309843444e-01 2.5466753314165669e-01
      -1.8894144907732410e-01 -1.2824272299436956e-01
      2.2903418231824924e-01 1.4698376183983201e-02
      1.2465357779112046e-01 -2.1341564396342694e-01
      1.3164142434507344e+00 -5.0042642699294114e-02
      1.3016149046235159e-01 -2.0588007802823455e-01
      9.5938213191408328e-02 3.3925151248248721e-02
      2.7347943195997521e-01 -8.5382199317934337e-02
      -2.4503284265149047e-01 1.4624534254581342e-02
      -2.2751135032998732e-01 3.1950011348706081e-01
      -2.4491904893397250e-02 -1.3742519277984899e-01
      -2.0990744460171681e-01 -9.4391144858836498e-02
      -4.4891918444049127e-02 2.5619374300780887e-02
      -5.1188491396325642e-02 1.3069447724136835e-01
      -2.4604753770937030e-01 -2.7902268764483932e-02
      1.0499144402270856e-01 -1.3450931386995379e-01
      9.4770922034553381e-02 2.8935533377331885e-01
      -8.7671630718366089e-02 8.3491617819811084e-02
      -4.6897721824097782e-01 -5.0303200388997485e-03
      -1.3770031234120933e-01 1.4508204711219399e-03
      1.3994767084407908e-01 -1.7347746038951223e-01
      -1.7821705498153644e-02 -3.4779030638409092e-02
      -5.5596160134947462e-02 5.3894702554746564e-02
      -6.3625537768641147e-02 1.1229745898524270e-01
      -4.6191208402151664e-02 -7.9856249442535943e-02
      4.8077523253279034e-02 -6.6908798133130346e-02
      5.7837710735572964e-02 3.6961377624952767e-02
      6.7905151024048316e-02 1.4515541091097980e-01
      -4.5719543756184267e-01 8.1277876198031840e-02
      -2.3061261718920301e-01 3.8327977933905008e-02
      2.5277700829451250e-01 -7.2196321967297569e-02
      6.4321470391274296e-03 -1.9028621457181516e-01
      -2.2363779338170026e-01 1.3976552522679344e-02
      -1.6946281492009087e-02 1.4555942015657108e-01
      1.1712909007206532e-01 -7.7475473486475030e-02
      -3.2710366810916956e-02 -1.0570855296844486e-03
      3.7199813633287067e-02 7.4385731133201058e-02
      2.1912589204030392e-01 2.0205807972918124e-01
      -1.9986408831900118e-01 1.3179651699226172e-01
      -1.3868811050812821e-01 4.1967899226622273e-02
      2.5798431103045755e-01 5.3248967589025260e-02
      2.0059818460632903e-02 -1.0178370893578323e-01
      -1.7247477688645799e-01 -1.0417169511044189e-01
      5.9489132092365629e-02 1.6668662856311323e-01
      1.9907000270471167e+00 7.9396441818092481e-02
      -3.7895418261999492e-02 2.2785482738212604e-01
      8.4111488470437229e-02 -1.5400147249335314e-01
      2.1340541594714318e-01 -1.8890700526446805e-01
      -9.5989745415351081e-03 5.6036774298871918e-02
      -4.8752669228083634e-02 1.6320594345752573e-01
      1.4207543633843389e-01 -3.7754381245044107e-02
      4.0094908063030323e-02 -1.7132133145052586e-01
      -4.8813293547363253e-02 1.1933495944444555e-01
      1.5769413417916357e-02 4.8360896393872158e-02
      -8.5397390840713336e-02 2.5958833395190289e-01
      -7.2395212580051743e-02 -3.2217322728837250e-01
      1.2994908371136943e-01 -1.1020390692965082e-01
      2.7885827764838222e-01 -1.4047265260084546e-01
      -1.2624694440945930e-01 7.0721173109781960e-02
      -1.8022475445018585e-01 2.5240396232824358e-01
      1.2265253316662926e-01 -1.5891163447620180e-01
      3.0702206606112456e-03 -3.5040305903309213e-02
      -9.5292323882306781e-02 9.9877631978317859e-03
      3.8045868425338511e-02 1.5644957414471136e-01
      -2.0731203139205037e-01 1.1886322639449967e-01
      -1.4897960496859555e-01 -1.3938856092336460e-01
      3.4633508421714643e-02 -3.3392790227788105e-01
      8.0024012892822438e-01 -8.5598047163483004e-01
      6.9969812873302406e-01 5.5804013541835153e-02
      -2.2478144974485301e-01 1.9624136155738225e-01
      -6.8764432722668032e-03 1.5463014518700077e-01
      -4.1426828838884558e-02 -1.9336197887572480e-02
      4.8912214778794996e-02 -6.2566872692605260e-02
      1.4612389772339282e-01 2.0666603865121369e-01
      -1.3190647552224348e+00 2.8014665569316149e-01
      -1.5512491127723690e-01 7.7325197674242951e-02
      3.9194005494040070e-02 -6.1184743769144116e-02
      -1.5366907291093188e-01 -2.4496839374407342e-01
      1.1977625598259349e-01 7.0311079751481487e-02
      1.2613219613516663e-02 -2.8202372197877917e-01
      3.4663161511595170e-01 5.9980278209306639e-02
      2.1436526577137435e-01 1.9462975172047328e-01
      1.4807861019606086e-01 -4.8591571713303576e-02
      1.0183849235810674e-01 2.8775942775370360e-02
      -1.8089966293600575e+00 2.9408438989320751e-01
      8.4900858788908268e-02 2.7971453088863657e-01
      2.7673433580883561e-02 5.1048779449578996e-01
      -9.4788545347417308e-01 1.1090957301424549e+00
      -9.4286361020494691e-01 4.3882498258721182e-02
      6.1767229020329872e-01 -6.0926533657550308e-01
      7.6369215288935710e-01 -3.9056730289417335e-02
      8.9835917348511013e-02 1.2476661409747726e-01
      9.5395836729197797e-02 -1.1475742927254136e-01
      -1.7349776322264785e-02 -1.6401575724714030e-02
      -1.6794176343075602e+00 -1.1217589215833745e-01
      1.5006238173694080e-02 -2.3393133658867915e-01
      2.1792201825272114e-01 2.1313299495450502e-01
      -9.6200508095463835e-02 3.3442592271401582e-02
      -2.1912417184798358e-01 5.5804079200451280e-02
      -1.2858103257207903e-01 -1.3841013542836222e-01
      -3.6788003667711389e-01 1.0726233797467130e-01
      -1.7221100291577937e-01 4.9645171877025850e-02
      -6.5677926892330055e-02 1.6109031336789389e-01
      -6.7807224417842857e-02 1.1975580293377501e-01
      -1.1088626330813061e+00 -1.1529900657987334e-01
      -9.4379523420861700e-02 -3.6090204361905895e-02
      -4.1090424736488478e-03 3.0537023024575654e-02
      2.6399645451553005e-01 -2.9094857653025052e-01
      2.6259503010787349e-01 -6.5026826717111783e-02
      -3.6493043059160804e-02 -8.0479739436717823e-02
      -3.2734167342151149e-01 2.2155760124486573e-01
      8.5301341281430812e-02 4.1946601514469871e-03
      -9.7025748984030977e-02 -9.1185641040736773e-02
      6.0506588826009615e-02 1.0419669604349764e-02
      -2.0917536032445069e-01 -3.5838875392796517e-02
      -7.6462508412649011e-02 -6.3981565084346922e-02
      -2.6477430867195173e-01 2.8971326732546776e-01
      -2.6774183440483901e-01 2.6444883163073168e-01
      -3.1487530904207528e-02 -2.3241867788835274e-01
      3.7890766127603542e-01 -1.2672278945597640e-01
      -2.4481863676944451e-01 1.5808961326055240e-01
      -1.0849971698106843e-01 -1.4339170085929087e-01
      1.1065345936971492e-01 5.3050486089187610e-02
      1.0272694326925028e-02 -9.4902910253559347e-02
      -2.1766307134901868e+00 -4.1818244027327506e-02
      1.9722662455763051e-01 4.0641960156114924e-02
      1.4678185962855028e-01 2.5576612387569187e-02
      -1.0763629908327281e-01 -2.0367459378830272e-01
      1.9164200407031656e-01 -1.3424191768845292e-01
      -3.7481945427888512e-02 -3.3701203321884594e-02
      -1.5135599602448779e-01 6.5214944213942650e-03
      1.3230121735252984e-01 3.7358305127566233e-01
      -2.9853023816072959e-02 -3.5682234895818891e-02
      -1.3049815740345572e-01 1.5227618747978844e-01
      -1.7514047848168519e+00 1.5555694836047487e-01
      1.3597379099445750e-01 2.5893495010869433e-01
      3.3269593810917701e-02 3.0176894871335919e-01
      -6.5470508584951503e-01 8.3700474031990990e-01
      -5.8129825145072123e-01 -3.2562480827711127e-02
      4.4615884820219653e-01 -2.0587756132380963e-01
      1.7288677012731965e-01 -4.2010962760110841e-02
      1.3359319415884735e-01 -1.5194485452526232e-02
      -6.2713488691880370e-02 2.0875622154042026e-01
      -9.4949861774542690e-02 -3.0775995007932583e-01
      3.1528083116727157e-01 1.7186100478409082e-02
      -2.0402072688684311e-02 3.4088073898700449e-01
      -1.9127023261625242e-01 1.5048057554694436e-01
      3.3323784992070887e-01 1.0481095911798605e-01
      1.4474725252189274e-01 5.2311749568696921e-02
      4.0259719993032095e-01 -9.5452900667603049e-02
      3.6522177775446024e-01 5.8362691493791419e-01
      3.3327387940428127e-01 -1.3694497897717431e-01
      8.2855741452411161e-02 8.0484409030866330e-02
      1.0042900626630433e-01 -3.2514141410987685e-01
      -3.2153137879444793e-02 -2.0009465646347044e-01
      -8.7391854573085251e-02 -1.5737775740581381e-01
      9.1901774248845228e-02 7.4144355651763125e-02
      3.3410593576868869e-01 9.8887985287149302e-03
      2.2063405456595755e-01 1.9064712749620952e-01
      -2.2385392428575693e-01 5.5476044737738026e-02
      -6.7838123026560926e-01 2.4184100893351770e-01
      -5.6919625767926765e-02 -2.8004311626581796e-01
      -1.0886636052473965e-01 -7.2718415311525897e-02
      8.4395816433474227e-02 -4.4332023993168199e-02
      1.7609479116904403e-01 -1.0936137470825814e-01
      -3.8293283048320588e-02 -3.5976303511429164e-01
      -7.1279247861398942e-02 2.3743199592206404e-01
      -2.3079273945671899e-01 2.6793922173707474e-01
      -3.5589209745199651e-01 5.4749042541040391e-02
      4.6156740814437415e-02 1.0466932493635067e-01
      -2.9484807034281291e-01 9.6872877739030416e-02
      -2.9006756904926850e-01 -2.3530007219374147e-01
      1.8554531159680648e-01 3.3234913392399618e-01
      1.3750387079499743e-01 -1.4054157133809406e-01
      -2.2844601344120077e-01 -1.5503728064690442e-01
      -5.4106167866995805e-02 -1.3376709395372133e-01
      -8.1040346382761794e-02 6.9403809354179308e-02
      -1.2423654069764195e-01 1.8649268429068566e-01
      1.1141521109618185e-01 -4.8909880310687270e-02
      7.0210638238031031e-02 1.0198391152051287e-01
      -2.8816180537655073e-01 1.7252616675015520e-01
      1.5968635018875132e-02 -1.3660997416702379e-02
      1.2732821843386558e-01 -5.0667761349525900e-02
      1.0276343502022028e-01 -5.1258206832030945e-02
      1.4671744236050583e+00 -2.1312252618493327e-01
      -2.2331434184785989e-02 -3.5251466481901644e-01
      -1.0738191809047645e-01 -6.9768890602037809e-02
      -2.2168918642208327e-02 3.0448755136023281e-01
      -1.9947698198161984e-01 -1.6421830478860058e-02
      6.7226709696126888e-02 3.0689796430410310e-01
      -1.3628855088005570e-01 1.1937784589186554e-01
      -1.6148931190572385e-01 -2.5566726892966479e-01
      1.1011072822969178e-01 -1.0538434400808008e-01
      1.5944734307498782e-03 -1.4652923745172139e-01
      1.1971281769369757e+00 -5.3209647049291132e-02
      1.5300126737682337e-01 -3.8549568915385496e-02
      -3.3825591781231880e-02 -6.9063844386678716e-02
      -1.8249862448740187e-01 -1.5917499037907964e-01
      -2.9197347628859616e-01 -1.1427604512051348e-01
      -9.0502450995919345e-02 3.7271045597732776e-02
      -7.1099010598856580e-02 2.4350177349343593e-02
      -1.7657222207182297e-01 -1.7859890631066974e-01
      8.6225232290354253e-02 2.0465865855968598e-02
      -1.5252896890892856e-01 -1.4731145870656491e-02
      -1.7540242744122081e-01 -2.9200896833816332e-03
      1.5628502248615370e-01 -2.4242029167557206e-02
      -4.2437770389484188e-02 5.7979357197200715e-03
      -4.8556097801325561e-02 -1.2687668911317018e-01
      -1.0539468831206585e-01 -7.4815636284392431e-02
      -5.2564882610865817e-02 9.8190864610610117e-03
      -9.0254879645139899e-03 -3.4658103431775548e-02
      -1.2582795080405704e-01 -1.1593331712634582e-01
      4.1702858563798448e-02 -5.1944126004996954e-02
      -1.6254771485250893e-01 4.3424286823041149e-02
      -4.0789425662220963e-01 7.7299928896480977e-02
      1.1320955858668633e-01 1.4411428218794353e-01
      -9.4849938657042936e-03 3.8359496865723999e-02
      -1.8335711226132634e-01 -2.0627296100678610e-01
      -1.1079890533264303e-01 -4.9064742133550471e-02
      -4.6768403328635744e-02 -1.9388050665938764e-01
      2.6674810856334447e-01 7.0522971203656304e-02
      1.2658637550093527e-01 8.6292680554624288e-02
      5.1358977234743843e-02 2.9733073461535479e-02
      -5.7570382074807872e-02 5.5724859739053299e-02
      -8.8211624130978328e-01 -1.5030596285812315e-02
      7.1768019867157085e-02 1.3443003197554584e-01
      3.5324775410622343e-04 1.5607660846578539e-01
      -1.5968849090659479e-01 -1.5623945313712251e-01
      -1.6353950273901249e-01 -4.7358207197024431e-02
      -3.3010732830763467e-01 1.4458984512005518e-01
      5.3398420252319494e-02 -8.6294580336739007e-02
      7.3054656413466812e-02 2.0793589172674744e-02
      -1.4732051874373300e-01 -9.0196086493138913e-02
      -7.6701541342932458e-02 2.7455157083638798e-01
      7.1195858096479625e-01 -1.0617185933048435e-02
      -1.9839508621452184e-02 8.5434036634885580e-02
      3.5037276600854456e-02 -3.3349995955160800e-04
      -8.9077067586214642e-02 -1.2246843012603605e-01
      -2.9464288094347763e-01 -3.0979473096109486e-03
      -6.9818256191187270e-02 1.8479233401010442e-01
      5.9615604545727306e-02 6.4071278911546903e-02
      1.3588405611100581e-02 -8.6654484574688037e-02
      5.4153710416011351e-02 1.2253724121001355e-01
      3.3191929786481181e-02 2.6959261809593939e-02
      1.1074936373800373e+00 -7.9986178704927316e-02
      -1.3346194393038502e-01 -1.0850496524938189e-01
      3.8409897417574203e-02 -1.1818363691098067e-01
      2.8959316588694345e-01 -1.2408230036697322e-01
      -1.5655433586504125e-01 1.0247055798603995e-01
      2.0025630274221043e-01 6.8984231671678747e-02
      1.3061415095655105e-01 1.5131016381260548e-01
      -1.1177431575743026e-01 -1.6494356229798926e-01
      2.2547741234275334e-01 4.5681469442361212e-02
      1.3572311464753065e-01 -1.5522389892192173e-01
      1.1777801309126923e+00 -1.8151123478916545e-01
      -1.4343702796621635e-01 -1.5304202232442726e-01
      1.0532194497353392e-01 -1.5714448611584900e-01
      1.0913436049821673e-01 5.0566120981316964e-01
      -5.1622499351498841e-01 1.6581294983870312e-01
      9.9067932000020634e-02 2.6863032639839785e-01
      9.3498964417615238e-02 -1.2990595595268559e-01
      -2.5602830813064048e-01 -2.8497116758905938e-01
      -4.5860485694287885e-03 1.3639312998732034e-01
      1.7926400889172850e-01 -1.5660242316160833e-01
      -2.2516079767009858e-01 1.7245439153585568e-01
      -6.3882394523803260e-02 -1.7436240935238845e-01
      3.7755607345021321e-02 6.7235447038125715e-02
      -1.8464205960101934e-01 2.7080352911007294e-01
      -2.6313371256413931e-01 5.1450556305671490e-02
      1.1470745860333025e-01 -1.1565743014753115e-01
      1.8477339158161010e-01 -6.4683509759188559e-02
      -1.3328763111331177e-01 -3.8188708753970027e-02
      1.4033219599895200e-01 3.1584531031199753e-01
      1.3171485284139375e-01 -1.1398032606049101e-01
      -8.6058218665907793e-02 -3.4355459484814881e-02
      -1.8713137940265340e-01 -2.8738808132325083e-01
      4.6205033901656686e-02 -3.5985809864704238e-01
      4.5968863198176002e-01 -3.3009487575904073e-01
      3.5545412875263466e-01 5.0661721513803597e-02
      -1.5733673460798459e-01 2.4327289652484776e-01
      4.7581473590608520e-02 1.5754928463399759e-01
      -1.5353513191899890e-01 4.8810802598332322e-02
      1.7591491992687855e-01 -8.7539462300632379e-03
      1.5180424594277583e-01 -4.3637518494161920e-02
      -1.9590160949343496e+00 3.0209554793239660e-03
      -6.1519266283790695e-02 -2.1348155072855476e-01
      -6.6495273520725456e-02 6.6987458359510060e-02
      -4.7381795823297301e-01 3.5645212157144063e-01
      -1.4573332310930323e-01 8.8889819057311859e-02
      5.0370823884937493e-02 5.5146939650422631e-02
      -5.8347044193728888e-02 7.0373100492321363e-03
      -5.8982629971268151e-02 1.7938161493509025e-01
      2.1856605272343968e-02 -6.0831711282448964e-02
      -6.4361680144705335e-02 3.5695816185096943e-02
      -1.5354895593978404e-01 -1.1411792567124945e-01
      -3.4042143310470438e-02 3.0308871206878224e-01
      -1.3638383456817393e-02 -2.5889675552289867e-02
      -2.5122889974991269e-01 9.8644814458562186e-02
      8.8731192922641727e-02 -5.2334730352718850e-02
      8.3802245038916853e-02 -2.8941647660559566e-01
      1.0391990696614850e-01 -2.2752341873624758e-02
      1.2941398339511545e-02 3.6962478285101526e-02
      1.1661429064943923e-01 5.2721744341201401e-02
      -3.5845058752774876e-02 1.3687437812511591e-01
      -1.1019010895744148e+00 -5.7982317395045606e-02
      1.2278872571303341e-01 -1.0188033489421695e-02
      -2.8673815450998988e-03 2.3118033748621616e-01
      -6.4007460065365818e-01 7.8784899919612217e-01
      -2.7360050270604042e-01 -2.2583282099404492e-01
      6.5770955326069372e-02 2.8712942946389434e-02
      3.0498718399269032e-02 -1.6305595265858847e-01
      -7.0663131207969701e-02 -1.3067877080393879e-02
      -2.9555013091042209e-01 7.7463664609427260e-02
      -1.2029046240481896e-01 1.2454781594948854e-01
      6.7852202165487308e-01 -4.8525026536079430e-02
      -5.9476516933775037e-02 -3.7446512756326648e-02
      6.0850992557430539e-02 -2.1506698544727545e-02
      6.2797173384112615e-02 -1.0381650219253802e-01
      -1.0853043380343999e-01 -2.4241950485996497e-01
      8.6110986974085202e-02 6.6866803243201354e-03
      -2.5073437138255650e-01 8.5351493202861478e-02
      -3.6650150590005856e-02 -5.2698833758316285e-02
      3.9252457171617593e-02 1.1894589835278160e-01
      -4.0688435019468117e-02 -4.2579632812344968e-02
      -9.5308701650703265e-01 6.6143865107428562e-02
      1.0337636949216361e-01 1.2995486418266974e-01
      2.6403680412972969e-01 -4.7080757613983504e-02
      3.7271075293376221e-01 -3.3845078664000439e-01
      1.7380714937059896e-01 1.1767024230793620e-01
      3.2885216022884585e-02 3.5017368812874296e-02
      9.0182551081176426e-02 1.9474108665646225e-01
      -2.4712826917834971e-02 9.0868551225455660e-02
      2.1191614746742335e-04 1.5530629626349685e-01
      6.2012635129836046e-03 -1.7929669278532845e-01
      2.2409614032426875e-01 -3.7014557537334519e-01
      5.5211380772147947e-02 1.3179638800990287e-01
      6.5857927973379582e-02 -3.4676690473822519e-01
      1.0353810792016993e+00 -1.5798156876750395e+00
      1.2823696150163186e+00 -2.8714050423894608e-02
      -4.0602305408940242e-01 3.1424480534886889e-01
      -9.4140050880690085e-01 5.7804167223693681e-01
      6.2225487406356722e-02 2.3011968033122911e-02
      -3.3003187041784126e-04 1.5302936601046235e-01
      -1.5667099919617467e-01 -1.9204809983868990e-01
      1.4780452313721228e+00 -1.9582899434596707e-01
      -8.4035458331872648e-02 -2.0728331032950967e-01
      3.8805413580873478e-02 -1.3149221429964619e-01
      1.1120208524799380e+00 -1.3070102206398013e+00
      8.8802575880857582e-01 1.6410063972502714e-01
      -5.7194806196454971e-02 2.9528554213514807e-01
      -5.6452823752068648e-01 8.4959749485945490e-01
      2.2544530667542202e-02 -2.1466004425466786e-01
      1.7550235415436313e-01 2.4852062431496608e-01
      4.6325094275807221e-02 -2.7047841364774833e-01
      -2.6047607407568474e-01 -2.7001006157094300e-03
      -1.2949611056180957e-01 -2.0385488180853481e-01
      -8.9741311331450857e-02 2.2341270501204616e-01
      -1.3551523042787741e-01 3.2771335261364931e-01
      -1.0301052121402934e-01 1.2336091078384304e-01
      -2.5178978537872702e-02 3.4454641364133634e-02
      -2.5778595075257071e-01 2.0464857884326218e-01
      -6.9422388744337232e-02 -7.5163998864016465e-02
      1.0895349469454153e-01 2.9891995386717152e-01
      1.7525472556445787e-01 -2.0732671094315333e-01
      1.6075955580355312e+00 -3.8593360763488051e-02
      -6.6613195582571019e-02 -4.5353711061762630e-01
      5.6882792482717451e-02 -7.9332395456237534e-02
      2.2660507973376445e-01 -1.4211230619891352e-01
      -1.2440305280774352e-01 1.2021936388636530e-01
      3.3891395535151705e-02 1.8255826246990320e-01
      -1.6950225424603291e-01 8.2897531694825347e-02
      -3.6021350524219203e-01 -2.6646928346406129e-01
      1.6550232240172699e-01 2.3896941715373890e-01
      1.7900364306080505e-01 -1.0055022645656328e-01
      5.2413633339349119e-01 -1.5564498093842602e-01
      -6.4852140302381886e-02 -5.2055715345101161e-01
      7.0722985656165971e-02 1.9079748070253862e-02
      1.6852774261773859e-01 1.0635379857987276e-01
      -3.5001109279911326e-02 9.2573475273668535e-02
      2.4239160280523878e-02 1.3925270569649301e-01
      -3.2014081874181938e-01 6.0445664180536686e-02
      -2.1774180155946726e-01 -2.0336028662331412e-01
      -2.8868044658446222e-03 5.4413669723252324e-02
      1.5387976998931618e-01 -1.0641503117280572e-01
      1.7026746122980494e+00 1.0128590025375919e-01
      -4.2147178577460490e-02 -4.4498752829118804e-02
      1.2564092815178627e-02 -1.7095083249948095e-01
      1.1780836137689348e-01 5.9873203605920695e-02
      -1.7000799961794619e-01 4.9607560401057779e-02
      1.7689709875931892e-01 -1.3385978913910754e-01
      9.8615337802118758e-02 1.4378763622569987e-01
      -1.5935092935349224e-01 -3.2967492812564997e-01
      9.1434957980805753e-02 1.0822082029690819e-01
      1.2956013590280671e-01 -6.5314769758189686e-02
      1.4173070804478327e+00 3.5093514964884692e-02
      1.0921187815545166e-01 -3.2313963643242301e-02
      -1.5383336298199065e-02 -2.2073276644078262e-02
      -1.5288960780903374e-01 -1.5383331761460098e-01
      -1.5744680765829411e-01 -4.8336800338214372e-02
      -7.3207600210851986e-02 -6.9341172179027924e-02
      -8.6665563771438719e-02 9.8046843914455201e-02
      -1.3653544100638815e-01 -2.4920216866497122e-01
      6.4201806845999507e-02 4.2361255352981193e-02
      -8.1010484999876217e-02 8.6632456292089696e-02
      7.3921558168480694e-01 1.8601325101270813e-01
      1.1391282338578647e-01 5.3906965372586206e-02
      2.4699839466691142e-02 -6.2626735301809927e-02
      -2.0838492530824798e-01 8.0508771904515025e-02
      -2.2514411932655315e-01 -7.2735220451590185e-02
      9.8490174699361305e-02 -9.3565547087706161e-02
      2.1713892480690741e-01 2.8176321030497799e-02
      -1.8677019968948591e-01 -1.6864162364406407e-01
      1.6885995456609618e-01 2.3232139806811397e-01
      -1.3611357022982307e-01 -1.1107632150573615e-01
      9.0897789361059811e-01 1.7806393404432447e-01
      4.2355206155260242e-02 2.5439262429661841e-01
      -4.3094261350306376e-02 -9.8317018087269101e-02
      -2.5182146042723791e-01 -1.8326211851143462e-01
      -1.2958221583254592e-01 -2.0407995660603973e-01
      8.2923115145353221e-02 -1.2091053712110474e-01
      4.3928947018825792e-01 1.5924080425875764e-01
      1.1922076716221043e-01 -6.2380604724443803e-02
      2.5993853066157940e-01 2.3665079990977839e-01
      8.2553729734985426e-03 -7.0204913163699173e-02
      1.4433320943510448e+00 1.6459010012302280e-01
      4.1900830886464326e-02 3.0758240130460707e-01
      1.4690965104772269e-02 -3.2916277733194312e-02
      -9.7603192343759526e-02 -1.4126976053374260e-01
      -7.4555693159770425e-02 -1.2633959112621421e-01
      -1.0562564346910067e-02 -1.0131256446846373e-01
      4.9414697565695592e-01 1.6220076577837231e-01
      1.1872611861641018e-01 -7.9427202416382611e-02
      1.9586603931720853e-01 9.9745998427903257e-02
      9.6522436178075918e-02 4.0891676144380981e-02
      9.8282221256811508e-01 4.2706158585021782e-02
      -5.3269152979991671e-02 -6.8055734991634333e-03
      -6.8328283587418132e-02 -1.7715643582699805e-01
      -2.4876997479075510e-02 -9.7885873432936227e-02
      4.4618728926632635e-02 -8.3025002965507105e-02
      2.7281357879577289e-01 -1.8089845178197653e-01
      2.4478262293809142e-01 1.2896798878282234e-01
      -1.4916275657782269e-01 -2.0749032129155992e-01
      2.0686243964170906e-01 2.3564868755957430e-01
      9.2404179324779581e-02 -2.3386274822863601e-01
      4.6433004856377619e-01 -5.8281871836746893e-02
      -9.7514788821853063e-02 4.0780918841130769e-02
      -5.3693056304874212e-02 -1.0587498186461567e-02
      1.8035086448725920e-01 -3.6199671020425433e-01
      8.7697465635661869e-03 -1.0544640134192594e-01
      4.6320681140183239e-03 -1.7201410924637027e-02
      -1.5173652795191822e-01 2.0337876675051778e-01
      -1.8806568061613282e-01 -3.7371927116527322e-02
      1.2290075500074467e-01 5.8854313276793711e-02
      9.9808898016106498e-02 -7.9838574062201864e-02
      3.7619233199320218e-01 -8.7021009014581846e-02
      -9.9226408019333162e-02 -2.1511844910218325e-01
      3.0037473675534325e-02 3.8402238895620354e-02
      2.9645721223085919e-01 2.7743308247574278e-02
      -1.5816253075592968e-01 4.8260166354435773e-02
      -1.3657791772183239e-01 1.9511495519258137e-01
      -4.9609143576035228e-02 1.2516069681328026e-01
      -1.3631502125237790e-01 -2.1064989898432709e-01
      -2.4986396937501832e-04 -1.3658073089212058e-01
      1.1290025550603108e-01 1.9065825182729240e-02
      -2.5711894226165799e-01 -1.2674974272502998e-01
      -7.7924205825631768e-02 -6.2995639943181164e-02
      -1.9702213991484915e-03 1.0636546355607947e-01
      2.6216119564052918e-02 2.6554202111232317e-01
      -3.2588509990045578e-01 2.7834664379464417e-02
      -9.3780689998436847e-02 3.2109868277924072e-02
      -2.2235455769663855e-02 -6.5078016589507565e-03
      -1.2484578548700377e-01 -7.3805447991613218e-02
      -6.4898835981603287e-02 6.0513613969337054e-03
      8.4712360041126492e-02 1.5540296751454593e-02
      -2.8791222959928003e-01 2.5914493600421523e-01
      -6.9266327107319142e-02 -3.2887769599814465e-01
      -1.1120739169484886e-01 5.7765539004439023e-02
      6.3791628959235305e-03 1.6610747156804320e-01
      -8.4744819737860341e-02 7.3992889763787206e-02
      -1.0204898324514533e-01 4.8734930966390692e-02
      2.1051043095207184e-02 -4.4924324332556671e-02
      -2.6361010903163307e-01 -1.9000373512760371e-01
      3.1072907542502696e-02 3.0063155671248837e-01
      1.0295027082141905e-01 -9.4268296915271332e-02
      -7.9700183008799974e-01 9.8044493265657187e-02
      -1.0226606732016195e-01 -2.9419770236945075e-01
      7.5332683925035740e-03 -1.0469670691574842e-01
      3.1342289949904945e-01 -1.7375557770960856e-01
      3.3290759972407125e-01 4.0558846356366716e-02
      -1.1711835015436718e-01 1.9189998399157784e-01
      -1.2319184166419467e-01 3.2526183797399653e-02
      -1.0553926669872143e-01 9.7421951405924441e-04
      1.9924266270333630e-02 -8.5924869996313047e-02
      -3.1034470272560920e-02 -1.1872333496446601e-02
      -1.1218302056479990e+00 4.1886420890474535e-02
      -6.6837025979926398e-02 -5.0562529997317279e-02
      -3.6146898130305191e-03 3.3663414108699198e-02
      -3.7626514472943418e-01 3.2247942730475282e-01
      -2.2597850701850614e-01 6.5943182926205920e-02
      1.6916559947693910e-01 3.0303726364194854e-02
      -2.4773481927467790e-02 -1.5533057629411715e-02
      2.9815488024427472e-02 1.4552375254038158e-01
      2.2541250074665353e-02 -1.6453182163334878e-01
      -6.9667762336679581e-02 7.7488464997094173e-03
      -6.2902573698068331e-01 -3.4712996985589428e-01
      -9.6160109350535410e-03 -2.3634953416196591e-02
      7.9126850964629028e-02 1.5531973549140080e-01
      3.5074116830669227e-01 3.0682813564096006e-01
      2.6526736048241112e-01 2.0054156037188263e-02
      1.7044771342846085e-01 9.9448456696152987e-02
      -4.7491565940581300e-02 2.6967984189998701e-01
      -1.2185858797040007e-01 -7.4446659869982473e-02
      -1.8010335153091064e-01 -2.8652087311138769e-01
      -6.2552204832660316e-02 2.5750669239918311e-01
      6.3215457029676392e-01 -7.0654737835305750e-02
      -3.9949777824719694e-02 -4.8662888788408180e-02
      1.8425811118947259e-02 -7.0041577488908102e-02
      2.1006356236193172e-01 2.2764016239979751e-01
      6.0210822466563632e-02 -9.5568229786752404e-02
      6.8456285317962620e-02 -7.5936362149064920e-02
      -1.2378015757340965e-01 5.8576078194796849e-02
      -1.5403804851913291e-01 -2.0785555925755247e-01
      -4.1335711663090149e-02 4.2510341380721815e-02
      -1.7352855008540499e-03 -2.8703197556184452e-02
      -1.0423299856350281e+00 1.0091033769390098e-01
      7.0231559452304346e-02 8.0691715633572358e-02
      3.1343593215802112e-01 6.0664573993894501e-02
      -4.0112273204902033e-01 6.3090407721526343e-01
      -3.7867940790858623e-01 1.7014421521698525e-01
      -2.7002914144859064e-01 3.3508165272766577e-01
      2.7663228386814942e-01 -7.7514575729519597e-01
      -9.4740988583943853e-03 -1.5567682986894288e-02
      -2.0466971234640224e-01 -1.3124058852276263e-01
      -6.8552428190612774e-02 9.9345572256199610e-02
      -1.4550024108096293e-01 1.8594573983406651e-01
      8.3278746096982853e-02 -2.5700924271293907e-02
      -8.2703191575427423e-02 3.9438857683773049e-01
      -2.7336799410045320e-01 7.3521706174175394e-01
      -5.0769891519325072e-01 1.4396753912533036e-01
      1.0357612072863211e-01 6.5536100508779685e-02
      1.3542951793956598e-01 -4.4910869375171159e-01
      -7.1716152764955687e-03 -1.3701937364298308e-01
      -6.9371815278774701e-02 3.0013442622931141e-01
      -1.5140516373062598e-02 -2.8784984892831539e-01
      -2.0270611089884530e-01 -5.6258751710789826e-02
      3.2071814055614101e-02 -4.1031177089285731e-01
      -1.4277139091014585e-01 2.5128104575950849e-01
      -3.0423370954322321e-01 4.7199635103368903e-01
      -4.3989978491800552e-01 7.5221831338747505e-02
      -6.3889180110732080e-02 4.0568247326273205e-01
      9.7622160906603750e-02 -3.7227762720111141e-01
      -1.0418552158534157e-01 -2.6360736685394287e-01
      -1.0423214834467699e-01 1.1431462286288982e-01
      7.4633233249657066e-02 -8.7988205692701688e-02
      -8.4491217960570089e-03 -1.3474510007521793e-02
      -1.1896646169910698e-01 -3.3932877560848951e-01
      -1.3327406793152258e-01 1.1243962156633217e-01
      -8.1761710875283250e-02 3.5673091492966785e-01
      -3.5501926948206769e-01 2.2174594020220589e-01
      1.1818458152590752e-01 -6.1074001852202617e-02
      -5.4477215185520227e-02 3.0629756077903098e-02
      -1.4720943501534700e-01 -1.7005909447408329e-01
      1.8934731689657266e-01 3.2444010672353202e-01
      1.7248816065706296e-01 -3.1683164907425865e-01
      7.4498257429991421e-01 -3.1908813444452436e-03
      9.0640521657647966e-02 1.4251988738470908e-01
      9.2706351136536219e-02 -2.5013925640024059e-01
      8.1038932175423004e-02 -4.2484508123295645e-01
      3.5735962199004134e-01 -5.4805275921919951e-02
      -2.6778237432847362e-02 -2.2330431959412997e-01
      -1.0806780662894784e-01 1.9615150581680049e-01
      1.9304901076645661e-01 1.1443937794094033e-01
      1.8738728824702575e-01 2.7977282739442303e-03
      5.4597500471237181e-02 9.4837017692084802e-02
      -1.0933199077850526e+00 1.3729634513076180e-01
      1.5473816440206848e-02 -9.0779447295339100e-02
      3.3481037364729641e-02 4.4943057811646633e-02
      2.8278175559159385e-01 2.1978908901101704e-01
      5.2723914201454322e-02 1.5884382404813147e-01
      -9.0718371890349161e-02 -9.3441146284332408e-02
      -2.0662254410224240e-01 -2.2939622523785792e-02
      -3.4508193627043804e-01 -1.5638798634254131e-01
      -1.5269715921227908e-01 1.6520677341137734e-02
      6.2257715082333111e-02 -8.3568481273317161e-02
      -1.3611209092871184e+00 -5.1527711436030701e-02
      3.4250916418739966e-02 -1.2272933617722169e-01
      6.5226648535804899e-02 7.2764420243303735e-02
      -1.9549196134311053e-01 1.1068202642923715e-01
      -9.9916322985296485e-02 2.1226810306105782e-02
      -8.5435417583498652e-02 -3.8562769009639885e-04
      -1.6897849087436984e-01 -1.0665642187602922e-01
      -7.7560985541898747e-02 -6.9175406746765783e-02
      -1.2645070918398746e-01 -1.8961055064864479e-02
      6.6453573200344257e-02 8.7632163762500895e-02
      -6.6184901194829449e-01 -9.7534120797364340e-03
      1.4980839959854159e-01 -1.0569697482127011e-01
      5.2358678293233096e-03 6.7084992581696160e-02
      -2.4591207099661652e-01 -1.7891276281416693e-01
      1.7893563791419723e-02 -1.3209182276869166e-01
      -2.4225302447437713e-01 8.4705337673295855e-02
      -2.4782653000062374e-01 -3.6184171009233095e-02
      -5.4681706157476584e-02 -8.2972991400388024e-02
      -1.5190512001718648e-03 -1.2444627713804108e-02
      -1.1213697874455245e-01 2.0123263586643628e-01
      6.2401100433189227e-01 1.2345142904686815e-01
      1.9319288265296743e-02 1.4396924706706649e-01
      -7.4608025041272688e-02 -3.8007765232216814e-02
      -1.8455783149492283e-01 -2.0345981669373081e-01
      -9.1724020271833934e-02 -1.5100682759864134e-01
      -1.1784681269501979e-01 -1.2188468550288148e-01
      6.8814202460497326e-02 7.9101897127678497e-02
      4.1644018797644115e-02 -3.1294248653014479e-02
      2.7405156605079356e-01 2.1814001720049908e-01
      2.1056170582480094e-02 5.8060465948849498e-02
      -7.4625114883731490e-03 6.6805371226514948e-02
      1.3342118262771818e-01 2.4364181287789446e-01
      -7.5686546565237489e-02 4.5830632076144961e-02
      -5.3655345052253156e-01 -1.8756612455968311e-01
      -1.8120303380734568e-01 -2.1859115074014154e-01
      -2.2746606048452314e-01 -2.1091713972761087e-03
      1.7026216714370784e-01 5.6479251902248465e-02
      2.5916433319862398e-01 1.3543574477827458e-01
      2.0822633416387590e-01 5.7027005434494280e-02
      -6.0577590881788657e-02 1.2627113039960186e-01
      -1.0018237191946489e+00 -4.3622758112116772e-02
      1.5009237361763891e-02 1.7182067759474340e-02
      -5.9523949707095979e-02 -2.3624607325555568e-03
      -1.9279675743674674e-01 -6.7688025472499525e-02
      1.8721464730473819e-01 -8.4862398137470749e-02
      2.8845432728001896e-02 -2.7430469636812796e-02
      6.2742831823241391e-02 1.1888666211634931e-01
      2.8462003241431423e-02 3.5271081104810538e-02
      1.5143682300334113e-01 4.5028525581085201e-02
      3.6438074645182880e-02 -5.2671440076563956e-02
      -6.3933897440477672e-01 8.0862250364907400e-03
      8.0026208199729013e-02 -1.2097856819285689e-01
      -1.0927590892821334e-01 -2.2888738575121036e-02
      -9.2502250609705461e-02 7.2803768444308137e-02
      -6.1696278705803992e-02 -8.1841532683382665e-02
      2.4526161780253256e-02 2.3824366732900445e-02
      8.6181654313738740e-02 1.9666156540367064e-02
      -6.6776503099770859e-02 -1.3712450941033766e-01
      1.7907740014548815e-01 -3.3505448956622105e-04
      2.4218124897618997e-02 -6.9877957969955690e-02
      -1.3924855530220048e+00 -1.5248392910688457e-01
      4.3933940466120813e-02 -2.8611900117809247e-01
      -1.3430021797735520e-01 -2.1838591568588576e-02
      1.1811476373334327e-01 1.1912097645400581e-01
      1.8737159269751089e-02 2.0442446091358098e-02
      -1.4614026764384011e-01 1.2286741473953945e-01
      -2.8845826998320605e-02 3.4259741356138023e-03
      -1.2552844030547958e-01 -1.5031524179947711e-01
      -2.5628010337740183e-03 -1.1760071493826373e-01
      3.8852505642905370e-02 5.5041269216574033e-02
      -5.9889932391429579e-01 -1.6757894778374680e-01
      5.9753422354220957e-03 -3.4895053764541639e-01
      -7.6792534531583273e-02 -3.5004624979674388e-02
      1.4004722664284344e-01 1.8793129610800685e-01
      -1.0646480889220870e-02 2.4490935667538197e-02
      -1.3660350648436953e-01 1.6093633217891642e-01
      -3.7242236512772295e-02 3.0832207456591627e-03
      -2.4184191956571902e-01 -2.4149416527490228e-01
      -9.2854125713890623e-02 -3.2654475575605843e-02
      4.4526511729326847e-02 2.8690830122869732e-02
      3.2621113410159469e-01 -1.2302370747890926e-01
      1.8610156304199151e-02 -4.7982876162497981e-02
      -5.0723113306842676e-02 -8.2220177633190741e-02
      1.2147282210449836e-01 -1.7830254790450104e-01
      -5.6150948131236736e-02 -1.0547905460064612e-01
      -2.7386706767442154e-01 1.4269667874352285e-01
      -5.5174816375932259e-02 1.1554824149492587e-01
      -6.5258111097065585e-02 -9.1898601078070880e-02
      6.4133568493582281e-03 -1.1069431981653195e-01
      -2.6026404441638726e-03 1.1909666177832956e-01
      1.2581555873055458e-01 -4.2207569839551812e-01
      3.4588923759473450e-02 -3.5873507088080236e-01
      -9.2900152930963598e-02 -1.9771850879309108e-01
      2.2728824635986339e-01 9.1445067252061710e-02
      -4.9194101606001232e-02 4.1917916835509127e-02
      -3.1567432152613767e-01 3.6694706802283222e-01
      -2.2809873970210426e-01 1.4950877668317996e-02
      -3.8319661219789081e-01 -3.9359072863464012e-01
      -1.9473624443603685e-01 -1.9418058855345860e-01
      -6.8077400693141971e-02 -7.4116743639588228e-02
      -2.7040916992082920e-01 1.9570679377583566e-01
      -2.7985573690543830e-02 -7.8024312999071380e-02
      -3.8552608187094647e-02 -1.3796575242918246e-01
      -2.2114605890296132e-01 -1.0470803210718353e-01
      -7.5421491190196227e-02 -6.8744961386564343e-02
      4.6088472561739105e-02 -1.6057225569424471e-01
      7.0559226621370583e-02 2.9245941932241611e-02
      -5.4465064549253261e-02 1.0865842707873336e-01
      1.9052312554411285e-01 2.0183230474820871e-01
      -3.9597155088254697e-02 -1.9620710745477987e-01
      -1.6487288465781853e+00 -1.4762121656045740e-01
      -8.3212613335583011e-02 -4.3708560919086475e-01
      1.1090145053618868e-03 -1.6085775365375965e-01
      5.7991884683266222e-02 -2.0674553182178601e-01
      2.3115204304126949e-01 1.3083221971092457e-01
      -2.1305455897736747e-01 2.6514736169360126e-01
      -2.3343511513118900e-01 -9.5533717649534833e-02
      -2.9283846134293751e-01 1.3026526830807295e-01
      2.9968651656234913e-02 -9.8745058048609752e-02
      -7.6945610639346448e-02 4.4550458521249538e-02
      -7.2775452866000701e-01 -1.8320859108693893e-01
      -8.0023118484440367e-02 1.5943719367213002e-01
      -6.2655684110700244e-02 -1.9793293326255942e-01
      1.0232377089688185e-01 9.3698025593482157e-02
      2.5369719047707279e-01 6.0391666952308319e-02
      -7.5257518173614216e-02 1.5650180301375297e-01
      9.7777171895946619e-02 -3.6214799553331928e-02
      -2.7026487525902865e-02 -2.8222339147335802e-02
      -9.0841056086879160e-02 -2.6209351711609635e-01
      -1.7890410065759341e-02 2.5685036025702369e-02
      -1.3528715932697006e+00 -2.3719526968840607e-01
      6.1715552908466566e-02 2.8441198527405037e-01
      2.5433593331191995e-01 -2.1787090159373240e-01
      2.6280289406342827e-01 -5.2300088593731164e-01
      6.5704400161069731e-01 -1.0093806377216024e-02
      -2.4292865151777193e-01 -2.3608672811254530e-02
      -2.8524173169931771e-01 1.6938669530078490e-01
      1.5365487936990696e-01 2.2144831241712115e-01
      -1.4677650794670441e-01 -1.9802848289279640e-01
      -1.1255229125982512e-01 3.4116672972518614e-01
      3.2926432263355609e-01 -1.1325050825525168e-01
      -2.8459132146342572e-02 3.3756313479498656e-01
      8.0639448290721463e-02 -3.8344235273179844e-02
      2.2410854514065356e-01 -3.3914572442767243e-01
      3.2179907037196753e-01 5.5476881165340629e-02
      -2.9597724610054649e-01 -1.0200986388666060e-03
      -6.9895029804559500e-02 2.7892141124740508e-03
      -4.0408764903892738e-02 6.2316887970504414e-02
      3.2957065163357460e-02 -1.0447146186302289e-02
      -3.2519830791201285e-02 8.9335146823184951e-03
      1.6759853461265298e-01 -1.3575108803146976e-01
      9.1694183914877964e-02 1.1938594337635158e-01
      -1.1692650969776557e-01 3.6282936822265122e-01
      -4.1843429529411685e-01 2.0601182145564917e-01
      -2.1562101784539614e-01 -6.1244277487687737e-02
      -1.9600136768114684e-01 -1.4136220504947394e-01
      3.0348582721195474e-02 -3.5484767901212633e-01
      9.6318985172583582e-02 3.3410207335846757e-02
      -4.3647325813831010e-02 1.8000241870737271e-01
      -3.9962433318739082e-02 -1.4059930134876281e-01
      8.4413510242569156e-01 -1.7698279714586490e-01
      3.4445241211459532e-02 -1.0713491919880806e-01
      -1.2975238210384415e-01 1.1934730691293488e-01
      1.1353705093901015e-01 -7.7645576189874818e-02
      -7.7452884502402078e-02 1.5776364995999871e-03
      -1.6211285411662762e-01 4.9424826411500034e-02
      -3.5601149569152925e-02 -8.3893684179355249e-02
      7.6137386864426095e-03 -1.2343809673852695e-01
      2.5793764168752176e-02 1.6324160232866189e-01
      7.2277496761522161e-02 -6.8490807794737263e-02
      4.0604047960439599e-01 -1.3584108201559397e-01
      2.1902885863280186e-03 -3.2786482541873208e-01
      -8.0578236970331826e-02 3.3211543533365577e-02
      1.8542807645687398e-01 -1.2996160649866664e-01
      -6.8485887611070065e-02 7.3196844942131856e-02
      -9.1356647628171417e-02 2.0255374579245847e-01
      -2.1814203303242885e-01 5.0892585555891288e-02
      -2.0377320377016714e-02 -1.0867457712546538e-01
      7.8327506136436062e-02 1.4742495356251512e-01
      1.1525088780128497e-01 -7.0478261742197762e-02
      -1.5569773153327378e+00 -1.1913725546559181e-01
      1.6108736726846509e-01 -3.7682745734418549e-01
      -1.1656976162642499e-01 4.0873891855259407e-02
      1.7455885405122026e-01 6.4609244890734288e-02
      -2.7281886512214779e-02 5.4133915561251411e-02
      -3.5813703948408493e-01 1.9769224350865408e-01
      -4.4333187534129093e-01 -9.4105562484594868e-02
      -1.1624590919777024e-01 -2.0555259354886202e-01
      -6.1073258246478787e-02 1.2379406814043956e-01
      -1.3722683669126714e-02 -9.4431128744706036e-02
      -2.3326532162892000e+00 1.5015094060577169e-01
      1.0971525982952940e-01 -5.4541717994539843e-02
      3.9429275185700441e-02 7.9292794113178910e-02
      1.1584397054216443e-01 -7.5961370986149758e-03
      3.6727780854503228e-01 1.1222981429632918e-01
      -2.0758104094339266e-01 -1.7996426430768339e-01
      -3.2301235988848892e-01 -1.9813761244321993e-03
      -2.1254471504430025e-01 7.2922826415078662e-02
      -1.6588705626762515e-01 1.1663256471745199e-02
      -4.3758070920021305e-02 6.1148163227772515e-02
      -1.6582763954771487e+00 -2.7680238236977905e-02
      1.7290198515347549e-01 -1.6633697737439032e-01
      -9.1647562034393573e-02 2.5784999130785836e-02
      -3.7721097204970894e-01 4.8347453247174592e-02
      -2.0778941269153150e-02 -1.2263079647592527e-01
      -4.9542896992798291e-02 2.8548186953939979e-02
      -3.1661855562987723e-01 -1.2150999666837142e-01
      -1.6820192381583909e-01 -5.2978866038298919e-02
      3.0778457901235132e-04 1.1540896870769930e-01
      -4.2496483871405193e-02 7.3971530144597591e-02
      -9.5817745561343504e-01 -2.8872345459065658e-02
      1.0870952026190625e-01 -5.3845232457730631e-02
      -4.1673780882599494e-02 2.2734227444823184e-02
      -1.7616222383125302e-01 1.1333245041158613e-01
      -1.6673050159712502e-01 -5.2805294723757425e-02
      4.3723100792054131e-02 7.9665899864008721e-03
      4.9783535012920689e-02 -1.8704915881286564e-02
      -1.4465747978196383e-01 -7.2047645656458242e-02
      9.9555857473404369e-02 6.3214802178795479e-02
      -5.4682988369096304e-02 -4.9709058365377118e-03
      -4.0543344180973306e-01 -3.4923811708492521e-02
      1.4302706919531349e-01 1.5400268400052461e-01
      -7.4653409804626703e-02 -3.9764546213694400e-02
      -2.7434288775272389e-02 -2.6302672147225820e-01
      -2.0020221649124068e-02 -1.4271217153859792e-01
      -9.2622484357073057e-02 -5.4794302168640403e-02
      1.1392326286856385e-02 2.1449096471684651e-01
      1.4936101314798869e-01 -1.8422385274907364e-02
      2.0609051396697498e-01 6.9213892715035419e-02
      -9.0147666255695230e-02 4.3412257736655586e-02
      -1.1709259101176541e+00 1.2003201746635368e-01
      6.2623415230638425e-03 7.9267164107291121e-02
      -1.5386289234181588e-01 7.1424818993518505e-02
      1.0149094971366825e-01 -4.1900267511453253e-02
      5.0325215118775966e-03 2.8569513106804782e-02
      -4.0170011147527454e-02 -1.5406967400093408e-01
      -2.4628117475105106e-02 2.0864173697136285e-01
      1.4860485035750426e-01 9.5179415060537061e-03
      7.1269194926472115e-02 -8.8548634310353966e-02
      -3.2810741359458190e-02 -3.5486968127159936e-02
      -2.0107234977825414e+00 3.1582258320263262e-02
      1.6673057045232020e-01 1.3490118506316093e-01
      -1.9461792825290902e-01 6.4509295342866854e-02
      -3.0373020035505412e-02 1.1687913673746024e-01
      9.4127281595571252e-02 -6.7046164809624942e-02
      -3.1204231629052542e-02 3.0796739408726796e-02
      1.3563684439541684e-01 9.8397999132417147e-02
      2.1431425051000164e-01 -5.3388933994208644e-03
      6.8332257298798105e-02 -1.7572416326729762e-01
      -9.2724769227132978e-02 -5.5610058510863251e-02
      -2.7185781479552693e+00 -3.8382383655743792e-02
      1.1362617764726557e-01 -9.1152517386207568e-02
      -2.1234453050276017e-01 4.4978283515879687e-02
      -1.7181367533935862e-01 2.8995148620545164e-01
      7.3994839159321063e-02 4.2407786903271107e-02
      -2.6402950761522489e-02 4.6633013049708044e-02
      -3.7680195603022305e-02 2.1601186273560235e-02
      4.6629702837404557e-02 -2.7911200538902160e-02
      1.5171482374008283e-02 -1.9271393704095238e-01
      -1.1133888072209158e-01 -1.0212400308037189e-01
      -1.5574073888708788e+00 7.8471390567019499e-03
      1.2905878253494182e-01 -1.9137911941850669e-01
      -2.1237912333841122e-01 -3.3298015796903741e-03
      3.9248372150261723e-02 1.2746159111561953e-01
      1.2280152105631595e-01 5.9074735717265153e-02
      -9.8955719050705923e-02 6.0552701262344341e-02
      -1.3710814292518889e-01 1.1482473263043225e-01
      -3.6501888037910615e-02 -1.2551229014228280e-01
      1.7314504972901965e-02 -9.2243650657311049e-02
      -6.9549608050960804e-02 -1.3873156786341519e-02
      -1.4357670703369747e+00 -5.5578223192577589e-02
      1.2750315375478616e-01 -3.0476549315735546e-01
      -1.4345263522088680e-01 -3.5531972250032219e-02
      -1.5479079523795808e-01 1.8549626363192764e-01
      4.0569730108647131e-02 -8.3505444795099276e-02
      -1.2692040003039493e-01 2.0422869887981282e-01
      -8.1113796348908779e-02 1.0066035285679308e-02
      -1.3436521053229070e-01 -1.2720901475883495e-01
      4.6088013299629312e-02 1.6534550047401331e-02
      -6.1051696333872932e-02 3.6543922493815287e-02
      -7.9077035085043779e-01 -8.9980056908318048e-02
      3.5657447768435359e-02 -3.7233057232973077e-01
      8.6010237840317041e-02 -2.5044132081834736e-01
      2.9571715528020709e-01 -1.5324010524101178e-01
      1.3180875538456807e-01 5.0665514485234049e-02
      -2.7683642887502530e-01 2.4366168964142576e-01
      -9.5322490701508999e-02 1.2905141361607791e-01
      -1.7061695549420158e-01 -2.9887839723707926e-01
      -1.4881905890299746e-01 -7.1086043013416672e-02
      -2.3606538623385714e-02 9.7507064387500522e-02
      3.1252939669120383e-01 -1.1894758312448150e-01
      2.3838889009681816e-02 -1.4821739468537304e-01
      -6.6835485530265568e-02 -2.3391714403326916e-01
      1.9389305082529570e-01 3.6654916846360609e-02
      -4.7713086352000680e-02 6.5371741385717413e-02
      -2.1562579284953473e-01 3.0752476311156840e-01
      -3.1676645611949758e-02 1.2286230249790973e-01
      -2.3564021803506405e-01 -2.0311820709574446e-01
      1.4055858728651954e-02 -2.0414687389111991e-01
      -2.5224045387943338e-02 3.8491167087140427e-02
      1.4448588640186594e-01 -3.8833168394549755e-02
      3.5380683801584809e-02 1.0412199174753227e-01
      -9.1445965223965267e-02 -1.1928499644709061e-02
      -1.8428606891399874e-01 1.6642963497293786e-01
      -3.3189875400242208e-01 -2.0135739397257727e-03
      3.8690521490791878e-02 3.4647232179742346e-02
      3.8537837757669828e-02 -5.0030348250575819e-02
      -2.0073717859106630e-01 -1.6884196343558674e-01
      9.9268246928663803e-02 1.7544890152777137e-01
      -5.1070287728924871e-02 -1.7079664020493565e-01
      7.4344316916112352e-01 3.0374317725897781e-01
      3.6152812580449958e-02 -1.4696085079517543e-01
      -8.0441358417438116e-02 -2.0402185916624671e-01
      1.8968778401599021e-01 -4.0535365791384015e-01
      4.9705783356212188e-02 -3.2519861685597652e-02
      -8.3216260176795204e-02 -2.2816987068292175e-03
      1.8680154348023492e-01 1.6441052578821952e-01
      -1.9253003389620879e-01 5.2555331558785841e-03
      3.3707417232958253e-01 2.0297159918151766e-01
      -7.0533411325168799e-02 -1.9121687582839442e-01
      3.1982477665885961e-01 3.7963804577144938e-01
      -2.8193942821429580e-02 -1.1292145129175628e-01
      1.8972996764553548e-02 -2.2594904774201144e-01
      2.7235791703026885e-01 -4.9935847534011119e-01
      2.2188345924671693e-01 5.1063199222998221e-02
      -1.6942115099410579e-01 -3.9848610853730301e-02
      2.2824546246905075e-01 5.1723745381427315e-02
      -1.3415009154205609e-01 -8.9213203662091470e-02
      1.1427391319760981e-01 2.8806124418751355e-01
      3.4792078112858088e-02 -1.2743682500537673e-01
      -3.8190048901985330e-01 5.0533352683588044e-02
      2.7605223395749203e-03 2.6601029302001805e-01
      2.8491020655364192e-02 -2.4289871523658323e-02
      -4.5765505974496870e-02 7.7415064533717548e-02
      -1.1327431180839938e-01 2.3221647994846242e-02
      -1.1603759242903716e-01 -4.6494186755194518e-02
      6.0830520811300463e-02 -1.1766164891821804e-01
      5.3412502178940259e-02 1.0394744555555582e-01
      -1.0534532158781213e-02 -5.4339006926135275e-02
      -4.2112091409851629e-02 1.3802523677365877e-01
      -5.3962299805306355e-02 4.0020984867145434e-02
      -9.7144422774049031e-03 3.5276784957866020e-01
      -4.2186756294883249e-02 1.3858006224596101e-01
      -4.9938555628218240e-01 4.7346532368148336e-01
      -2.5804454218012796e-01 -2.8858818530109673e-02
      4.9221553294645122e-02 -2.6792707670140287e-01
      3.1416927135974049e-01 -3.0977496170283120e-01
      1.2199483698916894e-01 1.5087345114931536e-01
      5.6606715517462755e-02 1.7292045579093632e-01
      8.5097788271975769e-02 -7.9592271206876980e-02
      9.3479255081753199e-01 -2.2668040557787159e-01
      9.1845424306808962e-02 -1.6857273395409023e-01
      -1.1046781161910967e-01 1.4014355347277996e-01
      -4.8188640204750522e-03 1.4927580687533873e-01
      -1.9565623846220728e-01 1.9045205310086397e-03
      -2.6363479142198665e-01 1.3072760981017306e-01
      1.3126494653571522e-02 -3.1997821689039030e-01
      -4.8409045270102674e-02 -1.6180368703943515e-01
      -4.8896415764995087e-02 1.7665305069092965e-01
      1.6100590548763468e-03 -1.5125245281695224e-01
      8.7814354318766030e-01 -1.0737526020587849e-01
      2.4666306573072130e-02 -1.7797189898709820e-01
      -1.2116207812268999e-01 8.0436453174144731e-02
      1.7458245411879625e-01 -1.6806770437150625e-01
      -6.1694523211575258e-02 1.0689758362795945e-02
      -2.1593546065623664e-01 1.4148930391081008e-01
      -6.7347245687012960e-02 -1.5926965134936792e-02
      2.6220328203481042e-02 -1.2419947146316940e-01
      3.7757176179069228e-02 1.6524902019493393e-01
      1.0333710244211400e-01 -1.0214980704074721e-02
      3.4533532455870020e-01 -4.7764095341548435e-02
      5.2676141027713112e-02 -1.9415044230713555e-01
      -2.1678819192715332e-01 6.0149680027578277e-03
      8.1071158202752382e-03 2.6017701108433167e-01
      -2.6319770256648295e-01 -1.5461259330991118e-03
      -5.5277381529956433e-02 2.1260895336724769e-01
      -9.5847527655583131e-02 1.8772330595790002e-03
      -2.2054265283118540e-01 -3.3492933279602227e-01
      6.2836980232745435e-02 2.3735411835030648e-01
      2.2866782552905300e-02 -1.9861704480448333e-01
      -2.5855877643798371e+00 2.4242233365418073e-02
      2.0367351534550249e-01 1.5233415464540516e-02
      -1.2096817427809478e-01 8.5077375538710809e-02
      -7.0593068116775876e-02 1.7150868413026155e-01
      2.7368291858371296e-01 2.0460425419274220e-02
      -1.7518233550840003e-02 -2.4373779301767567e-01
      -2.5990874598817498e-01 -2.4346025543955659e-02
      -1.6361933076723525e-01 7.4263198527612234e-02
      -5.9413108840812856e-02 7.6903520361940494e-02
      -3.2491575794532775e-02 3.4636805588764384e-02
      -2.4593634173075940e+00 1.7006103991929804e-02
      1.1363756094432653e-01 6.4900329721202854e-02
      1.5142233327029300e-01 -1.2723559158389178e-01
      7.7217923238543415e-02 -2.0451678450958624e-01
      2.5396005401915767e-01 -1.0219825633800889e-01
      -1.3766534287755877e-01 -3.2087242102378885e-02
      -3.2680540967950633e-01 -6.2912549861847467e-02
      -4.1923660836545834e-02 6.1476788982229559e-02
      -1.2379914928371057e-01 -6.1480378167183018e-03
      -1.1278515766549559e-01 1.3057222505730681e-01
      -1.7865540592555242e+00 5.0095341193410296e-02
      1.1349704673538244e-01 3.7591145598779581e-02
      1.0388251157222829e-01 9.9085658590732581e-02
      8.9291074848276572e-02 -7.9053709483618798e-02
      -8.4589641011956054e-02 6.1098067424149548e-02
      -2.6096079511982867e-01 2.4778320393985293e-01
      -3.0736730206524548e-01 6.4111978375385292e-02
      -3.8781119448183202e-02 3.3686402524348261e-03
      -1.5051378666968382e-01 -1.4594041357015683e-01
      -9.8067254134246884e-02 1.7101138397806748e-01
      -1.5676954121104945e+00 8.8749655428004393e-02
      7.1943588931837499e-02 1.7280519824543084e-01
      -1.1363259670190362e-01 3.6114682138787053e-02
      9.2026915584037750e-02 1.4236955840029081e-01
      -1.1954092570480263e-01 9.0726367103029712e-03
      1.5442255089657683e-01 -6.9101192773934811e-02
      1.9715525793946417e-01 1.9524579978025308e-01
      7.7100877963545408e-02 -6.2108835426988786e-02
      1.2510890864807869e-01 -1.0310736800033166e-01
      -1.1892374827909710e-01 -9.1318725755833274e-02
      -2.4345150824162927e+00 -4.0666222782666787e-02
      7.0563516608567717e-02 1.2106624827263524e-01
      -2.5797197936859595e-01 -2.2481959822894502e-02
      -2.1853176732073244e-02 2.6381467810024907e-02
      4.9593085647528692e-02 4.5974394362745058e-02
      3.6074405495399542e-01 -1.8099397720491017e-01
      6.8567346710269664e-02 1.5803239935113855e-01
      -5.0718834199295709e-02 2.4554501912606538e-02
      1.7387130170925913e-01 1.0220918506380400e-01
      -1.9000198253673176e-01 -2.0464566492040567e-01
      -3.6180020804377713e+00 -1.3764235123471896e-01
      1.2464043180307317e-01 6.4703490665762552e-03
      -3.5146175858610340e-01 3.6307755375185942e-02
      -1.6215438227423534e-01 1.8775100128289740e-01
      2.3661145570461803e-01 7.0089885768672006e-02
      1.1937082232002515e-01 -1.2109064324518512e-01
      -1.2707138828278375e-01 1.2525455756309009e-01
      6.1433358153912029e-02 1.1631785526339446e-01
      3.3372589960064078e-02 -1.0582940649967421e-01
      -1.8512534045732007e-01 -1.1617709651382944e-01
      -2.9578157179794138e+00 -2.5659140918417517e-01
      1.0283221474641105e-01 4.9827527976948352e-02
      -4.7325277508460828e-01 -1.9634664930367471e-01
      -2.9981350477304836e-01 2.6132005586903845e-01
      1.9674616674412651e-01 -4.8547157047013623e-02
      2.6138434952142986e-01 4.8773663247242333e-02
      9.4853622526541698e-02 2.5105447029864553e-01
      4.9497290093467863e-03 1.4918764694852427e-01
      9.9513797703596418e-02 -3.7929486433074520e-03
      -1.9212488009927872e-01 -2.4974137943976207e-01
      -2.7688889505972569e+00 1.3019277187907680e-01
      1.4574042937164403e-01 -1.0994154525205026e-01
      -3.5741399731237039e-01 4.7840734400437852e-02
      -1.7662561085650583e-01 1.4577602394679931e-01
      1.3717381728610381e-01 2.6560283840430049e-02
      1.1122239784954219e-01 -1.2532163393150236e-01
      9.8870534311298275e-02 1.5694618441335589e-01
      -1.0222798127091828e-01 5.5241081744188278e-02
      9.2117690316882120e-02 1.0801550840501579e-01
      -1.1248700694939534e-01 -1.3303638660353570e-01
      -1.7168001844733121e+00 -5.7705508236883474e-02
      1.4260498127761637e-01 -3.2543336935717204e-02
      -1.4742783601917717e-01 1.5591843665037887e-02
      -3.2402764905057009e-02 -7.7805505647488782e-02
      2.1644365111848982e-01 1.4084986333333542e-02
      -1.5245381256910637e-01 -1.6294105617608187e-02
      -3.5850541646635148e-02 2.2146515421335131e-01
      1.1585922612814505e-01 1.1354482187399398e-01
      4.9814998709202730e-02 -1.5619470489470402e-01
      -7.4915828821931110e-02 3.3364778730557959e-02
      -2.4237421324624897e+00 4.7740963240736942e-02
      1.3552443988039597e-01 -1.2812070614408161e-01
      -1.9231349244273128e-02 -5.0286308628886868e-02
      -5.0283480148771785e-02 -4.6138550187014649e-03
      2.1829811346523539e-01 5.8238101724938044e-03
      -5.2756378032650299e-02 -9.9059774469205678e-02
      1.4338083995256309e-01 1.9659956620231914e-01
      6.8138341734914579e-02 7.9475781559757305e-02
      -1.7116969083739834e-02 -7.1364835536345220e-02
      -5.1836859334881906e-02 1.0897679505234457e-02
      -8.3943178570581145e-01 6.6514425564698403e-03
      1.2675091498356617e-01 -1.1385431543052210e-01
      1.0032145145619394e-01 -2.0324895318264283e-01
      2.6515545700604976e-01 -3.3742332763115324e-01
      2.3759460874967558e-01 -5.9123713766420463e-02
      -3.2001203506970760e-01 3.0757282386659594e-02
      8.0632441779955280e-02 2.3861611771250599e-01
      9.5419531042856470e-02 -2.9321269573230935e-02
      -6.1366662735108136e-02 -1.3541369872513501e-01
      -7.8225746538571519e-02 1.0700948966361035e-01
      -8.9332321731251063e-01 -6.7636509846006027e-02
      1.5076649925549204e-01 -5.2740171503324641e-02
      8.7270067493576242e-02 -1.2920703409928172e-01
      -1.4567120888666987e-01 1.8333026824673476e-01
      -9.5400766832811776e-02 -1.0526670316899499e-01
      -1.2482728521930178e-01 6.1952287172757289e-02
      -4.1792002405222586e-02 2.4943444061914673e-02
      -1.5848849223190900e-01 6.0952377242549295e-02
      -5.4437048258883835e-03 2.3773098994767441e-02
      -6.6134437712309174e-02 6.3449821435474759e-03
      5.9628783031524957e-01 1.1119454827033085e-01
      1.0252828367693116e-01 3.1924975265829059e-01
      8.2038362383351549e-02 1.2360737763917261e-02
      -2.8663665227936025e-01 5.4007792161748502e-02
      -1.8887721593958146e-01 -1.8100118824481540e-01
      -3.3025024860687993e-02 5.0340405002956126e-02
      -3.7231509191560310e-03 -1.0353179910122731e-01
      2.7417458892277563e-02 1.9412950108277080e-02
      1.8486782517944197e-01 1.1781089359774256e-01
      -1.2358738848964114e-01 -3.9411963073013208e-02
      9.9461172820724653e-01 3.0572305792249121e-01
      -1.4291981092863346e-02 -3.4170637147801425e-01
      -4.2557908958786320e-02 -1.7220474587493226e-01
      1.1791790961759823e-02 -7.6236502428218028e-02
      -1.2713703341986327e-01 -3.3946382499725675e-02
      4.1754927723917701e-02 6.8841907686879603e-02
      1.1077924355377414e-01 -1.1870474803669586e-02
      -2.7490498543937936e-01 -9.8876697758543380e-02
      3.2377576624036436e-01 3.0087525787299119e-01
      -5.0508393145354116e-02 -2.9570963481958795e-01
      3.7997716087925326e-01 1.6605013583312381e-01
      -1.0704786054600678e-01 -2.8290181304803702e-01
      -4.1739326694798705e-02 -2.0972880765654039e-01
      -2.9141558939961860e-02 -1.6052003932465239e-03
      -1.1219871648908461e-01 2.8833638194182751e-02
      6.0826675831222664e-02 3.3026829973255921e-02
      3.6465778813552885e-01 -8.0119632790372652e-02
      -3.3745641616364397e-01 -1.8663537823788814e-01
      1.1196473209085740e-01 2.1572889808806583e-01
      5.0013378403552439e-02 -2.1572102854833214e-01
      -4.1056946527421739e-01 2.0811948625029877e-01
      -5.1836627635993969e-02 -3.0406793204037996e-01
      -4.6028612727076678e-03 -2.6674262096784712e-01
      -7.0249027241359882e-02 -5.4208305451394635e-02
      6.0760870982210870e-02 -2.0789772981119063e-03
      -9.2918852581451494e-02 1.5200395131823474e-01
      -1.8736233656327195e-03 -9.7640679063159458e-02
      -1.5562632280805491e-01 -1.3497193296310631e-01
      4.0231723173217417e-02 -4.6513432932291307e-03
      -1.3053997387860030e-02 2.2905412568994005e-02
      1.1590570352841636e+00 -2.2491224235448876e-01
      -1.1103032726596221e-01 5.2727369205421440e-02
      2.5561927763760595e-02 1.3839697394720621e-01
      1.9107142637553565e-01 2.5513108060702620e-02
      2.2729647755781507e-01 1.0048135028297724e-01
      -1.6866529611267883e-01 -3.0625020724893794e-02
      -9.9710605448402115e-02 -3.3193689071495704e-02
      9.0479336782465173e-03 8.6970702401227340e-02
      6.7177425116094730e-02 1.0494055007963710e-01
      1.0973890173130857e-01 -1.2149424088430315e-01
      2.2962369815589576e+00 -3.1643064324424891e-01
      -1.4793790032827381e-01 -2.6349034092002832e-01
      9.1068250985646693e-03 -1.2343302299736206e-01
      5.9838256440630722e-01 -1.7896686715798357e-01
      2.2835548930895755e-01 6.3946538850134294e-02
      -2.2542357014180922e-01 2.5154998040310916e-01
      -1.8208426773216693e-01 2.3555420559539750e-01
      -2.2941231785472804e-02 -1.9629433013937927e-01
      1.1475715127944999e-01 3.7393216113330276e-02
      1.7991118668312325e-01 -2.2333338449681944e-01
      3.2060334772805893e-01 1.7044941020047149e-02
      -1.8776919293546229e-02 1.5827698829087769e-01
      5.7886568605818846e-02 2.5806436381281761e-01
      -5.0915805642582801e-02 -1.0452464201820032e-01
      -1.1762536477320062e-01 -9.4419258610331847e-02
      -7.4113209503061203e-02 -4.3408075120335676e-02
      -7.9737991294902805e-02 -2.7183453360536602e-03
      -1.5574250892490749e-01 4.5453749682923761e-02
      7.5125500353433627e-02 1.4472798184579364e-01
      2.6676978472911318e-02 2.9922144441233426e-02
      4.7513237306871386e-01 -1.3095050431832364e-02
      1.2588276049830800e-02 3.4657249264710016e-01
      -7.2053579221729266e-02 -1.0098682164474659e-01
      -1.4853577616410207e-01 -2.8391674707084077e-02
      6.2332593556521793e-02 -1.8217449246324005e-01
      6.2897846697729269e-03 -7.5849847712605833e-02
      4.9710947300399690e-02 2.2606600564707716e-01
      -5.0719553034692571e-03 2.8992964193320526e-02
      1.7495424716399155e-01 6.3413891218259313e-02
      -1.0540108649800439e-01 -3.9956164247547048e-02
      -1.5289309897553642e+00 1.1412450726918910e-01
      1.4810377485413295e-01 1.4155500178100133e-01
      4.4575389562219424e-02 -7.8215880676955493e-02
      8.3136581686613517e-02 -9.9753793628676590e-02
      7.8513142765095870e-02 -1.8291646572566192e-01
      2.0190636996176702e-02 -2.2372361572020941e-01
      -4.8924365769913492e-02 1.1220753842092741e-01
      -6.5051615596687928e-02 5.0327912305502001e-02
      6.8003619275086580e-02 6.5594597907978697e-02
      -1.3234055505061729e-01 1.9653868796045377e-02
      -1.7390340106895943e+00 3.9739422410131536e-02
      5.3270934891902211e-02 9.0257905504019298e-02
      1.7011548831511436e-01 -1.3369320668528170e-01
      1.5001377195261334e-01 -3.1401447956803358e-01
      1.8176648795884456e-01 -1.2788779348829707e-01
      -6.3690513992162759e-02 -6.0201428298316283e-02
      -1.8084870514416962e-01 1.7285769470334958e-01
      5.5865878356593859e-02 5.1790284824731025e-02
      -3.7947810548334959e-02 -7.6313826845363253e-02
      -1.0474470795837390e-01 1.2885608934307446e-01
      -1.8058351894379159e+00 -1.7971712561375419e-02
      2.0283207814227822e-01 9.5080560279902734e-02
      4.8841085908994143e-02 -1.3928331638572655e-01
      -6.8959397571681777e-02 -2.4553549012187775e-01
      1.2487621042658315e-01 -8.1473934817731811e-02
      -2.2021646141738468e-01 8.5142746963052449e-02
      -3.3173966894923676e-02 2.2855545867588695e-01
      1.9437489374384195e-01 1.1490408260164370e-01
      -8.8956503849232076e-03 -1.8932039553883337e-01
      -1.9108354455869836e-01 1.0322570668220707e-01
      -1.9770317278077014e+00 -5.3114164011866437e-02
      1.8713904620102548e-01 1.0460786235725435e-01
      -1.6136780468203735e-01 -8.0035450330693033e-03
      -1.4301068417165622e-01 7.2042935507059896e-02
      -1.3077963544126806e-01 -4.8907741050080167e-02
