<?xml version="1.0"?>
<opencv_storage>
<shapeML type_id="opencv-ml-ann-mlp">
  <layer_sizes type_id="opencv-matrix">
    <rows>1</rows>
    <cols>3</cols>
    <dt>i</dt>
    <data>
      1600 40 1</data></layer_sizes>
  <activation_function>SIGMOID_SYM</activation_function>
  <f_param1>5.9999999999999998e-01</f_param1>
  <f_param2>1.</f_param2>
  <min_val>-9.4999999999999996e-01</min_val>
  <max_val>9.4999999999999996e-01</max_val>
  <min_val1>-9.7999999999999998e-01</min_val1>
  <max_val1>9.7999999999999998e-01</max_val1>
  <training_params>
    <train_method>BACKPROP</train_method>
    <dw_scale>1.0000000000000001e-01</dw_scale>
    <moment_scale>1.0000000000000001e-01</moment_scale>
    <term_criteria><epsilon>9.9999999747524271e-07</epsilon>
      <iterations>4000</iterations></term_criteria></training_params>
  <input_scale>
    8.6630465122397082e-02 -4.5360921162651453e-02 1. 0. 1. 0. 1. 0.
    6.1320108361977384e-02 -6.4216129906793568e-02
    5.0119354918956825e-02 -7.8729582162221701e-02
    5.0119354918956825e-02 -7.8729582162221701e-02
    5.0119354918956825e-02 -7.8729582162221701e-02
    4.3449543682182797e-02 -9.1003151038658026e-02
    4.3449543682182797e-02 -9.1003151038658026e-02
    2.6393012402421066e-02 -1.5201724802626507e-01
    2.6393012402421066e-02 -1.5201724802626507e-01
    2.1999779900338481e-02 -1.8431027103363656e-01
    1.6571317672566893e-02 -2.5163222626002502e-01
    1.4800679756402611e-02 -2.8674417556808757e-01
    1.5602848241175235e-02 -2.6960568367451659e-01
    1.3969605121355347e-02 -3.0721657258668533e-01
    1.1931614632792525e-02 -3.7485360139984730e-01
    1.1531236435794862e-02 -3.9246456657761775e-01
    1.1112529863939187e-02 -4.1312598190270838e-01
    1.0805903222903875e-02 -4.3001725761781745e-01
    1.0805903222903875e-02 -4.3001725761781745e-01
    1.0429393461140598e-02 -4.5326101150932396e-01
    1.0805903222903875e-02 -4.3001725761781745e-01
    1.2592326658408605e-02 -3.4945645747103143e-01
    1.5183977138651338e-02 -2.7826898554920571e-01
    1.6571317672566893e-02 -2.5163222626002502e-01
    1.9305727643594582e-02 -2.1228371977710264e-01
    2.4329205894716911e-02 -1.6560845490962334e-01
    3.0851481977338547e-02 -1.2923413395024771e-01
    3.5550082866796152e-02 -1.1168711865749098e-01
    4.3449543682182797e-02 -9.1003151038658026e-02
    4.3449543682182797e-02 -9.1003151038658026e-02
    5.0119354918956825e-02 -7.8729582162221701e-02
    8.6630465122397082e-02 -4.5360921162651453e-02 1. 0.
    8.6630465122397082e-02 -4.5360921162651453e-02 1. 0.
    8.6630465122397082e-02 -4.5360921162651453e-02
    8.6630465122397082e-02 -4.5360921162651453e-02 1. 0.
    8.6630465122397082e-02 -4.5360921162651453e-02
    8.6630465122397082e-02 -4.5360921162651453e-02
    8.6630465122397082e-02 -4.5360921162651453e-02
    4.3449543682182797e-02 -9.1003151038658026e-02
    4.3449543682182797e-02 -9.1003151038658026e-02
    3.5550082866796152e-02 -1.1168711865749098e-01
    3.5550082866796152e-02 -1.1168711865749098e-01
    3.5550082866796152e-02 -1.1168711865749098e-01
    2.9117466048950533e-02 -1.3721680612390447e-01
    1.9305727643594582e-02 -2.1228371977710264e-01
    1.7136731130871021e-02 -2.4227185592617451e-01
    1.4123080126463163e-02 -3.0319672016873173e-01
    1.1245430724741944e-02 -4.0629025380253497e-01
    9.6029475374349547e-03 -5.1790845394400220e-01
    9.1523916042981854e-03 -5.6549376462696588e-01
    9.1523916042981854e-03 -5.6549376462696588e-01
    8.8435805114755080e-03 -6.0661151331794527e-01
    8.5933099138885936e-03 -6.4793909658724669e-01
    8.6834390181530930e-03 -6.3200101847728207e-01
    8.8224181655879187e-03 -6.0977945678375634e-01
    8.7023495570320436e-03 -6.2882070002455370e-01
    8.8015939540904437e-03 -6.1294878635108296e-01
    8.9091561669076228e-03 -5.9711469668966088e-01
    9.0257964118122050e-03 -5.8130206253899352e-01
    9.3483156674585982e-03 -5.4333485619592536e-01
    9.9769821586390747e-03 -4.8584010655467280e-01
    1.2018240497618512e-02 -3.7128219360712633e-01
    1.4123080126463163e-02 -3.0319672016873173e-01
    1.8117266153282404e-02 -2.2767488471886715e-01
    2.0785769496362173e-02 -1.9590694453450180e-01
    3.0851481977338547e-02 -1.2923413395024771e-01
    3.2947247784286912e-02 -1.2076147288491199e-01
    3.5550082866796152e-02 -1.1168711865749098e-01
    3.5550082866796152e-02 -1.1168711865749098e-01
    3.5550082866796152e-02 -1.1168711865749098e-01
    5.0119354918956825e-02 -7.8729582162221701e-02
    6.1320108361977384e-02 -6.4216129906793568e-02
    6.1320108361977384e-02 -6.4216129906793568e-02
    8.6630465122397082e-02 -4.5360921162651453e-02
    5.0119354918956825e-02 -7.8729582162221701e-02
    5.0119354918956825e-02 -7.8729582162221701e-02
    4.3449543682182797e-02 -9.1003151038658026e-02
    3.8902746166167457e-02 -1.0185010546583882e-01
    3.0851481977338547e-02 -1.2923413395024771e-01
    3.2947247784286912e-02 -1.2076147288491199e-01
    2.9117466048950533e-02 -1.3721680612390447e-01
    2.5295970897673582e-02 -1.5894388284780525e-01
    1.6846257019618109e-02 -2.4698619121164947e-01
    1.5183977138651338e-02 -2.7826898554920571e-01
    1.3280472093092967e-02 -3.2683050931359181e-01
    1.1457127999927673e-02 -3.9594140500776737e-01
    9.5032763898199382e-03 -5.2746111050684386e-01
    8.7023495570320436e-03 -6.2882070002455370e-01
    8.3628305439599412e-03 -6.9624428009210637e-01
    8.2497122076114707e-03 -7.2570363649707470e-01
    8.1732062687378277e-03 -7.4893086189409774e-01
    8.0472917489500043e-03 -7.9638444731138702e-01
    8.0631984768001885e-03 -7.8951461882180074e-01
    8.0551616829282070e-03 -7.9294548476299442e-01
    8.1336767207091237e-03 -7.6234429962375350e-01
    8.0714035385627027e-03 -7.8609172450519293e-01
    8.0714035385627027e-03 -7.8609172450519293e-01
    8.0174537086868808e-03 -8.1022378700826458e-01
    8.0320470095989159e-03 -8.0328716550824475e-01
    8.1630461604946525e-03 -7.5227415129979469e-01
    8.4633944686299516e-03 -6.7359583080923391e-01
    8.9091561669076228e-03 -5.9711469668966088e-01
    9.6029475374349547e-03 -5.1790845394400220e-01
    1.1178196333622043e-02 -4.0971417773132129e-01
    1.4448323941652293e-02 -2.9504842217604121e-01
    1.6571317672566893e-02 -2.5163222626002502e-01
    2.2697193070561204e-02 -1.7826850820307311e-01
    2.6393012402421066e-02 -1.5201724802626507e-01
    2.6393012402421066e-02 -1.5201724802626507e-01
    2.7652193754982325e-02 -1.4479074758768978e-01
    2.7652193754982325e-02 -1.4479074758768978e-01
    2.9117466048950533e-02 -1.3721680612390447e-01
    3.8902746166167457e-02 -1.0185010546583882e-01
    4.3449543682182797e-02 -9.1003151038658026e-02
    4.3449543682182797e-02 -9.1003151038658026e-02
    4.3449543682182797e-02 -9.1003151038658026e-02
    3.8902746166167457e-02 -1.0185010546583882e-01
    2.6393012402421066e-02 -1.5201724802626507e-01
    2.3468978795337461e-02 -1.7204158993707336e-01
    2.2697193070561204e-02 -1.7826850820307311e-01
    2.1365614646351363e-02 -1.9018468068158759e-01
    1.6310604361858622e-02 -2.5621380568422680e-01
    1.4620890075885214e-02 -2.9091668344009802e-01
    1.2198800395234721e-02 -3.6408534649843260e-01
    9.9769821586390747e-03 -4.8584010655467280e-01
    8.8650868886180380e-03 -6.0344482619648454e-01
    8.3903868426439474e-03 -6.8975182185883044e-01
    8.1242511488073838e-03 -7.6571484133523393e-01
    8.0035018446922811e-03 -8.1719533722243054e-01
    7.9595894195813744e-03 -8.4188593635038322e-01
    7.9837561603369692e-03 -8.2772042820413472e-01
    7.9595894195813744e-03 -8.4188593635038322e-01
    7.8936389791946625e-03 -8.9277543115819724e-01
    7.9053972377808642e-03 -8.8168716831636063e-01
    7.8799200236082875e-03 -9.0772795343824420e-01
    7.8710810752025979e-03 -9.1907397400697277e-01
    7.8612060225787973e-03 -9.3438585342294389e-01
    7.8479202161891824e-03 -9.6568094241301183e-01
    7.8684084728114709e-03 -9.2288191368992034e-01
    7.9654026736232456e-03 -8.3833000828862303e-01
    8.0174537086868808e-03 -8.1022378700826458e-01
    8.1336767207091237e-03 -7.6234429962375350e-01
    8.3764941268918043e-03 -6.9299578721246569e-01
    8.7609371505970191e-03 -6.1929211788357774e-01
    9.6029475374349547e-03 -5.1790845394400220e-01
    1.1847291211278140e-02 -3.7840783324729255e-01
    1.6310604361858622e-02 -2.5621380568422680e-01
    2.0785769496362173e-02 -1.9590694453450180e-01
    2.2697193070561204e-02 -1.7826850820307311e-01
    2.7652193754982325e-02 -1.4479074758768978e-01
    2.6393012402421066e-02 -1.5201724802626507e-01
    3.0851481977338547e-02 -1.2923413395024771e-01
    3.2947247784286912e-02 -1.2076147288491199e-01
    3.8902746166167457e-02 -1.0185010546583882e-01
    4.3449543682182797e-02 -9.1003151038658026e-02
    3.5550082866796152e-02 -1.1168711865749098e-01
    2.5295970897673582e-02 -1.5894388284780525e-01
    2.1365614646351363e-02 -1.9018468068158759e-01
    1.9305727643594582e-02 -2.1228371977710264e-01
    1.6062957582988341e-02 -2.6073445522283950e-01
    1.4988192402122969e-02 -2.8252896560880669e-01
    1.2198800395234721e-02 -3.6408534649843260e-01
    1.0531330798340807e-02 -4.4666250028691862e-01
    9.0257964118122050e-03 -5.8130206253899352e-01
    8.5101515951439138e-03 -6.6394909621661802e-01
    8.2157494095384965e-03 -7.3562166941052598e-01
    8.0631984768001885e-03 -7.8951461882180074e-01
    7.9901819445097645e-03 -8.2420285417340455e-01
    7.8831415773093546e-03 -9.0397133754587455e-01
    7.8658720205440503e-03 -9.2670309482282320e-01
    7.8468602593750308e-03 -9.6965924108663115e-01
    7.8435506603938554e-03 -9.8978522758625131e-01
    7.8479202161891824e-03 -9.6568094241301183e-01
    7.8552190655687571e-03 -9.4601354865627851e-01
    7.8451387451763561e-03 -9.7766215697074543e-01
    7.8468602593750308e-03 -9.6965924108663115e-01
    7.8431537898665995e-03 -9.9794871578867317e-01
    7.8435506603938554e-03 -9.8978522758625131e-01
    7.8451387451763561e-03 -9.7766215697074543e-01
    7.8444769259641885e-03 -9.8168715863015910e-01
    7.8865015675638386e-03 -9.0022715018659916e-01
    7.9053972377808642e-03 -8.8168716831636063e-01
    8.0103982013021071e-03 -8.1370513145465140e-01
    8.2048242060225318e-03 -7.3893960919126944e-01
    8.8435805114755080e-03 -6.0661151331794527e-01
    9.3483156674585982e-03 -5.4333485619592536e-01
    1.0805903222903875e-02 -4.3001725761781745e-01
    1.5183977138651338e-02 -2.7826898554920571e-01
    1.7136731130871021e-02 -2.4227185592617451e-01
    2.0785769496362173e-02 -1.9590694453450180e-01
    2.2697193070561204e-02 -1.7826850820307311e-01
    3.0851481977338547e-02 -1.2923413395024771e-01
    3.2947247784286912e-02 -1.2076147288491199e-01
    3.2947247784286912e-02 -1.2076147288491199e-01
    2.7652193754982325e-02 -1.4479074758768978e-01
    2.3468978795337461e-02 -1.7204158993707336e-01
    2.6393012402421066e-02 -1.5201724802626507e-01
    1.9305727643594582e-02 -2.1228371977710264e-01
    1.6571317672566893e-02 -2.5163222626002502e-01
    1.3969605121355347e-02 -3.0721657258668533e-01
    1.1245430724741944e-02 -4.0629025380253497e-01
    9.7813982655201789e-03 -5.0192431756745226e-01
    8.6648295824473809e-03 -6.3518360594121459e-01
    8.2381912230113305e-03 -7.2900380031965761e-01
    8.0631984768001885e-03 -7.8951461882180074e-01
    7.9013367324856157e-03 -8.8537155131774137e-01
    7.8658720205440503e-03 -9.2670309482282320e-01
    7.8612060225787973e-03 -9.3438585342294389e-01
    7.8432860733486150e-03 -1.0061792555081206e+00
    7.8444769259641885e-03 -1.0186544574907090e+00
    7.8590757587302992e-03 -1.0658165471978287e+00
    7.8590757587302992e-03 -1.0658165471978287e+00
    7.8710810752025961e-03 -1.0880517001696894e+00
    7.8468602593750308e-03 -1.0312901250540019e+00
    7.8590757587302992e-03 -1.0658165471978287e+00
    7.8612060225787955e-03 -1.0702216823346491e+00
    7.8612060225787955e-03 -1.0702216823346491e+00
    7.8552190655687588e-03 -1.0570673130637549e+00
    7.8479202161891824e-03 -1.0355387127152296e+00
    7.8504393361295086e-03 -1.0440923117065877e+00
    7.8435506603938554e-03 -9.8978522758625131e-01
    7.8491131811905535e-03 -9.6171783063991845e-01
    7.8900005189971208e-03 -8.9649523350863591e-01
    7.9278424652069156e-03 -8.6343483440364432e-01
    8.2614362519684709e-03 -7.2240916383999454e-01
    8.4943118441703110e-03 -6.6716104320228820e-01
    9.0257964118122050e-03 -5.8130206253899352e-01
    1.0018352749966172e-02 -4.8260894356099876e-01
    1.4123080126463163e-02 -3.0319672016873173e-01
    1.6062957582988341e-02 -2.6073445522283950e-01
    1.8486975790518254e-02 -2.2264088914043031e-01
    2.2697193070561204e-02 -1.7826850820307311e-01
    2.5295970897673582e-02 -1.5894388284780525e-01
    2.5295970897673582e-02 -1.5894388284780525e-01
    2.2697193070561204e-02 -1.7826850820307311e-01
    2.0252985592758416e-02 -2.0149017494232963e-01
    1.8882129155646844e-02 -2.1751282251166076e-01
    1.5388639338004061e-02 -2.7396201860471292e-01
    1.3541643903150902e-02 -3.1907672235863782e-01
    1.2018240497618512e-02 -3.7128219360712633e-01
    9.6724043023130174e-03 -5.1152520083382291e-01
    8.5933099138885936e-03 -6.4793909658724669e-01
    8.0472917489500043e-03 -7.9638444731138702e-01
    7.8974175189436176e-03 -8.8906758824657872e-01
    7.8974175189436176e-03 -8.8906758824657872e-01
    7.8738902407916381e-03 -9.1527910992035855e-01
    7.8431537898665995e-03 -9.9794871578867317e-01
    7.8435506603938571e-03 -1.0103201908141821e+00
    7.8634713270590070e-03 -1.0746475034341114e+00
    7.8936389791946625e-03 -1.1201025085364418e+00
    7.8900005189971208e-03 -1.1154548988356299e+00
    7.8900005189971208e-03 -1.1154548988356299e+00
    7.8799200236082893e-03 -1.1016516525818694e+00
    7.9327650626791965e-03 -1.1630378346515289e+00
    7.9013367324856157e-03 -1.1294693154660906e+00
    7.8738902407916381e-03 -1.0925629014815090e+00
    7.8479202161891824e-03 -1.0355387127152296e+00
    7.8684084728114726e-03 -1.0835622468770050e+00
    7.8710810752025961e-03 -1.0880517001696894e+00
    7.8658720205440503e-03 -1.0790942704159097e+00
    7.8590757587302992e-03 -1.0658165471978287e+00
    7.8634713270590070e-03 -1.0746475034341114e+00
    7.8431537898666012e-03 -1.0020555006273100e+00
    7.8479202161891824e-03 -9.6568094241301183e-01
    7.9053972377808642e-03 -8.8168716831636063e-01
    8.0631984768001885e-03 -7.8951461882180074e-01
    8.3628305439599412e-03 -6.9624428009210637e-01
    8.7023495570320436e-03 -6.2882070002455370e-01
    9.9363888494468297e-03 -4.8906620271301954e-01
    1.3408820288970105e-02 -3.2296809443453661e-01
    1.6062957582988341e-02 -2.6073445522283950e-01
    1.8486975790518254e-02 -2.2264088914043031e-01
    1.9305727643594582e-02 -2.1228371977710264e-01
    2.6393012402421066e-02 -1.5201724802626507e-01
    2.3468978795337461e-02 -1.7204158993707336e-01
    1.9761292326006600e-02 -2.0694577179185555e-01
    1.5388639338004061e-02 -2.7396201860471292e-01
    1.3156364644484518e-02 -3.3066509907287578e-01
    1.1685184602300313e-02 -3.8546712656253496e-01
    9.8965527676071613e-03 -4.9228745543179359e-01
    8.4334699851706767e-03 -6.8004592673029252e-01
    7.9967634710752782e-03 -8.2069453446476881e-01
    7.8900005189971208e-03 -8.9649523350863591e-01
    7.8738902407916381e-03 -9.1527910992035855e-01
    7.8504393361295104e-03 -9.5776971900643704e-01
    7.8451387451763561e-03 -1.0228482230492253e+00
    7.8612060225787955e-03 -1.0702216823346491e+00
    7.8768364045646074e-03 -1.0970961259170788e+00
    7.8738902407916381e-03 -1.0925629014815090e+00
    7.9378339664305450e-03 -1.1679373570114593e+00
    7.9539268356210533e-03 -1.1827995512026217e+00
    7.9539268356210533e-03 -1.1827995512026217e+00
    7.9837561603369692e-03 -1.2081373926817927e+00
    7.9967634710752800e-03 -1.2184801506594274e+00
    8.0035018446922811e-03 -1.2236976331741010e+00
    7.9327650626791965e-03 -1.1630378346515289e+00
    7.8799200236082893e-03 -1.1016516525818694e+00
    7.9053972377808642e-03 -1.1341891273177598e+00
    7.8799200236082893e-03 -1.1016516525818694e+00
    7.8534920452305763e-03 -1.0527227119356306e+00
    7.8552190655687588e-03 -1.0570673130637549e+00
    7.8518988832210340e-03 -1.0483977923643690e+00
    7.8439475911732098e-03 -9.8572811618028844e-01
    7.8431537898666012e-03 -1.0020555006273100e+00
    7.8439475911732098e-03 -9.8572811618028844e-01
    7.8738902407916381e-03 -9.1527910992035855e-01
    7.9539268356210533e-03 -8.4545179188074715e-01
    8.1835546664958091e-03 -7.4559408737663058e-01
    8.6648295824473809e-03 -6.3518360594121459e-01
    9.7813982655201789e-03 -5.0192431756745226e-01
    1.2489583409060683e-02 -3.5314489433832774e-01
    1.4123080126463163e-02 -3.0319672016873173e-01
    1.6846257019618109e-02 -2.4698619121164947e-01
    2.4329205894716911e-02 -1.6560845490962334e-01
    2.2697193070561204e-02 -1.7826850820307311e-01
    1.7770423939766872e-02 -2.3262105259961768e-01
    1.2807384502977586e-02 -3.4201239314419613e-01
    1.1457127999927673e-02 -3.9594140500776737e-01
    9.4712018771905340e-03 -5.3064012981343678e-01
    8.2497122076114707e-03 -7.2570363649707470e-01
    7.9654026736232456e-03 -8.3833000828862303e-01
    7.8710810752025979e-03 -9.1907397400697277e-01
    7.8431537898665995e-03 -9.9794871578867317e-01
    7.8534920452305763e-03 -9.4991775959816660e-01
    7.8431537898665995e-03 -9.9794871578867317e-01
    7.8479202161891824e-03 -1.0355387127152296e+00
    7.8768364045646074e-03 -1.0970961259170788e+00
    7.9184330454399980e-03 -1.1484979839109943e+00
    7.9013367324856157e-03 -1.1294693154660906e+00
    7.9430499951233247e-03 -1.1728639120109203e+00
    7.9654026736232456e-03 -1.1928476734853046e+00
    7.9967634710752800e-03 -1.2184801506594274e+00
    8.0631984768001867e-03 -1.2666009927622468e+00
    8.0631984768001867e-03 -1.2666009927622468e+00
    8.0472917489500025e-03 -1.2556749486708638e+00
    8.0631984768001867e-03 -1.2666009927622468e+00
    8.0631984768001867e-03 -1.2666009927622468e+00
    8.0035018446922811e-03 -1.2236976331741010e+00
    7.9539268356210533e-03 -1.1827995512026217e+00
    7.9327650626791965e-03 -1.1630378346515289e+00
    7.8768364045646074e-03 -1.0970961259170788e+00
    7.8900005189971208e-03 -1.1154548988356299e+00
    7.8684084728114726e-03 -1.0835622468770050e+00
    7.8534920452305763e-03 -1.0527227119356306e+00
    7.8534920452305763e-03 -1.0527227119356306e+00
    7.8435506603938571e-03 -1.0103201908141821e+00
    7.8451387451763561e-03 -9.7766215697074543e-01
    7.9595894195813744e-03 -8.4188593635038322e-01
    8.1242511488073838e-03 -7.6571484133523393e-01
    8.5592391975291577e-03 -6.5433362489529878e-01
    9.8574546005016587e-03 -4.9550408340920038e-01
    1.2389836137472604e-02 -3.5681201607403135e-01
    1.4988192402122969e-02 -2.8252896560880669e-01
    2.1999779900338481e-02 -1.8431027103363656e-01
    2.1365614646351363e-02 -1.9018468068158759e-01
    1.5602848241175235e-02 -2.6960568367451659e-01
    1.1457127999927673e-02 -3.9594140500776737e-01
    9.9769821586390747e-03 -4.8584010655467280e-01
    8.4787273214012165e-03 -6.7037658215719476e-01
    7.9654026736232456e-03 -8.3833000828862303e-01
    7.8612060225787973e-03 -9.3438585342294389e-01
    7.8431537898666012e-03 -1.0020555006273100e+00
    7.8634713270590070e-03 -1.0746475034341114e+00
    7.8570802083950241e-03 -1.0614318417049460e+00
    7.8738902407916381e-03 -1.0925629014815090e+00
    7.8768364045646074e-03 -1.0970961259170788e+00
    7.9095996767838735e-03 -1.1389336290235506e+00
    7.9327650626791965e-03 -1.1630378346515289e+00
    7.9230653816221904e-03 -1.1533184905609797e+00
    8.0174537086868808e-03 -1.2342269087068902e+00
    8.0472917489500025e-03 -1.2556749486708638e+00
    8.0472917489500025e-03 -1.2556749486708638e+00
    7.9901819445097628e-03 -1.2132935416765851e+00
    8.0631984768001867e-03 -1.2666009927622468e+00
    8.0797783132665404e-03 -1.2776667924120253e+00
    8.0714035385627027e-03 -1.2721161778282961e+00
    8.1242511488073838e-03 -1.3059692016106490e+00
    8.0970429715286583e-03 -1.2888763268026728e+00
    8.1059359373847461e-03 -1.2945362782958902e+00
    7.9901819445097628e-03 -1.2132935416765851e+00
    7.9095996767838735e-03 -1.1389336290235506e+00
    7.9278424652069156e-03 -1.1581649942241192e+00
    7.9327650626791965e-03 -1.1630378346515289e+00
    7.9095996767838735e-03 -1.1389336290235506e+00
    7.9095996767838735e-03 -1.1389336290235506e+00
    7.8634713270590070e-03 -1.0746475034341114e+00
    7.8435506603938571e-03 -1.0103201908141821e+00
    7.8534920452305763e-03 -9.4991775959816660e-01
    8.0035018446922811e-03 -8.1719533722243054e-01
    8.1630461604946525e-03 -7.5227415129979469e-01
    8.8015939540904437e-03 -6.1294878635108296e-01
    1.0637636688192008e-02 -4.4003119319020123e-01
    1.4123080126463163e-02 -3.0319672016873173e-01
    1.7770423939766872e-02 -2.3262105259961768e-01
    1.7136731130871021e-02 -2.4227185592617451e-01
    1.3408820288970105e-02 -3.2296809443453661e-01
    1.0429393461140598e-02 -4.5326101150932396e-01
    8.8869433612746018e-03 -6.0027926461833270e-01
    8.0246695670470741e-03 -8.0675117454337730e-01
    7.8831415773093546e-03 -9.0397133754587455e-01
    7.8435506603938554e-03 -9.8978522758625131e-01
    7.8444769259641885e-03 -1.0186544574907090e+00
    7.8552190655687588e-03 -1.0570673130637549e+00
    7.8658720205440503e-03 -1.0790942704159097e+00
    7.9184330454399980e-03 -1.1484979839109943e+00
    7.9484139940690837e-03 -1.1778178560205246e+00
    8.0035018446922811e-03 -1.2236976331741010e+00
    7.9837561603369692e-03 -1.2081373926817927e+00
    7.9901819445097628e-03 -1.2132935416765851e+00
    8.0472917489500025e-03 -1.2556749486708638e+00
    8.0970429715286583e-03 -1.2888763268026728e+00
    8.0472917489500025e-03 -1.2556749486708638e+00
    8.0174537086868808e-03 -1.2342269087068902e+00
    8.1242511488073838e-03 -1.3059692016106490e+00
    8.0797783132665404e-03 -1.2776667924120253e+00
    8.0970429715286583e-03 -1.2888763268026728e+00
    8.1732062687378277e-03 -1.3352367366340485e+00
    8.0472917489500025e-03 -1.2556749486708638e+00
    8.0970429715286583e-03 -1.2888763268026728e+00
    8.1336767207091237e-03 -1.3117432641570730e+00
    8.0714035385627027e-03 -1.2721161778282961e+00
    8.0246695670470724e-03 -1.2395395650536263e+00
    7.9967634710752800e-03 -1.2184801506594274e+00
    7.9654026736232456e-03 -1.1928476734853046e+00
    7.9327650626791965e-03 -1.1630378346515289e+00
    7.9184330454399980e-03 -1.1484979839109943e+00
    7.8936389791946625e-03 -1.1201025085364418e+00
    7.8468602593750308e-03 -1.0312901250540019e+00
    7.8658720205440503e-03 -9.2670309482282320e-01
    7.9837561603369692e-03 -8.2772042820413472e-01
    8.2855028841506955e-03 -7.1583682515531943e-01
    9.1262296017398416e-03 -5.6865592867514470e-01
    1.2018240497618512e-02 -3.7128219360712633e-01
    1.4988192402122969e-02 -2.8252896560880669e-01
    1.6571317672566893e-02 -2.5163222626002502e-01
    1.1765177155671007e-02 -3.8194548425289249e-01
    9.5691359376835552e-03 -5.2109545188371231e-01
    8.2381912230113305e-03 -7.2900380031965761e-01
    7.9095996767838735e-03 -8.7801428855633723e-01
    7.8552190655687571e-03 -9.4601354865627851e-01
    7.8479202161891824e-03 -1.0355387127152296e+00
    7.8468602593750308e-03 -1.0312901250540019e+00
    7.8658720205440503e-03 -1.0790942704159097e+00
    7.9278424652069156e-03 -1.1581649942241192e+00
    7.9539268356210533e-03 -1.1827995512026217e+00
    7.9901819445097628e-03 -1.2132935416765851e+00
    8.0246695670470724e-03 -1.2395395650536263e+00
    8.0103982013021071e-03 -1.2289464098773859e+00
    8.0551616829282070e-03 -1.2611207443836985e+00
    8.0103982013021071e-03 -1.2289464098773859e+00
    8.0246695670470724e-03 -1.2395395650536263e+00
    8.0551616829282070e-03 -1.2611207443836985e+00
    8.0174537086868808e-03 -1.2342269087068902e+00
    8.0395873031923349e-03 -1.2502631301997362e+00
    8.0035018446922811e-03 -1.2236976331741010e+00
    8.0472917489500025e-03 -1.2556749486708638e+00
    8.0472917489500025e-03 -1.2556749486708638e+00
    8.0035018446922811e-03 -1.2236976331741010e+00
    8.0472917489500025e-03 -1.2556749486708638e+00
    8.0883242837717848e-03 -1.2832533383688438e+00
    8.1059359373847461e-03 -1.2945362782958902e+00
    8.0970429715286583e-03 -1.2888763268026728e+00
    8.0174537086868808e-03 -1.2342269087068902e+00
    7.9430499951233247e-03 -1.1728639120109203e+00
    7.9967634710752800e-03 -1.2184801506594274e+00
    7.9837561603369692e-03 -1.2081373926817927e+00
    7.9901819445097628e-03 -1.2132935416765851e+00
    7.9053972377808642e-03 -1.1341891273177598e+00
    7.8439475911732098e-03 -1.0144785195688801e+00
    7.8658720205440503e-03 -9.2670309482282320e-01
    8.0472917489500043e-03 -7.9638444731138702e-01
    8.6834390181530930e-03 -6.3200101847728207e-01
    1.0637636688192008e-02 -4.4003119319020123e-01
    1.4800679756402611e-02 -2.8674417556808757e-01
    1.7136731130871021e-02 -2.4227185592617451e-01
    1.1847291211278140e-02 -3.7840783324729255e-01
    8.9779976835194005e-03 -5.8762561840283556e-01
    8.0714035385627027e-03 -7.8609172450519293e-01
    7.8612060225787973e-03 -9.3438585342294389e-01
    7.8552190655687588e-03 -1.0570673130637549e+00
    7.8658720205440503e-03 -1.0790942704159097e+00
    7.8491131811905552e-03 -1.0398060305636729e+00
    7.8799200236082893e-03 -1.1016516525818694e+00
    7.9378339664305450e-03 -1.1679373570114593e+00
    8.0174537086868808e-03 -1.2342269087068902e+00
    8.0631984768001867e-03 -1.2666009927622468e+00
    8.0035018446922811e-03 -1.2236976331741010e+00
    8.0472917489500025e-03 -1.2556749486708638e+00
    8.0551616829282070e-03 -1.2611207443836985e+00
    8.0714035385627027e-03 -1.2721161778282961e+00
    8.0395873031923349e-03 -1.2502631301997362e+00
    8.0551616829282070e-03 -1.2611207443836985e+00
    8.0631984768001867e-03 -1.2666009927622468e+00
    7.9967634710752800e-03 -1.2184801506594274e+00
    8.0174537086868808e-03 -1.2342269087068902e+00
    8.0246695670470724e-03 -1.2395395650536263e+00
    7.9967634710752800e-03 -1.2184801506594274e+00
    8.0797783132665404e-03 -1.2776667924120253e+00
    8.0035018446922811e-03 -1.2236976331741010e+00
    8.1059359373847461e-03 -1.2945362782958902e+00
    8.2048242060225283e-03 -1.3532905633444754e+00
    8.1432832251946766e-03 -1.3175564717232331e+00
    8.0320470095989159e-03 -1.2448848219394788e+00
    7.9430499951233247e-03 -1.1728639120109203e+00
    8.0320470095989159e-03 -1.2448848219394788e+00
    8.0035018446922811e-03 -1.2236976331741010e+00
    7.9901819445097628e-03 -1.2132935416765851e+00
    7.9539268356210533e-03 -1.1827995512026217e+00
    7.8831415773093563e-03 -1.1062297646680110e+00
    7.8432860733486150e-03 -1.0061792555081206e+00
    7.9095996767838735e-03 -8.7801428855633723e-01
    8.3231858659952619e-03 -7.0601808649746256e-01
    9.3782490794118122e-03 -5.4016403835215876e-01
    1.3036280168648225e-02 -3.3447293779724757e-01
    1.5183977138651338e-02 -2.7826898554920571e-01
    1.0237623616980511e-02 -4.6636895265444078e-01
    8.4188716754894227e-03 -6.8327700815958814e-01
    7.9327650626791982e-03 -8.5981725633166628e-01
    7.8468602593750308e-03 -1.0312901250540019e+00
    7.9139447157309823e-03 -1.1437031398216562e+00
    7.9053972377808642e-03 -1.1341891273177598e+00
    7.9278424652069156e-03 -1.1581649942241192e+00
    7.9539268356210533e-03 -1.1827995512026217e+00
    7.9713675537285335e-03 -1.1979148550710939e+00
    8.0320470095989159e-03 -1.2448848219394788e+00
    8.0883242837717848e-03 -1.2832533383688438e+00
    8.1150047824195756e-03 -1.3002337231462002e+00
    8.0551616829282070e-03 -1.2611207443836985e+00
    8.1059359373847461e-03 -1.2945362782958902e+00
    8.1150047824195756e-03 -1.3002337231462002e+00
    8.0631984768001867e-03 -1.2666009927622468e+00
    8.1059359373847461e-03 -1.2945362782958902e+00
    8.0883242837717848e-03 -1.2832533383688438e+00
    8.0395873031923349e-03 -1.2502631301997362e+00
    8.0320470095989159e-03 -1.2448848219394788e+00
    7.9901819445097628e-03 -1.2132935416765851e+00
    7.9967634710752800e-03 -1.2184801506594274e+00
    8.0631984768001867e-03 -1.2666009927622468e+00
    8.0797783132665404e-03 -1.2776667924120253e+00
    8.1059359373847461e-03 -1.2945362782958902e+00
    8.1732062687378277e-03 -1.3352367366340485e+00
    8.1530724331963338e-03 -1.3234093959839222e+00
    8.0103982013021071e-03 -1.2289464098773859e+00
    7.9539268356210533e-03 -1.1827995512026217e+00
    7.9327650626791965e-03 -1.1630378346515289e+00
    7.9713675537285335e-03 -1.1979148550710939e+00
    8.0631984768001867e-03 -1.2666009927622468e+00
    8.0035018446922811e-03 -1.2236976331741010e+00
    7.9095996767838735e-03 -1.1389336290235506e+00
    7.8504393361295086e-03 -1.0440923117065877e+00
    7.8710810752025979e-03 -9.1907397400697277e-01
    8.0797783132665387e-03 -7.8267667747094249e-01
    8.7811021419441967e-03 -6.1611963078076637e-01
    1.1607230532593897e-02 -3.8897331066105223e-01
    1.2489583409060683e-02 -3.5314489433832774e-01
    9.5359167243948047e-03 -5.2427961046338989e-01
    8.2978503010506192e-03 -7.1255872605736525e-01
    7.8552190655687571e-03 -9.4601354865627851e-01
    7.8684084728114726e-03 -1.0835622468770050e+00
    7.9327650626791965e-03 -1.1630378346515289e+00
    7.9278424652069156e-03 -1.1581649942241192e+00
    8.0103982013021071e-03 -1.2289464098773859e+00
    8.0970429715286583e-03 -1.2888763268026728e+00
    8.0395873031923349e-03 -1.2502631301997362e+00
    8.1336767207091237e-03 -1.3117432641570730e+00
    8.0970429715286583e-03 -1.2888763268026728e+00
    8.2497122076114707e-03 -1.3779729764438504e+00
    8.1530724331963338e-03 -1.3234093959839222e+00
    8.1835546664958091e-03 -1.3412123525798008e+00
    8.0883242837717848e-03 -1.2832533383688438e+00
    8.0174537086868808e-03 -1.2342269087068902e+00
    8.0103982013021071e-03 -1.2289464098773859e+00
    7.9837561603369692e-03 -1.2081373926817927e+00
    8.0395873031923349e-03 -1.2502631301997362e+00
    7.9654026736232456e-03 -1.1928476734853046e+00
    7.9967634710752800e-03 -1.2184801506594274e+00
    8.0472917489500025e-03 -1.2556749486708638e+00
    8.0395873031923349e-03 -1.2502631301997362e+00
    8.0174537086868808e-03 -1.2342269087068902e+00
    8.1940933103503786e-03 -1.3472300849276280e+00
    8.1432832251946766e-03 -1.3175564717232331e+00
    8.1530724331963338e-03 -1.3234093959839222e+00
    8.1242511488073838e-03 -1.3059692016106490e+00
    8.0472917489500025e-03 -1.2556749486708638e+00
    8.0246695670470724e-03 -1.2395395650536263e+00
    8.0246695670470724e-03 -1.2395395650536263e+00
    8.0246695670470724e-03 -1.2395395650536263e+00
    8.0551616829282070e-03 -1.2611207443836985e+00
    7.9230653816221904e-03 -1.1533184905609797e+00
    7.8936389791946625e-03 -1.1201025085364418e+00
    7.8451387451763561e-03 -9.7766215697074543e-01
    7.9654026736232456e-03 -8.3833000828862303e-01
    8.4483098171390138e-03 -6.7681890660303623e-01
    9.8965527676071613e-03 -4.9228745543179359e-01
    1.2389836137472604e-02 -3.5681201607403135e-01
    8.8869433612746018e-03 -6.0027926461833270e-01
    7.9837561603369692e-03 -8.2772042820413472e-01
    7.8439475911732098e-03 -1.0144785195688801e+00
    7.8974175189436176e-03 -1.1247738790840438e+00
    8.0103982013021071e-03 -1.2289464098773859e+00
    8.0883242837717848e-03 -1.2832533383688438e+00
    8.1336767207091237e-03 -1.3117432641570730e+00
    8.1835546664958091e-03 -1.3412123525798008e+00
    8.1059359373847461e-03 -1.2945362782958902e+00
    8.1530724331963338e-03 -1.3234093959839222e+00
    8.1835546664958091e-03 -1.3412123525798008e+00
    8.2048242060225283e-03 -1.3532905633444754e+00
    8.1150047824195756e-03 -1.3002337231462002e+00
    8.1059359373847461e-03 -1.2945362782958902e+00
    8.0246695670470724e-03 -1.2395395650536263e+00
    7.9654026736232456e-03 -1.1928476734853046e+00
    7.9378339664305450e-03 -1.1679373570114593e+00
    8.0035018446922811e-03 -1.2236976331741010e+00
    8.0035018446922811e-03 -1.2236976331741010e+00
    8.0246695670470724e-03 -1.2395395650536263e+00
    7.9837561603369692e-03 -1.2081373926817927e+00
    7.9901819445097628e-03 -1.2132935416765851e+00
    8.0551616829282070e-03 -1.2611207443836985e+00
    7.9967634710752800e-03 -1.2184801506594274e+00
    8.0174537086868808e-03 -1.2342269087068902e+00
    8.1150047824195756e-03 -1.3002337231462002e+00
    8.0714035385627027e-03 -1.2721161778282961e+00
    8.0714035385627027e-03 -1.2721161778282961e+00
    8.1530724331963338e-03 -1.3234093959839222e+00
    8.0970429715286583e-03 -1.2888763268026728e+00
    8.0714035385627027e-03 -1.2721161778282961e+00
    8.1150047824195756e-03 -1.3002337231462002e+00
    8.0631984768001867e-03 -1.2666009927622468e+00
    8.0035018446922811e-03 -1.2236976331741010e+00
    7.9595894195813727e-03 -1.1878093656428670e+00
    7.8504393361295086e-03 -1.0440923117065877e+00
    7.8865015675638386e-03 -9.0022715018659916e-01
    8.1530724331963355e-03 -7.5562407448114288e-01
    9.0751863775150529e-03 -5.7497921083824832e-01
    1.2389836137472604e-02 -3.5681201607403135e-01
    8.3628305439599412e-03 -6.9624428009210637e-01
    7.9013367324856157e-03 -8.8537155131774137e-01
    7.8479202161891824e-03 -1.0355387127152296e+00
    7.8974175189436176e-03 -1.1247738790840438e+00
    8.0320470095989159e-03 -1.2448848219394788e+00
    8.1150047824195756e-03 -1.3002337231462002e+00
    8.1150047824195756e-03 -1.3002337231462002e+00
    8.2497122076114707e-03 -1.3779729764438504e+00
    8.1835546664958091e-03 -1.3412123525798008e+00
    8.1242511488073838e-03 -1.3059692016106490e+00
    8.2268710284358736e-03 -1.3655423400074207e+00
    8.1835546664958091e-03 -1.3412123525798008e+00
    8.1059359373847461e-03 -1.2945362782958902e+00
    8.1150047824195756e-03 -1.3002337231462002e+00
    7.9967634710752800e-03 -1.2184801506594274e+00
    7.9774850446411982e-03 -1.2030112970810054e+00
    7.9654026736232456e-03 -1.1928476734853046e+00
    7.9837561603369692e-03 -1.2081373926817927e+00
    7.9430499951233247e-03 -1.1728639120109203e+00
    7.9378339664305450e-03 -1.1679373570114593e+00
    7.9713675537285335e-03 -1.1979148550710939e+00
    7.9430499951233247e-03 -1.1728639120109203e+00
    7.9654026736232456e-03 -1.1928476734853046e+00
    7.9595894195813727e-03 -1.1878093656428670e+00
    8.0035018446922811e-03 -1.2236976331741010e+00
    8.0714035385627027e-03 -1.2721161778282961e+00
    8.1242511488073838e-03 -1.3059692016106490e+00
    8.1940933103503786e-03 -1.3472300849276280e+00
    8.2157494095384965e-03 -1.3593944300217906e+00
    8.1835546664958091e-03 -1.3412123525798008e+00
    8.1732062687378277e-03 -1.3352367366340485e+00
    8.2381912230113305e-03 -1.3717349615482315e+00
    8.1630461604946525e-03 -1.3293026196263418e+00
    8.1530724331963338e-03 -1.3234093959839222e+00
    8.0035018446922811e-03 -1.2236976331741010e+00
    7.8865015675638368e-03 -1.1108307495421794e+00
    7.8479202161891824e-03 -9.6568094241301183e-01
    8.0246695670470741e-03 -8.0675117454337730e-01
    8.6107611115751725e-03 -6.4474620930921700e-01
    1.0583920832350843e-02 -4.4335109852147264e-01
    8.1432832251946766e-03 -7.5898075070140936e-01
    7.8831415773093546e-03 -9.0397133754587455e-01
    7.8612060225787955e-03 -1.0702216823346491e+00
    8.0246695670470724e-03 -1.2395395650536263e+00
    8.0883242837717848e-03 -1.2832533383688438e+00
    8.1336767207091237e-03 -1.3117432641570730e+00
    8.1835546664958091e-03 -1.3412123525798008e+00
    8.2157494095384965e-03 -1.3593944300217906e+00
    8.2733656825822108e-03 -1.3905879834656403e+00
    8.1835546664958091e-03 -1.3412123525798008e+00
    8.2733656825822108e-03 -1.3905879834656403e+00
    8.2268710284358736e-03 -1.3655423400074207e+00
    8.0970429715286583e-03 -1.2888763268026728e+00
    8.0797783132665404e-03 -1.2776667924120253e+00
    7.9967634710752800e-03 -1.2184801506594274e+00
    8.0035018446922811e-03 -1.2236976331741010e+00
    7.9539268356210533e-03 -1.1827995512026217e+00
    7.9327650626791965e-03 -1.1630378346515289e+00
    7.9230653816221904e-03 -1.1533184905609797e+00
    7.9713675537285335e-03 -1.1979148550710939e+00
    7.9774850446411982e-03 -1.2030112970810054e+00
    7.9837561603369692e-03 -1.2081373926817927e+00
    8.0103982013021071e-03 -1.2289464098773859e+00
    7.9901819445097628e-03 -1.2132935416765851e+00
    7.9713675537285335e-03 -1.1979148550710939e+00
    8.0551616829282070e-03 -1.2611207443836985e+00
    8.1530724331963338e-03 -1.3234093959839222e+00
    8.1835546664958091e-03 -1.3412123525798008e+00
    8.2048242060225283e-03 -1.3532905633444754e+00
    8.3493931856166610e-03 -1.4295978455495797e+00
    8.3493931856166610e-03 -1.4295978455495797e+00
    8.2497122076114707e-03 -1.3779729764438504e+00
    8.1940933103503786e-03 -1.3472300849276280e+00
    8.2497122076114707e-03 -1.3779729764438504e+00
    8.1336767207091237e-03 -1.3117432641570730e+00
    7.9774850446411982e-03 -1.2030112970810054e+00
    7.8479202161891824e-03 -1.0355387127152296e+00
    7.9013367324856157e-03 -8.8537155131774137e-01
    8.3903868426439474e-03 -6.8975182185883044e-01
    9.7080789218272501e-03 -5.0832856777534885e-01
    8.0797783132665387e-03 -7.8267667747094249e-01
    7.8552190655687571e-03 -9.4601354865627851e-01
    7.8534920452305763e-03 -1.0527227119356306e+00
    7.9901819445097628e-03 -1.2132935416765851e+00
    8.1059359373847461e-03 -1.2945362782958902e+00
    8.2268710284358736e-03 -1.3655423400074207e+00
    8.2497122076114707e-03 -1.3779729764438504e+00
    8.2268710284358736e-03 -1.3655423400074207e+00
    8.1432832251946766e-03 -1.3175564717232331e+00
    8.2268710284358736e-03 -1.3655423400074207e+00
    8.2855028841506955e-03 -1.3969664103031081e+00
    8.0970429715286583e-03 -1.2888763268026728e+00
    8.0472917489500025e-03 -1.2556749486708638e+00
    8.0472917489500025e-03 -1.2556749486708638e+00
    7.9595894195813727e-03 -1.1878093656428670e+00
    7.9713675537285335e-03 -1.1979148550710939e+00
    7.9484139940690837e-03 -1.1778178560205246e+00
    7.9184330454399980e-03 -1.1484979839109943e+00
    7.9430499951233247e-03 -1.1728639120109203e+00
    7.9654026736232456e-03 -1.1928476734853046e+00
    7.9484139940690837e-03 -1.1778178560205246e+00
    7.9595894195813727e-03 -1.1878093656428670e+00
    8.0035018446922811e-03 -1.2236976331741010e+00
    8.0246695670470724e-03 -1.2395395650536263e+00
    7.9713675537285335e-03 -1.1979148550710939e+00
    8.0970429715286583e-03 -1.2888763268026728e+00
    8.1732062687378277e-03 -1.3352367366340485e+00
    8.1242511488073838e-03 -1.3059692016106490e+00
    8.1530724331963338e-03 -1.3234093959839222e+00
    8.3361792152538972e-03 -1.4229703863738326e+00
    8.2978503010506192e-03 -1.4033931007105425e+00
    8.2733656825822108e-03 -1.3905879834656403e+00
    8.2157494095384965e-03 -1.3593944300217906e+00
    8.1940933103503786e-03 -1.3472300849276280e+00
    8.2157494095384965e-03 -1.3593944300217906e+00
    7.9901819445097628e-03 -1.2132935416765851e+00
    7.8684084728114726e-03 -1.0835622468770050e+00
    7.8634713270590070e-03 -9.3053768496593547e-01
    8.2157494095384965e-03 -7.3562166941052598e-01
    9.5032763898199382e-03 -5.2746111050684386e-01
    8.1336767207091237e-03 -7.6234429962375350e-01
    7.8491131811905535e-03 -9.6171783063991845e-01
    7.8974175189436176e-03 -1.1247738790840438e+00
    7.9837561603369692e-03 -1.2081373926817927e+00
    8.0631984768001867e-03 -1.2666009927622468e+00
    8.2733656825822108e-03 -1.3905879834656403e+00
    8.3493931856166610e-03 -1.4295978455495797e+00
    8.3493931856166610e-03 -1.4295978455495797e+00
    8.2048242060225283e-03 -1.3532905633444754e+00
    8.3361792152538972e-03 -1.4229703863738326e+00
    8.2048242060225283e-03 -1.3532905633444754e+00
    8.0883242837717848e-03 -1.2832533383688438e+00
    8.0174537086868808e-03 -1.2342269087068902e+00
    8.0035018446922811e-03 -1.2236976331741010e+00
    7.9654026736232456e-03 -1.1928476734853046e+00
    7.9774850446411982e-03 -1.2030112970810054e+00
    7.9539268356210533e-03 -1.1827995512026217e+00
    7.9713675537285335e-03 -1.1979148550710939e+00
    7.9774850446411982e-03 -1.2030112970810054e+00
    7.9595894195813727e-03 -1.1878093656428670e+00
    7.9595894195813727e-03 -1.1878093656428670e+00
    7.9539268356210533e-03 -1.1827995512026217e+00
    7.9774850446411982e-03 -1.2030112970810054e+00
    8.0103982013021071e-03 -1.2289464098773859e+00
    8.0395873031923349e-03 -1.2502631301997362e+00
    8.0714035385627027e-03 -1.2721161778282961e+00
    8.1059359373847461e-03 -1.2945362782958902e+00
    8.1059359373847461e-03 -1.2945362782958902e+00
    8.1530724331963338e-03 -1.3234093959839222e+00
    8.2614362519684691e-03 -1.3842570804119652e+00
    8.2614362519684691e-03 -1.3842570804119652e+00
    8.1940933103503786e-03 -1.3472300849276280e+00
    8.2048242060225283e-03 -1.3532905633444754e+00
    8.1835546664958091e-03 -1.3412123525798008e+00
    8.2381912230113305e-03 -1.3717349615482315e+00
    8.0551616829282070e-03 -1.2611207443836985e+00
    7.9139447157309823e-03 -1.1437031398216562e+00
    7.8590757587302992e-03 -9.3824777127839754e-01
    8.1732062687378277e-03 -7.4893086189409774e-01
    9.2899581580932478e-03 -5.4967175426171855e-01
    8.0883242837717848e-03 -7.7926935399296127e-01
    7.8504393361295104e-03 -9.5776971900643704e-01
    7.9327650626791965e-03 -1.1630378346515289e+00
    7.9595894195813727e-03 -1.1878093656428670e+00
    8.0631984768001867e-03 -1.2666009927622468e+00
    8.2855028841506955e-03 -1.3969664103031081e+00
    8.2733656825822108e-03 -1.3905879834656403e+00
    8.2978503010506192e-03 -1.4033931007105425e+00
    8.3104104388700469e-03 -1.4098688099783230e+00
    8.4188716754894262e-03 -1.4635352690902153e+00
    8.2381912230113305e-03 -1.3717349615482315e+00
    8.0797783132665404e-03 -1.2776667924120253e+00
    8.0797783132665404e-03 -1.2776667924120253e+00
    7.9901819445097628e-03 -1.2132935416765851e+00
    7.9837561603369692e-03 -1.2081373926817927e+00
    7.9967634710752800e-03 -1.2184801506594274e+00
    7.9967634710752800e-03 -1.2184801506594274e+00
    7.9901819445097628e-03 -1.2132935416765851e+00
    8.0174537086868808e-03 -1.2342269087068902e+00
    7.9901819445097628e-03 -1.2132935416765851e+00
    7.9837561603369692e-03 -1.2081373926817927e+00
    7.9713675537285335e-03 -1.1979148550710939e+00
    7.9967634710752800e-03 -1.2184801506594274e+00
    8.0246695670470724e-03 -1.2395395650536263e+00
    8.0174537086868808e-03 -1.2342269087068902e+00
    8.0246695670470724e-03 -1.2395395650536263e+00
    8.0883242837717848e-03 -1.2832533383688438e+00
    8.0472917489500025e-03 -1.2556749486708638e+00
    8.1242511488073838e-03 -1.3059692016106490e+00
    8.2268710284358736e-03 -1.3655423400074207e+00
    8.1530724331963338e-03 -1.3234093959839222e+00
    8.2048242060225283e-03 -1.3532905633444754e+00
    8.2733656825822108e-03 -1.3905879834656403e+00
    8.1242511488073838e-03 -1.3059692016106490e+00
    8.1150047824195756e-03 -1.3002337231462002e+00
    8.0246695670470724e-03 -1.2395395650536263e+00
    7.9053972377808642e-03 -1.1341891273177598e+00
    7.8552190655687571e-03 -9.4601354865627851e-01
    8.1732062687378277e-03 -7.4893086189409774e-01
    9.2335433115351764e-03 -5.5600340371821166e-01
    8.1732062687378277e-03 -7.4893086189409774e-01
    7.8534920452305763e-03 -9.4991775959816660e-01
    7.8865015675638368e-03 -1.1108307495421794e+00
    8.0174537086868808e-03 -1.2342269087068902e+00
    8.0797783132665404e-03 -1.2776667924120253e+00
    8.2381912230113305e-03 -1.3717349615482315e+00
    8.2978503010506192e-03 -1.4033931007105425e+00
    8.1835546664958091e-03 -1.3412123525798008e+00
    8.3104104388700469e-03 -1.4098688099783230e+00
    8.3231858659952619e-03 -1.4163943093313294e+00
    8.2497122076114707e-03 -1.3779729764438504e+00
    8.1630461604946525e-03 -1.3293026196263418e+00
    8.1336767207091237e-03 -1.3117432641570730e+00
    8.0631984768001867e-03 -1.2666009927622468e+00
    8.0174537086868808e-03 -1.2342269087068902e+00
    8.0246695670470724e-03 -1.2395395650536263e+00
    8.0174537086868808e-03 -1.2342269087068902e+00
    8.0246695670470724e-03 -1.2395395650536263e+00
    8.0246695670470724e-03 -1.2395395650536263e+00
    8.0714035385627027e-03 -1.2721161778282961e+00
    8.0472917489500025e-03 -1.2556749486708638e+00
    7.9774850446411982e-03 -1.2030112970810054e+00
    8.0320470095989159e-03 -1.2448848219394788e+00
    8.0320470095989159e-03 -1.2448848219394788e+00
    8.0472917489500025e-03 -1.2556749486708638e+00
    8.0551616829282070e-03 -1.2611207443836985e+00
    8.0472917489500025e-03 -1.2556749486708638e+00
    8.0320470095989159e-03 -1.2448848219394788e+00
    8.0631984768001867e-03 -1.2666009927622468e+00
    8.1732062687378277e-03 -1.3352367366340485e+00
    8.1835546664958091e-03 -1.3412123525798008e+00
    8.1150047824195756e-03 -1.3002337231462002e+00
    8.2048242060225283e-03 -1.3532905633444754e+00
    8.0797783132665404e-03 -1.2776667924120253e+00
    8.0631984768001867e-03 -1.2666009927622468e+00
    8.0103982013021071e-03 -1.2289464098773859e+00
    7.8768364045646074e-03 -1.0970961259170788e+00
    7.8504393361295104e-03 -9.5776971900643704e-01
    8.1732062687378277e-03 -7.4893086189409774e-01
    9.8574546005016587e-03 -4.9550408340920038e-01
    8.1530724331963355e-03 -7.5562407448114288e-01
    7.8590757587302992e-03 -9.3824777127839754e-01
    7.8831415773093563e-03 -1.1062297646680110e+00
    8.0103982013021071e-03 -1.2289464098773859e+00
    8.2497122076114707e-03 -1.3779729764438504e+00
    8.2855028841506955e-03 -1.3969664103031081e+00
    8.2978503010506192e-03 -1.4033931007105425e+00
    8.3231858659952619e-03 -1.4163943093313294e+00
    8.2733656825822108e-03 -1.3905879834656403e+00
    8.2978503010506192e-03 -1.4033931007105425e+00
    8.2381912230113305e-03 -1.3717349615482315e+00
    8.1530724331963338e-03 -1.3234093959839222e+00
    8.0970429715286583e-03 -1.2888763268026728e+00
    8.0970429715286583e-03 -1.2888763268026728e+00
    8.0174537086868808e-03 -1.2342269087068902e+00
    8.0246695670470724e-03 -1.2395395650536263e+00
    8.0103982013021071e-03 -1.2289464098773859e+00
    8.0103982013021071e-03 -1.2289464098773859e+00
    8.0320470095989159e-03 -1.2448848219394788e+00
    8.0797783132665404e-03 -1.2776667924120253e+00
    8.0883242837717848e-03 -1.2832533383688438e+00
    8.0883242837717848e-03 -1.2832533383688438e+00
    8.0103982013021071e-03 -1.2289464098773859e+00
    8.0631984768001867e-03 -1.2666009927622468e+00
    8.0395873031923349e-03 -1.2502631301997362e+00
    8.0246695670470724e-03 -1.2395395650536263e+00
    7.9901819445097628e-03 -1.2132935416765851e+00
    8.0472917489500025e-03 -1.2556749486708638e+00
    7.9967634710752800e-03 -1.2184801506594274e+00
    7.9774850446411982e-03 -1.2030112970810054e+00
    8.0246695670470724e-03 -1.2395395650536263e+00
    8.1059359373847461e-03 -1.2945362782958902e+00
    8.1530724331963338e-03 -1.3234093959839222e+00
    8.0883242837717848e-03 -1.2832533383688438e+00
    8.0631984768001867e-03 -1.2666009927622468e+00
    7.9901819445097628e-03 -1.2132935416765851e+00
    7.9278424652069156e-03 -1.1581649942241192e+00
    7.8431537898666012e-03 -1.0020555006273100e+00
    8.1336767207091237e-03 -7.6234429962375350e-01
    1.1847291211278140e-02 -3.7840783324729255e-01
    8.4787273214012165e-03 -6.7037658215719476e-01
    7.9184330454399980e-03 -8.7070244267620511e-01
    7.8612060225787955e-03 -1.0702216823346491e+00
    7.9713675537285335e-03 -1.1979148550710939e+00
    8.1630461604946525e-03 -1.3293026196263418e+00
    8.1732062687378277e-03 -1.3352367366340485e+00
    8.2855028841506955e-03 -1.3969664103031081e+00
    8.3628305439599412e-03 -1.4362775086176784e+00
    8.2497122076114707e-03 -1.3779729764438504e+00
    8.2268710284358736e-03 -1.3655423400074207e+00
    8.0883242837717848e-03 -1.2832533383688438e+00
    8.1150047824195756e-03 -1.3002337231462002e+00
    8.1530724331963338e-03 -1.3234093959839222e+00
    8.0472917489500025e-03 -1.2556749486708638e+00
    8.0472917489500025e-03 -1.2556749486708638e+00
    8.0174537086868808e-03 -1.2342269087068902e+00
    8.0174537086868808e-03 -1.2342269087068902e+00
    8.0631984768001867e-03 -1.2666009927622468e+00
    8.0395873031923349e-03 -1.2502631301997362e+00
    8.1336767207091237e-03 -1.3117432641570730e+00
    8.0472917489500025e-03 -1.2556749486708638e+00
    8.0395873031923349e-03 -1.2502631301997362e+00
    8.0395873031923349e-03 -1.2502631301997362e+00
    8.0472917489500025e-03 -1.2556749486708638e+00
    8.0714035385627027e-03 -1.2721161778282961e+00
    8.0472917489500025e-03 -1.2556749486708638e+00
    8.0551616829282070e-03 -1.2611207443836985e+00
    8.0035018446922811e-03 -1.2236976331741010e+00
    7.9713675537285335e-03 -1.1979148550710939e+00
    7.9654026736232456e-03 -1.1928476734853046e+00
    7.9901819445097628e-03 -1.2132935416765851e+00
    8.0883242837717848e-03 -1.2832533383688438e+00
    8.1835546664958091e-03 -1.3412123525798008e+00
    8.1835546664958091e-03 -1.3412123525798008e+00
    8.0883242837717848e-03 -1.2832533383688438e+00
    7.9901819445097628e-03 -1.2132935416765851e+00
    7.9139447157309823e-03 -1.1437031398216562e+00
    7.8684084728114709e-03 -9.2288191368992034e-01
    8.2733656825822108e-03 -7.1912026559282338e-01
    1.3541643903150902e-02 -3.1907672235863782e-01
    8.8015939540904437e-03 -6.1294878635108296e-01
    8.0320470095989159e-03 -8.0328716550824475e-01
    7.8634713270590070e-03 -9.3053768496593547e-01
    7.9095996767838735e-03 -1.1389336290235506e+00
    8.1150047824195756e-03 -1.3002337231462002e+00
    8.2381912230113305e-03 -1.3717349615482315e+00
    8.2978503010506192e-03 -1.4033931007105425e+00
    8.3361792152538972e-03 -1.4229703863738326e+00
    8.2497122076114707e-03 -1.3779729764438504e+00
    8.2157494095384965e-03 -1.3593944300217906e+00
    8.1336767207091237e-03 -1.3117432641570730e+00
    8.1940933103503786e-03 -1.3472300849276280e+00
    8.1630461604946525e-03 -1.3293026196263418e+00
    8.1242511488073838e-03 -1.3059692016106490e+00
    8.0797783132665404e-03 -1.2776667924120253e+00
    8.0035018446922811e-03 -1.2236976331741010e+00
    7.9901819445097628e-03 -1.2132935416765851e+00
    8.0103982013021071e-03 -1.2289464098773859e+00
    8.0246695670470724e-03 -1.2395395650536263e+00
    8.0714035385627027e-03 -1.2721161778282961e+00
    8.0174537086868808e-03 -1.2342269087068902e+00
    8.0103982013021071e-03 -1.2289464098773859e+00
    8.0103982013021071e-03 -1.2289464098773859e+00
    7.9713675537285335e-03 -1.1979148550710939e+00
    8.0883242837717848e-03 -1.2832533383688438e+00
    8.0883242837717848e-03 -1.2832533383688438e+00
    8.0631984768001867e-03 -1.2666009927622468e+00
    7.9774850446411982e-03 -1.2030112970810054e+00
    7.9774850446411982e-03 -1.2030112970810054e+00
    7.9713675537285335e-03 -1.1979148550710939e+00
    8.0035018446922811e-03 -1.2236976331741010e+00
    8.0551616829282070e-03 -1.2611207443836985e+00
    8.1432832251946766e-03 -1.3175564717232331e+00
    8.0551616829282070e-03 -1.2611207443836985e+00
    8.0797783132665404e-03 -1.2776667924120253e+00
    7.9967634710752800e-03 -1.2184801506594274e+00
    7.8900005189971208e-03 -1.1154548988356299e+00
    7.8936389791946625e-03 -8.9277543115819724e-01
    8.5761373271833023e-03 -6.5113486175072399e-01
    1.5602848241175235e-02 -2.6960568367451659e-01
    9.5032763898199382e-03 -5.2746111050684386e-01
    8.1940933103503803e-03 -7.4226370921171869e-01
    7.8974175189436176e-03 -8.8906758824657872e-01
    7.8570802083950241e-03 -1.0614318417049460e+00
    7.9967634710752800e-03 -1.2184801506594274e+00
    8.1432832251946766e-03 -1.3175564717232331e+00
    8.2614362519684691e-03 -1.3842570804119652e+00
    8.2978503010506192e-03 -1.4033931007105425e+00
    8.2978503010506192e-03 -1.4033931007105425e+00
    8.3231858659952619e-03 -1.4163943093313294e+00
    8.3493931856166610e-03 -1.4295978455495797e+00
    8.2268710284358736e-03 -1.3655423400074207e+00
    8.1530724331963338e-03 -1.3234093959839222e+00
    8.0395873031923349e-03 -1.2502631301997362e+00
    7.9713675537285335e-03 -1.1979148550710939e+00
    8.0103982013021071e-03 -1.2289464098773859e+00
    7.9837561603369692e-03 -1.2081373926817927e+00
    8.0395873031923349e-03 -1.2502631301997362e+00
    7.9837561603369692e-03 -1.2081373926817927e+00
    8.0103982013021071e-03 -1.2289464098773859e+00
    8.0174537086868808e-03 -1.2342269087068902e+00
    8.0174537086868808e-03 -1.2342269087068902e+00
    7.9713675537285335e-03 -1.1979148550710939e+00
    8.0035018446922811e-03 -1.2236976331741010e+00
    8.0174537086868808e-03 -1.2342269087068902e+00
    8.0035018446922811e-03 -1.2236976331741010e+00
    7.9901819445097628e-03 -1.2132935416765851e+00
    7.9713675537285335e-03 -1.1979148550710939e+00
    8.0246695670470724e-03 -1.2395395650536263e+00
    8.0320470095989159e-03 -1.2448848219394788e+00
    8.0174537086868808e-03 -1.2342269087068902e+00
    8.0472917489500025e-03 -1.2556749486708638e+00
    8.1732062687378277e-03 -1.3352367366340485e+00
    8.0472917489500025e-03 -1.2556749486708638e+00
    8.0246695670470724e-03 -1.2395395650536263e+00
    7.9184330454399980e-03 -1.1484979839109943e+00
    7.8451387451763561e-03 -1.0228482230492253e+00
    7.9837561603369692e-03 -8.2772042820413472e-01
    8.8224181655879187e-03 -6.0977945678375634e-01
    1.5602848241175235e-02 -2.6960568367451659e-01
    1.0479832539615472e-02 -4.4996570514036860e-01
    8.4483098171390138e-03 -6.7681890660303623e-01
    7.9230653816221904e-03 -8.6706318175267894e-01
    7.8459331493852865e-03 -1.0270600375222012e+00
    7.9713675537285335e-03 -1.1979148550710939e+00
    8.0246695670470724e-03 -1.2395395650536263e+00
    8.0970429715286583e-03 -1.2888763268026728e+00
    8.3493931856166610e-03 -1.4295978455495797e+00
    8.2978503010506192e-03 -1.4033931007105425e+00
    8.3903868426439474e-03 -1.4497968230153762e+00
    8.2855028841506955e-03 -1.3969664103031081e+00
    8.2268710284358736e-03 -1.3655423400074207e+00
    8.1336767207091237e-03 -1.3117432641570730e+00
    8.0970429715286583e-03 -1.2888763268026728e+00
    8.0631984768001867e-03 -1.2666009927622468e+00
    7.9901819445097628e-03 -1.2132935416765851e+00
    8.0320470095989159e-03 -1.2448848219394788e+00
    8.0395873031923349e-03 -1.2502631301997362e+00
    7.9539268356210533e-03 -1.1827995512026217e+00
    7.9901819445097628e-03 -1.2132935416765851e+00
    7.9967634710752800e-03 -1.2184801506594274e+00
    8.0035018446922811e-03 -1.2236976331741010e+00
    8.0246695670470724e-03 -1.2395395650536263e+00
    8.0395873031923349e-03 -1.2502631301997362e+00
    8.0320470095989159e-03 -1.2448848219394788e+00
    8.0035018446922811e-03 -1.2236976331741010e+00
    8.0174537086868808e-03 -1.2342269087068902e+00
    7.9837561603369692e-03 -1.2081373926817927e+00
    7.9967634710752800e-03 -1.2184801506594274e+00
    7.9967634710752800e-03 -1.2184801506594274e+00
    8.0714035385627027e-03 -1.2721161778282961e+00
    8.0395873031923349e-03 -1.2502631301997362e+00
    8.0883242837717848e-03 -1.2832533383688438e+00
    8.0174537086868808e-03 -1.2342269087068902e+00
    7.9184330454399980e-03 -1.1484979839109943e+00
    7.9095996767838735e-03 -1.1389336290235506e+00
    7.8459331493852865e-03 -9.7365291557104683e-01
    8.0797783132665387e-03 -7.8267667747094249e-01
    9.2060394446124606e-03 -5.5916765250849398e-01
    1.5388639338004061e-02 -2.7396201860471292e-01
    1.2018240497618512e-02 -3.7128219360712633e-01
    8.8224181655879187e-03 -6.0977945678375634e-01
    8.0714035385627027e-03 -7.8609172450519293e-01
    7.8468602593750308e-03 -9.6965924108663115e-01
    7.8658720205440503e-03 -1.0790942704159097e+00
    7.9378339664305450e-03 -1.1679373570114593e+00
    8.0246695670470724e-03 -1.2395395650536263e+00
    8.2048242060225283e-03 -1.3532905633444754e+00
    8.2268710284358736e-03 -1.3655423400074207e+00
    8.2381912230113305e-03 -1.3717349615482315e+00
    8.1630461604946525e-03 -1.3293026196263418e+00
    8.1059359373847461e-03 -1.2945362782958902e+00
    8.0246695670470724e-03 -1.2395395650536263e+00
    8.0320470095989159e-03 -1.2448848219394788e+00
    7.9713675537285335e-03 -1.1979148550710939e+00
    7.9430499951233247e-03 -1.1728639120109203e+00
    7.9278424652069156e-03 -1.1581649942241192e+00
    7.9713675537285335e-03 -1.1979148550710939e+00
    7.9139447157309823e-03 -1.1437031398216562e+00
    7.9095996767838735e-03 -1.1389336290235506e+00
    7.9327650626791965e-03 -1.1630378346515289e+00
    7.9430499951233247e-03 -1.1728639120109203e+00
    7.9967634710752800e-03 -1.2184801506594274e+00
    8.0174537086868808e-03 -1.2342269087068902e+00
    8.0320470095989159e-03 -1.2448848219394788e+00
    8.0551616829282070e-03 -1.2611207443836985e+00
    8.0174537086868808e-03 -1.2342269087068902e+00
    7.9430499951233247e-03 -1.1728639120109203e+00
    7.9837561603369692e-03 -1.2081373926817927e+00
    8.0631984768001867e-03 -1.2666009927622468e+00
    8.0320470095989159e-03 -1.2448848219394788e+00
    8.0320470095989159e-03 -1.2448848219394788e+00
    8.0714035385627027e-03 -1.2721161778282961e+00
    7.9901819445097628e-03 -1.2132935416765851e+00
    7.8831415773093563e-03 -1.1062297646680110e+00
    7.8570802083950241e-03 -1.0614318417049460e+00
    7.9230653816221904e-03 -8.6706318175267894e-01
    8.3493931856166610e-03 -6.9949741678266886e-01
    1.1112529863939187e-02 -4.1312598190270838e-01
    1.5388639338004061e-02 -2.7396201860471292e-01
    1.3280472093092967e-02 -3.2683050931359181e-01
    9.3483156674585982e-03 -5.4333485619592536e-01
    8.2157494095384965e-03 -7.3562166941052598e-01
    7.8974175189436176e-03 -8.8906758824657872e-01
    7.8435506603938571e-03 -1.0103201908141821e+00
    7.9327650626791965e-03 -1.1630378346515289e+00
    7.9484139940690837e-03 -1.1778178560205246e+00
    7.9901819445097628e-03 -1.2132935416765851e+00
    8.0714035385627027e-03 -1.2721161778282961e+00
    8.1530724331963338e-03 -1.3234093959839222e+00
    8.1530724331963338e-03 -1.3234093959839222e+00
    8.1059359373847461e-03 -1.2945362782958902e+00
    8.1059359373847461e-03 -1.2945362782958902e+00
    8.1150047824195756e-03 -1.3002337231462002e+00
    8.0970429715286583e-03 -1.2888763268026728e+00
    7.9539268356210533e-03 -1.1827995512026217e+00
    7.9327650626791965e-03 -1.1630378346515289e+00
    7.9430499951233247e-03 -1.1728639120109203e+00
    7.9184330454399980e-03 -1.1484979839109943e+00
    7.9013367324856157e-03 -1.1294693154660906e+00
    7.9139447157309823e-03 -1.1437031398216562e+00
    7.9774850446411982e-03 -1.2030112970810054e+00
    7.9837561603369692e-03 -1.2081373926817927e+00
    8.0246695670470724e-03 -1.2395395650536263e+00
    8.0551616829282070e-03 -1.2611207443836985e+00
    8.0472917489500025e-03 -1.2556749486708638e+00
    8.0174537086868808e-03 -1.2342269087068902e+00
    8.0035018446922811e-03 -1.2236976331741010e+00
    8.0395873031923349e-03 -1.2502631301997362e+00
    8.0631984768001867e-03 -1.2666009927622468e+00
    8.0246695670470724e-03 -1.2395395650536263e+00
    7.9774850446411982e-03 -1.2030112970810054e+00
    7.9539268356210533e-03 -1.1827995512026217e+00
    7.9230653816221904e-03 -1.1533184905609797e+00
    7.8570802083950241e-03 -1.0614318417049460e+00
    7.8435506603938554e-03 -9.8978522758625131e-01
    7.9713675537285335e-03 -8.3478387112968211e-01
    8.8015939540904437e-03 -6.1294878635108296e-01
    1.2018240497618512e-02 -3.7128219360712633e-01
    1.8117266153282404e-02 -2.2767488471886715e-01
    1.3541643903150902e-02 -3.1907672235863782e-01
    9.9769821586390747e-03 -4.8584010655467280e-01
    8.3361792152538972e-03 -7.0275531351591125e-01
    8.0035018446922811e-03 -8.1719533722243054e-01
    7.8468602593750308e-03 -9.6965924108663115e-01
    7.9013367324856157e-03 -1.1294693154660906e+00
    7.9837561603369692e-03 -1.2081373926817927e+00
    7.9654026736232456e-03 -1.1928476734853046e+00
    7.9484139940690837e-03 -1.1778178560205246e+00
    8.0970429715286583e-03 -1.2888763268026728e+00
    8.1059359373847461e-03 -1.2945362782958902e+00
    8.0035018446922811e-03 -1.2236976331741010e+00
    8.0631984768001867e-03 -1.2666009927622468e+00
    8.0714035385627027e-03 -1.2721161778282961e+00
    8.0551616829282070e-03 -1.2611207443836985e+00
    7.9774850446411982e-03 -1.2030112970810054e+00
    7.9713675537285335e-03 -1.1979148550710939e+00
    7.9053972377808642e-03 -1.1341891273177598e+00
    7.9139447157309823e-03 -1.1437031398216562e+00
    7.8865015675638368e-03 -1.1108307495421794e+00
    7.9095996767838735e-03 -1.1389336290235506e+00
    7.9837561603369692e-03 -1.2081373926817927e+00
    8.0174537086868808e-03 -1.2342269087068902e+00
    7.9967634710752800e-03 -1.2184801506594274e+00
    8.0631984768001867e-03 -1.2666009927622468e+00
    8.0714035385627027e-03 -1.2721161778282961e+00
    8.0246695670470724e-03 -1.2395395650536263e+00
    8.0174537086868808e-03 -1.2342269087068902e+00
    8.0320470095989159e-03 -1.2448848219394788e+00
    7.9774850446411982e-03 -1.2030112970810054e+00
    7.9774850446411982e-03 -1.2030112970810054e+00
    7.9595894195813727e-03 -1.1878093656428670e+00
    7.9184330454399980e-03 -1.1484979839109943e+00
    7.8768364045646074e-03 -1.0970961259170788e+00
    7.8518988832210340e-03 -1.0483977923643690e+00
    7.8936389791946625e-03 -8.9277543115819724e-01
    8.1242511488073838e-03 -7.6571484133523393e-01
    9.5359167243948047e-03 -5.2427961046338989e-01
    1.2292950481457397e-02 -3.6045858906614298e-01
    1.8882129155646844e-02 -2.1751282251166076e-01
    1.4988192402122969e-02 -2.8252896560880669e-01
    1.1685184602300313e-02 -3.8546712656253496e-01
    9.0257964118122050e-03 -5.8130206253899352e-01
    8.1242511488073838e-03 -7.6571484133523393e-01
    7.9053972377808642e-03 -8.8168716831636063e-01
    7.8435506603938571e-03 -1.0103201908141821e+00
    7.8590757587302992e-03 -1.0658165471978287e+00
    7.8534920452305763e-03 -1.0527227119356306e+00
    7.8974175189436176e-03 -1.1247738790840438e+00
    7.9774850446411982e-03 -1.2030112970810054e+00
    7.9901819445097628e-03 -1.2132935416765851e+00
    8.0631984768001867e-03 -1.2666009927622468e+00
    8.1432832251946766e-03 -1.3175564717232331e+00
    8.2497122076114707e-03 -1.3779729764438504e+00
    8.1336767207091237e-03 -1.3117432641570730e+00
    8.0631984768001867e-03 -1.2666009927622468e+00
    7.9837561603369692e-03 -1.2081373926817927e+00
    7.9967634710752800e-03 -1.2184801506594274e+00
    7.9230653816221904e-03 -1.1533184905609797e+00
    7.9774850446411982e-03 -1.2030112970810054e+00
    7.9539268356210533e-03 -1.1827995512026217e+00
    8.0246695670470724e-03 -1.2395395650536263e+00
    8.0714035385627027e-03 -1.2721161778282961e+00
    8.0631984768001867e-03 -1.2666009927622468e+00
    8.0970429715286583e-03 -1.2888763268026728e+00
    8.0797783132665404e-03 -1.2776667924120253e+00
    7.9901819445097628e-03 -1.2132935416765851e+00
    8.0970429715286583e-03 -1.2888763268026728e+00
    8.0320470095989159e-03 -1.2448848219394788e+00
    8.0395873031923349e-03 -1.2502631301997362e+00
    8.0395873031923349e-03 -1.2502631301997362e+00
    7.9901819445097628e-03 -1.2132935416765851e+00
    7.8900005189971208e-03 -1.1154548988356299e+00
    7.8534920452305763e-03 -1.0527227119356306e+00
    7.8518988832210340e-03 -9.5383642285699455e-01
    7.9654026736232456e-03 -8.3833000828862303e-01
    8.6648295824473809e-03 -6.3518360594121459e-01
    1.1112529863939187e-02 -4.1312598190270838e-01
    1.4988192402122969e-02 -2.8252896560880669e-01
    2.1365614646351363e-02 -1.9018468068158759e-01
    1.6310604361858622e-02 -2.5621380568422680e-01
    1.3541643903150902e-02 -3.1907672235863782e-01
    1.0583920832350843e-02 -4.4335109852147264e-01
    8.5426114778282287e-03 -6.5753550563940688e-01
    7.9967634710752782e-03 -8.2069453446476881e-01
    7.8799200236082875e-03 -9.0772795343824420e-01
    7.8439475911732098e-03 -9.8572811618028844e-01
    7.8444769259641885e-03 -1.0186544574907090e+00
    7.8491131811905552e-03 -1.0398060305636729e+00
    7.8865015675638368e-03 -1.1108307495421794e+00
    7.9013367324856157e-03 -1.1294693154660906e+00
    8.0035018446922811e-03 -1.2236976331741010e+00
    8.0883242837717848e-03 -1.2832533383688438e+00
    8.1630461604946525e-03 -1.3293026196263418e+00
    8.2048242060225283e-03 -1.3532905633444754e+00
    8.1732062687378277e-03 -1.3352367366340485e+00
    8.0714035385627027e-03 -1.2721161778282961e+00
    8.0472917489500025e-03 -1.2556749486708638e+00
    7.9967634710752800e-03 -1.2184801506594274e+00
    7.9774850446411982e-03 -1.2030112970810054e+00
    7.9901819445097628e-03 -1.2132935416765851e+00
    8.0246695670470724e-03 -1.2395395650536263e+00
    8.0103982013021071e-03 -1.2289464098773859e+00
    8.0883242837717848e-03 -1.2832533383688438e+00
    8.0174537086868808e-03 -1.2342269087068902e+00
    8.0320470095989159e-03 -1.2448848219394788e+00
    8.1530724331963338e-03 -1.3234093959839222e+00
    8.1242511488073838e-03 -1.3059692016106490e+00
    8.0797783132665404e-03 -1.2776667924120253e+00
    8.0631984768001867e-03 -1.2666009927622468e+00
    7.9901819445097628e-03 -1.2132935416765851e+00
    7.9053972377808642e-03 -1.1341891273177598e+00
    7.8590757587302992e-03 -1.0658165471978287e+00
    7.8439475911732098e-03 -9.8572811618028844e-01
    7.9595894195813744e-03 -8.4188593635038322e-01
    8.1530724331963355e-03 -7.5562407448114288e-01
    9.6373655022130907e-03 -5.1471843267466633e-01
    1.2489583409060683e-02 -3.5314489433832774e-01
    1.5602848241175235e-02 -2.6960568367451659e-01
    2.5295970897673582e-02 -1.5894388284780525e-01
    1.8882129155646844e-02 -2.1751282251166076e-01
    1.4282526007400239e-02 -2.9914120179770520e-01
    1.1314290178814487e-02 -4.0285378172616670e-01
    9.3188889318810923e-03 -5.4650404085117865e-01
    8.3764941268918043e-03 -6.9299578721246569e-01
    8.0320470095989159e-03 -8.0328716550824475e-01
    7.9230653816221904e-03 -8.6706318175267894e-01
    7.8900005189971208e-03 -8.9649523350863591e-01
    7.8479202161891824e-03 -9.6568094241301183e-01
    7.8479202161891824e-03 -1.0355387127152296e+00
    7.8831415773093563e-03 -1.1062297646680110e+00
    7.9484139940690837e-03 -1.1778178560205246e+00
    8.0320470095989159e-03 -1.2448848219394788e+00
    8.1150047824195756e-03 -1.3002337231462002e+00
    8.0970429715286583e-03 -1.2888763268026728e+00
    8.0883242837717848e-03 -1.2832533383688438e+00
    8.0246695670470724e-03 -1.2395395650536263e+00
    7.9713675537285335e-03 -1.1979148550710939e+00
    7.9774850446411982e-03 -1.2030112970810054e+00
    7.9967634710752800e-03 -1.2184801506594274e+00
    8.0174537086868808e-03 -1.2342269087068902e+00
    8.0797783132665404e-03 -1.2776667924120253e+00
    8.0320470095989159e-03 -1.2448848219394788e+00
    8.0395873031923349e-03 -1.2502631301997362e+00
    7.9539268356210533e-03 -1.1827995512026217e+00
    8.0035018446922811e-03 -1.2236976331741010e+00
    8.0472917489500025e-03 -1.2556749486708638e+00
    8.0395873031923349e-03 -1.2502631301997362e+00
    8.0035018446922811e-03 -1.2236976331741010e+00
    7.9539268356210533e-03 -1.1827995512026217e+00
    7.8831415773093563e-03 -1.1062297646680110e+00
    7.8439475911732098e-03 -1.0144785195688801e+00
    7.8518988832210340e-03 -9.5383642285699455e-01
    7.8974175189436176e-03 -8.8906758824657872e-01
    8.1242511488073838e-03 -7.6571484133523393e-01
    8.6648295824473809e-03 -6.3518360594121459e-01
    1.1245430724741944e-02 -4.0629025380253497e-01
    1.4620890075885214e-02 -2.9091668344009802e-01
    1.8882129155646844e-02 -2.1751282251166076e-01
    2.7652193754982325e-02 -1.4479074758768978e-01
    2.0785769496362173e-02 -1.9590694453450180e-01
    1.5183977138651338e-02 -2.7826898554920571e-01
    1.2698209281563899e-02 -3.4574590364176039e-01
    1.1178196333622043e-02 -4.0971417773132129e-01
    9.3782490794118122e-03 -5.4016403835215876e-01
    8.4787273214012165e-03 -6.7037658215719476e-01
    8.2381912230113305e-03 -7.2900380031965761e-01
    7.9139447157309823e-03 -8.7435276268974427e-01
    7.9053972377808642e-03 -8.8168716831636063e-01
    7.8504393361295104e-03 -9.5776971900643704e-01
    7.8432860733486150e-03 -9.9385869319577624e-01
    7.8634713270590070e-03 -1.0746475034341114e+00
    7.9327650626791965e-03 -1.1630378346515289e+00
    7.9654026736232456e-03 -1.1928476734853046e+00
    8.0103982013021071e-03 -1.2289464098773859e+00
    8.0472917489500025e-03 -1.2556749486708638e+00
    8.0472917489500025e-03 -1.2556749486708638e+00
    8.0320470095989159e-03 -1.2448848219394788e+00
    7.9967634710752800e-03 -1.2184801506594274e+00
    7.9595894195813727e-03 -1.1878093656428670e+00
    7.9654026736232456e-03 -1.1928476734853046e+00
    7.9967634710752800e-03 -1.2184801506594274e+00
    7.9774850446411982e-03 -1.2030112970810054e+00
    7.9654026736232456e-03 -1.1928476734853046e+00
    7.9327650626791965e-03 -1.1630378346515289e+00
    7.9378339664305450e-03 -1.1679373570114593e+00
    7.9484139940690837e-03 -1.1778178560205246e+00
    7.9230653816221904e-03 -1.1533184905609797e+00
    7.8738902407916381e-03 -1.0925629014815090e+00
    7.8468602593750308e-03 -1.0312901250540019e+00
    7.8432860733486150e-03 -1.0061792555081206e+00
    7.9230653816221904e-03 -8.6706318175267894e-01
    7.9327650626791982e-03 -8.5981725633166628e-01
    8.0551616829282070e-03 -7.9294548476299442e-01
    8.5933099138885936e-03 -6.4793909658724669e-01
    9.8965527676071613e-03 -4.9228745543179359e-01
    1.3280472093092967e-02 -3.2683050931359181e-01
    1.5602848241175235e-02 -2.6960568367451659e-01
    2.0252985592758416e-02 -2.0149017494232963e-01
    3.5550082866796152e-02 -1.1168711865749098e-01
    2.4329205894716911e-02 -1.6560845490962334e-01
    1.7136731130871021e-02 -2.4227185592617451e-01
    1.4620890075885214e-02 -2.9091668344009802e-01
    1.3408820288970105e-02 -3.2296809443453661e-01
    1.2018240497618512e-02 -3.7128219360712633e-01
    9.7080789218272501e-03 -5.0832856777534885e-01
    8.6834390181530930e-03 -6.3200101847728207e-01
    8.1530724331963355e-03 -7.5562407448114288e-01
    8.0395873031923349e-03 -7.9983163211430930e-01
    7.9539268356210533e-03 -8.4545179188074715e-01
    7.9053972377808642e-03 -8.8168716831636063e-01
    7.8451387451763561e-03 -9.7766215697074543e-01
    7.8451387451763561e-03 -1.0228482230492253e+00
    7.8590757587302992e-03 -1.0658165471978287e+00
    7.9095996767838735e-03 -1.1389336290235506e+00
    7.9837561603369692e-03 -1.2081373926817927e+00
    8.0103982013021071e-03 -1.2289464098773859e+00
    7.9539268356210533e-03 -1.1827995512026217e+00
    7.9595894195813727e-03 -1.1878093656428670e+00
    7.9901819445097628e-03 -1.2132935416765851e+00
    7.9595894195813727e-03 -1.1878093656428670e+00
    7.9278424652069156e-03 -1.1581649942241192e+00
    7.9230653816221904e-03 -1.1533184905609797e+00
    7.9013367324856157e-03 -1.1294693154660906e+00
    7.8831415773093563e-03 -1.1062297646680110e+00
    7.8634713270590070e-03 -1.0746475034341114e+00
    7.8504393361295086e-03 -1.0440923117065877e+00
    7.8468602593750308e-03 -1.0312901250540019e+00
    7.8459331493852865e-03 -1.0270600375222012e+00
    7.8468602593750308e-03 -9.6965924108663115e-01
    7.8831415773093546e-03 -9.0397133754587455e-01
    8.0883242837717848e-03 -7.7926935399296127e-01
    8.2978503010506192e-03 -7.1255872605736525e-01
    8.9546766296078901e-03 -5.9078800843799073e-01
    9.9769821586390747e-03 -4.8584010655467280e-01
    1.2107267500382329e-02 -3.6769299041202186e-01
    1.4123080126463163e-02 -3.0319672016873173e-01
    1.8882129155646844e-02 -2.1751282251166076e-01
    2.3468978795337461e-02 -1.7204158993707336e-01
    5.0119354918956825e-02 -7.8729582162221701e-02
    2.5295970897673582e-02 -1.5894388284780525e-01
    1.8882129155646844e-02 -2.1751282251166076e-01
    1.8486975790518254e-02 -2.2264088914043031e-01
    1.6310604361858622e-02 -2.5621380568422680e-01
    1.4123080126463163e-02 -3.0319672016873173e-01
    1.2107267500382329e-02 -3.6769299041202186e-01
    1.0284125524417471e-02 -4.6310240811185860e-01
    8.8869433612746018e-03 -6.0027926461833270e-01
    8.3231858659952619e-03 -7.0601808649746256e-01
    8.1150047824195756e-03 -7.6909249637079158e-01
    7.9901819445097645e-03 -8.2420285417340455e-01
    7.8936389791946625e-03 -8.9277543115819724e-01
    7.8504393361295104e-03 -9.5776971900643704e-01
    7.8451387451763561e-03 -9.7766215697074543e-01
    7.8799200236082893e-03 -1.1016516525818694e+00
    7.9053972377808642e-03 -1.1341891273177598e+00
    7.9327650626791965e-03 -1.1630378346515289e+00
    7.9230653816221904e-03 -1.1533184905609797e+00
    7.9327650626791965e-03 -1.1630378346515289e+00
    7.9230653816221904e-03 -1.1533184905609797e+00
    7.9378339664305450e-03 -1.1679373570114593e+00
    7.9184330454399980e-03 -1.1484979839109943e+00
    7.8936389791946625e-03 -1.1201025085364418e+00
    7.8768364045646074e-03 -1.0970961259170788e+00
    7.8451387451763561e-03 -1.0228482230492253e+00
    7.8439475911732098e-03 -1.0144785195688801e+00
    7.8444769259641885e-03 -9.8168715863015910e-01
    7.8468602593750308e-03 -9.6965924108663115e-01
    7.8900005189971208e-03 -8.9649523350863591e-01
    7.9139447157309823e-03 -8.7435276268974427e-01
    8.0551616829282070e-03 -7.9294548476299442e-01
    8.4787273214012165e-03 -6.7037658215719476e-01
    9.4712018771905340e-03 -5.3064012981343678e-01
    1.0331569258786619e-02 -4.5982908354045171e-01
    1.1531236435794862e-02 -3.9246456657761775e-01
    1.2698209281563899e-02 -3.4574590364176039e-01
    1.6846257019618109e-02 -2.4698619121164947e-01
    1.8117266153282404e-02 -2.2767488471886715e-01
    2.4329205894716911e-02 -1.6560845490962334e-01
    4.3449543682182797e-02 -9.1003151038658026e-02
    3.2947247784286912e-02 -1.2076147288491199e-01
    2.5295970897673582e-02 -1.5894388284780525e-01
    2.1999779900338481e-02 -1.8431027103363656e-01
    1.8486975790518254e-02 -2.2264088914043031e-01
    1.6846257019618109e-02 -2.4698619121164947e-01
    1.4620890075885214e-02 -2.9091668344009802e-01
    1.3280472093092967e-02 -3.2683050931359181e-01
    1.0583920832350843e-02 -4.4335109852147264e-01
    9.3483156674585982e-03 -5.4333485619592536e-01
    8.7215660680064113e-03 -6.2564252687023414e-01
    8.3628305439599412e-03 -6.9624428009210637e-01
    8.1530724331963355e-03 -7.5562407448114288e-01
    7.9595894195813744e-03 -8.4188593635038322e-01
    7.9095996767838735e-03 -8.7801428855633723e-01
    7.8590757587302992e-03 -9.3824777127839754e-01
    7.8451387451763561e-03 -1.0228482230492253e+00
    7.8518988832210340e-03 -1.0483977923643690e+00
    7.8634713270590070e-03 -1.0746475034341114e+00
    7.8865015675638368e-03 -1.1108307495421794e+00
    7.8738902407916381e-03 -1.0925629014815090e+00
    7.8768364045646074e-03 -1.0970961259170788e+00
    7.8710810752025961e-03 -1.0880517001696894e+00
    7.8590757587302992e-03 -1.0658165471978287e+00
    7.8439475911732098e-03 -1.0144785195688801e+00
    7.8432860733486150e-03 -1.0061792555081206e+00
    7.8459331493852865e-03 -9.7365291557104683e-01
    7.8768364045646074e-03 -9.1149715724689628e-01
    7.8974175189436176e-03 -8.8906758824657872e-01
    8.0551616829282070e-03 -7.9294548476299442e-01
    8.2614362519684709e-03 -7.2240916383999454e-01
    8.7410935528624417e-03 -6.2246637456523501e-01
    9.3483156674585982e-03 -5.4333485619592536e-01
    1.0379982341284573e-02 -4.5654870995958019e-01
    1.1384834828260356e-02 -3.9940431835899010e-01
    1.3541643903150902e-02 -3.1907672235863782e-01
    1.6310604361858622e-02 -2.5621380568422680e-01
    1.9761292326006600e-02 -2.0694577179185555e-01
    2.2697193070561204e-02 -1.7826850820307311e-01
    2.6393012402421066e-02 -1.5201724802626507e-01
    3.5550082866796152e-02 -1.1168711865749098e-01
    3.5550082866796152e-02 -1.1168711865749098e-01
    3.5550082866796152e-02 -1.1168711865749098e-01
    3.0851481977338547e-02 -1.2923413395024771e-01
    2.5295970897673582e-02 -1.5894388284780525e-01
    2.0252985592758416e-02 -2.0149017494232963e-01
    1.7136731130871021e-02 -2.4227185592617451e-01
    1.5827345881969834e-02 -2.6519741765271837e-01
    1.4988192402122969e-02 -2.8252896560880669e-01
    1.2389836137472604e-02 -3.5681201607403135e-01
    1.0018352749966172e-02 -4.8260894356099876e-01
    9.2335433115351764e-03 -5.5600340371821166e-01
    8.6648295824473809e-03 -6.3518360594121459e-01
    8.4633944686299516e-03 -6.7359583080923391e-01
    8.2381912230113305e-03 -7.2900380031965761e-01
    8.0551616829282070e-03 -7.9294548476299442e-01
    7.9774850446411982e-03 -8.3124738930250019e-01
    7.8738902407916381e-03 -9.1527910992035855e-01
    7.8451387451763561e-03 -9.7766215697074543e-01
    7.8479202161891824e-03 -9.6568094241301183e-01
    7.8491131811905535e-03 -9.6171783063991845e-01
    7.8468602593750308e-03 -9.6965924108663115e-01
    7.8459331493852865e-03 -9.7365291557104683e-01
    7.8534920452305763e-03 -9.4991775959816660e-01
    7.8570802083950224e-03 -9.4212361143578505e-01
    7.8612060225787973e-03 -9.3438585342294389e-01
    7.9095996767838735e-03 -8.7801428855633723e-01
    7.9967634710752782e-03 -8.2069453446476881e-01
    8.2497122076114707e-03 -7.2570363649707470e-01
    8.4334699851706767e-03 -6.8004592673029252e-01
    8.9317317222449271e-03 -5.9395098937351531e-01
    9.7444048819385412e-03 -5.0512833931116730e-01
    1.0864494916958262e-02 -4.2666009299143071e-01
    1.1685184602300313e-02 -3.8546712656253496e-01
    1.3541643903150902e-02 -3.1907672235863782e-01
    1.8117266153282404e-02 -2.2767488471886715e-01
    2.1365614646351363e-02 -1.9018468068158759e-01
    2.4329205894716911e-02 -1.6560845490962334e-01
    3.2947247784286912e-02 -1.2076147288491199e-01
    3.5550082866796152e-02 -1.1168711865749098e-01
    6.1320108361977384e-02 -6.4216129906793568e-02
    5.0119354918956825e-02 -7.8729582162221701e-02
    4.3449543682182797e-02 -9.1003151038658026e-02
    4.3449543682182797e-02 -9.1003151038658026e-02
    3.2947247784286912e-02 -1.2076147288491199e-01
    2.7652193754982325e-02 -1.4479074758768978e-01
    2.3468978795337461e-02 -1.7204158993707336e-01
    1.9761292326006600e-02 -2.0694577179185555e-01
    1.8117266153282404e-02 -2.2767488471886715e-01
    1.6571317672566893e-02 -2.5163222626002502e-01
    1.3541643903150902e-02 -3.1907672235863782e-01
    1.1178196333622043e-02 -4.0971417773132129e-01
    1.0018352749966172e-02 -4.8260894356099876e-01
    9.0017018776063669e-03 -5.8446368248442160e-01
    8.5761373271833023e-03 -6.5113486175072399e-01
    8.2733656825822108e-03 -7.1912026559282338e-01
    8.2268710284358719e-03 -7.3230977224372706e-01
    8.0631984768001885e-03 -7.8951461882180074e-01
    8.0472917489500043e-03 -7.9638444731138702e-01
    8.0797783132665387e-03 -7.8267667747094249e-01
    7.9774850446411982e-03 -8.3124738930250019e-01
    8.0320470095989159e-03 -8.0328716550824475e-01
    8.0551616829282070e-03 -7.9294548476299442e-01
    8.0174537086868808e-03 -8.1022378700826458e-01
    8.0174537086868808e-03 -8.1022378700826458e-01
    8.0551616829282070e-03 -7.9294548476299442e-01
    8.2733656825822108e-03 -7.1912026559282338e-01
    8.4787273214012165e-03 -6.7037658215719476e-01
    8.9091561669076228e-03 -5.9711469668966088e-01
    9.7080789218272501e-03 -5.0832856777534885e-01
    1.0864494916958262e-02 -4.2666009299143071e-01
    1.1384834828260356e-02 -3.9940431835899010e-01
    1.4448323941652293e-02 -2.9504842217604121e-01
    1.5827345881969834e-02 -2.6519741765271837e-01
    1.8117266153282404e-02 -2.2767488471886715e-01
    2.1999779900338481e-02 -1.8431027103363656e-01
    3.0851481977338547e-02 -1.2923413395024771e-01
    2.9117466048950533e-02 -1.3721680612390447e-01
    3.5550082866796152e-02 -1.1168711865749098e-01
    5.0119354918956825e-02 -7.8729582162221701e-02
    8.6630465122397082e-02 -4.5360921162651453e-02
    6.1320108361977384e-02 -6.4216129906793568e-02
    5.0119354918956825e-02 -7.8729582162221701e-02
    5.0119354918956825e-02 -7.8729582162221701e-02
    4.3449543682182797e-02 -9.1003151038658026e-02
    4.3449543682182797e-02 -9.1003151038658026e-02
    3.2947247784286912e-02 -1.2076147288491199e-01
    2.9117466048950533e-02 -1.3721680612390447e-01
    2.5295970897673582e-02 -1.5894388284780525e-01
    2.0252985592758416e-02 -2.0149017494232963e-01
    1.8117266153282404e-02 -2.2767488471886715e-01
    1.4800679756402611e-02 -2.8674417556808757e-01
    1.4620890075885214e-02 -2.9091668344009802e-01
    1.3156364644484518e-02 -3.3066509907287578e-01
    1.0429393461140598e-02 -4.5326101150932396e-01
    9.3188889318810923e-03 -5.4650404085117865e-01
    9.2060394446124606e-03 -5.5916765250849398e-01
    8.8224181655879187e-03 -6.0977945678375634e-01
    8.7609371505970191e-03 -6.1929211788357774e-01
    8.7609371505970191e-03 -6.1929211788357774e-01
    8.6107611115751725e-03 -6.4474620930921700e-01
    8.6284951843016988e-03 -6.4155607930916747e-01
    8.6107611115751725e-03 -6.4474620930921700e-01
    8.7215660680064113e-03 -6.2564252687023414e-01
    8.9091561669076228e-03 -5.9711469668966088e-01
    9.2615129689477722e-03 -5.5283815607250875e-01
    9.3483156674585982e-03 -5.4333485619592536e-01
    1.0103509930999330e-02 -4.7613049880171382e-01
    1.1607230532593897e-02 -3.8897331066105223e-01
    1.2807384502977586e-02 -3.4201239314419613e-01
    1.3541643903150902e-02 -3.1907672235863782e-01
    1.4988192402122969e-02 -2.8252896560880669e-01
    1.9305727643594582e-02 -2.1228371977710264e-01
    2.4329205894716911e-02 -1.6560845490962334e-01
    2.6393012402421066e-02 -1.5201724802626507e-01
    3.0851481977338547e-02 -1.2923413395024771e-01
    5.0119354918956825e-02 -7.8729582162221701e-02
    6.1320108361977384e-02 -6.4216129906793568e-02
    5.0119354918956825e-02 -7.8729582162221701e-02
    6.1320108361977384e-02 -6.4216129906793568e-02</input_scale>
  <output_scale>
    1.0526315789473684e+00 0.</output_scale>
  <inv_output_scale>
    9.4999999999999996e-01 0.</inv_output_scale>
  <weights>
    <_>
      -2.0059751202443382e-01 -9.6191121003529802e-03
      -1.0266995722129926e-02 -4.6418809543969895e-03
      7.8552813570274410e-03 -1.6389777334508775e-03
      4.7936121163808269e-03 -3.6715062778298828e-02
      1.4902555697904205e-02 -1.1813915019355709e-02
      -4.6805051884851500e-03 3.5633874967553630e-02
      -3.6833608277919297e-03 5.2051784590215660e-03
      8.6862961622327147e-03 -4.2062791754119092e-03
      4.9635503150424953e-03 1.3349435676402233e-01
      1.0039669529845969e-02 -1.1033812690396909e-02
      -8.4557854462260107e-02 -4.4131937634083991e-03
      -7.2984744879113113e-03 -8.3345074732577538e-03
      -4.3397194895302095e-03 1.2503989062041251e-02
      -9.8072462597396434e-03 1.0722231404572072e-02
      -2.9210434179019972e-03 -3.5284920688773464e-03
      1.1047408520945389e-02 9.9989381007845914e-03
      4.6407595709260736e-02 -3.4786823474685759e-03
      -4.8636748939197283e-03 -3.7370623525169832e-03
      -8.1794233328212583e-03 -4.2313306310273260e-03
      1.1288626373122905e-02 8.5775557761936759e-03
      1.0006095051666778e-03 -1.2360065806494723e-04
      -4.9757563455631135e-04 -3.1665114341106415e-04
      -4.9687487376696255e-04 -9.8762003860938287e-04
      -1.0769257782646255e-03 1.9359174674622143e-04
      9.8586789727321479e-04 -7.3920520149686904e-04
      -6.3182507461667333e-04 1.0794726090193596e-03
      4.8214789913359374e-04 2.1184138457599726e-04
      -3.8977060393565811e-04 6.4704591712820038e-04
      2.4452936821907291e-04 4.6472065437268360e-04
      -9.6586410568878041e-04 8.2293464666079782e-04
      2.2430587666467870e-04 8.4825599294464699e-04
      -7.2543137497211696e-05 1.0828974942914031e-03
      3.4743642921141848e-04 -9.1098391826197078e-04
      1.5632775441477826e-04 -7.2524719171971122e-04
      5.5114414791656468e-04 -3.8909677334856576e-04
      2.7751273856124211e-04 3.7614084320229739e-04
      -1.2061696358276470e-03 4.7243463006980127e-04
      8.5200329999364827e-05 -7.4882263126855596e-05
      8.7812126981127471e-04 -4.0478971282841437e-04
      -8.1164896676020747e-04 -5.9889546840852703e-04
      1.0906099374887938e-03 -1.0560490699896210e-05
      -1.0372453125659920e-04 -8.6064993264560788e-04
      3.5919193228786201e-04 1.0929916721984258e-03
      1.8913373616721725e-05 -2.9888719748348607e-04
      -4.8426694349722660e-04 -5.0351636668221451e-04
      -8.9668525312921890e-04 -1.0302480531634468e-03
      4.2486627347626055e-04 -7.0792362748296116e-04
      6.5129636344593469e-04 -1.0372745478373054e-03
      8.5661756484744448e-04 8.6823956786471145e-04
      -9.4041216101263883e-04 6.6652097127643882e-04
      7.1501741133838640e-04 8.3487644317749917e-04
      -7.3971190318808519e-04 8.8933038218103402e-04
      -3.6106061635133668e-04 1.1444187352002799e-03
      -1.2893897388449141e-04 -8.2547018330145704e-04
      1.0776384375908309e-03 -5.0722735901636217e-04
      1.2059494435995750e-03 -6.2875456763105948e-04
      -1.0426101017564574e-03 -1.0207444377494680e-03
      7.5934285524509640e-04 1.1999284042292994e-03
      -1.0236523168718947e-03 1.9829300411200240e-04
      -1.0765903027175699e-03 3.9913617957647752e-04
      -5.6608375907186883e-04 9.8280077323760939e-04
      5.8674145612284837e-04 -2.3404810589499834e-05
      5.1210201631407039e-04 -3.6144653169046793e-04
      1.0328318839991015e-03 -7.3189054801951596e-04
      3.4695438364743398e-04 -4.4022363701253322e-04
      1.6853111414949609e-04 5.4427262316709827e-04
      4.0928371062340927e-04 -5.0198130336476655e-04
      -5.3837339186742325e-04 5.4130025805742177e-04
      7.2451646606574787e-04 7.2928225531841261e-04
      -8.9596085780997226e-04 -1.0633593111381934e-03
      4.7189397411756106e-04 -4.9248951343733988e-04
      9.9480067882329781e-04 -2.5035076196965137e-04
      1.2025051274339787e-03 7.9488783461768411e-05
      -2.3343960668910767e-04 -8.4511454584403696e-04
      1.2165178234286608e-03 4.8608291870555205e-04
      8.1330602239910749e-04 1.0184280383176761e-03
      1.0704245511725459e-03 -7.2497964613305542e-04
      4.9328224232276271e-04 1.8830881034114335e-04
      9.4414942372186774e-04 6.1239348253836216e-04
      8.3569334300787762e-04 -7.7516820246783386e-04
      1.5729079226588441e-01 4.3716986606838586e-02
      3.4949710626142272e-02 1.5871077844662601e-02
      -3.5532072966732921e-02 1.2682929473827736e-02
      -1.4089437204606739e-02 -2.6135639330508161e-02
      -1.2122876975568710e-02 -8.0473226964384789e-03
      1.4366429483602136e-02 2.5152575297830732e-02
      1.5686919933279055e-02 -2.3791716730259566e-02
      -7.7672712063102970e-03 1.2267061272415237e-02
      -4.2142662577015011e-03 3.1741020670530480e-02
      3.4012769522401443e-03 -8.3545823125431174e-03
      -3.0334757738519499e-02 7.5619629507932733e-03
      4.5095742285615843e-03 3.5559625924937263e-02
      1.4272626780368848e-02 -1.2701738088860293e-02
      5.2403185324418552e-02 -6.2821686486251888e-02
      1.4588664256806386e-02 1.3323446364744267e-02
      -3.5407371043569440e-02 -4.1223727165676842e-02
      -8.7485146777229392e-03 1.7688348612845805e-02
      2.5078116579528381e-02 1.1301266734148758e-02
      3.5543027670153673e-02 2.3663565686431864e-02
      -3.6541115833359117e-02 -3.3284361626976483e-02
      4.9610711705676561e-02 2.8889631015333896e-02
      2.4361110406465689e-02 9.8162423913031299e-03
      -2.3519385090610419e-02 -1.5878594309306638e-03
      -7.5628066620220414e-03 -2.5283463343643005e-02
      6.0599173304317581e-03 -1.3040676612365016e-02
      6.5121948752990370e-03 2.3850545043680112e-02
      9.5264171611796761e-03 -1.7881301592099805e-02
      5.4845998480950809e-03 5.5271552287236561e-03
      2.9333188156091339e-03 3.5779122761200356e-02
      6.9441099822594599e-03 -1.3474748205156721e-02
      -4.0054155183575177e-02 -6.1957735576191034e-04
      -3.0633280179986466e-03 2.4191224011093724e-02
      4.3413775405486592e-03 7.2280623856470529e-03
      3.8242817862617656e-02 -4.5341871256532537e-02
      8.1923132945246006e-03 7.4274252827811939e-03
      -2.3903895977932917e-02 -2.7606871755519503e-02
      -1.2502699793177186e-02 1.2472321422669984e-02
      1.9492895072721950e-02 -6.3563855768969642e-03
      2.4759756981628137e-02 1.7707823365902702e-02
      -2.3176324657643514e-02 -2.3784833752430953e-02
      -1.4893182792556506e-01 -1.6361513804021104e-02
      -1.3595646526547989e-02 1.1752899316830134e-02
      1.1328107254184282e-02 4.9646982423364025e-04
      -1.0244078559570748e-02 -9.4787487635417129e-03
      1.0511600517239889e-02 3.1675898335863172e-02
      8.8965320184885462e-03 8.2617180677281195e-03
      9.7941165474254334e-03 -1.5865007014335731e-02
      4.2702667827490236e-03 8.6524896939219678e-03
      1.7191618199516639e-03 3.1310697709305904e-02
      -4.7240871179464135e-02 3.1559228970656134e-02
      -3.3317680126226164e-02 3.9633034957834123e-04
      -4.2492062727077264e-03 -1.5210687621705635e-02
      5.8519157695466860e-03 2.0593216300008030e-02
      -1.7320776112431307e-02 2.0239841649301496e-02
      9.8710349765146112e-03 9.3713845048278774e-03
      1.6827441337106883e-02 1.8035652590583897e-02
      2.9894415960937205e-02 1.1908328356349432e-02
      1.9303661091717123e-02 -4.1675107564888335e-03
      -1.4585937559518002e-02 1.7383691863495462e-02
      1.5835577725709517e-02 1.3732767866155564e-02
      -5.3307285710363528e-02 -1.7388987189506797e-02
      -1.7727248997712879e-02 -4.5817169517957494e-03
      1.5144784901336045e-02 7.4859317636915019e-03
      1.4545456526059760e-03 2.4983108116404595e-02
      -9.8004954407033915e-03 -1.8449239336811224e-02
      -4.0679166962017142e-04 -2.0760861754174860e-02
      -4.4883476473609558e-03 1.4604328698792329e-02
      -7.1996183628193731e-03 9.8738536790861139e-05
      -1.7121046948580083e-03 -9.7568892780502559e-03
      1.6259976367664648e-02 -1.7230557551470491e-02
      1.8213941135037975e-02 7.7066261165848948e-03
      4.1020722374424789e-03 -1.5999016806836543e-02
      4.2213697521723591e-03 -1.5648361092876387e-02
      -1.9349309313504898e-02 1.9223295933903446e-02
      -1.7288373685266703e-03 -2.9670748998763983e-03
      1.6509523188941624e-02 1.7639146520747266e-02
      -1.2678628336959078e-02 -8.4071592661871270e-03
      -1.2054839451634243e-02 1.0486231981773930e-02
      -1.5413117204244460e-02 -9.1165212977996259e-03
      1.8874934934288840e-02 1.6886191556122566e-02
      -5.4991881878065842e-02 -2.7801727876689854e-02
      -2.3027727831237688e-02 -4.5310736723211450e-03
      2.2195606893985156e-02 6.6508299098279018e-03
      1.1437919054656889e-03 3.2132811785333663e-02
      -1.9624557598420574e-02 -2.2492888682280603e-02
      -3.6753835850673908e-03 -2.9303159287693562e-02
      -4.8278154798999115e-03 1.4598692728119750e-02
      -1.5027882980380986e-02 -1.2503807362896316e-03
      -2.5721178427864436e-03 -1.2642454321583462e-02
      1.9066227499613342e-02 -2.8498219651038163e-02
      2.1133107902780064e-02 6.1737227499598472e-03
      6.6832954283291765e-03 -2.4208887982063040e-02
      2.0271970641490369e-03 -2.3063097062518263e-02
      -2.4768846926740425e-02 2.7791446657766932e-02
      -5.0818220487219880e-03 -2.9572122221445565e-03
      2.4086143986683482e-02 2.5331813651032337e-02
      -1.8130970669539562e-02 -9.1026262714319298e-03
      -1.4829039465861307e-02 9.5683050124116629e-03
      -2.1401963291343452e-02 -1.1412871767669308e-02
      2.3107048807953588e-02 2.3797686495971773e-02
      -3.2452744784392626e-02 -2.3692804139143216e-02
      -1.6964451205875714e-02 -5.6169791355983115e-03
      1.8038661321646866e-02 3.3315690185377338e-03
      3.4690998619402282e-03 2.4284805459316810e-02
      -2.0988179510957820e-02 -2.1402827965593240e-02
      -3.6767643133569193e-03 -2.4192849612841898e-02
      -5.1171123859862881e-03 1.7241747283876400e-02
      -9.0804051749545107e-03 -3.6098414649667915e-03
      -3.6434058996443483e-03 -1.1129807570345988e-02
      1.7371853635312070e-02 -2.9110776803855102e-02
      1.5986368741218053e-02 4.1434678233889174e-03
      4.5323851792340867e-03 -1.7311828308490793e-02
      2.5220187224351799e-04 -1.6358924953871277e-02
      -1.7272273337009987e-02 2.0046765689044461e-02
      -5.0216508868931413e-03 -3.5303855991494228e-03
      1.8493610207042106e-02 1.6715508847461959e-02
      -2.1887729994677724e-02 -6.4659016608945245e-03
      -2.0869987931603835e-02 6.9596049302688961e-03
      -1.5714548591020564e-02 -1.4685447008973585e-02
      1.9375858480496163e-02 1.7394914561194887e-02
      -5.9939262786216319e-01 1.1784635593898231e-02
      -9.4719036846449209e-03 -1.3221465482546853e-02
      1.2388714104172199e-02 -2.7764345308413003e-02
      1.3905902660833754e-02 -7.0920695323758625e-03
      2.9928521655488618e-02 -3.3721094431002713e-02
      -1.3584967376227270e-02 4.4928219985783772e-03
      -1.2993497489041871e-02 -1.4968090474600812e-02
      1.6375050528137230e-02 -1.8331462968065929e-02
      2.0123230881592204e-02 3.9264166173874751e-02
      2.8351955828317860e-02 -3.9633273336049379e-02
      -5.3500457384284612e-02 -2.1169042663225481e-02
      -2.1893762375660392e-02 -8.1188718361803122e-03
      -1.9510032236592725e-02 5.9208879331282084e-02
      -1.7777457556218439e-02 2.8799993222364845e-02
      -1.4577843637249862e-02 -1.3963087752531675e-02
      1.1438754052973088e-02 1.3343595419687803e-02
      -3.4826174613173978e-02 -1.1893386118322864e-02
      1.3518701423099942e-02 -3.2535240002347858e-02
      -1.3575744213273915e-02 1.0410939177169053e-02
      -1.2120686875617323e-03 1.1420068143966549e-02
      -5.4797560531788325e-01 3.6157960029019845e-02
      1.6193577386641254e-02 -1.3555253191725517e-02
      -4.1121872526751384e-03 -2.0396869462220590e-02
      1.4106814965209732e-02 -5.7834699751324985e-03
      5.1150229526773271e-03 -3.5438027727721172e-02
      -1.4194621317602523e-02 2.5997264341798775e-03
      -1.2918351143416178e-02 -1.8297648192772353e-02
      3.0808559606502789e-03 -1.5620325596040024e-02
      1.3565379912401091e-02 5.2513285518676891e-03
      2.9279381114855986e-02 -4.3304900345016370e-02
      -2.0623327347352418e-02 -1.5684566560267805e-02
      -1.5256196736467597e-02 1.6614996130281206e-02
      -1.6191242058876048e-02 2.5261771560735401e-02
      3.4160493527333759e-03 2.1512522976776926e-02
      -1.3725596696476022e-02 -1.5392772736862370e-02
      -1.6780102600579098e-02 -1.1129461551541302e-02
      -1.3686750711979735e-02 -1.1373872562682595e-02
      1.9072163363226063e-02 -1.8713591807143146e-02
      4.8738265400515828e-03 8.2999069714144603e-03
      -3.2146950162066194e-02 -8.5622942681865821e-03
      -4.1099376594114584e-01 1.9488908521788379e-02
      4.5501815771796673e-03 -5.6345377396787135e-03
      4.8402674584751403e-03 -2.4859201003574346e-03
      7.5355390964336032e-03 8.4002902237408222e-03
      -1.7098212682051358e-02 -3.3140837249858203e-02
      -8.9075284948898284e-03 -6.8454681725323456e-03
      -8.2049098335813028e-03 -1.6396119032605162e-02
      -3.9955597783516610e-03 -8.0429314980102837e-03
      1.0191154617643691e-02 -1.1532872418912574e-02
      2.6641580862549637e-02 -4.0270484464125289e-02
      1.0409601823193858e-03 -8.3688027071799707e-03
      -9.2286424296034418e-03 5.9106852250530792e-03
      -7.6715835587583790e-03 2.1766599726391930e-06
      -7.6183214331530004e-03 2.4807937056923367e-02
      -7.6199425145166534e-03 -8.7006688452988829e-03
      -6.3775141563484931e-03 -6.3377260098962927e-04
      -1.3929841175578954e-02 -5.3301289809858446e-03
      1.8660035592328261e-02 1.3211953790088276e-03
      -4.3504900970195697e-03 1.1281865796921914e-02
      -1.7395831046944157e-02 -1.4043357278880856e-03
      -2.4970585814191831e-01 -1.1878671776353374e-02
      -1.5185537618466187e-02 1.7232399843672872e-03
      1.5139588631790003e-02 -2.3385393896266783e-03
      -2.8286807802346391e-03 3.3926797399741891e-03
      -3.7852024113234101e-02 2.0268734903007693e-02
      7.7381639282358950e-04 -1.6689170999682269e-03
      1.8084118115923517e-03 -1.0497270486754251e-02
      -2.6636570260296463e-02 -2.2149272359697045e-04
      4.4451404377995425e-03 1.3432813755212268e-02
      -2.7400624466712244e-02 3.9827472873567284e-02
      -3.2128684619618035e-02 2.1219097480144880e-03
      6.3991182562285888e-04 -1.4718946911254562e-02
      3.2486783249575297e-03 -2.0189986835272698e-02
      -1.6606398694242672e-02 2.7079960052703765e-02
      2.0871714143951533e-03 -3.5157757370735462e-04
      1.5993758921635876e-02 1.3189931028454241e-02
      1.0230326227546296e-01 2.0386354505507161e-03
      7.7962950059304089e-03 4.7094841689943150e-03
      -1.6396384630773978e-02 7.8217346019354098e-03
      1.3095204799957197e-02 1.5763505097200439e-02
      -2.9917904995365657e-02 1.5413347769470894e-02
      3.3685914418200573e-03 7.0662760646359266e-03
      -1.3853411232546584e-03 -2.2170296955826990e-02
      -2.3783782996990755e-03 -2.1035089737366321e-02
      -2.3931733112851319e-02 -1.3364070282919483e-02
      3.1323106136358723e-03 1.7828185465926006e-02
      6.0529325390761401e-03 2.8295838422843486e-02
      -2.8835116032772275e-02 -2.8697501770969195e-03
      -1.3188919895549751e-02 3.9887541808001359e-02
      2.9304477735632273e-02 -7.7962566697211842e-04
      -5.3034003434052866e-02 -1.1767721684282036e-02
      1.3786998689815170e-02 5.2911929157776448e-03
      -6.1459767844602858e-03 4.1933184290716859e-03
      1.4060358407915660e-02 -5.3173059743428022e-03
      3.3534936297239947e-03 3.3987204535535537e-03
      -6.2106912164626125e-03 -1.5950871364602364e-02
      7.0418507745655529e-02 1.0632515142056756e-02
      -3.9045712898585577e-02 -1.6165073995541117e-02
      4.5569042355828003e-03 -3.5329060956037620e-02
      -1.0591211099411682e-02 -2.9223800592963014e-03
      -5.8815723704135493e-02 4.0923061398515682e-02
      2.5403357931263464e-02 6.2412055786733034e-03
      -2.0663773922724085e-02 -2.7305472050392871e-02
      -2.8894907441160086e-03 -4.0549279058662097e-02
      -2.3830693530592736e-02 -1.0876314212090968e-02
      3.4321628640111455e-03 3.3255812970114776e-02
      6.5814454172421011e-03 3.0418250799882730e-02
      -2.6016741976895366e-02 -3.5237106365165680e-03
      -1.3233362513603755e-02 5.7991569256692542e-02
      3.3272587633456210e-02 -3.2106211092311938e-03
      -7.3694794497904337e-02 -1.3434784143541167e-02
      1.1632278853241253e-02 2.6619218490767309e-02
      -7.8187661155185422e-03 1.1935209442271973e-02
      3.9459517937594474e-02 -3.3259810623155049e-02
      5.5426625031835932e-03 3.6475056257957287e-03
      -3.0414267896829432e-02 -4.2963378574224727e-02
      7.9407980512226833e-02 1.1830853209204481e-02
      -4.3862823005256006e-02 -2.2616952994235880e-02
      2.5992021457403845e-02 -3.9130920352792586e-02
      -3.5744364418204104e-02 -2.2301057081414062e-02
      -4.0773462666654514e-01 5.9319660550179260e-02
      5.1042901519167704e-02 -5.2698042948917632e-03
      -4.6132387511014401e-02 -6.3610935172172006e-02
      1.7570261197309704e-02 -6.5100947379252649e-02
      2.2467598019483170e-02 6.6931367655553770e-02
      -1.6397324393690356e-02 6.7482853461838896e-02
      -8.7335017343214746e-03 -5.5287995036385484e-02
      -2.7559404365577783e-03 -2.7666517545690359e-02
      3.0913973572506945e-02 8.9839598607055982e-02
      -4.0929639801377586e-02 1.1604074902494214e-01
      -1.0565814866379429e-01 -4.6615581513203358e-02
      -3.3590525793691289e-02 5.0480584715137354e-02
