<?xml version="1.0"?>
<opencv_storage>
<shapeML type_id="opencv-ml-ann-mlp">
  <layer_sizes type_id="opencv-matrix">
    <rows>1</rows>
    <cols>3</cols>
    <dt>i</dt>
    <data>
      1600 60 8</data></layer_sizes>
  <activation_function>SIGMOID_SYM</activation_function>
  <f_param1>5.9999999999999998e-01</f_param1>
  <f_param2>1.</f_param2>
  <min_val>-9.4999999999999996e-01</min_val>
  <max_val>9.4999999999999996e-01</max_val>
  <min_val1>-9.7999999999999998e-01</min_val1>
  <max_val1>9.7999999999999998e-01</max_val1>
  <training_params>
    <train_method>BACKPROP</train_method>
    <dw_scale>1.0000000000000001e-01</dw_scale>
    <moment_scale>1.0000000000000001e-01</moment_scale>
    <term_criteria><epsilon>9.9999999747524271e-07</epsilon>
      <iterations>4000</iterations></term_criteria></training_params>
  <input_scale>
    1. 0. 8.4655227698361882e-02 -4.6423834544262965e-02
    3.8023216680995987e-02 -1.0425720702853737e-01
    3.8023216680995987e-02 -1.0425720702853737e-01
    3.4748079342599832e-02 -1.1433239009500590e-01
    4.2465115934739096e-02 -9.3149286566524464e-02
    3.2205571734883420e-02 -1.2362783988552023e-01
    3.0158495957829851e-02 -1.3230824033112448e-01
    2.4732786492064653e-02 -1.6275769175423191e-01
    2.4732786492064653e-02 -1.6275769175423191e-01
    1.7386670745066682e-02 -2.3836564731139806e-01
    1.4864302073009351e-02 -2.8529870107872790e-01
    1.2772269305217866e-02 -3.4320323649182199e-01
    1.0442526221734656e-02 -4.5239718438031101e-01
    9.3792232329899007e-03 -5.4006172486732174e-01
    9.4436498244842258e-03 -5.3341389815070583e-01
    9.2570908188860032e-03 -5.5333513830308911e-01
    9.0371235475253074e-03 -5.7983350761380115e-01
    8.9380106131192270e-03 -5.9308025261891129e-01
    8.9621581192192382e-03 -5.8976782461958865e-01
    9.1432841969583834e-03 -5.6658867555990500e-01
    8.9621581192192382e-03 -5.8976782461958865e-01
    8.8014162711687396e-03 -6.1297605578881642e-01
    9.0117063454733283e-03 -5.8314461061353207e-01
    9.2278866943805767e-03 -5.5664993930618312e-01
    9.6886657377271996e-03 -5.1006137045067068e-01
    1.0289788762284187e-02 -4.6270856563303731e-01
    1.2340314544229005e-02 -3.5866527110807533e-01
    1.4147368615281921e-02 -3.0257114167522303e-01
    1.8471389614983763e-02 -2.2284837793561055e-01
    2.0329315612559004e-02 -2.0067001862719533e-01
    2.2948826558530505e-02 -1.7618776519129872e-01
    2.8464862901012265e-02 -1.4048787173725408e-01
    2.5804087354976437e-02 -1.5565691404453527e-01
    3.4748079342599832e-02 -1.1433239009500590e-01
    3.2205571734883420e-02 -1.2362783988552023e-01
    4.8981395852523119e-02 -8.0582296402538042e-02
    8.4655227698361882e-02 -4.6423834544262965e-02
    8.4655227698361882e-02 -4.6423834544262965e-02 1. 0. 1. 0.
    8.4655227698361882e-02 -4.6423834544262965e-02
    8.4655227698361882e-02 -4.6423834544262965e-02
    3.2205571734883420e-02 -1.2362783988552023e-01
    2.8464862901012265e-02 -1.4048787173725408e-01
    3.2205571734883420e-02 -1.2362783988552023e-01
    2.7033798607640158e-02 -1.4824986333222021e-01
    2.4732786492064653e-02 -1.6275769175423191e-01
    1.5962742818240783e-02 -2.6261286571944514e-01
    1.4864302073009351e-02 -2.8529870107872790e-01
    1.3134902250586214e-02 -3.3133850193414255e-01
    1.0011537104663943e-02 -4.8313740350249224e-01
    9.0371235475253074e-03 -5.7983350761380115e-01
    8.6207563216765919e-03 -6.4294156824891224e-01
    8.4816238910609687e-03 -6.6977468662313711e-01
    8.3324404304611546e-03 -7.0368803377249367e-01
    8.1133142032255093e-03 -7.6971797005439435e-01
    8.1531149345212620e-03 -7.5560965183482531e-01
    8.0945880059839614e-03 -7.7681933283233173e-01
    8.0945880059839614e-03 -7.7681933283233173e-01
    8.1328179717177918e-03 -7.6264844657366526e-01
    8.0429304828467350e-03 -7.9832571276514208e-01
    8.0594098245797361e-03 -7.9112206761923021e-01
    8.1229679339277338e-03 -7.6617929802595786e-01
    8.2074378097996385e-03 -7.3813989076520625e-01
    8.3890322900443074e-03 -6.9006555934235436e-01
    8.6779653181454051e-03 -6.3293159949441169e-01
    9.1160518893080213e-03 -5.6990027617674022e-01
    9.8039215686274508e-03 -5.0000000000000000e-01
    1.2240382283160448e-02 -3.6247325599810615e-01
    1.4864302073009351e-02 -2.8529870107872790e-01
    1.7386670745066682e-02 -2.3836564731139806e-01
    2.0895333388143051e-02 -1.9479843061849489e-01
    2.1514418417166573e-02 -1.8877167127320346e-01
    2.7033798607640158e-02 -1.4824986333222021e-01
    2.8464862901012265e-02 -1.4048787173725408e-01
    3.4748079342599832e-02 -1.1433239009500590e-01
    4.8981395852523119e-02 -8.0582296402538042e-02
    8.4655227698361882e-02 -4.6423834544262965e-02 1. 0.
    8.4655227698361882e-02 -4.6423834544262965e-02
    8.4655227698361882e-02 -4.6423834544262965e-02
    4.2465115934739096e-02 -9.3149286566524464e-02
    3.2205571734883420e-02 -1.2362783988552023e-01
    2.8464862901012265e-02 -1.4048787173725408e-01
    2.2948826558530505e-02 -1.7618776519129872e-01
    1.7068440335109271e-02 -2.4336292348768701e-01
    1.5962742818240783e-02 -2.6261286571944514e-01
    1.2549531524252625e-02 -3.5098205908151697e-01
    1.1309049330192536e-02 -4.0311288741492751e-01
    9.0892872792094313e-03 -5.7321150422111089e-01
    8.4655227698361875e-03 -6.7314560089181297e-01
    8.2074378097996385e-03 -7.3813989076520625e-01
    8.0945880059839614e-03 -7.7681933283233173e-01
    7.9977821671496935e-03 -8.2015966159254439e-01
    7.9361937582503976e-03 -8.5736493214130904e-01
    7.9115069419066469e-03 -8.7639080124217505e-01
    7.8654493395449200e-03 -9.2736184954957046e-01
    7.8606247621301282e-03 -9.3541434669348522e-01
    7.8768882926642837e-03 -9.1143220341247688e-01
    7.8584347053172448e-03 -9.3946319412599066e-01
    7.8584347053172448e-03 -9.3946319412599066e-01
    7.8511477147241767e-03 -9.5581391856029163e-01
    7.8654493395449200e-03 -9.2736184954957046e-01
    7.8768882926642837e-03 -9.1143220341247688e-01
    7.9529318706354178e-03 -8.4608933255985830e-01
    8.0195629544801642e-03 -8.0919977166496626e-01
    8.1133142032255093e-03 -7.6971797005439435e-01
    8.3462186901047935e-03 -7.0027467138588928e-01
    8.9142702671024376e-03 -5.9639343657969213e-01
    1.0055582795130340e-02 -4.7974861141928304e-01
    1.2240382283160448e-02 -3.6247325599810615e-01
    1.5063804782313424e-02 -2.8086706981216641e-01
    1.7725065832464641e-02 -2.3328473740792174e-01
    2.0895333388143051e-02 -1.9479843061849489e-01
    2.0329315612559004e-02 -2.0067001862719533e-01
    2.2195293179947909e-02 -1.8257418583505539e-01
    2.5804087354976437e-02 -1.5565691404453527e-01
    3.4748079342599832e-02 -1.1433239009500590e-01
    4.8981395852523119e-02 -8.0582296402538042e-02
    3.8023216680995987e-02 -1.0425720702853737e-01
    3.0158495957829851e-02 -1.3230824033112448e-01
    2.5804087354976437e-02 -1.5565691404453527e-01
    2.1514418417166573e-02 -1.8877167127320346e-01
    1.8085799826875824e-02 -2.2811444297769184e-01
    1.4673471605042447e-02 -2.8968272975116055e-01
    1.3398166987344152e-02 -3.2328480343656213e-01
    1.0902735774635705e-02 -4.2450329290275152e-01
    1.0011537104663943e-02 -4.8313740350249224e-01
    8.7381338474503325e-03 -6.2294438073758829e-01
    8.2797083893876335e-03 -7.1739666883532849e-01
    8.0766245622719366e-03 -7.8395365509278248e-01
    7.9529318706354178e-03 -8.4608933255985830e-01
    7.9161274966614310e-03 -8.7256153729329378e-01
    7.8708692924283289e-03 -9.1936831315751555e-01
    7.8654493395449200e-03 -9.2736184954957046e-01
    7.8435907071762057e-03 -9.8930450532448266e-01
    7.8435907071762057e-03 -1.0108111250054497e+00
    7.8431553914829755e-03 -9.9785176980673718e-01
    7.8440260953609679e-03 -9.8505785771742738e-01
    7.8440260953609661e-03 -1.0151687965996192e+00
    7.8446067257400432e-03 -1.0195458225163430e+00
    7.8433004886606771e-03 -1.0064725594803927e+00
    7.8462041243623458e-03 -1.0283589470091681e+00
    7.8433004886606771e-03 -1.0064725594803927e+00
    7.8446067257400415e-03 -9.8082889254736771e-01
    7.8527491133234626e-03 -9.5170252963729829e-01
    7.8945845480744067e-03 -8.9183338991472816e-01
    7.9775516570906001e-03 -8.3120941459363340e-01
    8.2547297862296289e-03 -7.2428596834014802e-01
    8.7177395754865737e-03 -6.2627116240672909e-01
    9.3170702552103028e-03 -5.4670163852346909e-01
    1.1382839156328378e-02 -3.9950093555113786e-01
    1.5272633467174302e-02 -2.7638539919628335e-01
    1.5063804782313424e-02 -2.8086706981216641e-01
    1.8471389614983763e-02 -2.2284837793561055e-01
    2.0895333388143051e-02 -1.9479843061849489e-01
    2.2948826558530505e-02 -1.7618776519129872e-01
    3.0158495957829851e-02 -1.3230824033112448e-01
    3.4748079342599832e-02 -1.1433239009500590e-01
    2.7033798607640158e-02 -1.4824986333222021e-01
    2.3788764057135339e-02 -1.6959086634280354e-01
    1.9329373105998325e-02 -2.1199957600127192e-01
    1.6485155128733719e-02 -2.5312689810571776e-01
    1.3264224700619146e-02 -3.2732683535398860e-01
    1.1697946630639477e-02 -3.8490017945975058e-01
    1.0495665679906415e-02 -4.4894363521148084e-01
    8.8909294417890139e-03 -5.9970753105744612e-01
    8.2306465277039269e-03 -7.3120001733214890e-01
    8.1038548527574972e-03 -7.7326460175666700e-01
    7.9161274966614310e-03 -8.7256153729329378e-01
    7.8708692924283289e-03 -9.1936831315751555e-01
    7.8544972116896400e-03 -9.4760708295868556e-01
    7.8446067257400432e-03 -1.0195458225163430e+00
    7.8654493395449183e-03 -1.0783277320343840e+00
    7.8629628421229818e-03 -1.0736748938937608e+00
    7.9027352903248312e-03 -1.1311108542958477e+00
    7.8945845480744067e-03 -1.1212856698442455e+00
    7.8768882926642837e-03 -1.0971743112169152e+00
    7.8654493395449183e-03 -1.0783277320343840e+00
    7.8835104337677629e-03 -1.1067431421857195e+00
    7.8907402387001242e-03 -1.1164124737722174e+00
    7.8835104337677629e-03 -1.1067431421857195e+00
    7.8945845480744067e-03 -1.1212856698442455e+00
    7.8835104337677629e-03 -1.1067431421857195e+00
    7.8738036657519210e-03 -1.0924267602064197e+00
    7.8483839686736938e-03 -1.0372525522469718e+00
    7.8431553914829755e-03 -9.9785176980673718e-01
    7.8606247621301282e-03 -9.3541434669348522e-01
    7.9649092986224194e-03 -8.3862786937753475e-01
    8.1531149345212620e-03 -7.5560965183482531e-01
    8.6023194665211557e-03 -6.4628393669444417e-01
    9.1991913383657233e-03 -5.5996367920955226e-01
    1.0966428328854220e-02 -4.2096934552698462e-01
    1.3134902250586214e-02 -3.3133850193414255e-01
    1.4147368615281921e-02 -3.0257114167522303e-01
    1.5272633467174302e-02 -2.7638539919628335e-01
    1.8884767398075687e-02 -2.1747941810042001e-01
    2.3788764057135339e-02 -1.6959086634280354e-01
    3.0158495957829851e-02 -1.3230824033112448e-01
    2.2948826558530505e-02 -1.7618776519129872e-01
    1.8471389614983763e-02 -2.2284837793561055e-01
    1.6485155128733719e-02 -2.5312689810571776e-01
    1.3134902250586214e-02 -3.3133850193414255e-01
    1.1782128360379750e-02 -3.8120886275680282e-01
    1.0011537104663943e-02 -4.8313740350249224e-01
    8.6976853029394202e-03 -6.2960018773535675e-01
    8.1328179717177918e-03 -7.6264844657366526e-01
    7.9361937582503976e-03 -8.5736493214130904e-01
    7.8738036657519210e-03 -9.1539317456032021e-01
    7.8435907071762057e-03 -9.8930450532448266e-01
    7.8472211589823496e-03 -1.0327955589886448e+00
    7.8835104337677629e-03 -1.1067431421857195e+00
    7.9258420989268535e-03 -1.1561502571402333e+00
    7.9258420989268535e-03 -1.1561502571402333e+00
    7.9529318706354196e-03 -1.1819082944521735e+00
    7.9775516570906001e-03 -1.2030662579644695e+00
    7.9529318706354196e-03 -1.1819082944521735e+00
    7.9529318706354196e-03 -1.1819082944521735e+00
    7.9309378510438316e-03 -1.1612428034157403e+00
    7.9588380199761589e-03 -1.1871505485280567e+00
    7.9471897899133399e-03 -1.1766968108291043e+00
    7.9529318706354196e-03 -1.1819082944521735e+00
    7.9309378510438316e-03 -1.1612428034157403e+00
    7.9416107505632227e-03 -1.1715156762040522e+00
    7.9529318706354196e-03 -1.1819082944521735e+00
    7.9258420989268535e-03 -1.1561502571402333e+00
    7.9027352903248312e-03 -1.1311108542958477e+00
    7.8527491133234626e-03 -1.0507484942601846e+00
    7.8435907071762057e-03 -9.8930450532448266e-01
    7.9361937582503976e-03 -8.5736493214130904e-01
    8.0510790331404618e-03 -7.9471941423902615e-01
    8.4188405392082982e-03 -6.8328396118219603e-01
    8.8014162711687396e-03 -6.1297605578881642e-01
    1.0549977831841202e-02 -4.4548132199613333e-01
    1.3134902250586214e-02 -3.3133850193414255e-01
    1.5491512975697154e-02 -2.7185106641223389e-01
    1.6485155128733719e-02 -2.5312689810571776e-01
    1.7725065832464641e-02 -2.3328473740792174e-01
    2.4732786492064653e-02 -1.6275769175423191e-01
    2.0329315612559004e-02 -2.0067001862719533e-01
    1.5491512975697154e-02 -2.7185106641223389e-01
    1.3830501108235697e-02 -3.1096320233678326e-01
    1.1782128360379750e-02 -3.8120886275680282e-01
    9.8845357205868348e-03 -4.9327021805638177e-01
    8.5841906188963424e-03 -6.4962939328809088e-01
    8.0594098245797361e-03 -7.9112206761923021e-01
    7.9209056033265595e-03 -8.6874448552613870e-01
    7.8446067257400415e-03 -9.8082889254736771e-01
    7.8431553914829755e-03 -9.9785176980673718e-01
    7.8527491133234626e-03 -1.0507484942601846e+00
    7.8945845480744067e-03 -1.1212856698442455e+00
    7.9161274966614310e-03 -1.1460509743553711e+00
    7.9908681217004205e-03 -1.2138386446802349e+00
    8.0510790331404618e-03 -1.2583057392117916e+00
    8.0766245622719366e-03 -1.2755856082865613e+00
    8.0510790331404618e-03 -1.2583057392117916e+00
    8.0855118355628638e-03 -1.2814232144554951e+00
    8.0594098245797378e-03 -1.2640274376486027e+00
    8.0679244539676263e-03 -1.2697872068034854e+00
    8.0766245622719366e-03 -1.2755856082865613e+00
    8.0679244539676263e-03 -1.2697872068034854e+00
    8.0121282529859728e-03 -1.2302493704584914e+00
    8.0195629544801642e-03 -1.2357887817274755e+00
    8.0048684404679018e-03 -1.2247448713915889e+00
    7.9588380199761589e-03 -1.1871505485280567e+00
    7.9258420989268535e-03 -1.1561502571402333e+00
    7.9361937582503993e-03 -1.1663644762125425e+00
    7.8945845480744067e-03 -1.1212856698442455e+00
    7.8768882926642837e-03 -1.0971743112169152e+00
    7.8496927476586799e-03 -1.0417301923828326e+00
    7.8563923029608389e-03 -9.4352737238461948e-01
    7.9471897899133399e-03 -8.4983658559879749e-01
    8.3189033080770299e-03 -7.0710678118654757e-01
    8.8232310245018701e-03 -6.0965680175751624e-01
    1.0193202253956700e-02 -4.6954492963387634e-01
    1.2772269305217866e-02 -3.4320323649182199e-01
    1.3681003171369270e-02 -3.1510439562444059e-01
    1.7068440335109271e-02 -2.4336292348768701e-01
    2.4732786492064653e-02 -1.6275769175423191e-01
    1.8884767398075687e-02 -2.1747941810042001e-01
    1.3830501108235697e-02 -3.1096320233678326e-01
    1.1868656781282039e-02 -3.7749985762400290e-01
    9.6886657377271996e-03 -5.1006137045067068e-01
    8.3745113358404989e-03 -6.9346356771298590e-01
    7.9775516570906001e-03 -8.3120941459363340e-01
    7.8738036657519210e-03 -9.1539317456032021e-01
    7.8453326950657272e-03 -9.7661738291156908e-01
    7.8511477147241784e-03 -1.0462287486943735e+00
    7.8738036657519210e-03 -1.0924267602064197e+00
    7.9209056033265595e-03 -1.1510864433221337e+00
    7.9649092986224194e-03 -1.1924240017711822e+00
    8.0195629544801642e-03 -1.2357887817274755e+00
    8.0349626201547033e-03 -1.2469743601794927e+00
    8.1428662949190010e-03 -1.3173056280328643e+00
    8.2671058269926049e-03 -1.3872736939359849e+00
    8.2074378097996368e-03 -1.3547567507337013e+00
    8.2425775643668615e-03 -1.3741174468596111e+00
    8.2547297862296306e-03 -1.3806701271484074e+00
    8.2306465277039234e-03 -1.3676148472323519e+00
    8.2074378097996368e-03 -1.3547567507337013e+00
    8.1742215577024144e-03 -1.3358260132684010e+00
    8.2306465277039234e-03 -1.3676148472323519e+00
    8.1229679339277338e-03 -1.3051775251256144e+00
    8.1038548527574989e-03 -1.2932183856964952e+00
    8.1328179717177918e-03 -1.3112201362143716e+00
    8.0349626201547033e-03 -1.2469743601794927e+00
    8.0048684404679018e-03 -1.2247448713915889e+00
    7.9711468012495547e-03 -1.1977290903296911e+00
    7.9258420989268535e-03 -1.1561502571402333e+00
    7.9161274966614310e-03 -1.1460509743553711e+00
    7.8738036657519210e-03 -1.0924267602064197e+00
    7.8563923029608389e-03 -9.4352737238461948e-01
    7.9309378510438334e-03 -8.6114634860043682e-01
    8.1961551907296093e-03 -7.4161984870956621e-01
    8.6207563216765919e-03 -6.4294156824891224e-01
    1.0240992422852603e-02 -4.6613033253693620e-01
    1.1868656781282039e-02 -3.7749985762400290e-01
    1.5063804782313424e-02 -2.8086706981216641e-01
    2.1514418417166573e-02 -1.8877167127320346e-01
    1.4864302073009351e-02 -2.8529870107872790e-01
    1.1697946630639477e-02 -3.8490017945975058e-01
    9.8438376593653308e-03 -4.9663748707249605e-01
    8.5663649448078777e-03 -6.5297807627680693e-01
    7.9775516570906001e-03 -8.3120941459363340e-01
    7.8985826685591242e-03 -8.8795356773963063e-01
    7.8435907071762057e-03 -9.8930450532448266e-01
    7.8606247621301282e-03 -1.0690449676496974e+00
    7.8945845480744067e-03 -1.1212856698442455e+00
    7.9529318706354196e-03 -1.1819082944521735e+00
    8.0429304828467350e-03 -1.2526215603607755e+00
    8.1531149345212620e-03 -1.3234346564680963e+00
    8.1328179717177918e-03 -1.3112201362143716e+00
    8.1850838779717675e-03 -1.3420897210235643e+00
    8.3602412448343238e-03 -1.4349949568955949e+00
    8.4341349392367468e-03 -1.4708043058552855e+00
    8.4188405392082999e-03 -1.4635203763159204e+00
    8.5488377406431511e-03 -1.5236235005501100e+00
    8.4655227698361857e-03 -1.4855627054164144e+00
    8.4188405392082999e-03 -1.4635203763159204e+00
    8.4655227698361857e-03 -1.4855627054164144e+00
    8.4341349392367468e-03 -1.4708043058552855e+00
    8.5146605553071963e-03 -1.5081935841674778e+00
    8.4188405392082999e-03 -1.4635203763159204e+00
    8.3324404304611563e-03 -1.4210842759951012e+00
    8.2797083893876335e-03 -1.3939289704585180e+00
    8.1742215577024144e-03 -1.3358260132684010e+00
    8.2074378097996368e-03 -1.3547567507337013e+00
    8.1229679339277338e-03 -1.3051775251256144e+00
    8.0594098245797378e-03 -1.2640274376486027e+00
    8.0048684404679018e-03 -1.2247448713915889e+00
    7.9161274966614310e-03 -1.1460509743553711e+00
    7.8835104337677629e-03 -1.1067431421857195e+00
    7.8496927476586799e-03 -9.5994145827013089e-01
    7.9416107505632192e-03 -8.5359506518956929e-01
    8.2074378097996385e-03 -7.3813989076520625e-01
    8.8014162711687396e-03 -6.1297605578881642e-01
    1.0390523147790518e-02 -4.5584230583855173e-01
    1.3985832149569697e-02 -3.0678599553894814e-01
    1.6485155128733719e-02 -2.5312689810571776e-01
    1.3134902250586214e-02 -3.3133850193414255e-01
    1.0720339370273183e-02 -4.3503828799366656e-01
    9.0629808923524766e-03 -5.7652252644255109e-01
    8.0271739339053457e-03 -8.0556574543159776e-01
    7.9027352903248312e-03 -8.8408664473698440e-01
    7.8435907071762057e-03 -9.8930450532448266e-01
    7.8680846743565385e-03 -1.0830037840477211e+00
    7.8870490785635013e-03 -1.1115650782014173e+00
    7.9649092986224194e-03 -1.1924240017711822e+00
    8.0679244539676263e-03 -1.2697872068034854e+00
    8.1850838779717675e-03 -1.3420897210235643e+00
    8.1038548527574989e-03 -1.2932183856964952e+00
    8.3056042462108307e-03 -1.4073980356563061e+00
    8.4655227698361857e-03 -1.4855627054164144e+00
    8.4655227698361857e-03 -1.4855627054164144e+00
    8.5663649448078777e-03 -1.5314449846492020e+00
    8.4980017830190175e-03 -1.5005826374272937e+00
    8.5841906188963424e-03 -1.5393392145304763e+00
    8.5316044291052599e-03 -1.5158734579197346e+00
    8.5841906188963424e-03 -1.5393392145304763e+00
    8.5841906188963424e-03 -1.5393392145304763e+00
    8.6779653181454017e-03 -1.5799495566326660e+00
    8.5841906188963424e-03 -1.5393392145304763e+00
    8.6395061529724489e-03 -1.5634719199411431e+00
    8.6585740680438176e-03 -1.5716708477704053e+00
    8.4038075225527174e-03 -1.4562985164888127e+00
    8.3324404304611563e-03 -1.4210842759951012e+00
    8.3056042462108307e-03 -1.4073980356563061e+00
    8.2189341098059254e-03 -1.3611615393465686e+00
    8.2425775643668615e-03 -1.3741174468596111e+00
    8.1133142032255093e-03 -1.2991771517681105e+00
    8.0766245622719366e-03 -1.2755856082865613e+00
    8.0048684404679018e-03 -1.2247448713915889e+00
    7.8907402387001242e-03 -1.1164124737722174e+00
    7.8544972116896400e-03 -9.4760708295868556e-01
    8.0271739339053457e-03 -8.0556574543159776e-01
    8.2797083893876335e-03 -7.1739666883532849e-01
    9.3478689553662068e-03 -5.4338257605064211e-01
    1.1957634184462572e-02 -3.7377250079820101e-01
    1.4673471605042447e-02 -2.8968272975116055e-01
    1.2143377590925196e-02 -3.6625993701661480e-01
    9.8039215686274508e-03 -5.0000000000000000e-01
    8.3324404304611546e-03 -7.0368803377249367e-01
    7.9209056033265595e-03 -8.6874448552613870e-01
    7.8435907071762057e-03 -9.8930450532448266e-01
    7.8654493395449183e-03 -1.0783277320343840e+00
    7.9070431321766853e-03 -1.1360635519585471e+00
    7.9258420989268535e-03 -1.1561502571402333e+00
    8.0271739339053474e-03 -1.2413636077142658e+00
    8.1133142032255093e-03 -1.2991771517681105e+00
    8.2547297862296306e-03 -1.3806701271484074e+00
    8.3056042462108307e-03 -1.4073980356563061e+00
    8.3745113358404989e-03 -1.4420368229263414e+00
    8.3890322900443074e-03 -1.4491376746189442e+00
    8.4038075225527174e-03 -1.4562985164888127e+00
    8.3890322900443074e-03 -1.4491376746189442e+00
    8.4816238910609687e-03 -1.4930394055974099e+00
    8.5488377406431511e-03 -1.5236235005501100e+00
    8.5841906188963424e-03 -1.5393392145304763e+00
    8.5841906188963424e-03 -1.5393392145304763e+00
    8.6585740680438176e-03 -1.5716708477704053e+00
    8.6976853029394220e-03 -1.5883095645141958e+00
    8.5316044291052599e-03 -1.5158734579197346e+00
    8.5663649448078777e-03 -1.5314449846492020e+00
    8.6023194665211557e-03 -1.5473075272684504e+00
    8.5841906188963424e-03 -1.5393392145304763e+00
    8.5488377406431511e-03 -1.5236235005501100e+00
    8.5488377406431511e-03 -1.5236235005501100e+00
    8.4980017830190175e-03 -1.5005826374272937e+00
    8.3745113358404989e-03 -1.4420368229263414e+00
    8.2671058269926049e-03 -1.3872736939359849e+00
    8.2425775643668615e-03 -1.3741174468596111e+00
    8.1133142032255093e-03 -1.2991771517681105e+00
    7.9841250305268362e-03 -1.2084359562332876e+00
    7.8654493395449183e-03 -1.0783277320343840e+00
    7.8584347053172448e-03 -9.3946319412599066e-01
    8.0510790331404618e-03 -7.9471941423902615e-01
    8.5488377406431528e-03 -6.5633012331389373e-01
    1.0605500667950792e-02 -4.4200989880620722e-01
    1.4315516986734842e-02 -2.9831690236873254e-01
    1.1868656781282039e-02 -3.7749985762400290e-01
    8.9621581192192382e-03 -5.8976782461958865e-01
    8.0766245622719366e-03 -7.8395365509278248e-01
    7.8462041243623475e-03 -9.7242310470323035e-01
    7.8708692924283289e-03 -1.0877033564117085e+00
    7.8985826685591242e-03 -1.1261850127429462e+00
    7.9258420989268535e-03 -1.1561502571402333e+00
    7.9588380199761589e-03 -1.1871505485280567e+00
    8.1742215577024144e-03 -1.3358260132684010e+00
    8.2925402470088467e-03 -1.4006367978496232e+00
    8.3602412448343238e-03 -1.4349949568955949e+00
    8.4188405392082999e-03 -1.4635203763159204e+00
    8.4188405392082999e-03 -1.4635203763159204e+00
    8.4496944179966796e-03 -1.4781513815740643e+00
    8.6023194665211557e-03 -1.5473075272684504e+00
    8.5663649448078777e-03 -1.5314449846492020e+00
    8.5316044291052599e-03 -1.5158734579197346e+00
    8.5841906188963424e-03 -1.5393392145304763e+00
    8.6395061529724489e-03 -1.5634719199411431e+00
    8.6207563216765901e-03 -1.5553512937786182e+00
    8.5488377406431511e-03 -1.5236235005501100e+00
    8.6585740680438176e-03 -1.5716708477704053e+00
    8.6585740680438176e-03 -1.5716708477704053e+00
    8.6395061529724489e-03 -1.5634719199411431e+00
    8.4496944179966796e-03 -1.4781513815740643e+00
    8.4980017830190175e-03 -1.5005826374272937e+00
    8.6395061529724489e-03 -1.5634719199411431e+00
    8.5841906188963424e-03 -1.5393392145304763e+00
    8.4341349392367468e-03 -1.4708043058552855e+00
    8.4655227698361857e-03 -1.4855627054164144e+00
    8.4655227698361857e-03 -1.4855627054164144e+00
    8.3462186901047935e-03 -1.4280110945908331e+00
    8.2189341098059254e-03 -1.3611615393465686e+00
    8.0855118355628638e-03 -1.2814232144554951e+00
    7.9416107505632227e-03 -1.1715156762040522e+00
    7.8472211589823496e-03 -1.0327955589886448e+00
    7.8835104337677629e-03 -9.0355201842506006e-01
    8.3324404304611546e-03 -7.0368803377249367e-01
    9.5104571625344008e-03 -5.2675661122811512e-01
    1.2889145500038774e-02 -3.3927557187198837e-01
    1.1697946630639477e-02 -3.8490017945975058e-01
    8.4655227698361875e-03 -6.7314560089181297e-01
    7.9209056033265595e-03 -8.6874448552613870e-01
    7.8472211589823496e-03 -1.0327955589886448e+00
    7.9027352903248312e-03 -1.1311108542958477e+00
    7.9908681217004205e-03 -1.2138386446802349e+00
    8.0429304828467350e-03 -1.2526215603607755e+00
    8.1531149345212620e-03 -1.3234346564680963e+00
    8.1850838779717675e-03 -1.3420897210235643e+00
    8.2547297862296306e-03 -1.3806701271484074e+00
    8.4655227698361857e-03 -1.4855627054164144e+00
    8.6207563216765901e-03 -1.5553512937786182e+00
    8.4655227698361857e-03 -1.4855627054164144e+00
    8.6585740680438176e-03 -1.5716708477704053e+00
    8.6585740680438176e-03 -1.5716708477704053e+00
    8.7381338474503360e-03 -1.6052797503622473e+00
    8.5841906188963424e-03 -1.5393392145304763e+00
    8.6023194665211557e-03 -1.5473075272684504e+00
    8.6395061529724489e-03 -1.5634719199411431e+00
    8.6395061529724489e-03 -1.5634719199411431e+00
    8.6395061529724489e-03 -1.5634719199411431e+00
    8.5663649448078777e-03 -1.5314449846492020e+00
    8.6585740680438176e-03 -1.5716708477704053e+00
    8.6395061529724489e-03 -1.5634719199411431e+00
    8.5488377406431511e-03 -1.5236235005501100e+00
    8.6207563216765901e-03 -1.5553512937786182e+00
    8.6585740680438176e-03 -1.5716708477704053e+00
    8.6207563216765901e-03 -1.5553512937786182e+00
    8.4341349392367468e-03 -1.4708043058552855e+00
    8.4816238910609687e-03 -1.4930394055974099e+00
    8.4980017830190175e-03 -1.5005826374272937e+00
    8.5146605553071963e-03 -1.5081935841674778e+00
    8.4038075225527174e-03 -1.4562985164888127e+00
    8.2547297862296306e-03 -1.3806701271484074e+00
    8.1038548527574989e-03 -1.2932183856964952e+00
    7.9161274966614310e-03 -1.1460509743553711e+00
    7.8496927476586799e-03 -9.5994145827013089e-01
    8.1133142032255093e-03 -7.6971797005439435e-01
    8.8679807228754012e-03 -6.0302268915552726e-01
    1.1458544908681249e-02 -3.9587424507089086e-01
    1.0146389062537866e-02 -4.7295265146345855e-01
    8.2189341098059237e-03 -7.3466665865394243e-01
    7.8462041243623475e-03 -9.7242310470323035e-01
    7.8907402387001242e-03 -1.1164124737722174e+00
    8.0195629544801642e-03 -1.2357887817274755e+00
    8.0766245622719366e-03 -1.2755856082865613e+00
    8.1961551907296110e-03 -1.3483997249264845e+00
    8.2797083893876335e-03 -1.3939289704585180e+00
    8.3056042462108307e-03 -1.4073980356563061e+00
    8.5316044291052599e-03 -1.5158734579197346e+00
    8.6585740680438176e-03 -1.5716708477704053e+00
    8.6207563216765901e-03 -1.5553512937786182e+00
    8.6779653181454017e-03 -1.5799495566326660e+00
    8.6976853029394220e-03 -1.5883095645141958e+00
    8.6395061529724489e-03 -1.5634719199411431e+00
    8.6779653181454017e-03 -1.5799495566326660e+00
    8.6023194665211557e-03 -1.5473075272684504e+00
    8.5663649448078777e-03 -1.5314449846492020e+00
    8.6779653181454017e-03 -1.5799495566326660e+00
    8.5146605553071963e-03 -1.5081935841674778e+00
    8.6207563216765901e-03 -1.5553512937786182e+00
    8.5841906188963424e-03 -1.5393392145304763e+00
    8.6023194665211557e-03 -1.5473075272684504e+00
    8.6395061529724489e-03 -1.5634719199411431e+00
    8.7381338474503360e-03 -1.6052797503622473e+00
    8.7799660620998914e-03 -1.6225943732183961e+00
    8.7588739945251397e-03 -1.6138931695718579e+00
    8.6585740680438176e-03 -1.5716708477704053e+00
    8.5488377406431511e-03 -1.5236235005501100e+00
    8.5146605553071963e-03 -1.5081935841674778e+00
    8.5146605553071963e-03 -1.5081935841674778e+00
    8.5663649448078777e-03 -1.5314449846492020e+00
    8.4188405392082999e-03 -1.4635203763159204e+00
    8.3745113358404989e-03 -1.4420368229263414e+00
    8.1850838779717675e-03 -1.3420897210235643e+00
    7.9977821671496935e-03 -1.2192747910306274e+00
    7.8472211589823496e-03 -1.0327955589886448e+00
    7.9309378510438334e-03 -8.6114634860043682e-01
    8.3056042462108341e-03 -7.1053104712745585e-01
    9.8845357205868348e-03 -4.9327021805638177e-01
    9.5447891766450733e-03 -5.2342392259021364e-01
    7.9977821671496935e-03 -8.2015966159254439e-01
    7.8462041243623458e-03 -1.0283589470091681e+00
    7.9529318706354196e-03 -1.1819082944521735e+00
    8.1038548527574989e-03 -1.2932183856964952e+00
    8.2306465277039234e-03 -1.3676148472323519e+00
    8.3056042462108307e-03 -1.4073980356563061e+00
    8.4341349392367468e-03 -1.4708043058552855e+00
    8.5146605553071963e-03 -1.5081935841674778e+00
    8.5316044291052599e-03 -1.5158734579197346e+00
    8.7381338474503360e-03 -1.6052797503622473e+00
    8.6779653181454017e-03 -1.5799495566326660e+00
    8.8454169130897878e-03 -1.6492422502470636e+00
    8.7588739945251397e-03 -1.6138931695718579e+00
    8.6976853029394220e-03 -1.5883095645141958e+00
    8.6207563216765901e-03 -1.5553512937786182e+00
    8.4980017830190175e-03 -1.5005826374272937e+00
    8.6395061529724489e-03 -1.5634719199411431e+00
    8.5488377406431511e-03 -1.5236235005501100e+00
    8.5488377406431511e-03 -1.5236235005501100e+00
    8.5316044291052599e-03 -1.5158734579197346e+00
    8.6207563216765901e-03 -1.5553512937786182e+00
    8.5316044291052599e-03 -1.5158734579197346e+00
    8.5663649448078777e-03 -1.5314449846492020e+00
    8.6976853029394220e-03 -1.5883095645141958e+00
    8.7588739945251397e-03 -1.6138931695718579e+00
    8.8679807228754012e-03 -1.6583123951777001e+00
    8.6976853029394220e-03 -1.5883095645141958e+00
    8.5841906188963424e-03 -1.5393392145304763e+00
    8.6207563216765901e-03 -1.5553512937786182e+00
    8.6585740680438176e-03 -1.5716708477704053e+00
    8.8232310245018701e-03 -1.6402671094904606e+00
    8.5146605553071963e-03 -1.5081935841674778e+00
    8.4496944179966796e-03 -1.4781513815740643e+00
    8.2925402470088467e-03 -1.4006367978496232e+00
    8.1328179717177918e-03 -1.3112201362143716e+00
    7.8738036657519210e-03 -1.0924267602064197e+00
    7.8496927476586799e-03 -9.5994145827013089e-01
    8.0594098245797361e-03 -7.9112206761923021e-01
    9.0892872792094313e-03 -5.7321150422111089e-01
    8.6585740680438159e-03 -6.3626553958076815e-01
    7.8680846743565368e-03 -9.2335780791319622e-01
    7.8680846743565385e-03 -1.0830037840477211e+00
    8.0349626201547033e-03 -1.2469743601794927e+00
    8.2425775643668615e-03 -1.3741174468596111e+00
    8.4655227698361857e-03 -1.4855627054164144e+00
    8.4655227698361857e-03 -1.4855627054164144e+00
    8.6395061529724489e-03 -1.5634719199411431e+00
    8.6023194665211557e-03 -1.5473075272684504e+00
    8.8909294417890139e-03 -1.6674794765987526e+00
    8.7588739945251397e-03 -1.6138931695718579e+00
    8.7381338474503360e-03 -1.6052797503622473e+00
    8.8454169130897878e-03 -1.6492422502470636e+00
    8.7588739945251397e-03 -1.6138931695718579e+00
    8.7381338474503360e-03 -1.6052797503622473e+00
    8.4816238910609687e-03 -1.4930394055974099e+00
    8.4816238910609687e-03 -1.4930394055974099e+00
    8.3745113358404989e-03 -1.4420368229263414e+00
    8.4188405392082999e-03 -1.4635203763159204e+00
    8.3462186901047935e-03 -1.4280110945908331e+00
    8.4816238910609687e-03 -1.4930394055974099e+00
    8.4980017830190175e-03 -1.5005826374272937e+00
    8.5663649448078777e-03 -1.5314449846492020e+00
    8.3745113358404989e-03 -1.4420368229263414e+00
    8.4038075225527174e-03 -1.4562985164888127e+00
    8.7381338474503360e-03 -1.6052797503622473e+00
    9.0117063454733266e-03 -1.7148405074821662e+00
    8.8232310245018701e-03 -1.6402671094904606e+00
    8.8014162711687379e-03 -1.6313850933592118e+00
    8.6976853029394220e-03 -1.5883095645141958e+00
    8.8014162711687379e-03 -1.6313850933592118e+00
    8.7381338474503360e-03 -1.6052797503622473e+00
    8.5663649448078777e-03 -1.5314449846492020e+00
    8.6779653181454017e-03 -1.5799495566326660e+00
    8.4188405392082999e-03 -1.4635203763159204e+00
    8.3056042462108307e-03 -1.4073980356563061e+00
    7.9529318706354196e-03 -1.1819082944521735e+00
    7.8584347053172448e-03 -1.0644376557299067e+00
    7.9361937582503976e-03 -8.5736493214130904e-01
    8.7177395754865737e-03 -6.2627116240672909e-01
    8.3462186901047935e-03 -7.0027467138588928e-01
    7.8606247621301282e-03 -9.3541434669348522e-01
    7.8768882926642837e-03 -1.0971743112169152e+00
    8.0855118355628638e-03 -1.2814232144554951e+00
    8.4496944179966796e-03 -1.4781513815740643e+00
    8.4816238910609687e-03 -1.4930394055974099e+00
    8.5316044291052599e-03 -1.5158734579197346e+00
    8.7177395754865720e-03 -1.5967524293423470e+00
    8.6976853029394220e-03 -1.5883095645141958e+00
    8.6976853029394220e-03 -1.5883095645141958e+00
    8.7381338474503360e-03 -1.6052797503622473e+00
    8.8909294417890139e-03 -1.6674794765987526e+00
    8.8454169130897878e-03 -1.6492422502470636e+00
    8.6207563216765901e-03 -1.5553512937786182e+00
    8.6207563216765901e-03 -1.5553512937786182e+00
    8.7177395754865720e-03 -1.5967524293423470e+00
    8.4816238910609687e-03 -1.4930394055974099e+00
    8.3056042462108307e-03 -1.4073980356563061e+00
    8.3890322900443074e-03 -1.4491376746189442e+00
    8.3602412448343238e-03 -1.4349949568955949e+00
    8.3602412448343238e-03 -1.4349949568955949e+00
    8.3189033080770299e-03 -1.4142135623730951e+00
    8.3745113358404989e-03 -1.4420368229263414e+00
    8.3745113358404989e-03 -1.4420368229263414e+00
    8.4496944179966796e-03 -1.4781513815740643e+00
    8.6395061529724489e-03 -1.5634719199411431e+00
    8.7381338474503360e-03 -1.6052797503622473e+00
    9.0117063454733266e-03 -1.7148405074821662e+00
    9.0117063454733266e-03 -1.7148405074821662e+00
    9.0371235475253109e-03 -1.7246329970051528e+00
    9.0371235475253109e-03 -1.7246329970051528e+00
    8.8909294417890139e-03 -1.6674794765987526e+00
    8.8232310245018701e-03 -1.6402671094904606e+00
    8.8454169130897878e-03 -1.6492422502470636e+00
    8.6207563216765901e-03 -1.5553512937786182e+00
    8.4816238910609687e-03 -1.4930394055974099e+00
    8.0510790331404618e-03 -1.2583057392117916e+00
    7.8945845480744067e-03 -1.1212856698442455e+00
    7.8708692924283289e-03 -9.1936831315751555e-01
    8.3890322900443074e-03 -6.9006555934235436e-01
    8.2074378097996385e-03 -7.3813989076520625e-01
    7.8446067257400415e-03 -9.8082889254736771e-01
    7.9070431321766853e-03 -1.1360635519585471e+00
    8.2074378097996368e-03 -1.3547567507337013e+00
    8.3745113358404989e-03 -1.4420368229263414e+00
    8.5488377406431511e-03 -1.5236235005501100e+00
    8.5316044291052599e-03 -1.5158734579197346e+00
    8.8014162711687379e-03 -1.6313850933592118e+00
    8.6976853029394220e-03 -1.5883095645141958e+00
    8.7177395754865720e-03 -1.5967524293423470e+00
    8.8679807228754012e-03 -1.6583123951777001e+00
    8.9142702671024376e-03 -1.6767454815314295e+00
    8.8679807228754012e-03 -1.6583123951777001e+00
    8.6207563216765901e-03 -1.5553512937786182e+00
    8.4496944179966796e-03 -1.4781513815740643e+00
    8.4188405392082999e-03 -1.4635203763159204e+00
    8.4496944179966796e-03 -1.4781513815740643e+00
    8.4038075225527174e-03 -1.4562985164888127e+00
    8.4341349392367468e-03 -1.4708043058552855e+00
    8.4038075225527174e-03 -1.4562985164888127e+00
    8.3602412448343238e-03 -1.4349949568955949e+00
    8.3462186901047935e-03 -1.4280110945908331e+00
    8.4341349392367468e-03 -1.4708043058552855e+00
    8.4188405392082999e-03 -1.4635203763159204e+00
    8.4655227698361857e-03 -1.4855627054164144e+00
    8.6976853029394220e-03 -1.5883095645141958e+00
    8.9621581192192382e-03 -1.6955824957813170e+00
    8.9380106131192287e-03 -1.6861124537264920e+00
    8.9142702671024376e-03 -1.6767454815314295e+00
    9.0371235475253109e-03 -1.7246329970051528e+00
    9.1709939812586877e-03 -1.7753269316623674e+00
    9.1432841969583834e-03 -1.7649487946644828e+00
    8.9380106131192287e-03 -1.6861124537264920e+00
    8.9621581192192382e-03 -1.6955824957813170e+00
    8.6976853029394220e-03 -1.5883095645141958e+00
    8.4816238910609687e-03 -1.4930394055974099e+00
    8.2189341098059254e-03 -1.3611615393465686e+00
    7.9588380199761589e-03 -1.1871505485280567e+00
    7.8435907071762057e-03 -9.8930450532448266e-01
    8.2425775643668615e-03 -7.2773983205393877e-01
    8.2189341098059237e-03 -7.3466665865394243e-01
    7.8446067257400432e-03 -1.0195458225163430e+00
    7.9416107505632227e-03 -1.1715156762040522e+00
    8.1635659754205215e-03 -1.3296078906418778e+00
    8.4341349392367468e-03 -1.4708043058552855e+00
    8.6395061529724489e-03 -1.5634719199411431e+00
    8.7588739945251397e-03 -1.6138931695718579e+00
    8.7799660620998914e-03 -1.6225943732183961e+00
    8.8232310245018701e-03 -1.6402671094904606e+00
    8.9621581192192382e-03 -1.6955824957813170e+00
    9.0629808923524749e-03 -1.7345376011073299e+00
    8.8232310245018701e-03 -1.6402671094904606e+00
    8.6207563216765901e-03 -1.5553512937786182e+00
    8.4038075225527174e-03 -1.4562985164888127e+00
    8.4816238910609687e-03 -1.4930394055974099e+00
    8.4341349392367468e-03 -1.4708043058552855e+00
    8.3745113358404989e-03 -1.4420368229263414e+00
    8.3462186901047935e-03 -1.4280110945908331e+00
    8.2425775643668615e-03 -1.3741174468596111e+00
    8.3324404304611563e-03 -1.4210842759951012e+00
    8.3462186901047935e-03 -1.4280110945908331e+00
    8.3745113358404989e-03 -1.4420368229263414e+00
    8.3890322900443074e-03 -1.4491376746189442e+00
    8.5488377406431511e-03 -1.5236235005501100e+00
    8.4341349392367468e-03 -1.4708043058552855e+00
    8.5488377406431511e-03 -1.5236235005501100e+00
    8.6585740680438176e-03 -1.5716708477704053e+00
    8.7799660620998914e-03 -1.6225943732183961e+00
    8.8232310245018701e-03 -1.6402671094904606e+00
    8.9142702671024376e-03 -1.6767454815314295e+00
    9.0892872792094313e-03 -1.7445567519772940e+00
    9.0629808923524749e-03 -1.7345376011073299e+00
    8.8454169130897878e-03 -1.6492422502470636e+00
    8.8014162711687379e-03 -1.6313850933592118e+00
    8.7381338474503360e-03 -1.6052797503622473e+00
    8.6023194665211557e-03 -1.5473075272684504e+00
    8.2925402470088467e-03 -1.4006367978496232e+00
    8.0510790331404618e-03 -1.2583057392117916e+00
    7.8435907071762057e-03 -1.0108111250054497e+00
    8.0679244539676263e-03 -7.8753352895825923e-01
    8.1328179717177918e-03 -7.6264844657366526e-01
    7.8446067257400415e-03 -9.8082889254736771e-01
    7.9416107505632227e-03 -1.1715156762040522e+00
    8.1742215577024144e-03 -1.3358260132684010e+00
    8.4038075225527174e-03 -1.4562985164888127e+00
    8.5146605553071963e-03 -1.5081935841674778e+00
    8.6976853029394220e-03 -1.5883095645141958e+00
    8.8454169130897878e-03 -1.6492422502470636e+00
    8.8454169130897878e-03 -1.6492422502470636e+00
    9.1432841969583834e-03 -1.7649487946644828e+00
    9.0371235475253109e-03 -1.7246329970051528e+00
    8.8454169130897878e-03 -1.6492422502470636e+00
    8.6585740680438176e-03 -1.5716708477704053e+00
    8.6779653181454017e-03 -1.5799495566326660e+00
    8.5316044291052599e-03 -1.5158734579197346e+00
    8.4496944179966796e-03 -1.4781513815740643e+00
    8.3890322900443074e-03 -1.4491376746189442e+00
    8.3056042462108307e-03 -1.4073980356563061e+00
    8.4341349392367468e-03 -1.4708043058552855e+00
    8.5316044291052599e-03 -1.5158734579197346e+00
    8.4496944179966796e-03 -1.4781513815740643e+00
    8.3602412448343238e-03 -1.4349949568955949e+00
    8.3745113358404989e-03 -1.4420368229263414e+00
    8.6395061529724489e-03 -1.5634719199411431e+00
    8.5663649448078777e-03 -1.5314449846492020e+00
    8.5488377406431511e-03 -1.5236235005501100e+00
    8.7588739945251397e-03 -1.6138931695718579e+00
    8.6585740680438176e-03 -1.5716708477704053e+00
    8.7177395754865720e-03 -1.5967524293423470e+00
    8.8679807228754012e-03 -1.6583123951777001e+00
    8.8454169130897878e-03 -1.6492422502470636e+00
    8.8454169130897878e-03 -1.6492422502470636e+00
    8.6976853029394220e-03 -1.5883095645141958e+00
    8.6207563216765901e-03 -1.5553512937786182e+00
    8.6023194665211557e-03 -1.5473075272684504e+00
    8.4816238910609687e-03 -1.4930394055974099e+00
    8.3056042462108307e-03 -1.4073980356563061e+00
    8.0271739339053474e-03 -1.2413636077142658e+00
    7.8496927476586799e-03 -1.0417301923828326e+00
    8.0121282529859710e-03 -8.1284333405293163e-01
    8.1133142032255093e-03 -7.6971797005439435e-01
    7.8440260953609679e-03 -9.8505785771742738e-01
    7.9115069419066451e-03 -1.1410434689440196e+00
    8.1961551907296110e-03 -1.3483997249264845e+00
    8.4341349392367468e-03 -1.4708043058552855e+00
    8.6779653181454017e-03 -1.5799495566326660e+00
    8.8909294417890139e-03 -1.6674794765987526e+00
    8.9142702671024376e-03 -1.6767454815314295e+00
    8.7799660620998914e-03 -1.6225943732183961e+00
    9.0371235475253109e-03 -1.7246329970051528e+00
    9.0629808923524749e-03 -1.7345376011073299e+00
    9.0117063454733266e-03 -1.7148405074821662e+00
    8.6976853029394220e-03 -1.5883095645141958e+00
    8.6585740680438176e-03 -1.5716708477704053e+00
    8.5146605553071963e-03 -1.5081935841674778e+00
    8.5146605553071963e-03 -1.5081935841674778e+00
    8.4038075225527174e-03 -1.4562985164888127e+00
    8.4341349392367468e-03 -1.4708043058552855e+00
    8.5146605553071963e-03 -1.5081935841674778e+00
    8.5316044291052599e-03 -1.5158734579197346e+00
    8.3890322900443074e-03 -1.4491376746189442e+00
    8.3890322900443074e-03 -1.4491376746189442e+00
    8.4980017830190175e-03 -1.5005826374272937e+00
    8.5488377406431511e-03 -1.5236235005501100e+00
    8.5663649448078777e-03 -1.5314449846492020e+00
    8.5488377406431511e-03 -1.5236235005501100e+00
    8.7588739945251397e-03 -1.6138931695718579e+00
    8.6976853029394220e-03 -1.5883095645141958e+00
    8.6395061529724489e-03 -1.5634719199411431e+00
    8.7381338474503360e-03 -1.6052797503622473e+00
    8.8232310245018701e-03 -1.6402671094904606e+00
    8.7177395754865720e-03 -1.5967524293423470e+00
    8.6207563216765901e-03 -1.5553512937786182e+00
    8.6395061529724489e-03 -1.5634719199411431e+00
    8.5316044291052599e-03 -1.5158734579197346e+00
    8.5488377406431511e-03 -1.5236235005501100e+00
    8.2671058269926049e-03 -1.3872736939359849e+00
    8.0048684404679018e-03 -1.2247448713915889e+00
    7.8483839686736938e-03 -1.0372525522469718e+00
    7.9908681217004205e-03 -8.2383272635337235e-01
    8.1635659754205198e-03 -7.5210143309035493e-01
    7.8440260953609679e-03 -9.8505785771742738e-01
    7.9209056033265595e-03 -1.1510864433221337e+00
    8.2671058269926049e-03 -1.3872736939359849e+00
    8.4980017830190175e-03 -1.5005826374272937e+00
    8.6779653181454017e-03 -1.5799495566326660e+00
    9.0117063454733266e-03 -1.7148405074821662e+00
    8.9380106131192287e-03 -1.6861124537264920e+00
    8.8909294417890139e-03 -1.6674794765987526e+00
    8.9142702671024376e-03 -1.6767454815314295e+00
    8.9621581192192382e-03 -1.6955824957813170e+00
    8.9621581192192382e-03 -1.6955824957813170e+00
    8.8014162711687379e-03 -1.6313850933592118e+00
    8.6585740680438176e-03 -1.5716708477704053e+00
    8.6023194665211557e-03 -1.5473075272684504e+00
    8.5146605553071963e-03 -1.5081935841674778e+00
    8.4980017830190175e-03 -1.5005826374272937e+00
    8.5316044291052599e-03 -1.5158734579197346e+00
    8.5146605553071963e-03 -1.5081935841674778e+00
    8.4341349392367468e-03 -1.4708043058552855e+00
    8.4980017830190175e-03 -1.5005826374272937e+00
    8.5146605553071963e-03 -1.5081935841674778e+00
    8.5663649448078777e-03 -1.5314449846492020e+00
    8.5316044291052599e-03 -1.5158734579197346e+00
    8.5488377406431511e-03 -1.5236235005501100e+00
    8.5663649448078777e-03 -1.5314449846492020e+00
    8.5488377406431511e-03 -1.5236235005501100e+00
    8.5663649448078777e-03 -1.5314449846492020e+00
    8.5841906188963424e-03 -1.5393392145304763e+00
    8.5488377406431511e-03 -1.5236235005501100e+00
    8.6779653181454017e-03 -1.5799495566326660e+00
    8.6395061529724489e-03 -1.5634719199411431e+00
    8.8014162711687379e-03 -1.6313850933592118e+00
    8.6207563216765901e-03 -1.5553512937786182e+00
    8.5146605553071963e-03 -1.5081935841674778e+00
    8.4980017830190175e-03 -1.5005826374272937e+00
    8.3324404304611563e-03 -1.4210842759951012e+00
    8.0766245622719366e-03 -1.2755856082865613e+00
    7.8629628421229818e-03 -1.0736748938937608e+00
    8.0195629544801642e-03 -8.0919977166496626e-01
    8.2797083893876335e-03 -7.1739666883532849e-01
    7.8563923029608389e-03 -9.4352737238461948e-01
    7.8907402387001242e-03 -1.1164124737722174e+00
    8.1961551907296110e-03 -1.3483997249264845e+00
    8.4496944179966796e-03 -1.4781513815740643e+00
    8.7588739945251397e-03 -1.6138931695718579e+00
    8.9142702671024376e-03 -1.6767454815314295e+00
    9.0117063454733266e-03 -1.7148405074821662e+00
    9.1432841969583834e-03 -1.7649487946644828e+00
    8.9621581192192382e-03 -1.6955824957813170e+00
    8.9621581192192382e-03 -1.6955824957813170e+00
    8.9621581192192382e-03 -1.6955824957813170e+00
    8.6976853029394220e-03 -1.5883095645141958e+00
    8.6395061529724489e-03 -1.5634719199411431e+00
    8.6023194665211557e-03 -1.5473075272684504e+00
    8.4655227698361857e-03 -1.4855627054164144e+00
    8.4188405392082999e-03 -1.4635203763159204e+00
    8.3890322900443074e-03 -1.4491376746189442e+00
    8.4816238910609687e-03 -1.4930394055974099e+00
    8.5146605553071963e-03 -1.5081935841674778e+00
    8.5316044291052599e-03 -1.5158734579197346e+00
    8.5316044291052599e-03 -1.5158734579197346e+00
    8.5146605553071963e-03 -1.5081935841674778e+00
    8.5146605553071963e-03 -1.5081935841674778e+00
    8.5841906188963424e-03 -1.5393392145304763e+00
    8.6585740680438176e-03 -1.5716708477704053e+00
    8.5146605553071963e-03 -1.5081935841674778e+00
    8.6207563216765901e-03 -1.5553512937786182e+00
    8.5488377406431511e-03 -1.5236235005501100e+00
    8.5146605553071963e-03 -1.5081935841674778e+00
    8.5488377406431511e-03 -1.5236235005501100e+00
    8.5316044291052599e-03 -1.5158734579197346e+00
    8.6207563216765901e-03 -1.5553512937786182e+00
    8.4980017830190175e-03 -1.5005826374272937e+00
    8.4188405392082999e-03 -1.4635203763159204e+00
    8.4188405392082999e-03 -1.4635203763159204e+00
    8.3056042462108307e-03 -1.4073980356563061e+00
    8.0195629544801642e-03 -1.2357887817274755e+00
    7.8496927476586799e-03 -1.0417301923828326e+00
    8.1328179717177918e-03 -7.6264844657366526e-01
    8.5488377406431528e-03 -6.5633012331389373e-01
    7.9070431321766853e-03 -8.8023244674650780e-01
    7.8483839686736938e-03 -1.0372525522469718e+00
    8.1038548527574989e-03 -1.2932183856964952e+00
    8.4188405392082999e-03 -1.4635203763159204e+00
    8.6976853029394220e-03 -1.5883095645141958e+00
    8.8679807228754012e-03 -1.6583123951777001e+00
    8.8909294417890139e-03 -1.6674794765987526e+00
    8.8014162711687379e-03 -1.6313850933592118e+00
    8.8909294417890139e-03 -1.6674794765987526e+00
    8.7799660620998914e-03 -1.6225943732183961e+00
    8.9142702671024376e-03 -1.6767454815314295e+00
    8.8679807228754012e-03 -1.6583123951777001e+00
    8.6585740680438176e-03 -1.5716708477704053e+00
    8.5488377406431511e-03 -1.5236235005501100e+00
    8.4188405392082999e-03 -1.4635203763159204e+00
    8.4188405392082999e-03 -1.4635203763159204e+00
    8.4980017830190175e-03 -1.5005826374272937e+00
    8.4816238910609687e-03 -1.4930394055974099e+00
    8.4496944179966796e-03 -1.4781513815740643e+00
    8.4980017830190175e-03 -1.5005826374272937e+00
    8.6023194665211557e-03 -1.5473075272684504e+00
    8.4816238910609687e-03 -1.4930394055974099e+00
    8.4980017830190175e-03 -1.5005826374272937e+00
    8.5488377406431511e-03 -1.5236235005501100e+00
    8.5663649448078777e-03 -1.5314449846492020e+00
    8.5663649448078777e-03 -1.5314449846492020e+00
    8.4816238910609687e-03 -1.4930394055974099e+00
    8.4341349392367468e-03 -1.4708043058552855e+00
    8.4980017830190175e-03 -1.5005826374272937e+00
    8.4655227698361857e-03 -1.4855627054164144e+00
    8.4655227698361857e-03 -1.4855627054164144e+00
    8.6585740680438176e-03 -1.5716708477704053e+00
    8.5841906188963424e-03 -1.5393392145304763e+00
    8.5316044291052599e-03 -1.5158734579197346e+00
    8.3745113358404989e-03 -1.4420368229263414e+00
    8.2189341098059254e-03 -1.3611615393465686e+00
    7.9775516570906001e-03 -1.2030662579644695e+00
    7.8453326950657272e-03 -9.7661738291156908e-01
    8.2797083893876335e-03 -7.1739666883532849e-01
    9.1160518893080213e-03 -5.6990027617674022e-01
    7.9649092986224194e-03 -8.3862786937753475e-01
    7.8440260953609661e-03 -1.0151687965996192e+00
    7.9775516570906001e-03 -1.2030662579644695e+00
    8.2425775643668615e-03 -1.3741174468596111e+00
    8.4655227698361857e-03 -1.4855627054164144e+00
    8.7588739945251397e-03 -1.6138931695718579e+00
    8.9380106131192287e-03 -1.6861124537264920e+00
    8.9380106131192287e-03 -1.6861124537264920e+00
    8.8679807228754012e-03 -1.6583123951777001e+00
    8.9621581192192382e-03 -1.6955824957813170e+00
    9.0371235475253109e-03 -1.7246329970051528e+00
    8.7177395754865720e-03 -1.5967524293423470e+00
    8.6395061529724489e-03 -1.5634719199411431e+00
    8.5663649448078777e-03 -1.5314449846492020e+00
    8.3462186901047935e-03 -1.4280110945908331e+00
    8.3324404304611563e-03 -1.4210842759951012e+00
    8.3602412448343238e-03 -1.4349949568955949e+00
    8.3462186901047935e-03 -1.4280110945908331e+00
    8.3602412448343238e-03 -1.4349949568955949e+00
    8.5316044291052599e-03 -1.5158734579197346e+00
    8.4341349392367468e-03 -1.4708043058552855e+00
    8.4038075225527174e-03 -1.4562985164888127e+00
    8.4980017830190175e-03 -1.5005826374272937e+00
    8.5146605553071963e-03 -1.5081935841674778e+00
    8.4655227698361857e-03 -1.4855627054164144e+00
    8.5316044291052599e-03 -1.5158734579197346e+00
    8.5146605553071963e-03 -1.5081935841674778e+00
    8.5146605553071963e-03 -1.5081935841674778e+00
    8.6023194665211557e-03 -1.5473075272684504e+00
    8.5146605553071963e-03 -1.5081935841674778e+00
    8.5663649448078777e-03 -1.5314449846492020e+00
    8.5663649448078777e-03 -1.5314449846492020e+00
    8.4038075225527174e-03 -1.4562985164888127e+00
    8.4496944179966796e-03 -1.4781513815740643e+00
    8.2797083893876335e-03 -1.3939289704585180e+00
    8.1742215577024144e-03 -1.3358260132684010e+00
    7.9027352903248312e-03 -1.1311108542958477e+00
    7.8708692924283289e-03 -9.1936831315751555e-01
    8.4496944179966796e-03 -6.7652069501508894e-01
    9.6886657377271996e-03 -5.1006137045067068e-01
    8.1531149345212620e-03 -7.5560965183482531e-01
    7.8483839686736955e-03 -9.6408535976482046e-01
    7.9309378510438316e-03 -1.1612428034157403e+00
    8.1531149345212620e-03 -1.3234346564680963e+00
    8.3745113358404989e-03 -1.4420368229263414e+00
    8.6207563216765901e-03 -1.5553512937786182e+00
    8.8232310245018701e-03 -1.6402671094904606e+00
    8.8679807228754012e-03 -1.6583123951777001e+00
    8.9142702671024376e-03 -1.6767454815314295e+00
    9.0117063454733266e-03 -1.7148405074821662e+00
    8.9867206582768446e-03 -1.7051577713543355e+00
    9.0117063454733266e-03 -1.7148405074821662e+00
    8.6585740680438176e-03 -1.5716708477704053e+00
    8.5841906188963424e-03 -1.5393392145304763e+00
    8.4496944179966796e-03 -1.4781513815740643e+00
    8.4038075225527174e-03 -1.4562985164888127e+00
    8.3890322900443074e-03 -1.4491376746189442e+00
    8.4341349392367468e-03 -1.4708043058552855e+00
    8.3324404304611563e-03 -1.4210842759951012e+00
    8.3324404304611563e-03 -1.4210842759951012e+00
    8.3189033080770299e-03 -1.4142135623730951e+00
    8.3890322900443074e-03 -1.4491376746189442e+00
    8.5663649448078777e-03 -1.5314449846492020e+00
    8.5316044291052599e-03 -1.5158734579197346e+00
    8.5146605553071963e-03 -1.5081935841674778e+00
    8.3890322900443074e-03 -1.4491376746189442e+00
    8.4816238910609687e-03 -1.4930394055974099e+00
    8.4655227698361857e-03 -1.4855627054164144e+00
    8.5663649448078777e-03 -1.5314449846492020e+00
    8.5841906188963424e-03 -1.5393392145304763e+00
    8.5146605553071963e-03 -1.5081935841674778e+00
    8.5841906188963424e-03 -1.5393392145304763e+00
    8.3189033080770299e-03 -1.4142135623730951e+00
    8.3745113358404989e-03 -1.4420368229263414e+00
    8.2306465277039234e-03 -1.3676148472323519e+00
    8.1635659754205215e-03 -1.3296078906418778e+00
    7.8496927476586799e-03 -1.0417301923828326e+00
    7.9361937582503976e-03 -8.5736493214130904e-01
    8.6779653181454051e-03 -6.3293159949441169e-01
    1.0193202253956700e-02 -4.6954492963387634e-01
    8.3745113358404989e-03 -6.9346356771298590e-01
    7.9070431321766853e-03 -8.8023244674650780e-01
    7.8801236980851376e-03 -1.1019463300386798e+00
    8.0349626201547033e-03 -1.2469743601794927e+00
    8.2547297862296306e-03 -1.3806701271484074e+00
    8.4188405392082999e-03 -1.4635203763159204e+00
    8.6395061529724489e-03 -1.5634719199411431e+00
    8.8232310245018701e-03 -1.6402671094904606e+00
    8.7799660620998914e-03 -1.6225943732183961e+00
    8.8454169130897878e-03 -1.6492422502470636e+00
    8.5841906188963424e-03 -1.5393392145304763e+00
    8.8232310245018701e-03 -1.6402671094904606e+00
    8.6585740680438176e-03 -1.5716708477704053e+00
    8.6976853029394220e-03 -1.5883095645141958e+00
    8.5841906188963424e-03 -1.5393392145304763e+00
    8.4655227698361857e-03 -1.4855627054164144e+00
    8.5146605553071963e-03 -1.5081935841674778e+00
    8.5146605553071963e-03 -1.5081935841674778e+00
    8.2925402470088467e-03 -1.4006367978496232e+00
    8.3324404304611563e-03 -1.4210842759951012e+00
    8.3189033080770299e-03 -1.4142135623730951e+00
    8.3890322900443074e-03 -1.4491376746189442e+00
    8.3890322900443074e-03 -1.4491376746189442e+00
    8.4188405392082999e-03 -1.4635203763159204e+00
    8.4816238910609687e-03 -1.4930394055974099e+00
    8.5488377406431511e-03 -1.5236235005501100e+00
    8.5841906188963424e-03 -1.5393392145304763e+00
    8.4816238910609687e-03 -1.4930394055974099e+00
    8.6207563216765901e-03 -1.5553512937786182e+00
    8.5841906188963424e-03 -1.5393392145304763e+00
    8.5316044291052599e-03 -1.5158734579197346e+00
    8.5146605553071963e-03 -1.5081935841674778e+00
    8.4188405392082999e-03 -1.4635203763159204e+00
    8.3189033080770299e-03 -1.4142135623730951e+00
    8.1635659754205215e-03 -1.3296078906418778e+00
    7.9908681217004205e-03 -1.2138386446802349e+00
    7.8440260953609679e-03 -9.8505785771742738e-01
    8.0855118355628655e-03 -7.8038230361303529e-01
    9.4111458038447435e-03 -5.3673889616766146e-01
    1.1458544908681249e-02 -3.9587424507089086e-01
    8.6779653181454051e-03 -6.3293159949441169e-01
    8.0594098245797361e-03 -7.9112206761923021e-01
    7.8462041243623458e-03 -1.0283589470091681e+00
    7.9258420989268535e-03 -1.1561502571402333e+00
    8.1531149345212620e-03 -1.3234346564680963e+00
    8.2925402470088467e-03 -1.4006367978496232e+00
    8.4341349392367468e-03 -1.4708043058552855e+00
    8.6585740680438176e-03 -1.5716708477704053e+00
    8.6585740680438176e-03 -1.5716708477704053e+00
    8.6976853029394220e-03 -1.5883095645141958e+00
    8.6585740680438176e-03 -1.5716708477704053e+00
    8.5841906188963424e-03 -1.5393392145304763e+00
    8.6207563216765901e-03 -1.5553512937786182e+00
    8.5841906188963424e-03 -1.5393392145304763e+00
    8.5488377406431511e-03 -1.5236235005501100e+00
    8.3890322900443074e-03 -1.4491376746189442e+00
    8.3462186901047935e-03 -1.4280110945908331e+00
    8.2925402470088467e-03 -1.4006367978496232e+00
    8.2671058269926049e-03 -1.3872736939359849e+00
    8.3056042462108307e-03 -1.4073980356563061e+00
    8.3324404304611563e-03 -1.4210842759951012e+00
    8.3602412448343238e-03 -1.4349949568955949e+00
    8.5146605553071963e-03 -1.5081935841674778e+00
    8.4816238910609687e-03 -1.4930394055974099e+00
    8.5146605553071963e-03 -1.5081935841674778e+00
    8.5841906188963424e-03 -1.5393392145304763e+00
    8.6207563216765901e-03 -1.5553512937786182e+00
    8.5488377406431511e-03 -1.5236235005501100e+00
    8.4655227698361857e-03 -1.4855627054164144e+00
    8.5316044291052599e-03 -1.5158734579197346e+00
    8.4188405392082999e-03 -1.4635203763159204e+00
    8.4655227698361857e-03 -1.4855627054164144e+00
    8.3602412448343238e-03 -1.4349949568955949e+00
    8.2547297862296306e-03 -1.3806701271484074e+00
    8.0195629544801642e-03 -1.2357887817274755e+00
    7.8768882926642837e-03 -1.0971743112169152e+00
    7.8738036657519210e-03 -9.1539317456032021e-01
    8.3324404304611546e-03 -7.0368803377249367e-01
    1.0662273960203101e-02 -4.3852900965351466e-01
    1.2340314544229005e-02 -3.5866527110807533e-01
    9.3478689553662068e-03 -5.4338257605064211e-01
    8.2425775643668615e-03 -7.2773983205393877e-01
    7.8680846743565368e-03 -9.2335780791319622e-01
    7.8835104337677629e-03 -1.1067431421857195e+00
    8.0594098245797378e-03 -1.2640274376486027e+00
    8.2189341098059254e-03 -1.3611615393465686e+00
    8.3745113358404989e-03 -1.4420368229263414e+00
    8.3189033080770299e-03 -1.4142135623730951e+00
    8.4816238910609687e-03 -1.4930394055974099e+00
    8.6395061529724489e-03 -1.5634719199411431e+00
    8.5488377406431511e-03 -1.5236235005501100e+00
    8.4496944179966796e-03 -1.4781513815740643e+00
    8.6395061529724489e-03 -1.5634719199411431e+00
    8.7588739945251397e-03 -1.6138931695718579e+00
    8.5841906188963424e-03 -1.5393392145304763e+00
    8.4341349392367468e-03 -1.4708043058552855e+00
    8.4188405392082999e-03 -1.4635203763159204e+00
    8.3890322900443074e-03 -1.4491376746189442e+00
    8.3056042462108307e-03 -1.4073980356563061e+00
    8.1850838779717675e-03 -1.3420897210235643e+00
    8.4341349392367468e-03 -1.4708043058552855e+00
    8.4980017830190175e-03 -1.5005826374272937e+00
    8.5146605553071963e-03 -1.5081935841674778e+00
    8.5841906188963424e-03 -1.5393392145304763e+00
    8.5841906188963424e-03 -1.5393392145304763e+00
    8.6207563216765901e-03 -1.5553512937786182e+00
    8.6023194665211557e-03 -1.5473075272684504e+00
    8.5488377406431511e-03 -1.5236235005501100e+00
    8.6585740680438176e-03 -1.5716708477704053e+00
    8.5488377406431511e-03 -1.5236235005501100e+00
    8.4038075225527174e-03 -1.4562985164888127e+00
    8.2925402470088467e-03 -1.4006367978496232e+00
    8.2189341098059254e-03 -1.3611615393465686e+00
    8.0945880059839614e-03 -1.2873006086935783e+00
    7.9529318706354196e-03 -1.1819082944521735e+00
    7.8496927476586799e-03 -1.0417301923828326e+00
    8.0429304828467350e-03 -7.9832571276514208e-01
    8.9867206582768464e-03 -5.8645599650626001e-01
    1.1382839156328378e-02 -3.9950093555113786e-01
    1.3536996579777626e-02 -3.1921111289733695e-01
    1.0390523147790518e-02 -4.5584230583855173e-01
    8.5841906188963424e-03 -6.4962939328809088e-01
    7.9649092986224194e-03 -8.3862786937753475e-01
    7.8431553914829755e-03 -1.0021528550214216e+00
    7.9711468012495547e-03 -1.1977290903296911e+00
    8.0349626201547033e-03 -1.2469743601794927e+00
    8.1635659754205215e-03 -1.3296078906418778e+00
    8.1742215577024144e-03 -1.3358260132684010e+00
    8.2671058269926049e-03 -1.3872736939359849e+00
    8.3890322900443074e-03 -1.4491376746189442e+00
    8.4188405392082999e-03 -1.4635203763159204e+00
    8.5146605553071963e-03 -1.5081935841674778e+00
    8.6395061529724489e-03 -1.5634719199411431e+00
    8.7177395754865720e-03 -1.5967524293423470e+00
    8.8679807228754012e-03 -1.6583123951777001e+00
    8.6585740680438176e-03 -1.5716708477704053e+00
    8.4341349392367468e-03 -1.4708043058552855e+00
    8.3602412448343238e-03 -1.4349949568955949e+00
    8.2547297862296306e-03 -1.3806701271484074e+00
    8.2671058269926049e-03 -1.3872736939359849e+00
    8.3462186901047935e-03 -1.4280110945908331e+00
    8.3890322900443074e-03 -1.4491376746189442e+00
    8.5146605553071963e-03 -1.5081935841674778e+00
    8.6023194665211557e-03 -1.5473075272684504e+00
    8.5488377406431511e-03 -1.5236235005501100e+00
    8.5841906188963424e-03 -1.5393392145304763e+00
    8.6779653181454017e-03 -1.5799495566326660e+00
    8.5663649448078777e-03 -1.5314449846492020e+00
    8.5146605553071963e-03 -1.5081935841674778e+00
    8.4655227698361857e-03 -1.4855627054164144e+00
    8.2925402470088467e-03 -1.4006367978496232e+00
    8.2306465277039234e-03 -1.3676148472323519e+00
    8.1328179717177918e-03 -1.3112201362143716e+00
    8.0048684404679018e-03 -1.2247448713915889e+00
    7.8801236980851376e-03 -1.1019463300386798e+00
    7.8738036657519210e-03 -9.1539317456032021e-01
    8.2547297862296289e-03 -7.2428596834014802e-01
    9.6886657377271996e-03 -5.1006137045067068e-01
    1.2549531524252625e-02 -3.5098205908151697e-01
    1.4147368615281921e-02 -3.0257114167522303e-01
    1.1697946630639477e-02 -3.8490017945975058e-01
    9.2570908188860032e-03 -5.5333513830308911e-01
    8.1742215577024144e-03 -7.4860048394571466e-01
    7.8680846743565368e-03 -9.2335780791319622e-01
    7.8629628421229818e-03 -1.0736748938937608e+00
    7.9529318706354196e-03 -1.1819082944521735e+00
    7.9841250305268362e-03 -1.2084359562332876e+00
    8.0349626201547033e-03 -1.2469743601794927e+00
    8.0855118355628638e-03 -1.2814232144554951e+00
    8.2797083893876335e-03 -1.3939289704585180e+00
    8.4188405392082999e-03 -1.4635203763159204e+00
    8.3602412448343238e-03 -1.4349949568955949e+00
    8.5146605553071963e-03 -1.5081935841674778e+00
    8.6585740680438176e-03 -1.5716708477704053e+00
    8.6023194665211557e-03 -1.5473075272684504e+00
    8.6023194665211557e-03 -1.5473075272684504e+00
    8.6585740680438176e-03 -1.5716708477704053e+00
    8.4655227698361857e-03 -1.4855627054164144e+00
    8.4188405392082999e-03 -1.4635203763159204e+00
    8.4188405392082999e-03 -1.4635203763159204e+00
    8.4038075225527174e-03 -1.4562985164888127e+00
    8.4496944179966796e-03 -1.4781513815740643e+00
    8.5841906188963424e-03 -1.5393392145304763e+00
    8.5841906188963424e-03 -1.5393392145304763e+00
    8.5316044291052599e-03 -1.5158734579197346e+00
    8.4816238910609687e-03 -1.4930394055974099e+00
    8.6023194665211557e-03 -1.5473075272684504e+00
    8.5488377406431511e-03 -1.5236235005501100e+00
    8.4980017830190175e-03 -1.5005826374272937e+00
    8.3602412448343238e-03 -1.4349949568955949e+00
    8.2189341098059254e-03 -1.3611615393465686e+00
    8.1428662949190010e-03 -1.3173056280328643e+00
    8.0510790331404618e-03 -1.2583057392117916e+00
    7.9258420989268535e-03 -1.1561502571402333e+00
    7.8431553914829755e-03 -1.0021528550214216e+00
    8.0429304828467350e-03 -7.9832571276514208e-01
    8.8014162711687396e-03 -6.1297605578881642e-01
    1.0605500667950792e-02 -4.4200989880620722e-01
    1.3398166987344152e-02 -3.2328480343656213e-01
    1.7068440335109271e-02 -2.4336292348768701e-01
    1.3134902250586214e-02 -3.3133850193414255e-01
    1.0662273960203101e-02 -4.3852900965351466e-01
    8.7381338474503325e-03 -6.2294438073758829e-01
    7.9908681217004205e-03 -8.2383272635337235e-01
    7.8606247621301282e-03 -9.3541434669348522e-01
    7.8472211589823496e-03 -1.0327955589886448e+00
    7.8629628421229818e-03 -1.0736748938937608e+00
    7.8801236980851376e-03 -1.1019463300386798e+00
    7.9775516570906001e-03 -1.2030662579644695e+00
    8.1428662949190010e-03 -1.3173056280328643e+00
    8.1531149345212620e-03 -1.3234346564680963e+00
    8.2425775643668615e-03 -1.3741174468596111e+00
    8.4496944179966796e-03 -1.4781513815740643e+00
    8.4038075225527174e-03 -1.4562985164888127e+00
    8.4341349392367468e-03 -1.4708043058552855e+00
    8.5316044291052599e-03 -1.5158734579197346e+00
    8.4655227698361857e-03 -1.4855627054164144e+00
    8.4496944179966796e-03 -1.4781513815740643e+00
    8.4341349392367468e-03 -1.4708043058552855e+00
    8.4341349392367468e-03 -1.4708043058552855e+00
    8.5316044291052599e-03 -1.5158734579197346e+00
    8.5663649448078777e-03 -1.5314449846492020e+00
    8.5841906188963424e-03 -1.5393392145304763e+00
    8.4655227698361857e-03 -1.4855627054164144e+00
    8.5841906188963424e-03 -1.5393392145304763e+00
    8.4816238910609687e-03 -1.4930394055974099e+00
    8.4496944179966796e-03 -1.4781513815740643e+00
    8.4341349392367468e-03 -1.4708043058552855e+00
    8.3056042462108307e-03 -1.4073980356563061e+00
    8.1850838779717675e-03 -1.3420897210235643e+00
    8.0855118355628638e-03 -1.2814232144554951e+00
    8.0121282529859728e-03 -1.2302493704584914e+00
    7.9529318706354196e-03 -1.1819082944521735e+00
    7.8462041243623458e-03 -1.0283589470091681e+00
    7.8768882926642837e-03 -9.1143220341247688e-01
    8.3890322900443074e-03 -6.9006555934235436e-01
    9.7647671333424210e-03 -5.0335799609939313e-01
    1.2240382283160448e-02 -3.6247325599810615e-01
    1.5962742818240783e-02 -2.6261286571944514e-01
    2.1514418417166573e-02 -1.8877167127320346e-01
    1.4490722039698693e-02 -2.9402142461195091e-01
    1.1782128360379750e-02 -3.8120886275680282e-01
    1.0055582795130340e-02 -4.7974861141928304e-01
    8.4980017830190158e-03 -6.6640781724255571e-01
    8.0121282529859710e-03 -8.1284333405293163e-01
    7.8985826685591242e-03 -8.8795356773963063e-01
    7.8440260953609679e-03 -9.8505785771742738e-01
    7.8453326950657272e-03 -1.0239424543301914e+00
    7.8708692924283289e-03 -1.0877033564117085e+00
    7.9775516570906001e-03 -1.2030662579644695e+00
    8.0048684404679018e-03 -1.2247448713915889e+00
    8.0945880059839614e-03 -1.2873006086935783e+00
    8.2189341098059254e-03 -1.3611615393465686e+00
    8.3324404304611563e-03 -1.4210842759951012e+00
    8.3745113358404989e-03 -1.4420368229263414e+00
    8.3462186901047935e-03 -1.4280110945908331e+00
    8.3745113358404989e-03 -1.4420368229263414e+00
    8.4341349392367468e-03 -1.4708043058552855e+00
    8.3745113358404989e-03 -1.4420368229263414e+00
    8.4188405392082999e-03 -1.4635203763159204e+00
    8.4341349392367468e-03 -1.4708043058552855e+00
    8.4816238910609687e-03 -1.4930394055974099e+00
    8.3745113358404989e-03 -1.4420368229263414e+00
    8.3745113358404989e-03 -1.4420368229263414e+00
    8.3890322900443074e-03 -1.4491376746189442e+00
    8.4188405392082999e-03 -1.4635203763159204e+00
    8.3462186901047935e-03 -1.4280110945908331e+00
    8.2925402470088467e-03 -1.4006367978496232e+00
    8.1133142032255093e-03 -1.2991771517681105e+00
    8.0048684404679018e-03 -1.2247448713915889e+00
    7.9841250305268362e-03 -1.2084359562332876e+00
    7.8708692924283289e-03 -1.0877033564117085e+00
    7.8435907071762057e-03 -1.0108111250054497e+00
    7.8945845480744067e-03 -8.9183338991472816e-01
    8.0945880059839614e-03 -7.7681933283233173e-01
    9.3792232329899007e-03 -5.4006172486732174e-01
    1.1616015220006350e-02 -3.8857444461763180e-01
    1.3536996579777626e-02 -3.1921111289733695e-01
    1.8884767398075687e-02 -2.1747941810042001e-01
    2.8464862901012265e-02 -1.4048787173725408e-01
    1.5491512975697154e-02 -2.7185106641223389e-01
    1.3134902250586214e-02 -3.3133850193414255e-01
    1.1697946630639477e-02 -3.8490017945975058e-01
    9.8039215686274508e-03 -5.0000000000000000e-01
    8.4341349392367485e-03 -6.7990010365008491e-01
    8.1428662949189993e-03 -7.5912527717148082e-01
    7.9209056033265595e-03 -8.6874448552613870e-01
    7.8654493395449200e-03 -9.2736184954957046e-01
    7.8453326950657272e-03 -1.0239424543301914e+00
    7.8629628421229818e-03 -1.0736748938937608e+00
    7.8835104337677629e-03 -1.1067431421857195e+00
    7.9588380199761589e-03 -1.1871505485280567e+00
    8.0121282529859728e-03 -1.2302493704584914e+00
    8.1229679339277338e-03 -1.3051775251256144e+00
    8.1229679339277338e-03 -1.3051775251256144e+00
    8.2306465277039234e-03 -1.3676148472323519e+00
    8.2547297862296306e-03 -1.3806701271484074e+00
    8.2671058269926049e-03 -1.3872736939359849e+00
    8.1850838779717675e-03 -1.3420897210235643e+00
    8.1742215577024144e-03 -1.3358260132684010e+00
    8.2671058269926049e-03 -1.3872736939359849e+00
    8.2797083893876335e-03 -1.3939289704585180e+00
    8.2306465277039234e-03 -1.3676148472323519e+00
    8.1428662949190010e-03 -1.3173056280328643e+00
    8.1531149345212620e-03 -1.3234346564680963e+00
    8.0766245622719366e-03 -1.2755856082865613e+00
    8.0679244539676263e-03 -1.2697872068034854e+00
    8.0048684404679018e-03 -1.2247448713915889e+00
    7.9529318706354196e-03 -1.1819082944521735e+00
    7.9027352903248312e-03 -1.1311108542958477e+00
    7.8527491133234626e-03 -1.0507484942601846e+00
    7.8680846743565368e-03 -9.2335780791319622e-01
    7.9529318706354178e-03 -8.4608933255985830e-01
    8.1635659754205198e-03 -7.5210143309035493e-01
    8.9380106131192270e-03 -5.9308025261891129e-01
    1.0662273960203101e-02 -4.3852900965351466e-01
    1.2143377590925196e-02 -3.6625993701661480e-01
    1.4673471605042447e-02 -2.8968272975116055e-01
    1.9809273245987965e-02 -2.0639984704690686e-01
    2.3788764057135339e-02 -1.6959086634280354e-01
    1.8471389614983763e-02 -2.2284837793561055e-01
    1.4864302073009351e-02 -2.8529870107872790e-01
    1.3264224700619146e-02 -3.2732683535398860e-01
    1.1697946630639477e-02 -3.8490017945975058e-01
    9.9260368661801979e-03 -4.8989794855663554e-01
    8.6779653181454051e-03 -6.3293159949441169e-01
    8.1133142032255093e-03 -7.6971797005439435e-01
    7.9416107505632192e-03 -8.5359506518956929e-01
    7.8945845480744067e-03 -8.9183338991472816e-01
    7.8584347053172448e-03 -9.3946319412599066e-01
    7.8462041243623458e-03 -1.0283589470091681e+00
    7.8870490785635013e-03 -1.1115650782014173e+00
    7.9258420989268535e-03 -1.1561502571402333e+00
    7.9711468012495547e-03 -1.1977290903296911e+00
    8.0679244539676263e-03 -1.2697872068034854e+00
    8.1850838779717675e-03 -1.3420897210235643e+00
    8.1742215577024144e-03 -1.3358260132684010e+00
    8.1635659754205215e-03 -1.3296078906418778e+00
    8.1850838779717675e-03 -1.3420897210235643e+00
    8.1742215577024144e-03 -1.3358260132684010e+00
    8.1850838779717675e-03 -1.3420897210235643e+00
    8.0679244539676263e-03 -1.2697872068034854e+00
    8.0855118355628638e-03 -1.2814232144554951e+00
    8.0195629544801642e-03 -1.2357887817274755e+00
    7.9841250305268362e-03 -1.2084359562332876e+00
    7.9361937582503993e-03 -1.1663644762125425e+00
    7.9529318706354196e-03 -1.1819082944521735e+00
    7.9070431321766853e-03 -1.1360635519585471e+00
    7.8584347053172448e-03 -1.0644376557299067e+00
    7.8472211589823496e-03 -1.0327955589886448e+00
    7.8606247621301282e-03 -9.3541434669348522e-01
    8.0679244539676263e-03 -7.8753352895825923e-01
    8.3602412448343238e-03 -6.9686656053715790e-01
    9.1991913383657233e-03 -5.5996367920955226e-01
    1.0193202253956700e-02 -4.6954492963387634e-01
    1.1782128360379750e-02 -3.8120886275680282e-01
    1.3985832149569697e-02 -3.0678599553894814e-01
    1.6768485324623141e-02 -2.4828176658071038e-01
    2.0895333388143051e-02 -1.9479843061849489e-01
    2.7033798607640158e-02 -1.4824986333222021e-01
    2.1514418417166573e-02 -1.8877167127320346e-01
    1.8471389614983763e-02 -2.2284837793561055e-01
    1.5491512975697154e-02 -2.7185106641223389e-01
    1.3985832149569697e-02 -3.0678599553894814e-01
    1.2240382283160448e-02 -3.6247325599810615e-01
    1.0240992422852603e-02 -4.6613033253693620e-01
    8.8232310245018701e-03 -6.0965680175751624e-01
    8.2425775643668615e-03 -7.2773983205393877e-01
    8.0510790331404618e-03 -7.9471941423902615e-01
    7.9471897899133399e-03 -8.4983658559879749e-01
    7.8629628421229801e-03 -9.3138063084759948e-01
    7.8472211589823478e-03 -9.6824583655185426e-01
    7.8496927476586799e-03 -1.0417301923828326e+00
    7.8907402387001242e-03 -1.1164124737722174e+00
    7.9209056033265595e-03 -1.1510864433221337e+00
    7.9775516570906001e-03 -1.2030662579644695e+00
    8.0349626201547033e-03 -1.2469743601794927e+00
    8.0429304828467350e-03 -1.2526215603607755e+00
    8.0766245622719366e-03 -1.2755856082865613e+00
    8.0271739339053474e-03 -1.2413636077142658e+00
    8.0349626201547033e-03 -1.2469743601794927e+00
    8.0121282529859728e-03 -1.2302493704584914e+00
    7.9841250305268362e-03 -1.2084359562332876e+00
    7.9309378510438316e-03 -1.1612428034157403e+00
    7.8870490785635013e-03 -1.1115650782014173e+00
    7.8985826685591242e-03 -1.1261850127429462e+00
    7.8584347053172448e-03 -1.0644376557299067e+00
    7.8433004886606771e-03 -1.0064725594803927e+00
    7.8527491133234626e-03 -9.5170252963729829e-01
    7.8835104337677629e-03 -9.0355201842506006e-01
    8.0510790331404618e-03 -7.9471941423902615e-01
    8.5841906188963424e-03 -6.4962939328809088e-01
    9.3170702552103028e-03 -5.4670163852346909e-01
    1.0662273960203101e-02 -4.3852900965351466e-01
    1.1957634184462572e-02 -3.7377250079820101e-01
    1.3134902250586214e-02 -3.3133850193414255e-01
    1.5272633467174302e-02 -2.7638539919628335e-01
    1.8471389614983763e-02 -2.2284837793561055e-01
    2.8464862901012265e-02 -1.4048787173725408e-01
    3.4748079342599832e-02 -1.1433239009500590e-01
    2.5804087354976437e-02 -1.5565691404453527e-01
    1.8884767398075687e-02 -2.1747941810042001e-01
    1.7068440335109271e-02 -2.4336292348768701e-01
    1.7386670745066682e-02 -2.3836564731139806e-01
    1.4864302073009351e-02 -2.8529870107872790e-01
    1.2659125982070188e-02 -3.4710506725031159e-01
    1.1031654052872283e-02 -4.1742355496836087e-01
    9.5797600782302188e-03 -5.2008826489230509e-01
    8.6585740680438159e-03 -6.3626553958076815e-01
    8.2547297862296289e-03 -7.2428596834014802e-01
    8.0048684404679018e-03 -8.1649658092772603e-01
    7.8945845480744067e-03 -8.9183338991472816e-01
    7.8680846743565368e-03 -9.2335780791319622e-01
    7.8511477147241767e-03 -9.5581391856029163e-01
    7.8433004886606771e-03 -9.9356906512807996e-01
    7.8654493395449183e-03 -1.0783277320343840e+00
    7.8835104337677629e-03 -1.1067431421857195e+00
    7.8801236980851376e-03 -1.1019463300386798e+00
    7.8768882926642837e-03 -1.0971743112169152e+00
    7.8945845480744067e-03 -1.1212856698442455e+00
    7.8907402387001242e-03 -1.1164124737722174e+00
    7.8768882926642837e-03 -1.0971743112169152e+00
    7.8584347053172448e-03 -1.0644376557299067e+00
    7.8511477147241784e-03 -1.0462287486943735e+00
    7.8544972116896400e-03 -1.0552897060221724e+00
    7.8431553914829755e-03 -9.9785176980673718e-01
    7.8654493395449200e-03 -9.2736184954957046e-01
    7.8870490785635013e-03 -8.9963243683227545e-01
    7.9841250305268362e-03 -8.2751592655105555e-01
    8.2547297862296289e-03 -7.2428596834014802e-01
    8.5663649448078777e-03 -6.5297807627680693e-01
    9.8039215686274508e-03 -5.0000000000000000e-01
    1.1098468729219440e-02 -4.1386547906379589e-01
    1.2049169254467159e-02 -3.7002610097589472e-01
    1.3830501108235697e-02 -3.1096320233678326e-01
    1.5272633467174302e-02 -2.7638539919628335e-01
    1.6768485324623141e-02 -2.4828176658071038e-01
    2.2948826558530505e-02 -1.7618776519129872e-01
    2.7033798607640158e-02 -1.4824986333222021e-01
    3.8023216680995987e-02 -1.0425720702853737e-01
    3.0158495957829851e-02 -1.3230824033112448e-01
    3.0158495957829851e-02 -1.3230824033112448e-01
    2.7033798607640158e-02 -1.4824986333222021e-01
    2.0329315612559004e-02 -2.0067001862719533e-01
    1.9329373105998325e-02 -2.1199957600127192e-01
    1.5721249524260256e-02 -2.6726124191242434e-01
    1.5063804782313424e-02 -2.8086706981216641e-01
    1.2443314411784282e-02 -3.5483515935539695e-01
    1.0605500667950792e-02 -4.4200989880620722e-01
    8.9867206582768464e-03 -5.8645599650626001e-01
    8.6779653181454051e-03 -6.3293159949441169e-01
    8.2671058269926049e-03 -7.2083829194712934e-01
    8.0510790331404618e-03 -7.9471941423902615e-01
    7.9416107505632192e-03 -8.5359506518956929e-01
    7.9258420989268535e-03 -8.6493947808611438e-01
    7.8680846743565368e-03 -9.2335780791319622e-01
    7.8431553914829755e-03 -1.0021528550214216e+00
    7.8440260953609661e-03 -1.0151687965996192e+00
    7.8446067257400432e-03 -1.0195458225163430e+00
    7.8431553914829755e-03 -9.9785176980673718e-01
    7.8435907071762057e-03 -9.8930450532448266e-01
    7.8462041243623475e-03 -9.7242310470323035e-01
    7.8584347053172448e-03 -9.3946319412599066e-01
    7.8496927476586799e-03 -9.5994145827013089e-01
    7.8527491133234626e-03 -9.5170252963729829e-01
    7.9309378510438334e-03 -8.6114634860043682e-01
    8.0429304828467350e-03 -7.9832571276514208e-01
    8.2189341098059237e-03 -7.3466665865394243e-01
    8.5316044291052582e-03 -6.5968567150210666e-01
    9.3478689553662068e-03 -5.4338257605064211e-01
    1.0100524859085460e-02 -4.7635378528977240e-01
    1.1098468729219440e-02 -4.1386547906379589e-01
    1.2659125982070188e-02 -3.4710506725031159e-01
    1.4864302073009351e-02 -2.8529870107872790e-01
    1.8085799826875824e-02 -2.2811444297769184e-01
    1.9329373105998325e-02 -2.1199957600127192e-01
    2.2195293179947909e-02 -1.8257418583505539e-01
    2.8464862901012265e-02 -1.4048787173725408e-01
    4.2465115934739096e-02 -9.3149286566524464e-02
    5.9924894638011823e-02 -6.5724077990077484e-02
    4.8981395852523119e-02 -8.0582296402538042e-02
    3.8023216680995987e-02 -1.0425720702853737e-01
    2.7033798607640158e-02 -1.4824986333222021e-01
    2.2195293179947909e-02 -1.8257418583505539e-01
    2.1514418417166573e-02 -1.8877167127320346e-01
    1.8884767398075687e-02 -2.1747941810042001e-01
    2.0895333388143051e-02 -1.9479843061849489e-01
    1.6485155128733719e-02 -2.5312689810571776e-01
    1.3830501108235697e-02 -3.1096320233678326e-01
    1.1697946630639477e-02 -3.8490017945975058e-01
    9.9260368661801979e-03 -4.8989794855663554e-01
    9.2570908188860032e-03 -5.5333513830308911e-01
    8.6779653181454051e-03 -6.3293159949441169e-01
    8.2925402470088467e-03 -7.1396096513763263e-01
    8.1038548527574972e-03 -7.7326460175666700e-01
    8.0429304828467350e-03 -7.9832571276514208e-01
    7.9977821671496935e-03 -8.2015966159254439e-01
    7.9841250305268362e-03 -8.2751592655105555e-01
    7.9529318706354178e-03 -8.4608933255985830e-01
    7.9841250305268362e-03 -8.2751592655105555e-01
    7.9775516570906001e-03 -8.3120941459363340e-01
    8.0594098245797361e-03 -7.9112206761923021e-01
    8.0594098245797361e-03 -7.9112206761923021e-01
    8.0679244539676263e-03 -7.8753352895825923e-01
    8.1328179717177918e-03 -7.6264844657366526e-01
    8.2425775643668615e-03 -7.2773983205393877e-01
    8.6976853029394202e-03 -6.2960018773535675e-01
    9.2868148391746907e-03 -5.5001909821692685e-01
    1.0442526221734656e-02 -4.5239718438031101e-01
    1.1536243243422589e-02 -3.9223227027636803e-01
    1.2772269305217866e-02 -3.4320323649182199e-01
    1.5272633467174302e-02 -2.7638539919628335e-01
    1.5962742818240783e-02 -2.6261286571944514e-01
    2.0329315612559004e-02 -2.0067001862719533e-01
    2.7033798607640158e-02 -1.4824986333222021e-01
    3.4748079342599832e-02 -1.1433239009500590e-01
    3.4748079342599832e-02 -1.1433239009500590e-01
    4.2465115934739096e-02 -9.3149286566524464e-02
    5.9924894638011823e-02 -6.5724077990077484e-02
    5.9924894638011823e-02 -6.5724077990077484e-02
    5.9924894638011823e-02 -6.5724077990077484e-02
    3.4748079342599832e-02 -1.1433239009500590e-01
    2.7033798607640158e-02 -1.4824986333222021e-01
    2.5804087354976437e-02 -1.5565691404453527e-01
    3.2205571734883420e-02 -1.2362783988552023e-01
    2.3788764057135339e-02 -1.6959086634280354e-01
    2.4732786492064653e-02 -1.6275769175423191e-01
    2.1514418417166573e-02 -1.8877167127320346e-01
    1.9809273245987965e-02 -2.0639984704690686e-01
    1.6768485324623141e-02 -2.4828176658071038e-01
    1.3264224700619146e-02 -3.2732683535398860e-01
    1.3398166987344152e-02 -3.2328480343656213e-01
    1.0720339370273183e-02 -4.3503828799366656e-01
    9.6153855404590028e-03 -5.1674942936789348e-01
    9.1991913383657233e-03 -5.5996367920955226e-01
    8.9142702671024376e-03 -5.9639343657969213e-01
    8.8679807228754012e-03 -6.0302268915552726e-01
    8.8014162711687396e-03 -6.1297605578881642e-01
    8.6207563216765919e-03 -6.4294156824891224e-01
    8.7381338474503325e-03 -6.2294438073758829e-01
    8.7799660620998914e-03 -6.1629697261707617e-01
    8.8679807228754012e-03 -6.0302268915552726e-01
    8.9142702671024376e-03 -5.9639343657969213e-01
    9.2570908188860032e-03 -5.5333513830308911e-01
    9.5447891766450733e-03 -5.2342392259021364e-01
    9.8039215686274508e-03 -5.0000000000000000e-01
    1.0902735774635705e-02 -4.2450329290275152e-01
    1.2049169254467159e-02 -3.7002610097589472e-01
    1.2889145500038774e-02 -3.3927557187198837e-01
    1.4147368615281921e-02 -3.0257114167522303e-01
    1.6768485324623141e-02 -2.4828176658071038e-01
    2.1514418417166573e-02 -1.8877167127320346e-01
    2.3788764057135339e-02 -1.6959086634280354e-01
    3.4748079342599832e-02 -1.1433239009500590e-01
    3.4748079342599832e-02 -1.1433239009500590e-01
    4.2465115934739096e-02 -9.3149286566524464e-02
    4.8981395852523119e-02 -8.0582296402538042e-02
    5.9924894638011823e-02 -6.5724077990077484e-02
    8.4655227698361882e-02 -4.6423834544262965e-02</input_scale>
  <output_scale>
    1.0526315789473684e+00 0. 1.0526315789473684e+00 0.
    1.0526315789473684e+00 0. 1.0526315789473684e+00 0.
    1.0526315789473684e+00 0. 1.0526315789473684e+00 0.
    1.0526315789473684e+00 0. 1.0526315789473684e+00 0.</output_scale>
  <inv_output_scale>
    9.4999999999999996e-01 0. 9.4999999999999996e-01 0.
    9.4999999999999996e-01 0. 9.4999999999999996e-01 0.
    9.4999999999999996e-01 0. 9.4999999999999996e-01 0.
    9.4999999999999996e-01 0. 9.4999999999999996e-01 0.</inv_output_scale>
  <weights>
    <_>
      -1.1719048386403424e-03 -2.2903224389177911e-04
      -9.9637750405231888e-04 -5.5088375721748159e-04
      2.2039270841974236e-04 1.2144499427915077e-03
      9.9728247011042037e-04 2.0453599492093418e-04
      -7.2831549546728146e-04 -4.2920232853557353e-04
      -1.1054717958401724e-03 -1.2409612586460942e-04
      -2.1397120762249158e-05 -7.8018402384446585e-04
      6.7194088742161514e-04 -1.1208781013474275e-03
      1.1037170489498088e-03 1.0083693640301039e-03
      -2.5698247005999147e-04 -3.4383640164285737e-05
      3.0002183913935715e-04 -7.7645728251324352e-04
      -6.5397802009701264e-04 9.5527311481024093e-04
      -1.0954164450422850e-03 -3.1663012947851025e-04
      6.1523554708813478e-04 -6.3403300196013517e-04
      1.0630743572223426e-03 -2.4215284090006096e-04
      1.2150750992007805e-03 -3.7732545206526025e-04
      2.2581237915161135e-04 8.1166924113520002e-04
      1.1322676431532379e-03 5.1786688077618958e-04
      8.1904968067006900e-04 5.2277548999592920e-04
      1.2256443938238879e-03 -1.5902424652943092e-04
      -9.6310054958557328e-04 -4.3592939338862589e-06
      -9.7104604700402354e-04 -1.4216408108205336e-04
      5.0670754388380439e-05 -4.3037758367267103e-04
      -2.8042684505847726e-04 9.4125990658394361e-04
      -8.9584930033651141e-04 -3.2985932958439119e-04
      8.2161545060726096e-04 -5.5093696276745650e-04
      -1.6305821300132049e-04 -8.7066563865171003e-04
      -6.5429700141927255e-04 -4.3847881428995015e-04
      1.2242779940651745e-03 -6.2744881264040534e-04
      -7.2912025233702246e-04 -1.6233949249783682e-04
      2.2841960653678161e+01 -2.8366792628425103e-03
      -1.1886047908524919e-02 9.2114062411697388e-03
      -1.9302509861526665e-02 -1.5909921751859717e-03
      1.8371944808052365e-01 3.6696355918597089e-03
      -4.1542234408083970e-03 4.0481858792379344e-01
      -1.5874897766731057e-03 -4.6177114926789298e-03
      -2.7002490446840572e-04 1.1340006082887854e-02
      -2.6829299098892229e-02 -4.9640270952033366e-01
      -9.4476424419886462e-03 -5.9930109455216308e-04
      -5.3608992981527904e-03 6.5017955460777719e-03
      6.8101796794706633e-03 1.1226719534113170e-02
      1.4739280684626060e-01 -7.4597634364036436e-03
      1.4100135953195797e-01 1.4468529122251449e-02
      -2.4784464461768468e-03 2.8451538022881305e-03
      -4.4640277781001917e-03 -3.2542770495663009e-02
      8.5356914573349128e-03 1.1032547260782370e-01
      -1.0717938074735176e-02 -5.2638673044296614e-03
      -5.6740275596487977e-03 -6.9499749069604506e-03
      -1.2018120810295558e-02 -3.0186613373305174e-03
      -2.5935046476518093e-03 5.8962224748699843e-01
      7.3106297605323575e-03 -2.3626227364344551e-02
      3.4852935683332173e-03 -1.3666032467327973e-02
      1.0960456014358208e-02 -1.5824460283711426e-03
      2.6677219810857647e-02 -2.1415096402870645e-03
      -4.4604240905792300e-03 7.7005915948104520e-02
      -1.8475690856376955e-02 -1.0704439200051066e-02
      -1.6395210504309483e-02 1.7010363962154849e-02
      1.8126031886448502e-02 -1.6706691361644804e-01
      6.0522317441965351e-03 1.4700685629035747e-02
      1.1968448432366298e-01 -1.5426600495851263e-02
      -3.5118472577783262e+00 2.7661944698045376e-02
      -9.2359667824840175e-02 8.4569753312724136e-02
      6.2427209666615028e-03 -1.7174576588876275e-02
      2.6758534654763737e-02 -8.3664388087953567e-02
      -3.6297312159906642e-02 1.5471250397744474e-01
      4.5624394642570065e-02 -8.6727516705519772e-02
      -6.6896864240621801e-02 8.5483679173430971e-02
      1.2665447574759550e-01 -4.0803503703143944e-02
      5.0917820278539846e-02 5.3764499800284596e-03
      -5.7907456597082067e-02 1.8471671176155165e-03
      4.7135027324178555e-02 3.7641428894918394e-02
      -2.5943107499650741e-02 3.5039910047312563e-03
      -2.3826080855925469e-02 4.3017479538741264e-02
      1.3924175209800100e-02 -1.2426209961003137e-02
      -5.8738119167249005e-02 -1.0100851451925557e-02
      2.9079015373379664e-02 -1.5707447170387398e-02
      -4.6094025196430306e-02 8.0424834843412975e-03
      1.2377961331561851e-02 -3.4023171443550930e-02
      -1.5418120863818546e-03 -1.2786908160989924e-01
      4.5520726897125892e-02 9.2866259750835345e-02
      -5.7105826649877234e-02 -9.5828694633976197e-02
      9.5822913071954452e-02 -3.2120041896062210e-03
      4.5454249475377365e-02 -8.6143827849726809e-03
      1.9266850055490527e-02 9.6141442368356117e-03
      3.1990012730214652e-03 2.3662602212464138e-02
      -5.2254196899164489e-02 -8.1952249605551100e-02
      4.8593475968809911e-02 2.5572311160199819e-02
      -1.8215328016685272e-03 6.2685534986423139e-02
      -1.3493030242850186e-02 4.6621514698969172e-03
      3.2914349975865266e-02 5.3456653502645994e-02
      -3.5135039514748865e+00 2.8655305961982912e-02
      -9.1669201837460718e-02 8.5406998434780154e-02
      6.3956310506876664e-03 -1.8629014792765079e-02
      2.7772453165146087e-02 -8.4097391438489599e-02
      -3.5466090832762018e-02 1.5477579670711442e-01
      4.6689611009848780e-02 -8.5152996029189229e-02
      -6.6912446803474634e-02 8.5689621497549190e-02
      1.2546480599228213e-01 -3.9224928897249219e-02
      5.0785719179758160e-02 5.2374926674821345e-03
      -5.7863005293879478e-02 1.1728683520161570e-04
      4.6891903886957714e-02 3.6314062938303693e-02
      -2.4208594917639364e-02 2.3643098605804313e-03
      -2.2262515112140113e-02 4.1952549587002640e-02
      1.3819674576995471e-02 -1.2445854323545716e-02
      -5.8599239781411010e-02 -9.1075411742035824e-03
      2.8686371952179195e-02 -1.4060264564438631e-02
      -4.3980990543501304e-02 8.3382482759577353e-03
      1.2111900718639532e-02 -3.5034791037438867e-02
      4.2598965421179280e-04 -1.2745498113147596e-01
      4.7433010542850949e-02 9.1691955368791017e-02
      -5.6639372834961510e-02 -9.6519607399597002e-02
      9.4295630862128749e-02 -2.3527750443606515e-03
      4.5461697196392870e-02 -8.6585444608564752e-03
      1.8443313774297986e-02 9.5210342022944566e-03
      2.2503404016630357e-03 2.3917425947188913e-02
      -5.1439129171180480e-02 -8.3106688684312965e-02
      4.9067367239984831e-02 2.4739417761000491e-02
      -3.8757497531979169e-04 6.4723701947463158e-02
      -1.3035412997757867e-02 5.8446563091772196e-03
      3.2906535155120771e-02 5.4920530931698373e-02
      -2.8252901875293239e+00 -6.3121101722447406e-02
      -5.9656226365747550e-02 8.6354425366344231e-02
      -4.8438120387775804e-03 -1.1271341561734437e-03
      2.2883941123332717e-02 -9.2112678977195703e-02
      -2.6383647226901003e-01 1.3551064244501312e-01
      3.7694496391327784e-02 -5.5046234346647772e-02
      -1.9290753002471110e-03 1.1276223650339795e-01
      1.1526103738640461e-01 -3.2669779578800816e-02
      1.9381387062220357e-02 5.4784876925189499e-03
      5.3236898643216783e-02 -4.7503667187346645e-03
      1.1278029929157602e-02 3.7874067246818154e-02
      -1.7462111840454837e-02 1.1366681051555874e-01
      1.1603868509750419e-02 -4.6210635020656081e-02
      1.3670032443658872e-02 1.1700628729447396e-01
      -8.0726970172201984e-02 7.6299278054076211e-04
      3.1497424168554930e-02 2.1814589820604822e-03
      -4.0706906907661045e-02 1.8812369192003099e-03
      9.0233821241841698e-03 2.8877245335653695e-02
      -4.6044578308759083e-02 -1.1217790755821881e-01
      3.5532674949242164e-02 5.4642725191805616e-02
      -4.7429359817131256e-02 -8.1311092054589515e-02
      8.7721600205777989e-02 6.4486051528118205e-02
      4.6083869928804040e-02 -3.8968967267073405e-02
      2.6359374596716900e-02 5.7376835429117486e-02
      2.9051965363657364e-02 1.4373445457456733e-02
      -5.1838490327769229e-02 -7.9370959436428745e-02
      4.1511946425232600e-02 2.5388288323733611e-02
      4.7857696623285571e-03 6.1822243790173426e-02
      2.2500632132405298e-02 1.1417989381772062e-01
      2.1684162651612018e-02 4.3924194296349681e-02
      -2.8884574931084681e+00 -1.3462925851716392e-01
      3.1823093715083232e-02 1.3501314700309529e-02
      4.2270976832597791e-02 -2.2749725941323174e-02
      -3.7106730822874475e-03 3.4726907519897550e-02
      -1.5164859312861720e-01 -6.0470413798587828e-02
      1.0620352561125232e-01 8.5485828142546974e-03
      9.3817581857555718e-02 5.8401120210605152e-02
      1.6192511186086413e-03 1.9050021090960233e-02
      -8.2787041953656881e-02 -8.5818769083210421e-03
      1.3694139801806440e-01 1.7462096071778910e-03
      1.6760315283733701e-01 4.0360288888352854e-03
      -4.6529122814986432e-02 9.9232373938077864e-02
      -3.7002793465531543e-02 -7.6056200089935161e-02
      -4.2350178873242217e-02 1.0614956523511768e-01
      -1.4758221442416544e-01 1.5622517820052396e-02
      6.4875686606220118e-02 -1.5472583677960771e-02
      -1.1758291761045307e-02 4.5179912304782251e-02
      -9.1876647777793790e-03 6.2840544533593071e-02
      -7.4097555225791853e-02 9.9629826121638732e-02
      7.3969884816867310e-02 -1.1670635957684393e-01
      -1.3426741232188660e-01 1.0855540785494364e-02
      -3.7584292000910006e-02 7.6030868550294381e-02
      2.0984470016433894e-02 -1.1085056835489202e-01
      9.5143329464970772e-03 6.2914186213461704e-02
      1.4866735700328940e-01 -3.7770923003160171e-02
      -6.2458556726761406e-02 9.6516995784015264e-02
      2.7892202734939111e-02 -3.4784149419289319e-02
      -8.2898006807813583e-03 5.5258565264594932e-02
      4.5152294553975431e-02 1.5555989721750735e-01
      -7.8692535515524388e-03 -5.6907280265980187e-02
      -4.7202052441229974e+00 -9.6316009724942420e-02
      2.0569235221993065e-02 -4.0207525299158595e-02
      9.3099856226043637e-03 -1.8394198002028565e-02
      -1.3435064174961411e-01 3.0575860050002672e-02
      1.6930441297131706e-02 -1.6078809199386998e-01
      3.0288161159820023e-02 6.5004396782271951e-03
      1.3669545636963312e-01 5.8018149617035386e-02
      -8.7613178817245146e-02 3.2250763862476196e-02
      -7.3896777952393342e-02 5.4317143017381712e-02
      2.1821110966782499e-02 -5.5779055978057573e-02
      -2.1323516019727474e-02 3.6992258245662525e-03
      -1.9132473963988453e-01 6.4344595688774181e-02
      6.6539141200341254e-02 -9.0466777738938312e-02
      -2.5570454671138915e-02 8.9654341992191536e-02
      -4.7549485173413404e-02 -5.1269193041048149e-02
      5.7035426557864873e-02 2.7418867065483788e-02
      -1.9652527827174932e-02 2.2106637676543126e-02
      -1.3376449956159605e-02 4.0420022530211167e-02
      -7.2262709308300491e-02 7.2902335746214686e-02
      -6.5349613453725294e-02 -5.1051955282136539e-02
      -1.0233214245266560e-01 7.8465127665229326e-02
      -5.7142771792535810e-02 3.3845866098394977e-03
      2.8344267587332151e-02 -1.0694725673839818e-01
      1.9717467206718263e-02 6.2420210043519185e-02
      2.2274224928546377e-02 -1.5686827896911105e-02
      -1.3929180513063680e-01 6.0977616652026577e-02
      9.0041366390721037e-02 -8.7994367673807347e-02
      1.5952657075598932e-02 5.9317650397079688e-02
      4.0527084225817550e-02 1.2486322143409029e-01
      -1.3336764224796793e-02 -6.2324292131309057e-02
      -1.9825363953770856e+00 -8.8625690862892167e-02
      -1.6209514155607868e-02 -3.6812769516096883e-02
      3.1137567094634250e-02 -8.6461859885159555e-03
      -3.9010308082298870e-02 5.8238187375332200e-02
      -1.7056651352067939e-01 8.0313273492922832e-02
      3.7895986014773683e-03 2.9462610622269153e-02
      4.8236651090175421e-02 1.0984781933058164e-01
      5.6400192306452650e-02 4.3403129114552574e-02
      -6.7861664014295942e-02 7.4175483115230863e-03
      5.8688360103055372e-02 7.8607981701306322e-03
      7.1957114215589965e-02 -8.8161256881353709e-03
      -1.9679649159811410e-01 3.6157258527421778e-02
      -7.0700339405155743e-02 -3.1748588754718095e-02
      -4.0118378176107451e-02 6.0828307789724055e-02
      -6.9790961962446801e-02 -3.1727855409566484e-02
      4.1190011939480856e-03 3.5252642355410237e-02
      5.1429613618590012e-02 5.7624409571383421e-02
      -3.2473277329793090e-02 7.8490075361038580e-02
      -8.8343128582776972e-02 -2.5355964432430655e-02
      -4.5881876159213360e-02 8.3705982509533067e-03
      -7.2118311333815480e-02 -2.0224782936675133e-02
      -1.1267798618391559e-02 4.6577951301807252e-02
      -1.2683522061004713e-03 -3.7323542266548673e-02
      2.5999352276228974e-02 4.7296491135815688e-02
      -5.8062696245588304e-02 1.1773769602046130e-02
      -6.1334863011668402e-03 6.8352078448460724e-02
      1.1362894087284234e-01 -1.0744092711582399e-01
      -4.3200075495589182e-03 7.0425862658995983e-03
      1.2967526610684520e-02 -6.9170003422109050e-02
      -1.9309696894476078e-02 -5.9253793308163195e-02
      -2.9823283180132591e+00 -9.0721173888114598e-02
      6.1590960908589499e-03 -7.6904469146829732e-02
      3.9868072056733296e-02 5.2940214259586220e-02
      -8.1776425358480287e-02 5.7343844443989669e-02
      -1.4973356262920862e-01 1.3240193499287006e-01
      -2.4865209848353408e-02 1.3057940110761287e-01
      2.5014680780977717e-02 3.7827141818606164e-02
      4.3080466429246358e-02 4.4308863153171382e-02
      -1.4895494393203479e-02 -1.6495430693341221e-03
      4.2864495215709647e-02 -1.3270974382226372e-02
      -6.4945373601344919e-02 -1.0368473777392332e-02
      -1.5803608644313247e-01 2.4410008949194668e-02
      -4.3400822570078434e-02 -3.0429437894476503e-02
      -2.3417017331001974e-02 6.3531915487664195e-02
      5.1346075162107457e-02 9.7994794469082880e-03
      1.9158637656997678e-02 -2.5898019541486808e-02
      5.7793790686766627e-02 5.5035935145483723e-02
      3.4126770404220401e-02 1.1809936066333677e-01
      -8.9499678567454347e-02 -9.7816379900985295e-02
      -1.1682885875348033e-01 -1.6885542911111183e-02
      -1.9704275570474853e-03 -4.1716072561660850e-02
      -5.6583222239515226e-03 5.8603328321972514e-02
      -3.5324806420392540e-02 -3.6481584522399933e-02
      -7.8184600603602702e-02 9.4764933248040070e-02
      -1.9511868729207479e-01 1.3685352623590960e-01
      1.7092126394357174e-01 4.7966606129244950e-02
      8.2831190702095284e-02 -1.6022346894144140e-01
      -3.2182931516673034e-03 -6.4328572931525593e-02
      6.0457364557424407e-03 -6.7739861605623578e-02
      5.5491456546660642e-02 -6.1360900360156061e-02
      -3.5114320307076259e+00 -1.0405223958516190e-01
      4.0450318964484703e-03 -6.7043886638700201e-02
      5.9282717192322462e-02 4.2012790871365779e-02
      -2.4277252964656409e-02 7.6380679856100003e-02
      -1.2416644263751832e-01 8.3230828510793775e-02
      3.4635476657683711e-02 1.2841999542899873e-01
      6.1507285867100442e-02 3.6031617050829141e-02
      1.4161428659057002e-02 3.0445639255501977e-02
      -1.4304602668189080e-02 -2.9325342103284018e-02
      1.4171215869939323e-02 1.0306464916469785e-02
      -1.0485899175801750e-02 -1.6048204141273355e-04
      -2.7992064847605753e-02 3.8918183646419531e-02
      -4.6521793039496002e-02 1.0072068232616748e-03
      -3.0767844211933255e-02 8.2736198930683680e-02
      1.2095933665338976e-01 -9.2466238205702305e-03
      2.4473940219507950e-02 -5.9170453837640420e-02
      7.0363147279139532e-02 9.0977468802296235e-02
      3.8687528469880342e-02 1.0333961485953645e-01
      -7.0773217220989351e-02 -7.2265202942676465e-02
      -3.8906018873436185e-02 -3.0491009799539101e-02
      -2.6342547272303864e-02 -3.4263392537769374e-02
      -2.2888597298729208e-02 3.3153945360793503e-02
      -2.6493546080065482e-02 -2.0271296598502579e-02
      -7.4753532079574539e-02 6.6099939566843041e-02
      -1.2765428602744136e-01 1.6943107422326070e-01
      1.2429925068677461e-01 5.9596068842835206e-02
      3.8422604610759678e-02 -1.3408224152305354e-01
      -3.0012390499857950e-02 -6.9213302058991719e-02
      3.3667420938216584e-02 -6.9577060694774387e-02
      3.6166718626859926e-02 -2.2799546368895248e-02
      -4.9608563388917098e-01 -1.0191110936866746e-01
      -5.2996224468896368e-02 6.1132873657796523e-02
      6.0144909573294894e-02 2.5685690020582186e-02
      -2.1001811916121410e-02 -9.2896175509896997e-02
      -1.0052237931564167e-01 1.0744246924090116e-01
      -6.3020869135326660e-02 -4.3330036828721344e-02
      -8.9740261893017689e-02 9.5300215325929541e-02
      6.1465217486472143e-02 7.8087687571867223e-02
      -1.3345619351439771e-02 -4.3958603345531984e-02
      -9.8318962977619676e-02 2.4978719694069274e-02
      -3.2867160415955048e-02 -3.6214538780569634e-02
      1.0897424506926086e-01 9.7115958720617943e-02
      -2.7245126518147735e-02 -8.5943978454797232e-02
      6.4675065433027853e-02 1.4898316026120753e-01
      4.8249933615525757e-02 -8.5750859096006216e-02
      2.3297034954179861e-02 -1.0194600130522287e-02
      4.8849236681020099e-02 6.0340080478316314e-02
      -8.6281138766454504e-03 4.3632010160215048e-02
      -2.0246519394712215e-02 -6.8796702904899171e-02
      -8.6590961731920560e-02 7.1948400029384865e-02
      -4.4579938062718857e-02 -9.7019474313580115e-02
      -3.2588550673149370e-02 3.2626895698910773e-02
      -3.8582458787364778e-02 4.4120334024860861e-02
      4.4092067959384876e-02 -5.3582038141968422e-02
