<?xml version="1.0"?>
<opencv_storage>
<shapeML type_id="opencv-ml-ann-mlp">
  <layer_sizes type_id="opencv-matrix">
    <rows>1</rows>
    <cols>3</cols>
    <dt>i</dt>
    <data>
      400 20 7</data></layer_sizes>
  <activation_function>SIGMOID_SYM</activation_function>
  <f_param1>5.9999999999999998e-01</f_param1>
  <f_param2>1.</f_param2>
  <min_val>-9.4999999999999996e-01</min_val>
  <max_val>9.4999999999999996e-01</max_val>
  <min_val1>-9.7999999999999998e-01</min_val1>
  <max_val1>9.7999999999999998e-01</max_val1>
  <training_params>
    <train_method>BACKPROP</train_method>
    <dw_scale>1.0000000000000001e-01</dw_scale>
    <moment_scale>1.0000000000000001e-01</moment_scale>
    <term_criteria><epsilon>9.9999999747524271e-07</epsilon>
      <iterations>4000</iterations></term_criteria></training_params>
  <input_scale>
    1.7664537238567587e-02 -2.3417666339201984e-01
    1.1720887487190572e-02 -3.8388594797495729e-01
    1.0641291889732736e-02 -4.3980752259858691e-01
    1.0409477080178361e-02 -4.5457899909769728e-01
    9.4173624118333646e-03 -5.3609847491216545e-01
    7.8661597977204255e-03 -9.2625835783249222e-01
    7.9482311394436511e-03 -1.1776507605689448e+00
    8.0954302038788381e-03 -1.2878418324335692e+00
    8.1966681000159025e-03 -1.3486902970072037e+00
    8.1508410505471210e-03 -1.3220813740703954e+00
    8.2293464238784898e-03 -1.3669019908653217e+00
    8.3783500768596104e-03 -1.4439202403101632e+00
    8.2127900656342005e-03 -1.3577474952543880e+00
    7.9403039438841107e-03 -1.1702842464082406e+00
    7.8938319600920029e-03 -8.9258237530398099e-01
    9.6628054110353707e-03 -5.1239463555765541e-01
    1.1842206429758627e-02 -3.7862467346521850e-01
    1.2847963777683944e-02 -3.4064784694960182e-01
    1.4758223953806949e-02 -2.8771766882421801e-01
    1.8178891031319987e-02 -2.2681919084949709e-01
    1.3386926217921506e-02 -3.2361973013048778e-01
    1.0641291889732736e-02 -4.3980752259858691e-01
    9.2846153323426078e-03 -5.5026252336636006e-01
    7.9928801498762234e-03 -8.2275335120744242e-01
    7.9650787433816032e-03 -1.1925695879998877e+00
    8.3382255192014573e-03 -1.4240006242195882e+00
    8.4205114561506419e-03 -1.4643192169847286e+00
    8.8423415386788985e-03 -1.6480015445712095e+00
    9.0844263691377582e-03 -1.7427096823731238e+00
    9.3277451120483013e-03 -1.8330302779823360e+00
    8.9410891747982221e-03 -1.6873229754642147e+00
    8.7504598121579801e-03 -1.6104057232283402e+00
    8.7803563992094064e-03 -1.6227548592850778e+00
    8.7212699093549353e-03 -1.5982327196272004e+00
    8.1966681000159025e-03 -1.3486902970072037e+00
    7.8741636555517188e-03 -1.0929917074174083e+00
    8.2293464238784881e-03 -7.3158134722369317e-01
    9.8265314451912288e-03 -4.9808794710717008e-01
    1.1604172454526905e-02 -3.8911238826876915e-01
    1.7194600108097084e-02 -2.4135539601273889e-01
    1.1178399524886811e-02 -4.0970372570571384e-01
    9.2425584408297335e-03 -5.5497747702046429e-01
    7.8431739296687085e-03 -9.9694655775743080e-01
    8.2293464238784898e-03 -1.3669019908653217e+00
    8.8109774626764677e-03 -1.6352850832105039e+00
    9.2425584408297370e-03 -1.8018749253911186e+00
    9.1615337571377201e-03 -1.7717901981693867e+00
    1.0067040977768373e-02 -2.0882183165811274e+00
    1.0266382369513291e-02 -2.1535856227423982e+00
    9.9434096993562069e-03 -2.0470652628766355e+00
    9.8841587267095021e-03 -2.0271593425283569e+00
    9.7159103059726287e-03 -1.9699230987338998e+00
    9.8265314451912306e-03 -2.0076775714165938e+00
    9.5117059369948537e-03 -1.8988506531101652e+00
    8.9410891747982221e-03 -1.6873229754642147e+00
    8.4647907595652942e-03 -1.4852213144650115e+00
    7.9482311394436511e-03 -1.1776507605689448e+00
    7.9832712702599534e-03 -8.2798974046136486e-01
    9.9434096993562086e-03 -4.8850421045919723e-01
    1.3386926217921506e-02 -3.2361973013048778e-01
    1.0067040977768373e-02 -4.7887713274980748e-01
    7.8995214249067101e-03 -8.8706552514548753e-01
    8.3580380313945258e-03 -1.4339019374961253e+00
    8.9073768221609832e-03 -1.6740148091923646e+00
    9.7159103059726287e-03 -1.9699230987338998e+00
    1.0004348007096996e-02 -2.0674122831179802e+00
    9.6111017245192921e-03 -1.9336831267771384e+00
    1.0197980316652302e-02 -2.1312843267278847e+00
    1.0896391168039418e-02 -2.3537204591879641e+00
    1.0561591570726805e-02 -2.2484562605386746e+00
    1.0067040977768373e-02 -2.0882183165811274e+00
    1.0641291889732736e-02 -2.2737219092832608e+00
    1.0131559898481865e-02 -2.1095023109728985e+00
    1.0266382369513291e-02 -2.1535856227423982e+00
    9.8265314451912306e-03 -2.0076775714165938e+00
    8.8744679451545645e-03 -1.6609095970747993e+00
    8.3991712368835948e-03 -1.4540583599999397e+00
    7.9184748883037656e-03 -1.1485420915970874e+00
    8.1223420917418531e-03 -7.6640631572077944e-01
    1.1081150463295721e-02 -4.1478067789217010e-01
    8.4423810578411525e-03 -6.7810134093026875e-01
    8.2127900656342005e-03 -1.3577474952543880e+00
    8.7803563992094064e-03 -1.6227548592850778e+00
    9.5607506250790578e-03 -1.9160972238977247e+00
    1.0266382369513291e-02 -2.1535856227423982e+00
    1.0484356393865061e-02 -2.2238377965702769e+00
    1.0336851145358334e-02 -2.1764287503300346e+00
    1.0266382369513291e-02 -2.1535856227423982e+00
    1.0723574010679164e-02 -2.2996655275194997e+00
    1.0067040977768373e-02 -2.0882183165811274e+00
    1.0004348007096996e-02 -2.0674122831179802e+00
    1.0004348007096996e-02 -2.0674122831179802e+00
    9.9434096993562069e-03 -2.0470652628766355e+00
    1.0266382369513291e-02 -2.1535856227423982e+00
    9.8265314451912306e-03 -2.0076775714165938e+00
    9.2425584408297370e-03 -1.8018749253911186e+00
    8.8744679451545645e-03 -1.6609095970747993e+00
    8.3382255192014573e-03 -1.4240006242195882e+00
    7.8626103533954439e-03 -1.0729938440986904e+00
    8.9073768221609832e-03 -5.9736628045868612e-01
    7.8434673463250518e-03 -1.0092167846991638e+00
    8.7803563992094064e-03 -1.6227548592850778e+00
    9.5607506250790578e-03 -1.9160972238977247e+00
    1.0197980316652302e-02 -2.1312843267278847e+00
    1.0067040977768373e-02 -2.0882183165811274e+00
    1.0561591570726805e-02 -2.2484562605386746e+00
    1.0808562623379392e-02 -2.3263199921511974e+00
    1.0197980316652302e-02 -2.1312843267278847e+00
    1.0067040977768373e-02 -2.0882183165811274e+00
    9.8841587267095021e-03 -2.0271593425283569e+00
    1.0067040977768373e-02 -2.0882183165811274e+00
    1.0004348007096996e-02 -2.0674122831179802e+00
    9.8265314451912306e-03 -2.0076775714165938e+00
    1.0067040977768373e-02 -2.0882183165811274e+00
    1.0409477080178363e-02 -2.1998376563477851e+00
    9.4639237768500400e-03 -1.8819316317727028e+00
    9.2425584408297370e-03 -1.8018749253911186e+00
    9.0110129301019092e-03 -1.7145725520212256e+00
    8.2127900656342005e-03 -1.3577474952543880e+00
    7.8938319600920029e-03 -8.9258237530398099e-01
    7.9650787433816032e-03 -1.1925695879998877e+00
    9.2015416727741772e-03 -1.7867030229749123e+00
    9.8841587267095021e-03 -2.0271593425283569e+00
    9.5607506250790578e-03 -1.9160972238977247e+00
    1.0266382369513291e-02 -2.1535856227423982e+00
    1.0896391168039418e-02 -2.3537204591879641e+00
    1.0336851145358334e-02 -2.1764287503300346e+00
    1.0266382369513291e-02 -2.1535856227423982e+00
    9.6111017245192921e-03 -1.9336831267771384e+00
    9.7704676423905658e-03 -1.9886038958388503e+00
    9.4639237768500400e-03 -1.8819316317727028e+00
    9.5607506250790578e-03 -1.9160972238977247e+00
    9.7159103059726287e-03 -1.9699230987338998e+00
    9.9434096993562069e-03 -2.0470652628766355e+00
    9.8841587267095021e-03 -2.0271593425283569e+00
    1.0131559898481865e-02 -2.1095023109728985e+00
    9.7159103059726287e-03 -1.9699230987338998e+00
    9.4173624118333663e-03 -1.8653289401053430e+00
    8.5353739174083357e-03 -1.5175738212786565e+00
    7.8700104588954704e-03 -1.0862780491200215e+00
    8.3580380313945258e-03 -1.4339019374961253e+00
    9.5117059369948537e-03 -1.8988506531101652e+00
    1.0484356393865061e-02 -2.2238377965702769e+00
    1.0484356393865061e-02 -2.2238377965702769e+00
    1.0808562623379392e-02 -2.3263199921511974e+00
    1.0409477080178363e-02 -2.1998376563477851e+00
    9.8841587267095021e-03 -2.0271593425283569e+00
    9.8265314451912306e-03 -2.0076775714165938e+00
    9.4639237768500400e-03 -1.8819316317727028e+00
    9.5117059369948537e-03 -1.8988506531101652e+00
    9.2015416727741772e-03 -1.7867030229749123e+00
    8.9756269189555041e-03 -1.7008401285415224e+00
    9.1615337571377201e-03 -1.7717901981693867e+00
    9.6111017245192921e-03 -1.9336831267771384e+00
    1.0131559898481865e-02 -2.1095023109728985e+00
    1.0197980316652302e-02 -2.1312843267278847e+00
    1.1081150463295723e-02 -2.4109126902482392e+00
    1.0067040977768373e-02 -2.0882183165811274e+00
    9.2015416727741772e-03 -1.7867030229749123e+00
    8.0825557838301726e-03 -1.2794908261466937e+00
    8.6649424960927850e-03 -1.5743962030744734e+00
    1.0004348007096996e-02 -2.0674122831179802e+00
    1.0641291889732736e-02 -2.2737219092832608e+00
    1.0896391168039418e-02 -2.3537204591879641e+00
    1.0409477080178363e-02 -2.1998376563477851e+00
    9.8265314451912306e-03 -2.0076775714165938e+00
    9.6628054110353724e-03 -1.9516207442563644e+00
    9.2846153323426096e-03 -1.8173143863810053e+00
    9.0844263691377582e-03 -1.7427096823731238e+00
    9.0472710953617887e-03 -1.7285267941367821e+00
    9.0844263691377582e-03 -1.7427096823731238e+00
    8.9756269189555041e-03 -1.7008401285415224e+00
    9.0472710953617887e-03 -1.7285267941367821e+00
    9.3277451120483013e-03 -1.8330302779823360e+00
    9.9434096993562069e-03 -2.0470652628766355e+00
    1.0808562623379392e-02 -2.3263199921511974e+00
    1.1279127252107586e-02 -2.4715775634549515e+00
    1.0266382369513291e-02 -2.1535856227423982e+00
    9.4173624118333663e-03 -1.8653289401053430e+00
    8.2637911151007219e-03 -1.3855117672336301e+00
    8.7212699093549353e-03 -1.5982327196272004e+00
    9.9434096993562069e-03 -2.0470652628766355e+00
    1.0561591570726805e-02 -2.2484562605386746e+00
    1.1081150463295723e-02 -2.4109126902482392e+00
    1.0808562623379392e-02 -2.3263199921511974e+00
    1.0067040977768373e-02 -2.0882183165811274e+00
    9.5607506250790578e-03 -1.9160972238977247e+00
    9.1615337571377201e-03 -1.7717901981693867e+00
    9.0472710953617887e-03 -1.7285267941367821e+00
    8.9410891747982221e-03 -1.6873229754642147e+00
    8.8423415386788985e-03 -1.6480015445712095e+00
    9.1225048325687466e-03 -1.7571283390805581e+00
    9.0110129301019092e-03 -1.7145725520212256e+00
    9.1615337571377201e-03 -1.7717901981693867e+00
    9.6111017245192921e-03 -1.9336831267771384e+00
    1.0409477080178363e-02 -2.1998376563477851e+00
    1.0561591570726805e-02 -2.2484562605386746e+00
    1.0197980316652302e-02 -2.1312843267278847e+00
    9.1225048325687466e-03 -1.7571283390805581e+00
    8.2816945248864703e-03 -1.3949716649258310e+00
    8.7803563992094064e-03 -1.6227548592850778e+00
    9.9434096993562069e-03 -2.0470652628766355e+00
    1.0987202636225770e-02 -2.3819045715047240e+00
    1.1842206429758627e-02 -2.6411379661232313e+00
    1.0987202636225770e-02 -2.3819045715047240e+00
    1.0131559898481865e-02 -2.1095023109728985e+00
    9.3277451120483013e-03 -1.8330302779823360e+00
    9.2425584408297370e-03 -1.8018749253911186e+00
    9.1615337571377201e-03 -1.7717901981693867e+00
    9.2015416727741772e-03 -1.7867030229749123e+00
    8.8423415386788985e-03 -1.6480015445712095e+00
    9.0110129301019092e-03 -1.7145725520212256e+00
    8.9073768221609832e-03 -1.6740148091923646e+00
    9.2015416727741772e-03 -1.7867030229749123e+00
    9.4639237768500400e-03 -1.8819316317727028e+00
    1.0067040977768373e-02 -2.0882183165811274e+00
    1.0131559898481865e-02 -2.1095023109728985e+00
    9.7159103059726287e-03 -1.9699230987338998e+00
    9.2425584408297370e-03 -1.8018749253911186e+00
    8.5112754075761105e-03 -1.5066519173319362e+00
    8.3580380313945258e-03 -1.4339019374961253e+00
    1.0197980316652302e-02 -2.1312843267278847e+00
    1.1491798866744028e-02 -2.5361029517387852e+00
    1.1383524882500495e-02 -2.5033311140691454e+00
    1.0896391168039418e-02 -2.3537204591879641e+00
    9.8265314451912306e-03 -2.0076775714165938e+00
    9.5117059369948537e-03 -1.8988506531101652e+00
    9.3719821286399278e-03 -1.8490318869394646e+00
    9.2015416727741772e-03 -1.7867030229749123e+00
    9.2425584408297370e-03 -1.8018749253911186e+00
    9.0110129301019092e-03 -1.7145725520212256e+00
    9.0110129301019092e-03 -1.7145725520212256e+00
    9.0844263691377582e-03 -1.7427096823731238e+00
    9.0844263691377582e-03 -1.7427096823731238e+00
    9.3719821286399278e-03 -1.8490318869394646e+00
    9.4173624118333663e-03 -1.8653289401053430e+00
    9.5117059369948537e-03 -1.8988506531101652e+00
    9.6111017245192921e-03 -1.9336831267771384e+00
    9.1615337571377201e-03 -1.7717901981693867e+00
    8.3580380313945258e-03 -1.4339019374961253e+00
    8.0954302038788381e-03 -1.2878418324335692e+00
    1.0266382369513291e-02 -2.1535856227423982e+00
    1.1491798866744028e-02 -2.5361029517387852e+00
    1.1279127252107586e-02 -2.4715775634549515e+00
    1.0896391168039418e-02 -2.3537204591879641e+00
    1.0067040977768373e-02 -2.0882183165811274e+00
    9.7704676423905658e-03 -1.9886038958388503e+00
    9.2015416727741772e-03 -1.7867030229749123e+00
    9.2425584408297370e-03 -1.8018749253911186e+00
    9.2015416727741772e-03 -1.7867030229749123e+00
    9.1225048325687466e-03 -1.7571283390805581e+00
    8.9410891747982221e-03 -1.6873229754642147e+00
    9.0472710953617887e-03 -1.7285267941367821e+00
    9.2425584408297370e-03 -1.8018749253911186e+00
    9.5607506250790578e-03 -1.9160972238977247e+00
    9.7704676423905658e-03 -1.9886038958388503e+00
    9.8841587267095021e-03 -2.0271593425283569e+00
    9.6111017245192921e-03 -1.9336831267771384e+00
    9.4173624118333663e-03 -1.8653289401053430e+00
    8.0954302038788381e-03 -1.2878418324335692e+00
    7.8884532648662194e-03 -1.1134298484400622e+00
    9.2425584408297370e-03 -1.8018749253911186e+00
    1.0896391168039418e-02 -2.3537204591879641e+00
    1.1720887487190574e-02 -2.6049403612586390e+00
    1.1081150463295723e-02 -2.4109126902482392e+00
    1.0266382369513291e-02 -2.1535856227423982e+00
    1.0266382369513291e-02 -2.1535856227423982e+00
    1.0197980316652302e-02 -2.1312843267278847e+00
    9.6111017245192921e-03 -1.9336831267771384e+00
    9.1615337571377201e-03 -1.7717901981693867e+00
    9.1225048325687466e-03 -1.7571283390805581e+00
    9.2846153323426096e-03 -1.8173143863810053e+00
    9.2425584408297370e-03 -1.8018749253911186e+00
    9.7159103059726287e-03 -1.9699230987338998e+00
    1.0067040977768373e-02 -2.0882183165811274e+00
    9.8841587267095021e-03 -2.0271593425283569e+00
    1.0409477080178363e-02 -2.1998376563477851e+00
    1.0067040977768373e-02 -2.0882183165811274e+00
    9.0110129301019092e-03 -1.7145725520212256e+00
    7.9403039438841107e-03 -1.1702842464082406e+00
    7.8440542784429350e-03 -9.8482461284854650e-01
    9.0110129301019092e-03 -1.7145725520212256e+00
    1.0004348007096996e-02 -2.0674122831179802e+00
    1.1383524882500495e-02 -2.5033311140691454e+00
    1.0808562623379392e-02 -2.3263199921511974e+00
    1.0723574010679164e-02 -2.2996655275194997e+00
    1.1279127252107586e-02 -2.4715775634549515e+00
    1.0808562623379392e-02 -2.3263199921511974e+00
    1.0067040977768373e-02 -2.0882183165811274e+00
    9.6628054110353724e-03 -1.9516207442563644e+00
    9.9434096993562069e-03 -2.0470652628766355e+00
    1.0131559898481865e-02 -2.1095023109728985e+00
    1.0004348007096996e-02 -2.0674122831179802e+00
    1.0723574010679164e-02 -2.2996655275194997e+00
    1.0808562623379392e-02 -2.3263199921511974e+00
    1.0723574010679164e-02 -2.2996655275194997e+00
    1.0197980316652302e-02 -2.1312843267278847e+00
    9.6111017245192921e-03 -1.9336831267771384e+00
    8.6112453998790622e-03 -1.5512092057488567e+00
    7.8564103705518803e-03 -9.4349001605985428e-01
    8.5853456962209293e-03 -6.4941445197561076e-01
    8.2127900656342005e-03 -1.3577474952543880e+00
    9.5607506250790578e-03 -1.9160972238977247e+00
    1.0336851145358334e-02 -2.1764287503300346e+00
    1.0484356393865061e-02 -2.2238377965702769e+00
    1.1279127252107586e-02 -2.4715775634549515e+00
    1.1491798866744028e-02 -2.5361029517387852e+00
    1.1720887487190574e-02 -2.6049403612586390e+00
    1.1279127252107586e-02 -2.4715775634549515e+00
    1.0484356393865061e-02 -2.2238377965702769e+00
    1.0484356393865061e-02 -2.2238377965702769e+00
    1.0409477080178363e-02 -2.1998376563477851e+00
    1.0723574010679164e-02 -2.2996655275194997e+00
    1.1178399524886804e-02 -2.4407881531404212e+00
    1.0723574010679164e-02 -2.2996655275194997e+00
    1.0336851145358334e-02 -2.1764287503300346e+00
    9.7159103059726287e-03 -1.9699230987338998e+00
    9.2846153323426096e-03 -1.8173143863810053e+00
    8.0825557838301726e-03 -1.2794908261466937e+00
    8.9073768221609832e-03 -5.9736628045868612e-01
    9.8265314451912288e-03 -4.9808794710717008e-01
    7.8938319600920029e-03 -8.9258237530398099e-01
    8.3382255192014573e-03 -1.4240006242195882e+00
    9.2425584408297370e-03 -1.8018749253911186e+00
    1.0004348007096996e-02 -2.0674122831179802e+00
    9.9434096993562069e-03 -2.0470652628766355e+00
    1.1279127252107586e-02 -2.4715775634549515e+00
    1.1383524882500495e-02 -2.5033311140691454e+00
    1.1383524882500495e-02 -2.5033311140691454e+00
    1.0808562623379392e-02 -2.3263199921511974e+00
    1.0896391168039418e-02 -2.3537204591879641e+00
    1.1491798866744028e-02 -2.5361029517387852e+00
    1.1081150463295723e-02 -2.4109126902482392e+00
    1.1842206429758627e-02 -2.6411379661232313e+00
    1.0723574010679164e-02 -2.2996655275194997e+00
    1.0561591570726805e-02 -2.2484562605386746e+00
    9.2015416727741772e-03 -1.7867030229749123e+00
    8.3382255192014573e-03 -1.4240006242195882e+00
    7.9055236455317594e-03 -8.8157467808659207e-01
    9.9434096993562086e-03 -4.8850421045919723e-01
    1.1081150463295721e-02 -4.1478067789217010e-01
    9.2425584408297335e-03 -5.5497747702046429e-01
    7.8833834684707456e-03 -9.0369611411506390e-01
    8.1966681000159025e-03 -1.3486902970072037e+00
    8.9410891747982221e-03 -1.6873229754642147e+00
    9.4639237768500400e-03 -1.8819316317727028e+00
    9.7159103059726287e-03 -1.9699230987338998e+00
    1.0484356393865061e-02 -2.2238377965702769e+00
    1.1081150463295723e-02 -2.4109126902482392e+00
    1.0808562623379392e-02 -2.3263199921511974e+00
    1.0409477080178363e-02 -2.1998376563477851e+00
    1.0896391168039418e-02 -2.3537204591879641e+00
    1.0808562623379392e-02 -2.3263199921511974e+00
    1.0808562623379392e-02 -2.3263199921511974e+00
    9.6111017245192921e-03 -1.9336831267771384e+00
    9.0472710953617887e-03 -1.7285267941367821e+00
    8.1086905407003820e-03 -1.2962746116670107e+00
    7.8537577211793119e-03 -9.4929594473887546e-01
    9.1225048325687466e-03 -5.6911039322447221e-01
    1.1279127252107585e-02 -4.0459988583248307e-01
    1.2236771559344719e-02 -3.6261258840993982e-01
    1.0896391168039418e-02 -4.2485928866208739e-01
    9.7704676423905675e-03 -5.0286535297074386e-01
    8.1657000977929210e-03 -7.5139423835654129e-01
    7.9403039438841107e-03 -1.1702842464082406e+00
    8.3783500768596104e-03 -1.4439202403101632e+00
    8.9073768221609832e-03 -1.6740148091923646e+00
    9.6111017245192921e-03 -1.9336831267771384e+00
    1.0197980316652302e-02 -2.1312843267278847e+00
    1.0197980316652302e-02 -2.1312843267278847e+00
    1.0409477080178363e-02 -2.1998376563477851e+00
    1.0004348007096996e-02 -2.0674122831179802e+00
    1.0067040977768373e-02 -2.0882183165811274e+00
    9.6111017245192921e-03 -1.9336831267771384e+00
    8.6649424960927850e-03 -1.5743962030744734e+00
    7.9650787433816032e-03 -1.1925695879998877e+00
    7.9403039438841125e-03 -8.5449325928220765e-01
    9.4173624118333646e-03 -5.3609847491216545e-01
    1.0561591570726801e-02 -4.4474958999666070e-01
    1.4014995491673289e-02 -3.0601549789158194e-01
    1.6365277981478528e-02 -2.5523828044507796e-01
    1.3018979318073691e-02 -3.3502969713024494e-01
    1.0987202636225768e-02 -4.1983210073284699e-01
    1.0641291889732736e-02 -4.3980752259858691e-01
    9.4639237768500382e-03 -5.3136893132405727e-01
    7.8626103533954439e-03 -9.3197179601714808e-01
    7.9928801498762216e-03 -1.2154310870109943e+00
    8.3580380313945258e-03 -1.4339019374961253e+00
    8.5600596929821422e-03 -1.5286381827880495e+00
    8.6112453998790622e-03 -1.5512092057488567e+00
    8.6377728110542309e-03 -1.5627236682017380e+00
    8.6377728110542309e-03 -1.5627236682017380e+00
    8.6377728110542309e-03 -1.5627236682017380e+00
    8.0579444841693930e-03 -1.2630273533214134e+00
    7.8786208137732617e-03 -1.0997542723078917e+00
    9.4639237768500382e-03 -5.3136893132405727e-01
    9.9434096993562086e-03 -4.8850421045919723e-01
    1.1279127252107585e-02 -4.0459988583248307e-01
    1.2847963777683944e-02 -3.4064784694960182e-01
    1.5654756331190959e-02 -2.6857242513144125e-01</input_scale>
  <output_scale>
    1.0526315789473684e+00 0. 1.0526315789473684e+00 0.
    1.0526315789473684e+00 0. 1.0526315789473684e+00 0.
    1.0526315789473684e+00 0. 1.0526315789473684e+00 0.
    1.0526315789473684e+00 0.</output_scale>
  <inv_output_scale>
    9.4999999999999996e-01 0. 9.4999999999999996e-01 0.
    9.4999999999999996e-01 0. 9.4999999999999996e-01 0.
    9.4999999999999996e-01 0. 9.4999999999999996e-01 0.
    9.4999999999999996e-01 0.</inv_output_scale>
  <weights>
    <_>
      -6.3317225501068064e+00 2.8777804481670388e-01
      -1.3654327428327490e-01 -8.4971775762168814e-02
      1.5224969375767269e-01 1.8836133574544736e-01
      1.1458714632959832e-01 4.5419289488252607e-01
      1.2283067564932212e-01 -2.7135967423541924e-02
      -4.2698463355253985e-02 9.8834288284655791e-02
      -2.5695619405448833e-01 7.7890039896843011e-02
      1.3059136480284023e-01 -3.2319980146379754e-02
      -3.8208150450378003e-01 -1.5134427115335568e-02
      -7.1433523249624209e-02 4.1897727456265721e-01
      -2.2480826223928392e+00 -5.1497306015322195e-02
      1.1374927357023949e-02 -6.0191621364300528e-02
      -5.4142607438105214e-02 7.9376626030991007e-02
      -1.6830374101454468e-02 9.5438441442654259e-02
      -2.4899212311741137e-01 1.2099482880820044e-01
      2.2769131120209185e-01 3.2641628880062827e-02
      -2.7725587805397833e-01 -1.0670256265706030e-01
      -9.0891748172122935e-02 -1.3671897685277551e-02
      -4.7839598728881980e-02 -7.7831366969153451e-02
      -2.3468252890145317e-02 -9.2338551432933347e-02
      -3.2181297800117861e+00 5.0515711344946541e-02
      -4.0447216629066564e-02 1.3035913873840685e-01
      -2.8956059783749110e-02 -6.0821000299496379e-02
      -4.0528346120823469e-02 1.8722827691728569e-01
      -6.6461627375009489e-03 -4.1954310443924156e-02
      1.9378635007876496e-01 -8.6029609992862854e-03
      -3.7461466063405342e-02 -2.0177912577284474e-01
      1.7857042535068055e-01 -6.6671534433526553e-02
      7.7767318716880154e-02 -7.4833080130981847e-02
      1.0555454300955344e-01 -2.9221528536891920e-02
      -4.2150637318954862e+00 -4.7290327526770475e-02
      -9.5137880166377115e-02 2.4509520939635623e-01
      6.2529777842964332e-02 -1.6944089930177758e-01
      -6.3767449116896024e-02 1.9283017250735648e-01
      3.4296788490987540e-01 -3.1294171666652654e-01
      3.3806569771689288e-01 -9.9319176202391016e-02
      8.2219167273667026e-03 -1.6775697887338994e-01
      3.1349595154223758e-01 3.5782365545296534e-02
      -4.7984069806927951e-03 -1.0643774129109633e-01
      -1.0428318670262346e-01 1.7195311870723234e-01
      -5.0472964711119991e-02 1.0345488436822917e-01
      8.2402220302980791e-02 -1.8345688763535553e-01
      7.0032803223858117e-02 7.0163099604439713e-02
      -5.6733687948165015e-03 1.9333212251388471e-01
      -4.0910659833409008e-01 3.4581912677353777e-01
      -1.8918068894737436e-01 2.6877733504482820e-01
      -1.9631093405749710e-02 -4.6409531882848423e-02
      -2.6783782346431745e-01 3.1036423653521647e-02
      -4.0232977480995957e-01 1.6845486347965935e-01
      -8.1043617257620479e-02 1.8716218377359609e-01
      1.9006472130889367e+00 5.0801248135231632e-02
      -2.1847323494270546e-02 -3.2112237304903213e-01
      -5.3316066995010535e-02 1.6639394392275817e-03
      1.2586614970043777e-01 -3.1563294237380091e-01
      -4.4261540953441675e-01 4.4731076384736784e-01
      -1.3841612540384912e-01 2.8696980585720117e-01
      1.8424180369313589e-01 1.4069557539661014e-02
      -5.6070562501610277e-01 -5.7713269985737621e-02
      -6.7239455257943309e-02 2.0157252291099007e-01
      5.4928343481358971e-03 -3.8826322532712364e-02
      -1.3752262210197608e-01 2.1855510430678185e-01
      -1.0853575389796556e-01 -1.0638809205340326e-01
      -5.6990039097475111e-02 -1.9544773313241354e-01
      3.2843415879918780e-01 4.7377109046124993e-02
      -2.0936782627756162e-01 3.2650354542627336e-01
      -7.1015242070937401e-02 3.3844066049938326e-01
      3.2680581698675959e-01 2.4702118518118280e-01
      -2.4681992705434541e-01 -1.3336823457162259e-02
      1.3568271231551268e-01 -3.6728410661791867e-02
      6.1371630663812661e-02 -2.5527712525819424e-01
      -1.1310707012299286e+00 -2.3510602615045235e-02
      -2.9615130295874259e-02 1.7511978256279170e-01
      -2.9794777970024264e-02 -2.5424225420989523e-02
      5.4918483454437772e-01 -2.4519892476071042e-01
      -1.3423049745578478e-01 1.4334566174848770e-01
      -1.9970463330369509e-01 4.1901118887317562e-01
      2.5559371922850547e-02 3.8378160544301843e-01
      1.9117122295241623e-01 -1.8373855451599039e-01
      1.3689597011738877e-01 -3.4502532887004039e-01
      2.9031075893018771e-01 -1.2914931536496130e-01
      1.1655232120523278e+00 2.8606175237182901e-01
      1.6050611785711169e-01 -1.4437436642098933e-01
      1.9474420949338275e-01 2.4878387718570438e-01
      -1.1565957295035779e-01 2.2240170141610408e-01
      -3.3512435596942231e-01 3.7913325023521532e-01
      -4.0237461522171869e-01 2.0077624211209028e-01
      1.7269961644683707e-01 -1.5240075351131993e-01
      1.1465653148910957e-02 -2.5828405744315178e-02
      -2.8847851000132252e-01 2.5125278604824863e-01
      6.0382270215592969e-02 3.3387045872956135e-02
      1.5352406427591012e-01 3.2596840721905565e-02
      2.1121727925618575e-01 -1.9265095640944396e-01
      3.4507549126947076e-02 2.9643920996391254e-01
      4.0436816625261279e-01 -4.5079161459713912e-01
      -2.1458779664353020e-01 4.7410777406555105e-01
      -5.5856013086305245e-01 4.3719990751712418e-01
      2.7985498207631448e-02 2.9781182555221897e-01
      -1.0874372319093726e-02 -2.5507699056666139e-01
      -1.8197687379344207e-01 -5.6554019542304615e-02
      3.3692142596473246e-01 -5.2379079402284758e-03
      3.0885548719499456e-01 -1.9945779577426342e-01
      3.3670551583082881e-02 -7.4807849491886777e-02
      4.4288564546877227e-02 1.0745489205582548e-01
      5.5622017378275856e-01 -4.7679171653259012e-01
      -2.8103787623226788e-02 2.1713007938052686e-01
      -7.8537846993405006e-02 2.0915869424852601e-01
      4.5667296253627927e-02 4.4018310165640245e-01
      -1.4424144030427624e-01 -7.4152628739192053e-02
      -8.6321377369858232e-02 1.4835398441017342e-02
      2.3556331151575238e-01 -4.3844401585839278e-02
      8.9921041750713082e-01 9.3187750521771140e-02
      -2.2508423810027093e-03 2.1366325544977416e-01
      4.0238123706959207e-02 4.0866734938955193e-02
      1.9268392720149810e-01 -2.3818612652340784e-01
      -4.4397384950250397e-02 1.9815304947799486e-01
      -4.8212240229345601e-02 -9.9255607437301156e-03
      3.3300294360146870e-01 1.9054845172332172e-01
      -6.4028582406238183e-02 2.6142468476432046e-01
      7.8423875930781831e-02 3.3051963640527404e-01
      -3.9985547702863125e-02 -1.1327767508470700e-01
      1.4737728532928946e+00 -5.9792861894267087e-02
      2.3177489597743971e-02 1.0922559829056357e-01
      1.3035732237034559e-01 7.3538581295267247e-02
      2.1303055356669390e-01 -1.4243261637305887e-01
      1.2441915501579863e-01 1.2505400276907400e-03
      -4.2558316784806860e-01 1.4202276735445921e-01
      1.1449652193541832e-01 1.1819889904593230e-01
      1.8949818890910115e-03 2.8623680761789637e-02
      -7.5144594720298913e-02 3.5533099602774088e-01
      4.2117208341301976e-02 2.3696154120888348e-02
      5.3380686849983128e-01 7.8092175477831288e-02
      -1.2293772293056807e-01 2.4131782475287204e-03
      1.7732592429429966e-02 -1.4714773663373429e-01
      1.9900885348720515e-01 1.0660020447212079e-01
      -7.9590860749914935e-02 8.9802811560140763e-02
      5.8931982088551015e-02 4.6324946552355702e-02
      4.8472744445154603e-01 1.7537282263665371e-01
      -8.9393139761954482e-02 1.7111061534441026e-02
      2.3630130669197977e-01 4.3931727013620187e-01
      1.2010355921577993e-01 -2.0798700213488688e-01
      -1.3020169819219487e+00 1.6173572691588287e-01
      -2.3337795886388384e-02 -5.5035848149974108e-02
      7.9427425659325715e-02 1.4399024363021748e-01
      1.7071566622440040e-02 4.2247869786627909e-02
      -3.7336947184981262e-01 -1.0970840501604281e-02
      -8.6125752857683133e-02 1.2267959272927823e-01
      1.7579858762172934e-01 -1.7613618565642877e-02
      3.8364549832277400e-01 -1.2326960560919878e-01
      5.1998401227078602e-03 1.1022970817928807e-01
      7.5802732125648614e-02 4.4019101115549908e-02
      -6.5395620553477540e-01 -2.1433755286781953e-01
      3.4552845324832271e-02 2.4391307762062139e-01
      5.2587443170556185e-02 7.8399642289820881e-03
      -2.1861274085460189e-01 -3.3799959129573953e-01
      7.0058536477936140e-02 -1.2827754863794236e-01
      5.1835517930592066e-02 -7.3702146733143473e-02
      1.5333594850456600e-01 -1.5245762164042614e-01
      -1.6705473891255176e-02 -7.1966283485386223e-02
      -5.9392020622502428e-02 2.6197165677050011e-01
      4.0544962179586870e-02 1.4705304551315648e-01
      -1.0262382856376058e+00 3.3777064790821099e-02
      -3.5708440872258135e-02 -1.8815162905422014e-01
      8.1576778494289306e-02 8.5502099723724162e-02
      2.6361064014489705e-02 7.3281339607439211e-02
      -9.3675541777744439e-02 9.3333721440014561e-02
      7.1564870487129520e-02 -2.8869559344015645e-02
      -3.6936500109866865e-01 -1.8175162571097393e-02
      -4.8236906643400967e-02 -1.7372496361544779e-01
      -4.9911687164265181e-02 -2.9188659303745739e-02
      -2.9357317882323881e-02 4.2605781326580661e-02
      -6.4369528134985332e-01 -6.0777221844048379e-02
      -1.7811748232765456e-03 2.2570694333006311e-01
      -2.8672745511290197e-02 -1.6417155213497361e-01
      -2.0189668914928152e-01 4.4894840054243540e-01
      -3.4176047630812480e-02 -3.9400181735020398e-02
      1.3925455707142528e-01 -1.9844270361590555e-01
      -3.2207198218506894e-01 -1.2407785903394732e-01
      1.0978765656043299e-02 1.3667318224212005e-01
      3.0716276242995300e-03 -1.5626157770821275e-01
      -4.6819602494631206e-02 9.5131531349820705e-02
      -4.5421995531591347e-01 -1.2149003701956797e-01
      4.9932559061995868e-02 2.0192077048815446e-01
      -2.9677132695580720e-02 -2.1311879795361140e-02
      -6.5748897620085109e-02 3.0092815170262643e-01
      3.6709432591426346e-02 -2.8228358070242421e-01
      2.1042344681351347e-01 -3.0360413451441914e-01
      1.7792099480884868e-01 -6.5383718502737706e-02
      1.4006721014524795e-01 1.0563917762844131e-01
      -3.6204676448846472e-02 -2.8103347741716656e-01
      -9.6614608002592334e-02 1.7146160482049300e-01
      -1.4498440012667819e+00 -1.1406268561703285e-01
      -5.0624389514523083e-02 -1.7393233486118412e-01
      7.3697131440087327e-02 -8.8811797020930359e-03
      2.9649794856408557e-01 2.6883652987248086e-01
      6.0560374258458734e-02 -6.1801082900999173e-03
      3.5704669253929727e-01 -1.2884959443505714e-01
      -3.5491819579886667e-02 1.7641904170890574e-01
      1.0883536733814733e-01 -9.6921465269216564e-02
      -1.4435514919266978e-02 -5.1334334512791580e-01
      -5.5133119863077139e-02 1.1869277218782440e-01
      -2.7537782435982581e+00 9.3262259270139786e-02
      -2.9787802220877374e-01 1.0865926219393000e-01
      -8.7795507151339158e-02 -1.8234362632818535e-01
      -2.7225880100630029e-01 5.1990373280966717e-01
      -1.3705821191037787e-01 6.3799451181587905e-02
      3.2997364172356003e-01 -2.3351006631503635e-01
      1.1156609955168441e-01 -1.9172955897675706e-01
      -7.9534331297156299e-02 1.2641290215462336e-01
      -3.6344004900770263e-02 4.5714283725668221e-02
      -1.2595250411817127e-01 9.5969798318138483e-02
      -2.7623101429543282e+00 1.9578694986330814e-01
      5.3158510045024011e-02 -1.1444401721916020e-01
      -5.2235781386652615e-02 7.7104045463609633e-02
      4.5325006152917770e-02 2.6417267988312571e-01
      -3.8784820597560477e-01 1.6644137049310087e-01
      1.1193521022014226e-03 6.2486561888892421e-02
      -1.8797203360231121e-01 -2.9127918549480959e-03
      -7.7339257288361635e-02 -2.5517630777186623e-01
      -1.3111346208297625e-01 -1.6098243001266399e-01
      -2.4664617960257804e-02 -2.6776835574074953e-02
      -4.0932383545262967e+00 1.9853474853677550e-01
      -1.0540577492283866e-01 2.1191558174257621e-01
      5.1873958640640372e-02 3.7573397912670767e-02
      2.3824796999403777e-01 1.1839574365721649e-01
      2.3103820796488486e-01 -2.1722897081532189e-01
      1.9308143156371907e-01 -1.3214758745530131e-01
      -2.1830316303135178e-01 -3.8288394655860779e-02
      2.9866221872651239e-01 -8.1032583817253201e-02
      -3.3625368578071302e-02 -1.7844146158563376e-01
      9.1319968294539366e-02 1.0002447474885030e-01
      9.2181072245560047e-01 -1.3369170488592916e-01
      9.5613186413638349e-02 -4.9342920410916140e-02
      3.4256968439266455e-02 -1.0115905290960152e-01
      7.8590784253121063e-02 -2.7108684694072721e-01
      -5.8456165862587055e-02 -2.7902546315883552e-02
      1.7128562578480722e-01 3.9929842138175180e-02
      -1.6390809933045883e-02 -9.5584277806729252e-03
      -3.0451746553488435e-01 -5.1513699428975206e-02
      1.4421076584470285e-01 -5.0177343231948703e-02
      5.5607019071838154e-02 -1.1462162955383619e-01
      -5.3442667472717664e-01 -2.4497724923732778e-01
      -3.2189372715096927e-02 7.6843443452463855e-02
      -1.1857435587782243e-01 -1.2724300702248750e-01
      1.8398867073991773e-01 -3.3005590762766412e-01
      2.9637230321694530e-01 3.1293268309795633e-02
      -3.2037039194413473e-03 1.5995166909008074e-01
      -4.3435180246404137e-02 1.3811236860506482e-01
      -3.1709120283868281e-01 -2.0718201368347158e-01
      2.1513463005425765e-01 -2.8343259889284489e-01
      3.5972316603384881e-02 -5.5046831168117726e-02
      -4.0919060219082436e-03 -9.8121042123320748e-02
      3.7794248051897530e-02 1.8246229555773269e-01
      -1.5964509017475026e-01 -1.3109791156517397e-01
      1.2738385602602906e-01 -3.4785279919357516e-02
      -7.5685404846140810e-03 -2.2050693266218352e-01
      -7.2213782220488743e-02 2.4487598363360413e-01
      1.3493300900502334e-01 9.3105887432773891e-04
      -1.4055531663306758e-01 -1.5800556288591275e-01
      6.6759433419333214e-02 -6.1246481313439717e-02
      1.4073104884581958e-01 -2.9669470568356081e-02
      5.3158766631507504e-01 -1.3849418009113532e-01
      -1.2088401468935862e-01 -1.6311030354476055e-01
      -1.1818076167725143e-01 -2.3982847864448764e-01
      6.6577284357462840e-01 -9.6569624018496059e-02
      -4.8185504572001281e-01 5.8884926116343239e-01
      -2.5218672220963610e-02 3.8038487168680202e-01
      1.2429915107175914e-02 4.9771647284538706e-01
      -6.9605059338345010e-01 -3.6802208959715904e-01
      6.6280738942518971e-02 -1.6497417070501072e-01
      3.2540380579024369e-01 -4.5101458727777016e-01
      -3.1941784434822904e+00 1.6731962708081802e-01
      -1.5844127474780073e-01 1.0936002768943263e-01
      -2.0192521061173077e-03 -1.5074852135888289e-01
      3.4792872614223286e-01 -3.7429084432070753e-01
      1.5003123932747783e-01 2.1379213564428032e-01
      1.9586579502823493e-03 2.3516728641953397e-01
      -9.6739254559943030e-03 2.9394803937382469e-01
      -1.0002581628603807e-03 -3.0363548617267099e-02
      1.1253549874167022e-01 -2.7908724947568447e-01
      2.6419533727477240e-01 -1.4158964818189074e-01
      9.4725700139179381e-01 1.4321368742259359e-02
      1.5560766848063579e-01 -6.5091120101118505e-02
      5.5407215617580288e-02 1.2016962748067495e-01
      -2.9342452186638925e-02 -3.3382208156194892e-01
      1.4201251782160371e-01 1.6131175866295955e-01
      -3.8335520751312718e-01 -5.0914942473915342e-02
      -1.8669036928332516e-01 2.4966662773263631e-02
      -5.9226058370248469e-02 -1.3287782639571147e-01
      -9.7273200723726291e-02 2.2134605644979430e-01
      1.6777427393998137e-01 4.2308954662772950e-02
      1.6676649571081192e+00 -6.3429547043039436e-02
      1.1972934726159329e-01 2.6219829006902196e-01
      1.6266691725140812e-02 -4.0649459952472183e-02
      -3.5367280874871349e-01 -3.6735611044484195e-01
      1.7466323709132903e-01 -2.6758364049020687e-02
      -1.7402181865169780e-01 -3.1845012411721207e-01
      -2.9577732307136274e-02 -1.9899727461565911e-01
      -7.8474243662037313e-02 2.5675396662049932e-01
      5.4429568233789805e-02 2.2835261412712721e-01
      2.2019490972816283e-01 1.4275784924934562e-01
      8.0232074654346908e-01 -1.0165964330823501e-01
      6.4196846117491421e-02 -6.7092891349822520e-02
      1.0965068324823572e-01 6.6895727631244170e-02
      1.2971147135914926e-02 -1.7458704308703259e-02
      -2.0811791147047976e-01 7.8070121776371029e-02
      -2.6372250995076618e-01 1.2767338844951084e-01
      1.6920384879939385e-01 -7.2325797226935884e-02
      1.2879976243234899e-02 8.9468077640973337e-02
      -2.0505412863748143e-01 2.7341148082008315e-01
      8.0266048045095198e-02 2.0579090286670676e-01
      4.4132529618394817e-01 1.4645950291308749e-01
      2.4095074465730924e-02 -1.4964273050874410e-01
      1.3060487589477973e-01 2.1949098954859608e-01
      3.6638546567688091e-01 -7.9086845064868697e-02
      -2.1851030077478567e-01 2.1156048916830206e-01
      -3.5632845034932853e-01 2.4002774402551080e-01
      1.9847867024404234e-01 2.3257916621597893e-01
      -1.0010128173241195e-01 3.2523002192330619e-02
      -2.5245361255919996e-01 3.2780555060003630e-01
      3.3506534167779704e-02 6.8210632490089906e-02
      1.0523603665762709e+00 4.9879794806444507e-02
      5.6765493571471974e-02 -3.8699570115336243e-02
      1.2680272738522114e-01 1.4060101064454109e-01
      3.0507555759248728e-01 7.6633514338123307e-02
      -4.0921863923465134e-02 1.6624519560455217e-01
      -4.2752636403572375e-01 3.1779369194458834e-01
      1.4170058947299946e-01 1.8393628162977274e-01
      5.0000065118981120e-02 -7.4751776168420117e-02
      -1.2082895740978672e-01 3.6932728653052022e-01
      3.4093766657958087e-03 -1.3573063516741524e-03
      3.0488787482868590e-01 -9.0814351081422356e-02
      -4.4333636108089590e-03 -1.3617783533482256e-01
      9.1627375165191011e-02 6.3741749488890220e-02
      4.3522227713028289e-01 -4.0672983737212931e-01
      -4.5420945129306348e-02 1.5230471893515532e-01
      -5.5315157043586871e-01 3.1813129533860385e-01
      2.4218290399390430e-01 3.4303353032459172e-01
      -2.5020242303288109e-01 -1.4361000608250113e-01
      -1.7168536383738067e-01 4.1622020297358714e-01
      2.1275486458439824e-01 3.0081597021637665e-02
      -1.7689442485093429e-01 -1.7236381930310622e-02
      -1.5237569555663191e-01 -3.6496875380256727e-01
      -3.5082243677357905e-02 -2.0654293652963139e-02
      4.7160948876712833e-01 -4.9010140301889688e-02
      -2.2996644777052189e-01 4.4828286168307224e-01
      -2.9608863864130491e-01 2.6771975393773911e-01
      3.5254559116329809e-01 4.3133449474041075e-01
      -1.8842712874436696e-01 -1.2289819973069827e-01
      4.7089948875512655e-02 2.0058691575524715e-01
      2.7695813502879391e-01 -2.3267267541850317e-01
      -1.2193908046278751e-01 -3.1257938353261162e-02
      -3.5156750599925853e-02 9.5472692146891483e-02
      -1.1132045218777593e-01 -1.0676688328189653e-01
      -4.3169879292790247e-01 1.2278948429968670e-01
      -2.9608308819575752e-01 2.0772789428952942e-01
      1.3434155174455192e-01 -1.5954059377895877e-01
      3.7671986461801371e-01 -1.9416451443119187e-01
      -1.6166522518620136e-01 2.3939496745979907e-01
      2.9338174945988044e-01 5.2903658540737331e-01
      6.8613327713599121e-03 -1.7615598010437206e-01
      -7.4444751100153439e-01 8.1321225775564332e-02
      -3.4968069338702973e-02 -9.4071695122318971e-02
      6.6827968470383539e-02 4.2644416390319045e-03
      -6.8626387206619566e-02 5.3197385655513754e-02
      -2.3709196810930289e-01 5.2048451647546755e-02
      6.7396155021564402e-02 -2.7434863490383293e-01
      5.1206529789920532e-02 1.7571734618770308e-02
      1.2939468062131879e-01 9.2937612441112982e-02
      5.6230900202679521e-03 1.2175402973090386e-01
      -5.9671901912745254e-02 2.9405530349957746e-02
      -3.2254317087371254e-01 -5.4414619884803513e-03
      6.4915227143221607e-02 -2.3240803556958936e-01
      3.6598300325523893e-02 2.2976304475494928e-02
      -1.5303772056542464e-02 2.1521660528840242e-01
      -3.2708074857040131e-01 2.9560582058299861e-01
      -1.3641701890904193e-01 -2.3431251478573709e-01
      -2.5803718199931175e-01 6.4452608915158027e-02
      -2.3182158517353821e-01 -1.7148472006411358e-01
      -1.0961168517223727e-01 2.4364818197991905e-01
      -9.4672143082681418e-02 1.5556522142700011e-01
      1.7335668254674400e-01 6.2516321507430278e-02
      2.7064736325204730e-02 -8.3086371714954574e-02
      1.0412713764190988e-01 7.7391557353527901e-03
      3.0293187812492461e-01 2.3146426418874749e-01
      -1.5227676732541587e-01 -4.0159348620956825e-02
      -8.8655719550689335e-02 -5.9685345214274300e-02
      -6.4720450181572894e-02 1.7505174319689409e-01
      -7.9219831875427318e-03 -1.5778498470704543e-02
      -1.3743926083122002e-01 -2.6797339961568045e-01
      -1.4553270249061933e-02 -1.1027258373273828e-01
      5.4215076568266185e-01 -6.8923259377905458e-02
      -4.8824283507981681e-02 4.4409355815341143e-03
      4.2902775314777999e-02 -5.4454864315605124e-02
      -1.5191704681353044e-02 4.9364991477784720e-01
      -3.6908708062878282e-01 1.1263755086187499e-01
      3.2527945246972156e-01 -2.0644690442611976e-01
      2.2576677246835380e-01 1.6860515470953313e-01
      -2.3513384307911420e-01 -1.1265664459561951e-01
      8.7578266394698026e-02 -3.2738772492736190e-01
      4.0431726749984569e-02 -1.1906303228547455e-01
      -1.5394522400027248e+00 -2.8596507568332902e-01
      3.9917077028175291e-02 -1.6425665521186472e-01
      -5.0296874845107108e-02 8.0322454955756989e-03
      3.7258735343391650e-02 -1.2078528839891711e-01
      -8.1905307031724550e-02 7.3074037934544117e-02
      -1.4301281833141102e-01 -9.8183264839359990e-02
      -3.5693956245646047e-01 1.7194873327369662e-02
      -3.1395191891360674e-01 -1.7428738171252633e-01
      -1.5411203195717280e-01 -2.9733787295187480e-01
      4.0633223376589998e-02 1.5350861553412332e-01
      -2.9822524731623083e+00 -4.4377407975023896e-02
      -1.3226479429378349e-03 -8.0825454947674458e-03
      3.3390089440986953e-02 2.0277113082386874e-01
      -5.2879264020956517e-02 5.5829122280001683e-02
      3.3848521881893023e-01 -3.0765243018948629e-01
      1.6503938415087106e-02 -9.0612090975841733e-02
      -4.2930301574566548e-01 -1.9678925826329249e-01
      2.9319460539377235e-01 -6.8213625968263011e-02
      -2.0289769526801310e-01 -1.5261642279974538e-01
      1.5866575731436044e-01 2.6301708822780412e-01
      -7.3919755488279193e-01 2.6228616059175736e-01
      -9.8163505356038475e-02 3.6530318637946096e-01
      2.7798827986754534e-02 1.5841920833502252e-01
      -8.5453819485941038e-02 -3.1403238201101843e-02
      2.6146189534940012e-01 -6.2569770991443741e-01
      1.6713596248881518e-01 -2.1965640058236452e-01
      3.2032275449982917e-01 -1.7228792540440177e-01
      4.6182088030094659e-01 2.5205281288498554e-01
      -3.7957678436586276e-02 7.5672997000592407e-02
      -5.7733929015175815e-02 1.0242124125431586e-01
      -1.2071432181198081e+00 2.7633064652912293e-01
      -1.1098381762871300e-01 -3.6519186138982411e-02
      -6.0627181834269156e-02 1.5325243478001757e-01
      -3.1248380001319714e-01 2.4016442947421199e-01
      1.5938235217775501e-01 -2.2643540066160239e-01
      -2.0665611390179139e-02 4.9980232204891402e-02
      -1.7533758922587867e-01 -3.0206906083594215e-01
      4.2632841549673478e-02 -7.7392700103519368e-02
      -9.9018736126041562e-02 -1.4915724303673708e-01
      -1.3076586528142151e-01 -4.2966492720771819e-02
      9.0910042584576112e-01 1.3224622864040272e-01
      -1.3829885388992022e-01 -9.4011010816319601e-02
      -1.5448984336687041e-01 -1.6177897297421293e-01
      -2.9581090633825513e-01 1.2630734648167299e-01
      -1.6424971014078776e-01 1.6034364102597337e-01
      5.3695853092220004e-02 -1.4793456736916236e-01
      -8.8838663695381612e-02 -1.7956045055121966e-01
      -4.9451070699984240e-01 -1.3953244568001413e-01
      1.8083833514223452e-01 9.7870666451488592e-02
      -1.2027104875979128e-01 -2.1724441331902458e-01
      5.4599964576220428e-01 6.8773672647030146e-02
      -1.4860092492802365e-01 -1.9272973466523818e-01
      -1.2147776905125322e-01 -8.9390492410639413e-02
      -9.9313341316446202e-02 2.3034752114300180e-01
      -2.8188142793112458e-01 3.8931911345538006e-01
      -2.1632093132900869e-02 1.9067880619952352e-02
      -7.5870212151510852e-02 -5.7805298706481489e-02
      -3.8995041850453244e-01 -1.5244262644693418e-02
      1.0396705904309116e-01 -7.6598833735105454e-02
      -1.0028282901573657e-01 -2.5138591078578632e-01
      -5.2550217336653493e-01 1.5672774033990190e-02
      -1.9876712692756934e-01 -1.1662568483448403e-01
      -7.9736267485253434e-02 -4.1547497107601819e-02
      -1.0939060875636166e-02 7.0368746213091138e-02
      -2.7541682415996477e-01 4.7726627220634543e-01
      -1.4338277281866149e-01 3.2165934146586007e-02
      -1.5917131074866980e-01 6.5429467544917394e-02
      -1.9827014870546375e-01 5.6776758726302362e-02
      -1.1153823179259800e-02 4.1570170272525520e-02
      -3.2542749768686784e-02 -2.3425021805621327e-01
      -9.6694005622382573e-01 -1.4000698924560259e-01
      8.5803028022261099e-02 1.0258636718984419e-01
      -2.6367488160745491e-02 -8.7419902105384473e-02
      -2.8526591152394704e-01 -1.2331176841466900e-01
      -1.0922994443477525e-01 3.1887839571704307e-01
      -2.8845818622379560e-01 -1.4289670946509776e-02
      -2.9137655913728294e-01 -1.6472521340414084e-01
      -1.7896049158831898e-01 2.1681517256569579e-02
      -2.1218346118740852e-03 2.4752026949832959e-01
      -2.6814658274201996e-02 -8.3594353290448366e-03
      -2.5394842843570814e-01 -8.8689556029748873e-02
      4.5364703769299797e-02 -1.3916740944739350e-01
      -8.0477970992122838e-02 -5.8227704049713100e-02
      -2.6400297766946346e-01 -9.0529528408871823e-02
      -1.8453861471685015e-01 4.2848315423950223e-01
      -1.2179530265405837e-01 -7.7404232955732663e-02
      -1.5006804370854515e-01 -1.4845244213601316e-02
      -2.7528360807628055e-01 2.9983445783799707e-03
      -1.8181800085751255e-02 3.6727857594120733e-01
      -1.1724130397103955e-04 -6.5003059509665603e-02
      -2.5848491286599438e+00 -1.6005606222727153e-01
      -6.4288358409758696e-03 1.1416708688071493e-01
      7.4594764005520328e-02 -1.0195002922311416e-01
      -6.8906915539233241e-02 -2.2766968278714406e-01
      1.2967723341420459e-01 -1.2243241122347850e-01
      -6.2768754075754163e-02 6.2220201658163679e-02
      -1.8143000740210666e-01 -2.0348201569057527e-02
      1.9438196564188118e-01 6.3618671362323284e-02
      -5.6373335233852510e-02 -1.2804640459396963e-01
      2.0535702751895762e-01 2.3295520561302527e-01
      2.1403504312731852e-01 -1.3611190904256570e-01
      -3.8497473608340674e-02 -1.8017782797662793e-02
      1.4466723596619754e-01 -4.5706284986227145e-03
      -1.3006822001963492e-01 9.4694742563938533e-02
      -1.8217232440495773e-01 4.8532315560154617e-02
      -2.3165315027334918e-01 3.7811844041721526e-02
      1.1978436144482377e-01 -2.2952916830694237e-01
      1.8061813113781330e-01 1.9401604835360641e-02
      -1.6878703683210663e-01 9.9620538092296179e-02
      3.8867002045755036e-02 1.7368973716394900e-01
      1.5136032940520012e+00 -1.2123086640913747e-01
      -1.6715831748065357e-01 1.1366541102282039e-01
      9.5573170173365210e-02 -6.5344507326067322e-02
      -9.9104381963639063e-02 1.4189058444536415e-01
      -5.2660053144161542e-02 2.1385325232671104e-01
      -2.5315826190682544e-01 -1.7399808614707984e-01
      4.2129537999306174e-02 -1.8603277713312472e-01
      -8.1171030364513452e-02 2.1567027856899801e-01
      1.1116998158044838e-01 2.1853572040426636e-01
      -1.2437333919519367e-02 8.6704029491826054e-02
      7.3387861980955904e-01 -1.0685863185085460e-01
      -2.0716194503402538e-01 3.6222251087140930e-02
      9.3873905474243999e-02 -2.8505177019031569e-01
      7.1128181834805501e-02 1.3765900150841209e-01
      -6.8150854332219929e-02 2.7217574641415815e-01
      -1.5571965475320643e-01 -9.0803884166262491e-02
      2.6302917569434547e-02 7.8520021948180283e-03
      -2.3387226882735010e-01 1.0517664733349555e-01
      1.7132095653750520e-01 2.1232150127021601e-01
      -2.4972027743240078e-02 -4.7955800155588091e-02
      -6.0935980055664585e-01 1.2339517258593918e-01
      -1.0735841724560280e-01 -6.0462037906137460e-02
      1.5656766242807099e-01 9.2196432715286700e-02
      4.3851237366453644e-01 1.7682802648719409e-01
      -7.4021836541775562e-02 2.6593118638001323e-01
      -2.0695192944667429e-01 3.1147573575086401e-01
      1.2602938412653392e-01 2.9075201443078680e-01
      1.0232376692058705e-01 -1.0203087543789741e-01
      3.2470385102288814e-02 2.1471489552307180e-01
      5.5120731056767194e-02 -1.4127935600548330e-01
      -5.9638344204649107e-01 8.6760827221834050e-02
      -1.5652303713580843e-02 -6.9232615085863994e-02
      7.6247347445292629e-02 1.9442068702107444e-03
      1.1799571315506216e-01 -2.6786013185018870e-01
      3.8802356074763865e-02 1.0036235612918623e-01
      -3.2576132675379593e-02 -1.7533503677366426e-02
      1.2083477178519587e-02 9.3129214433998436e-02
      -2.3788045167045507e-01 9.6614836358013836e-02
      2.6779603351818254e-01 3.0918569718730154e-01
      5.1674423135548597e-02 -5.4823594048534610e-02
      -9.7558232635552466e-01 -1.6558125775345489e-01
      -1.2198753838856469e-01 -9.7225096760703025e-02
      -6.9584199786419682e-03 -7.4843216981202443e-02
      2.1061539910252597e-01 -2.4240445879356559e-01
      -1.3619456247710873e-01 2.0261734578233662e-01
      2.1192633211221289e-02 1.4882655705736586e-01
      3.0288967809711371e-02 2.6893956729835172e-01
      -1.7995764216609714e-01 1.6760907031996439e-01
      4.1439483139322997e-01 9.7950244959940258e-02
      1.4280781534222026e-01 -2.3748822334401981e-01
      2.3197800728765494e-01 -1.8732488386509130e-01
      -6.8570013408749145e-02 -1.4069720425315521e-01
      -8.5062223970508596e-02 1.3511754425781260e-02
      -1.8907155414282198e-01 6.0980858866274947e-02
      -1.8902500857563645e-01 2.6210332086194027e-01
      -1.8035310188530893e-01 3.2886989833371044e-02
      -1.9624451591423506e-01 -8.0283049470864037e-02
      -2.6363328173718992e-01 2.1194131153665752e-01
      1.5009030386120209e-01 6.5531157691458286e-02
      -7.9030711321709815e-02 -7.3795408612441660e-02
      -3.8311299631053203e-01 -9.4041263650593121e-02
      -9.8158093707509164e-02 1.9884486159189244e-01
      -4.3027751597391896e-02 5.0496465715120405e-02
      -2.6406879941925993e-01 -4.1189254547465892e-01
      4.0106867863153116e-02 1.3175068575084073e-01
      2.0112366551710517e-01 -3.0323545931077772e-01
      6.1707250602934569e-02 -1.5432629250545707e-01
      -2.9557498890604814e-02 2.4171767750785006e-01
      -4.4559062786453888e-03 5.6989895227719592e-02
      -8.5980573807728458e-02 1.1517297313076942e-01
      2.5077834194371711e+00 -9.7807413717369729e-02
      9.4596007752225222e-02 6.9432308076684102e-02
      1.6692868007379479e-02 1.0555847494776623e-01
      -5.2114622855217752e-01 6.1603946283274091e-01
      -2.2983141754559194e-01 -1.0239526589708765e-01
      -1.1274788949102504e-01 -1.8873396238394002e-01
      -1.6396288257095420e-01 -3.5953069599123966e-01
      -4.8773902822850101e-02 2.7317941565297449e-01
      -1.9375126416629906e-01 3.3264434213285998e-01
      -1.4248185541455083e-01 1.6065423425993011e-01
      4.3497392063606355e-01 -1.1009040821270916e-01
      2.3622220489036706e-02 1.5562312991907606e-01
      6.5589903245503386e-03 -3.6313507184823381e-02
      -6.3267796384788993e-02 2.5168120820429796e-01
      -2.5358711776787474e-02 -1.6379503783164696e-02
      -6.8568989311950327e-03 -1.6132446515120272e-01
      -8.2261675713604626e-02 3.9701983351743721e-02
      -1.2194861586051792e-01 -1.7585635646931327e-01
      1.1727761559255584e-02 -9.0554631149499826e-02
      -2.4127333254045841e-02 1.1329808684450868e-01
      -3.9708051282960372e-01 -8.9848314301608487e-02
      -1.1624434239170218e-02 1.0400651335690672e-01
      -5.7147599520384049e-02 -7.7475904498419540e-02
      -2.2870593507178540e-02 -1.2873287426714503e-01
      2.0894853498514401e-01 -1.4291118257164015e-01
      -1.4458982125235487e-01 -2.7772290859446813e-01
      -2.5729090645753278e-01 1.9390457135360642e-01
      -3.2035413640674304e-02 1.3323548044955813e-01
      -5.9578818396079876e-02 -1.0930017852763102e-01
      1.1462479153997203e-01 1.1006344191227378e-01
      4.4591597501347033e+00 -1.1168580350872837e-01
      -6.1192745346696414e-02 7.7106269859590737e-02
      -5.3473525332877352e-02 5.0437765453054187e-02
      -1.0981343492286164e-01 -5.0965705304798409e-02
      1.2094797598059737e-01 -2.1466665780266592e-01
      -1.0372631787271050e-01 -1.2103351813109745e-01
      1.8052965840012924e-02 6.0956983258521537e-02
      3.7772145787723872e-02 3.3250026822188450e-01
      9.4713487303319646e-02 -1.3516339126251334e-01
      2.6509593631134700e-04 -3.2950989885619031e-01
      2.1778879042091326e+00 6.8229218577833636e-02
      -1.6450975748316726e-01 1.3545623972940918e-01
      -1.4098713573722699e-01 -7.2464603586927107e-02
      4.3528389967611242e-02 -1.9374055249826139e-01
      2.3172925982202205e-01 -1.0778099588425659e-01
      1.0160183685011644e-01 -2.7315643130983780e-01
      1.2160670828071379e-01 8.0643686767363332e-02
      -6.4205051868767071e-02 5.1508882708771145e-02
      3.4013910284471577e-01 -1.3843935893334045e-01
      3.3428119067241545e-02 -2.0089818226882653e-01
      6.6066177125186543e-01 2.2382055327918768e-01
      -3.2159594760325316e-01 7.0398776807463384e-02
      -1.0456098833313750e-01 -6.4439567520103255e-02
      -1.0122253197893571e-01 1.3729166336769882e-01
      5.1312635352303657e-03 6.7108569891323813e-02
      1.9710241499555042e-01 -2.6480328543581133e-01
      -7.9134725560455532e-02 -2.2899924543709474e-01
      -2.8510119929588001e-01 7.5950030354026948e-02
      2.8022197567352408e-01 1.2426458232891902e-01
      -1.0647589863530575e-01 -3.9971767911576339e-01
      6.3324192048103700e-01 4.8701657153063647e-02
      -1.5402217068399618e-01 -1.6720919937740614e-01
      -7.3423039626535222e-02 -1.8033741917497426e-01
      2.3980731083900952e-01 -1.1628193567382707e-01
      -3.4719022488131107e-02 2.3076460203338112e-01
      -2.2787634635877813e-02 -4.6640515614739711e-02
      -2.6543586926391904e-01 1.6934927357557220e-01
      -3.9121013261173365e-01 -1.7177694353366341e-01
      9.8644681548897661e-02 5.6297509382994701e-02
      -4.1061733378982869e-02 -2.5322865121311106e-01
      -8.8708113266526378e-01 1.8148517086713448e-01
      -1.5000659722295920e-01 -2.6779156091119616e-01
      -5.2851422063177771e-02 5.6797233329280737e-02
      -8.9585119608118796e-02 2.1587157352451000e-01
      -1.8445781509408099e-01 4.5751338839727496e-01
      -7.3026329189535680e-02 -9.3615999030732922e-02
      -2.7399334849346318e-01 3.7638874483009982e-02
      -3.6428773908331741e-01 -3.2829464428882980e-02
      -1.9133840048083081e-01 2.9542318733218703e-01
      -1.4542182286885008e-01 -1.2525539032520211e-01
      -1.0675904817626887e+00 1.0538371351566343e-01
      -1.3928424030947337e-01 1.7456695746413978e-01
      -8.0328185714916372e-02 -1.7099551756666603e-01
      -6.3116643801469641e-02 1.6949700469474197e-01
      -2.7762162849052391e-01 2.7922624688291492e-01
      1.3513458927720651e-01 4.2133833066687269e-02
      1.7326849827053090e-01 2.6029121177161534e-03
      1.4224688354448439e-01 2.4201328068189260e-01
      1.6806309085004589e-02 1.7611911818817952e-01
      1.2227678165147617e-01 -1.3528569472582666e-01
      -1.0769150105526870e+00 -2.1397894444631646e-03
      9.9930065101746776e-02 1.9086192350910178e-01
      6.5215191894027651e-03 -1.0045791818747003e-01
      -6.8519325517216526e-02 3.9360462500724877e-02
      -1.3021208593465855e-01 2.8777104678966664e-01
      -2.8227113450915525e-01 7.7090975280192597e-02
      -1.3278292840250910e-01 -3.8126350234939724e-02
      9.2299039743968650e-02 7.0118592249379053e-02
      -5.2134240149661865e-02 1.2565554079677677e-01
      3.6386077270237127e-02 8.6607327860116087e-02
      -1.5669042340273815e+00 -1.6933164441489143e-01
      1.4713831600467775e-01 1.3545879723323115e-01
      3.3098668870704104e-02 -6.4165219587377240e-02
      -1.9837286837294288e-01 -2.3433164688728958e-01
      2.0988026106893931e-02 1.5589312084383083e-01
      -3.1948358882188700e-02 -1.2408066463401191e-01
      -4.0648438955426511e-02 -4.5765638040416098e-02
      2.0689854433717919e-01 1.1800695168425976e-01
      -1.7691115764815826e-02 1.5689785312435098e-01
      7.5683622789151028e-02 1.7779322645118181e-01
      -1.4269766819873899e+00 -5.4548730028449503e-02
      -8.0878310938941128e-02 4.1392379847572858e-01
      2.6864076217237302e-02 -2.0921513111287138e-01
      -2.6645710314840809e-01 -1.1828874213260193e-01
      1.1232304600859952e-01 -7.1148465922932530e-02
      2.5264758968354954e-02 -9.8669204208725866e-02
      2.8184854140563542e-01 -5.2392307045401279e-02
      3.3061838267854698e-01 2.4053440038807955e-01
      4.3159529136675853e-02 1.4334221339594821e-01
      1.2493464384115092e-01 1.9161090830984706e-01
      -5.6319440750957406e-01 -3.0630242180700779e-02
      -1.4583957891405211e-01 4.2145965736596336e-01
      6.8301450155870604e-03 -2.8656622741663523e-01
      -2.5671259749291347e-01 -1.7942461710883845e-01
      4.6687819929566797e-02 -1.0624610969170246e-01
      2.3089586300891901e-01 -9.8609771721098707e-02
      3.1624316257013024e-01 -2.5215674634357872e-02
      3.2405516798963174e-01 2.5090428997063607e-01
      1.5568617694429152e-01 1.2009594714759492e-01
      2.0462738206423531e-01 8.8339603408951084e-02
      -1.0217208526515882e+00 2.9218834113607862e-02
      -2.9150224049033785e-01 4.1577607918298687e-01
      -1.2941718819285273e-02 -3.0884688369064300e-01
      -1.9864316903474269e-01 -4.1809917109379063e-02
      1.4066488644260222e-01 1.5975530778562586e-01
      2.3611971274113733e-01 -3.0001922311592844e-01
      1.5075483491266792e-01 7.6321524990707337e-02
      7.0274740364078192e-03 3.1402047948029299e-01
      2.6034473758067306e-01 9.5589315552761678e-02
      1.3522579991591346e-01 -7.1493300606322641e-02
      9.9492075132593272e-01 -2.0151325429994171e-01
      -2.0807397764757596e-01 1.2465008482607461e-01
      2.0748899235555122e-02 -2.1933381950473621e-01
      2.6966933279872377e-02 -1.5348340383782144e-01
      2.0924061616782724e-01 1.6588356691141651e-01
      -2.0409406192619053e-01 -3.4985659776727129e-01
      -3.7827043888096151e-01 1.2814061306135816e-01
      -3.2590843980568446e-01 1.5069488377055351e-01
      1.1470997314508041e-01 1.9156739463921438e-01
      9.1999648353440877e-02 -6.7740239075324282e-02
      4.9143613569219169e-01 2.2487150000245339e-02
      -1.6775931547993850e-01 -1.0756287845164089e-01
      5.4253679339025300e-02 -2.0799084042240661e-02
      4.2304814469585880e-02 1.3917388988063878e-01
      -2.3187976945997085e-01 2.3244705358418252e-01
      -2.2990472603088152e-01 -8.9264686513615243e-02
      -2.6315828196770358e-01 3.3800114742211215e-02
      -2.0035832632748554e-01 1.0266252027449452e-01
      3.5603359899967671e-02 1.3298133359207873e-01
      -1.0481101893174705e-01 -3.8513341311978262e-02
      -3.9880206421532521e-01 -9.6921296576148626e-03
      -1.5782205944134384e-01 -7.9026459743719649e-02
      -6.2883779934737233e-02 -1.8643758784266135e-02
      4.1191300814508125e-01 -2.3212911033471229e-01
      6.6120057164461468e-02 8.6785587251614435e-02
      -2.2983364539380602e-01 1.9549518303701563e-01
      -3.4282530134315548e-01 3.8686826680099529e-01
      -1.2088111574526103e-01 6.6235662172403967e-02
      5.0351625866705387e-03 1.2131703086492897e-01
      2.5768854430209365e-02 -3.3768432332008651e-02
      3.5043424069787443e-01 -1.2984214707961228e-01
      -6.9655967359792001e-02 -1.8658343228981800e-01
      -1.4342223363389356e-01 4.7885578253856385e-02
      2.3971231187257785e-01 -3.4100518080130959e-01
      5.7753817082459987e-03 2.1592980838694420e-01
      -2.2361215872609322e-01 2.2990381324788495e-01
      -1.1380643539512629e-01 2.0596973255213782e-01
      -3.6954822074152149e-01 1.7398173420871371e-01
      1.4932642447650138e-01 6.8354622675897786e-02
      -7.3433208486965829e-02 -1.0262108906400426e-01
      5.2608376790953237e-01 -1.8260854352504069e-01
      -6.3970437136621330e-02 -8.6211024810546030e-02
      -1.2751295254586476e-01 5.9683248224803656e-02
      1.7706142107803483e-01 -3.6570043710776812e-01
      1.9606482605890175e-03 1.1779701158619374e-01
      -1.6133848786588736e-01 2.2871682847609384e-01
      -6.2766883064020340e-02 2.0367955663211895e-01
      -2.7221587788817164e-01 2.0111161496156826e-01
      2.7039224983426735e-01 6.6084224664505142e-02
      1.6523900776249736e-02 -1.9207784287099100e-01
      -5.1032021683938311e-01 -1.4070934004252764e-01
      -3.5676080540423566e-02 2.0813302124579162e-02
      -1.8057560931660882e-01 1.7177029947607596e-02
      -2.2268069015506825e-01 -4.9719133676385668e-02
      -1.0077332205002701e-01 -7.4839953084066668e-03
      -6.9976960562101245e-02 1.2506622329593978e-01
      -2.6452120421021830e-01 -8.2420530486380233e-02
      -3.3519405205693083e-02 2.2030345928884271e-01
      1.3632210358613270e-01 6.9231053632159895e-02
      -1.1851299167466972e-01 1.0232060404217384e-01
      5.5463846241481296e-01 7.6667910330613487e-02
      -4.4243752181396451e-02 -1.0644370359962554e-01
      4.3391189901415987e-02 9.7099276009117469e-02
      1.3234608685488339e-01 -1.4305591673021131e-01
      -2.9937532415138424e-01 1.7258159773655302e-01
      2.5211865090570679e-02 -5.5032115103813561e-02
      -2.4226965110917209e-01 -8.9410110423524397e-02
      -6.7570868765451080e-03 -1.2209508317683586e-03
      -8.7980164207272435e-02 -1.1907738704460716e-01
      1.3247324398822046e-02 9.1465990064935665e-02
      -3.5148218657963437e-01 4.5634702073247248e-02
      -5.1291781138307672e-02 1.1592781514159665e-01
      5.9060197220809414e-02 -3.9549994751882298e-02
      -3.3264791644278275e-03 4.0996400851890735e-01
      2.2668021316465964e-01 -5.6026397660224860e-02
      -1.2181263960146118e-02 -5.8188213748018046e-02
      -6.3708279169240351e-02 4.1586066428368762e-02
      -4.2234456646442535e-02 -1.1979600750521106e-01
      -1.0623734245748322e-01 -1.2117127810759631e-01
      -2.0453148827440995e-02 9.6280843966757679e-02
      4.1879768984371006e+00 1.8061013374181373e-01
      6.9065379701393398e-02 -1.2731810254340916e-03
      -3.2532828052607508e-02 1.3783243307157500e-01
      -3.4649857133013293e-03 -1.1718531266353620e-01
      -2.9232006177760778e-01 -6.1613452335698628e-02
      -2.9344667759101001e-01 -6.8876859469343679e-03
      -5.7039061619287304e-02 2.1248799809291386e-02
      -2.3296246252683860e-02 2.6803412665476051e-01
      -1.9107179338886160e-01 -2.8767873822290905e-02
      -4.8194797137601927e-02 -6.7482854905827144e-02
      1.4837315115639893e+00 -6.6159523796655476e-02
      -1.3183082940895557e-01 -2.4553657633347655e-02
      -4.5775216109230112e-02 1.2487575785525498e-01
      3.3259403446272745e-01 -3.9590718357687227e-01
      2.8379634030173534e-01 -2.7020060547098379e-01
      -2.5029444162200137e-01 -7.5000541936526360e-02
      -2.3018839758356643e-01 1.7420349442976091e-01
      1.3121596268693997e-01 -9.2567836498718539e-02
      4.4397151675771504e-02 -5.4088248416153284e-01
      1.6702558101845830e-01 -1.1584937763947753e-01
      2.5612795039819836e+00 -3.8738448297738551e-02
      -2.0903759643287470e-01 -3.5877388126600551e-01
      -6.4693154190953936e-02 1.2578877915408088e-01
      4.8294044259872942e-01 -8.7685558018882462e-02
      -8.6725673957831484e-02 1.0239659153102149e-01
      -2.2414550264694147e-01 2.0947964620392798e-01
      -2.2771235530515457e-01 2.7618237685948394e-01
      -1.8535954391570467e-01 -2.8680733931180385e-01
      1.0221560091139547e-02 -2.9406764462558016e-01
      -5.7839976583435475e-02 -3.0502724319046243e-01
      8.1458237453724747e-01 1.7167683420660398e-01
      -3.1085780670885099e-01 -1.9329006156382905e-01
      -1.1956635103987858e-02 -2.0502390114643793e-01
      3.6639939895247364e-01 1.5485678238408751e-01
      -1.2760125864111765e-01 2.0792738971470076e-01
      1.2725377158459544e-01 2.2001129847281649e-02
      -1.4787591174717429e-01 5.1242578291971361e-02
      -2.1069199225719229e-01 -1.5750901580692600e-01
      1.4822368505413216e-01 -4.0078714905712270e-02
      -2.3441762364433769e-02 -3.4324530561900601e-01
      1.6151746940772589e+00 -5.4754130946134787e-02
      -7.8394780627625879e-02 3.8959765744113739e-01
      3.5392008274522942e-02 -2.6949689547575700e-01
      -7.5689595918767602e-02 -1.1633176511074922e-01
      -3.2048854429391357e-02 -1.9794481570134765e-02
      5.7277460174290096e-01 1.4349815534517276e-02
      2.3838223068459394e-01 -6.0885835335656141e-02
      -4.7261387404300220e-02 9.8339595387776868e-02
      2.4071300141240690e-01 2.1600100056195625e-02
      5.0602684196707992e-02 -1.3332446739410672e-01
      -3.1343296627325934e+00 2.8267949241784973e-01
      -3.0049152801758374e-02 -9.5256024609019857e-02
      2.0455627279291254e-02 1.9443203291278791e-01
      -7.1840573426120227e-02 1.5556350430778235e-01
      -1.5262495212547225e-01 2.3246755053909446e-01
      2.4113563138117869e-01 2.1602024696927530e-01
      -2.3088310248789268e-01 -2.3371092361238024e-01
      2.1805719327071038e-01 2.3566614241231108e-02
      -1.7942690555724786e-01 1.8540927757333914e-01
      -2.7790180234978989e-02 1.0645254000917847e-02
      -1.1560320162130340e+00 4.1982597020558697e-02
      3.8353502158739645e-03 -1.7792462796761938e-01
      2.9812146693085028e-02 8.7330312640089780e-02
      -2.2805763070006940e-01 3.6234756790711449e-03
      -3.2952745877011941e-01 4.5705711715644909e-01
      1.6443419000392989e-02 1.5201328743716545e-02
      -4.5154080496442366e-02 -1.3755391669484349e-01
      -8.8468289671988901e-02 3.7995292422512289e-02
      -2.4837202065953551e-01 1.7469828656789524e-01
      3.2045057268312982e-04 -1.0960744931973366e-02
      -2.9326028558632977e-01 -1.5280503507133458e-01
      8.6503637150199708e-02 9.2611506146288776e-04
      -7.5019285104278100e-03 -6.1809584644297422e-02
      -1.9736992668321973e-01 -2.5265457246810508e-01
      -2.0410552837044790e-01 3.1474076773958282e-01
      -9.3490992926202790e-02 -2.0131195051374131e-03
      -1.3043724833479475e-01 -8.8510612838537381e-02
      -1.2485679910783776e-01 4.3003332088218889e-02
      -1.9976448613326134e-01 9.5111509246353282e-02
      1.2389981030089603e-01 1.8719470284870771e-01
      -2.4774551370211872e-01 -2.7425199622810348e-01
      5.8676842536911203e-02 3.5799647551324032e-01
      4.5687380259338543e-02 -2.2217761587666349e-01
      -1.0117227458907678e-01 -3.4019453366920882e-01
      1.0387344547039924e-01 2.6139847389097470e-02
      -2.2544352951499930e-01 -1.1978953269925363e-01
      3.8814230071436175e-02 -1.5408752866463674e-01
      6.1313961968186469e-02 8.8978369452340333e-02
      1.0217820511348283e-01 3.8287211027150249e-02
      4.9710896895754801e-02 2.0636724781961943e-01
      2.7019208341459156e-01 -2.0248788997257619e-01
      1.7390831512916666e-01 2.3243354519506773e-01
      -6.2221184922775022e-03 -1.1351389357730722e-01
      -2.7778202474283820e-01 -2.5797936088122359e-01
      8.8118856999911635e-02 -6.2138022629275549e-02
      -2.8662979658415838e-01 -3.8753756917911130e-03
      9.4170326393031537e-02 -1.8024734681277732e-01
      1.5132122235940401e-01 4.0386031298798905e-02
      5.7281553492407071e-03 2.8757501151395928e-02
      -5.7961301042947491e-03 2.3082539356032183e-01
      -1.7307535348235050e+00 -9.2057661004667682e-02
      -6.1063662464273645e-02 -1.7547008520049798e-02
      4.3187638314809963e-02 -7.2306948582932629e-02
      -4.1919646301853387e-02 -2.0705378578085251e-01
      1.8025280588719059e-01 -1.5731185560224629e-02
      1.3658145899863058e-01 -7.9133165359825952e-02
      -1.9118774273291266e-02 6.3607734131285995e-02
      6.5654014534773111e-02 3.3995075756043859e-02
      -2.9713772224626123e-02 -1.6230975031433303e-01
      1.4462280305655703e-02 8.7254273850734226e-02
      -8.9196530255014073e-01 -1.0684168121199792e-02
      -1.5373384715026911e-01 8.0565544452738322e-02
      -1.9232683902406882e-02 -2.3851923515820436e-01
      -1.7711813968320420e-01 -8.6529213988490880e-02
      -5.0024712822920515e-02 -7.9571073866186545e-02
      7.8646534699614593e-02 -6.5369734404189778e-02
      6.8789484666417863e-02 2.5268628388904604e-02
      5.8087093194840497e-02 1.7013948152625510e-01
      6.2451268229481841e-02 -5.8917482115983563e-02
      4.7024358897419904e-02 2.4006375780456148e-02
      -2.0159779898876387e-01 2.3164343419020354e-02
      -3.9781764605696990e-02 2.0782938028253508e-02
      1.2158993825074826e-02 -6.8009567929861084e-02
      -7.5461590529996514e-02 8.2233164056177976e-02
      -8.0721000023092279e-02 -1.0707880450475203e-01
      -8.3355507834866865e-02 2.1675069899030026e-02
      3.4428039276570725e-02 6.2150958590586364e-02
      2.0660298462328048e-03 9.3053205167496350e-02
      -1.8243387930450419e-01 4.8433075692674646e-02
      -1.2157377130510659e-01 8.6124264937624345e-02
      -4.8454003808550217e-01 2.3593843028595388e-01
      -8.2976901143911291e-02 -6.7504126757676475e-02
      6.3133676397061314e-02 2.0163063629613640e-01
      9.1668068038279898e-02 1.5210327667240989e-01
      -2.6830929229223751e-02 -8.0329351647772329e-02
      -4.5353244434523640e-02 1.2445861741942520e-01
      -5.8323938273279675e-02 1.2751823900358672e-01
      7.9447703739622885e-02 -8.6315643861934485e-04
      -3.6460501176567417e-01 1.4462238630604182e-01
      -5.8445598535804527e-02 1.8561051904433637e-01
      8.2350523787284935e-01 -1.0992745799960338e-01
      -2.9712315545171782e-02 1.4523199295111466e-01
      -7.6656556716129448e-02 -2.3395932663952609e-02
      1.1175614452939937e-01 -2.0068384467392111e-01
      6.5529036621706768e-02 -8.2170856148595622e-02
      -2.2855562632838258e-01 2.6679110845668857e-01
      -1.6782161712709931e-01 2.1418589176829658e-01
      3.4631397811953353e-02 6.5426655931971028e-02
      -1.3084575803640933e-01 9.8576596796968924e-02
      -3.1036571431913115e-02 1.1983913829532025e-01
      6.4937005827763028e-01 -1.4225793922121630e-01
      -5.9696103341607722e-02 -3.4465273777569100e-01
      -1.1565830139235732e-01 2.0678184023810889e-01
      2.1797657191994180e-01 -2.0553616188641627e-01
      -1.0054984765272293e-01 3.2753438885280278e-01
      -1.5926640264405035e-02 4.6758136096292480e-01
      -4.2164822353465525e-01 2.2533065399537924e-01
      -1.0879328292248470e-01 3.3207702694316721e-02
      -3.8848695480593054e-02 1.5425601557581272e-02
      -6.5582563491690685e-02 -1.8118241199574373e-01
      1.7994675422379234e+00 -8.9156186846610169e-02
      -6.4487998171147587e-02 5.1623388080169967e-02
      -9.8084758086011206e-02 -8.6259884279536278e-02
      1.5558991864066365e-01 -2.8878719138604253e-01
      1.4304464451656437e-01 2.6034081181581309e-01
      1.1582225224031378e-01 6.3113754134852939e-03
      -5.9695512624579679e-02 9.4727445352201775e-02
      -4.2193209456658715e-01 1.1607626589092646e-01
      2.3712351801957274e-01 2.1199475351928465e-01
      -4.0904471238994725e-02 -2.5330355290200934e-01
      1.4078804661138306e-01 -1.2514940948539641e-01
      8.5536405217337391e-03 -3.1951826221261859e-01
      -3.1612154689003615e-02 1.8058527091516136e-01
      3.0972764950476134e-01 -4.3476251055623882e-01
      -1.9925994451049531e-01 3.4865278981435560e-01
      -1.7639322557272150e-01 3.1697291424337770e-01
      -1.4274611720020183e-01 2.1248810821012712e-01
      -3.4232640137406983e-01 -8.1128518782834794e-02
      7.8306039345914045e-03 1.1364473392657788e-01
      2.7951229323298660e-02 2.9036561576647055e-02
      -2.2857881131857067e-02 -6.2142591702786340e-02
      -1.0433560317424505e-02 -1.2645782425273713e-01
      -1.0152672523015176e-01 1.2364863763251462e-01
      3.2834478657439231e-01 -1.0221112785530798e-01
      -9.3909934905672232e-02 2.1053677744002231e-02
      -4.9682437352838095e-02 4.0081074340756778e-01
      -1.6240528659310585e-01 2.4417463248979898e-01
      1.2855471708855981e-01 -1.2367585808721317e-01
      -6.3230908640254310e-02 -2.4247220465398378e-01
      1.1105309364236648e-01 4.9526808242718129e-02
      9.9165542041822485e-01 -8.6456812787654564e-04
      -1.1742385119478798e-02 -1.0071184589605350e-01
      1.1831692553316590e-02 1.2494998004381458e-01
      5.8555347406366400e-02 1.9875641686206894e-01
      -1.6513284211200754e-02 6.9024192741981585e-02
      1.9113356015461483e-01 9.7624714689781539e-02
      -2.5533763311180235e-02 -2.6341021806162468e-01
      6.9931937125421756e-02 -1.2656770562919262e-01
      -1.5136365488912509e-01 -1.1104107270841809e-01
      6.4512186786362599e-02 1.2727882597073642e-01
      3.3390443731069515e+00 -2.7703237381892242e-02
      -1.8561310213815393e-02 -4.0549574551635603e-02
      -8.1242080847623174e-02 1.8351229551623237e-02
      -1.0746424495262258e-01 -1.2247337745045483e-01
      1.4066420822760317e-03 -4.6545458360874772e-02
      -8.5943824895351378e-02 -6.7921916155533169e-02
      -5.5682845158816885e-02 -5.8738902908414608e-03
      -7.2851178500920433e-02 -1.5601880544790440e-02
      -1.1081579049520500e-01 -1.2390982249130814e-01
      -1.1069523528847623e-01 -1.2069676865691535e-01
      3.7230442485408672e+00 -1.0512632069020525e-01
      5.8347770617963512e-03 3.4240207769585432e-02
      -5.0434015070778410e-02 1.0566106888905608e-01
      4.3842224778895170e-02 -1.9656352678921668e-01
      9.0855657938499076e-02 -1.4839366002033580e-01
      -2.6245047098105079e-01 -1.0456884805996254e-01
      -2.8336787012316755e-01 -1.2284168403822851e-01
      -7.4458055527166084e-02 -7.3961083959131479e-02
      -4.6871411163582587e-02 -2.2184072234203087e-01
      -5.1089811488406370e-02 -2.5647111605482002e-02
      4.7850191448365047e+00 -2.3620271843499863e-01
      -7.0393654341346076e-02 -2.9062427494145071e-01
      -4.9103259898724418e-02 -8.5390174991420223e-02
      3.8261499446892944e-01 -5.9614956836977720e-02
      -1.7021977013888659e-01 3.3980186708630478e-01
      -1.2734437406283086e-01 7.3335003946508132e-02
      -2.7038473292798204e-01 1.3806729817771135e-01
      -2.9343262350359556e-01 -2.2759711204404376e-01
      6.2132030024616938e-02 -2.7962277156469822e-01
      9.5030890129232201e-02 -2.6306209800268671e-01
      3.9905359390738004e+00 1.3999776619196864e-02
      -2.1821530772710398e-02 1.2064439368035643e-01
      -8.1106077664051660e-02 -1.7838142112809210e-01
      1.3741609370013527e-01 -1.2011077956335348e-01
      -2.2466087872189033e-01 1.4047261199913952e-01
      -1.4278047346122230e-02 -1.8927882824091644e-01
      -5.7583479830421669e-02 -3.0954724317689558e-03
      -1.3891119844395877e-01 -4.2170267622189672e-02
      1.1380850221555780e-01 -1.1445345172734564e-01
      9.9204114433851409e-02 -1.1460959430068619e-01
      9.0006324170268814e-01 1.7050839170219077e-04
      1.4010924521339396e-02 7.2394473577020710e-02
      -4.8554758097856629e-02 -4.2839697155674601e-02
      -1.0854738540565198e-01 -3.0932627926164169e-01
      5.7569366081329142e-02 8.6359460965070078e-02
      1.5500053677859713e-01 -6.3234601643795019e-02
      -1.5044976148952471e-01 -4.1037748020292739e-02
      -1.5582796050352918e-01 7.3280117777581571e-03
      -2.9216361408134217e-02 -1.3726478391782518e-01
      -7.7168279007524626e-02 -3.7609223301312694e-02
      -2.1667354760305844e+00 4.2167052913115099e-03
      9.3207871531840819e-02 -9.7937774568650451e-02
      2.4305830982489490e-02 8.2890714759980930e-02
      -2.2201559807435139e-01 -5.4995181178494383e-02
      -1.2960092879179055e-01 4.0445622197122649e-01
      5.5070195423196069e-03 9.2325280411244742e-02
      -3.3571166962487681e-01 -2.7462244892083743e-01
      -1.4212324435354551e-01 -3.2411393333237060e-02
      -1.7083482522569782e-01 2.0225019633292367e-02
      -4.7234508620026552e-02 4.4835840606603880e-02
      -1.0832724726066181e+00 -2.0510140957241663e-01
      1.7535787169595171e-01 -6.0441101243936868e-02
      -1.9125103684381993e-02 -1.3294099416060168e-01
      -2.5203439496376667e-01 -7.1068984480454928e-02
      -1.5246224519067075e-01 2.5614061934726362e-01
      5.9347271729209540e-02 1.0996019803895529e-02
      -3.0684016317226059e-01 -1.5886516213827614e-01
      -1.5936856277487843e-01 -2.7961485604007359e-02
      -1.9944141697046117e-01 -1.6204290362581375e-01
      7.6621710991226916e-02 2.4617014576502971e-01
      -5.3454425392365257e-01 5.8944599823654444e-02
      2.9196173536472005e-02 -3.6905060538724465e-03
      -7.0043077437808132e-02 -1.2966960971092040e-01
      -4.4058579234705457e-02 -7.6587553725122479e-02
      -1.3367966033429621e-01 3.0717140483311711e-01
      8.2619082767986698e-02 1.0248751532994844e-03
      -1.1571656210248411e-01 1.3578815934263511e-01
      -1.8386232057857532e-01 1.5770718376364037e-02
      2.8095051116597846e-03 -6.7108699153408696e-02
      -1.4363872751490075e-02 8.8184999727717137e-02
      -7.2112344588168764e-01 -1.2461714971909465e-02
      1.2637833339664123e-01 2.2908614014185122e-01
      -6.4036149487454230e-02 -1.7231528505209687e-01
      -1.4471288411155594e-01 -1.8254145479212949e-01
      4.4729775279465818e-02 -9.1859207186456251e-02
      6.4498249181002817e-02 -8.7533667223232400e-02
      -1.0034053402685825e-01 -2.6716305464741224e-02
      8.5799005459668579e-02 5.4020418778979215e-02
      2.3279896839523261e-02 -1.0484707039896757e-01
      -4.8403636599971323e-02 1.8130419814593349e-01
      -2.2937103554015392e+00 1.6945899344154405e-01
      5.4712780573268206e-02 4.1997699762908507e-02
      -2.5976645628989832e-02 2.5894335261209087e-02
      7.7707880008392877e-02 -1.3387666023794148e-01
      1.3965189008124707e-01 -5.7814508943568689e-02
      -1.0093596042055131e-01 -7.1960164428945270e-03
      -1.4641206113843599e-01 4.7321908118863280e-03
      1.4735544341753590e-01 -4.6322144406527530e-02
      -2.9866867204906920e-02 -1.0422056201705403e-01
      -6.4072660729123945e-02 8.0222323116525482e-02
      -2.3180661198337047e+00 8.5218567290116148e-02
      9.6387408777531769e-02 -9.0569450275713892e-02
      1.2475744795128809e-02 7.1708322009370121e-02
      -1.8049759831092210e-01 -1.4981554669716815e-01
      2.8032346330887276e-02 -1.3378237807043292e-01
      6.2778467266442775e-02 2.6841222124452829e-01
      1.3300164273176035e-01 6.4171114504816315e-02
      1.9640553812455194e-01 -1.3287908036913744e-02
      -1.1099396879601875e-01 -4.5984019634896380e-02
      3.1319993744408629e-02 3.0080580256691983e-02
      -1.8694007926199714e+00 6.5475902611162221e-02
      1.5845465434647119e-01 -2.6999077993190979e-01
      -5.1527488910298777e-02 1.8369649955427733e-01
      -2.7263463476987748e-01 7.2629628142613756e-02
      -8.9116062680540467e-02 -5.1382023474147377e-04
      -1.2679421307456513e-02 5.1592773119400387e-02
      -3.2350087724692139e-02 -1.7527392128374727e-01
      1.2908378069424981e-01 1.2069919147805816e-01
      -9.5079575227963231e-02 -5.6536063558999795e-02
      -2.0671831087311238e-01 -2.5389466889777397e-02
      -1.8476914637628155e+00 8.0002339533525799e-02
      5.4922157147811290e-02 -9.0093492092617133e-02
      2.4847750313582644e-04 1.3635707367817124e-01
      -2.1663129619820426e-01 8.4290087671019434e-02
      4.2351492743364924e-03 -1.1520450259861902e-01
      -4.1405523815865444e-02 9.7935547125411013e-02
      -6.0670042186050509e-02 -1.1718044661687079e-02
      2.0233352612740968e-01 5.0521868662139827e-02
      -1.3911861858079050e-01 -1.4946169664130000e-02
      -1.9594522942832590e-01 4.7563792469989194e-02
      3.2065661018531966e-01 -9.5818808108927789e-02
      4.4320758816060582e-02 1.4192735397690167e-02
      -3.5026374835240411e-02 -2.5199981425106079e-02
      -1.1344494566565147e-01 -4.3812358997196287e-02
      -8.0235418623335103e-04 -1.4225527881245334e-01
      -2.6294396569261514e-02 1.0087376729589913e-01
      1.0650447053154407e-02 5.7125775990494357e-02
      1.5273588308646574e-01 2.2319762482757237e-02
      -1.1650501725476517e-01 2.1763804087185645e-02
      -1.9184173916752878e-01 2.0954889273799387e-01
      4.6855639801257731e-02 7.2556670929039405e-02
      -1.5304077782782963e-01 6.6544133375691428e-02
      4.2128989058801782e-02 2.0691812984381358e-02
      1.7846370956363225e-01 1.8380376593249223e-01
      -5.0410879691779972e-02 -8.7917618198640191e-02
      2.4549080421208593e-02 1.2550376551730122e-01
      2.2579015351055970e-02 -4.3739390512147439e-02
      1.9493229251857827e-01 -1.9294895551680610e-02
      -1.7627858579024830e-01 1.7743004473573204e-01
      2.6464869738091663e-02 1.7786242887887252e-01
      1.1064230802742032e+00 -1.5525866494319823e-01
      -3.8489833770236584e-02 -8.4858978758543716e-02
      -1.3743308071999830e-01 6.4444741053624771e-02
      2.3415766852644371e-01 -1.8744776501908392e-01
      -1.3019945808102745e-01 1.3733963183660938e-01
      -2.5027472611947282e-03 3.3132459789893776e-01
      -1.8986947479231081e-01 2.4283374933799873e-01
      -3.4417014326059654e-02 1.2266988878061290e-01
      -1.6160513140542629e-03 9.0606562557151701e-02
      -1.3448563252230452e-02 -1.1370428571929059e-01
      1.5675440028759531e+00 1.7431875367313290e-02
      -8.3234859842606979e-02 1.1280907779441991e-01
      -5.3585933731925564e-02 -6.8454802227651768e-02
      4.7369495666297619e-02 -1.2770663096718810e-01
      1.5052060876243068e-02 3.4154823038696513e-01
      -1.9142818019792739e-03 6.3676960161766730e-02
      -3.6294415567167379e-02 -2.1343446999523560e-02
      -1.5709637704373292e-01 2.1639861440236821e-01
      2.0441458490734238e-01 1.7260009017633179e-01
      -1.2355710324149044e-01 -2.1074768048599032e-01
      4.9829044197548811e-01 -7.5636493493299831e-02
      -8.4741694602195633e-02 -8.6544711477246992e-03
      -3.7266371117899114e-02 -1.3655442061558098e-01
      2.7676329117204990e-01 -5.5143841007982941e-01
      -1.3812212091272258e-01 3.1644298067067894e-01
      7.0007328826190998e-02 3.6754436829704404e-02
      1.1588999274881174e-02 2.2366283222278990e-01
      -2.0065243103711000e-01 2.3249135932835254e-02
      2.9337153656799253e-01 1.0689359583370788e-02
      -3.2998157280581995e-02 -1.0206369237435804e-01
      2.0081528222805600e-01 6.8588640317984381e-02
      -6.8837509470677252e-02 1.9124210085195453e-01
      5.2296882787763194e-03 7.3210834226343974e-02
      2.2244858389337333e-01 -2.4412756191935053e-01
      1.7506130304165288e-01 5.0191575750228729e-02
      2.9987679428686881e-02 -2.3001121893934724e-02
      1.0382273673411997e-01 4.9822813356172561e-03
      3.3372027685232082e-03 -2.0999815101091363e-02
      9.4198851343489751e-02 7.3425014286287379e-02
      2.6498842210824852e-02 1.3159919704064502e-01
      -1.0527724711620052e+00 -1.4923734729202792e-01
      1.2121541960085323e-01 1.6294539418030135e-01
      -2.5532899282028020e-02 1.5862596338859958e-01
      2.9550623304419954e-01 -9.2474317965831679e-02
      1.0456749577468100e-01 -2.4947154461493795e-01
      5.9921356403347496e-02 3.2829854649905699e-01
      -2.2872401188954207e-02 1.2847470481770337e-02
      4.9253313637283413e-01 -2.1750572519666861e-01
      -7.8519198487257788e-02 -1.3335097161019266e-01
      1.1578428804548151e-01 1.6000240657542192e-01
      1.2123053313033205e+00 1.1655863336776941e-01
      -4.5442818931390648e-02 1.2964041405842291e-01
      -1.7107087186683165e-02 5.0582561565792286e-02
      6.5764103582633422e-03 -1.0454648690658702e-01
      3.9333537342703132e-02 -2.1610366041162363e-01
      -1.1580838527334723e-01 -1.1674667945067953e-01
      2.0938649690252781e-01 -1.6567589308222311e-01
      3.0008628266184195e-01 3.8030056390808156e-02
      -1.3512652258822350e-01 -1.9872205603976129e-01
      -5.0858905949614126e-02 -6.7291330065728114e-02
      1.7772666609711087e+00 -8.2144825691652046e-02
      -1.0064135265533151e-01 -2.1339397050547074e-01
      -5.3206973662504056e-02 7.8078839401356195e-02
      4.4940822221391163e-01 -4.8345939579711938e-01
      -3.1686133170467673e-02 -1.6599321732584202e-02
      -9.7360132787724082e-02 1.9138485623626778e-01
      -3.4943224055065658e-01 1.1556395025346264e-01
      -3.9651431992340405e-02 -3.4617519068205849e-01
      -1.2112992290875957e-01 -2.7748561911223951e-01
      1.2581921027740078e-01 -6.9574820020421160e-02
      3.1866445969310253e+00 -1.1065683252957552e-01
      4.4567021907539188e-02 -4.2182257602865932e-02
      -5.7275554734176004e-02 -3.0343675486632245e-02
      6.0847848040487047e-02 -3.4911573375007710e-01
      9.5651015140871959e-02 -5.4686985201399209e-03
      -8.5455092659147788e-02 -2.1517045574923965e-01
      -1.0833839386034669e-01 -1.1880335970278187e-01
      -1.6045100331735770e-02 -1.2725662596243212e-01
      8.3602185396569467e-02 -1.1432707862531231e-01
      -6.6088939460119131e-03 -6.6856059838252449e-02
      3.0097196443575291e+00 6.3723902297905310e-02
      1.4184798618285180e-01 9.3262365134056585e-02
      -1.0199093286839071e-01 -8.4808118778699898e-02
      1.7899670950636484e-01 -1.0595178957998704e-01
      -2.3410757158136017e-01 7.5679642066856942e-02
      1.4615751370954427e-01 -4.9248957624692238e-02
      2.1403228497529080e-02 -1.0883450392250475e-01
      4.5967118430087384e-02 -1.6652755914024042e-01
      1.0462390839231339e-01 -1.1476596875922311e-01
      1.4370552553499097e-01 -1.8429595017808689e-01
      8.6908558922301438e-01 8.3453765630914237e-02
      -5.1211333579030904e-02 -1.4072920763683883e-01
      -1.1884233889625553e-01 -1.0824945863943581e-02
      2.1384187127304825e-02 4.9824222052289365e-04
      -1.4381038712408800e-01 1.5828915181215492e-01
      1.3536769926772441e-01 -1.4860481786685542e-01
      -1.5976696548007879e-01 -2.8984114109395615e-01
      -2.4062749798768582e-01 -5.3522326836823120e-02
      -1.0685348883634400e-01 -2.7410486520734304e-02
      -1.0091715589020611e-02 -7.9131427325109638e-02
      -3.5950584155566019e+00 3.1145711746055977e-02
      2.3306618932841573e-02 -1.1947790349001581e-02
      5.2031282506616906e-02 -1.0364382637181682e-01
      1.6025232004921058e-01 -1.9017639656215291e-01
      1.8626344536839645e-01 -1.0947603386915215e-01
      -1.0187061507841758e-01 -8.2925410587571368e-03
      -3.6043531914610322e-01 -1.2947185261034183e-01
      3.5755818385977151e-01 -1.8030533617754357e-01
      -1.6847806240090291e-01 -3.0503098815989754e-01
      5.1355510155904893e-02 2.6511095588378081e-01
      -1.8479519081395293e-01 -1.9200330036514720e-02
      9.5026104766172778e-02 -1.6551696922654072e-01
      6.0609380335310568e-02 7.3899872242908365e-02
      7.2616432813771101e-02 4.7718373027297083e-02
      7.5805918068779093e-02 6.4199316143767657e-02
      -3.7186936761036071e-01 1.3929713415498488e-01
      -2.9814246249339238e-01 -1.6945027458245002e-01
      2.5630408533299440e-02 -2.0438664374471029e-02
      -1.9799762093041220e-01 -5.3442854000468748e-02
      1.3855148702106665e-01 2.0950546532074962e-01
      -2.0923900825270305e+00 1.3267844072958779e-01
      4.6333064882357382e-02 1.3602260638461799e-01
      -2.5462669052799539e-02 -1.1776525179398195e-01
      -3.5454583945423225e-03 -7.8169059210809536e-02
      1.2890652488345861e-01 -1.0438188135109504e-02
      2.0992007966476833e-01 6.8020387162771326e-02
      -9.2977846997863468e-03 2.4260620531801457e-02
      4.4189748134547166e-02 1.8685968589662036e-01
      3.0099633955728664e-02 -7.3804168709324033e-02
      -7.1395584076644298e-03 2.5908638962129710e-02
      -2.4478618419255396e+00 -5.7476501914434708e-02
      1.1787412608136254e-01 1.2568697315717343e-02
      -1.0117336525354963e-01 -1.0498629028870664e-01
      -5.6090353597417139e-02 -2.6142280832364098e-02
      1.1923638832150675e-01 7.6561967504739842e-02
      3.0272261261267625e-01 1.6636540120477494e-01
      -5.0032149670861586e-02 7.4715206067888215e-02
      -1.0042436962081588e-01 1.4361889453867538e-01
      1.1315458737722631e-01 -1.6533466669304586e-01
      -2.3467321402121130e-01 -1.0481372811713062e-01
      -3.4661995636206990e+00 -1.0931887935850496e-01
      1.4468676675731562e-01 -2.3376712393655191e-01
      -1.3568632703337691e-01 -2.1189115198544956e-02
      -1.7903878401796086e-01 -1.2311026846083862e-02
      5.4680374987376393e-02 -4.8900102347432382e-02
      2.8006155864287824e-01 3.2629202892401016e-01
      -1.2632249820313332e-01 -5.1688499665632354e-02
      9.4484714564748384e-02 1.0399366540230850e-01
      7.1433153056326354e-03 -2.2634391747488194e-01
      -3.0064580808357699e-01 -1.4600271004609064e-01
      -3.6871512779603073e+00 -6.9687390080230380e-02
      1.5907068212678563e-01 -1.8764188225486580e-01
      -7.5380271930855045e-02 -2.7463190648358150e-02
      -2.4520898990652018e-01 -1.1392632203406219e-01
      1.2661600490724545e-01 7.3452551181976272e-02
      2.5921354463262281e-01 2.8433953169789150e-01
      -1.3015863608020001e-01 -4.0335136574183125e-02
      -8.2095925765048011e-02 1.1225054420202414e-01
      2.6164991949095030e-02 -2.1024846930734831e-01
      -1.9711235000602134e-01 -1.2751757684084841e-01
      -3.1423353162582495e+00 -1.2160386529967097e-02
      1.0016550234430949e-01 -1.9726539103912960e-01
      -1.1399751048332347e-01 -1.6303833509752608e-02
      -1.3971515334572235e-01 -5.9739540174261439e-02
      7.2580162476896151e-02 1.7246706589300564e-01
      1.7757776843011067e-01 9.7981162372487773e-02
      2.9590949695504621e-02 3.8974338699642587e-03
      -1.6642749536081497e-01 1.4868631292804854e-01
      7.1407389452260231e-02 -1.1793688190540379e-01
      -3.1334875072602331e-01 -1.4438662234423558e-01
      -1.9358153720612359e+00 -1.2038350478302870e-01
      8.6679302012428891e-02 -6.2078523629178664e-02
      -8.7729410802960511e-02 -2.3955550774779587e-02
      -8.7813230623622288e-03 -8.8433692171161982e-02
      4.3868102161497544e-02 -2.9049197268710716e-02
      -8.0344547061821731e-02 2.5758284627387446e-01
      6.1622356156136197e-02 7.4063100434758319e-02
      5.4956674953868259e-02 -3.3654891336229072e-02
      -2.4667118874635130e-02 -2.9077167818665338e-02
      -2.0018635165617191e-01 -3.7885981012781234e-02
      -1.1227917445498425e+00 -4.6824934503076870e-02
      6.7416506071304840e-03 -5.1884464838005918e-03
      -7.2698122263791465e-02 -1.8516795653832535e-01
      -3.9411760609595954e-02 4.2418591774995996e-02
      -2.5337721090969288e-02 -6.5156365098227975e-02
      4.6278079216851432e-02 9.0255802206600066e-02
      1.5225700502609546e-01 8.3462108614568903e-02
      -9.7517093700480909e-02 1.5494538935419908e-01
      -9.2005703972860859e-03 7.8918502467646659e-02
      -8.9739943211694984e-02 -8.4245567213514561e-02
      -1.4116456963391177e-01 -9.3873154975049652e-02
      -7.6716842071621688e-02 1.4714816334686151e-01
      -7.2245559175608459e-02 -2.2275774234304845e-02
      -3.8435731594359770e-02 6.0226687557155205e-02
      1.3220773303024183e-01 -2.2864364347654834e-01
      9.6782168721294456e-02 2.7457838681642078e-02
      2.5441523395026616e-01 -1.5607632200965091e-01
      1.6558901101936935e-01 1.6016016780845013e-01
      1.8538030952450782e-02 1.9585032755519841e-01
      -1.8505810170625404e-02 8.7050114569350856e-02
      -4.7563082435990794e-01 -1.3421920730529283e-01
      1.0918251680599422e-01 -1.4272515910872227e-01
      -8.7793463312496350e-02 5.1369728117503004e-02
      -1.1242125982304794e-01 -4.1666826701863410e-03
      3.8330048818375990e-02 -1.0469319357621214e-01
      -2.8632582914020512e-02 1.2470304913414164e-01
      -1.7448458499035024e-01 -4.6162434055984879e-02
      1.3512139495306619e-01 9.4670769192664331e-02
      -1.0185629694815693e-01 9.8620141990111695e-02
      -1.7188957154912524e-01 1.4202831964475796e-01
      2.3195282590140796e+00 -1.4008347850501781e-02
      6.5292906921718977e-02 4.7093847335448574e-01
      -1.1480842547133517e-01 -2.4420326806784146e-01
      -1.3782761384817588e-01 -2.8710626099489789e-01
      9.4636393578764383e-02 -1.1737862036993048e-01
      -2.4878300437080206e-01 7.9650715837095890e-02
      3.5587747701037412e-02 -6.6028209068742044e-02
      1.2837370652749724e-01 2.7737984363500617e-01
      2.6669745225057750e-01 2.0553788573781129e-01
      6.4760684537724739e-02 -8.5625787453350685e-02
      2.1738107985433364e+00 5.1998817223306716e-02
      -1.0685591773156174e-01 -8.6821675763406408e-02
      -5.6041597383483105e-02 -1.9461526156841497e-01
      5.3051640500201176e-02 -2.3315116314916681e-01
      -2.5479036529440136e-01 5.2206071175730628e-01
      4.4697767133497976e-02 -3.5144216872417117e-02
      -7.2558583207044487e-03 4.3234296593514243e-02
      -5.2714294656252636e-01 1.1872273240210725e-01
      4.2013414961482948e-01 3.0759965288118979e-01
      -2.2561962137165041e-02 -2.1795495225941441e-01
      1.5909282245030947e+00 3.0977618524383760e-01
      -1.5381878315161487e-01 7.8016984437395631e-02
      6.2427031752354482e-03 4.1484874143395072e-02
      -6.6363332400008829e-02 4.9705077655594301e-02
      -3.2549313576926142e-01 3.9151192103077986e-01
      2.6278703024249978e-01 -1.3662151462136413e-01
      1.4814291500971097e-01 -1.0902736787445730e-01
      -3.9110873099689059e-01 2.4468425935515020e-01
      2.7626124138163394e-01 4.1236940636225672e-01
      -7.7185152152171130e-02 -1.9883919325678281e-01
      1.1638971814184098e+00 -5.4521164339952688e-02
      7.4164647761082489e-02 -1.1013618989453551e-01
      1.2834830631757665e-02 1.1851016088733575e-01
      -7.1616802159170351e-02 8.0495498562280665e-02
      -1.8554636491559348e-01 2.4104615625744716e-02
      -1.1533644771549126e-01 1.4327423430524688e-01
      2.4480507189649139e-02 -4.1978266039077346e-02
      6.9907332169504482e-02 8.2517434089267969e-02
      -5.2120446103224673e-02 1.1799519845595691e-01
      -6.6558424452356574e-02 3.6458284925043392e-03
      2.0159444257614751e+00 1.6416707372272871e-01
      -5.6698806881925870e-02 1.0286450404091901e-01
      -2.0788915733089858e-01 -3.9645727215734838e-02
      1.0775231386475352e-01 -7.0459442377102804e-02
      -1.6130057621898113e-02 -1.0445528168354999e-01
      -1.4533454561895068e-01 -1.0197367613044586e-01
      2.6946240197435061e-02 -1.0535373826132249e-01
      -8.6831542976482740e-02 -1.1834292365563531e-01
      1.3665517275082474e-02 -2.2101268282442132e-02
      9.9727626556260246e-02 -1.5254493457847765e-01
      1.7169778588411886e+00 -1.3473178561065460e-01
      -8.6382384345611435e-02 -1.4312117101219551e-01
      -7.7061956475904414e-02 -6.8989090035378606e-02
      3.9648670307981215e-01 -3.3092465109095553e-01
      1.2578555332441085e-02 5.2221558110763545e-02
      -6.2434715840575753e-03 8.9756164499260813e-02
      -1.1754322419585671e-01 2.9559508330669149e-01
      9.4771834820101070e-02 -7.0118253184312362e-02
      9.4254754399507035e-02 -3.2432279600001707e-01
      2.4432458867833927e-02 -1.0443199897948198e-01
      2.5141890527757491e+00 -1.5212936455199685e-01
      9.8399456200918820e-02 -9.4642410683645442e-02
      -3.2320244996355170e-02 -1.2042233807437549e-02
      -1.5953259217612963e-02 -1.1204450920912758e-01
      3.1649642709017212e-02 -5.0927857104421825e-02
      -2.4073485311052015e-01 -1.0125062608185127e-01
      -1.6294501437113129e-01 -2.5292250426213808e-01
      4.9973928720925188e-02 1.1303871138969844e-01
      -4.3345748181829333e-02 -1.6505231362969494e-01
      -8.5688802160690664e-02 5.8269651022918846e-02
      2.6666986602867437e+00 -1.7988870940325194e-01
      1.6825714416992110e-01 3.5091148655539506e-01
      -1.6065182654052212e-01 -2.7125284135689370e-01
      -5.9906849991845056e-02 -1.5648701251126093e-01
      4.0152775753101722e-02 -1.4161808133686757e-01
      -5.2097554501935213e-02 -4.9558581912628109e-02
      1.3968047503899295e-01 -9.3826565298799847e-02
      1.0499930146595801e-01 1.3576887171365140e-01
      2.9860449196574140e-01 -1.5685832963778151e-01
      9.0155682583246508e-02 -1.4231462728163863e-01
      3.9503603643587732e+00 -2.7755760635128791e-02
      1.2418556291918015e-01 5.1907131876788040e-02
      -1.4488786283568644e-01 -2.1105626363512764e-01
      9.7306698874724845e-02 -9.2600226568194582e-02
      -1.4110248931284236e-01 -2.1795938327263009e-01
      1.6161846111073438e-01 -2.1919215294279881e-01
      6.4287067314700533e-02 -1.4782910514276321e-01
      4.9072091803322115e-02 1.2588678500597120e-02
      -1.0263625626804281e-02 -8.4291002755516958e-02
      7.0598033763879450e-02 -3.3464048253823726e-03
      -2.2161991254358671e+00 -1.4954920610500458e-01
      8.3890117376966028e-02 2.0065802851603273e-01
      4.5196660676676881e-02 -1.6379170283564570e-01
      8.6623814511181410e-02 -1.0585939868589414e-01
      1.8399014568950836e-01 -2.5660967832680304e-01
      -9.4556321076217059e-02 -3.3062930415258755e-02
      -1.8736602819998344e-01 -1.6394009345550328e-01
      3.7343467282105502e-01 -4.2027356928617358e-02
      -1.0425725650949265e-01 -2.0740328911484099e-01
      1.4126637253660879e-01 2.5444912035409800e-01
      -2.4690411938102184e+00 4.7791153035642610e-02
      1.4268064566765207e-01 2.2533954427773728e-02
      -9.2111855316920083e-03 -5.4465650408362376e-02
      -7.6719026114948616e-02 1.0155097045606493e-01
      1.0637156285045678e-01 -2.5646058315944176e-01
      -2.5464249668786615e-01 1.2720330054312265e-01
      -2.5262556506172804e-02 -2.7254656460600113e-01
      3.2456391324744155e-01 5.2279370480735514e-03
      -7.1336260024713452e-02 5.4939005847413104e-02
      -5.1569353492295529e-03 1.1865559821009486e-01
      -2.4150618379793052e+00 9.5783326726735410e-02
      3.1999418223561799e-01 1.1526991679992213e-01
      -1.1690990425337716e-01 -1.1957993649144859e-01
      -6.0000435068797493e-02 -1.2576486217854288e-01
