<?xml version="1.0"?>
<opencv_storage>
<shapeML type_id="opencv-ml-ann-mlp">
  <layer_sizes type_id="opencv-matrix">
    <rows>1</rows>
    <cols>3</cols>
    <dt>i</dt>
    <data>
      400 20 8</data></layer_sizes>
  <activation_function>SIGMOID_SYM</activation_function>
  <f_param1>5.9999999999999998e-01</f_param1>
  <f_param2>1.</f_param2>
  <min_val>-9.4999999999999996e-01</min_val>
  <max_val>9.4999999999999996e-01</max_val>
  <min_val1>-9.7999999999999998e-01</min_val1>
  <max_val1>9.7999999999999998e-01</max_val1>
  <training_params>
    <train_method>BACKPROP</train_method>
    <dw_scale>1.0000000000000001e-01</dw_scale>
    <moment_scale>1.0000000000000001e-01</moment_scale>
    <term_criteria><epsilon>9.9999999747524271e-07</epsilon>
      <iterations>4000</iterations></term_criteria></training_params>
  <input_scale>
    1.6099148363287970e-02 -2.6006316586849798e-01
    1.1880788416649603e-02 -3.7698655552830473e-01
    1.0804461533514619e-02 -4.3010068027644732e-01
    1.0561059168618278e-02 -4.4478306883219287e-01
    9.3399427142035179e-03 -5.4423127738532029e-01
    7.8822900873412993e-03 -9.0494753502745295e-01
    7.8979850367878988e-03 -1.1254628677422756e+00
    8.0433317811846212e-03 -1.2529036043768353e+00
    8.0788987748696799e-03 -1.2770874601813225e+00
    8.0788987748696799e-03 -1.2770874601813225e+00
    8.1601387525093508e-03 -1.3275918047351751e+00
    8.2304860776405194e-03 -1.3675269175156557e+00
    8.1077478229681973e-03 -1.2956804694012640e+00
    7.8754529075402441e-03 -1.0949908561829993e+00
    7.9376362934116072e-03 -8.5634883857767530e-01
    9.4403876872564806e-03 -5.3374499616411641e-01
    1.1144130830595527e-02 -4.1147559989891169e-01
    1.1974829710850907e-02 -3.7306200253035515e-01
    1.3669073120657755e-02 -3.1544014893825589e-01
    1.5838281738977236e-02 -2.6498663678673451e-01
    1.3233094481559255e-02 -3.2828253617714304e-01
    1.0392852175709405e-02 -4.5568659539648931e-01
    9.2450032704204863e-03 -5.5470019622522915e-01
    8.1385224529412700e-03 -7.6063882925566495e-01
    7.8897988975268184e-03 -1.1151927287850407e+00
    8.1385224529412700e-03 -1.3146843962443591e+00
    8.3095511597926826e-03 -1.4094277159494510e+00
    8.6459412483992411e-03 -1.5662455107677087e+00
    8.8178667151951971e-03 -1.6380883167074154e+00
    8.9383898461636233e-03 -1.6862616229012528e+00
    8.7288631823385868e-03 -1.6014106684521177e+00
    8.6866690346838107e-03 -1.5836465855538948e+00
    8.7075795612576914e-03 -1.5924823389915508e+00
    8.6066296582387042e-03 -1.5491933384829668e+00
    8.1177891517103234e-03 -1.3019684908704634e+00
    7.8637733071085635e-03 -1.0752197733373439e+00
    8.1385224529412700e-03 -7.6063882925566495e-01
    9.6211702820892513e-03 -5.1621279013517329e-01
    1.1144130830595527e-02 -4.1147559989891169e-01
    1.4522816906929966e-02 -2.9324918754377816e-01
    1.0935258496526204e-02 -4.2268979957726288e-01
    9.2145151611500494e-03 -5.5818697610812806e-01
    7.8511788610569865e-03 -9.5573004212482160e-01
    8.0267561184751788e-03 -1.2410599844719314e+00
    8.4137438242685506e-03 -1.4610789756374041e+00
    8.9383898461636233e-03 -1.6862616229012528e+00
    8.8888888888888889e-03 -1.6666666666666667e+00
    9.4403876872564772e-03 -1.8735538640862854e+00
    9.4403876872564772e-03 -1.8735538640862854e+00
    9.3077035915910614e-03 -1.8257418583505545e+00
    9.4062698030177375e-03 -1.8613560821740869e+00
    9.4062698030177375e-03 -1.8613560821740869e+00
    9.2450032704204863e-03 -1.8027756377319948e+00
    8.9896941894858830e-03 -1.7063131086581860e+00
    8.9638120409946450e-03 -1.6962290477574482e+00
    8.5502148675599115e-03 -1.5242402273515459e+00
    7.9376362934116072e-03 -1.1677484162422844e+00
    7.9748504536936785e-03 -8.3275842237608988e-01
    9.5835969390379600e-03 -5.1972583400167405e-01
    1.2171612389003692e-02 -3.6514837167011077e-01
    9.7384424578023862e-03 -5.0564989684743156e-01
    7.8822900873412993e-03 -9.0494753502745295e-01
    8.1712840743867841e-03 -1.3341192652219962e+00
    8.5320684595927409e-03 -1.5160829339737869e+00
    9.0160457679118559e-03 -1.7165164058139879e+00
    9.3077035915910614e-03 -1.8257418583505545e+00
    9.0701966798210319e-03 -1.7372915179041823e+00
    9.5467499779583898e-03 -1.9111859090489776e+00
    1.0088437605560573e-02 -2.0952908873087344e+00
    9.8206248638189591e-03 -2.0056737702645644e+00
    9.4751626602897678e-03 -1.8859217987307519e+00
    9.7791190428243753e-03 -1.9915552050675027e+00
    9.5467499779583898e-03 -1.9111859090489776e+00
    9.6594890179727850e-03 -1.9504737440137356e+00
    9.4403876872564772e-03 -1.8735538640862854e+00
    9.0428765620691152e-03 -1.7268416204105059e+00
    8.5502148675599115e-03 -1.5242402273515459e+00
    7.9376362934116072e-03 -1.1677484162422844e+00
    8.1385224529412700e-03 -7.6063882925566495e-01
    1.0741417544343103e-02 -4.3378801621385610e-01
    8.3980274405994915e-03 -6.8799224801834291e-01
    8.1177891517103234e-03 -1.3019684908704634e+00
    8.5874900441971248e-03 -1.5407938867761382e+00
    8.9638120409946450e-03 -1.6962290477574482e+00
    9.4751626602897678e-03 -1.8859217987307519e+00
    9.4751626602897678e-03 -1.8859217987307519e+00
    9.3399427142035162e-03 -1.8374541147365764e+00
    9.6594890179727850e-03 -1.9504737440137356e+00
    9.9954173532070534e-03 -2.0644381225662261e+00
    9.6594890179727850e-03 -1.9504737440137356e+00
    9.4751626602897678e-03 -1.8859217987307519e+00
    9.3399427142035162e-03 -1.8374541147365764e+00
    9.5106110949665194e-03 -1.8984642916490859e+00
    9.5467499779583898e-03 -1.9111859090489776e+00
    9.5835969390379618e-03 -1.9240913854530062e+00
    9.3727932208885062e-03 -1.8493242008906938e+00
    9.2450032704204863e-03 -1.8027756377319948e+00
    8.4795320430931988e-03 -1.4920715037365917e+00
    7.8787878787878775e-03 -1.0999999999999999e+00
    8.9383898461636198e-03 -5.9302778787047083e-01
    7.8431372549019607e-03 -1. 8.6261114505794944e-03
    -1.5576766638642585e+00 9.1845845736514414e-03
    -1.7803963942770487e+00 9.3727932208885062e-03
    -1.8493242008906938e+00 9.4403876872564772e-03
    -1.8735538640862854e+00 9.5106110949665194e-03
    -1.8984642916490859e+00 9.7384424578023827e-03
    -1.9776529298921761e+00 9.4403876872564772e-03
    -1.8735538640862854e+00 9.3077035915910614e-03
    -1.8257418583505545e+00 9.3077035915910614e-03
    -1.8257418583505545e+00 9.4403876872564772e-03
    -1.8735538640862854e+00 9.4062698030177375e-03
    -1.8613560821740869e+00 9.5106110949665194e-03
    -1.8984642916490859e+00 9.6594890179727850e-03
    -1.9504737440137356e+00 1.0185510718982481e-02
    -2.1272047386182642e+00 9.6211702820892461e-03
    -1.9371856317975846e+00 9.3399427142035162e-03
    -1.8374541147365764e+00 9.1263470076503594e-03
    -1.7585768657049345e+00 8.2688882135352193e-03
    -1.3882191173877396e+00 7.8859601951377593e-03
    -9.0081929921381321e-01 7.9266727021384022e-03
    -1.1569893424852014e+00 8.9896941894858830e-03
    -1.7063131086581860e+00 9.5835969390379618e-03
    -1.9240913854530062e+00 9.3727932208885062e-03
    -1.8493242008906938e+00 9.4751626602897678e-03
    -1.8859217987307519e+00 9.9503536849654354e-03
    -2.0493901531919194e+00 9.4403876872564772e-03
    -1.8735538640862854e+00 9.3399427142035162e-03
    -1.8374541147365764e+00 8.9134184262950489e-03
    -1.6764083117147226e+00 9.0980165642778887e-03
    -1.7478689514833867e+00 8.8178667151951971e-03
    -1.6380883167074154e+00 9.2450032704204863e-03
    -1.8027756377319948e+00 9.2760616735748005e-03
    -1.8141836003895331e+00 9.6211702820892461e-03
    -1.9371856317975846e+00 9.8206248638189591e-03
    -2.0056737702645644e+00 9.9062176192071163e-03
    -2.0345846956371538e+00 9.7384424578023827e-03
    -1.9776529298921761e+00 9.5835969390379618e-03
    -1.9240913854530062e+00 8.7075795612576914e-03
    -1.5924823389915508e+00 7.8664452921850779e-03
    -1.0801234497346435e+00 8.2304860776405194e-03
    -1.3675269175156557e+00 9.3399427142035162e-03
    -1.8374541147365764e+00 1.0235645372122673e-02
    -2.1435803481233831e+00 9.9954173532070534e-03
    -2.0644381225662261e+00 9.9954173532070534e-03
    -2.0644381225662261e+00 9.6211702820892461e-03
    -1.9371856317975846e+00 9.2450032704204863e-03
    -1.8027756377319948e+00 9.1845845736514414e-03
    -1.7803963942770487e+00 8.8411212578929851e-03
    -1.6475089420958273e+00 8.8411212578929851e-03
    -1.6475089420958273e+00 8.7288631823385868e-03
    -1.6014106684521177e+00 8.6459412483992411e-03
    -1.5662455107677087e+00 8.9134184262950489e-03
    -1.6764083117147226e+00 9.4062698030177375e-03
    -1.8613560821740869e+00 9.6594890179727850e-03
    -1.9504737440137356e+00 9.9503536849654354e-03
    -2.0493901531919194e+00 1.0503700253880593e-02
    -2.2300163615931106e+00 1.0339279938198581e-02
    -2.1772137562168163e+00 9.5467499779583898e-03
    -1.9111859090489776e+00 8.0519188316810798e-03
    -1.2588865404147533e+00 8.5142425288534142e-03
    -1.5080033402065374e+00 9.5106110949665194e-03
    -1.8984642916490859e+00 9.9062176192071163e-03
    -2.0345846956371538e+00 9.9954173532070534e-03
    -2.0644381225662261e+00 9.4751626602897678e-03
    -1.8859217987307519e+00 9.2450032704204863e-03
    -1.8027756377319948e+00 9.0160457679118559e-03
    -1.7165164058139879e+00 8.8178667151951971e-03
    -1.6380883167074154e+00 8.8178667151951971e-03
    -1.6380883167074154e+00 8.7288631823385868e-03
    -1.6014106684521177e+00 8.6066296582387042e-03
    -1.5491933384829668e+00 8.6066296582387042e-03
    -1.5491933384829668e+00 8.7505266473143391e-03
    -1.6104334618230429e+00 9.1263470076503594e-03
    -1.7585768657049345e+00 9.7384424578023827e-03
    -1.9776529298921761e+00 1.0088437605560573e-02
    -2.0952908873087344e+00 1.0447645427767811e-02
    -2.2120880030716075e+00 1.0286889997472794e-02
    -2.1602468994692869e+00 9.9062176192071163e-03
    -2.0345846956371538e+00 8.3525649830452145e-03
    -1.4311798845948627e+00 8.4795320430931988e-03
    -1.4920715037365917e+00 9.6985728993774396e-03
    -1.9639610121239315e+00 1.0041435857757583e-02
    -2.0797358497701763e+00 1.0503700253880593e-02
    -2.2300163615931106e+00 9.6985728993774396e-03
    -1.9639610121239315e+00 9.3399427142035162e-03
    -1.8374541147365764e+00 8.8888888888888889e-03
    -1.6666666666666667e+00 8.6866690346838107e-03
    -1.5836465855538948e+00 8.6066296582387042e-03
    -1.5491933384829668e+00 8.7075795612576914e-03
    -1.5924823389915508e+00 8.5502148675599115e-03
    -1.5242402273515459e+00 8.7288631823385868e-03
    -1.6014106684521177e+00 8.7288631823385868e-03
    -1.6014106684521177e+00 9.1263470076503594e-03
    -1.7585768657049345e+00 9.4751626602897678e-03
    -1.8859217987307519e+00 9.9062176192071163e-03
    -2.0345846956371538e+00 1.0136452241715400e-02
    -2.1111111111111112e+00 1.0041435857757583e-02
    -2.0797358497701763e+00 9.4403876872564772e-03
    -1.8735538640862854e+00 8.3825948461590874e-03
    -1.4459976109624426e+00 8.4967320261437902e-03
    -1.5000000000000000e+00 9.7791190428243753e-03
    -1.9915552050675027e+00 1.0339279938198581e-02
    -2.1772137562168163e+00 1.0392852175709408e-02
    -2.1944907094094095e+00 9.7791190428243753e-03
    -1.9915552050675027e+00 9.3399427142035162e-03
    -1.8374541147365764e+00 8.9383898461636233e-03
    -1.6862616229012528e+00 8.7288631823385868e-03
    -1.6014106684521177e+00 8.6866690346838107e-03
    -1.5836465855538948e+00 8.7725769102715897e-03
    -1.6195526603578319e+00 8.5686869474290595e-03
    -1.5324767040594278e+00 8.5874900441971248e-03
    -1.5407938867761382e+00 8.6459412483992411e-03
    -1.5662455107677087e+00 9.0428765620691152e-03
    -1.7268416204105059e+00 9.2760616735748005e-03
    -1.8141836003895331e+00 9.6985728993774396e-03
    -1.9639610121239315e+00 9.8629830343186786e-03
    -2.0200147945287297e+00 9.6985728993774396e-03
    -1.9639610121239315e+00 9.4403876872564772e-03
    -1.8735538640862854e+00 8.4967320261437902e-03
    -1.5000000000000000e+00 8.2430408509080472e-03
    -1.3743685418725533e+00 9.8206248638189591e-03
    -2.0056737702645644e+00 1.0869056127933081e-02
    -2.3452078799117149e+00 1.0447645427767811e-02
    -2.2120880030716075e+00 9.7384424578023827e-03
    -1.9776529298921761e+00 9.2450032704204863e-03
    -1.8027756377319948e+00 8.9638120409946450e-03
    -1.6962290477574482e+00 8.7950211374755363e-03
    -1.6287702606517194e+00 8.7075795612576914e-03
    -1.5924823389915508e+00 8.7505266473143391e-03
    -1.6104334618230429e+00 8.6661250507759600e-03
    -1.5749015717275543e+00 8.6661250507759600e-03
    -1.5749015717275543e+00 8.8411212578929851e-03
    -1.6475089420958273e+00 8.9896941894858830e-03
    -1.7063131086581860e+00 9.2145151611500511e-03
    -1.7915143899851351e+00 9.2450032704204863e-03
    -1.8027756377319948e+00 9.6594890179727850e-03
    -1.9504737440137356e+00 9.6594890179727850e-03
    -1.9504737440137356e+00 9.1551991658172949e-03
    -1.7694183003166120e+00 8.3825948461590874e-03
    -1.4459976109624426e+00 8.0033630662227333e-03
    -1.2235910841628987e+00 9.7791190428243753e-03
    -1.9915552050675027e+00 1.0561059168618278e-02
    -2.2482870191654682e+00 1.0392852175709408e-02
    -2.1944907094094095e+00 9.9503536849654354e-03
    -2.0493901531919194e+00 9.5835969390379618e-03
    -1.9240913854530062e+00 9.2450032704204863e-03
    -1.8027756377319948e+00 8.9383898461636233e-03
    -1.6862616229012528e+00 8.7288631823385868e-03
    -1.6014106684521177e+00 8.7075795612576914e-03
    -1.5924823389915508e+00 8.7505266473143391e-03
    -1.6104334618230429e+00 8.6661250507759600e-03
    -1.5749015717275543e+00 8.9638120409946450e-03
    -1.6962290477574482e+00 9.0980165642778887e-03
    -1.7478689514833867e+00 9.2760616735748005e-03
    -1.8141836003895331e+00 9.5467499779583898e-03
    -1.9111859090489776e+00 9.9954173532070534e-03
    -2.0644381225662261e+00 9.7384424578023827e-03
    -1.9776529298921761e+00 9.0701966798210319e-03
    -1.7372915179041823e+00 8.1385224529412700e-03
    -1.3146843962443591e+00 7.8822900873412993e-03
    -1.1050364372445782e+00 8.8647926167986692e-03
    -1.6570343122169822e+00 9.8629830343186786e-03
    -2.0200147945287297e+00 1.0286889997472794e-02
    -2.1602468994692869e+00 1.0286889997472794e-02
    -2.1602468994692869e+00 9.8629830343186786e-03
    -2.0200147945287297e+00 9.6594890179727850e-03
    -1.9504737440137356e+00 9.4062698030177375e-03
    -1.8613560821740869e+00 8.9638120409946450e-03
    -1.6962290477574482e+00 8.7288631823385868e-03
    -1.6014106684521177e+00 8.6066296582387042e-03
    -1.5491933384829668e+00 8.9134184262950489e-03
    -1.6764083117147226e+00 8.9383898461636233e-03
    -1.6862616229012528e+00 9.2760616735748005e-03
    -1.8141836003895331e+00 9.4751626602897678e-03
    -1.8859217987307519e+00 9.5467499779583898e-03
    -1.9111859090489776e+00 9.9954173532070534e-03
    -2.0644381225662261e+00 9.5835969390379618e-03
    -1.9240913854530062e+00 8.8647926167986692e-03
    -1.6570343122169822e+00 7.9115480528523987e-03
    -1.1410886614690958e+00 7.8528707431714563e-03
    -9.5140549388423423e-01 8.6459412483992411e-03
    -1.5662455107677087e+00 9.3399427142035162e-03
    -1.8374541147365764e+00 1.0392852175709408e-02
    -2.1944907094094095e+00 1.0392852175709408e-02
    -2.1944907094094095e+00 1.0185510718982481e-02
    -2.1272047386182642e+00 1.0185510718982481e-02
    -2.1272047386182642e+00 9.9503536849654354e-03
    -2.0493901531919194e+00 9.2145151611500511e-03
    -1.7915143899851351e+00 8.9638120409946450e-03
    -1.6962290477574482e+00 9.2145151611500511e-03
    -1.7915143899851351e+00 9.4751626602897678e-03
    -1.8859217987307519e+00 9.3399427142035162e-03
    -1.8374541147365764e+00 9.7791190428243753e-03
    -1.9915552050675027e+00 9.6594890179727850e-03
    -1.9504737440137356e+00 9.9062176192071163e-03
    -2.0345846956371538e+00 9.9062176192071163e-03
    -2.0345846956371538e+00 9.3077035915910614e-03
    -1.8257418583505545e+00 8.5686869474290595e-03
    -1.5324767040594278e+00 7.8511788610569865e-03
    -9.5573004212482160e-01 8.6261114505794944e-03
    -6.4198175603351237e-01 8.0697004355840315e-03
    -1.2709778186044849e+00 8.9383898461636233e-03
    -1.6862616229012528e+00 9.3077035915910614e-03
    -1.8257418583505545e+00 9.8206248638189591e-03
    -2.0056737702645644e+00 1.0235645372122673e-02
    -2.1435803481233831e+00 1.0235645372122673e-02
    -2.1435803481233831e+00 1.0447645427767811e-02
    -2.2120880030716075e+00 1.0339279938198581e-02
    -2.1772137562168163e+00 9.6211702820892461e-03
    -1.9371856317975846e+00 9.6985728993774396e-03
    -1.9639610121239315e+00 9.7384424578023827e-03
    -1.9776529298921761e+00 9.8206248638189591e-03
    -2.0056737702645644e+00 1.0185510718982481e-02
    -2.1272047386182642e+00 9.9503536849654354e-03
    -2.0493901531919194e+00 9.6211702820892461e-03
    -1.9371856317975846e+00 9.1845845736514414e-03
    -1.7803963942770487e+00 8.8888888888888889e-03
    -1.6666666666666667e+00 8.0788987748696799e-03
    -1.2770874601813225e+00 8.7725769102715897e-03
    -6.1745445176142344e-01 9.9062176192071180e-03
    -4.9150079726066082e-01 7.9681907288959575e-03
    -8.3666002653407556e-01 8.1077478229681973e-03
    -1.2956804694012640e+00 8.8411212578929851e-03
    -1.6475089420958273e+00 9.4751626602897678e-03
    -1.8859217987307519e+00 9.6594890179727850e-03
    -1.9504737440137356e+00 1.0339279938198581e-02
    -2.1772137562168163e+00 1.0392852175709408e-02
    -2.1944907094094095e+00 1.0235645372122673e-02
    -2.1435803481233831e+00 1.0185510718982481e-02
    -2.1272047386182642e+00 1.0136452241715400e-02
    -2.1111111111111112e+00 1.0088437605560573e-02
    -2.0952908873087344e+00 9.9503536849654354e-03
    -2.0493901531919194e+00 1.0447645427767811e-02
    -2.2120880030716075e+00 9.9954173532070534e-03
    -2.0644381225662261e+00 9.8629830343186786e-03
    -2.0200147945287297e+00 8.9134184262950489e-03
    -1.6764083117147226e+00 8.2821870311699398e-03
    -1.3952299690970897e+00 7.8938069236413316e-03
    -8.9260739828867364e-01 9.6985728993774396e-03
    -5.0917507721731559e-01 1.0741417544343103e-02
    -4.3378801621385610e-01 9.1263470076503594e-03
    -5.6864162124590700e-01 7.8938069236413316e-03
    -8.9260739828867364e-01 8.0607077612135161e-03
    -1.2649110640673518e+00 8.7505266473143391e-03
    -1.6104334618230429e+00 8.9896941894858830e-03
    -1.7063131086581860e+00 9.2760616735748005e-03
    -1.8141836003895331e+00 9.9062176192071163e-03
    -2.0345846956371538e+00 9.9062176192071163e-03
    -2.0345846956371538e+00 9.6985728993774396e-03
    -1.9639610121239315e+00 9.6211702820892461e-03
    -1.9371856317975846e+00 9.6211702820892461e-03
    -1.9371856317975846e+00 9.8206248638189591e-03
    -2.0056737702645644e+00 9.9503536849654354e-03
    -2.0493901531919194e+00 9.2760616735748005e-03
    -1.8141836003895331e+00 8.8647926167986692e-03
    -1.6570343122169822e+00 8.0788987748696799e-03
    -1.2770874601813225e+00 7.8482810341148745e-03
    -9.6443299630757784e-01 8.7950211374755380e-03
    -6.1396012940454237e-01 1.1614552460742776e-02
    -3.8864079387870054e-01 1.2071725556467799e-02
    -3.6911622374584230e-01 1.0561059168618278e-02
    -4.4478306883219287e-01 9.5106110949665194e-03
    -5.2674153756737652e-01 8.1826575384863539e-03
    -7.4588070639279458e-01 7.8897988975268184e-03
    -1.1151927287850407e+00 8.1492190350596471e-03
    -1.3211137781837081e+00 8.6066296582387042e-03
    -1.5491933384829668e+00 9.1551991658172949e-03
    -1.7694183003166120e+00 9.3399427142035162e-03
    -1.8374541147365764e+00 9.4062698030177375e-03
    -1.8613560821740869e+00 9.6594890179727850e-03
    -1.9504737440137356e+00 9.3077035915910614e-03
    -1.8257418583505545e+00 9.2145151611500511e-03
    -1.7915143899851351e+00 8.9383898461636233e-03
    -1.6862616229012528e+00 8.4626378076988248e-03
    -1.4842164770425632e+00 7.9164148454608299e-03
    -1.1463577651215395e+00 7.9493142009563460e-03
    -8.4843641952514848e-01 9.0160457679118559e-03
    -5.8257526500353529e-01 1.0136452241715398e-02
    -4.7368421052631576e-01 1.3233094481559255e-02
    -3.2828253617714304e-01 1.5838281738977236e-02
    -2.6498663678673451e-01 1.3233094481559255e-02
    -3.2828253617714304e-01 1.0804461533514619e-02
    -4.3010068027644732e-01 1.0286889997472794e-02
    -4.6291004988627571e-01 9.2145151611500494e-03
    -5.5818697610812806e-01 7.9493142009563460e-03
    -8.4843641952514848e-01 7.8664452921850779e-03
    -1.0801234497346435e+00 8.0607077612135161e-03
    -1.2649110640673518e+00 8.2181732298757804e-03
    -1.3607398367159704e+00 8.4297481482017468e-03
    -1.4687215042828428e+00 8.3674420030282227e-03
    -1.4385563751360060e+00 8.2304860776405194e-03
    -1.3675269175156557e+00 8.1385224529412700e-03
    -1.3146843962443591e+00 7.8897988975268184e-03
    -1.1151927287850407e+00 7.8451453396848753e-03
    -9.7762580386842290e-01 9.1551991658172949e-03
    -5.6515748696679846e-01 9.7384424578023862e-03
    -5.0564989684743156e-01 1.1003128849245555e-02
    -4.1896529079819617e-01 1.2171612389003692e-02
    -3.6514837167011077e-01 1.5132656408340862e-02
    -2.7937211830783126e-01</input_scale>
  <output_scale>
    1.0526315789473684e+00 0. 1.0526315789473684e+00 0.
    1.0526315789473684e+00 0. 1.0526315789473684e+00 0.
    1.0526315789473684e+00 0. 1.0526315789473684e+00 0.
    1.0526315789473684e+00 0. 1.0526315789473684e+00 0.</output_scale>
  <inv_output_scale>
    9.4999999999999996e-01 0. 9.4999999999999996e-01 0.
    9.4999999999999996e-01 0. 9.4999999999999996e-01 0.
    9.4999999999999996e-01 0. 9.4999999999999996e-01 0.
    9.4999999999999996e-01 0. 9.4999999999999996e-01 0.</inv_output_scale>
  <weights>
    <_>
      -5.6791277787633234e+00 -1.9433727751171906e-01
      4.1035508756836875e-01 -3.1373177804903185e-01
      8.1858139640468244e-02 3.4787055082270382e-02
      1.3257455503594501e-01 4.2065727646552220e-01
      4.3615477073978409e-01 2.6466759215440711e-01
      2.3486751475423062e-01 2.1495122592715552e-02
      -1.8596791711731667e-01 5.9728315445225744e-01
      2.8328043417500220e-01 3.5943246486922931e-01
      -1.2398665411439594e-01 -5.4014140627989371e-01
      2.5014748883751443e-02 6.8938048191499124e-01
      -2.9380628817808829e+00 -4.5902851860143749e-02
      -2.5985455882344816e-01 1.3769865872822051e-01
      -3.2697274508924618e-01 7.2655031330156217e-02
      1.5023013693406279e-01 -1.0436053636671473e-01
      1.3304156241589310e-01 -2.4603446029892714e-01
      1.7557055195268085e-02 3.4049883470853824e-02
      -1.0816339826629830e-01 4.2060990105227919e-01
      2.6691369562462836e-02 -9.2126444337152655e-02
      1.9697150104772933e-02 -3.3974214974494665e-01
      -6.7539649130625115e-02 2.0514491033679172e-01
      -2.4954357471685384e-01 2.1941949613148240e-01
      2.0272237452229272e-01 9.7289499532651494e-02
      -1.6359826142089942e-01 1.1899158495697058e-01
      2.5694992358538526e-01 -1.7044536237101529e-01
      2.6138018795681850e-03 2.9458088233739868e-02
      3.0684268205503279e-01 -2.3023743444229094e-02
      5.0632323526631585e-02 1.6144484196734202e-01
      2.4954339459990968e-01 1.3294137247016236e-01
      1.5462082188899862e-01 -1.4629087410055608e-01
      5.0261816920669902e-02 -1.2049420474525725e-01
      -4.2632841327043874e-01 -1.3282853352884022e-01
      2.4554194439926763e-02 9.8617942235771541e-02
      -1.0940376628618871e-01 1.1118059328372126e-01
      -1.1788537860612995e-01 -2.3928787317397474e-01
      3.2131721975626748e-02 9.2861227297554791e-03
      2.2092500079587313e-01 1.9298490893940170e-02
      -1.1646983814363111e-01 2.0593826834264117e-01
      1.8135655813206927e-01 2.5274799883636828e-01
      3.8642779984142631e-02 -2.9941367609230485e-01
      -2.0922424111903432e-01 1.2699622856832217e-02
      -1.2907984262201373e-02 4.9470174709892532e-02
      1.3246856649646316e-01 -2.4007287625286913e-01
      -2.4007458931214837e-01 -8.2061235967429508e-02
      7.3430636421963208e-02 -1.0248575578537777e-01
      -4.9506628060303509e-01 -8.9029233060455695e-02
      -2.5184229742693975e-01 1.7407915074263813e-01
      -9.4198928005603061e-02 1.1311452561948698e-01
      -9.6634616285708672e-02 -1.6234677932256561e-01
      -3.7387678042061256e-01 -2.2040088148765261e-01
      9.1224882966739265e-02 -1.1365378613363634e-01
      1.6367989350218020e+00 -2.0070706559987134e-01
      2.8438062581036369e-03 -5.9665183980979065e-02
      -3.8280951915193634e-01 1.2113992994499488e-01
      -2.2975958270764185e-01 -2.8488845068801355e-01
      -6.3642860126598155e-01 4.2252504534055846e-01
      -8.0991611364439386e-02 2.8502584026995359e-01
      1.2145240226683075e-01 -1.6519612251764518e-01
      -2.2128556341166600e-01 7.8326454891974699e-03
      -7.7541815624515398e-01 1.0379812424691259e-01
      1.1524514181912225e-01 -1.6301262147026305e-01
      -5.3771973940310003e-01 8.8675026423022565e-02
      -2.0929505777019622e-01 -1.1708304873043117e-01
      -2.8829297367194562e-01 4.6969299913170226e-02
      -2.0755730275485829e-02 -4.3550218978442989e-01
      -7.8573544743433676e-01 7.2930419062896590e-01
      -1.6267231750698517e-02 1.0511245995266137e-01
      1.2455890143069222e-01 -1.6911284304678123e-01
      -1.8078966034019645e-01 -1.0744713986229462e-01
      -9.2688634741609810e-01 1.7996741040630115e-01
      3.4304422722276584e-01 8.4892230892812975e-02
      -8.0875945440869146e-01 4.6630463305958783e-02
      -9.1158637842169557e-02 -1.1758151799545066e-01
      -2.4789835527383861e-01 -5.8181327756532383e-02
      9.0738464530931415e-02 -1.7210966022324756e-01
      -1.6272653601534989e-01 4.9598380189272762e-02
      -3.0669244658330058e-01 2.3995425714650312e-02
      1.1967155465061648e-01 2.6097163711591407e-02
      1.4113080117508156e-01 -1.1408022393653576e-01
      -3.1680376063005633e-01 5.7482836065182716e-02
      1.3827850254205162e-01 9.0144131485295168e-02
      3.0491922651207981e-01 1.0181821567296045e-01
      -7.0543019712638405e-02 -2.1267072441538468e-01
      2.5640540451705807e-01 1.5697457332537593e-02
      8.5231172648529002e-02 -7.3095436535660127e-02
      -5.3721682729582199e-01 1.8290940182070334e-01
      -1.3019509276924965e-01 2.6452166466133348e-01
      -1.4002215341233130e-02 -4.4052982690985359e-01
      2.6941229216666324e-01 -4.6883328871260822e-02
      -4.2469791059681000e-01 -9.4395285964433889e-02
      2.7196551024834348e-01 -8.1787619694848435e-02
      -1.0590596393176752e+00 -3.3225681972928400e-01
      -4.0627311218145105e-02 -5.4474893316888123e-02
      1.9323287040760848e-01 1.8782954343304883e-01
      -8.6041744290862535e-03 -1.1620006413934021e+00
      -6.6905880531979867e-01 2.5319455322088941e-01
      -1.9387750495957379e-01 3.4443929711878107e-01
      -1.7507393920366238e-01 -6.1885715904313472e-02
      3.8160768457035608e-02 -5.3671477821624416e-02
      -1.4570566916205436e+00 -2.4114197870128737e-02
      4.6291051980757603e-01 -8.6696223092804350e-02
      -1.3959176692977102e-01 -3.3392938800920646e-02
      -2.8041295676756439e-01 1.7580564029019921e-01
      2.1834785870020698e-01 -2.2019257810816795e-01
      7.9568685529847735e-02 -9.0996590986993642e-02
      -4.5723483649403673e-01 2.0090820865009670e-01
      -7.5136516313615231e-02 -1.2598370189787000e-01
      6.7635614350334397e-02 -4.3450047723275864e-01
      3.6458567289863547e-01 1.7293367580361152e-01
      -2.4873195550925933e-01 2.8852951939618114e-02
      1.0165419324710386e-01 -1.9689897243801521e-01
      5.2502229898850616e-01 -6.1835855862624779e-02
      4.4592848980084608e-02 2.4608719560107881e-02
      9.7512575487245762e-02 -4.8876664923930302e-01
      1.8177630298082664e-01 -1.5449307034784507e-01
      -1.3491729868580138e-01 1.0199878857766574e-01
      -6.7185735491659501e-02 -1.4023731841631651e-01
      9.2233397717637111e-02 -3.8249782048783154e-01
      -1.0568453923898347e-01 -5.2779666117978526e-02
      -1.2833370567781788e-01 -4.9025472802292643e-02
      3.6985890537128231e-02 -6.7730304209056263e-02
      -4.8462452769534631e-01 -1.5383123898367046e-01
      -1.1802219961385287e-01 3.4624005572211805e-02
      1.5094939322081802e-01 -2.0872928220993076e-01
      5.5546217385128965e-02 -2.7771514105678002e-01
      1.2376339331925054e-01 4.1446799454377369e-02
      6.9264109712709299e-02 -2.1076326029082781e-02
      -7.3905773413994041e-02 -2.7757893408587625e-01
      1.5252489162951877e-01 1.5789286757314197e-01
      -3.2119193182990563e-01 -7.1583178945679227e-02
      2.5083362752125210e-01 6.6020818584666102e-02
      -6.1866223483575200e-01 -1.1503186712731098e-01
      -6.9450435949386977e-02 -1.5730751205842407e-02
      -2.1780798998756176e-01 -1.6270038982713034e-01
      6.9600562765669491e-03 3.8653885667445084e-02
      -1.6014725339412630e-01 1.1235049542707573e-01
      -4.1631345129998040e-02 3.5734715188257660e-02
      4.7515541570258182e-02 -6.8157990687603670e-02
      2.7214636903598388e-01 -1.5147001967599338e-01
      -3.5312919807678766e-01 -1.3319125010202659e-01
      2.2826171692355335e-01 -1.0675223853844694e-02
      -7.8826923467848886e-01 -3.4283741391838485e-01
      2.2970137161902504e-01 2.3517378808982109e-01
      1.7808028549772276e-02 1.4905472561614935e-01
      -1.4644477809047665e-01 5.8686469195285640e-01
      -3.0031550861965340e-02 5.4883808010053513e-02
      -6.1936303744225353e-02 7.9345818076833968e-02
      5.4101074067274497e-02 -1.5279807433300122e-01
      1.6969872713151959e-01 -1.0998471923767159e-01
      -3.1369460654419234e-01 -2.4874169746948024e-01
      -1.2939650051880180e-01 2.2921271780881103e-02
      -5.3427527747403252e+00 -2.2926846441775697e-01
      8.9536363206890027e-02 1.2162560782825833e-01
      -1.1628192876217492e-02 3.0270535551778227e-01
      -3.3616142551668188e-01 4.7010504598840916e-02
      6.7660263597602688e-01 -5.1479679464298311e-01
      -1.4553919263606913e-01 9.5377620045317534e-03
      -9.8794994867903885e-02 1.8936648669558698e-01
      1.6221999724034294e-01 -4.1669085443920917e-01
      -1.5710290318722903e-01 -4.9043597023820129e-01
      -1.0882578604877874e-01 1.1574330738865152e-01
      -5.2310176917646931e+00 -1.5141246808168718e-01
      4.7059137850990279e-02 -1.8304701051433855e-01
      -2.6715054945493085e-02 5.2349068067276061e-01
      -4.7023215769480008e-02 3.1088796571930233e-01
      -2.4949598958469446e-02 -1.6791473111722275e-02
      3.3921597797453060e-02 1.0232917698362828e-01
      -1.5104756594584787e-01 4.2509085108334364e-02
      1.0081356574140675e-01 -5.0342221324176251e-01
      -2.0425736102978462e-01 -1.3133673686053701e-01
      -2.4400178784461252e-01 1.6326156929516536e-01
      -4.6339310443836741e+00 -2.2037923920844688e-01
      2.4682362314660156e-01 -1.1227090093945255e-01
      2.1418924706565987e-01 4.5735370712486001e-01
      -7.0787518990968495e-02 8.9607458483405633e-01
      -1.9252497219823408e-01 -9.9553037332375124e-02
      1.8235444765040312e-01 -1.6335670505549199e-01
      -2.8839201149048272e-02 7.9208060311823425e-02
      4.3678912867992187e-01 -7.7166330781329284e-02
      4.6926567791339940e-01 1.5227359080603868e-02
      -3.8781598664133848e-01 2.2939107167865614e-02
      -4.8161211061578628e+00 -3.1369961892061154e-01
      7.2208875305140863e-02 -4.5045849034688473e-02
      1.5363043151758912e-01 1.6195611830781056e-01
      -6.9998471378129173e-02 1.2753451379386366e-01
      2.1734305947986166e-01 -5.4124499379504726e-02
      1.1252098826911049e-01 -1.8663858665566205e-01
      4.1464971929555068e-02 -9.4162876497559556e-02
      2.0027085264665745e-01 -1.8445574036239762e-01
      -2.9888967212070044e-02 -3.0959422004043335e-01
      -5.1514612431380787e-02 -2.2093528482774796e-01
      -6.9927243386410112e+00 -4.9865823658654823e-01
      -9.6336883001611320e-02 -3.5855406889980634e-01
      2.9923353374007133e-01 2.5629983564336656e-01
      -1.9726025738818129e-02 -6.3187408963610178e-02
      3.8235917482283061e-01 3.5555723617581109e-02
      3.5597597879211951e-01 -2.7252091609766815e-01
      9.0020833660516775e-02 2.1306183818765198e-01
      2.6535776197037142e-01 -2.7909770811000500e-02
      -4.9423562362871543e-01 -5.7305570548067397e-01
      -1.2562621814119401e-01 -5.8250865255671705e-02
      -3.1893234956369834e+00 6.8810956515982263e-02
      6.2681064774117001e-01 1.8205727386836079e-01
      9.3352824582515676e-02 9.3229282478421271e-02
      5.3500002303076652e-02 2.6704562681169236e-01
      1.1681231014463912e-01 -6.2363335429170691e-02
      -1.1379881744563294e-02 9.1011886610905438e-02
      -2.9184989299927848e-02 2.9509035978330211e-01
      2.2570457307837841e-01 1.2870933217239344e-01
      3.0087746279751232e-01 -3.7043343867807760e-01
      -2.1092211759354568e-01 3.6467041860062782e-01
      -2.1762779471248987e+00 1.9029811568916336e-01
      -3.8407606285227658e-02 -2.8642580138877693e-01
      -3.4087976292754868e-01 -1.4084281708567642e-01
      -4.9371626632348002e-02 -1.2416197273331303e-01
      -2.8064167567977844e-01 1.0956243749275540e-02
      9.1703429487811863e-02 1.9787287265749162e-01
      -1.9348126633906113e-01 5.8474058453762945e-01
      -1.1005126001585173e-01 -1.0554988788056627e-01
      -9.4468224533625522e-02 -1.4192613039748483e-01
      6.6790983446990632e-03 -1.5292703994708276e-01
      -3.2568943164542208e-01 1.8332421540159108e-01
      3.7165856621760536e-02 -8.6332800590434924e-02
      -1.0972126893559707e-01 8.3935528302390192e-02
      1.7570487688082645e-01 1.6943346410285556e-01
      -9.2166117127639613e-02 4.5529617054877314e-01
      1.4106632593258059e-01 1.8308008971465134e-01
      -1.7319534601670072e-01 2.5359423636241402e-01
      3.2037419293060032e-01 1.5758632211187784e-01
      -8.9144497663307898e-02 -1.4171193463949899e-01
      7.7098700643746859e-03 2.1704016507678237e-01
      1.7508570752451897e+00 -5.8618081326263963e-02
      -1.8394744750178177e-01 2.0363230882338515e-01
      -4.2077302377550474e-01 7.0827215893449980e-02
      -2.9781975024234547e-01 -2.5624904374199764e-01
      -7.5041374962193846e-02 5.4966534097682207e-02
      1.6264222323948571e-01 2.3650254622035505e-01
      7.8049450047320112e-02 7.1159596953136756e-02
      -3.2726051828509711e-02 1.3489550698982525e-01
      -3.0560050056271526e-01 -1.1456530574899330e-01
      2.7811906325539526e-01 -1.7295641547217955e-01
      1.0904341348797975e+00 3.9607773285784860e-02
      -5.4267481929958679e-02 2.6775413512025098e-01
      -2.0705211938033621e-01 -3.7883050546519616e-02
      -2.9226055852912125e-01 -2.2170576442907475e-01
      -1.4447295655093856e-01 3.5659753897371743e-01
      2.5531580688332539e-01 -2.3015790075466838e-01
      3.3572909210197521e-01 -1.6429625585378414e-03
      1.9295859477293506e-01 2.3211713856629468e-01
      -4.2107642396453482e-01 2.3555129519654036e-01
      -1.4499999784999115e-01 2.4247826731890281e-02
      1.5288479651464721e+00 -4.2022610290768328e-02
      4.4787740152255513e-03 2.2055264533071259e-01
      -5.7654170598268786e-02 5.1133327465481618e-02
      -3.0360492809482126e-01 4.5166783636841362e-01
      1.1433834865743954e-01 3.4200836042848078e-02
      -5.2670262088516606e-02 -1.0220207276409114e-01
      1.8471061883894360e-01 -4.4892932108383327e-01
      -3.9370293357477723e-03 2.2126437046498298e-01
      5.8175063713231567e-01 -2.4666670478338169e-02
      -1.7214633515312033e-02 -1.7676861023966751e-02
      1.9887688011820268e+00 -1.2520277173530342e-01
      -1.5121323637942860e-01 -1.5209926226480175e-01
      -2.7008846788399959e-02 -3.5120645434536531e-02
      -2.7382372391641363e-01 6.9045379571128551e-02
      -5.1246190748200360e-01 6.1228376331302381e-01
      -2.1050327174879757e-01 1.1750597750503192e-01
      1.0296347617465357e-01 -4.4223693221629967e-01
      -2.8067131867683504e-01 -1.1916121404913735e-01
      -2.3434757800148134e-01 2.8874508362709694e-01
      6.6651778756851160e-02 -7.2386854884386537e-02
      1.1291244227950381e+00 -2.5625194569981369e-01
      -2.9231714835650086e-01 -2.5560534131491847e-01
      -2.8732483223603629e-03 -1.7423630088076400e-01
      7.7043329200327155e-04 -2.5157911256745291e-01
      -3.5473141231648647e-01 5.9812680989333822e-01
      -1.8888190255108916e-01 -3.3226560949195511e-01
      2.2361192083439707e-01 -1.5599244364241774e-01
      -2.5391317410757358e-01 -9.1983208420683416e-02
      -1.5391410456790933e-01 4.6843138841207577e-01
      1.7538318317576054e-01 -2.3414674819035158e-01
      -1.7987016330891215e+00 -1.7371145645144603e-01
      -3.3186232063446425e-02 -1.0050203244448098e-01
      1.8792608143945808e-01 2.0702734256163599e-01
      -1.3545786167604668e-01 1.1363788806135783e-01
      -5.9843342728480312e-02 2.8806060476960016e-01
      -4.8318341484286050e-02 -5.5960280302499124e-02
      -1.2567603530677929e-01 -4.2330187053064272e-01
      1.5024957200136463e-01 -3.0901213211225638e-03
      -3.3593712977511686e-01 2.9853927513290979e-01
      3.3534709987482501e-02 2.9798752202547568e-01
      -1.1631785713057337e+00 -8.8380944862121058e-02
      -7.9876678321988540e-02 3.5638292378831538e-01
      -3.1584117816008936e-02 2.0094468605901578e-01
      3.5586186252843072e-02 -2.8516315286735334e-02
      1.7578886075448005e-01 2.9012797671385143e-01
      -1.7460617156342093e-01 -1.7834955863877280e-01
      -1.3163990496301329e-02 -1.8345486174343190e-01
      7.3448857714137367e-02 2.0556710948882129e-01
      -4.4422441857987244e-01 2.8211012476248333e-02
      7.8675388604006122e-02 1.0722207136782221e-01
      1.2244136912039427e+00 4.5509884270718448e-02
      6.1646426725161844e-02 1.8074312391093700e-01
      1.6670572889724034e-01 6.8436056125764991e-02
      1.1099403614652626e-02 -2.3454261266410378e-03
      -1.4638834863870109e-01 2.9701495887520014e-02
      -1.1053003464470663e-01 1.1336396768148034e-01
      -1.3014326193774864e-01 -2.1248652610008265e-01
      -3.5866198329007483e-02 -2.4827591970481559e-02
      -9.2207678353851630e-02 -2.6107293600938639e-02
      -2.1923883296134383e-01 3.8744232130016709e-02
      7.6823877027271803e-01 -2.2669836574925179e-02
      5.3225651348319046e-02 -1.7388740039949169e-01
      3.8176788585524979e-02 -2.4280990667538173e-02
      3.6546943539836639e-02 -2.3046003954548125e-01
      -4.0715390746410907e-01 2.2621492593810941e-01
      -3.4810393670350759e-01 2.5969497127492241e-01
      -2.5064965894756378e-02 -1.5690819079151053e-01
      -1.4932566125700936e-01 -1.3195942328330407e-01
      -2.5988878755315664e-01 -4.0351088193316210e-02
      1.8925421507584950e-01 -6.5126037577230511e-02
      -3.9632760105584586e-01 -6.0305473616067390e-02
      -8.1037874881677519e-02 -2.5979823156227838e-01
      -6.9812106601232271e-02 -3.3575883743310603e-01
      -2.8374911202716824e-01 -3.5661175677660389e-02
      -3.8960683068957275e-01 1.9329831739587761e-02
      -2.1678138855275603e-01 -4.2333348824788376e-02
      -1.5011047239274126e-02 -1.4559450638598581e-01
      -1.0557018293629061e-01 -1.3911071414205273e-01
      -2.4298370341241404e-01 -8.7011170377467334e-02
      1.9126206595424175e-01 -8.6763015918260702e-02
      -1.3421007476685283e+00 -1.5433200770576747e-01
      -1.5738843135040292e-01 8.2898231479434509e-03
      -9.4445927668952420e-02 -4.8401337554490824e-02
      -5.2786134205608404e-02 -5.2989842381649455e-01
      -3.5384732602567354e-01 4.2191110343437654e-01
      -1.6204010393537749e-01 1.1808708692415244e-01
      -1.3825292223445224e-01 -1.6015868486830626e-01
      -5.6855276138041783e-02 -8.8409244331996137e-02
      -6.6475437446978169e-01 3.1685505628001917e-02
      2.2724746720335304e-01 6.1331260185891266e-02
      -7.4164793337067314e-01 7.7646386513982712e-03
      -2.1007805272226099e-01 2.1995188197171409e-01
      1.3289926245812672e-01 7.1374324906100767e-02
      -9.6867558991057506e-02 1.0320359750997175e-01
      -6.3125680224767033e-01 8.8069586072744666e-01
      8.4741591390533499e-02 -1.1629132903938039e-01
      1.6694069055442043e-01 -2.2573404956779336e-01
      -1.6657470758591866e-01 1.4984626161670822e-01
      -6.6681174452583547e-01 1.0881927259326925e-01
      2.7308094927679499e-01 -4.4102966276062992e-02
      -5.7556183627022617e-01 4.2363739254900681e-02
      -2.0566256854081347e-01 5.0714873682854611e-01
      3.4865681236324844e-02 1.1931071475509920e-01
      -2.6255225858542891e-01 1.0061112674021547e-01
      -2.1688430403383724e-02 -1.0698815009239700e-01
      3.3845574111136123e-01 1.1907543302615482e-01
      2.7542436228521044e-01 -1.2257053343981279e-01
      2.9590227916080925e-01 -5.7905095464957999e-02
      3.9928904994050035e-01 -9.2627467488961668e-02
      -1.4908933294949405e-03 1.5008313687244193e-01
      6.4846290210051594e-01 -7.6485488797858978e-02
      -4.8008520125247612e-03 -9.4913778679575359e-02
      -1.0489484739421422e-02 1.3657339343665023e-01
      -9.0938514823883862e-02 5.6138829854824893e-02
      -8.5560565009581702e-02 -1.0217519528271671e-01
      -1.6436432018812486e-01 1.6478163748797434e-01
      -4.6658015324457222e-02 5.8462788193547714e-02
      -2.5893820654779357e-02 -4.7156107763661254e-01
      1.3175582813273762e-01 -2.7907788983192949e-01
      -2.9382554893144421e-02 1.4879487432363131e-01
      -2.4752556507149022e+00 4.4521903001790474e-03
      -1.2886761181454204e-01 3.2670011866418186e-02
      2.6930539467669579e-01 7.0528842895725563e-01
      -7.0543293822213332e-02 6.7129584978403256e-01
      -3.0348945726479232e-01 5.6984009927111545e-01
      6.3765690489629295e-02 -2.1293504215850545e-01
      -1.6960203025168555e-01 -8.2987019376655452e-02
      -4.4292074516758012e-01 -2.7252460457828481e-01
      6.9630467335790980e-02 2.6029589036647628e-02
      -5.2522616573653913e-01 -3.0067650343268741e-02
      -2.1429977509651663e+00 -1.2208765018236571e-01
      -3.3769288921419599e-01 -8.5045593428380389e-02
      -3.7042875500096474e-02 3.1042745271161681e-01
      1.0847206914890875e-01 1.5689246366410650e-01
      -5.0619216862532658e-02 -1.9759012727850067e-01
      1.3949943464958114e-01 -2.2917165710988163e-01
      1.9149721979933101e-01 2.0430406500126408e-01
      -1.4667849683397202e-01 -3.6263529465963801e-01
      2.0271653850570340e-01 -1.5231202727564558e-01
      1.4545812097483277e-01 -4.1068723661405171e-01
      -5.6508114058144603e+00 -1.8132383794840976e-01
      4.6431785331536979e-01 -9.5749435089885912e-02
      -2.3804784185808855e-01 2.8629410794091231e-01
      9.1431958069876543e-02 2.9031823066274320e-01
      -2.5675822178763874e-01 1.6294078412972340e-02
      2.4177115184460932e-01 -2.4050661278584778e-01
      1.9601812540912270e-01 2.7388912547744582e-01
      1.4804176961708862e-01 -1.3779195328464383e-01
      -4.8727876755012174e-02 -2.3414001017084737e-01
      -7.0971840281338822e-02 1.0364280433855987e-01
      -1.4942418931411727e+00 -6.3560783336127219e-02
      4.0568940448408489e-02 2.4181540203465142e-02
      -1.3401236939954214e-01 -1.4822510850651796e-01
      -2.2606901468207083e-01 -5.2587910802746340e-01
      -3.6628070663971107e-01 3.2427098489354911e-01
      -9.0635827565559254e-02 1.5117469997148437e-03
      -6.3548608108774163e-02 6.7826100490290497e-01
      -3.2760216062167768e-01 -4.9443978353377820e-02
      -2.3197491337737272e-01 -1.0651824706575266e-01
      -2.4777945325364084e-01 -1.7192346575951811e-02
      -1.4977615232204944e+00 1.2945795006389541e-01
      9.5666098857394674e-02 -2.3463007214404075e-01
      4.4668999865479377e-02 -7.8219827925006716e-02
      -4.7859978978767530e-02 -1.0963922595460654e-01
      -2.9311420919921009e-02 5.8003502244026739e-01
      -1.2522586309826272e-01 2.2389682652361786e-01
      -6.2530306113814571e-01 -4.3074598082797386e-02
      9.8373775567507329e-02 -1.5709962217028367e-01
      6.5459290674491036e-02 -1.2162563997265584e-01
      -1.6134401239189905e-01 7.7487328793965582e-02
      1.8340710948994015e+00 4.5022050512490935e-01
      3.5888606191560857e-01 -1.1814829245898263e-01
      6.0735161240800223e-02 -6.9279178121788715e-02
      4.1415726070449310e-01 1.2946777001651730e-01
      2.2697801427406808e-01 -2.7427525569731004e-01
      2.1462928125515313e-01 2.3110445949270548e-02
      -1.5245756894300264e-01 -1.6689176267912495e-01
      4.0091864825004503e-01 -4.1761036969157596e-02
      2.3846433582467830e-01 -1.0074333162298006e-01
      1.9307464249754289e-01 1.8271469543079175e-01
      2.6510069331728672e+00 -7.7349244111437718e-02
      -4.2657606530280168e-02 -1.2833734773748998e-01
      -2.5092363519720062e-02 4.6252090833057743e-02
      3.1595581359935387e-01 -1.3695846819829527e-01
      -1.2219171224844186e-01 1.3769560226691546e-01
      4.0000406103050119e-02 -5.6707728935663566e-02
      1.4814524451628980e-01 -1.0883306309124162e-01
      -8.8368187191419964e-02 1.9007814322142044e-01
      -2.1805093025431238e-02 7.9190116020616222e-02
      2.3867522264040492e-01 -4.0331900650969199e-03
      -7.0801521995806704e-01 -2.3404210242956128e-01
      -2.5042019481258326e-01 8.9748844810288650e-02
      8.7431477843253877e-02 -2.0161721021045728e-01
      -6.8309740956305418e-02 -1.8152912734905646e-01
      -2.5630615166479115e-01 5.5708030579577239e-01
      9.2601772028964736e-03 -1.8794114182415680e-01
      1.1208830431697788e-02 -1.6928724042539126e-01
      -1.9678090789116215e-01 1.8976817785490799e-01
      1.5120890511721596e-01 7.2795339431600159e-02
      1.3621552574935519e-01 5.7600016401180516e-02
      2.4320458574108774e+00 -1.1724183420042944e-01
      -7.5773748434973601e-02 7.0355250650725856e-02
      -1.2798518425317118e-01 -2.3109436507259384e-01
      4.0616472099625961e-02 -3.1127888364735135e-01
      -4.1814877159325758e-01 7.7250864828851507e-01
      -3.0559777035853208e-01 1.7655241809135541e-01
      2.1768108139385797e-01 -1.2998497373924561e-01
      -3.4537904668734032e-01 1.1722413482772762e-01
      -3.5749337367475131e-01 -1.5346447004241523e-01
      1.6190920189134042e-01 7.6339397477294041e-02
      2.0645987154327026e+00 -7.3842063212023164e-03
      1.6679049207349914e-01 -1.9005289636351186e-01
      1.6176715292610153e-01 1.2070278370494744e-01
      3.3510072596912334e-02 -2.4680063713745995e-02
      -3.9534929780243327e-01 8.4999748653875340e-01
      -5.0077926188293105e-02 8.1651031721648434e-02
      -6.6374781049926529e-02 -3.1124166371900130e-01
      -3.0094728017614975e-01 2.3741536694752446e-01
      2.6631116742923532e-02 -9.4316863318395325e-02
      -3.6893714380077651e-02 -3.1584300667170558e-02
      -9.0338086878365476e-01 9.5067545293765904e-02
      3.7938144039618871e-01 7.0971139318854209e-02
      1.9410273072809525e-01 1.2776866340012480e-01
      7.6797654987995650e-02 -4.6829858830296994e-01
      1.6981235448292839e-01 -1.6168623269192942e-01
      1.0757684623132981e-01 -4.1722605740645718e-01
      1.3354207262043971e-01 -7.1705791586322648e-02
      -1.5850355009198971e-01 2.5560650806953439e-01
      2.1887603928206092e-01 2.8895166181723159e-01
      -2.8461393952573122e-01 1.4197120504763688e-01
      -8.4187341186775488e-01 -5.6600644163782896e-02
      -1.5409578130882293e-01 2.7208499281540155e-01
      -1.3767610468723088e-01 1.0053621597721858e-01
      -9.2125780760787659e-02 3.3930964406747789e-02
      -2.5647130663327362e-02 3.0631807542841366e-01
      -2.6469844240441970e-01 -1.3579352377830797e-01
      1.2782427482080150e-01 -4.3222407373105294e-02
      -2.5272858309406404e-01 4.3899110960672789e-02
      -1.7646756382633647e-02 1.4887733322361599e-01
      1.3951577937398849e-01 4.6589078082673555e-02
      -7.3666069504453746e-01 -1.0864509010921947e-01
      -6.0803714139473643e-02 2.0050358058725945e-01
      1.3773686759222361e-02 1.6361142786181915e-01
      7.7128028527355355e-02 2.6498737729997346e-01
      2.4837907516907490e-01 1.6292779403252525e-02
      -1.1035742980850641e-01 -3.7197931032721443e-01
      -2.6517055737631193e-02 -7.2942907720229169e-02
      -2.9720221993905221e-01 1.7297850769702136e-01
      -3.1198328917941132e-01 8.7381545932572066e-02
      9.1148757673463462e-02 1.2989359261942648e-01
      2.0500735855918797e+00 -4.0785976419751860e-02
      -9.3044095833278107e-02 3.8343247757456450e-01
      1.5447407654781561e-03 2.2836571754106416e-01
      -8.9110909856858336e-02 2.8667335502737051e-01
      5.1809943776159176e-02 -4.1089272589055766e-02
      -1.9054780453084966e-01 4.5611539434414115e-02
      -1.8888825963492367e-01 -4.6955822719480844e-01
      2.5130255616804376e-01 1.4449494838673010e-01
      -3.2286980143607291e-01 -8.7334155503786912e-02
      -5.7324230971750822e-02 1.8876622322608663e-01
      2.2322237653093628e+00 -8.9283890121103063e-02
      1.2207311486197160e-01 -9.2259518815714543e-03
      -2.4005527008401450e-01 -2.4503343591870391e-01
      -1.5857954517338457e-01 -1.4308323074649437e-01
      -2.6704851422048433e-02 -8.9797112703406318e-02
      -3.1280195481830336e-01 -1.4734895350762395e-01
      -4.2809787752718195e-02 -3.0280308044682797e-01
      -2.1533769595092891e-01 -5.1409451079436778e-02
      1.7460362636413412e-01 9.1489208865663071e-02
      -1.6654483383223484e-01 -1.9030851744463537e-01
      4.2988852720080167e-01 3.6628966503111132e-01
      9.3660903630716427e-02 -1.5841253019249585e-01
      -3.3131898733172634e-03 -1.4768860070700507e-01
      -2.2105172797221778e-01 1.9519746710742791e-01
      -3.1711032782195203e-01 9.3709099672342477e-02
      1.0044805641055826e-01 -1.6800553266741738e-01
      -1.6073989134717179e-02 -1.5674946372708609e-01
      -1.9076859380179659e-01 -7.6636376552570121e-02
      5.0268649290039269e-02 1.8794976807056751e-01
      -1.4782892265872713e-01 -3.6097900764853325e-01
      -4.7301898470926601e-01 -2.4995807359308900e-02
      -1.2114078436580993e-01 7.3405811644457877e-02
      2.2141284542251935e-02 -4.0826897788877825e-02
      1.6401657306920281e-02 3.7535760618266706e-01
      -1.8548674280120386e-01 -2.7354128140544059e-01
      1.3739456332811501e-02 9.1663626699135164e-02
      -1.3886789632272348e-01 -1.2615477689806609e-01
      -1.0228680727644961e-01 1.4475686217763123e-01
      -2.3603275775914281e-01 -4.9970179633788560e-02
      3.2760450211341829e-03 -1.4045078966768171e-01
      -1.4146325973670699e+00 -1.5929495600638427e-01
      1.7680066476411453e-02 1.3791664048048621e-01
      2.2087467378701220e-01 -1.9161518068078153e-02
      2.4108921105990627e-01 -2.5882580249797760e-01
      -1.8683095140976472e-01 3.9449299237903301e-01
      2.8760438982883507e-01 1.2474371810594593e-02
      1.0510056094087786e-01 -3.0296247559190484e-02
      -8.9482002137211386e-02 2.8995707900402613e-02
      -2.2698923170605045e-01 2.1174206595547818e-01
      1.1895360498157845e-01 -1.2787983504897715e-01
      8.8775898665770558e-01 -9.0988911545316215e-03
      -2.5012346552617304e-01 2.4565418538101402e-01
      1.7580010464085267e-02 -1.0935273631873735e-01
      1.1695082661515065e-01 -1.1690066026950710e-01
      -3.5274135137191387e-01 2.6565654318289295e-01
      2.5949623285210460e-01 -9.6489979708073645e-02
      2.9450708903959305e-01 -4.3503181685497085e-02
      -1.9362654309181129e-01 8.9170159144253858e-02
      -3.7294799710805532e-01 1.8889060696266988e-01
      8.7285476036319420e-02 -1.7159811996419888e-01
      1.8369912603641927e-01 -9.4283268837505995e-03
      1.0140668187747846e-01 1.9433298008968775e-02
      -7.8672210584052743e-02 -4.5511313140195103e-02
      -1.4255920859034296e-01 1.0278153817307367e-01
      -3.0159585575693626e-01 5.8675227019695186e-02
      1.0026677614759537e-01 3.4542577615528142e-01
      1.9156958867927029e-01 -1.4834956506656685e-01
      -3.1719295572684764e-01 -1.5893980325258045e-01
      -4.7177671604954591e-02 -6.9221818254899731e-02
      1.7324725767146314e-03 -1.7806838482036866e-01
      -2.7372353216588968e-01 -2.4427712591838199e-01
      -6.2618000624975342e-02 1.6657346968227407e-01
      3.8992504382677887e-02 2.5785212872948549e-01
      -1.8513747480912254e-01 -2.2583424426501142e-01
      -6.4203292949024229e-02 -2.7700603519592326e-01
      2.8044612541909823e-02 -6.5002583755490576e-02
      1.6797881695068131e-01 3.2543087633195807e-02
      -1.0924742499482579e-01 -4.9530658284202472e-02
      1.8643363357954240e-01 -5.2880421219834106e-02
      8.5088452326524365e-03 7.2273813443092957e-02
      -2.1820871076394299e+00 -1.4399107884451090e-01
      2.4461789168809764e-01 -2.0459982366859722e-01
      -3.6272135779758505e-02 4.1167332615566249e-01
      -1.6180113837191718e-02 7.1236545168652543e-01
      -2.0483495521128386e-01 -4.3456740424721606e-02
      -8.6116693460703317e-02 2.3341470870969283e-01
      -8.6407463560455089e-02 -2.0365213071012447e-01
      -3.2853985468108304e-01 -4.0006641983418229e-01
      7.4472098634033923e-01 -7.1313185919602354e-02
      -3.3980299986021484e-01 -3.6859987156802214e-02
      -5.1091535048227970e+00 -1.6402728256764290e-01
      2.8865936646966961e-01 -1.1315487167059751e-01
      -1.2799074622358020e-01 4.7969051732079626e-01
      -2.4291663198821206e-01 -5.0725535660591903e-02
      -2.0938194803673268e-01 -2.9148521709296454e-01
      1.9503921665010814e-02 -4.3580692460988635e-01
      2.4607100606290311e-01 4.4262233394563892e-03
      1.1965590727816064e-01 -4.3238118365688125e-02
      1.9937110915218859e-01 2.6588958864993524e-02
      -1.0981604057564427e-01 2.0049374550850821e-01
      1.1646277846641864e+00 -1.6129738635017254e-01
      3.7810506477376771e-02 -3.2658722234522999e-02
      6.0235978692624231e-02 -1.2743198065112840e-01
      4.2757135923239445e-02 3.5119331642769469e-01
      8.4977831120909383e-02 6.4838095503567750e-01
      2.0426450859865646e-02 -2.7338743409558067e-02
      -9.5292866459232003e-02 1.5265284533303439e-01
      -1.0834069774316248e-01 -2.9125122871494802e-01
      5.3938105168443129e-01 -5.5061198487953232e-02
      3.6935135935245687e-02 3.4373647150306341e-01
      2.7145809571835705e-01 1.3799453296099212e-01
      1.1541174935029515e-01 -1.4711789477595272e-01
      -2.1975905323697825e-01 -1.9345708861091265e-01
      -9.6499441236644543e-02 3.1826117491555889e-01
      1.0793888263184322e-01 -8.0255211662973433e-02
      -1.3715969927102445e-01 1.2556991221241137e-01
      -2.2319369326799302e-01 -1.4370409366669201e-01
      4.2039650240986082e-01 -1.8313775386571263e-01
      4.0427904415633559e-01 9.9779860813301868e-03
      -3.6314047181964249e-01 8.2226102585059423e-03
      5.3636920360165630e-01 -1.3653525050687207e-01
      -1.3015548448665007e-01 -2.6803927108998545e-02
      1.1587197022292513e-01 -1.9646220823540460e-02
      -1.0892254381962121e-01 -8.6454163370670190e-02
      -1.6486998743624490e-01 1.0064779005470992e-01
      -6.3221465448642142e-02 1.6497994783228687e-01
      5.4034178550850999e-02 1.0288937457469814e-01
      4.1148389899658677e-01 2.7406666859830370e-01
      -3.6477360747404736e-02 1.4355126034162102e-01
      4.0070261937696569e-02 1.7176895778041258e-03
      2.5652770666721925e-01 1.6602329850385636e-02
      1.7934145154540327e-02 -3.3135854692004460e-02
      1.6579836820886196e-01 -8.7426376769371109e-02
      5.9202777649122539e-02 8.0275902625150650e-02
      -7.9632553594400024e-02 1.0561930430490139e-01
      -2.0097644430559652e-01 7.3621664474096973e-02
      -1.2195228822075149e-01 -3.3017587725855940e-01
      2.2432777053962691e-01 3.6757350124389104e-01
      4.9608102652112512e-01 1.3832566806743632e-01
      -4.9051123260906361e-02 1.4418756935125970e-01
      -1.2500279906234286e+00 1.0170074922384909e-01
      3.3908094026419511e-01 4.4361377323687931e-02
      1.0422873144559250e-01 -9.4790402055760191e-03
      -1.3523953405704095e-01 -3.6385296440642828e-01
      -1.8611481616474884e-01 2.7017339229490217e-01
      -1.0557804106378842e-01 1.3686327605187637e-01
      -1.5944739156201618e-01 -6.8361401849269476e-02
      -3.7170187875554511e-01 -2.6029818156644409e-02
      -3.1223289678290711e-01 3.2378269358870108e-03
      4.9056027714879734e-02 1.5254249142874479e-01
      8.3367523889768230e-02 9.9638280360128062e-02
      3.7169017205062266e-01 -4.3137050185107051e-01
      1.9289039261864935e-01 -1.1786870302987719e-01
      4.8586485639334299e-02 1.1093803926747831e-01
      -2.1378423916487538e-01 6.9351207262058123e-01
      -1.6064950641868550e-01 2.5917848373455876e-01
      -2.8962286239164825e-01 -2.2504383689329491e-01
      -3.2260101343691761e-01 -1.8809906884948263e-01
      6.8073071283033207e-02 9.3143364337913287e-02
      -7.2016754489727955e-02 1.9627792644804928e-01
      1.9749583705559945e+00 5.1078372806113569e-02
      7.2712870521934982e-03 -6.6088177477022711e-02
      2.9314305156287590e-01 1.4646220951403183e-01
      8.9506323215975653e-02 2.6601429050909120e-01
      -2.7076643113491027e-02 5.8638821992607329e-03
      -1.1768433049431710e-01 -3.5221794195203765e-01
      1.6958263076916053e-01 -3.6538412734648812e-01
      3.8467301656113223e-01 2.8365465752691604e-01
      -1.7963597394118583e-01 1.2728778694792822e-01
      2.2936949478459931e-01 4.1232111519216304e-02
      1.3500880657433993e+00 1.2326371646866609e-01
      2.6252484749209964e-01 -1.2577420524082517e-01
      1.2038315303805178e-01 7.0921397441003786e-02
      -5.7550227256690935e-02 8.1083153325503365e-02
      -3.5722351610401621e-03 -1.9198606649371638e-01
      -3.3684286657272472e-01 -1.4165948210207999e-01
      4.4056219611280312e-02 7.6468496753140089e-02
      7.5605787782716802e-02 -1.7868335974544919e-01
      9.7971798247877245e-02 1.8811311884797521e-01
      1.4039859591294404e-01 7.2091217786809172e-02
      1.5627577875998184e+00 -1.6541141294791770e-01
      -2.5918959595470359e-01 -1.4486430959481816e-01
      -1.0446239211743541e-01 -3.4339164594937827e-02
      -6.0958391846141338e-02 3.4983191309341556e-02
      1.7758721719678797e-01 -3.0030294992143636e-01
      -2.0528521055574281e-01 -3.4300005381020909e-01
      6.3276116434263369e-02 1.0242432704115241e-01
      3.3655491451457270e-01 7.3140937033444450e-03
      3.0243565789281385e-01 1.8608463846063228e-01
      -1.0324280666513706e-01 2.4117520975947156e-02
      5.8371889496986162e-01 4.8301838482528552e-02
      -7.5895430070015618e-02 1.0408837117957860e-01
      -2.3102721854758862e-01 4.0537248565845306e-02
      6.5861918880872070e-03 2.0520247002048272e-01
      -8.4163430559612250e-03 -4.9833271863934941e-01
      -2.2432169392407497e-01 -3.7109271607826538e-01
      1.3873800774050232e-01 -2.1900708676811420e-01
      3.6444507975726459e-01 8.3386232575715105e-02
      -4.9725163657951925e-02 2.5468990767348038e-01
      -1.1616926729475510e-03 -9.8607330574461249e-02
      1.7016941055267054e-01 1.1162976456673215e-02
      -6.0645447240351535e-01 2.3124151086986339e-01
      -7.7721257020024526e-02 1.8565307121455332e-01
      3.9787833096920966e-01 -2.4178821786544596e-01
      -2.0630294804704796e-02 -3.2206965317456482e-01
      -6.1034497019497147e-02 -3.8481947380887382e-01
      1.4111064198204429e-01 1.2077118561260031e-01
      2.5234866952224028e-01 4.4808401796996813e-02
      -1.1977766054155206e-01 1.0502216085850177e-01
      4.1199388335564729e-01 1.3190080799462640e-02
      2.3047328037101260e+00 3.3087441842407372e-01
      -5.4030487680401799e-02 1.7455826563223123e-01
      -9.4511529918484730e-02 1.7912123708613972e-01
      2.4578115519298501e-02 -4.1206312016833516e-02
      -1.1677249955311786e-01 -1.6304682149331221e-01
      -2.9772232376240382e-01 -1.6343779949477699e-01
      -2.8190979963883520e-02 8.6790920234610269e-02
      1.4235106178706652e-01 2.9599860411334625e-02
      3.6003089915206266e-01 1.6804959430595781e-01
      2.4667212926594361e-02 -1.8284087581616632e-01
      1.0437399428707628e+00 -8.2854624333802404e-02
      5.7099128187183823e-02 -5.0540963699067333e-02
      1.8482078117040462e-01 2.5521733877597996e-01
      -3.4391318220923006e-01 -4.0758554882967912e-01
      6.6260715460938563e-02 3.3378258254863613e-01
      -1.5401452531878951e-01 -2.0469371607133827e-01
      -8.6568234981280703e-02 -1.8168023644881368e-01
      -2.9541011046663590e-01 1.4065727174925330e-01
      6.4135869761292763e-02 3.7859511602256984e-01
      -1.9368501416055711e-01 1.7288597803307514e-02
      -2.6481531562263367e-02 1.7802568126634408e-01
      1.9888082005598742e-01 -1.9580896441198892e-01
      -3.6873092293699637e-02 -1.2580856948773569e-01
      -1.6632660007500727e-01 3.5599766066755517e-01
      -1.3813329573428884e-01 -6.2649180002993771e-02
      1.5937551964304592e-01 2.3003490936273649e-01
      -1.4635745369705213e-02 -1.5394357668467545e-01
      -1.0006737408909543e-01 -1.9351953691987539e-01
      1.9235966922203279e-01 1.8640784375740738e-01
      -1.4520418443482233e-01 -1.7414704447855675e-01
      9.6473404912455862e-01 9.1907414772368107e-02
      1.5269546079531729e-01 1.8866329571909210e-01
      -9.7155820475035307e-02 6.6736553816392014e-02
      3.9128330849522490e-02 -5.2223179301438487e-02
      4.1461790527175718e-02 -2.6118082233362416e-01
      6.5761206606242573e-02 2.5929738870032831e-01
      -3.8726994292703147e-02 -2.3383670598298023e-01
      5.6789475601781748e-02 2.3048575448637135e-01
      -2.3746959455553052e-02 1.1374790627939656e-01
      5.7031463983042976e-03 6.8491318117351874e-02
      3.8506048059321663e-01 2.6115928172180228e-02
      3.5222782400965291e-01 -3.0202959929295570e-01
      1.4224089987389577e-01 -8.2625513086114714e-03
      9.1495837385674933e-02 -3.7697897616287290e-01
      -3.1299500140966935e-01 1.4656916540047399e-01
      -1.4028113590760347e-01 2.2075602762831070e-01
      -6.3618413407289468e-03 -2.2818533546068864e-01
      -9.4055905768679268e-02 -5.5330504127349717e-02
      -3.0162854792374416e-01 1.9305212898887966e-01
      3.9298866670772044e-02 4.1743945168233425e-02
      6.2948719044599832e-01 -4.2568348042876730e-01
      -4.6450879077865603e-01 -1.6976623135280897e-01
      8.8071294700672931e-02 3.9912833863062066e-03
      -2.0453925975894061e-01 -3.1622361828746531e-01
      -3.8746116949187492e-01 1.2867865875337131e-01
      -2.3665298042360117e-01 1.4046827505974074e-01
      1.9863125328979830e-01 -1.9663623842492689e-01
      -4.5251649208829903e-02 1.1933778184066941e-01
      -5.0268768295426691e-01 1.5567339431482563e-01
      3.7315560498579710e-02 -3.6805160378105287e-02
      5.6026261503300578e-01 -5.7052535546837741e-03
      1.4655377315766377e-01 -1.3424485725362381e-01
      -6.2247949320198462e-02 -1.6079797781654975e-01
      6.5029547996034179e-02 4.0258868863838249e-01
      -1.8073812034716730e-01 8.2737688833280379e-02
      1.3986898889550836e-01 -8.5394412004456861e-03
      1.6001572338223058e-01 -2.7440922780951943e-01
      -1.5535976762422493e-01 -2.4475422597065751e-02
      1.5570454064686759e-01 -9.7275500590030248e-02
      -1.7065433258436180e-01 1.7770570834441925e-02
      3.5077784900508413e-01 4.8074458032672060e-02
      1.0418649490704172e-02 -2.5440262826529386e-01
      -6.8962500604491939e-03 1.5217228581310696e-01
      -1.2739391117162460e-02 3.7941524095980134e-01
      -5.3685550469681154e-01 1.7895076463682333e-01
      9.3449086275121232e-02 2.2855463190255765e-01
      1.3031268231130815e-02 -1.5658901000497438e-01
      -2.6266254647408688e-01 -2.1551949251313607e-01
      -2.7845165254760262e-01 -1.1136953227334946e-01
      1.5951088862947221e-01 -1.6780155253997445e-01
      -5.1153221849280621e+00 -1.2075063367142055e-01
      6.1601067658589963e-02 8.7690790238057134e-02
      2.4917151560287176e-02 5.6983209254167488e-01
      1.7619954846244434e-01 2.5917131332653814e-01
      -4.9621122539920126e-02 5.8204197199337789e-02
      -2.0062234036052259e-01 2.9002459146481897e-02
      -6.0956696029312606e-02 2.8989992264879239e-01
      6.8446125721281309e-02 -3.7831939405455157e-02
      -3.5815036773829179e-01 -2.3360807413634499e-02
      -8.3892467970337822e-02 2.6857928818015936e-01
      6.7028488296213695e-01 -3.4825874286731368e-02
      -3.2601119989057220e-01 -1.5163332851501371e-01
      -9.2219242603782642e-02 -1.3903158783865296e-01
      2.4040923114041868e-01 8.7434924140817147e-02
      2.7754340644484510e-01 5.0100053139008296e-02
      1.5091656680230570e-01 3.4667245697603773e-02
      -1.5766424708340551e-01 2.3814105378472894e-01
      -8.7422724385524855e-02 -4.8268995628420996e-01
      1.4271816713502691e-01 -1.6412329233707504e-01
      -3.5339412791662715e-02 3.5531082030978745e-01
      -6.0864760450684996e-01 -3.9698117647068147e-02
      1.4679373806716142e-01 -2.8064020678880353e-01
      7.3021861550686212e-02 -8.4364952300709242e-02
      2.6630761009772608e-01 -3.1619251963366207e-01
      -2.2672665601851263e-01 2.0686432369859381e-01
      -1.7178708706518878e-01 3.3031140613478605e-01
      8.4609120253367840e-03 5.5658122950400357e-01
      -5.5836510164228088e-02 -3.8428044808952302e-02
      -5.5135805258737669e-01 6.3764109556715982e-03
      3.7518714225808736e-01 -2.0558606010456534e-03
      -1.7989997969284037e+00 -9.3806721912366962e-03
      2.9373685411439192e-02 7.7012970880724341e-02
      8.0280563957935855e-02 -1.3521378293235597e-01
      -5.9144096593425705e-02 1.4410585824355471e-01
      -2.7309316598671879e-01 3.9580565471600115e-01
      -1.4591386768525544e-01 1.1736840940454704e-01
      -1.0495250980056034e-01 -2.3325400755945133e-01
      2.4543746354129467e-01 1.0673380186848577e-01
      -5.6848500554184578e-01 1.6584697436567472e-01
      -2.1730210271374503e-02 3.0726978690689222e-01
      -6.1047504618067283e-01 -1.9430261328735179e-01
      4.8648908531548102e-02 1.4124264880686357e-01
      1.7623231060743502e-01 -4.2497220869454073e-02
      4.4509452231148494e-02 -4.1439128799951563e-01
      -7.6965670722776852e-02 -1.6482710133947243e-01
      -1.0887752805607967e-01 1.4659703471749760e-02
      -6.0388132998074702e-03 7.4354515707363872e-02
      2.4698145337438868e-01 2.6038511002420850e-01
      -4.0004696256487887e-01 3.7649919229547177e-02
      -1.0514154582413199e-01 -7.4189936014393996e-03
      -8.8701458505554243e-01 1.6899805394735234e-01
      4.6593495863841466e-01 1.8769093298202127e-01
      -1.6036942222202585e-01 -1.8162087799032536e-01
      7.9917894699928202e-02 -2.8391034614701038e-01
      9.2816905231775354e-02 -5.1013799894065892e-01
      1.2522914571520086e-01 -1.4331835269374668e-01
      9.6121871895467573e-02 1.6584991143228139e-01
      -2.9899085005053491e-02 -5.6394752433934752e-03
      1.9605828605677120e-01 1.0757410108919342e-01
      4.5179030493620605e-02 8.9483598773717463e-02
      6.9433170235391395e-01 2.3440608215541886e-01
      -1.7991306589706171e-01 -3.3932856714248222e-01
      -2.3031567503646408e-01 -3.1211212856483456e-01
      2.8976722547107558e-01 -1.2938761928660611e-01
      3.4394816987026061e-01 -3.6569454764753001e-01
      3.5973708439436852e-01 -1.9798510229737569e-03
      -2.0035630021361642e-01 2.8362609579290954e-01
      1.7495890791165411e-01 -2.5021346118231746e-01
      4.0859168983639382e-01 1.5185156399787693e-02
      1.0202744448279163e-02 -1.7880008258740748e-01
      1.6296321905093440e+00 -2.2374999017928429e-02
      -1.9122741145668240e-01 -2.1787122942357820e-01
      -1.0124046687748958e-01 -1.5716723332918450e-01
      -6.9977918395312880e-02 1.5089014593131181e-01
      -5.8692316054811747e-02 2.4494231923347623e-01
      1.2967091817008120e-01 -2.3618722212360435e-01
      1.3106819998804958e-01 -3.2503176271514909e-03
      1.2918056493337754e-01 -8.9323305110471894e-03
      3.4424024304125144e-03 1.4101650770824556e-01
      -3.6515048298883489e-02 -2.8534400944476257e-01
      1.5021985413865582e+00 -1.0539733283397018e-01
      -1.3960282653936519e-02 3.9000040806361456e-02
      -1.9106800675483021e-01 6.8005848931984554e-03
      -1.4745897262827592e-01 -1.4867478514497259e-01
      -3.2782186718289252e-02 5.1264272846940885e-02
      -2.0651525039850654e-01 -2.2424313890258768e-01
      2.4760227000713203e-01 2.1982897295384296e-01
      2.7220094518267501e-01 8.6436316638172958e-02
      3.9382054476219092e-02 1.5983822899172545e-01
      -9.1676969072726475e-02 -1.4439196277174993e-01
      2.8543328864700519e+00 1.3687246786106572e-01
      -5.9693107267966200e-02 2.1531080688665449e-01
      -1.9866020876468435e-01 2.7160410745038346e-02
      -7.3413805669299781e-02 -2.6854859923626173e-01
      1.1496931304553851e-01 -3.9292558486252668e-02
      -7.4556028013361322e-02 -5.2689101291029472e-01
      2.8454859592362908e-01 4.0253727866749842e-02
      1.9036487025746490e-01 3.1853295940619419e-01
      4.5741371013131478e-02 2.0936242370915276e-01
      3.5390476391397037e-02 -1.2329862974432759e-01
      -3.6171501087251734e-01 -2.1469804674118734e-01
      7.3451517881752998e-02 9.2514043354515962e-02
      -4.5051155966127737e-01 -6.3763542907752074e-02
      -1.9524625741224277e-01 -4.5185539278932867e-02
      7.3518545486453757e-02 -1.1496245275559239e-01
      -7.2143318151981731e-02 -2.8062556391135340e-01
      1.3229608875111665e-01 -2.2061300759808299e-02
      6.2636327633275299e-02 -4.3254032444947965e-02
      6.5047341809910564e-02 1.6424098312126439e-01
      -9.5826510132060894e-02 8.0044781274801816e-02
      9.3816235595760178e-01 2.4900066026563670e-02
      -8.8000290913769458e-02 -5.9785019682106907e-02
      -1.7051116737288349e-01 -8.6938666861677505e-02
      1.8775196704370725e-01 -3.1031471012469891e-01
      5.9423115733780269e-03 -1.0118803902944006e-01
      1.1431625062252648e-01 -2.0411037007835697e-01
      5.9325065428356650e-03 6.6784143114513458e-02
      -1.5215354914635931e-01 -2.7658321539554465e-01
      -6.2594273218721144e-02 1.5627864378240530e-01
      3.0934458456541674e-02 9.8561999477248655e-02
      7.8825340063171667e-01 4.0782366081352122e-03
      -2.0484800076628235e-01 3.2503126932693632e-01
      1.1750273314613521e-01 3.0621303685458606e-01
      2.0888811250542177e-02 -5.8492579593497442e-02
      -1.9555478138943549e-01 5.9008354050393730e-02
      -8.5166560128971891e-02 -1.7494635670195596e-01
      5.0579194398837131e-02 -8.2248419476586287e-02
      2.3014863352066300e-01 1.2919698537182184e-01
      -1.3518822430709754e-02 2.4396651059656861e-02
      4.5344300746052432e-02 -1.9042536008195732e-01
      2.8802854164750570e-02 -2.1564424079338398e-01
      -8.4998415066098992e-03 -1.8753780152491928e-01
      -2.8215033402124997e-02 -8.0519495070726782e-02
      -5.2552840104288490e-01 -1.5057346940015459e-01
      -2.8994788676174510e-01 -4.7996293112554697e-02
      -1.0279988724391094e-02 -4.0644826154189947e-02
      9.2232933810343767e-02 4.0006840306158614e-02
      -4.0360335961017785e-01 -3.2409883068171559e-02
      1.8974994224896274e-01 6.1991429407306918e-02
      -3.6201629025843723e-01 -2.6364263631049401e-01
      -6.2819386632353413e-01 5.6143318868221791e-02
      -3.5735475340555456e-01 2.0235367397435946e-02
      1.2989449109387591e-01 1.6093565273982388e-01
      -1.3482874127409600e-01 -2.0243546511225291e-01
      -3.4987833522758624e-02 6.0685852535988211e-02
      -7.5455535118925846e-02 3.3159494562372015e-02
      4.0839625563880634e-02 -1.7843924674231978e-01
      4.4713458408299704e-02 1.8966426372024708e-01
      1.6169297708231230e-02 9.7318550383259705e-02
      -7.3865530134461205e-02 7.0360007236341194e-03
      -9.0339807957351759e-01 -1.4827947925808480e-01
      -3.5320632048683459e-01 1.2162393784103127e-01
      1.2730992797774995e-01 9.5507623872414335e-02
      -4.1605607439245067e-02 -3.0250861263191969e-01
      3.1902564311435394e-01 -2.0430800079903216e-01
      6.5309786368028158e-02 4.3128737984293217e-02
      -1.2613652171960324e-01 -2.3539014376829961e-01
      2.4223068921578442e-01 1.8114041191251265e-01
      -3.0842427765213676e-01 -1.7271587959246835e-03
      7.7385747339736230e-02 2.1462294652432792e-01
      7.0535816752003855e-01 1.3813228790212148e-01
      -1.3276895684523973e-01 -3.8575705223192186e-01
      1.3006565145422958e-02 -3.1670209926017712e-01
      1.9186645501270766e-01 -2.7198761248496583e-01
      -3.8189600743638391e-01 7.9443902466284327e-02
      1.0846091345213715e-01 -2.3234793656944092e-01
      3.3107153785354920e-02 -2.9306394729221602e-01
      -8.7355822168179817e-02 1.3250071633184174e-01
      -3.2661163410559363e-01 1.3028586192441596e-01
      -9.8378094460602064e-04 -4.4892210904647262e-01
      1.0318789140941351e+00 6.7665114865049780e-02
      3.1437997163348680e-01 -2.1554263966366385e-01
      -6.0241458085239792e-02 -6.8993709800791336e-02
      -1.8463526787537002e-02 1.3635989179086105e-01
      -3.8519006502864533e-01 7.7539900519734220e-04
      1.1964560425127620e-01 -2.5956341385695764e-01
      3.4950395329728651e-01 -3.4059543712241697e-01
      -6.1245182320546120e-02 -3.2598236619422452e-03
      -1.0879255661241043e-01 1.9486073870776072e-01
      -1.8317927412129228e-01 -2.4008676305404872e-01
      -2.5506203244257097e+00 -3.0318296989043780e-01
      -3.1178114902094584e-01 5.0640960140502976e-02
      -1.5470511263834774e-01 7.4634320402250320e-02
      8.8678475395354936e-02 -9.3869278584306015e-01
      -1.8575586271397837e-01 5.9366505205107378e-01
      3.3954366340591235e-01 -1.6362380324131534e-01
      3.4352722873726277e-01 -1.5183125252764376e-01
      -4.7843005952421064e-01 2.5845051827409371e-01
      -9.7456044685792997e-01 6.6693784175436727e-02
      2.5859429965434944e-01 6.7454574123850433e-02
      -2.1069460928109591e+00 1.4673453160331007e-01
      -2.2428683681968993e-02 4.0232957634968938e-02
      -6.9573846270280390e-02 3.5552304473450744e-02
      -1.5897525681626182e-02 -4.9539683130593598e-01
      6.6224351142833635e-02 1.6326422567384313e-01
      3.2965345246231353e-01 4.0436582819426709e-01
      -2.4577840287802757e-01 5.0126546940388171e-02
      -1.7887701316783555e-01 6.5266129630526040e-02
      -1.4861331425255866e-01 -1.1488810651539784e-01
      4.0159080022180671e-01 -5.1568244810769048e-02
      -3.1292728265321736e+00 4.1776082326707487e-02
      -2.9466329723790857e-01 1.3763461079309974e-01
      -6.5908806157592953e-02 1.9605246361810913e-01
      1.4029794696534523e-01 3.4549452726734287e-01
      9.4313492801763765e-02 3.9592045063527696e-02
      3.8926051669011486e-01 5.8322392323510016e-03
      7.1548192802117022e-02 -1.8516590700609026e-01
      -1.9167546576990208e-01 4.3082865581364260e-02
      9.2667225525725136e-02 2.4862294121388764e-01
      4.4330750568477170e-02 8.9030210441946363e-03
      1.7065868238759805e+00 -1.7866704695590466e-01
      -5.5282084102585366e-02 3.3876676223661978e-01
      1.3670400730439025e-01 1.0091210592875163e-01
      1.9557403154578815e-01 -2.1809686257240321e-02
      2.9934306394275018e-01 1.8723413519396240e-01
      2.6118825022230047e-01 -1.1289096498438454e-02
      1.0834137074985709e-01 1.5974940132216911e-01
      1.1599052570452248e-01 -9.3684869344979035e-02
      3.7371857707583972e-01 2.1713689825811459e-02
      -1.5514309339280849e-01 -5.6958633359955005e-02
      1.8986818226433475e+00 1.4957063505667295e-01
      -2.3327039187449727e-03 3.1059783992618443e-02
      1.6574445284307868e-01 -8.5117918927448660e-02
      2.2024775345162775e-01 -4.1690454100694291e-01
      1.4797976246308570e-02 -1.3807335018369238e-01
      7.0969230711281056e-02 1.5821354112144662e-01
      2.3984088284092728e-01 -2.7092396436441277e-02
      1.1111379514647931e-02 2.2286279886091519e-02
      2.4375876628959844e-01 -2.2269191266784830e-01
      2.5835022877187419e-01 -2.2321621231110639e-01
      -7.4810582232360023e-01 -2.1945811609618324e-01
      -2.3771034843790276e-01 2.4841323547222094e-01
      -1.0059952305489887e-01 4.8940344409044573e-02
      -6.9573321453605536e-03 1.1113711359344343e-01
      -5.0191924069598631e-02 -3.1797263964612722e-02
      5.5158159667066553e-02 1.8558540227283926e-01
      8.7504753844893937e-02 3.2942229768958248e-01
      1.6883211879617943e-01 1.4211914348212698e-01
      -1.9520613518680655e-01 -6.5560578580885029e-02
      2.6820785489578119e-01 7.9369954857786834e-02
      1.1775586802207059e+00 5.9136066154450356e-02
      5.5075195782882816e-03 -4.4245599276570520e-02
      -1.7716461818436902e-01 -5.7098828010057612e-02
      6.9387762970471709e-02 2.7448755328424424e-03
      -4.1554691392043250e-02 -6.0139192712082257e-01
      -2.8776213581265492e-01 4.5540942686719162e-02
      4.7319026561564084e-03 3.4495511946904928e-01
      3.6860529006822085e-01 -2.5790026132797933e-01
      1.3399877571217716e-02 7.5085018447988372e-02
      1.6508165832805438e-01 -8.4224581856897560e-02
      -1.6330842801407899e+00 1.3306443386889535e-01
      9.0044874632460942e-02 3.9729770925017996e-03
      6.1919683956571721e-02 -5.0656387049618057e-02
      1.3065858944409781e-01 -3.2740258250469417e-01
      3.5827542915861581e-03 -7.2094862650169622e-02
      -1.3737736097267433e-01 -1.0448590446661285e-01
      1.3983259677276382e-02 3.9508619395056033e-01
      9.4618194076485765e-02 1.7729786874067219e-02
      1.2351279141868558e-01 1.5083541678731938e-01
      -1.9755770141505727e-01 8.7584557404097346e-02
      1.8691967252607169e+00 9.4588069756745871e-02
      1.0702620857400678e-01 -3.1400422085025115e-01
      -5.1167906132417222e-02 -1.5974391599091980e-01
      2.1132912424813473e-02 -8.0988341455243584e-02
      4.2541995954050518e-02 1.1955238718278027e-01
      1.1184400388552609e-01 7.2540213363202566e-03
      -2.4385508561130179e-01 -2.5096559598075743e-02
      -4.5080077755701539e-02 -2.2192284801624357e-01
      2.0049068180219362e-01 2.6778702242983643e-01
      -9.4126210207069322e-03 -1.5300234525653945e-02
      9.8452185294630912e-01 -1.2253129348097409e-01
      4.3294992089004047e-01 1.2721393855037255e-01
      2.5288951383366304e-02 4.7544597971820424e-02
      -4.4234503381009921e-01 -1.2264468066133037e-01
      1.1265017454957657e-01 6.6556388021644555e-02
      -1.9312520402788932e-01 -6.8221374835881823e-02
      -1.4415619559243373e-01 -1.9740766192565731e-03
      -2.8937860979935298e-01 1.2958203607887525e-02
      1.1664517567742932e-01 1.5015854439220869e-01
      -1.9104573842420400e-01 4.9836204512357464e-02
      1.3475717600651134e+00 -1.5834896873860554e-01
      1.7744530178144050e-01 1.4243961076320166e-01
      1.2302958929503546e-01 3.4798825324345184e-01
      -2.0121559065841277e-01 -7.5106337081235486e-02
      -1.3531697778642021e-01 3.8180944133038236e-01
      -2.8553190803317929e-01 -1.5462401059997791e-01
      2.4628499781622926e-01 -1.1772145027472776e-01
      3.1698692067897866e-01 2.9363232610022172e-01
      1.0953765545324946e-02 3.3783779083533871e-01
      1.8305033756754303e-02 1.8633314118303942e-01
      2.2492742136953634e+00 -2.0426062354841357e-01
      2.4024706426496864e-01 8.2331327238813340e-02
      -3.0977640275823387e-01 9.4540854137698430e-02
      -2.9800772138689535e-01 1.0736461146933527e-02
      -7.9046506201386355e-02 1.0642237758247133e-01
      -8.4059857760358556e-02 -2.7887297560133711e-01
      5.0480274086503574e-02 -2.6266072262548104e-03
      -1.3400725946444345e-01 1.3316241654605371e-01
      2.5092176045941078e-01 1.4799239249806692e-01
      -1.1104918641488852e-01 -7.3398959052313178e-03
      1.1534732522447975e+00 -3.3738527774030511e-02
      -2.2132182349604124e-01 2.7399426631372511e-02
      -6.4355002502194419e-02 1.7926718898501029e-01
      6.6081216315356253e-02 9.5601369078716886e-02
      -8.1300785565776319e-03 1.8010072760891693e-01
      -1.5762874922061670e-01 -6.8321618910920506e-02
      3.2812086761323392e-03 1.3054367966253783e-01
      4.7146065446869501e-02 1.3042971139880868e-01
      -1.6107341139947759e-02 -1.1620627840769536e-01
      -6.1037437484827650e-02 -1.0686728393498533e-01
      -1.4536818764132129e+00 1.9126206734186423e-02
      -6.3296760506817609e-02 3.5717319624740346e-01
      -5.4385594607680478e-02 2.6002074168164767e-02
      -2.1253664241173299e-02 -1.1912678206884940e-01
      -5.8758495645469998e-02 7.5382475358493239e-02
      -1.7747365497566400e-01 3.0316919706446566e-02
      -2.6797017355326053e-02 -8.3878364444023454e-02
      2.2598130582750492e-01 -2.6553202049044777e-01
      -7.4779098431780641e-02 -8.6923940453052378e-02
      -4.5495483542257907e-03 1.3940565189419982e-01
      3.1676115258411111e+00 -5.5264935513243817e-02
      4.3831460034104697e-01 9.3009297769510807e-02
      -3.6202931912487346e-01 -4.2098477262935780e-02
      -1.9913783029207754e-01 6.7995746850253572e-02
      -1.8346000081589550e-01 -1.6391156961813680e-01
      -1.0163727948966864e-01 7.3289798628038569e-02
      -4.0114847488086941e-02 -1.8920809415350005e-02
      -1.1132925448354017e-01 -2.7885434299849987e-01
      3.4225044864911353e-01 -9.7393038485174624e-02
      -5.9632069316891223e-01 -2.9448215614116047e-01
      9.8887070333228411e-02 -5.9085367685042106e-03
      4.5007589012384712e-02 -6.7003936609940098e-02
      3.0052744699424320e-02 1.4763332040507529e-01
      -1.8318345335297560e-02 3.2981771434389762e-01
      -1.2260076208741853e-01 -4.2671871128326233e-01
      8.5206540184789750e-02 -1.7535715286725348e-01
      5.4444567062954849e-02 3.6436102919406667e-02
      -4.2938987101923606e-02 4.2378449656524556e-02
      9.6587637420044434e-02 -3.5076407620646829e-02
      -3.9908549404904131e-01 -1.1150860025332011e-01
      -5.8953084337927579e-03 -2.4142197141142793e-02
      -4.3864439488265738e-02 -1.6881794173317063e-01
      -2.1238853985914308e-01 1.3366963384247098e-02
      -9.9950218479232661e-02 -3.2331249461120226e-01
      9.7445753987066216e-03 -4.6859708603011035e-01
      -5.2015535562759410e-02 6.2493381841998173e-02
      6.7777127620690936e-02 1.4493838564740183e-01
      -1.9862122594517387e-01 -2.4630229144358366e-03
      2.2251172470485253e-01 -1.6552135480545702e-01
      -3.1528892523370283e-01 -8.8720634256662670e-02
      -2.3139640774541004e+00 5.0706417468420334e-02
      -3.5549349225742245e-02 1.6601929419297522e-02
      -3.6336431619482697e-02 5.5732863907631124e-02
      -3.3100486609591424e-02 -4.7715803514382649e-01
      -2.1311252520468528e-03 -5.7946081989251230e-01
      -4.2821828749317015e-01 1.4440465149540635e-01
      -1.7455783376107878e-01 4.2720038196271753e-01
      1.9148959730344486e-01 -1.3399686301201313e-01
      -4.4303460253054239e-01 -1.0191424985784736e-01
      -3.6707404001071775e-01 1.4005187798227201e-01
      1.9711429516584081e-01 1.7852263456773229e-01
      -2.0518022485103141e-01 -2.9611735306886738e-01
      -1.1921252632916612e-01 -2.8424307098038798e-01
      1.4451751411061931e-01 -1.0466547788383314e-01
      -1.5211320500052869e-01 9.9187774114644842e-02
      8.1830491418425799e-02 -4.8591228180261521e-02
      -5.0137798108731042e-02 -5.3135151550895383e-02
      1.2938881235669439e-01 -6.6904985170765624e-02
      -2.7752831477327800e-01 8.8821721026310058e-02
      9.5624569730230008e-02 -4.7390375016585612e-01
      3.5268179465432364e-01 2.0799357483372749e-02
      4.6569825113062074e-01 -9.1356445549100038e-02
      1.2804710884646420e-01 1.6184249795637365e-01
      -1.6460259329963235e-02 -1.4958509498214170e-02
      -1.2217037995367384e-01 1.3788553659018277e-01
      8.5756965907691746e-02 -1.4144926160402838e-01
      -2.7912529615376751e-02 -3.5600247791506723e-01
      5.5126367860025047e-02 -2.9702068305016576e-02
      -1.8731565859266944e-02 5.0860459244397326e-02
      -1.7384368509548501e-01 3.8459784571918967e-02
      -1.7036221437396810e+00 8.0651206678501904e-03
      3.6174695579833299e-02 3.2732772418350063e-02
      -1.3874906359535449e-01 -2.3784663590318894e-01
      1.1615222865395629e-01 -3.3091129624086824e-01
      -1.4636996675003067e-01 1.5913462578625132e-01
      1.7819967193159422e-01 -2.2757378556678179e-01
      1.8925112064271107e-01 -3.6936658460766662e-03
      -2.9336823384340771e-01 -4.3763722989519020e-02
      -3.4880934898356797e-01 -4.5611066504028505e-02
      2.1895214263765639e-01 1.3114838520161787e-01
      -2.1972429631615382e+00 1.1196272665945750e-01
      4.5684073251379981e-01 2.4010957382023773e-01
      -1.0861613843826162e-01 -1.6235100914507969e-01
      -4.3002384492240822e-02 -1.6790736306759968e-01
      2.0713944956204505e-01 -1.9470151967866389e-01
      3.2084058684692018e-01 -2.1652782273850998e-01
      6.1472584411556681e-02 -2.3494132755710734e-01
      3.0468526737402513e-01 6.6407038941927427e-02
      2.0353825271527523e-01 -2.1770736292663777e-02
      3.5710229868610027e-01 -7.0461733757985423e-02
      -2.1006243403711175e-01 -1.5248816228792503e-01
      -5.3799369153887250e-02 4.1379465595785231e-01
      -1.8736861719796960e-01 -9.3583308723647660e-02
      -4.6209758672260626e-02 3.0859060020156252e-02
      2.5114977659780890e-01 -2.0779163605374121e-01
      5.5026132044284226e-01 -4.1415588161159374e-02
      1.0831400879183559e-01 -1.3520986309315203e-01
      -1.4449306753951263e-01 1.5026681569429978e-01
      4.5430717120180886e-01 3.3238269332619974e-02
      1.9552472623391461e-02 -7.4104139653066545e-02
      5.0013712809163791e-01 6.6577227796305163e-02
      -7.5687540754514615e-02 6.8331779053321287e-02
      2.5160137341194017e-01 3.1877067436126172e-01
      1.6357734008844904e-01 2.9079670757591303e-01
      2.5479163468953919e-01 -1.7730675324008791e-01
      2.2919795044438912e-01 1.2604649913913801e-01
      8.7766429063363044e-02 4.7493359256513767e-02
      1.7579557598871207e-01 -1.0588774213401345e-01
      4.2818886035703663e-01 -1.9267706718314423e-01
      -4.0843807567232454e-01 -1.3993649889091677e-02
      -2.4503580498982389e-01 6.6185182545909549e-02
      -2.3717239183304858e-01 1.0279214128031454e-01
      -5.5999506964378521e-03 -4.1070356683297664e-02
      3.5650308371011225e-01 -5.8423140773063231e-01
      8.3574197880490572e-02 -8.1468162651140513e-02
      -1.7738513984805936e-02 1.0698623981322171e-01
      2.7067429382599045e-01 2.5957704816821364e-01
      -2.5683994218590517e-01 -2.0688482629480115e-01
      1.3378707103972312e-01 -2.2704187825226582e-01
      5.0261325868878173e-02 8.0232918622328619e-02
      -8.8892788451816074e-01 1.4970177417417813e-03
      -2.9398319389542599e-01 2.6684700659941840e-01
      -1.9216511278880677e-01 -2.8330305233845429e-02
      -1.6604427048694189e-02 -1.7393554526220781e-01
      2.1359430402047418e-02 -1.4461934718588626e-01
      -2.5460779403399203e-01 -1.1501603662455626e-02
      7.8350161224295722e-02 2.7869006323855711e-01
      1.4087849913673869e-01 7.1427363415078743e-02
      -1.5430543417618298e-01 5.0750955547602360e-02
      1.2964863889405875e-01 8.4984431413307263e-02
      1.6863228532704218e-02 -8.1060598020516336e-02
      -2.5414238243865162e-01 -2.0037715785985527e-01
      -7.5090911188280970e-02 -3.7915358036649215e-02
      1.6746478535750520e-01 8.7107656448351417e-02
      1.8131812745714789e-02 -3.3893031668948859e-01
      -6.4105673449057956e-03 -8.5146393825793476e-02
      -1.8918100814926991e-01 2.2089417824906457e-01
      1.5599305128107901e-01 -1.1591023313715308e-01
      9.4202288721362487e-04 3.8868378794470049e-01
      -9.6311427785213399e-02 -7.7483450569216222e-03
      2.1335306677942691e+00 1.3849434855354975e-01
      7.3591468314649383e-02 -1.9632165289086682e-02
      -2.7907546105014693e-02 -1.7422007147411319e-02
      -3.1624018320336497e-02 -1.5864921440674565e-01
      3.3158698707206401e-03 -3.4978152857031464e-01
      -1.5846415565971543e-03 -7.1982896432254070e-02
      -1.0274867673166614e-01 1.0056875219401361e-01
      -1.4993115992770459e-01 -1.7899290444768359e-01
      3.0871588207993683e-01 2.2201400089792384e-01
      -6.5158621908621969e-02 -5.7661781130086250e-02
      2.0004349999409986e-02 -1.7779482950682324e-01
      -2.3248510233680914e-01 9.0442164037390735e-02
      -9.6022925388230512e-02 8.5371851806359061e-02
      -1.8677345168624251e-01 -6.4731114984035248e-02
      3.6625735116666158e-01 1.7973852394950279e-02
      -7.2663890947970614e-02 -6.6159367515691431e-02
      -1.0814284095564283e-01 1.9607972209285027e-01
      -2.0923134778130920e-01 2.0985383100409075e-01
      4.7220754857715992e-02 9.8610588495108398e-02
      -7.5912517617695208e-04 2.4570892805374014e-01
      -1.8259356735568142e+00 5.0765157098963967e-02
      -8.9504132330201408e-02 1.5415504056524504e-01
      1.6370948336842492e-01 7.4621626184676645e-02
      8.9293243231709563e-02 -5.4879124543773383e-01
      1.4233711589279635e-01 3.2281817971311155e-01
      -1.6575991825127043e-01 -8.2876503116997943e-02
      -1.4013349164263059e-01 4.7943154889573997e-01
      -1.4408940408417198e-01 -8.8327082674786256e-02
      -3.4377337821368315e-01 -1.3316960720214840e-02
      2.6197980175347807e-01 1.1291159196983026e-01
      -1.2373335340649749e+00 -1.3368635654769756e-01
      -5.1010435048385018e-02 1.6318057361811591e-01
      -5.4182052594535686e-02 2.1251933821453822e-01
      6.3146455599899520e-04 -5.3885542799913555e-01
      3.3741838858921999e-02 2.4756014876403118e-01
      -4.2100160972259958e-02 -1.9530937224632683e-01
      -1.3548666659829541e-02 4.0942324095904509e-01
      1.1658024141162705e-01 1.6543965059626878e-01
      2.4607593264558272e-01 1.5693452269650195e-02
      8.4840965554580219e-02 4.9363672297925966e-02
      1.4932648858016162e+00 -1.4564314566301901e-02
      1.2318937484754176e-01 1.9311458807875579e-02
      -1.4223611712507650e-01 1.3155630593448861e-01
      -2.6375110751681180e-01 -1.1752700717093853e-01
      -2.5243064448363994e-01 1.7092181452568972e-01
      -1.0649302991004425e-01 -1.4035087746769273e-01
      1.2293540856840117e-01 9.5957963704942889e-02
      -2.1151105046287290e-02 1.4733014826740734e-01
      4.6654240453179951e-01 -4.5891355073690292e-02
      1.2624425724136304e-01 -1.4749994517670398e-01
      -2.9340161587965478e-03 -7.8096034713297999e-02
      -9.4553444932561154e-02 -2.7434770284111493e-01
      -1.8434800650379246e-01 -1.4796712905457265e-01
      -2.7274854043747931e-01 1.4249067504365193e-01
      -1.0888114947963148e-01 -1.9026140975076558e-02
      -3.4186327383134846e-01 2.7123446572624238e-01
      4.1660655920314267e-02 2.3364571182170590e-01
      -3.6790200526719791e-01 8.5912656317114464e-02
      2.0314017687355901e-01 -1.5542466509587166e-01
      -1.5992554937476375e-01 -2.4992744178398107e-01
      -1.3666184546058291e+00 1.4460079544272555e-01
      -1.2134451319586173e-01 2.2900345610012432e-02
      -3.0732846756259716e-02 3.3403983471443693e-01
      -7.4953159459389712e-02 -1.7733314699926317e-01
      -4.2464126731102575e-01 3.1097208777825242e-01
      6.5402476790840880e-02 -4.6663804516626696e-02
      1.6778056267839325e-01 -2.5538222204476363e-01
      -1.8295550460928908e-01 -8.6061287707648815e-02
      -2.5724370893657267e-01 3.8568287425711789e-01
      -2.4155757111288045e-01 1.1519986759719404e-01
      -7.0699989290381160e-01 8.7722848899998082e-02
      -2.5723702300671597e-01 1.6210015718098778e-01
      -2.2367201092526595e-01 6.6568031989196639e-03
      2.1016943847955491e-01 -1.7102519276390288e-01
      -6.0193240140448745e-01 6.2017341979237783e-01
      3.0457572500460411e-01 -1.0996515232388197e-01
      2.6045330271985812e-01 -2.0398712918662976e-01
      -2.7920291231583261e-01 -8.9884897029944996e-02
      1.7150113662421432e-02 5.5760317263328563e-01
      -2.2612354128070800e-01 -4.5081396335830151e-02
      4.0153718282339113e-01 -1.6676100167768468e-01
      7.7742024346874258e-02 5.6700521827434423e-02
      -6.7557897019287314e-02 1.3246209028065616e-02
      -1.6312144089047509e-01 -1.4223052591233967e-01
      -1.2788619096505596e-01 -2.0754771955487614e-01
      -2.3254652449341165e-01 -1.3610817119321538e-02
      1.2748019302957989e-01 2.5176515487500606e-01
      -7.3465098131186304e-02 2.2332428784428507e-01
      -2.1123443239621026e-01 -8.1319387825543252e-02
      -3.0587384092519537e-01 2.0758350071829447e-02
      1.7579428870496678e+00 3.6313702561633528e-02
      -2.0445891416134024e-01 -1.4913292776932902e-01
      -8.0217746405069471e-02 -1.6055926264081322e-01
      -1.7415967138177357e-01 -1.0521024935894135e-01
      -1.8768294932419213e-01 9.1427313250234149e-02
      -2.5957228169359536e-01 9.7780797619197210e-02
      2.0757660837977346e-01 2.8904009980699602e-01
      -2.4796362819883561e-01 2.1586997778615943e-02
      -7.7343742862142517e-02 -1.0899970222341461e-01
      -1.6418381880562638e-01 -1.5095672715767949e-01
      -7.9795471787970251e-01 -4.1530615868762721e-02
      -8.8068372609301938e-03 -1.6583665122999330e-02
      1.1126674587096529e-01 -8.9962412606570896e-02
      -6.5452447521439069e-02 -3.5649542240956089e-01
      2.5258885480410428e-02 -1.6158046050773578e-01
      -4.5001484998696784e-01 -1.7587085685714585e-02
      -1.4211408641799486e-01 1.8470200382204993e-01
      9.1919687840334247e-02 8.9096987235910641e-02
      -5.1207261833368774e-02 -1.4070238745575295e-01
      -1.7318592437447106e-01 -4.9724178479823224e-02
      1.6154939326050416e-02 2.8587667408346670e-02
      -1.6637710551655738e-01 -6.4547816654055125e-03
      1.2007291926429881e-01 -4.6418798708651739e-02
      -7.6583786664826015e-02 3.2413926432958928e-01
      1.9940675031251348e-01 1.2423457014731230e-01
      2.1438271768564313e-01 8.3825616794629979e-02
      -4.2398911100161425e-02 -9.2079605823086400e-02
      -7.0914057681367812e-02 -5.6514953153601180e-02
      -2.8683435093434023e-01 -2.2490207899789155e-01
      -2.1279789101245958e-01 1.5588440603964149e-01
      -1.0358392356129493e+00 -1.5297400498880809e-01
      -3.6890394863566889e-01 1.1915966133937225e-01
      5.5664459468361988e-02 2.2542651523298204e-01
      1.4931887749107875e-01 -8.0018556053720236e-01
      3.7046923888061155e-02 3.1648245003750540e-02
      9.2718611544373095e-02 4.7820047180245115e-02
      3.0411169543604732e-02 -3.7669791389305057e-01
      1.8581871691902407e-01 1.2335244855518349e-01
      -8.2672312620169286e-01 1.1783022441433111e-01
      8.2711259159424802e-02 2.5848974226647958e-01
      -2.2135175041595119e+00 2.1204114603784477e-01
      -2.5865109560321187e-01 -2.2206286426495473e-02
      1.2858355084443396e-01 -7.8537149001583331e-02
      2.4587221519157862e-01 -1.2106294967536912e-01
      -1.7085792853223689e-01 2.2912250396336112e-01
      3.8514418689464258e-01 -3.4912334197677569e-01
      1.9206117024197999e-01 -2.1970698185919421e-01
      -1.1007908119959359e-01 1.1863251159633130e-01
      -2.5632906272486339e-01 5.2129679819209303e-02
      1.8950230899348100e-01 -1.0729266330040158e-02
      -7.7897255442790914e-01 -7.3772591158198383e-02
      -7.9491386940188910e-02 8.9385378933458576e-02
      1.8623540534894803e-01 -1.3474153627045554e-01
      -1.4129117840231836e-01 -3.7583658396628400e-01
      -4.4598192539350118e-01 2.7699251338328001e-01
      4.0944687842121980e-01 6.5785072098604486e-02
      -9.7684836201748435e-02 -4.0129853182482295e-01
      1.1107239118768161e-01 7.1045883104028471e-02
      -7.9777022136740025e-02 5.6403674667819703e-02
      2.0187455019912956e-01 -2.0617256318094970e-01
      1.5565410367063353e+00 1.1236706271466383e-01
      2.4734489654412981e-01 3.1122572402962989e-01
      -8.7700025397761228e-02 -3.0364342573110853e-01
      2.9665309290294171e-02 -1.1636580573066801e-01
      2.7683968380188617e-01 -1.1521890578342811e-01
      2.8625067904442736e-01 2.0063335567598639e-01
      -1.3282144544993507e-01 -1.5150613500569423e-03
      -1.3131656813887988e-02 -1.7159881260229531e-01
      2.5346810464676600e-01 -2.6608188589237602e-01
      -1.1668036191277192e-01 -1.2819457830907210e-01
      5.0437002982976464e-01 -3.9702159461450157e-02
      1.8702333302112312e-01 -8.3295989069116255e-02
      6.0960801324230901e-02 2.2216526532817987e-01
      2.7243916805948348e-01 4.5237857208510635e-01
      -3.3351915699275159e-01 1.5560625885901758e-01
      -1.2541030898972763e-01 2.6867602564251614e-01
      2.4270443882704498e-01 -4.7716345948208963e-02
      2.0334134554324413e-03 -2.6379756825961154e-01
      3.2691907777033724e-01 -1.2796283475098211e-01
      3.4487606675993659e-01 -2.0716895822116504e-01
      -1.8619291335238533e+00 -6.4131108119866692e-02
      -1.0410298759419327e-01 -1.9357780588172641e-01
      -1.9543078476643677e-01 -6.9488491925205009e-02
      1.0909982654403891e-01 -4.6160827066272359e-01
      4.7874486904804059e-02 -2.7702257918408757e-01
      -2.0332397868552074e-01 -9.8971593536095068e-02
      2.7046308072193975e-01 4.6106369734864455e-01
      -3.2676807315863243e-01 -3.6711343350321157e-01
      -1.6918771508373606e-01 -1.0916433974833892e-01
      -1.5061287545224188e-02 -1.1072174135754165e-01
      -2.0632951734356144e+00 -1.6829324257252501e-01
      -2.3154678955616737e-01 2.7575587222661544e-02
      2.8340929123975650e-01 5.8682645817852215e-02
      7.6852351488885556e-02 -8.5942313009637561e-02
      -1.1455489331177647e-01 1.0299783016399849e-01
      -3.1227205803428632e-01 -3.5821917425291505e-02
      1.5023538417593074e-01 -1.9140548877048649e-01
      -3.0950502696223242e-01 -2.1706126479226620e-01
      -2.5280352839261144e-01 8.9825555689625872e-02
      4.6484102534059546e-02 1.1072945822312427e-01
      9.6144487508937959e-01 1.9666014060198356e-02
      -1.9186355926177961e-01 -2.3408844564358003e-03
      -4.9150838897923571e-02 -1.8472429738268507e-02
      -1.2318931480907107e-01 2.3623186476808786e-01
      1.4553545147701683e-01 -5.3128930003028008e-01
      -1.7393520443947194e-01 3.4582275098143517e-03
      2.2789814875715483e-01 1.7769620357362600e-01
      5.7775302379576690e-02 9.7507377518760846e-02
      4.5674464592062236e-01 1.5004478677785874e-01
      6.0217640263062977e-02 -2.2791262760892236e-01
      1.1240713205956725e+00 1.6877457158513132e-01
      -7.8980253622178767e-02 1.6361791145926122e-01
      -6.4994283829796079e-02 -1.0475383022349866e-01
      1.1025467494396454e-01 -4.1827562589666378e-01
      2.7066240484477916e-01 -5.1922725264392933e-01
      -3.1805001180330883e-01 -2.2202680663694369e-01
      5.0059470177470825e-02 4.6802226888830739e-01
      -1.7433289426741896e-01 -1.7686172322613017e-01
      4.5201143604239208e-01 -5.1662208348073044e-02
      4.7080359893715285e-02 -8.6576056164413176e-02
      2.4196974034060763e+00 5.2287979408931788e-03
      -8.9852612958839673e-02 -8.9154356198068344e-02
      -1.8093066929369331e-01 -2.2537680459532172e-01
      1.7526989993378267e-01 -4.1144621171063012e-01
      2.4467964492377550e-01 -9.5440754911494508e-02
      -2.0793553144009039e-01 -3.0477085262280496e-01
      5.2076959085114734e-02 5.4779247595087222e-01
      -3.0501943415340427e-01 5.0895136134081018e-02
      2.8981985893491402e-01 1.6156785976768256e-02
      2.0593915595183161e-02 -1.0229866077641657e-01
      -1.0807689995979943e+00 1.0197627117239136e-01
      -1.7196027320081377e-02 1.8054412723949956e-01
      -1.0096393837568614e-01 6.1071483435547913e-02
      3.2526682620670511e-01 -4.9104888315270939e-01
      2.9705360775226897e-01 1.5249562393910179e-01
      -6.3172819519423967e-02 -4.5887122676878195e-02
      6.1975136862159400e-02 4.9292636418254365e-01
      -1.0042090566315304e-02 -9.8953955661145836e-03
      4.4249006367640259e-02 -1.3588064101236391e-01
      -6.9804738317217660e-02 1.0781348168905040e-01
      -7.6494212782657234e-01 -1.7311561602600156e-01
      5.3882163749146381e-02 6.3417446594082980e-02
      -1.5935586958461467e-01 4.8856171013926107e-02
      -9.8501122022716117e-02 -2.9002169132976269e-01
