<?xml version="1.0"?>
<opencv_storage>
<shapeML type_id="opencv-ml-ann-mlp">
  <layer_sizes type_id="opencv-matrix">
    <rows>1</rows>
    <cols>3</cols>
    <dt>i</dt>
    <data>
      1600 65 8</data></layer_sizes>
  <activation_function>SIGMOID_SYM</activation_function>
  <f_param1>5.9999999999999998e-01</f_param1>
  <f_param2>1.</f_param2>
  <min_val>-9.4999999999999996e-01</min_val>
  <max_val>9.4999999999999996e-01</max_val>
  <min_val1>-9.7999999999999998e-01</min_val1>
  <max_val1>9.7999999999999998e-01</max_val1>
  <training_params>
    <train_method>BACKPROP</train_method>
    <dw_scale>1.0000000000000001e-01</dw_scale>
    <moment_scale>1.0000000000000001e-01</moment_scale>
    <term_criteria><epsilon>9.9999999747524271e-07</epsilon>
      <iterations>4000</iterations></term_criteria></training_params>
  <input_scale>
    8.6185522645961035e-02 -4.5596075258755323e-02 1. 0. 1. 0. 1. 0.
    6.1005816106927291e-02 -6.4549722436790288e-02
    4.9863007981955788e-02 -7.9139421382149744e-02
    4.9863007981955788e-02 -7.9139421382149744e-02
    4.9863007981955788e-02 -7.9139421382149744e-02
    4.3227778138380364e-02 -9.1477870749269649e-02
    4.3227778138380364e-02 -9.1477870749269649e-02
    2.6260322884237949e-02 -1.5282200350682043e-01
    2.6260322884237949e-02 -1.5282200350682043e-01
    2.1890410619904144e-02 -1.8529642184483178e-01
    1.6491446790002237e-02 -2.5301711413291816e-01
    1.4730788370616182e-02 -2.8835059808457192e-01
    1.5528400276676457e-02 -2.7110267288015016e-01
    1.3904515941872198e-02 -3.0895719032666230e-01
    1.1878866652295700e-02 -3.7706775887992577e-01
    1.1481064373176371e-02 -3.9481046055061897e-01
    1.1130360471894181e-02 -4.1219281000686953e-01
    1.0818798234882064e-02 -4.2927285527410686e-01
    1.0818798234882064e-02 -4.2927285527410686e-01
    1.0436861876093339e-02 -4.5276925690687075e-01
    1.0818798234882064e-02 -4.2927285527410686e-01
    1.2640695162501716e-02 -3.4775024451197667e-01
    1.5111900104322193e-02 -2.7982097184870452e-01
    1.6491446790002237e-02 -2.5301711413291816e-01
    1.9210857375529002e-02 -2.1343182831111576e-01
    2.4207434214195384e-02 -1.6648888883829399e-01
    3.0695357332010401e-02 -1.2991396049232617e-01
    3.5369405185136052e-02 -1.1227217828476796e-01
    4.3227778138380364e-02 -9.1477870749269649e-02
    4.3227778138380364e-02 -9.1477870749269649e-02
    4.9863007981955788e-02 -7.9139421382149744e-02
    8.6185522645961035e-02 -4.5596075258755323e-02 1. 0.
    8.6185522645961035e-02 -4.5596075258755323e-02 1. 0.
    8.6185522645961035e-02 -4.5596075258755323e-02
    8.6185522645961035e-02 -4.5596075258755323e-02 1. 0.
    8.6185522645961035e-02 -4.5596075258755323e-02
    8.6185522645961035e-02 -4.5596075258755323e-02
    8.6185522645961035e-02 -4.5596075258755323e-02
    4.3227778138380364e-02 -9.1477870749269649e-02
    4.3227778138380364e-02 -9.1477870749269649e-02
    3.5369405185136052e-02 -1.1227217828476796e-01
    3.5369405185136052e-02 -1.1227217828476796e-01
    3.5369405185136052e-02 -1.1227217828476796e-01
    2.8970436093877221e-02 -1.3794014696151083e-01
    1.9210857375529002e-02 -2.1343182831111576e-01
    1.7053725860463369e-02 -2.4359938288234503e-01
    1.4057096775034196e-02 -3.0491067797299276e-01
    1.1197144596943773e-02 -4.0874223896934792e-01
    9.6710844653563020e-03 -5.1164451009665080e-01
    9.2007854891460687e-03 -5.5977807981163585e-01
    9.1204268053469238e-03 -5.6936440367819285e-01
    8.9020662250164032e-03 -5.9811911762895487e-01
    8.6383299217520724e-03 -6.3980991329159542e-01
    8.7332368006893119e-03 -6.2373791880441820e-01
    8.8149053158694084e-03 -6.1091683003447639e-01
    8.6943481484456197e-03 -6.3015986009532721e-01
    8.7939880276875094e-03 -6.1411957886299084e-01
    8.9020662250164032e-03 -5.9811911762895487e-01
    9.0193593836367467e-03 -5.8214163988576595e-01
    9.3441337300018273e-03 -5.4378205627915199e-01
    9.9788533585325537e-03 -4.8569273815596203e-01
    1.2053410090762372e-02 -3.6985463743231428e-01
    1.4057096775034196e-02 -3.0491067797299276e-01
    1.8028869616243164e-02 -2.2891427811495468e-01
    2.0682908705354990e-02 -1.9695964928958382e-01
    3.0695357332010401e-02 -1.2991396049232617e-01
    3.2780157279264768e-02 -1.2139539573337679e-01
    3.5369405185136052e-02 -1.1227217828476796e-01
    3.5369405185136052e-02 -1.1227217828476796e-01
    3.5369405185136052e-02 -1.1227217828476796e-01
    4.9863007981955788e-02 -7.9139421382149744e-02
    6.1005816106927291e-02 -6.4549722436790288e-02
    6.1005816106927291e-02 -6.4549722436790288e-02
    8.6185522645961035e-02 -4.5596075258755323e-02
    4.9863007981955788e-02 -7.9139421382149744e-02
    4.9863007981955788e-02 -7.9139421382149744e-02
    4.3227778138380364e-02 -9.1477870749269649e-02
    3.8704607361302545e-02 -1.0238251947232520e-01
    3.0695357332010401e-02 -1.2991396049232617e-01
    3.2780157279264768e-02 -1.2139539573337679e-01
    2.8970436093877221e-02 -1.3794014696151083e-01
    2.5169077951216683e-02 -1.5978709238739222e-01
    1.6764859406748614e-02 -2.4834252316220978e-01
    1.5111900104322193e-02 -2.7982097184870452e-01
    1.3219447376570229e-02 -3.2870347885517465e-01
    1.1407440828436224e-02 -3.9831375340784575e-01
    9.5668428587449283e-03 -5.2131354291480403e-01
    8.7332368006893119e-03 -6.2373791880441820e-01
    8.3958975862810578e-03 -6.8848102094970709e-01
    8.2412548689957659e-03 -7.2811999708752007e-01
    8.1650129036318873e-03 -7.5162162351482753e-01
    8.0399670328445208e-03 -7.9965979160698408e-01
    8.0806392520660422e-03 -7.8232993920676730e-01
    8.0638560960170115e-03 -7.8923736790373966e-01
    8.1163175060432000e-03 -7.6860853228909098e-01
    8.0557231074666041e-03 -7.9270320951689011e-01
    8.0806392520660422e-03 -7.8232993920676730e-01
    8.0248815650658320e-03 -8.0665043947601567e-01
    8.0477605588198976e-03 -7.9617730756706806e-01
    8.1549001103917267e-03 -7.5500501540711784e-01
    8.4548204128691035e-03 -6.7542087136415940e-01
    8.9020662250164032e-03 -5.9811911762895487e-01
    9.7071082674982431e-03 -5.0841483031741319e-01
    1.1407440828436224e-02 -3.9831375340784575e-01
    1.4380457111429176e-02 -2.9670880907295261e-01
    1.6491446790002237e-02 -2.5301711413291816e-01
    2.2584099991729823e-02 -1.7922029557752400e-01
    2.6260322884237949e-02 -1.5282200350682043e-01
    2.6260322884237949e-02 -1.5282200350682043e-01
    2.7512867617105738e-02 -1.4555562743489550e-01
    2.7512867617105738e-02 -1.4555562743489550e-01
    2.8970436093877221e-02 -1.3794014696151083e-01
    3.8704607361302545e-02 -1.0238251947232520e-01
    4.3227778138380364e-02 -9.1477870749269649e-02
    4.3227778138380364e-02 -9.1477870749269649e-02
    4.3227778138380364e-02 -9.1477870749269649e-02
    3.8704607361302545e-02 -1.0238251947232520e-01
    2.6260322884237949e-02 -1.5282200350682043e-01
    2.3351775858212472e-02 -1.7295817388759030e-01
    2.2584099991729823e-02 -1.7922029557752400e-01
    2.1259640711985221e-02 -1.9120444499264716e-01
    1.6232186094512453e-02 -2.5762701996477233e-01
    1.4552029767298743e-02 -2.9255014200233365e-01
    1.2144369290586649e-02 -3.6622076273584431e-01
    1.0063349814704935e-02 -4.7915742374995485e-01
    8.9020662250164032e-03 -5.9811911762895487e-01
    8.4248697130749842e-03 -6.8194251422327901e-01
    8.1449760319476875e-03 -7.5839527865936140e-01
    8.0175869717467388e-03 -8.1015886609735455e-01
    7.9650242401478662e-03 -8.3855841300062961e-01
    7.9710419116334023e-03 -8.3497490895927484e-01
    7.9478956664901339e-03 -8.4936951406827133e-01
    7.8856802621924110e-03 -9.0112711377916599e-01
    7.9088394317697753e-03 -8.7866877919350928e-01
    7.8823198528330286e-03 -9.0491321381019840e-01
    7.8730837582634133e-03 -9.1634854530825205e-01
    7.8627233568222040e-03 -9.3178165589561057e-01
    7.8486120175495413e-03 -9.6332756630338356e-01
    7.8702851433304754e-03 -9.2018655446553721e-01
    7.9534520868415927e-03 -8.4575557408934821e-01
    8.0248815650658320e-03 -8.0665043947601567e-01
    8.1449760319476875e-03 -7.5839527865936140e-01
    8.3958975862810578e-03 -6.8848102094970709e-01
    8.8149053158694084e-03 -6.1091683003447639e-01
    9.7071082674982431e-03 -5.0841483031741319e-01
    1.2144369290586649e-02 -3.6622076273584431e-01
    1.6491446790002237e-02 -2.5301711413291816e-01
    2.0682908705354990e-02 -1.9695964928958382e-01
    2.2584099991729823e-02 -1.7922029557752400e-01
    2.7512867617105738e-02 -1.4555562743489550e-01
    2.6260322884237949e-02 -1.5282200350682043e-01
    3.0695357332010401e-02 -1.2991396049232617e-01
    3.2780157279264768e-02 -1.2139539573337679e-01
    3.8704607361302545e-02 -1.0238251947232520e-01
    4.3227778138380364e-02 -9.1477870749269649e-02
    3.5369405185136052e-02 -1.1227217828476796e-01
    2.5169077951216683e-02 -1.5978709238739222e-01
    2.1259640711985221e-02 -1.9120444499264716e-01
    1.9210857375529002e-02 -2.1343182831111576e-01
    1.5985923853693029e-02 -2.6217578436399042e-01
    1.4917229730496889e-02 -2.8410823428622706e-01
    1.2144369290586649e-02 -3.6622076273584431e-01
    1.0487987523728131e-02 -4.4943855249503017e-01
    9.0690531998620285e-03 -5.7575316994974701e-01
    8.5341602040791935e-03 -6.5918419999557765e-01
    8.2412548689957659e-03 -7.2811999708752007e-01
    8.0806392520660422e-03 -7.8232993920676730e-01
    7.9772153216158426e-03 -8.3140126904848932e-01
    7.8856802621924110e-03 -9.0112711377916599e-01
    7.8702851433304754e-03 -9.2018655446553721e-01
    7.8486120175495413e-03 -9.6332756630338356e-01
    7.8442177814882098e-03 -9.8353797017477174e-01
    7.8464477787058180e-03 -9.7136418870409991e-01
    7.8583733020732918e-03 -9.3958102364830665e-01
    7.8464477787058180e-03 -9.7136418870409991e-01
    7.8486120175495413e-03 -9.6332756630338356e-01
    7.8434073446866370e-03 -9.9173539548117651e-01
    7.8442177814882098e-03 -9.8353797017477174e-01
    7.8455690679377667e-03 -9.7540607136134994e-01
    7.8434073446866370e-03 -9.9173539548117651e-01
    7.8891823997125857e-03 -8.9735357897145751e-01
    7.9088394317697753e-03 -8.7866877919350928e-01
    8.0175869717467388e-03 -8.1015886609735455e-01
    8.2184768606671128e-03 -7.3480344462748792e-01
    8.8797398406216532e-03 -6.0131682240226303e-01
    9.4362477559322040e-03 -5.3416601664027008e-01
    1.1001418384344337e-02 -4.1905817746174695e-01
    1.5111900104322193e-02 -2.7982097184870452e-01
    1.7053725860463369e-02 -2.4359938288234503e-01
    2.0682908705354990e-02 -1.9695964928958382e-01
    2.2584099991729823e-02 -1.7922029557752400e-01
    3.0695357332010401e-02 -1.2991396049232617e-01
    3.2780157279264768e-02 -1.2139539573337679e-01
    3.2780157279264768e-02 -1.2139539573337679e-01
    2.7512867617105738e-02 -1.4555562743489550e-01
    2.3351775858212472e-02 -1.7295817388759030e-01
    2.6260322884237949e-02 -1.5282200350682043e-01
    1.9210857375529002e-02 -2.1343182831111576e-01
    1.6491446790002237e-02 -2.5301711413291816e-01
    1.3904515941872198e-02 -3.0895719032666230e-01
    1.1197144596943773e-02 -4.0874223896934792e-01
    9.7437965598529287e-03 -5.0518148554092257e-01
    8.6943481484456197e-03 -6.3015986009532721e-01
    8.2648553035345532e-03 -7.2146013878883053e-01
    8.0806392520660422e-03 -7.8232993920676730e-01
    7.9088394317697753e-03 -8.7866877919350928e-01
    7.8676258139275309e-03 -9.2403796125816917e-01
    7.8627233568222040e-03 -9.3178165589561057e-01
    7.8432047747323246e-03 -1.0041580220928044e+00
    7.8437449961590577e-03 -1.0125265843589555e+00
    7.8564045590819327e-03 -1.0598811337226197e+00
    7.8564045590819327e-03 -1.0598811337226197e+00
    7.8676258139275292e-03 -1.0822066212933510e+00
    7.8455690679377684e-03 -1.0252140409627808e+00
    7.8564045590819327e-03 -1.0598811337226197e+00
    7.8583733020732918e-03 -1.0643041683803827e+00
    7.8583733020732918e-03 -1.0643041683803827e+00
    7.8528781015025657e-03 -1.0510963292913653e+00
    7.8474620427162987e-03 -1.0337647352744219e+00
    7.8498978820018758e-03 -1.0423915226919711e+00
    7.8437449961590595e-03 -9.8762838966160438e-01
    7.8498978820018776e-03 -9.5933243721850736e-01
    7.8928268245994880e-03 -8.9359244775600422e-01
    7.9177157975620707e-03 -8.7127727365703789e-01
    8.2769698607570684e-03 -7.1813875430883944e-01
    8.5177676071842758e-03 -6.6242431277033731e-01
    9.0945259101615772e-03 -5.7255889780882374e-01
    1.0106844393634691e-02 -4.7588139733099444e-01
    1.4057096775034196e-02 -3.0491067797299276e-01
    1.5985923853693029e-02 -2.6217578436399042e-01
    1.8396558974664298e-02 -2.2385024561495043e-01
    2.2584099991729823e-02 -1.7922029557752400e-01
    2.5169077951216683e-02 -1.5978709238739222e-01
    2.5169077951216683e-02 -1.5978709238739222e-01
    2.2584099991729823e-02 -1.7922029557752400e-01
    2.0152993360849608e-02 -2.0257521334712936e-01
    1.8789559624460602e-02 -2.1869176243407462e-01
    1.5315401703536435e-02 -2.7548658250966990e-01
    1.3479068563604511e-02 -3.2089691238041856e-01
    1.1964943944560691e-02 -3.7347008640231449e-01
    9.6357091623281155e-03 -5.1487072505344522e-01
    8.6202549779220376e-03 -6.4303167579084408e-01
    8.0638560960170115e-03 -7.8923736790373966e-01
    7.9046197789209953e-03 -8.8238188216772639e-01
    7.9005448941634072e-03 -8.8610675721675070e-01
    7.8760221008769664e-03 -9.1252376394911650e-01
    7.8432047747323246e-03 -9.9585919546393831e-01
    7.8448257739797134e-03 -1.0209666406675257e+00
    7.8604794579861473e-03 -1.0687479694587596e+00
    7.8891823997125857e-03 -1.1143879329552517e+00
    7.8856802621924092e-03 -1.1097213530798986e+00
    7.8856802621924092e-03 -1.1097213530798986e+00
    7.8760221008769681e-03 -1.0958618717745101e+00
    7.9271797607616910e-03 -1.1574998165195185e+00
    7.9088394317697736e-03 -1.1380852759077831e+00
    7.8702851433304754e-03 -1.0867361570837342e+00
    7.8464477787058180e-03 -1.0294799948658837e+00
    7.8730837582634133e-03 -1.0912878130489183e+00
    7.8676258139275292e-03 -1.0822066212933510e+00
    7.8627233568222040e-03 -1.0732128000940515e+00
    7.8627233568222040e-03 -1.0732128000940515e+00
    7.8604794579861473e-03 -1.0687479694587596e+00
    7.8432047747323246e-03 -9.9585919546393831e-01
    7.8498978820018776e-03 -9.5933243721850736e-01
    7.9005448941634072e-03 -8.8610675721675070e-01
    8.0806392520660422e-03 -7.8232993920676730e-01
    8.3958975862810578e-03 -6.8848102094970709e-01
    8.7531593871154664e-03 -6.2052999223596572e-01
    1.0020693598048969e-02 -4.8242779033760647e-01
    1.3347031865509798e-02 -3.2481469664404550e-01
    1.5985923853693029e-02 -2.6217578436399042e-01
    1.8396558974664298e-02 -2.2385024561495043e-01
    1.9210857375529002e-02 -2.1343182831111576e-01
    2.6260322884237949e-02 -1.5282200350682043e-01
    2.3351775858212472e-02 -1.7295817388759030e-01
    1.9663955023228572e-02 -2.0806259464411975e-01
    1.5315401703536435e-02 -2.7548658250966990e-01
    1.3096081657760793e-02 -3.3256439728421594e-01
    1.1634013719157184e-02 -3.8776022904203350e-01
    9.8580172246614996e-03 -4.9545740096976104e-01
    8.4548204128691035e-03 -6.7542087136415940e-01
    8.0034877015195110e-03 -8.1720258761469455e-01
    7.8966141201795900e-03 -8.8984356003641996e-01
    7.8791006362973447e-03 -9.0871204226508173e-01
    7.8513198361629833e-03 -9.5535250703518459e-01
    7.8448257739797134e-03 -1.0209666406675257e+00
    7.8604794579861473e-03 -1.0687479694587596e+00
    7.8760221008769681e-03 -1.0958618717745101e+00
    7.8702851433304754e-03 -1.0867361570837342e+00
    7.9321340087334484e-03 -1.1624196798898074e+00
    7.9478956664901339e-03 -1.1773438808867127e+00
    7.9478956664901339e-03 -1.1773438808867127e+00
    7.9772153216158444e-03 -1.2027886379635508e+00
    7.9900335655367100e-03 -1.2131755321448219e+00
    7.9966805816079137e-03 -1.2184153981603427e+00
    7.9424911066384146e-03 -1.1723413480950000e+00
    7.8760221008769681e-03 -1.0958618717745101e+00
    7.9132045352748297e-03 -1.1428998624961768e+00
    7.8856802621924092e-03 -1.1097213530798986e+00
    7.8564045590819327e-03 -1.0598811337226197e+00
    7.8528781015025657e-03 -1.0510963292913653e+00
    7.8498978820018758e-03 -1.0423915226919711e+00
    7.8448257739797116e-03 -9.7946393169730095e-01
    7.8434073446866370e-03 -1.0083334774139159e+00
    7.8434073446866370e-03 -9.9173539548117651e-01
    7.8791006362973447e-03 -9.0871204226508173e-01
    7.9650242401478662e-03 -8.3855841300062961e-01
    8.2073905541344052e-03 -7.3815431643511720e-01
    8.6943481484456197e-03 -6.3015986009532721e-01
    9.8580172246614996e-03 -4.9545740096976104e-01
    1.2433348114332672e-02 -3.5520166708373629e-01
    1.4057096775034196e-02 -3.0491067797299276e-01
    1.6764859406748614e-02 -2.4834252316220978e-01
    2.4207434214195384e-02 -1.6648888883829399e-01
    2.2584099991729823e-02 -1.7922029557752400e-01
    1.7683928628034837e-02 -2.3389013486249394e-01
    1.2749205889142861e-02 -3.4399050329523423e-01
    1.1407440828436224e-02 -3.9831375340784575e-01
    9.4362477559322040e-03 -5.3416601664027008e-01
    8.2648553035345532e-03 -7.2146013878883053e-01
    7.9710419116334023e-03 -8.3497490895927484e-01
    7.8760221008769664e-03 -9.1252376394911650e-01
    7.8434073446866370e-03 -9.9173539548117651e-01
    7.8498978820018776e-03 -9.5933243721850736e-01
    7.8432047747323246e-03 -9.9585919546393831e-01
    7.8513198361629833e-03 -1.0467340511863761e+00
    7.8760221008769681e-03 -1.0958618717745101e+00
    7.9177157975620707e-03 -1.1477402547212903e+00
    7.8966141201795917e-03 -1.1237930406093759e+00
    7.9372375103268968e-03 -1.1673667367366676e+00
    7.9772153216158444e-03 -1.2027886379635508e+00
    7.9900335655367100e-03 -1.2131755321448219e+00
    8.0557231074666023e-03 -1.2615061828870937e+00
    8.0557231074666023e-03 -1.2615061828870937e+00
    8.0399670328445208e-03 -1.2505318017683689e+00
    8.0557231074666023e-03 -1.2615061828870937e+00
    8.0557231074666023e-03 -1.2615061828870937e+00
    7.9966805816079137e-03 -1.2184153981603427e+00
    7.9478956664901339e-03 -1.1773438808867127e+00
    7.9424911066384146e-03 -1.1723413480950000e+00
    7.8730837582634133e-03 -1.0912878130489183e+00
    7.8856802621924092e-03 -1.1097213530798986e+00
    7.8651053506836356e-03 -1.0776989271491715e+00
    7.8513198361629833e-03 -1.0467340511863761e+00
    7.8513198361629833e-03 -1.0467340511863761e+00
    7.8432047747323246e-03 -1.0041580220928044e+00
    7.8474620427162987e-03 -9.6733808561823420e-01
    7.9710419116334023e-03 -8.3497490895927484e-01
    8.1449760319476875e-03 -7.5839527865936140e-01
    8.5849741137288219e-03 -6.4948357065792839e-01
    9.8192335302223158e-03 -4.9870298095402960e-01
    1.2334216735870663e-02 -3.5889499942030301e-01
    1.4917229730496889e-02 -2.8410823428622706e-01
    2.1890410619904144e-02 -1.8529642184483178e-01
    2.1259640711985221e-02 -1.9120444499264716e-01
    1.5528400276676457e-02 -2.7110267288015016e-01
    1.1407440828436224e-02 -3.9831375340784575e-01
    9.9378075654953241e-03 -4.8895250293718179e-01
    8.4548204128691035e-03 -6.7542087136415940e-01
    7.9710419116334023e-03 -8.3497490895927484e-01
    7.8651053506836356e-03 -9.2790293727515538e-01
    7.8432047747323246e-03 -9.9585919546393831e-01
    7.8604794579861473e-03 -1.0687479694587596e+00
    7.8564045590819327e-03 -1.0598811337226197e+00
    7.8730837582634133e-03 -1.0912878130489183e+00
    7.8760221008769681e-03 -1.0958618717745101e+00
    7.9088394317697736e-03 -1.1380852759077831e+00
    7.9321340087334484e-03 -1.1624196798898074e+00
    7.9321340087334484e-03 -1.1624196798898074e+00
    8.0104560966968285e-03 -1.2289901003127188e+00
    8.0399670328445208e-03 -1.2505318017683689e+00
    8.0399670328445208e-03 -1.2505318017683689e+00
    7.9835455144744490e-03 -1.2079667518062689e+00
    8.0557231074666023e-03 -1.2615061828870937e+00
    8.0721609796107867e-03 -1.2726213959349038e+00
    8.0638560960170115e-03 -1.2670459365805982e+00
    8.1163175060432000e-03 -1.3010524317519250e+00
    8.0892924466768653e-03 -1.2838814775327392e+00
    8.0981221370381648e-03 -1.2895671465318763e+00
    7.9835455144744490e-03 -1.2079667518062689e+00
    7.9046197789209953e-03 -1.1332961614571273e+00
    7.9223739526444702e-03 -1.1526067913468743e+00
    7.9271797607616910e-03 -1.1574998165195185e+00
    7.9046197789209953e-03 -1.1332961614571273e+00
    7.9046197789209953e-03 -1.1332961614571273e+00
    7.8604794579861473e-03 -1.0687479694587596e+00
    7.8431372549019607e-03 -1. 7.8583733020732918e-03
    -9.3958102364830665e-01 8.0248815650658320e-03
    -8.0665043947601567e-01 8.1753163409601006e-03
    -7.4824498004451212e-01 8.8361656702760066e-03
    -6.0771554350549706e-01 1.0593532153283751e-02
    -4.4275250047282405e-01 1.4057096775034196e-02
    -3.0491067797299276e-01 1.7683928628034837e-02
    -2.3389013486249394e-01 1.7053725860463369e-02
    -2.4359938288234503e-01 1.3347031865509798e-02
    -3.2481469664404550e-01 1.0386790301938289e-02
    -4.5609215091395000e-01 8.8577751135220685e-03
    -6.0451558580769382e-01 8.0323411494697856e-03
    -8.0315079190600902e-01 7.8856802621924110e-03
    -9.0112711377916599e-01 7.8442177814882098e-03
    -9.8353797017477174e-01 7.8455690679377684e-03
    -1.0252140409627808e+00 7.8528781015025657e-03
    -1.0510963292913653e+00 7.8730837582634133e-03
    -1.0912878130489183e+00 7.9177157975620707e-03
    -1.1477402547212903e+00 7.9478956664901339e-03
    -1.1773438808867127e+00 8.0034877015195093e-03
    -1.2236867762727806e+00 8.0034877015195093e-03
    -1.2236867762727806e+00 7.9835455144744490e-03
    -1.2079667518062689e+00 8.0399670328445208e-03
    -1.2505318017683689e+00 8.0892924466768653e-03
    -1.2838814775327392e+00 8.0399670328445208e-03
    -1.2505318017683689e+00 8.0104560966968285e-03
    -1.2289901003127188e+00 8.1163175060432000e-03
    -1.3010524317519250e+00 8.0721609796107867e-03
    -1.2726213959349038e+00 8.0892924466768653e-03
    -1.2838814775327392e+00 8.1650129036318873e-03
    -1.3304566669113038e+00 8.0399670328445208e-03
    -1.2505318017683689e+00 8.0892924466768653e-03
    -1.2838814775327392e+00 8.1256865412048553e-03
    -1.3068531549257270e+00 8.0892924466768653e-03
    -1.2838814775327392e+00 8.0399670328445208e-03
    -1.2505318017683689e+00 8.0104560966968285e-03
    -1.2289901003127188e+00 7.9591612932169032e-03
    -1.1874342087037915e+00 7.9271797607616910e-03
    -1.1574998165195185e+00 7.9132045352748297e-03
    -1.1428998624961768e+00 7.8856802621924092e-03
    -1.1097213530798986e+00 7.8448257739797134e-03
    -1.0209666406675257e+00 7.8730837582634133e-03
    -9.1634854530825205e-01 7.9966805816079154e-03
    -8.2073815014967544e-01 8.3018400446686225e-03
    -7.1151247353788549e-01 9.1735476361259494e-03
    -5.6297414746183738e-01 1.1964943944560691e-02
    -3.7347008640231449e-01 1.4917229730496889e-02
    -2.8410823428622706e-01 1.6491446790002237e-02
    -2.5301711413291816e-01 1.1713491530256508e-02
    -3.8421224293227263e-01 9.5333225734105485e-03
    -5.2453052831296221e-01 8.2184768606671128e-03
    -7.3480344462748792e-01 7.9132045352748297e-03
    -8.7496729399890472e-01 7.8564045590819309e-03
    -9.4350202884327294e-01 7.8464477787058180e-03
    -1.0294799948658837e+00 7.8455690679377684e-03
    -1.0252140409627808e+00 7.8627233568222040e-03
    -1.0732128000940515e+00 7.9271797607616910e-03
    -1.1574998165195185e+00 7.9534520868415927e-03
    -1.1823747080552578e+00 7.9900335655367100e-03
    -1.2131755321448219e+00 8.0248815650658320e-03
    -1.2396943596157717e+00 8.0104560966968285e-03
    -1.2289901003127188e+00 8.0477605588198976e-03
    -1.2560016349320058e+00 8.0034877015195093e-03
    -1.2236867762727806e+00 8.0175869717467388e-03
    -1.2343258116980638e+00 8.0477605588198976e-03
    -1.2560016349320058e+00 8.0323411494697856e-03
    -1.2450962012087865e+00 8.0557231074666023e-03
    -1.2615061828870937e+00 8.0175869717467388e-03
    -1.2343258116980638e+00 8.0638560960170115e-03
    -1.2670459365805982e+00 8.0638560960170115e-03
    -1.2670459365805982e+00 7.9966805816079137e-03
    -1.2184153981603427e+00 8.0399670328445208e-03
    -1.2505318017683689e+00 8.0806392520660405e-03
    -1.2782330700700730e+00 8.0981221370381648e-03
    -1.2895671465318763e+00 8.0892924466768653e-03
    -1.2838814775327392e+00 8.0323411494697856e-03
    -1.2450962012087865e+00 7.9534520868415927e-03
    -1.1823747080552578e+00 7.9900335655367100e-03
    -1.2131755321448219e+00 7.9772153216158444e-03
    -1.2027886379635508e+00 7.9772153216158444e-03
    -1.2027886379635508e+00 7.8966141201795917e-03
    -1.1237930406093759e+00 7.8432047747323246e-03
    -1.0041580220928044e+00 7.8702851433304754e-03
    -9.2018655446553721e-01 8.0557231074666041e-03
    -7.9270320951689011e-01 8.7136348020146696e-03
    -6.2694783181300573e-01 1.0593532153283751e-02
    -4.4275250047282405e-01 1.4730788370616182e-02
    -2.8835059808457192e-01 1.7053725860463369e-02
    -2.4359938288234503e-01 1.1795080042165704e-02
    -3.8064827812424795e-01 8.9478303896319503e-03
    -5.9172633541393860e-01 8.0806392520660422e-03
    -7.8232993920676730e-01 7.8627233568222040e-03
    -9.3178165589561057e-01 7.8545729209664079e-03
    -1.0554786059979135e+00 7.8627233568222040e-03
    -1.0732128000940515e+00 7.8513198361629833e-03
    -1.0467340511863761e+00 7.8856802621924092e-03
    -1.1097213530798986e+00 7.9372375103268968e-03
    -1.1673667367366676e+00 8.0175869717467388e-03
    -1.2343258116980638e+00 8.0638560960170115e-03
    -1.2670459365805982e+00 8.0034877015195093e-03
    -1.2236867762727806e+00 8.0477605588198976e-03
    -1.2560016349320058e+00 8.0557231074666023e-03
    -1.2615061828870937e+00 8.0892924466768653e-03
    -1.2838814775327392e+00 8.0557231074666023e-03
    -1.2615061828870937e+00 8.0721609796107867e-03
    -1.2726213959349038e+00 8.0806392520660405e-03
    -1.2782330700700730e+00 8.0104560966968285e-03
    -1.2289901003127188e+00 8.0323411494697856e-03
    -1.2450962012087865e+00 8.0399670328445208e-03
    -1.2505318017683689e+00 8.0104560966968285e-03
    -1.2289901003127188e+00 8.0721609796107867e-03
    -1.2726213959349038e+00 7.9966805816079137e-03
    -1.2184153981603427e+00 8.0981221370381648e-03
    -1.2895671465318763e+00 8.1965031117935388e-03
    -1.3485968449808849e+00 8.1352387870087250e-03
    -1.3126933540655676e+00 8.0248815650658320e-03
    -1.2396943596157717e+00 7.9372375103268968e-03
    -1.1673667367366676e+00 8.0248815650658320e-03
    -1.2396943596157717e+00 7.9966805816079137e-03
    -1.2184153981603427e+00 7.9772153216158444e-03
    -1.2027886379635508e+00 7.9424911066384146e-03
    -1.1723413480950000e+00 7.8760221008769681e-03
    -1.0958618717745101e+00 7.8431372549019607e-03 -1.
    7.9132045352748297e-03 -8.7496729399890472e-01
    8.3407870727806119e-03 -7.0161247275080896e-01
    9.4362477559322040e-03 -5.3416601664027008e-01
    1.2976718078550506e-02 -3.3639853193254887e-01
    1.5111900104322193e-02 -2.7982097184870452e-01
    1.0196442715675276e-02 -4.6931137271214940e-01
    8.3958975862810578e-03 -6.8848102094970709e-01
    7.9372375103268968e-03 -8.5662882839669119e-01
    7.8464477787058180e-03 -1.0294799948658837e+00
    7.9132045352748297e-03 -1.1428998624961768e+00
    7.9046197789209953e-03 -1.1332961614571273e+00
    7.9223739526444702e-03 -1.1526067913468743e+00
    7.9650242401478645e-03 -1.1925227682370760e+00
    7.9650242401478645e-03 -1.1925227682370760e+00
    8.0323411494697856e-03 -1.2450962012087865e+00
    8.0892924466768653e-03 -1.2838814775327392e+00
    8.1163175060432000e-03 -1.3010524317519250e+00
    8.0557231074666023e-03 -1.2615061828870937e+00
    8.1352387870087250e-03 -1.3126933540655676e+00
    8.1352387870087250e-03 -1.3126933540655676e+00
    8.0806392520660405e-03 -1.2782330700700730e+00
    8.1256865412048553e-03 -1.3068531549257270e+00
    8.1071299378986852e-03 -1.2952906151816965e+00
    8.0557231074666023e-03 -1.2615061828870937e+00
    8.0477605588198976e-03 -1.2560016349320058e+00
    8.0034877015195093e-03 -1.2236867762727806e+00
    8.0104560966968285e-03 -1.2289901003127188e+00
    8.0806392520660405e-03 -1.2782330700700730e+00
    8.0981221370381648e-03 -1.2895671465318763e+00
    8.1256865412048553e-03 -1.3068531549257270e+00
    8.1965031117935388e-03 -1.3485968449808849e+00
    8.1449760319476875e-03 -1.3185736094872988e+00
    8.0034877015195093e-03 -1.2236867762727806e+00
    7.9478956664901339e-03 -1.1773438808867127e+00
    7.9424911066384146e-03 -1.1723413480950000e+00
    7.9835455144744490e-03 -1.2079667518062689e+00
    8.0477605588198976e-03 -1.2560016349320058e+00
    7.9900335655367100e-03 -1.2131755321448219e+00
    7.9005448941634072e-03 -1.1285321907949182e+00
    7.8486120175495413e-03 -1.0380684981717494e+00
    7.8730837582634133e-03 -9.1634854530825205e-01
    8.0892924466768636e-03 -7.7888809636986156e-01
    8.8149053158694084e-03 -6.1091683003447639e-01
    1.1556564031247937e-02 -3.9129279043561477e-01
    1.2433348114332672e-02 -3.5520166708373629e-01
    9.5003921725124417e-03 -5.2774481414734564e-01
    8.2769698607570684e-03 -7.1813875430883944e-01
    7.8564045590819309e-03 -9.4350202884327294e-01
    7.8676258139275292e-03 -1.0822066212933510e+00
    7.9321340087334484e-03 -1.1624196798898074e+00
    7.9271797607616910e-03 -1.1574998165195185e+00
    8.0248815650658320e-03 -1.2396943596157717e+00
    8.0892924466768653e-03 -1.2838814775327392e+00
    8.0323411494697856e-03 -1.2450962012087865e+00
    8.1352387870087250e-03 -1.3126933540655676e+00
    8.0981221370381648e-03 -1.2895671465318763e+00
    8.2529511117829784e-03 -1.3797153539159179e+00
    8.1858124007862122e-03 -1.3425071997554980e+00
    8.2184768606671128e-03 -1.3609081548426256e+00
    8.1071299378986852e-03 -1.2952906151816965e+00
    8.0323411494697856e-03 -1.2450962012087865e+00
    8.0248815650658320e-03 -1.2396943596157717e+00
    7.9966805816079137e-03 -1.2184153981603427e+00
    8.0557231074666023e-03 -1.2615061828870937e+00
    7.9772153216158444e-03 -1.2027886379635508e+00
    8.0104560966968285e-03 -1.2289901003127188e+00
    8.0638560960170115e-03 -1.2670459365805982e+00
    8.0557231074666023e-03 -1.2615061828870937e+00
    8.0323411494697856e-03 -1.2450962012087865e+00
    8.2184768606671128e-03 -1.3609081548426256e+00
    8.1650129036318873e-03 -1.3304566669113038e+00
    8.1753163409601006e-03 -1.3364606869003135e+00
    8.1163175060432000e-03 -1.3010524317519250e+00
    8.0399670328445208e-03 -1.2505318017683689e+00
    8.0175869717467388e-03 -1.2343258116980638e+00
    8.0399670328445208e-03 -1.2505318017683689e+00
    8.0323411494697856e-03 -1.2450962012087865e+00
    8.0399670328445208e-03 -1.2505318017683689e+00
    7.9132045352748297e-03 -1.1428998624961768e+00
    7.8891823997125857e-03 -1.1143879329552517e+00
    7.8455690679377667e-03 -9.7540607136134994e-01
    7.9710419116334023e-03 -8.3497490895927484e-01
    8.4701711609820561e-03 -6.7216607242233128e-01
    9.8580172246614996e-03 -4.9545740096976104e-01
    1.2334216735870663e-02 -3.5889499942030301e-01
    8.8577751135220685e-03 -6.0451558580769382e-01
    7.9710419116334023e-03 -8.3497490895927484e-01
    7.8437449961590577e-03 -1.0125265843589555e+00
    7.8966141201795917e-03 -1.1237930406093759e+00
    8.0104560966968285e-03 -1.2289901003127188e+00
    8.0892924466768653e-03 -1.2838814775327392e+00
    8.1256865412048553e-03 -1.3068531549257270e+00
    8.1753163409601006e-03 -1.3364606869003135e+00
    8.0981221370381648e-03 -1.2895671465318763e+00
    8.1549001103917249e-03 -1.3244945127427721e+00
    8.1858124007862122e-03 -1.3425071997554980e+00
    8.2073905541344052e-03 -1.3547302748691561e+00
    8.1449760319476875e-03 -1.3185736094872988e+00
    8.1352387870087250e-03 -1.3126933540655676e+00
    8.0399670328445208e-03 -1.2505318017683689e+00
    7.9772153216158444e-03 -1.2027886379635508e+00
    7.9478956664901339e-03 -1.1773438808867127e+00
    8.0248815650658320e-03 -1.2396943596157717e+00
    8.0248815650658320e-03 -1.2396943596157717e+00
    8.0399670328445208e-03 -1.2505318017683689e+00
    7.9966805816079137e-03 -1.2184153981603427e+00
    8.0034877015195093e-03 -1.2236867762727806e+00
    8.0721609796107867e-03 -1.2726213959349038e+00
    8.0104560966968285e-03 -1.2289901003127188e+00
    8.0323411494697856e-03 -1.2450962012087865e+00
    8.1352387870087250e-03 -1.3126933540655676e+00
    8.0892924466768653e-03 -1.2838814775327392e+00
    8.0892924466768653e-03 -1.2838814775327392e+00
    8.1449760319476875e-03 -1.3185736094872988e+00
    8.0892924466768653e-03 -1.2838814775327392e+00
    8.0638560960170115e-03 -1.2670459365805982e+00
    8.1256865412048553e-03 -1.3068531549257270e+00
    8.0477605588198976e-03 -1.2560016349320058e+00
    7.9900335655367100e-03 -1.2131755321448219e+00
    7.9534520868415927e-03 -1.1823747080552578e+00
    7.8498978820018758e-03 -1.0423915226919711e+00
    7.8891823997125857e-03 -8.9735357897145751e-01
    8.1650129036318873e-03 -7.5162162351482753e-01
    9.1204268053469238e-03 -5.6936440367819285e-01
    1.2334216735870663e-02 -3.5889499942030301e-01
    8.3407870727806119e-03 -7.0161247275080896e-01
    7.8928268245994880e-03 -8.9359244775600422e-01
    7.8474620427162987e-03 -1.0337647352744219e+00
    7.8966141201795917e-03 -1.1237930406093759e+00
    8.0323411494697856e-03 -1.2450962012087865e+00
    8.1449760319476875e-03 -1.3185736094872988e+00
    8.1352387870087250e-03 -1.3126933540655676e+00
    8.2412548689957659e-03 -1.3733999945064004e+00
    8.1753163409601006e-03 -1.3364606869003135e+00
    8.1256865412048553e-03 -1.3068531549257270e+00
    8.2297642182359420e-03 -1.3671311638052943e+00
    8.2184768606671128e-03 -1.3609081548426256e+00
    8.1352387870087250e-03 -1.3126933540655676e+00
    8.1352387870087250e-03 -1.3126933540655676e+00
    8.0104560966968285e-03 -1.2289901003127188e+00
    7.9900335655367100e-03 -1.2131755321448219e+00
    7.9835455144744490e-03 -1.2079667518062689e+00
    8.0034877015195093e-03 -1.2236867762727806e+00
    7.9591612932169032e-03 -1.1874342087037915e+00
    7.9478956664901339e-03 -1.1773438808867127e+00
    7.9835455144744490e-03 -1.2079667518062689e+00
    7.9534520868415927e-03 -1.1823747080552578e+00
    7.9772153216158444e-03 -1.2027886379635508e+00
    7.9710419116334023e-03 -1.1976407785072429e+00
    8.0175869717467388e-03 -1.2343258116980638e+00
    8.0892924466768653e-03 -1.2838814775327392e+00
    8.1449760319476875e-03 -1.3185736094872988e+00
    8.2184768606671128e-03 -1.3609081548426256e+00
    8.2412548689957659e-03 -1.3733999945064004e+00
    8.1753163409601006e-03 -1.3364606869003135e+00
    8.1650129036318873e-03 -1.3304566669113038e+00
    8.2184768606671128e-03 -1.3609081548426256e+00
    8.1449760319476875e-03 -1.3185736094872988e+00
    8.1352387870087250e-03 -1.3126933540655676e+00
    7.9966805816079137e-03 -1.2184153981603427e+00
    7.8823198528330304e-03 -1.1050783486622242e+00
    7.8498978820018776e-03 -9.5933243721850736e-01
    8.0323411494697856e-03 -8.0315079190600902e-01
    8.6383299217520724e-03 -6.3980991329159542e-01
    1.0540199662319451e-02 -4.4609973674547054e-01
    8.1256865412048553e-03 -7.6519691308151117e-01
    7.8760221008769664e-03 -9.1252376394911650e-01
    7.8604794579861473e-03 -1.0687479694587596e+00
    8.0248815650658320e-03 -1.2396943596157717e+00
    8.0892924466768653e-03 -1.2838814775327392e+00
    8.1650129036318873e-03 -1.3304566669113038e+00
    8.1753163409601006e-03 -1.3364606869003135e+00
    8.2073905541344052e-03 -1.3547302748691561e+00
    8.2648553035345549e-03 -1.3860779636124809e+00
    8.1858124007862122e-03 -1.3425071997554980e+00
    8.2769698607570684e-03 -1.3924885601842130e+00
    8.2648553035345549e-03 -1.3860779636124809e+00
    8.1256865412048553e-03 -1.3068531549257270e+00
    8.0981221370381648e-03 -1.2895671465318763e+00
    8.0104560966968285e-03 -1.2289901003127188e+00
    8.0175869717467388e-03 -1.2343258116980638e+00
    7.9710419116334023e-03 -1.1976407785072429e+00
    7.9478956664901339e-03 -1.1773438808867127e+00
    7.9372375103268968e-03 -1.1673667367366676e+00
    7.9835455144744490e-03 -1.2079667518062689e+00
    7.9900335655367100e-03 -1.2131755321448219e+00
    7.9966805816079137e-03 -1.2184153981603427e+00
    8.0248815650658320e-03 -1.2396943596157717e+00
    8.0034877015195093e-03 -1.2236867762727806e+00
    7.9835455144744490e-03 -1.2079667518062689e+00
    8.0721609796107867e-03 -1.2726213959349038e+00
    8.1753163409601006e-03 -1.3364606869003135e+00
    8.2073905541344052e-03 -1.3547302748691561e+00
    8.2297642182359420e-03 -1.3671311638052943e+00
    8.3407870727806137e-03 -1.4252882308082475e+00
    8.3407870727806137e-03 -1.4252882308082475e+00
    8.2297642182359420e-03 -1.3671311638052943e+00
    8.1753163409601006e-03 -1.3364606869003135e+00
    8.2297642182359420e-03 -1.3671311638052943e+00
    8.1256865412048553e-03 -1.3068531549257270e+00
    7.9710419116334023e-03 -1.1976407785072429e+00
    7.8464477787058180e-03 -1.0294799948658837e+00
    7.9046197789209953e-03 -8.8238188216772639e-01
    8.4102629721170257e-03 -6.8520959940878756e-01
    9.6710844653563020e-03 -5.1164451009665080e-01
    8.0638560960170115e-03 -7.8923736790373966e-01
    7.8513198361629833e-03 -9.5535250703518459e-01
    7.8528781015025657e-03 -1.0510963292913653e+00
    7.9900335655367100e-03 -1.2131755321448219e+00
    8.0981221370381648e-03 -1.2895671465318763e+00
    8.2184768606671128e-03 -1.3609081548426256e+00
    8.2297642182359420e-03 -1.3671311638052943e+00
    8.2073905541344052e-03 -1.3547302748691561e+00
    8.1256865412048553e-03 -1.3068531549257270e+00
    8.2184768606671128e-03 -1.3609081548426256e+00
    8.3146008161789336e-03 -1.4120158709716319e+00
    8.1163175060432000e-03 -1.3010524317519250e+00
    8.0638560960170115e-03 -1.2670459365805982e+00
    8.0638560960170115e-03 -1.2670459365805982e+00
    7.9772153216158444e-03 -1.2027886379635508e+00
    7.9900335655367100e-03 -1.2131755321448219e+00
    7.9650242401478645e-03 -1.1925227682370760e+00
    7.9321340087334484e-03 -1.1624196798898074e+00
    7.9591612932169032e-03 -1.1874342087037915e+00
    7.9772153216158444e-03 -1.2027886379635508e+00
    7.9591612932169032e-03 -1.1874342087037915e+00
    7.9710419116334023e-03 -1.1976407785072429e+00
    8.0175869717467388e-03 -1.2343258116980638e+00
    8.0399670328445208e-03 -1.2505318017683689e+00
    7.9835455144744490e-03 -1.2079667518062689e+00
    8.1163175060432000e-03 -1.3010524317519250e+00
    8.1965031117935388e-03 -1.3485968449808849e+00
    8.1449760319476875e-03 -1.3185736094872988e+00
    8.1753163409601006e-03 -1.3364606869003135e+00
    8.3678782189782110e-03 -1.4387715921116582e+00
    8.2892972610475995e-03 -1.3989478956429813e+00
    8.2529511117829784e-03 -1.3797153539159179e+00
    8.1965031117935388e-03 -1.3485968449808849e+00
    8.1753163409601006e-03 -1.3364606869003135e+00
    8.2073905541344052e-03 -1.3547302748691561e+00
    7.9835455144744490e-03 -1.2079667518062689e+00
    7.8730837582634133e-03 -1.0912878130489183e+00
    7.8676258139275309e-03 -9.2403796125816917e-01
    8.2412548689957659e-03 -7.2811999708752007e-01
    9.4680382268582126e-03 -5.3095658355182052e-01
    8.1163175060432000e-03 -7.6860853228909098e-01
    7.8474620427162987e-03 -9.6733808561823420e-01
    7.8928268245994863e-03 -1.1190783925168648e+00
    7.9772153216158444e-03 -1.2027886379635508e+00
    8.0806392520660405e-03 -1.2782330700700730e+00
    8.2648553035345549e-03 -1.3860779636124809e+00
    8.3275822461229485e-03 -1.4186260959111106e+00
    8.3275822461229485e-03 -1.4186260959111106e+00
    8.1858124007862122e-03 -1.3425071997554980e+00
    8.3275822461229485e-03 -1.4186260959111106e+00
    8.2297642182359420e-03 -1.3671311638052943e+00
    8.1071299378986852e-03 -1.2952906151816965e+00
    8.0323411494697856e-03 -1.2450962012087865e+00
    8.0175869717467388e-03 -1.2343258116980638e+00
    7.9772153216158444e-03 -1.2027886379635508e+00
    7.9900335655367100e-03 -1.2131755321448219e+00
    7.9710419116334023e-03 -1.1976407785072429e+00
    7.9900335655367100e-03 -1.2131755321448219e+00
    7.9966805816079137e-03 -1.2184153981603427e+00
    7.9772153216158444e-03 -1.2027886379635508e+00
    7.9710419116334023e-03 -1.1976407785072429e+00
    7.9650242401478645e-03 -1.1925227682370760e+00
    7.9900335655367100e-03 -1.2131755321448219e+00
    8.0248815650658320e-03 -1.2396943596157717e+00
    8.0557231074666023e-03 -1.2615061828870937e+00
    8.0892924466768653e-03 -1.2838814775327392e+00
    8.1256865412048553e-03 -1.3068531549257270e+00
    8.1256865412048553e-03 -1.3068531549257270e+00
    8.1753163409601006e-03 -1.3364606869003135e+00
    8.2892972610475995e-03 -1.3989478956429813e+00
    8.2529511117829784e-03 -1.3797153539159179e+00
    8.1753163409601006e-03 -1.3364606869003135e+00
    8.1858124007862122e-03 -1.3425071997554980e+00
    8.1650129036318873e-03 -1.3304566669113038e+00
    8.2297642182359420e-03 -1.3671311638052943e+00
    8.0477605588198976e-03 -1.2560016349320058e+00
    7.9088394317697736e-03 -1.1380852759077831e+00
    7.8627233568222040e-03 -9.3178165589561057e-01
    8.1965031117935388e-03 -7.4151144852646733e-01
    9.2566629996137049e-03 -5.5338328699972805e-01
    8.0721609796107884e-03 -7.8577965386584681e-01
    7.8486120175495413e-03 -9.6332756630338356e-01
    7.9271797607616910e-03 -1.1574998165195185e+00
    7.9534520868415927e-03 -1.1823747080552578e+00
    8.0806392520660405e-03 -1.2782330700700730e+00
    8.2769698607570684e-03 -1.3924885601842130e+00
    8.2529511117829784e-03 -1.3797153539159179e+00
    8.2769698607570684e-03 -1.3924885601842130e+00
    8.2892972610475995e-03 -1.3989478956429813e+00
    8.4102629721170274e-03 -1.4594074584810544e+00
    8.2648553035345549e-03 -1.3860779636124809e+00
    8.0981221370381648e-03 -1.2895671465318763e+00
    8.0981221370381648e-03 -1.2895671465318763e+00
    8.0034877015195093e-03 -1.2236867762727806e+00
    7.9966805816079137e-03 -1.2184153981603427e+00
    8.0104560966968285e-03 -1.2289901003127188e+00
    8.0175869717467388e-03 -1.2343258116980638e+00
    8.0104560966968285e-03 -1.2289901003127188e+00
    8.0399670328445208e-03 -1.2505318017683689e+00
    8.0104560966968285e-03 -1.2289901003127188e+00
    7.9966805816079137e-03 -1.2184153981603427e+00
    7.9835455144744490e-03 -1.2079667518062689e+00
    8.0104560966968285e-03 -1.2289901003127188e+00
    8.0399670328445208e-03 -1.2505318017683689e+00
    8.0323411494697856e-03 -1.2450962012087865e+00
    8.0399670328445208e-03 -1.2505318017683689e+00
    8.1071299378986852e-03 -1.2952906151816965e+00
    8.0638560960170115e-03 -1.2670459365805982e+00
    8.1449760319476875e-03 -1.3185736094872988e+00
    8.2529511117829784e-03 -1.3797153539159179e+00
    8.1449760319476875e-03 -1.3185736094872988e+00
    8.1858124007862122e-03 -1.3425071997554980e+00
    8.2529511117829784e-03 -1.3797153539159179e+00
    8.1071299378986852e-03 -1.2952906151816965e+00
    8.1071299378986852e-03 -1.2952906151816965e+00
    8.0175869717467388e-03 -1.2343258116980638e+00
    7.9005448941634072e-03 -1.1285321907949182e+00
    7.8583733020732918e-03 -9.3958102364830665e-01
    8.1965031117935388e-03 -7.4151144852646733e-01
    9.2284873830561862e-03 -5.5658117889096126e-01
    8.1650129036318873e-03 -7.5162162351482753e-01
    7.8513198361629833e-03 -9.5535250703518459e-01
    7.8823198528330304e-03 -1.1050783486622242e+00
    8.0104560966968285e-03 -1.2289901003127188e+00
    8.0981221370381648e-03 -1.2895671465318763e+00
    8.2297642182359420e-03 -1.3671311638052943e+00
    8.2892972610475995e-03 -1.3989478956429813e+00
    8.1965031117935388e-03 -1.3485968449808849e+00
    8.2892972610475995e-03 -1.3989478956429813e+00
    8.3542181039804354e-03 -1.4320031115163145e+00
    8.2769698607570684e-03 -1.3924885601842130e+00
    8.1858124007862122e-03 -1.3425071997554980e+00
    8.1549001103917249e-03 -1.3244945127427721e+00
    8.0806392520660405e-03 -1.2782330700700730e+00
    8.0323411494697856e-03 -1.2450962012087865e+00
    8.0399670328445208e-03 -1.2505318017683689e+00
    8.0399670328445208e-03 -1.2505318017683689e+00
    8.0477605588198976e-03 -1.2560016349320058e+00
    8.0477605588198976e-03 -1.2560016349320058e+00
    8.0981221370381648e-03 -1.2895671465318763e+00
    8.0638560960170115e-03 -1.2670459365805982e+00
    7.9900335655367100e-03 -1.2131755321448219e+00
    8.0477605588198976e-03 -1.2560016349320058e+00
    8.0477605588198976e-03 -1.2560016349320058e+00
    8.0638560960170115e-03 -1.2670459365805982e+00
    8.0721609796107867e-03 -1.2726213959349038e+00
    8.0638560960170115e-03 -1.2670459365805982e+00
    8.0477605588198976e-03 -1.2560016349320058e+00
    8.0806392520660405e-03 -1.2782330700700730e+00
    8.1965031117935388e-03 -1.3485968449808849e+00
    8.1753163409601006e-03 -1.3364606869003135e+00
    8.1071299378986852e-03 -1.2952906151816965e+00
    8.1858124007862122e-03 -1.3425071997554980e+00
    8.0638560960170115e-03 -1.2670459365805982e+00
    8.0557231074666023e-03 -1.2615061828870937e+00
    8.0034877015195093e-03 -1.2236867762727806e+00
    7.8823198528330304e-03 -1.1050783486622242e+00
    7.8528781015025639e-03 -9.5138758659178890e-01
    8.1965031117935388e-03 -7.4151144852646733e-01
    9.8580172246614996e-03 -4.9545740096976104e-01
    8.1449760319476875e-03 -7.5839527865936140e-01
    7.8564045590819309e-03 -9.4350202884327294e-01
    7.8791006362973447e-03 -1.1004586199907411e+00
    8.0034877015195093e-03 -1.2236867762727806e+00
    8.2412548689957659e-03 -1.3733999945064004e+00
    8.2769698607570684e-03 -1.3924885601842130e+00
    8.2892972610475995e-03 -1.3989478956429813e+00
    8.3018400446686191e-03 -1.4054567378526126e+00
    8.2529511117829784e-03 -1.3797153539159179e+00
    8.2892972610475995e-03 -1.3989478956429813e+00
    8.2648553035345549e-03 -1.3860779636124809e+00
    8.1753163409601006e-03 -1.3364606869003135e+00
    8.1163175060432000e-03 -1.3010524317519250e+00
    8.1163175060432000e-03 -1.3010524317519250e+00
    8.0399670328445208e-03 -1.2505318017683689e+00
    8.0477605588198976e-03 -1.2560016349320058e+00
    8.0323411494697856e-03 -1.2450962012087865e+00
    8.0248815650658320e-03 -1.2396943596157717e+00
    8.0477605588198976e-03 -1.2560016349320058e+00
    8.0981221370381648e-03 -1.2895671465318763e+00
    8.1071299378986852e-03 -1.2952906151816965e+00
    8.1071299378986852e-03 -1.2952906151816965e+00
    8.0248815650658320e-03 -1.2396943596157717e+00
    8.0806392520660405e-03 -1.2782330700700730e+00
    8.0557231074666023e-03 -1.2615061828870937e+00
    8.0399670328445208e-03 -1.2505318017683689e+00
    8.0034877015195093e-03 -1.2236867762727806e+00
    8.0638560960170115e-03 -1.2670459365805982e+00
    8.0104560966968285e-03 -1.2289901003127188e+00
    7.9900335655367100e-03 -1.2131755321448219e+00
    8.0175869717467388e-03 -1.2343258116980638e+00
    8.0981221370381648e-03 -1.2895671465318763e+00
    8.1352387870087250e-03 -1.3126933540655676e+00
    8.0721609796107867e-03 -1.2726213959349038e+00
    8.0557231074666023e-03 -1.2615061828870937e+00
    7.9835455144744490e-03 -1.2079667518062689e+00
    7.9372375103268968e-03 -1.1673667367366676e+00
    7.8432047747323246e-03 -9.9585919546393831e-01
    8.1549001103917267e-03 -7.5500501540711784e-01
    1.1878866652295700e-02 -3.7706775887992577e-01
    8.4701711609820561e-03 -6.7216607242233128e-01
    7.9132045352748297e-03 -8.7496729399890472e-01
    7.8583733020732918e-03 -1.0643041683803827e+00
    7.9650242401478645e-03 -1.1925227682370760e+00
    8.1549001103917249e-03 -1.3244945127427721e+00
    8.1650129036318873e-03 -1.3304566669113038e+00
    8.2769698607570684e-03 -1.3924885601842130e+00
    8.3407870727806137e-03 -1.4252882308082475e+00
    8.2297642182359420e-03 -1.3671311638052943e+00
    8.2184768606671128e-03 -1.3609081548426256e+00
    8.1071299378986852e-03 -1.2952906151816965e+00
    8.1352387870087250e-03 -1.3126933540655676e+00
    8.1753163409601006e-03 -1.3364606869003135e+00
    8.0638560960170115e-03 -1.2670459365805982e+00
    8.0721609796107867e-03 -1.2726213959349038e+00
    8.0399670328445208e-03 -1.2505318017683689e+00
    8.0399670328445208e-03 -1.2505318017683689e+00
    8.0806392520660405e-03 -1.2782330700700730e+00
    8.0557231074666023e-03 -1.2615061828870937e+00
    8.1549001103917249e-03 -1.3244945127427721e+00
    8.0638560960170115e-03 -1.2670459365805982e+00
    8.0557231074666023e-03 -1.2615061828870937e+00
    8.0557231074666023e-03 -1.2615061828870937e+00
    8.0638560960170115e-03 -1.2670459365805982e+00
    8.0892924466768653e-03 -1.2838814775327392e+00
    8.0638560960170115e-03 -1.2670459365805982e+00
    8.0721609796107867e-03 -1.2726213959349038e+00
    8.0175869717467388e-03 -1.2343258116980638e+00
    7.9835455144744490e-03 -1.2079667518062689e+00
    7.9772153216158444e-03 -1.2027886379635508e+00
    7.9835455144744490e-03 -1.2079667518062689e+00
    8.0806392520660405e-03 -1.2782330700700730e+00
    8.1650129036318873e-03 -1.3304566669113038e+00
    8.1650129036318873e-03 -1.3304566669113038e+00
    8.0806392520660405e-03 -1.2782330700700730e+00
    7.9835455144744490e-03 -1.2079667518062689e+00
    7.9088394317697736e-03 -1.1380852759077831e+00
    7.8730837582634133e-03 -9.1634854530825205e-01
    8.3018400446686225e-03 -7.1151247353788549e-01
    1.3479068563604511e-02 -3.2089691238041856e-01
    8.7734079497382988e-03 -6.1732392243853607e-01
    8.0248815650658320e-03 -8.0665043947601567e-01
    7.8676258139275309e-03 -9.2403796125816917e-01
    7.9046197789209953e-03 -1.1332961614571273e+00
    8.1071299378986852e-03 -1.2952906151816965e+00
    8.2297642182359420e-03 -1.3671311638052943e+00
    8.2892972610475995e-03 -1.3989478956429813e+00
    8.3146008161789336e-03 -1.4120158709716319e+00
    8.2297642182359420e-03 -1.3671311638052943e+00
    8.1965031117935388e-03 -1.3485968449808849e+00
    8.1256865412048553e-03 -1.3068531549257270e+00
    8.2184768606671128e-03 -1.3609081548426256e+00
    8.1858124007862122e-03 -1.3425071997554980e+00
    8.1449760319476875e-03 -1.3185736094872988e+00
    8.0981221370381648e-03 -1.2895671465318763e+00
    8.0175869717467388e-03 -1.2343258116980638e+00
    8.0034877015195093e-03 -1.2236867762727806e+00
    8.0248815650658320e-03 -1.2396943596157717e+00
    8.0399670328445208e-03 -1.2505318017683689e+00
    8.0892924466768653e-03 -1.2838814775327392e+00
    8.0323411494697856e-03 -1.2450962012087865e+00
    8.0248815650658320e-03 -1.2396943596157717e+00
    8.0248815650658320e-03 -1.2396943596157717e+00
    7.9835455144744490e-03 -1.2079667518062689e+00
    8.1071299378986852e-03 -1.2952906151816965e+00
    8.1071299378986852e-03 -1.2952906151816965e+00
    8.0806392520660405e-03 -1.2782330700700730e+00
    7.9900335655367100e-03 -1.2131755321448219e+00
    7.9900335655367100e-03 -1.2131755321448219e+00
    7.9650242401478645e-03 -1.1925227682370760e+00
    7.9966805816079137e-03 -1.2184153981603427e+00
    8.0477605588198976e-03 -1.2560016349320058e+00
    8.1256865412048553e-03 -1.3068531549257270e+00
    8.0399670328445208e-03 -1.2505318017683689e+00
    8.0721609796107867e-03 -1.2726213959349038e+00
    7.9900335655367100e-03 -1.2131755321448219e+00
    7.8856802621924092e-03 -1.1097213530798986e+00
    7.9005448941634072e-03 -8.8610675721675070e-01
    8.6202549779220376e-03 -6.4303167579084408e-01
    1.5528400276676457e-02 -2.7110267288015016e-01
    9.4680382268582126e-03 -5.3095658355182052e-01
    8.1753163409601006e-03 -7.4824498004451212e-01
    7.8891823997125857e-03 -8.9735357897145751e-01
    7.8564045590819327e-03 -1.0598811337226197e+00
    7.9966805816079137e-03 -1.2184153981603427e+00
    8.1449760319476875e-03 -1.3185736094872988e+00
    8.2648553035345549e-03 -1.3860779636124809e+00
    8.2769698607570684e-03 -1.3924885601842130e+00
    8.2769698607570684e-03 -1.3924885601842130e+00
    8.3018400446686191e-03 -1.4054567378526126e+00
    8.3407870727806137e-03 -1.4252882308082475e+00
    8.2529511117829784e-03 -1.3797153539159179e+00
    8.1753163409601006e-03 -1.3364606869003135e+00
    8.0557231074666023e-03 -1.2615061828870937e+00
    7.9835455144744490e-03 -1.2079667518062689e+00
    8.0248815650658320e-03 -1.2396943596157717e+00
    7.9966805816079137e-03 -1.2184153981603427e+00
    8.0557231074666023e-03 -1.2615061828870937e+00
    7.9966805816079137e-03 -1.2184153981603427e+00
    8.0248815650658320e-03 -1.2396943596157717e+00
    8.0323411494697856e-03 -1.2450962012087865e+00
    8.0323411494697856e-03 -1.2450962012087865e+00
    7.9835455144744490e-03 -1.2079667518062689e+00
    8.0175869717467388e-03 -1.2343258116980638e+00
    8.0323411494697856e-03 -1.2450962012087865e+00
    8.0175869717467388e-03 -1.2343258116980638e+00
    8.0034877015195093e-03 -1.2236867762727806e+00
    7.9835455144744490e-03 -1.2079667518062689e+00
    8.0399670328445208e-03 -1.2505318017683689e+00
    8.0248815650658320e-03 -1.2396943596157717e+00
    8.0104560966968285e-03 -1.2289901003127188e+00
    8.0399670328445208e-03 -1.2505318017683689e+00
    8.1549001103917249e-03 -1.3244945127427721e+00
    8.0323411494697856e-03 -1.2450962012087865e+00
    8.0175869717467388e-03 -1.2343258116980638e+00
    7.9132045352748297e-03 -1.1428998624961768e+00
    7.8442177814882098e-03 -1.0167375641047218e+00
    7.9966805816079154e-03 -8.2073815014967544e-01
    8.8797398406216532e-03 -6.0131682240226303e-01
    1.5528400276676457e-02 -2.7110267288015016e-01
    1.0436861876093339e-02 -4.5276925690687075e-01
    8.4248697130749842e-03 -6.8194251422327901e-01
    7.9132045352748297e-03 -8.7496729399890472e-01
    7.8486120175495413e-03 -1.0380684981717494e+00
    7.9710419116334023e-03 -1.1976407785072429e+00
    8.0248815650658320e-03 -1.2396943596157717e+00
    8.0981221370381648e-03 -1.2895671465318763e+00
    8.3275822461229485e-03 -1.4186260959111106e+00
    8.2769698607570684e-03 -1.3924885601842130e+00
    8.3678782189782110e-03 -1.4387715921116582e+00
    8.2769698607570684e-03 -1.3924885601842130e+00
    8.2184768606671128e-03 -1.3609081548426256e+00
    8.1256865412048553e-03 -1.3068531549257270e+00
    8.1163175060432000e-03 -1.3010524317519250e+00
    8.0806392520660405e-03 -1.2782330700700730e+00
    8.0034877015195093e-03 -1.2236867762727806e+00
    8.0477605588198976e-03 -1.2560016349320058e+00
    8.0557231074666023e-03 -1.2615061828870937e+00
    7.9650242401478645e-03 -1.1925227682370760e+00
    8.0034877015195093e-03 -1.2236867762727806e+00
    8.0104560966968285e-03 -1.2289901003127188e+00
    8.0175869717467388e-03 -1.2343258116980638e+00
    8.0399670328445208e-03 -1.2505318017683689e+00
    8.0557231074666023e-03 -1.2615061828870937e+00
    8.0477605588198976e-03 -1.2560016349320058e+00
    8.0175869717467388e-03 -1.2343258116980638e+00
    8.0323411494697856e-03 -1.2450962012087865e+00
    7.9966805816079137e-03 -1.2184153981603427e+00
    8.0104560966968285e-03 -1.2289901003127188e+00
    7.9900335655367100e-03 -1.2131755321448219e+00
    8.0638560960170115e-03 -1.2670459365805982e+00
    8.0323411494697856e-03 -1.2450962012087865e+00
    8.0721609796107867e-03 -1.2726213959349038e+00
    8.0248815650658320e-03 -1.2396943596157717e+00
    7.9132045352748297e-03 -1.1428998624961768e+00
    7.9046197789209953e-03 -1.1332961614571273e+00
    7.8448257739797116e-03 -9.7946393169730095e-01
    8.0981221370381631e-03 -7.7545399841285567e-01
    9.2853223306832398e-03 -5.5018424432430157e-01
    1.5315401703536435e-02 -2.7548658250966990e-01
    1.1964943944560691e-02 -3.7347008640231449e-01
    8.7939880276875094e-03 -6.1411957886299084e-01
    8.0557231074666041e-03 -7.9270320951689011e-01
    7.8448257739797116e-03 -9.7946393169730095e-01
    7.8651053506836356e-03 -1.0776989271491715e+00
    7.9372375103268968e-03 -1.1673667367366676e+00
    8.0248815650658320e-03 -1.2396943596157717e+00
    8.1965031117935388e-03 -1.3485968449808849e+00
    8.2073905541344052e-03 -1.3547302748691561e+00
    8.2184768606671128e-03 -1.3609081548426256e+00
    8.1549001103917249e-03 -1.3244945127427721e+00
    8.0981221370381648e-03 -1.2895671465318763e+00
    8.0175869717467388e-03 -1.2343258116980638e+00
    8.0248815650658320e-03 -1.2396943596157717e+00
    7.9835455144744490e-03 -1.2079667518062689e+00
    7.9534520868415927e-03 -1.1823747080552578e+00
    7.9372375103268968e-03 -1.1673667367366676e+00
    7.9835455144744490e-03 -1.2079667518062689e+00
    7.9223739526444702e-03 -1.1526067913468743e+00
    7.9177157975620707e-03 -1.1477402547212903e+00
    7.9424911066384146e-03 -1.1723413480950000e+00
    7.9534520868415927e-03 -1.1823747080552578e+00
    8.0104560966968285e-03 -1.2289901003127188e+00
    8.0323411494697856e-03 -1.2450962012087865e+00
    8.0477605588198976e-03 -1.2560016349320058e+00
    8.0721609796107867e-03 -1.2726213959349038e+00
    8.0323411494697856e-03 -1.2450962012087865e+00
    7.9534520868415927e-03 -1.1823747080552578e+00
    7.9966805816079137e-03 -1.2184153981603427e+00
    8.0557231074666023e-03 -1.2615061828870937e+00
    8.0248815650658320e-03 -1.2396943596157717e+00
    8.0323411494697856e-03 -1.2450962012087865e+00
    8.0892924466768653e-03 -1.2838814775327392e+00
    7.9835455144744490e-03 -1.2079667518062689e+00
    7.8823198528330304e-03 -1.1050783486622242e+00
    7.8564045590819327e-03 -1.0598811337226197e+00
    7.9132045352748297e-03 -8.7496729399890472e-01
    8.3678782189782110e-03 -6.9503735372778563e-01
    1.1265545627736505e-02 -4.0527917258288587e-01
    1.5315401703536435e-02 -2.7548658250966990e-01
    1.3219447376570229e-02 -3.2870347885517465e-01
    9.3144756907403842e-03 -5.4698388885146587e-01
    8.1965031117935388e-03 -7.4151144852646733e-01
    7.8891823997125857e-03 -8.9735357897145751e-01
    7.8448257739797134e-03 -1.0209666406675257e+00
    7.9321340087334484e-03 -1.1624196798898074e+00
    7.9478956664901339e-03 -1.1773438808867127e+00
    8.0034877015195093e-03 -1.2236867762727806e+00
    8.0892924466768653e-03 -1.2838814775327392e+00
    8.1753163409601006e-03 -1.3364606869003135e+00
    8.1449760319476875e-03 -1.3185736094872988e+00
    8.0981221370381648e-03 -1.2895671465318763e+00
    8.0981221370381648e-03 -1.2895671465318763e+00
    8.1071299378986852e-03 -1.2952906151816965e+00
    8.0892924466768653e-03 -1.2838814775327392e+00
    7.9650242401478645e-03 -1.1925227682370760e+00
    7.9424911066384146e-03 -1.1723413480950000e+00
    7.9534520868415927e-03 -1.1823747080552578e+00
    7.9271797607616910e-03 -1.1574998165195185e+00
    7.9088394317697736e-03 -1.1380852759077831e+00
    7.9223739526444702e-03 -1.1526067913468743e+00
    7.9900335655367100e-03 -1.2131755321448219e+00
    7.9966805816079137e-03 -1.2184153981603427e+00
    8.0399670328445208e-03 -1.2505318017683689e+00
    8.0721609796107867e-03 -1.2726213959349038e+00
    8.0638560960170115e-03 -1.2670459365805982e+00
    8.0323411494697856e-03 -1.2450962012087865e+00
    8.0175869717467388e-03 -1.2343258116980638e+00
    8.0323411494697856e-03 -1.2450962012087865e+00
    8.0557231074666023e-03 -1.2615061828870937e+00
    8.0175869717467388e-03 -1.2343258116980638e+00
    7.9772153216158444e-03 -1.2027886379635508e+00
    7.9650242401478645e-03 -1.1925227682370760e+00
    7.9177157975620707e-03 -1.1477402547212903e+00
    7.8564045590819327e-03 -1.0598811337226197e+00
    7.8431372549019607e-03 -1. 7.9772153216158426e-03
    -8.3140126904848932e-01 8.8361656702760066e-03
    -6.0771554350549706e-01 1.2237932254678884e-02
    -3.6256778547056945e-01 1.9210857375529002e-02
    -2.1343182831111576e-01 1.3904515941872198e-02
    -3.0895719032666230e-01 1.0063349814704935e-02
    -4.7915742374995485e-01 8.3146008161789336e-03
    -7.0820733715399609e-01 7.9900335655367100e-03
    -8.2428302706703915e-01 7.8448257739797116e-03
    -9.7946393169730095e-01 7.9005448941634072e-03
    -1.1285321907949182e+00 7.9835455144744490e-03
    -1.2079667518062689e+00 7.9772153216158444e-03
    -1.2027886379635508e+00 7.9591612932169032e-03
    -1.1874342087037915e+00 8.0892924466768653e-03
    -1.2838814775327392e+00 8.0981221370381648e-03
    -1.2895671465318763e+00 7.9966805816079137e-03
    -1.2184153981603427e+00 8.0806392520660405e-03
    -1.2782330700700730e+00 8.0638560960170115e-03
    -1.2670459365805982e+00 8.0477605588198976e-03
    -1.2560016349320058e+00 7.9710419116334023e-03
    -1.1976407785072429e+00 7.9650242401478645e-03
    -1.1925227682370760e+00 7.9132045352748297e-03
    -1.1428998624961768e+00 7.9223739526444702e-03
    -1.1526067913468743e+00 7.8928268245994863e-03
    -1.1190783925168648e+00 7.9177157975620707e-03
    -1.1477402547212903e+00 7.9966805816079137e-03
    -1.2184153981603427e+00 8.0323411494697856e-03
    -1.2450962012087865e+00 8.0104560966968285e-03
    -1.2289901003127188e+00 8.0806392520660405e-03
    -1.2782330700700730e+00 8.0892924466768653e-03
    -1.2838814775327392e+00 8.0175869717467388e-03
    -1.2343258116980638e+00 8.0104560966968285e-03
    -1.2289901003127188e+00 8.0248815650658320e-03
    -1.2396943596157717e+00 7.9710419116334023e-03
    -1.1976407785072429e+00 7.9710419116334023e-03
    -1.1976407785072429e+00 7.9591612932169032e-03
    -1.1874342087037915e+00 7.9132045352748297e-03
    -1.1428998624961768e+00 7.8730837582634133e-03
    -1.0912878130489183e+00 7.8513198361629833e-03
    -1.0467340511863761e+00 7.8966141201795900e-03
    -8.8984356003641996e-01 8.1352387870087250e-03
    -7.6179253662165736e-01 9.6009669261142676e-03
    -5.1809367167683007e-01 1.2535460043242401e-02
    -3.5148701760253331e-01 2.0152993360849608e-02
    -2.0257521334712936e-01 1.5528400276676457e-02
    -2.7110267288015016e-01 1.1878866652295700e-02
    -3.7706775887992577e-01 9.0690531998620285e-03
    -5.7575316994974701e-01 8.1071299378986852e-03
    -7.7202751898246813e-01 7.9088394317697753e-03
    -8.7866877919350928e-01 7.8434073446866370e-03
    -1.0083334774139159e+00 7.8651053506836356e-03
    -1.0776989271491715e+00 7.8564045590819327e-03
    -1.0598811337226197e+00 7.9046197789209953e-03
    -1.1332961614571273e+00 7.9900335655367100e-03
    -1.2131755321448219e+00 8.0034877015195093e-03
    -1.2236867762727806e+00 8.0638560960170115e-03
    -1.2670459365805982e+00 8.1449760319476875e-03
    -1.3185736094872988e+00 8.2412548689957659e-03
    -1.3733999945064004e+00 8.1256865412048553e-03
    -1.3068531549257270e+00 8.0557231074666023e-03
    -1.2615061828870937e+00 7.9835455144744490e-03
    -1.2079667518062689e+00 7.9900335655367100e-03
    -1.2131755321448219e+00 7.9177157975620707e-03
    -1.1477402547212903e+00 7.9710419116334023e-03
    -1.1976407785072429e+00 7.9650242401478645e-03
    -1.1925227682370760e+00 8.0399670328445208e-03
    -1.2505318017683689e+00 8.0638560960170115e-03
    -1.2670459365805982e+00 8.0557231074666023e-03
    -1.2615061828870937e+00 8.0892924466768653e-03
    -1.2838814775327392e+00 8.0721609796107867e-03
    -1.2726213959349038e+00 7.9835455144744490e-03
    -1.2079667518062689e+00 8.0892924466768653e-03
    -1.2838814775327392e+00 8.0248815650658320e-03
    -1.2396943596157717e+00 8.0323411494697856e-03
    -1.2450962012087865e+00 8.0323411494697856e-03
    -1.2450962012087865e+00 8.0104560966968285e-03
    -1.2289901003127188e+00 7.8856802621924092e-03
    -1.1097213530798986e+00 7.8513198361629833e-03
    -1.0467340511863761e+00 7.8528781015025639e-03
    -9.5138758659178890e-01 7.9710419116334023e-03
    -8.3497490895927484e-01 8.6943481484456197e-03
    -6.3015986009532721e-01 1.1265545627736505e-02
    -4.0527917258288587e-01 1.4917229730496889e-02
    -2.8410823428622706e-01 2.3351775858212472e-02
    -1.7295817388759030e-01 1.6232186094512453e-02
    -2.5762701996477233e-01 1.3904515941872198e-02
    -3.0895719032666230e-01 1.0703701362655142e-02
    -4.3603148600774633e-01 8.5677593899425811e-03
    -6.5271395186450532e-01 8.0034877015195110e-03
    -8.1720258761469455e-01 7.8823198528330286e-03
    -9.0491321381019840e-01 7.8442177814882098e-03
    -9.8353797017477174e-01 7.8437449961590577e-03
    -1.0125265843589555e+00 7.8513198361629833e-03
    -1.0467340511863761e+00 7.8928268245994863e-03
    -1.1190783925168648e+00 7.9088394317697736e-03
    -1.1380852759077831e+00 8.0034877015195093e-03
    -1.2236867762727806e+00 8.0892924466768653e-03
    -1.2838814775327392e+00 8.1650129036318873e-03
    -1.3304566669113038e+00 8.1965031117935388e-03
    -1.3485968449808849e+00 8.1650129036318873e-03
    -1.3304566669113038e+00 8.0638560960170115e-03
    -1.2670459365805982e+00 8.0477605588198976e-03
    -1.2560016349320058e+00 7.9966805816079137e-03
    -1.2184153981603427e+00 7.9772153216158444e-03
    -1.2027886379635508e+00 7.9900335655367100e-03
    -1.2131755321448219e+00 8.0248815650658320e-03
    -1.2396943596157717e+00 8.0034877015195093e-03
    -1.2236867762727806e+00 8.0806392520660405e-03
    -1.2782330700700730e+00 8.0104560966968285e-03
    -1.2289901003127188e+00 8.0248815650658320e-03
    -1.2396943596157717e+00 8.1449760319476875e-03
    -1.3185736094872988e+00 8.1163175060432000e-03
    -1.3010524317519250e+00 8.0721609796107867e-03
    -1.2726213959349038e+00 8.0557231074666023e-03
    -1.2615061828870937e+00 7.9835455144744490e-03
    -1.2079667518062689e+00 7.9132045352748297e-03
    -1.1428998624961768e+00 7.8545729209664079e-03
    -1.0554786059979135e+00 7.8455690679377667e-03
    -9.7540607136134994e-01 7.9478956664901339e-03
    -8.4936951406827133e-01 8.1650129036318873e-03
    -7.5162162351482753e-01 9.7071082674982431e-03
    -5.0841483031741319e-01 1.2749205889142861e-02
    -3.4399050329523423e-01 1.5528400276676457e-02
    -2.7110267288015016e-01 2.8970436093877221e-02
    -1.3794014696151083e-01 1.8789559624460602e-02
    -2.1869176243407462e-01 1.4730788370616182e-02
    -2.8835059808457192e-01 1.1481064373176371e-02
    -3.9481046055061897e-01 9.3743074482191407e-03
    -5.4057857992375724e-01 8.3958975862810578e-03
    -6.8848102094970709e-01 8.0399670328445208e-03
    -7.9965979160698408e-01 7.9271797607616910e-03
    -8.6393102247471287e-01 7.8823198528330286e-03
    -9.0491321381019840e-01 7.8464477787058180e-03
    -9.7136418870409991e-01 7.8464477787058180e-03
    -1.0294799948658837e+00 7.8791006362973447e-03
    -1.1004586199907411e+00 7.9424911066384146e-03
    -1.1723413480950000e+00 8.0323411494697856e-03
    -1.2450962012087865e+00 8.1163175060432000e-03
    -1.3010524317519250e+00 8.0892924466768653e-03
    -1.2838814775327392e+00 8.0806392520660405e-03
    -1.2782330700700730e+00 8.0175869717467388e-03
    -1.2343258116980638e+00 7.9710419116334023e-03
    -1.1976407785072429e+00 7.9772153216158444e-03
    -1.2027886379635508e+00 7.9966805816079137e-03
    -1.2184153981603427e+00 8.0175869717467388e-03
    -1.2343258116980638e+00 8.0806392520660405e-03
    -1.2782330700700730e+00 8.0248815650658320e-03
    -1.2396943596157717e+00 8.0323411494697856e-03
    -1.2450962012087865e+00 7.9650242401478645e-03
    -1.1925227682370760e+00 7.9966805816079137e-03
    -1.2184153981603427e+00 8.0399670328445208e-03
    -1.2505318017683689e+00 8.0323411494697856e-03
    -1.2450962012087865e+00 7.9966805816079137e-03
    -1.2184153981603427e+00 7.9478956664901339e-03
    -1.1773438808867127e+00 7.8891823997125857e-03
    -1.1143879329552517e+00 7.8434073446866370e-03
    -1.0083334774139159e+00 7.8564045590819309e-03
    -9.4350202884327294e-01 7.9088394317697753e-03
    -8.7866877919350928e-01 8.1352387870087250e-03
    -7.6179253662165736e-01 8.6943481484456197e-03
    -6.3015986009532721e-01 1.1407440828436224e-02
    -3.9831375340784575e-01 1.4552029767298743e-02
    -2.9255014200233365e-01 1.8789559624460602e-02
    -2.1869176243407462e-01 3.2780157279264768e-02
    -1.2139539573337679e-01 2.2584099991729823e-02
    -1.7922029557752400e-01 1.5751633986928103e-02
    -2.6666666666666666e-01 1.2976718078550506e-02
    -3.3639853193254887e-01 1.1335623375309516e-02
    -4.0180316466216404e-01 9.4362477559322040e-03
    -5.3416601664027008e-01 8.4548204128691035e-03
    -6.7542087136415940e-01 8.2184768606671128e-03
    -7.3480344462748792e-01 7.9177157975620707e-03
    -8.7127727365703789e-01 7.9005448941634072e-03
    -8.8610675721675070e-01 7.8528781015025639e-03
    -9.5138758659178890e-01 7.8437449961590595e-03
    -9.8762838966160438e-01 7.8604794579861473e-03
    -1.0687479694587596e+00 7.9271797607616910e-03
    -1.1574998165195185e+00 7.9650242401478645e-03
    -1.1925227682370760e+00 8.0104560966968285e-03
    -1.2289901003127188e+00 8.0477605588198976e-03
    -1.2560016349320058e+00 8.0477605588198976e-03
    -1.2560016349320058e+00 8.0323411494697856e-03
    -1.2450962012087865e+00 7.9966805816079137e-03
    -1.2184153981603427e+00 7.9591612932169032e-03
    -1.1874342087037915e+00 7.9650242401478645e-03
    -1.1925227682370760e+00 7.9966805816079137e-03
    -1.2184153981603427e+00 7.9772153216158444e-03
    -1.2027886379635508e+00 7.9591612932169032e-03
    -1.1874342087037915e+00 7.9424911066384146e-03
    -1.1723413480950000e+00 7.9321340087334484e-03
    -1.1624196798898074e+00 7.9424911066384146e-03
    -1.1723413480950000e+00 7.9177157975620707e-03
    -1.1477402547212903e+00 7.8702851433304754e-03
    -1.0867361570837342e+00 7.8464477787058180e-03
    -1.0294799948658837e+00 7.8442177814882098e-03
    -1.0167375641047218e+00 7.9177157975620707e-03
    -8.7127727365703789e-01 7.9478956664901339e-03
    -8.4936951406827133e-01 8.0806392520660422e-03
    -7.8232993920676730e-01 8.6383299217520724e-03
    -6.3980991329159542e-01 1.0020693598048969e-02
    -4.8242779033760647e-01 1.3757526875827592e-02
    -3.1296946513163804e-01 1.5751633986928103e-02
    -2.6666666666666666e-01 2.0152993360849608e-02
    -2.0257521334712936e-01 3.5369405185136052e-02
    -1.1227217828476796e-01 2.7512867617105738e-02
    -1.4555562743489550e-01 1.7053725860463369e-02
    -2.4359938288234503e-01 1.5111900104322193e-02
    -2.7982097184870452e-01 1.3757526875827592e-02
    -3.1296946513163804e-01 1.2237932254678884e-02
    -3.6256778547056945e-01 9.7811659181766524e-03
    -5.0194427175539313e-01 8.7136348020146696e-03
    -6.2694783181300573e-01 8.1650129036318873e-03
    -7.5162162351482753e-01 8.0477605588198976e-03
    -7.9617730756706806e-01 7.9478956664901339e-03
    -8.4936951406827133e-01 7.9005448941634072e-03
    -8.8610675721675070e-01 7.8442177814882098e-03
    -9.8353797017477174e-01 7.8464477787058180e-03
    -1.0294799948658837e+00 7.8583733020732918e-03
    -1.0643041683803827e+00 7.9088394317697736e-03
    -1.1380852759077831e+00 7.9835455144744490e-03
    -1.2079667518062689e+00 8.0104560966968285e-03
    -1.2289901003127188e+00 7.9534520868415927e-03
    -1.1823747080552578e+00 7.9591612932169032e-03
    -1.1874342087037915e+00 7.9900335655367100e-03
    -1.2131755321448219e+00 7.9591612932169032e-03
    -1.1874342087037915e+00 7.9271797607616910e-03
    -1.1574998165195185e+00 7.9223739526444702e-03
    -1.1526067913468743e+00 7.8966141201795917e-03
    -1.1237930406093759e+00 7.8791006362973447e-03
    -1.1004586199907411e+00 7.8604794579861473e-03
    -1.0687479694587596e+00 7.8486120175495413e-03
    -1.0380684981717494e+00 7.8455690679377684e-03
    -1.0252140409627808e+00 7.8455690679377684e-03
    -1.0252140409627808e+00 7.8474620427162987e-03
    -9.6733808561823420e-01 7.8856802621924110e-03
    -9.0112711377916599e-01 8.0806392520660422e-03
    -7.8232993920676730e-01 8.3275822461229502e-03
    -7.0490737685024141e-01 8.9478303896319503e-03
    -5.9172633541393860e-01 1.0106844393634691e-02
    -4.7588139733099444e-01 1.2433348114332672e-02
    -3.5520166708373629e-01 1.4730788370616182e-02
    -2.8835059808457192e-01 1.9210857375529002e-02
    -2.1343182831111576e-01 2.3351775858212472e-02
    -1.7295817388759030e-01 4.9863007981955788e-02
    -7.9139421382149744e-02 2.5169077951216683e-02
    -1.5978709238739222e-01 2.0152993360849608e-02
    -2.0257521334712936e-01 1.8396558974664298e-02
    -2.2385024561495043e-01 1.7053725860463369e-02
    -2.4359938288234503e-01 1.4552029767298743e-02
    -2.9255014200233365e-01 1.2334216735870663e-02
    -3.5889499942030301e-01 1.0386790301938289e-02
    -4.5609215091395000e-01 8.9247608248684794e-03
    -5.9492233465357724e-01 8.3018400446686225e-03
    -7.1151247353788549e-01 8.0981221370381631e-03
    -7.7545399841285567e-01 7.9966805816079154e-03
    -8.2073815014967544e-01 7.9005448941634072e-03
    -8.8610675721675070e-01 7.8528781015025639e-03
    -9.5138758659178890e-01 7.8464477787058180e-03
    -9.7136418870409991e-01 7.8791006362973447e-03
    -1.1004586199907411e+00 7.9046197789209953e-03
    -1.1332961614571273e+00 7.9321340087334484e-03
    -1.1624196798898074e+00 7.9223739526444702e-03
    -1.1526067913468743e+00 7.9321340087334484e-03
    -1.1624196798898074e+00 7.9223739526444702e-03
    -1.1526067913468743e+00 7.9372375103268968e-03
    -1.1673667367366676e+00 7.9177157975620707e-03
    -1.1477402547212903e+00 7.8928268245994863e-03
    -1.1190783925168648e+00 7.8730837582634133e-03
    -1.0912878130489183e+00 7.8442177814882098e-03
    -1.0167375641047218e+00 7.8434073446866370e-03
    -1.0083334774139159e+00 7.8455690679377667e-03
    -9.7540607136134994e-01 7.8455690679377667e-03
    -9.7540607136134994e-01 7.8823198528330286e-03
    -9.0491321381019840e-01 7.9046197789209953e-03
    -8.8238188216772639e-01 8.0477605588198976e-03
    -7.9617730756706806e-01 8.5177676071842758e-03
    -6.6242431277033731e-01 9.5668428587449283e-03
    -5.2131354291480403e-01 1.0436861876093339e-02
    -4.5276925690687075e-01 1.1795080042165704e-02
    -3.8064827812424795e-01 1.3096081657760793e-02
    -3.3256439728421594e-01 1.7053725860463369e-02
    -2.4359938288234503e-01 1.8396558974664298e-02
    -2.2385024561495043e-01 2.4207434214195384e-02
    -1.6648888883829399e-01 4.3227778138380364e-02
    -9.1477870749269649e-02 3.2780157279264768e-02
    -1.2139539573337679e-01 2.5169077951216683e-02
    -1.5978709238739222e-01 2.1890410619904144e-02
    -1.8529642184483178e-01 1.9663955023228572e-02
    -2.0806259464411975e-01 1.7683928628034837e-02
    -2.3389013486249394e-01 1.5111900104322193e-02
    -2.7982097184870452e-01 1.3615809430380727e-02
    -3.1694892491467169e-01 1.0703701362655142e-02
    -4.3603148600774633e-01 9.4050082091760943e-03
    -5.3737329062387895e-01 8.6943481484456197e-03
    -6.3015986009532721e-01 8.3407870727806119e-03
    -7.0161247275080896e-01 8.1352387870087250e-03
    -7.6179253662165736e-01 7.9534520868415927e-03
    -8.4575557408934821e-01 7.9046197789209953e-03
    -8.8238188216772639e-01 7.8545729209664079e-03
    -9.4743748884852075e-01 7.8474620427162987e-03
    -1.0337647352744219e+00 7.8564045590819327e-03
    -1.0598811337226197e+00 7.8627233568222040e-03
    -1.0732128000940515e+00 7.8856802621924092e-03
    -1.1097213530798986e+00 7.8730837582634133e-03
    -1.0912878130489183e+00 7.8760221008769681e-03
    -1.0958618717745101e+00 7.8702851433304754e-03
    -1.0867361570837342e+00 7.8583733020732918e-03
    -1.0643041683803827e+00 7.8437449961590577e-03
    -1.0125265843589555e+00 7.8432047747323246e-03
    -1.0041580220928044e+00 7.8474620427162987e-03
    -9.6733808561823420e-01 7.8702851433304754e-03
    -9.2018655446553721e-01 7.9005448941634072e-03
    -8.8610675721675070e-01 8.0638560960170115e-03
    -7.8923736790373966e-01 8.2529511117829767e-03
    -7.2478717958874150e-01 8.7332368006893119e-03
    -6.2373791880441820e-01 9.4362477559322040e-03
    -5.3416601664027008e-01 1.0487987523728131e-02
    -4.4943855249503017e-01 1.1556564031247937e-02
    -3.9129279043561477e-01 1.3904515941872198e-02
    -3.0895719032666230e-01 1.6232186094512453e-02
    -2.5762701996477233e-01 1.9663955023228572e-02
    -2.0806259464411975e-01 2.2584099991729823e-02
    -1.7922029557752400e-01 2.6260322884237949e-02
    -1.5282200350682043e-01 3.5369405185136052e-02
    -1.1227217828476796e-01 3.5369405185136052e-02
    -1.1227217828476796e-01 3.5369405185136052e-02
    -1.1227217828476796e-01 3.0695357332010401e-02
    -1.2991396049232617e-01 2.5169077951216683e-02
    -1.5978709238739222e-01 2.1890410619904144e-02
    -1.8529642184483178e-01 1.8028869616243164e-02
    -2.2891427811495468e-01 1.6491446790002237e-02
    -2.5301711413291816e-01 1.5528400276676457e-02
    -2.7110267288015016e-01 1.2640695162501716e-02
    -3.4775024451197667e-01 9.9788533585325537e-03
    -4.8569273815596203e-01 9.2007854891460687e-03
    -5.5977807981163585e-01 8.6383299217520724e-03
    -6.3980991329159542e-01 8.4397210762231101e-03
    -6.7867964505063849e-01 8.2184768606671128e-03
    -7.3480344462748792e-01 8.0477605588198976e-03
    -7.9617730756706806e-01 7.9710419116334023e-03
    -8.3497490895927484e-01 7.8676258139275309e-03
    -9.2403796125816917e-01 7.8437449961590595e-03
    -9.8762838966160438e-01 7.8486120175495413e-03
    -9.6332756630338356e-01 7.8464477787058180e-03
    -9.7136418870409991e-01 7.8448257739797116e-03
    -9.7946393169730095e-01 7.8464477787058180e-03
    -9.7136418870409991e-01 7.8545729209664079e-03
    -9.4743748884852075e-01 7.8583733020732918e-03
    -9.3958102364830665e-01 7.8627233568222040e-03
    -9.3178165589561057e-01 7.9132045352748297e-03
    -8.7496729399890472e-01 8.0034877015195110e-03
    -8.1720258761469455e-01 8.2648553035345532e-03
    -7.2146013878883053e-01 8.4701711609820561e-03
    -6.7216607242233128e-01 8.9951224096633999e-03
    -5.8533612941720448e-01 9.8580172246614996e-03
    -4.9545740096976104e-01 1.1065136416827832e-02
    -4.1563131706777579e-01 1.1878866652295700e-02
    -3.7706775887992577e-01 1.3904515941872198e-02
    -3.0895719032666230e-01 1.8028869616243164e-02
    -2.2891427811495468e-01 2.1259640711985221e-02
    -1.9120444499264716e-01 2.4207434214195384e-02
    -1.6648888883829399e-01 3.2780157279264768e-02
    -1.2139539573337679e-01 3.5369405185136052e-02
    -1.1227217828476796e-01 6.1005816106927291e-02
    -6.4549722436790288e-02 4.9863007981955788e-02
    -7.9139421382149744e-02 4.3227778138380364e-02
    -9.1477870749269649e-02 4.3227778138380364e-02
    -9.1477870749269649e-02 3.2780157279264768e-02
    -1.2139539573337679e-01 2.7512867617105738e-02
    -1.4555562743489550e-01 2.3351775858212472e-02
    -1.7295817388759030e-01 2.1259640711985221e-02
    -1.9120444499264716e-01 1.9210857375529002e-02
    -2.1343182831111576e-01 1.7359521996796613e-02
    -2.3878346647045964e-01 1.3904515941872198e-02
    -3.0895719032666230e-01 1.1130360471894181e-02
    -4.1219281000686953e-01 9.9788533585325537e-03
    -4.8569273815596203e-01 8.9712818669171381e-03
    -5.8853098056414921e-01 8.5508227935974183e-03
    -6.5594745392793474e-01 8.2529511117829767e-03
    -7.2478717958874150e-01 8.2184768606671128e-03
    -7.3480344462748792e-01 8.0557231074666041e-03
    -7.9270320951689011e-01 8.0399670328445208e-03
    -7.9965979160698408e-01 8.0638560960170115e-03
    -7.8923736790373966e-01 7.9835455144744490e-03
    -8.2783735438471562e-01 8.0399670328445208e-03
    -7.9965979160698408e-01 8.0638560960170115e-03
    -7.8923736790373966e-01 8.0248815650658320e-03
    -8.0665043947601567e-01 8.0248815650658320e-03
    -8.0665043947601567e-01 8.0638560960170115e-03
    -7.8923736790373966e-01 8.2892972610476012e-03
    -7.1482290592415676e-01 8.5177676071842758e-03
    -6.6242431277033731e-01 8.9712818669171381e-03
    -5.8853098056414921e-01 9.8192335302223158e-03
    -4.9870298095402960e-01 1.1065136416827832e-02
    -4.1563131706777579e-01 1.1634013719157184e-02
    -3.8776022904203350e-01 1.4917229730496889e-02
    -2.8410823428622706e-01 1.6491446790002237e-02
    -2.5301711413291816e-01 1.9210857375529002e-02
    -2.1343182831111576e-01 2.1890410619904144e-02
    -1.8529642184483178e-01 3.0695357332010401e-02
    -1.2991396049232617e-01 2.8970436093877221e-02
    -1.3794014696151083e-01 3.5369405185136052e-02
    -1.1227217828476796e-01 4.9863007981955788e-02
    -7.9139421382149744e-02 8.6185522645961035e-02
    -4.5596075258755323e-02 6.1005816106927291e-02
    -6.4549722436790288e-02 4.9863007981955788e-02
    -7.9139421382149744e-02 4.9863007981955788e-02
    -7.9139421382149744e-02 4.3227778138380364e-02
    -9.1477870749269649e-02 4.3227778138380364e-02
    -9.1477870749269649e-02 3.2780157279264768e-02
    -1.2139539573337679e-01 2.8970436093877221e-02
    -1.3794014696151083e-01 2.5169077951216683e-02
    -1.5978709238739222e-01 2.1890410619904144e-02
    -1.8529642184483178e-01 1.9210857375529002e-02
    -2.1343182831111576e-01 1.5315401703536435e-02
    -2.7548658250966990e-01 1.4552029767298743e-02
    -2.9255014200233365e-01 1.3096081657760793e-02
    -3.3256439728421594e-01 1.0386790301938289e-02
    -4.5609215091395000e-01 9.2853223306832398e-03
    -5.5018424432430157e-01 9.1735476361259494e-03
    -5.6297414746183738e-01 8.7939880276875094e-03
    -6.1411957886299084e-01 8.7531593871154664e-03
    -6.2052999223596572e-01 8.7531593871154664e-03
    -6.2052999223596572e-01 8.6024711952572518e-03
    -6.4625618668104801e-01 8.6753717384471362e-03
    -6.3337413169285217e-01 8.6567006070945567e-03
    -6.3659077389723351e-01 8.7734079497382988e-03
    -6.1732392243853607e-01 8.9020662250164032e-03
    -5.9811911762895487e-01 9.2566629996137049e-03
    -5.5338328699972805e-01 9.3441337300018273e-03
    -5.4378205627915199e-01 1.0242595907956051e-02
    -4.6601686361302114e-01 1.1878866652295700e-02
    -3.7706775887992577e-01 1.3219447376570229e-02
    -3.2870347885517465e-01 1.3904515941872198e-02
    -3.0895719032666230e-01 1.5528400276676457e-02
    -2.7110267288015016e-01 2.0682908705354990e-02
    -1.9695964928958382e-01 2.4207434214195384e-02
    -1.6648888883829399e-01 2.6260322884237949e-02
    -1.5282200350682043e-01 3.0695357332010401e-02
    -1.2991396049232617e-01 4.9863007981955788e-02
    -7.9139421382149744e-02 6.1005816106927291e-02
    -6.4549722436790288e-02 4.9863007981955788e-02
    -7.9139421382149744e-02 6.1005816106927291e-02
    -6.4549722436790288e-02</input_scale>
  <output_scale>
    1.0526315789473684e+00 0. 1.0526315789473684e+00 0.
    1.0526315789473684e+00 0. 1.0526315789473684e+00 0.
    1.0526315789473684e+00 0. 1.0526315789473684e+00 0.
    1.0526315789473684e+00 0. 1.0526315789473684e+00 0.</output_scale>
  <inv_output_scale>
    9.4999999999999996e-01 0. 9.4999999999999996e-01 0.
    9.4999999999999996e-01 0. 9.4999999999999996e-01 0.
    9.4999999999999996e-01 0. 9.4999999999999996e-01 0.
    9.4999999999999996e-01 0. 9.4999999999999996e-01 0.</inv_output_scale>
  <weights>
    <_>
      6.5292469630504479e-01 1.4823594508201480e-04
      2.2620270368567939e-03 -1.4227828184056945e-02
      -5.8763661792208995e-03 -2.1223255434842975e-03
      2.3000947522977453e-03 -1.1613083044874043e-02
      -4.8728417780821032e-03 3.7994175336433927e-03
      -2.6424663200065221e-03 1.3034103536020200e-02
      4.4143736173149034e-01 9.4114955520387851e-03
      2.0702672104517268e-02 5.6806760261288889e-03
      -2.2395002173618466e-03 1.0215618466094794e-03
      -7.8685796306631681e-03 2.8418808548883923e-01
      -1.6874349525789790e-02 -4.2030759044652160e-03
      -7.6955774782713473e-03 -1.1566561729214234e-02
      -1.1641965713942269e-02 -1.3420684228925233e-02
      5.0203470914649464e-03 3.9841101731641756e-03
      -1.5355205519109638e-01 2.6196975079588597e-03
      3.4721805132548371e-03 -9.1627382852849451e-03
      1.0962827019272755e-02 1.1923541380097800e-02
      4.7712426566795564e-03 2.7751932905928728e-01
      1.3426473195798934e-02 -6.2523299979984123e-03
      -2.5271439655867580e-03 -1.2841265370305820e-02
      -4.2393380898799243e-03 1.4523182662632567e-01
      1.1387655671801247e-02 7.8822037231943837e-03
      1.6016614954470671e-02 -1.5154906720027115e-02
      3.5258085846281736e-03 -5.0252448236971142e-02
      -3.9694560679941017e-02 -4.3494878399530593e-03
      1.8760066397380822e-02 -1.9247880388255088e-03
      -2.0476504982029683e-01 1.0125670908038911e-02
      2.2910252036503490e-02 1.1757658785781720e-02
      -2.6286178007143914e-02 4.0115936247629672e-02
      -5.3560605307599834e-04 -2.4710435616347537e-01
      1.8240328545750147e-02 1.0986668226481845e-02
      7.3617156241414898e-03 -7.7979050599372712e-03
      1.9089911692000397e-01 1.0006095051666778e-03
      -1.2360065806494723e-04 -4.9757563455631135e-04
      -3.1665114341106415e-04 -4.9687487376696255e-04
      -9.8762003860938287e-04 -1.0769257782646255e-03
      1.9359174674622143e-04 9.8586789727321479e-04
      -7.3920520149686904e-04 -6.3182507461667333e-04
      1.0794726090193596e-03 4.8214789913359374e-04
      2.1184138457599726e-04 -3.8977060393565811e-04
      6.4704591712820038e-04 2.4452936821907291e-04
      4.6472065437268360e-04 -9.6586410568878041e-04
      8.2293464666079782e-04 2.2430587666467870e-04
      8.4825599294464699e-04 -7.2543137497211696e-05
      1.0828974942914031e-03 3.4743642921141848e-04
      -9.1098391826197078e-04 1.5632775441477826e-04
      -7.2524719171971122e-04 5.5114414791656468e-04
      -3.8909677334856576e-04 2.7751273856124211e-04
      3.7614084320229739e-04 -1.2061696358276470e-03
      4.7243463006980127e-04 8.5200329999364827e-05
      -7.4882263126855596e-05 8.7812126981127471e-04
      -4.0478971282841437e-04 -8.1164896676020747e-04
      -5.9889546840852703e-04 -9.6869938194263903e-04
      5.4845954489919765e-04 -3.5151326718480593e-04
      1.2757530625120714e-04 8.0289572434436474e-04
      8.0756189165129679e-04 5.1588622936273195e-04
      6.8498369826214657e-04 1.9909252090167354e-04
      -1.0299355437946417e-05 -1.2199850388405046e-03
      -7.8077855461976525e-04 -1.1784779583108092e-03
      3.0912210147561312e-04 -5.3897053258262497e-04
      7.2912197186787025e-04 1.0433566386781715e-04
      8.8845614593938203e-04 -7.4666239563665119e-04
      6.2005037412950529e-04 6.2820625393696181e-04
      8.6639526715996435e-04 9.3826966354388264e-04
      1.0725608088665410e-03 -1.1364791960665791e-03
      1.0906099374887938e-03 -1.0560490699896210e-05
      -1.0372453125659920e-04 -8.6064993264560788e-04
      3.5919193228786201e-04 1.0929916721984258e-03
      1.8913373616721725e-05 -2.9888719748348607e-04
      -4.8426694349722660e-04 -5.0351636668221451e-04
      -8.9668525312921890e-04 -1.0302480531634468e-03
      4.2486627347626055e-04 -7.0792362748296116e-04
      6.5129636344593469e-04 -1.0372745478373054e-03
      8.5661756484744448e-04 8.6823956786471145e-04
      -9.4041216101263883e-04 6.6652097127643882e-04
      7.1501741133838640e-04 8.3487644317749917e-04
      -7.3971190318808519e-04 8.8933038218103402e-04
      -3.6106061635133668e-04 1.1444187352002799e-03
      -1.2893897388449141e-04 -8.2547018330145704e-04
      1.0776384375908309e-03 -5.0722735901636217e-04
      1.2059494435995750e-03 -6.2875456763105948e-04
      -1.0426101017564574e-03 -1.0207444377494680e-03
      7.5934285524509640e-04 1.1999284042292994e-03
      -1.0236523168718947e-03 1.9829300411200240e-04
      -1.0765903027175699e-03 3.9913617957647752e-04
      -7.9068066101427629e-04 1.1932808083434574e-03
      1.1099438445871339e-03 -5.2651712299800978e-04
      4.4926739195810626e-04 -3.4178346129960330e-04
      1.8475054905428890e-04 1.0272149879046754e-03
      1.0463511121839406e-03 -1.0357919666466727e-03
      3.2315253866313178e-04 9.4072296843817043e-04
      -3.0234642404523528e-04 -4.0596949865600484e-04
      -8.7962103976225330e-04 -1.1375889380219825e-03
      -1.6053869400644254e-04 -7.1891618331583463e-04
      -5.6700799585742930e-04 -4.0035959844029079e-04
      -6.9813320602107030e-04 2.3331815079280610e-04
      -2.8563015981662108e-04 4.8955453013246593e-04
      -9.0670182440556171e-04 -5.6608375907186883e-04
      9.8280077323760939e-04 5.8674145612284837e-04
      -2.3404810589499834e-05 5.1210201631407039e-04
      -3.6144653169046793e-04 1.0328318839991015e-03
      -7.3189054801951596e-04 3.4695438364743398e-04
      -4.4022363701253322e-04 1.6853111414949609e-04
      5.4427262316709827e-04 4.0928371062340927e-04
      -5.0198130336476655e-04 -5.3837339186742325e-04
      5.4130025805742177e-04 7.2451646606574787e-04
      7.2928225531841261e-04 -8.9596085780997226e-04
      -1.0633593111381934e-03 4.7189397411756106e-04
      -4.9248951343733988e-04 9.9480067882329781e-04
      -2.5035076196965137e-04 1.2025051274339787e-03
      7.9488783461768411e-05 -2.3343960668910767e-04
      -8.4511454584403696e-04 1.2165178234286608e-03
      4.8608291870555205e-04 8.1330602239910749e-04
      1.0184280383176761e-03 1.0704245511725459e-03
      -7.2497964613305542e-04 4.9328224232276271e-04
      1.8830881034114335e-04 9.4414942372186774e-04
      6.1239348253836216e-04 8.3569334300787762e-04
      -7.7516820246783386e-04 -3.2422684609855905e-04
      5.0236804272263717e-04 -4.1733836523859355e-04
      3.3271202224757985e-04 4.5671511297361062e-04
      -3.8594513718341519e-04 -6.3878573213830257e-04
      9.3410495336349985e-04 9.7690240825605993e-05
      -7.8096823192172428e-04 1.1382202666471520e-03
      -2.1371611032366727e-04 1.7154484712971553e-04
      -1.2388628978558726e-03 5.5433678658654048e-04
      9.0057802301922734e-04 2.9707855108587999e-04
      4.6358865596423293e-04 -5.7482281660190980e-04
      1.0635178306120715e-03 -6.9403502946493360e-04
      -3.0113801045332674e-04 8.6819806796279786e-04
      -5.9061615683331952e-04 3.3544265736056342e-04
      -2.6543783693281369e+00 2.7314418485942666e-04
      4.6780172073289418e-03 -1.1496589820512873e-02
      -8.1921941262273895e-02 2.6331527540659223e-02
      -6.4296717410240997e-02 -1.8031314551866753e-02
      -9.0458313393526169e-02 2.7048844133434315e-02
      -6.0246159859052911e-03 5.8089187905188688e-02
      -3.3991400839680462e-02 -1.9282636444865550e-01
      2.5502302073460260e-02 -5.1623180190093633e-02
      -3.1766842811004482e-02 1.9156347517189831e-01
      8.1291785480741077e-02 -2.5923449817233261e-02
      2.7362761672675647e-02 3.6519494532855905e-02
      -1.9207693688655672e-01 -1.7823623416448824e-02
      -1.1472071320325265e-02 -1.3272170797999203e-01
      -2.9186449391094198e-03 -7.9313318202371710e-02
      -2.2519644483577905e-01 1.5864828777667937e-03
      8.0905246228991090e-03 -1.1159777103563721e-02
      1.8022333939097721e-02 1.1416133271980012e-02
      4.1153011666103557e-03 -2.1389114566518930e-02
      -4.8201456949697997e-02 -3.0172189819943424e-02
      1.2368488150458970e-01 -7.2330034857491657e-03
      -1.8738649449763675e-01 -3.9139699717413476e-02
      5.6388067422347234e-02 1.0146533918679716e-01
      1.3391253197604508e-02 -6.3746717071553646e-02
      1.8960614762602840e-01 -4.7117546169252338e-02
      -9.3886169115915102e-02 -2.5503253116146915e-02
      -8.4944367458991227e-02 -4.6520145753538134e-02
      -4.3404406854104190e-02 7.9981225633407871e-03
      -8.8012266319298527e-03 1.8449437016693798e-02
      5.3633153093348339e-02 -2.3284144500202133e-02
      5.2728681979443208e-05 1.2939051231013458e-02
      2.7951600942664436e-02 1.2589156951378612e-02
      1.3301774480763331e-02 -9.5848323489036314e-03
      5.8969588701248098e-02 -1.9083054067289416e+00
      -7.6331521595985675e-04 6.5783253894410049e-03
      -3.9570259537052305e-03 -6.1837113404859437e-02
      1.8479095973920553e-02 -5.2165004175025981e-02
      -2.1934620260019442e-02 -7.6306808256268135e-02
      1.3717296618999944e-01 -7.1992076816579376e-03
      5.4574640784750668e-02 -1.4034298164641529e-01
      -1.5221466382092366e-01 3.3860630479268176e-02
      -3.7950608275296928e-02 -2.8378293869803287e-02
      1.5454997634050982e-01 5.8966583237539109e-02
      -5.3328023713485370e-02 1.2289043899834038e-02
      2.9100183168661052e-02 -1.5982682468756668e-01
      -3.0050495013338088e-02 -1.7332758888551791e-02
      -1.1663431018324349e-01 9.9812527507627979e-02
      -6.3573941176897811e-02 -2.1598633523739619e-01
      3.2396851324584769e-03 -1.1836211171023002e-02
      -1.4173239494066904e-02 2.2838741425939234e-02
      1.6601645695710907e-02 6.6302431939840546e-03
      -1.4843953779795940e-01 -3.1318836175626974e-02
      -2.7001436113078366e-02 9.9969955570577682e-02
      -1.4553407136275219e-02 -1.5578836769949220e-01
      1.7281032254315976e-02 3.8628992197755112e-02
      8.6634916695836797e-02 -3.5428561491693308e-02
      -5.9690297800415196e-02 1.5816065680906957e-01
      -4.1786506856661694e-02 -8.1830510152024860e-02
      -2.0872593837366615e-02 -6.0380809473585290e-02
      -3.9753439403374141e-02 -5.8633363919003499e-02
      1.2764004730141677e-02 -2.6935131746335290e-02
      6.7283233485978602e-02 4.3077871806676070e-02
      -1.9521999189130414e-02 -6.7435997881234620e-04
      9.2377094927238668e-02 3.4595277120507334e-02
      1.6739046483522337e-02 1.5346911484848213e-02
      -1.4113727988787250e-02 1.3177966009273523e-01
      2.4452686250608089e+00 3.9691427520363251e-04
      6.6866537234854676e-03 2.0707280066572603e-02
      -1.2583178547904617e-01 -7.5607553246784974e-03
      -5.0546983447162151e-02 6.2838130772468276e-02
      -7.4980116457365673e-02 -8.0456786313634870e-02
      1.2207646624074668e-02 5.4378895389690436e-02
      -1.5467220008344201e-02 -1.5089553111750803e-01
      6.5260712954889985e-02 1.2185684440935415e-02
      -3.2025717632238333e-02 1.5304208626599350e-01
      6.2240069153369583e-02 -2.9522908927348941e-02
      1.3025454997813646e-02 3.4555916868620050e-02
      -1.7778502370746328e-02 -1.5711683517744209e-02
      -1.7325351242178582e-02 -1.1475942974879148e-01
      -1.8491952501628195e-01 -6.2001549187424634e-02
      2.4306125680933452e-01 3.5065876682818390e-03
      5.6265860185198161e-03 -1.4813210713770283e-02
      8.2907704882298049e-03 1.5234377034482841e-02
      6.9994900376880538e-03 -1.1034567734837790e-01
      -3.0686282510073354e-02 8.2592682068056728e-02
      9.7721250122873388e-02 -1.2117088344362677e-02
      -1.5521293163143804e-01 -1.4049025682338162e-01
      1.7603165467628711e-02 9.4977894055992107e-02
      3.3401092650793184e-02 -5.9062643100441140e-02
      1.5662261436147393e-01 -2.7809484761823116e-03
      -9.9320937503728737e-02 -2.6642260751191232e-02
      -5.9175095739487885e-02 -3.9652907256125171e-02
      1.0807709481317733e-02 1.7476496404623391e-02
      -1.7805751342629152e-02 2.1633512750022243e-02
      4.2817248314006948e-02 -1.9388822728049582e-02
      2.1161760548525704e-03 -1.1915008433434464e-01
      3.3440299542669048e-02 1.8098373365577822e-02
      3.5403924574742784e-02 -1.3418870921306295e-02
      1.2268222375120504e-01 3.4221853042989758e-01
      -1.2233018234861456e-01 -8.5829936657649514e-02
      1.8344372800948094e-01 -1.2531307946198722e-01
      -1.2874717906873889e-01 -1.0699512067240430e-01
      1.1254960434195409e-01 -1.1256605016661775e-01
      -5.7101248449227347e-03 8.2628078619644552e-02
      -8.3151855645007542e-04 -1.9136188661517343e-02
      -2.3094779898413711e-01 -1.8993901594886906e-01
      -1.2353456638048473e-01 -4.1518188096242555e-03
      1.9179053286775008e-01 -1.1276269049203912e-01
      -1.3793022867543251e-02 6.2040320339480953e-02
      1.2999339090043386e-02 2.1871268891860243e-01
      1.3131746421818288e-01 7.7585292061805006e-02
      -1.7292188290981522e-01 -8.3075042322018386e-02
      -5.5304139800828725e-02 1.3623532873985494e-01
      5.3728926664112872e-02 9.1264897472100509e-02
      3.0012553806351044e-01 3.1841897036090930e-02
      -8.9703448434619956e-02 5.6169886765932049e-02
      -1.5904615603731953e-01 -7.6549690685662836e-02
      -2.2984325728398310e-02 1.5538107058192110e-01
      -4.6158292197805165e-02 -2.7168416179589516e-01
      -8.1923011696328471e-02 -1.7280905575708876e-02
      1.5023629320993984e-01 -1.2359088303793869e-01
      3.9327894992288323e-02 2.5648556726953886e-01
      -1.8235853216088860e-01 1.7172282594655608e-01
      -1.8461700234297489e-02 -2.8038989949960946e-01
      -1.6890499842818643e-01 1.7653812987307274e-01
      -2.0652014813288669e-01 1.1968944695174513e-01
      9.1983969457512717e-03 1.3832441232001860e-01
      1.0777671175871049e-01 1.6305538572196984e-01
      -4.1009412518892438e-02 -5.5841418363770823e-02
      6.2178985993545294e-02 -1.1546963342389948e-02
      -5.2551117804392929e-02 -1.4600243277053387e-01
      4.7183307282122988e-01 -9.8944319401350816e-02
      -7.1765071763108368e-02 1.6843446946581447e-01
      -9.8072363667153162e-02 -1.0736875847041076e-01
      -9.4558476327196286e-02 9.0754484129974305e-02
      -1.0089787956598231e-01 -1.2545925213365186e-01
      6.9790814857254163e-02 5.5793635937717518e-03
      2.0378792284482569e-02 -1.9708249599722716e-01
      -1.5569732260471122e-01 -1.0341015077124016e-01
      5.0737057741353881e-03 1.7199520701012064e-01
      -5.6290964838899442e-02 -2.1331830703579340e-02
      4.5238754216635257e-02 8.7943578440859843e-03
      1.8753456344227001e-01 1.0583168669195546e-01
      6.1642935187531597e-02 -1.5605114646146498e-01
      -6.2610062131779928e-02 -4.5517998946959820e-02
      2.1854850268885070e-01 4.9131202361001422e-02
      8.2113997461136096e-02 2.5603387228656543e-01
      -1.4910087486448958e-02 -8.6940253660169706e-02
      4.1552141641683644e-02 -1.4312102667776247e-01
      -9.3848367662750218e-02 -1.2914995101851189e-02
      1.3072763812293145e-01 -5.1675138936678931e-02
      -2.3758503268764528e-01 -1.0682387245307751e-01
      -6.7055614650242484e-02 1.3443992380206016e-01
      -1.0118851352252589e-01 2.6257281687983500e-02
      2.2415289360631746e-01 -1.4850570213035968e-01
      1.6104894541785414e-01 -1.5699154073970014e-02
      -2.3240089356406490e-01 -1.4870357396719505e-01
      2.2873642719714157e-01 -1.7329824056502988e-01
      9.5223291432510043e-02 1.2543639370309232e-02
      1.2394991504705204e-01 6.3649232977373890e-02
      1.4013650114274592e-01 -6.8202551381799342e-02
      -4.0915167619206862e-02 1.1158206784363772e-01
      -6.6236768893444004e-03 -5.0902767191886175e-02
      -1.2849049512428437e-01 1.5355502311493407e-01
      -1.1626935383604207e-01 -1.9259157802632929e-01
      1.6471336607414783e-01 -1.1830595527331417e-01
      -4.7699159765861171e-02 -6.4227725810978922e-02
      2.6437514607058793e-01 -1.7920374308210141e-01
      -4.8792079035468686e-02 1.1370977226810543e-01
      -1.6693320335315182e-01 1.4242067323769301e-04
      -4.8131900875920862e-02 5.6701915213832770e-02
      -8.6749831568643659e-02 -7.5352694139328236e-03
      2.3298172358543170e-01 2.3682269222550633e-03
      7.3483635134948710e-02 4.0896346221603673e-02
      -1.5908508328626084e-01 2.2697453341899754e-01
      1.2205176103796282e-01 8.0317154700968271e-02
      -1.6098741688480811e-01 -7.7502082154870616e-02
      -1.8051529717023170e-02 2.2995207310570942e-01
      4.4703653892677712e-02 6.0634398309841263e-02
      2.8535106340403776e-01 1.7152682499442452e-02
      -8.7342157609667168e-03 6.6068519838855385e-03
      -3.8688875824545325e-02 -1.1986966246193255e-01
      1.8392789300528924e-02 4.7815714124231898e-02
      -2.0126624115934599e-01 -1.4973005171977022e-01
      -6.4979477560330831e-02 -4.3883563844909435e-02
      1.2604708808894885e-01 -7.5888346641245621e-02
      8.9511965352152986e-02 2.1667475683607665e-01
      -9.4175840025332344e-02 2.0453254622501785e-01
      -2.3287764280828120e-02 -2.4907813628503039e-01
      -2.3761715099215197e-01 2.1011954090420487e-01
      -9.7257667640136089e-02 2.4947338556961862e-01
      5.9653263023972850e-02 2.8674635376558514e-02
      1.7590620801877116e-01 3.7088441495237476e-02
      -4.2593868642612415e-02 -6.2140159608339032e-02
      4.8698921623243505e-02 -1.7147739238109343e-02
      -4.1071312720096106e-02 -9.7472886119126315e-03
      -2.3195401836828320e+00 3.0171971199778838e-02
      4.5852959793335661e-03 1.7421757180171946e-02
